416 128
30135 0.03017668469182368 -0.04741652914368544 0.03497973785597375 -0.017433644459608495 -0.003734927628081652 -0.011960414837020393 -0.010008030493028687 0.01646164072017103 -0.0024938124598706543 0.02409258442771336 0.0028687010616211296 -0.015714101579676065 -0.009978340162648742 -0.018272657239685727 -0.004672359613355282 -0.006229252689771075 0.03015686445293169 -0.0002689772338997676 0.01591883097218744 0.011794606341886959 0.02146662668286064 0.013480414950123908 0.0004457708261225256 4.2653793275164415e-05 0.003125351985435372 0.0017823302001662496 -0.0015032087920565233 0.03987667052867789 0.02062384284870765 0.006899888376226457 -0.003960025586751355 0.0002239844012195376 -0.015463143032605958 0.0007863344914398371 0.03400500847728381 0.003786729976999674 -0.0018742915828804147 -0.00116493506819484 -0.0026120795654401654 0.0029999095977870315 -0.003841438516297817 0.0009260513467782797 0.000941443047414091 0.001786295137244034 0.05402389725116819 0.021499275961736918 0.003652076208610717 0.0059975924623495245 0.0015103305386116094 -0.00041735192245278885 0.007512755000180541 -0.012378960736633419 0.00029024662402937106 0.00033354343128513114 0.00010587850334417167 0.003404721534151608 -0.0007347072805940526 0.03387109978934451 0.0014552065878902995 0.009538553840461044 0.0001243569331263937 -0.03744197423803671 -0.026083761178835516 -0.0054020422465647575 -0.007212707227524215 -0.0038073508453877673 -0.01884052899703784 0.004006797416230067 0.025575117774136475 -0.033242965203480385 -0.03324605569399378 0.004513049778104622 -0.004548604158132416 -0.01642138551249278 0.0008271561169895606 0.0050035475904059105 0.0047636358724263365 0.006259840836280794 0.0009680191646118945 0.00010399351203739048 -0.0043035136066170475 -0.016256832807070586 0.0016242121862247855 -0.011577391454195458 0.011087382265110742 0.010699734163464019 0.00018150730664369833 -0.017455370209853664 0.011562166843656909 -0.03348167518163693 -0.017271350831399638 -0.014958704412057384 0.005370839121564401 0.008551855337623994 -0.0005561702341571505 0.030028058862132893 -0.008077207848843453 0.021359017096543524 -0.03848135152429988 -0.017392569469580368 0.01757548383398838 -0.02400651102505313 0.03373977792881164 -0.030690852813425644 0.03648756837318762 -0.029690466223043513 -0.023013094209314876 0.03838471039192723 1.4089433907062626e-05 0.07114231589529008 0.0004818400020578009 0.1148141183581871 -0.05693640619597893 -0.06349083917797621 -0.1218520165502294 -0.13832850463614937 -0.04329065511107146 -0.07337918494251044 -0.06067345468304938 0.05051300771272512 -0.04964042847102398 0.20821293639119726 0.08156532340813807 0.051564995502091975 0.0954407755605925 -0.0005746911573934491 0.278566201112742 0.33211535082577764
30397 0.0399852098781212 -0.0762266915288182 0.030072984253980722 -0.10620570464479054 0.040432856606942895 0.06728034338771378 -0.036233894711593634 0.07779387251674164 -0.025687870715484836 -0.14939279695953184 4.488020286801393e-05 0.008618759899402811 0.0022107015877976676 -0.030162563470556347 -0.012506596413474977 0.03470343788778091 0.011199537917726482 0.0001825898818464508 0.015069350766193071 -0.0021706594034210614 -0.01650775234937966 -0.004417217989073856 0.00010333063974811478 -0.00030124064399935974 0.0013029409642248302 0.0005740339890812758 -0.00033769417637818846 0.01674638656242623 -0.009562276033012435 -0.005462446124427177 -0.0140734097157634 -0.0001669302602222996 0.0008933018427306486 -0.00030113493709197584 0.0006383259386143639 0.00039776034088344104 -0.00033391236512331056 0.0016421773364191916 -0.0006283297300891913 0.003646046995574893 0.00039206782562684024 0.00016095030355073794 6.133793219875284e-05 0.00011218614095299397 0.003355245087274003 0.00195744675411058 0.000832567031017232 0.0033212655689830012 -0.00012296165902433862 -0.0009143480208841716 -0.00027234581272817275 0.000335975139200726 7.033722320811485e-05 3.722648150325542e-05 -7.55945642264264e-05 0.0001244299266313875 -0.00010315648825165237 0.0007493126037869177 -3.7423426196807044e-05 0.0018533446224599604 8.866503668743705e-06 0.0005352724485103198 0.0004160408833625149 0.0001922224814452316 0.0002957261217743518 4.958108365448237e-05 0.00029747605045657 0.0005117715135101658 -0.000305936653817971 -3.762552611152018e-05 0.00026264217231262125 -5.4499991752183335e-05 5.385809347260216e-05 0.00026639970708915574 -1.1907851666353011e-05 -0.00013714502725247234 5.955321078886655e-06 0.0004096845345728149 -0.0001809936527219802 -9.837356925977517e-08 -1.5690086692839723e-05 -0.0003143826293469237 2.3926728647682963e-05 -9.115878968498198e-05 8.596780742815342e-06 6.048453665931291e-05 1.4264881196243776e-06 -5.3054068869247704e-05 0.00013348884915036091 2.5657871967571097e-05 -4.972750095755478e-05 7.482676388013245e-05 0.000808648327863161 0.00039512676930658684 0.00023571578058252015 2.0056341976371844e-05 9.289174948914251e-06 0.00025165912433961635 0.00018372481221539725 5.4051560218933426e-05 1.685600446434655e-05 5.545798208403792e-06 6.561440384325332e-05 0.00010273106385152265 3.477714898780185e-05 -8.193831439798845e-05 6.472095912614591e-05 9.702886660116972e-05 1.5706975627931482e-08 2.092038348972241e-05 -1.7461985839275696e-05 -0.00022204939266692856 5.217085107120615e-05 -7.291545954116901e-05 9.74025658526393e-05 6.00502683357132e-05 1.1427937350443057e-05 -0.00013743003692553117 -6.141238163572608e-06 0.00012120006710173621 -2.9647558324063343e-05 -9.542875778843027e-05 8.62713282900581e-05 0.00015215909095019447 9.210069447393317e-05 5.32604976453162e-07 -6.228401431966799e-07 4.769035487496002e-05
31057 0.03725044973476111 -0.0669337348643412 0.042180157633791925 -0.06980886185665543 0.027261965269062657 -0.007058478686253386 0.007294270014790312 -0.034617648206798364 0.001558247369317783 0.24781862756366646 0.00016383018077405714 0.035701182749210865 -0.0505280510949484 -0.027073159962896658 0.013501665911853396 0.011679833834607672 -0.05979405387656199 0.00031140101095259354 0.01040819110850411 -0.016225904833513875 -0.022806075280448992 -0.010294473239747184 2.777763639255484e-05 0.00019725361479570487 -0.0014718148538720652 0.0008418213377561273 -0.0011183463602974751 0.011673512930483175 0.003181279692925606 0.0009016250640211219 -0.007840841319697393 -0.00010715318071328023 -0.002518592889746206 -6.233725933787768e-05 -0.004817495509155419 0.0014447196764946946 0.00025263173948313105 0.0003400220880553452 -0.0004350163602000668 5.5580437696945975e-05 -0.007423748625842656 -0.00014272465068752957 8.87544278852357e-05 -9.302452168621164e-05 -0.0030285435370763247 0.0011268325630503057 -0.00044727313289284873 -0.0008394646150672584 8.421212363398596e-05 -0.00021965605702008295 -0.0007403465627557708 0.0009171443930197104 3.5523764293462496e-07 -1.2997116912578847e-05 -1.0894636453837244e-05 -3.3576564448924116e-05 2.1877935359521374e-05 0.000460148865212297 7.744654813291519e-05 -0.0009301666344882308 0.00017048298746590233 0.0007646587055459819 0.00026269030922028327 0.0002744398042810728 0.00045526998219099657 9.826743151066668e-05 -4.667187383299338e-05 -1.4426262947819162e-05 0.00029418415958980455 -0.00020462149004888444 -0.0003892558263285077 1.1064879048094503e-05 -4.6011385672344054e-05 -0.00020805085675255455 7.504159725723679e-06 9.51066770888496e-05 -4.7108661481674574e-05 -0.00030050141222170946 0.00015209052072271532 -4.209665119511207e-07 -5.972249255131166e-06 0.00022379406291367135 8.845876792746803e-06 -5.8829308358765255e-05 0.0001892571654975974 3.422180325088348e-05 -9.78632064452254e-05 -0.0003545853377169417 6.505545203838765e-06 -0.00010994742392913115 -2.085034213512838e-05 -0.000279246259062961 -0.0003829172995818656 7.018175808376475e-05 0.00024403128361896265 -0.00011366647219834797 0.0001168804434610863 -0.00011241000708072352 6.466164709015537e-05 5.4679526528222724e-05 2.8295938855157628e-05 5.199844685858776e-05 -7.447366882611327e-05 -0.00011871659750084736 0.00012351906203641433 2.861364074879055e-05 1.412384895531449e-05 2.236142180817928e-05 -1.9015438926009616e-07 -0.00011865596254262793 -6.887513880016902e-05 -0.00016912054585866172 9.529154150970158e-06 8.109889280271284e-05 -0.00032274846768719505 -0.00013816193334094122 2.7281762794159402e-05 0.00043425999673898604 -5.623940556211713e-05 -4.474297194615452e-06 0.00010224279082470771 0.00028163039224200683 -0.00019504490664717567 -0.00035196352725700905 -3.192393872915205e-05 -1.2635217933072276e-06 -1.7657588808342517e-05 3.6518189025810614e-05
34100 0.023792167044189856 -0.02703824177172868 0.024178945454269466 0.0037727289772894203 0.005408355395626498 -0.02796487885630026 0.022421670534495893 -0.0444625592234428 0.009315110022925349 0.023618526134970248 -0.0008515604068795991 -0.03443475860261195 0.03225677877420831 0.011559843783666745 -0.0075018820467149475 -0.09428387190340679 0.29779928148657236 -0.0017122853994521606 0.21083869277287454 0.028491384007983723 0.00895406385493538 0.0012116990703697093 0.00011302231811405557 5.510792118553682e-05 0.0032437865512957766 0.0023732830376223505 -0.003906313565449241 0.046312480248895956 -0.001739017317788009 -0.0011048975856890824 -0.02445837109093949 -0.00023611634837014862 -0.011596719889352835 0.0005507522524717065 0.0013194729790462132 0.0010698930314547257 0.00018300916922478933 -0.007653837155543831 -0.0008335012030745976 -6.076590841073968e-05 0.0011083386518597731 3.084823344851856e-05 -0.0001839586587697347 0.00012913071467679957 0.004806664385791447 -0.0010038630738688735 -2.705260682175229e-05 -0.002061323975182385 -0.0006984082324437146 -0.0010581036523726072 -0.00027258761536542135 0.00024264257438442942 -7.386394902106991e-06 -5.473091704593621e-06 -2.5445797299604493e-05 -4.75670838788849e-05 -4.255376470396136e-06 -0.0003137905753349853 -2.221171266485594e-06 0.00010982384643544843 8.000850001140232e-05 -0.00010813989456524475 -0.0001753543062483829 0.00013644141944185368 0.00032969131423091647 0.00010225427620061231 -0.00010072871506582833 -1.0556013458899314e-05 0.0001363652110399009 -0.0002213995958378568 5.439821031626354e-06 -6.14417863653744e-05 8.058206293186311e-05 -0.0002937256643392879 -2.551271477036882e-05 -0.0007558943205762724 0.00024797697669968143 -0.0005041543380985742 -0.0005370483216329307 1.6834845782865614e-06 -2.284566660084411e-05 0.00024971192384421994 -2.68108276654658e-05 0.0004241530454786323 -0.0004958474571543083 -0.0002489475840385063 5.612870849858355e-05 0.00046981604498391835 -0.00038783062517033426 0.0001372237783028428 8.740633828951212e-05 0.00033152147519088874 4.508446479285784e-06 -0.000100213663535549 -0.0002893373145081729 0.0003713862956481906 -0.0002027881459510943 0.00018439446654697282 0.00020467624653654665 -0.00010548545441082175 -3.969206973561986e-05 9.97920078308688e-05 -0.00011917575948021058 -0.00022183864481751842 -0.00038677649864054403 0.00015041473422269027 -0.0001739089068861468 -0.0001300023243137172 -2.1835632645148044e-07 0.00012437111650153164 9.668121291861384e-06 0.00016324310914758697 0.0002744476870781451 -5.2423016652460365e-05 -2.2824657519241487e-05 -4.531194695801802e-06 -2.917153932380596e-05 -0.00021131677837183066 5.6429858666029235e-05 -0.00012764969863205872 -6.484736498676253e-05 -0.00018079544369689314 -1.2298830642707611e-05 8.043693004437886e-05 -0.00025988791901634955 6.060043096630632e-07 -4.224710375596562e-05 -0.00023658819640264285
31295 0.02081645487526489 -0.02321844486621631 0.03707329000883241 0.048458336493233334 -0.02141957101671452 -0.014597226163842599 0.013059074439657111 -0.034591251684835955 0.008620715389586283 -0.014579190667138406 0.03483414594092022 -0.29320685676779074 -0.05970451831302763 -0.05103575275551456 -0.022684133794471987 0.03552613956905029 -0.058202362642074894 -0.0007609654023318378 0.008223691091023262 -0.010498128377686586 -0.011294354282218562 -0.007645950885918573 0.0027529122120800945 -0.0008939403931880037 0.0025666375895510296 0.0007169097576069251 2.428369761634669e-05 0.0206053823973965 0.004887185457564054 0.001006741804633057 -0.003968854814413103 -0.0003725663086489582 -0.0037801662234292766 0.00020454572316787664 -0.0038924402364865487 0.0009429410504295052 -0.0026947313452371385 -0.0014743001118680695 -0.0006723746334911573 0.0002732974764736453 -0.002513889191560785 -0.00013997648966645342 5.846725238385739e-05 8.536119741743468e-05 0.001853157004245725 -0.0019162010542194048 7.255938758526741e-05 -0.0009615910136790937 -0.0001932572278555013 -0.0005516452087843872 -7.814635731696502e-05 -0.0003895800504163404 -9.264567513945722e-06 0.000184784925644759 0.00022410686634890935 0.00022517481162035512 -6.138284751288629e-06 0.0002688179789846159 -0.00013690624252175982 -2.2298794244546145e-05 -5.688662441061873e-06 -0.00031495948047441976 0.0005380013441548298 0.00012088730754515999 0.00031103677944208227 -0.0001428937008067165 0.00011788326156470746 -0.0001520235159240189 -1.0141661545087082e-05 -0.00011119384551698559 0.00013178297018257113 -1.3598767277312315e-05 2.3493326677747926e-05 -0.0008685066349642385 4.613979770886964e-05 0.0011958982567930128 -0.0008436193938325977 0.0016097503291342026 0.0002465432084843093 2.1750137354078903e-06 -6.155363347066897e-05 0.0005078760359644474 -5.442953150199264e-05 -0.0016334942367220275 0.0014809028098098113 0.00017779105468016882 0.0007788310830194226 0.00030717844988927163 0.0006258688842850947 -0.0005285688807555063 -0.0003980686275163565 0.00035995981229095653 0.0004638222083500241 -0.0001973212120997975 -0.0005611678348572198 0.0012437288066980724 -0.00033586773272606136 0.00037386718107654303 0.00044304709265740574 -0.0004846396545267878 7.816034004663466e-05 0.00019628125426941032 -0.0001835738423308625 -0.000503812347766398 -0.00035526511241830395 0.00043739682712883737 -0.0005989921319586299 -0.0003624565743738361 -7.981759044380447e-07 0.0001946760438682226 0.00022119962537710944 0.0005847025827096929 0.0007703963467161079 -0.00027903866137985286 -0.0003739549137579715 -0.000273940838564785 -8.490931896462806e-05 -0.00010890038443222395 -5.874509818646955e-06 0.00023867295838786147 -0.00023789206141905438 -0.0003475050880605775 0.00011097909547324625 0.00023769997857964385 6.67118275131187e-05 1.4513421061188392e-06 -0.0004714052148167389 -0.0002952324777503972
30977 0.01940866215522981 -0.021515466465602436 0.046338185127091064 0.10819246326216554 -0.101312839170083 -0.10337359578887023 -0.04798830526817022 0.09929824869082665 0.0059576285300622246 -0.007529640487738322 -0.0017491806620961172 0.0760305726409691 -0.005408120433887859 -0.019388730800709197 -0.003400941998105118 -0.006081471166578126 -0.016277527776325667 0.00032617754440925436 0.01588500103280955 0.010924966969975984 -0.02368724838376149 -0.011509018668335305 -0.0035178559824519517 0.0018282451495282436 0.0013699783738460563 0.0011703862361451608 -0.0008391292126641811 0.018761121608878273 0.009807618627984963 0.0008497603485104921 0.000984032406429105 0.0006803137184984455 -0.001152846117781972 -0.001074308195294606 -0.013535109900213626 -0.0008327529542749717 -0.00310981878522044 -0.00206381453405504 0.0002699080944603957 -0.0007987944791634502 -0.001952609042243861 0.001092005503629132 0.00022654820024520166 2.156258638683262e-05 0.001068551477995319 -0.0020863706718042495 -0.0003682076933505337 -0.0001132862498784341 -0.0006856080714001699 -0.0003955020343831462 0.00020870001388417374 -0.0005294475736718397 6.189951789861494e-05 -0.000220580410075867 0.0001788467592734426 0.00038333901971547855 7.084236469998165e-05 7.311559679756478e-05 4.092021804427803e-05 -4.666712790779695e-05 4.1275069678822716e-05 0.0011927304303958565 -0.00286035216492383 -0.0012508282775583056 -0.0014223086683067938 0.0003827018988237928 -0.00034796411825894125 0.0006173820294037779 -0.0002838081422229492 0.00021979757217334482 -7.223156145656084e-05 6.440422970070301e-05 -8.944604407220723e-05 0.00023933445403292807 4.530718825431893e-06 -0.00017889078500801109 0.0003559737445174161 0.00027408868298256007 6.093797537813742e-05 7.046136331863866e-07 -9.17028850452475e-06 -5.3764973352031945e-05 -3.742741674352346e-06 -0.00014498845033745586 -1.6639957554133632e-05 0.00010007523549926475 -0.0001359389770728953 -0.000460094809516337 1.0508926867640747e-05 -0.0005942269082361609 -0.00031485432002128475 3.433739937401776e-05 -0.00018761830404854103 0.00016568587594398344 -6.914441892128846e-05 -0.0002389304223202781 -0.00016398064370452806 6.429960984063826e-05 -0.0001341873390775957 0.00036782885472289213 -0.0002889088367582303 -0.00012055560587898511 1.310957113020382e-05 -0.00043694665807811095 0.0002787461333665556 -0.00021716132268254548 -1.4585050728810555e-05 0.00019265023269877772 -1.3161232731288318e-08 0.00010357645388313847 7.896212138429441e-05 0.0002552067470932206 -0.00034256894527177114 -2.5168063096276793e-05 -2.5319995128308108e-05 -0.00015818126397060104 -8.666230937144455e-05 -8.521248560884316e-05 -2.0885538336238527e-05 -4.438363344831961e-05 0.00016112459828962597 4.503112542382599e-05 -2.261850031467194e-05 9.192234826503541e-05 4.353657085138499e-05 8.063230591869385e-07 4.857700782862466e-05 -3.844209344194439e-05
31703 0.022296000027412225 -0.026363689403176422 0.029360059786421564 0.007158619380399844 0.017221539542287032 -0.03345220510728136 0.03874712398510327 -0.0692524119271239 0.019387110502524747 -0.0131874899561737 -0.0038302548492838828 -0.00957684555785798 0.021205867495728593 0.07948086268248244 -0.00021206102602968436 -0.05920525187475656 0.08590454874101279 -0.0015543655204361252 -0.24734322543619666 0.08902085297440657 -0.1294935907136054 -0.08382503787545371 -0.002756548372553775 -0.0008237316615805119 0.00687005466075769 -0.00111237108668558 -0.01198264302597058 0.10559094441200273 0.05473503322038741 0.01649230272217425 0.0347120453242903 0.0012700331433168107 0.186616435011874 -0.005329405670112344 0.05276408737919845 -0.0013162104314050206 -0.0006411276062344442 -0.014975325059670141 -0.004139530275930599 9.820907468662947e-05 -0.0018317070861396073 0.0004809242031685196 0.0005164583085972459 0.0003505765819121704 0.01159460572143415 -0.002968934993275267 0.0008287853361681544 0.0037203276135232906 0.0006267799393150996 -0.0003998250592987645 -0.0016709609692495643 0.001866162490984173 0.0001424712096210266 -3.0544794235113215e-05 0.0003307722957120594 -3.7501584026631434e-07 0.0003883234097353373 0.0008585338610648258 0.00010337536543186197 -0.0001608358622010451 4.4637810571827405e-05 0.0010176533223296854 0.0003544035645343307 0.00024406995648785203 -0.00025406583463684243 -3.312997548748521e-05 -0.00029794662024644686 2.9205601831422638e-05 0.0002805142327211952 -0.000530691315407186 -0.0005479065601494163 0.00010478500431439473 -0.0002737621868384326 0.002059602806972186 5.258926396720577e-05 0.001847896679236218 -0.0003006654236448745 0.0003479341275660374 0.001454231849705222 -4.585426318466306e-06 8.735355402176294e-05 -0.0009737813807707894 0.00015704945513188127 0.0015061495823547474 -0.001808716567925448 -0.0009292197330620595 0.0029109301922928205 0.0008064894225162599 0.0024208306471436795 -0.0006604064097497201 -0.0007001799691907628 0.00016392754970382783 0.0005970159338799438 -0.0008126355527916702 -0.000797379975287899 0.00015336943637587545 -0.000872767173065857 -0.0001893437196766978 -0.0019294598572333417 0.0006437890142466701 -0.0009510378020042174 -0.00010813605176051949 -0.00017376088865518602 0.0008681369119368775 0.000835286507537155 0.0005906006242650173 -9.164200936867027e-05 -0.0005597615965831685 -9.765138076391307e-07 -0.0008438773527652235 -0.00021359441418595192 -0.0002490249813416769 0.00010085704917093283 -0.0001501806806222653 -0.00040137080486521594 -0.0003853963932034964 3.5535121199467154e-05 0.00019126017179094064 -2.7153953323167223e-05 -0.00010650036967951976 0.00012197345014327586 5.22722200106899e-05 -5.323566722260766e-05 -9.635980676895536e-05 -0.00025953263116250023 -1.0054061584513977e-06 4.846337519201973e-05 5.010814620301281e-05
30721 0.022579085694812255 -0.02786494213071787 0.03604696622103966 0.017872411964038482 0.019318050296224038 -0.06861435370493713 0.08817937820889053 -0.18270802946911846 0.07921288696207723 -0.09507130568970633 0.006387877428493436 0.08823670385645745 -0.023827465203331528 -0.0786266596134938 0.0007072468366622749 0.034883668776331145 -0.05640621956183088 0.000405870034000444 0.05830817390181209 -0.022901200869417274 0.027989728797547363 0.012887541074972591 0.0004254363717394785 8.884682363312058e-05 0.0004445101244770553 0.00033624326396298115 -0.002027643544622251 0.009542445689026775 0.00585328466190013 0.0019089730966453144 0.0050085264552147575 9.429804529073371e-05 0.006947974251730679 -0.00014192657672484272 -0.0006205957694171858 0.00018863608182861184 -5.380136358956262e-05 -0.0007290983187489826 0.00023516569173293167 -0.00026123394196795956 -0.0008962072593063194 2.1389541832258784e-06 -4.143616489617296e-05 1.426792070673841e-06 0.0002465645803748994 -0.0002385866329225604 9.447829172504378e-06 0.00022854782242120506 6.39619726140709e-05 0.00011396507807215943 -2.2749566513140064e-05 -4.7537916145468816e-05 -3.583583216138748e-07 3.7967205465306693e-06 -1.6774735560432176e-05 5.507495901748076e-06 -1.1977493693946988e-05 -1.9930574479295447e-05 -5.746093219235496e-06 2.76271211846874e-05 -5.965103782965224e-06 -1.2215047165726805e-05 5.957845044778937e-05 -8.51602232231602e-05 -0.00033789346804191786 -0.0001629836507195561 -0.0003252001870279117 2.64239016365013e-05 3.625227729066258e-05 -0.00012313598924829693 0.0003233305582193603 -4.83132058969704e-05 0.00014111873815293477 -0.0013523160472181889 -2.0164941110475478e-05 -0.000905013329893003 1.0508406004731376e-05 0.00037698457390187965 0.0005088194620242919 -3.903653291106024e-07 -1.6033823603748427e-05 -0.0001409268308932387 4.709413242946478e-06 0.0003561730260232922 -0.0002059306479522325 -7.145946892495035e-05 -5.762085510707905e-05 1.024016229648147e-05 -0.00020950398790082927 7.671140176479352e-05 0.00015079961365284608 0.000248526741915768 0.0005215602667122869 -0.0003325327562171504 -0.00043356588149619745 -7.696852131313429e-05 -0.0005310232002572813 8.221408360523371e-06 -0.0010761066370555234 0.0005942928427754578 -0.0005969660364889709 3.328946160582578e-05 -0.00015522437283184654 0.0006558537757663812 0.00010826538209833987 0.00047486828687678045 -0.00010749653940382514 -0.0004659800496706812 -5.977379771810484e-07 -0.0003003036952008758 -0.00023441243626208422 8.359065414181171e-05 0.00010823403638569999 0.00010505454830193212 -0.00022747102400170568 -2.0647287251730846e-05 6.686469574084703e-05 -7.068855822898143e-05 -7.110685837853706e-06 4.464971021039878e-06 -1.6966790709993283e-05 3.5731083013435317e-06 -2.1116316015389908e-05 -0.00015044789646980307 -6.127746236465655e-05 -1.002702192684391e-06 0.00010027061993489933 7.021481490861352e-05
30529 0.025461155331432367 -0.028239864298889014 0.0278908468067684 0.0012632005006513209 -0.01389653569839966 -0.008318073571898977 -0.0026735042973701365 -0.0013992299931431342 0.00019818014515516122 0.012367198653877587 0.0025286418335176224 -0.008425746345009097 -0.0027932061238859097 0.008875389242119891 0.0006790603046297044 -0.008034623965078747 0.017249949312411944 -3.183110665219489e-05 0.005315132319714824 -0.005470847944925914 0.0008378688449195957 -0.0012894136694689593 -0.0003495398352918378 0.0005809242389530232 -0.002255284570089621 -0.004653705955818673 0.01892236932651475 -0.10444119632302014 -0.04765129682801917 -0.015706880428112625 0.039218866131811754 4.872283989278792e-05 -0.013496378855328853 0.0013153174634892803 -0.018405664487309466 -0.0037630375758263414 0.0029985345823663728 0.037295673623374506 0.0005989981723768516 0.0075866449011881484 0.05515227107592282 -0.001530034078428228 0.00488137917946798 -0.0008094528712986992 -0.029725258863897736 0.03491271041594395 -0.019315987354721807 -0.044131460745434184 -0.0038554970435901647 -0.0007837746877309139 -0.004254782628106593 -0.0027513985876533482 0.001789208805296418 -0.0009105296766576862 -0.0011895117382657392 -0.0014407953245151712 -0.0023971097851102543 -0.004082788381713447 -0.00015325265878433426 -0.006003851231501193 -0.013316721460393902 -0.030379477909342437 -0.004304134897230882 -0.005125017456894983 -0.013011620934899054 -0.009051050655574565 0.06464173348623559 -0.011664766194254538 -0.09421410990397926 0.09665513765032131 0.21921143432560014 -0.00661090484330963 0.028874951914660003 0.06098061920608298 -0.004481695181764089 -0.0458754676177911 0.002219577672771762 0.11029126111703434 -0.09941770098563046 0.00031698023534008034 -0.022261681617529238 -0.12589295288590435 0.0361545105530557 -0.09263469309071246 0.04562612056122835 0.11761535289134721 -0.04668160649390469 -0.2779036014905107 0.22496909720933603 0.02109994366645763 0.011656930879828048 -0.19735174776060094 0.03204471923968337 0.034443945104864496 0.018825830768679594 0.08165466019021696 0.03096885689027967 -0.03098099801227331 0.002638785859969854 -0.009940432861020353 0.012963973384729294 0.024568965262270082 -0.008585217892607895 0.09244728286898783 0.1265542848293641 0.08403470386732381 -0.04472680914136051 -0.06849968542653326 -0.00013267886747906 -0.05613858413059577 -0.01175919419068712 0.004165995483128621 0.014117842137839235 -0.043870665331687965 0.03997815708429675 0.006482667073734053 -0.01561280096305452 0.09189047349958722 -0.017181110475845397 0.08212665555399039 -0.05834921571032681 0.061805486311721294 -0.0277847069780737 -0.10842213118957277 0.09781778066694916 -0.00038156059716231295 -0.00928116397024636 0.032671160176190775
30198 0.023956645028478097 -0.024240551081498484 0.022407987926304468 0.0009106838880250314 -0.0036602372231616066 -0.022359982704934934 0.008430441980990596 -0.015517448129426199 0.0066417182896669645 0.004319672983120138 -0.002485009439685549 -0.010135605281394382 0.11029739064171282 0.2665230438424076 -0.03891153021291311 0.15025943429440586 -0.058257505249825974 -4.863596305140466e-06 0.0801103334509058 -0.021323296715031827 -0.0006021512104262315 -0.0011539145104164114 0.0009651159651382999 8.621450489677723e-05 9.625717364679948e-05 0.0015439062116689329 -0.010402654498128149 0.10426970999618494 0.04914830127031056 0.01371851825907559 0.0038302357113354493 0.0005483248024639422 -0.00669071096866214 -0.0005620990905756274 -0.015593606498302461 0.00219520056997485 -0.0005892312312112105 -0.0026968634686251516 0.0006886229408813901 -0.0004076269904390709 0.002821671603329653 0.00011712897658785292 -0.0006573752521754334 -4.411492787585193e-05 -0.000370375460328308 0.0008970230776814236 0.00012812823547140865 -0.00015527691521460298 -0.00021107816999665696 -2.3909781384684655e-05 0.0009901204370371508 -0.0008997422562597807 -2.2063466691342122e-05 -4.125855606066311e-05 5.5544515591596675e-05 -6.490443010706676e-06 5.462235429331086e-05 -0.0002653048117910498 1.762894325620728e-05 6.896450960197002e-05 6.8923115630482e-05 -1.3338249613957374e-05 -0.00043817949063138423 4.769616934353608e-05 0.00024626877946603746 0.00010391820911934798 0.00011475331842584749 3.6916557731203292e-06 -6.637909017124366e-05 -0.00013839469926139807 0.00029883999466909667 -5.4593560128202986e-05 6.364141218752784e-05 0.0005781185512411698 -2.5707065602399848e-05 -0.00047815427725043973 0.00018536375291525038 2.17685945321292e-05 -0.0011729933077839635 5.223141362423314e-06 -0.00018662135171540115 0.0014668684691660464 -4.774358597520673e-06 -0.00030816621398786537 0.00044397633946623367 -0.00013938737958240388 0.0009721121172832585 6.541339574355742e-05 0.0005852791266629297 -0.0007675494431279055 -0.0004862221914707058 0.0003818654113913023 0.00039383774813043674 -0.00034699352692491963 0.00015208428672397204 -5.9325070960203986e-05 0.00011243855355542356 -0.00016014996730843157 -0.00044606500940067825 -0.00010611134389948868 0.00013065888381595157 -0.00017112049797283815 0.0001853821586653197 0.00011505929141599642 0.00022874861565043593 -0.0002391593125840505 0.00019890097235182675 0.00017577698555108453 5.439391604656175e-07 -8.708406713979849e-05 -7.653333157643862e-06 1.3119921555295041e-06 -0.0002323343431241288 -7.127099188078069e-05 -0.0001996853035391223 -0.0002163061600744532 -4.855366109499602e-05 0.00019249001243892678 -2.0243810042134497e-05 6.726749396621814e-05 3.293213416222882e-05 -1.710533497002577e-05 6.982501446312223e-05 0.00017920888417057284 9.248758856237132e-05 8.272967458565364e-07 -0.000136082266671883 -4.269095440119705e-05
30434 0.028564616068788105 -0.043482027743608015 0.03869867024842234 -8.824861995517835e-05 -0.01245620740210865 -0.02916607627358589 -0.004263310617878957 0.0019013649748089241 0.004297335115442852 0.06493219358224862 0.005546747200047015 -0.024346728721576717 -0.018718336554672567 -0.014026183471823037 -0.003924124092654569 -0.005079555168035223 0.025301735212518807 -0.0002614967454483134 0.04770874803500206 0.0011940018296865897 -0.013837168383374366 -0.007184691717317013 -0.0005001023295756604 0.00042149793985887536 0.0016239750078645525 0.0005823250009788759 0.0057617233307486705 -0.028564656947419064 -0.031498556139855555 -0.009963163570848628 -0.02011650906401027 -0.00043868939573011835 -0.0017175252000833827 0.00045711414942608186 0.0055837050176657296 -0.0007917489945295809 -0.0018868478277089865 -0.0011417156801570836 -0.0025170287943258127 0.0015234163452493422 -0.015906692796826476 0.0005961831047521899 0.0016670560368009966 0.00023155107568188795 0.005663266636077284 -0.0049768736528825585 -0.0009168592182881941 -0.0013052369603109358 -0.0008182701767096941 -0.004433538769848799 -0.010382358601675485 0.008083887330171234 0.0005989836081270498 0.0001959245661666389 0.0005274547406535101 0.002660469547804487 -0.000529110585835633 0.020572040622624698 0.0005842755644694756 -0.0026778785576273487 0.0022645787265964546 0.011867523795851464 -0.006488628324005705 -0.0018372619698965025 -0.0043447404207685265 8.063074781315085e-05 -0.008799563863189402 0.00517465915006754 0.007467982177583808 -0.011226909148954611 -0.010866341821233645 0.0002796245628124949 -0.0011359246565281133 -0.027807901732457813 0.000743822702110618 0.007931565385721633 -0.00868161887499944 0.026350791621251528 0.021509607316559425 2.5675012220841754e-05 -0.0016063173520501658 0.00321789080163494 -0.001003087799718267 -0.03998591464703174 0.04689697188303575 0.008292843950979241 0.012060231712835073 -0.007307716749194483 0.010520465899644598 -0.03102323705727656 -0.022630722975777257 0.004008822716662447 -0.0024512330674298457 0.008280387477772332 -0.007287018012910898 0.021075828727201686 -0.01076854593985506 0.01602559685816586 0.005912311486859047 -0.00207026476442128 -0.0027171961605469298 -0.006869989904063985 0.004742106780962751 -0.05451090000735921 0.02344625721161158 0.00570179207926014 -0.037317811496245086 0.02275151847784162 -2.9277233357948397e-05 0.06298709944352449 -0.008400256126700156 0.09743089748815195 -0.010174358353348666 -0.06668599554222646 -0.13910841968113574 -0.14548902688408924 -0.05370467509266645 -0.05259287823199594 -0.06704230113407796 0.050710616888893036 -0.07750425128624823 0.22253092689727147 0.08831346297202168 0.02156776761119443 0.06231687556075197 -0.0008023802272639801 0.3060953968682476 0.3244246403130863
31577 0.023763718502201433 -0.03129234482730887 0.041115542552713005 0.04534051670781263 -0.03813275903661201 -0.04563462923808222 -0.006796917150946918 0.007134630564941518 0.007375106460407618 0.03939683434609328 0.016110536720212048 -0.11194211505817281 -0.037993019813173386 -0.0359639470082218 -0.011039788216873353 0.009032469852389757 -0.017745604413049364 -0.0003979807612458167 0.03499721117853941 -0.0016540421665190098 -0.019773968780413712 -0.011102587436206285 0.0001264792661098231 0.00032238407489767123 0.002216333017938004 0.001453137786244875 -0.0011945023563059804 0.03195908358814701 0.008937898863926597 0.0011807449818352447 -0.007811104762176461 2.3307171715897922e-05 -0.006035412861718708 -0.00036574201052572055 -0.013535852978602771 0.001057055073385351 -0.005381922288679767 -0.0047670873126868935 -0.0010744117943425212 -0.0004401501985010744 -0.009834421066211853 0.001054600078124572 0.0007584424547488239 0.00014971291347068668 0.003987108556144117 -0.007604028549109832 -0.0019520130950687765 -0.004791762140930602 -0.0022680596337217784 -0.003854638127318639 -0.0038111625129367242 0.0024505764655171065 4.573311458407933e-05 -2.863318262446937e-05 0.002377042997061626 0.0031682868002638484 0.0004746953209824199 -0.01523157098951422 -0.002423160047173818 -0.0038028811020915515 -0.0020574269914013683 0.0007524253776074726 -0.020738414334034578 -0.014924522511821149 -0.012480813178998398 0.006872176292757346 0.0019178281903004194 0.0067035510450869215 0.0004852863950754998 0.00415920667523068 -0.020859772729761264 0.0024378386020374246 -0.00469416694502791 -0.0548392687533047 0.0030013318271984598 0.06268678900545782 -0.03317556115655273 0.04548261304310333 0.08757699543145944 -0.00024796143460656525 0.012347066014625029 -0.14609937742147505 0.00221819985831568 -0.0629013901487716 0.031973690881969545 0.0426062627113442 -0.06473363504815796 -0.024373271899258028 -0.005581910394294733 0.01845930433100931 0.012393311972569205 -0.03451403280571863 -0.007122361968423358 0.019736334405343312 -0.059885329365959604 0.11023250161605722 -0.04875279164544645 0.04816999506308785 0.03558420085216263 -0.043836460082859095 0.017284580522198122 0.01113113939557242 -0.005130799614376184 -0.06723286998171402 0.025860446850807333 0.0034873093695962135 -0.029425824589353847 0.005725040456908149 -6.863790124795788e-05 0.011140487352913927 0.006291612301477306 -0.001974516418478609 -0.000371968917469477 0.03484483713418238 -0.16123526693759396 -0.0685314019000312 0.04288549487945873 -0.062474606804589036 -0.010611689018334309 -0.01572008264818792 0.05260690838047306 0.032564171869634465 0.020823205698189167 0.07238866148840332 0.024259130943371055 0.00025802917739011524 -0.07866695337436694 -0.013191786212096606
32070 0.02853156003835626 -0.04146972783467615 0.03352680529786309 0.0003388615440584446 -0.01724715230787621 -0.027802581273447535 -0.010305210256568071 0.015079519104687689 0.0024355030575306355 0.03952115770531449 0.003983341088433764 -0.00871574035804722 -0.012575442830066149 -0.014459663442813 -0.004437591263080599 -0.0029275438590463717 0.022930889000521634 -0.00016772421921853876 0.031034948890892224 0.005808869195873301 0.01006798204845848 0.006775523564827913 -0.0002610989026536869 0.00040733876115872354 0.0027079506070792196 0.001202714569178921 0.004681614927437669 -0.010242544839285562 -0.015735946474266033 -0.004198318265047865 -0.01745063848836001 -0.00020779219039367266 -0.010462136639358244 0.0009197639777509768 0.024860389959330407 0.00034769984792343 -0.0016372147656005137 0.0218347583428099 -0.0012163266576572574 0.0034632018460510534 -0.0056001338831695524 0.0004607432414892166 0.001101431755473612 0.00019143446302438366 0.0028747048554524377 0.007619778371037727 0.001239771829582831 0.01253524023932514 0.005259540002443849 0.0032103527611195017 -0.0126571158858202 0.0169477252852157 0.0013583281982206632 0.0009642654088601825 -0.001614358414029062 0.004209100260867471 -0.002991560271559688 0.0015911298900335277 -0.0036427962597367055 -0.02026583293706763 -0.01505628144728621 0.15308059582588562 0.17861506139306435 -0.056280398123501364 -0.30679431355610537 -0.1513738972310866 -0.2722703043303728 0.019453383464339228 0.1595416305774187 -0.3694952759350387 -0.05428594613170089 -0.0034990375436620104 -0.002265519753222418 0.12921442721410767 -0.0020373131501911007 -0.03330168331016339 3.8093572752625597e-05 0.13812229710967902 -0.02174470586659849 0.00014744074453070766 -0.0018627304556934113 -0.06919140932137637 0.004215633805820503 -0.028820063256519275 0.011505074763553825 0.016583073987489677 0.004316723473874478 -0.021086235326563344 0.038220591450604184 -0.012773359533818952 -0.009785648978961968 -0.01562636267105005 0.022869631703067834 0.005512694682244449 -0.014068369425343251 0.00877526496986287 -0.018925916810641652 0.005085572108914764 -0.027207268813292034 0.0014779415283306407 -0.008156207889625254 -0.013594717003546431 0.008899868960509196 -0.01525389112054055 -0.015627398352096592 -0.020696959069524727 0.00802377839744324 0.015613738458275978 5.243735815341436e-05 0.011535567262992454 0.015382274395286178 0.010459430375875507 -0.01973051792470203 0.0009380482326618598 0.014022420434743249 0.004067782208051276 -0.0039411611192508465 0.0302304785288014 -0.0006082461887149243 0.015316790151927282 0.003776411763333107 -0.008290229930837563 0.010535004210066687 0.027825434058990052 0.007128798678074384 0.00014014541083482766 -0.022875767436405334 -0.012436341069744807
32467 0.02593415685358108 -0.029780411970020248 0.013105917336549979 -0.01551350829849728 0.011121848117378685 -0.0054548996638054134 0.011413239942739857 -0.020231922333993655 0.001550922018100873 -0.013360881375555748 -0.0022864255359085132 -0.013152098039810486 0.018161154520800856 0.03108664831655391 0.0025954612062910705 -0.043211129660011484 0.03762007696807355 -0.00045983412281482835 -0.06123611847280191 0.03143599916792309 0.022305714618372642 0.01734687967901329 0.0014768892533510972 -0.0005808430044262398 -0.008913964536277172 -0.007503062572822013 0.0018862517467120837 -0.08045707626878199 0.10239668842583957 0.024577041768172794 0.3235546168773358 0.004091964847244087 -0.1077173231707862 -0.0018814315579311009 -0.207769929555055 -0.0005523261021913128 -0.003488613617508326 -0.183624805339343 -0.029284299300391368 -0.016633220725465452 -0.3008207765336179 0.0006786319825749354 0.007921679637714625 0.001099557240236174 0.03888016579097998 -0.02398029547305669 -0.028001869182838944 -0.06215986965859516 -0.004459768562214611 0.03346502997259389 0.02719746445174723 0.02602708207645806 -0.0001717868815534541 -0.0003044075055261527 -0.00038295794091287253 -0.00041130770346798707 0.0004995498345465937 -0.008839375580197133 -0.00021692658422777392 -0.0027977022584453645 0.0006928366234329825 0.0022719870070463813 -0.0010814916229286804 0.0005790942709307865 0.0007130597977689361 -0.00039518623511544963 -0.0010976292639475155 -0.0008256934200161429 -0.00041007589489690845 0.0008397112265170312 0.0031845357308568733 -0.0002931364281108067 0.0003433460938147998 0.0026267277019833427 -6.469018287300353e-05 -0.00021058013809373345 -0.0008172914864118968 0.004927937117103321 -0.00013116663484707427 -7.283175916970956e-06 0.0006160609015503163 -0.0017329112872718907 -0.0006018035464146956 -0.0012127018779655506 0.0009033890771523488 0.00010824751798411508 -0.0014743527440810717 0.0005454731761177104 -0.0005691681766412805 9.032893359296038e-05 -0.00015842898381841482 0.00025629243630508357 -0.00045289014932067904 -0.0004284637411904799 0.0002926611719778547 -0.000601008513348048 0.0005927297994263442 0.00040830105238877807 -0.0012190687333341543 -0.0002937148651214836 -0.0006089631028644469 -0.0005979128017558752 0.0005324606111797607 0.000872446155877958 0.0003098852939718786 -0.0001973397496944665 7.316723428265981e-05 8.762660374012951e-05 -3.3158470577747045e-07 0.00038969926119413866 -0.00033843662349898227 -0.00013002607992382935 0.00014020436125027102 -0.0007056888002080192 -0.0005201863715003636 -0.0008350276095339979 -0.00029448273587300635 0.0003563081750436326 -0.00021256370790649658 0.001043313876606347 -0.0002478682986959497 -0.00021172237588252548 0.0009757711877534459 0.0015983849019514855 0.0008700838259298348 5.846169250221577e-06 -0.001385026443649567 -0.00033319322651073033
34082 0.02523330265281371 -0.02778651416314247 0.019913898004621264 0.004112742448851183 -0.010784511976526561 -0.01571362348930471 -0.002756914174681577 0.00804747269187282 -0.004495160074393154 0.0038964818635289227 -0.0060305777426403525 -0.0036756092702237048 0.029532895059096786 -0.006519051109822007 -0.004976412356219994 -0.005416624957309241 0.008875758750480283 -0.00024292272217285333 -0.05502265519463611 0.03243376098676314 0.11172440227057266 0.05687042572799196 0.001078881844321884 -0.00046599965431470635 0.0041640240223040585 0.002939377546396054 -0.021940427861064486 0.038691248515232174 0.0936967232683446 0.025244669565502524 0.11978843879705103 0.0017374807202904948 -0.2085289258280246 0.01755052695132614 0.5017749764007082 0.018135439901347656 0.005249552725897219 0.11070489430567047 -0.0038648124621133944 -0.009025324699837996 -0.09494745380972151 -0.0016649335698929557 0.0022146303721971607 0.000904635324197601 0.010949762871851282 0.04625902697469016 -0.006501902970205618 -0.046315404740759174 9.819162015490189e-05 0.0005078875163205599 -0.004295549929043366 0.01828564557881489 0.0001620000279270736 0.00033665533135072035 -0.0008975298238445947 0.0004428655473524081 -0.00022773265773376887 0.008175332813750685 0.00034902453202311585 -0.003562601726684983 0.0035157984955209625 0.021875412525642183 0.007313756685841839 0.007083645285662768 0.015305278202003149 0.00574505438338679 0.00904444906479795 -3.884806267860202e-05 0.0017358635122514741 -0.0018246573142805741 -0.005660466291173521 -0.00024315832019803865 -0.00043480485298316653 -0.0008039140334207637 -1.9461492980258455e-05 -0.0022033072860577784 -0.00021469465942052486 0.0012856598035245453 -0.0031826004392074615 2.4171032180878784e-05 -0.000654854145487547 -0.003331057774752195 0.0005745528076070386 1.5267998122237583e-05 -0.0005270666784555973 -0.0006158705843643058 0.00020424954891058378 -0.0012201143414375282 0.00024854934647384325 -0.002323266499383604 -0.0015981154907940371 -6.495825238127079e-05 -0.00017135302829414688 0.001081680343989902 -0.00044193015482232363 0.0011737556082638614 -0.0014072860898581298 0.0014181914826306044 0.00013473541747035145 0.001727432122961538 -0.001957468734282346 0.00044873944916022824 -0.0008517544170008842 -0.00018297910258587217 -1.872544085425314e-05 0.0005817056729044604 -0.00019041595135815722 -0.0002226180116551639 -1.172691420592861e-06 -0.0006155147136948523 0.0002474815288226137 -0.0005969525806932661 0.00026634904343562655 -2.6308084148145147e-05 4.792335583447724e-05 -0.0001912140802350043 -0.00011351688805293777 0.0007724338233539242 0.0004967347504252866 -9.464677880531406e-05 0.00024257295745891885 0.0006273420616034781 -7.66054127940745e-05 -0.00038063504147044843 -0.0007360941979032432 -2.561652209886376e-06 6.523179827580252e-06 -0.0002981146618390625
33195 0.025583943578644176 -0.02762960888157852 0.013633252191328594 -0.013018285075509676 0.0034426856549710063 -0.0051568572881262684 0.004786590711835059 -0.009563772569716028 -0.00023912837585822033 -9.800919264247965e-05 -0.0019586024883972855 -0.01018258420133691 0.018820110028545892 0.0126891663601606 0.0021038001661275343 -0.028871689909958947 0.013930850513225422 -0.00017170671553072854 -0.04276892313357653 0.021294654608675814 0.06797754277106036 0.03673132859791858 0.0009806704594703456 -0.0005003708664430149 -0.0035546404346931226 -0.002570141495213904 -0.0077239833490640635 -0.04434041377054484 0.04046442834588451 0.009115261697463652 0.1267959047689047 0.0013993064572631964 -0.07513732923463826 0.002131576951888211 0.011453149626327978 -0.002683333437228945 -0.0007156688787124204 -0.3143137182251681 0.030865366950857988 0.011807361630289294 0.41803477220622226 0.0005024331318958012 -0.02087234842615388 -0.001864574259053297 -0.03967016523583269 0.177463721210564 0.01619028480663422 0.16023714501776581 0.039302025225762524 0.057638298965127364 0.03879767080075706 -0.005158092990650011 -0.0011616016065000138 -2.1701851304872046e-05 0.0005762448732615279 -0.00048172274446674294 0.00022839277567824614 -0.003955530770022484 -0.0001343307885326989 0.0028382145360496395 -0.0006158730951016297 -0.015238785935117866 -0.005907467872697663 0.00045035004281950453 0.0031365965038365443 0.0004321319078839325 -0.002501827593003225 -0.0009454680879081051 0.0060269751569020005 -0.011198451664879828 -0.008020195457367582 -0.0003526671779120256 2.951031568429136e-05 -0.0014465996344937239 -0.0001641090208049391 -0.0057578979860719755 0.002350910526440531 -0.004441077147292474 -0.004339918857113173 1.563705840157227e-05 -0.000671999889250687 0.0033322538866447523 0.0005371811703365298 -0.00012362661739790727 -0.0008653697037597143 -0.00025368810434309614 0.0024223935330513167 -0.0012250657254066436 0.0018624226787424252 -0.0005173249299351696 -6.686569463425241e-05 0.0003687173727650351 0.004114468364903273 -0.002280885334756168 -0.0035559914333970705 0.0039724888129850176 -0.002254912594321995 0.0006468943911285911 0.0009796247213456173 -0.0017930198581124102 8.29475328789849e-05 0.0005072739570463127 -0.0012768455118353657 -0.0031009829336741154 -0.0032491208461335845 0.0001220066097177683 0.0002632120938248584 -0.0002441078948264322 -4.895112861059736e-07 0.0004799576648158485 -0.0014788815720972316 -0.0008083967703973396 -0.002219288385442186 0.0034051133843689707 0.0033131154051498943 0.004380229126645488 0.000927258253285023 -0.0004281100668510041 0.0006536129850956942 -0.003373264638526502 0.0011633294722354658 0.0006819891919742646 -0.0026932853999897966 -0.005467297305851622 -0.0037705033854913608 -2.2634470237975607e-05 0.005057334866099181 0.0003501755609190027
34761 0.02734002959105558 -0.03154360335251304 0.018465874900486966 -0.004297257507041566 -0.01422944599762922 -0.0091722152836655 -0.008630362562778786 0.013126767979801317 -0.006367108608458597 0.013060308488237981 -0.001795101260383287 -0.011833852191506126 0.021679116978635046 0.006214374947487303 -0.0009141502957473892 -0.030853570355018487 0.025027032931269465 -0.00011366033074145028 -0.12929865485924974 0.04515365293327263 0.3252403041881601 0.18818883952269636 0.0071443278660774795 -0.0008843447040752708 0.01584030937960716 0.007156491968242579 0.01957726686227637 0.11353459598255392 -0.027406698284528387 0.00045076032580269117 -0.1544391066796165 -0.0014331520445860484 0.0902691532032958 -0.006278788398892681 -0.11318034445176474 -0.0008335700492185134 -0.0011935514398976833 0.035548386718264394 -0.002198093623794141 -0.0003103381658134173 -0.057902383219026736 8.952912713535131e-05 0.00034865801491278233 -0.0011793348393228746 -0.03683319541646751 -0.0013710458453782951 -0.009990784560868418 -0.028169876089246277 -0.004082812711929528 0.000197720185983671 -0.003832256534639665 0.01013504581362816 7.514399854785104e-05 1.638841325296507e-05 -0.0003657510145144418 -0.00016721711542963628 4.4512989944892035e-05 -0.0033995688985053616 -0.00011284760231188808 -0.0004644107958187356 -7.535708740878e-05 0.00023635825295752753 -0.00015043384963530534 -5.672173133021208e-05 0.0012188187972324723 0.0007835188013054296 0.0006293190509301737 -7.4576598306745025e-06 0.000645170501384121 -0.0006565151925728936 -0.002357050541678303 6.799081942395601e-05 -0.00022424050053008698 0.0003502604123411374 -9.017387859121246e-06 -0.000704123304848801 -9.104447137770016e-05 0.0010715309305094217 -0.000859831632290768 4.019242976381421e-06 3.637287707961083e-05 -0.0003025018817065106 -0.00012561694170689692 -3.174966924116679e-05 0.0001441727715692516 -3.3008608257522556e-05 5.026242874077183e-05 0.0006328005522237173 4.9328643037737074e-06 5.701768351814455e-05 -5.046241819153345e-05 0.00012844278040440892 0.00015915229632441723 -0.00011113897712400933 -0.00024355256432744514 2.0999176283976413e-05 -0.00011004055622599702 -2.34816964498011e-05 -0.00025812183717437127 -0.0003585032220531058 5.92175979483259e-05 -0.00010315013688891522 0.0001812955155463215 0.00014479727941952414 -0.00010020554337246509 -6.451053150608095e-05 -4.178787497808401e-05 4.976217922944637e-05 1.6777857326612676e-07 0.00025928014611244086 -6.717463020511265e-05 0.00012473723450001352 -0.0002667430909246856 -0.00027701087161623297 0.000578760517709527 9.016007390690196e-05 -0.00020938897269774575 0.0002525239747258017 5.1829417043891054e-05 1.3013030899278592e-06 -2.521811662321505e-05 -2.6445024215966053e-05 -5.786507531449525e-05 -0.00017426377759751003 -0.0001466944435568433 -4.724836556095234e-07 0.0003156181989460869 -8.95199874859079e-05
34711 0.022300632474244533 -0.02553881223977344 0.036126918305351294 0.04924856395182981 -0.03755519756102527 -0.053117795700794966 -0.0023516941742534776 0.0035805618846982577 0.010599422627728295 1.1077065370186587e-05 0.008365205537866953 -0.05999910411646687 0.00038406791203913875 0.0007824354110216471 -0.01153004906719416 -0.025953517237194475 0.08645935321890434 -0.0007013157792252529 0.07375740332468807 0.013522057208194466 0.0009755920586363149 -0.0009832879721039824 -0.000672765060817035 0.0005583786818754118 0.0033454515761934035 0.00021688939138586177 0.010731218565382016 -0.06116607125726656 -0.05361046763173107 -0.01597719253853659 -0.024647760709244987 -0.0006400494481313729 -0.0009762323869585766 0.0008861717491726191 0.01260225565811669 -0.0031649415050236966 -0.0028582102405328405 -0.008877442478408232 -0.002191458510900621 0.0005160875449233718 -0.0027522252854868382 0.0010337377585879558 0.0015711220207677043 0.0003586814059031988 0.00937841188319876 -0.0059606296837502876 -0.00030921942747623747 0.001806936895963556 -0.0002002481334543556 -0.002070880779936664 -0.009175151480634079 0.006692270420416006 0.0012272213969987751 0.000291926248997767 0.0008103325685379885 0.003288914124806926 -0.0004181852033800195 0.015589010560981482 -0.00010310444786172836 -0.0008825882907774565 0.000982375217323906 0.004423819225026403 -0.01614688070409921 -0.007265655577182142 -0.008422455434304931 0.0015347752622966728 -0.007577311874287566 0.004501563738446067 0.004659262398243347 -0.008666403613196193 -0.008134890866647725 -0.0005845043557484094 0.00048753501373442396 -0.02618321820015003 0.00010257427969449631 -0.008697165667179573 0.001954632477366036 0.0032501218678203992 -0.0006496465390743087 4.585501184740139e-05 -0.0007835909624191595 0.006304412176798938 -0.0012851395292626565 -0.010798274705961867 -0.0004063952351000743 -0.0030081194868361158 0.004439398276618406 0.020911415453419076 -0.016706901127147664 -0.00945486392226936 -0.005583112579348367 0.026466628646172895 -0.0007100237880278329 -0.00467065076096468 -0.04115430333358882 0.05085817575799542 -0.029619660176484056 0.03358035176939607 0.03147278874119549 -0.01403971061125693 -0.0076516414502794125 0.01626890289390278 -0.017834807590027178 -0.05951385488804795 -0.013589104137440529 0.027061751914084924 -0.053548653121030826 -0.017437052238587946 -9.92156542817632e-05 0.03897330491316484 0.011392874747630507 0.0715310441562346 0.05297953189032488 -0.024511239810787226 -0.0690681521661237 -0.05629565739251716 -0.017045823574450215 -0.0985987319250245 -0.012178536374670739 -0.015205335407735516 -0.0247831990609805 0.04310508482768068 0.007121229186682227 0.0015209368272718785 -0.029495461816445544 -0.00018063215467683364 0.11018412218611812 0.0675380267819248
30852 0.024638428652127897 -0.027995331136636867 0.02890721979712506 0.005750485986793884 0.000641037083998288 -0.030265207859813816 0.022640690622428253 -0.0469166583411562 0.018539928911143255 -0.009191441899912865 0.0035138976461954905 -0.014335092225844344 0.032886612622045445 0.08562734689566458 -0.008177689908891977 0.0013749318049621061 0.012671972902099218 5.326973313809606e-06 -0.041062639091557204 0.0039042955725114782 0.02892976938638783 0.014607764863854247 -0.0005920490681575112 8.735792958585696e-05 0.0010126865069852212 -0.006920666672333716 0.050695055345046286 -0.3902675437470649 -0.2244329198652914 -0.06099830190373434 -0.03885898595507195 -0.002656426141883639 0.021637409264092917 0.003729353899589369 0.07049356106857327 -0.009703364575031811 0.0027866602531513864 0.012726881721726679 -0.0028864994943959468 0.0014349037935307458 -0.014225148335436508 -0.0005496951295185303 0.002571412752313346 0.00017454738045029819 0.0009700003830091786 -0.004810733230224716 0.0006263150516742824 0.0007712969937444045 0.0008523327232908104 -0.00084015412951977 -0.005518943084356634 0.0034273255948130375 0.00011249938026452607 0.0002757944714889253 -0.0002692328409036803 2.7239390405488087e-05 -0.00022163231408197216 0.004210490333856735 0.00012107875562332992 -0.00011658372850424222 0.0003473144645039507 -0.0016712686070077996 -0.0002312090890537357 0.001329010831397908 0.0037839770189360337 0.0012385812415808993 0.0025557399213028665 -0.00043396698255989373 -0.0013794974729589714 0.0038541843318730343 0.0008029042971818676 -8.541426300875419e-05 0.00017435201031731058 -0.0023778804057921522 3.629853905554348e-06 -8.110943964380274e-05 5.05328458083184e-05 -0.0029411308212194303 0.0006003962722320224 -5.042835397615705e-06 0.00010807026554455115 0.0008733851689503278 -8.892381000586662e-05 0.0011757193074128035 -0.000801884358679 -0.0005000329998440846 -0.0006012803742134115 0.0009087652843518722 -0.0015207399413456684 0.001067936334352983 0.0006779626054092727 0.0003986301134473624 -0.0011757733947918483 5.148484774170874e-05 0.0003774590436677791 -0.00021207375381073314 0.0006481806439569324 -2.8010970917734524e-05 0.0014042750388870422 0.00016115487998160632 9.593405218895615e-05 0.0007451570312819197 -0.0005812449890945532 0.0008611191694662346 0.000441430076006713 0.0011506670966205791 -0.0004136381872099574 -0.0008892804305854811 -2.776563192283647e-06 -0.0005599733478985477 -0.0007258276965470872 -0.0007245565058715073 0.0010475927474915096 0.000115863715946742 -0.00021789758732381238 0.00022233493161280752 0.0002827003478441886 -0.0015243539844501499 9.639110637024274e-05 -0.0007844415146204263 -0.00012616500359485667 0.00028832648598340406 -0.0006074380207130081 -0.0014902906352721736 -0.0003895648549666185 -6.855397818785344e-06 0.0009894977362418444 0.00046036445014454875
34524 0.029631285572697424 -0.04051277354526521 0.021730064431025393 -0.028787995332601606 0.003597456277531889 0.0025745778576503 -0.0016554893333299904 -0.002955900280673482 0.0016071589916440774 -0.0046215583188968165 0.0023700835048657233 0.004871931541029023 -0.00864845475835024 -0.005728763824542279 -0.0003875108049810817 -0.002038254578552099 0.011938319424994362 -0.00019247318531960786 -0.017965076368149504 0.013741341925501386 -0.021121438518225802 -0.012571353773565427 -0.0005933318570302019 -8.785846658975176e-05 0.0030513596478702982 6.986072709193517e-05 0.0011093241810494977 0.010009619722062423 0.008073508791388642 0.001989657960815666 0.019484017049890105 0.00043481078608437846 0.03243709556629021 -0.001326697800341304 -0.015190865056545974 -0.00146637863654659 0.0004140808364268746 0.002532850288457653 -0.005024091645851329 0.004144579451301058 -0.03887880280181428 -0.0005818456711910472 0.0005043910163727075 -0.0009988014907246878 -0.02676797445630616 0.003296128081552654 -0.004570078159928341 0.03615119980013765 0.013150597982119693 0.031358102040906985 0.010759406538929813 0.01313566808729173 0.0008032875268059889 -0.0005168184838682826 0.00022145637980345884 -0.00043131560659412393 -8.30161406089956e-05 -0.008713992234273145 -2.8781503448224276e-05 0.0021331378981325993 -0.005534528305479286 0.04568882000185631 0.04069273058719903 -0.016479803596376765 -0.062398356970415625 -0.02010873226809136 -0.01976337856973987 0.009202657309162388 -0.02895891921126201 0.059538612374938425 0.017177699963358526 0.005601499643989509 -0.0032408367927030455 -0.034700637674692954 0.0018455175332733201 0.037152836289717044 0.004387150454908921 -0.08617639879484366 0.0489436054683231 -0.00015943963684286947 0.0014938763519012006 0.10503975509384543 -0.007056584978371696 0.07264669176260972 -0.053379576374928524 -0.02747873263481261 0.018506828891499127 -0.017111740110043204 -0.011200519739031222 0.0125533983417802 0.020544332105042043 0.052307112610336694 0.22191787990721154 -0.1171769763513591 -0.053698623743566556 0.0342978878292531 -0.0468242253631073 -0.0034257421630943603 -0.07505678546764531 -0.13011228324230392 0.0628664172664213 0.013927384898842784 0.030478075133336422 -0.045796527142947185 0.19484672012487578 -0.01294570171404354 -0.05988439251288096 0.016472519355362904 -4.134117946138199e-05 0.03279499876022722 0.10271264499945243 0.10370967953338021 -0.07314601023738647 0.0006296894070381066 0.06595400273018501 0.012024450088225377 -0.004303036447296938 -0.011582743263978264 -0.011844537224154876 0.036695614478080625 0.005396498257961089 -0.013477089156979155 0.052287740235719485 0.16343137927033027 0.02636740955544478 0.0007676318428526565 -0.1128172652519597 -0.04844479759191233
33667 0.02979207211724735 -0.04083438354159722 0.024650017009623524 -0.028967243476067796 0.004180192479511909 -0.00543110180387569 -0.0011256825933703796 -0.003286407559836029 0.0016413322031137237 0.015782494773577183 0.002089911395979639 -0.001442250140322853 -0.0027389839438819877 0.008861319327965564 -0.0015421493215812252 -0.009771148134105028 0.026630324200587297 -0.0002768148517757079 -0.008404450512731632 0.013786579514723713 -0.01541946980951286 -0.009763895989722935 -0.0006274922217625788 -4.794784918285716e-05 0.0024259407105878365 -0.0008285706340173787 0.0075782909446614685 -0.05615540836433126 -0.03782598577867546 -0.010796170979136984 -0.0016808740100335811 -0.00032827381170163404 0.03158141472075663 -9.693078105469199e-06 0.012460099168694068 -0.003181440278302219 0.0006583474912280025 0.009540671037685692 -0.0050756676640113865 0.0044556660446822445 -0.03336169715158941 -0.0009975649676888499 0.0004260821860732636 -0.0006109484106053135 -0.017378232643933653 -0.004517324643732615 0.0006347210937041726 0.022620217611113002 0.009542014777235971 0.027889685953629253 0.001671035901576197 0.002110855542999503 0.00019519057161619923 0.0006636875149340892 0.0003980743275384133 0.0008967286413740933 6.584669342845857e-06 0.03766385499863199 0.0032592018292348967 0.001353457682438421 0.00449398948028595 0.018009821276637743 0.005965817980360943 0.0037326862044216817 0.015919858924266818 0.015596807543517499 0.01991906568951173 0.0060086926843266955 0.0037155931641625313 0.015673923918071733 -0.045844334436166465 0.006480081818334908 -0.006258579557340616 -0.07054898637861802 0.0018776411293328224 0.017839474671514286 0.018248482843790083 -0.134496422002138 0.014733959180795135 -1.1550774636913453e-05 -0.0050736884589059825 0.06625723458852373 0.002810330588182965 0.06050974164693167 -0.057588568858873326 -0.0014478563583622298 0.0046613195991122396 -0.06045268656823827 0.02923599937490779 0.01107268802409479 0.021062322512221357 0.002381821698653946 0.22920586241880075 -0.11137063649890289 -0.07292791691250235 0.08026759969391205 -0.06674686690902681 0.00514998157557302 -0.07333346315990716 -0.12295557181453691 0.05719174424662231 0.037648858119110985 0.009126257185138825 -0.0509115228759244 0.27631599366332904 0.015888321753994926 -0.08534664262396925 0.006628144887273799 -0.00019150159946855654 0.016705629087012216 0.09727019057438718 0.061439028736031465 -0.07568025385782753 0.01837980339624089 0.09516624337008943 0.03930151456330488 0.022045315534301082 -0.11991832089848482 0.00908976531588727 -0.07112798207651314 0.038002924181820906 -0.06046062524753302 0.056667632139699865 0.21507515001102523 -0.09635287347111464 0.0008718060108958723 -0.09475733802903702 -0.0840370168179118
30792 0.024207084302937488 -0.028968762140935612 0.029236290819357448 0.012238888062192916 -0.008421348293628488 -0.026392912396073408 0.007080465098357992 -0.011994332728860082 0.006446756164148614 -0.008277442721412008 -0.00024715212733934577 -0.010184653802530873 0.0056803413964767215 0.009056517438432589 -0.004624111126792812 -0.00819597563893614 0.02187152187160942 -0.00038197248369602936 -0.033519474647120684 0.019643490565021446 -0.025272439827041016 -0.014672662220125225 -0.0008173005544420923 0.0006612592206802485 -0.01050773026959518 -0.00603180685523547 -0.002800947949074464 -0.05327134592429983 -0.021049252960525906 -0.010095693671530057 0.03130454959219235 -6.117452301295244e-06 0.04439204283267567 0.00032154919580053634 0.0006342796048398958 -0.004559810371298867 -0.000656715565305111 0.021207298643356784 0.0008731705604595397 0.0016617466007923705 0.019628106056768277 0.0002014892520482766 0.004429165923800298 -0.0021265625499867742 -0.06515657841045315 0.028869976601746138 -0.007312232594369747 0.08398636773220919 0.023278027567840146 0.03671944659903896 0.0013350714055258821 0.02334228316771898 -1.224293654657567e-05 -0.00031124434979062536 0.001087243255301539 0.0029378618077366228 -0.0006726511192083648 0.03051108628040175 0.0007699941035765197 0.0007791621837303643 -0.004440484334003105 -0.009594667520252648 -0.024602540845007747 -0.0017633869664286257 0.03440017271234919 0.03127329843544655 0.04926197015262355 0.0012681357538796515 0.0013802718105600364 0.018901280651504097 -0.1484862384476339 0.01295851429095896 -0.03060421021643236 -0.037138080317014585 0.00511875714192166 0.06882489609870207 -0.05492143512698674 0.23304027814112327 0.343393744785736 -0.0013319629438169238 0.040668225430917915 -0.25048505380424047 -0.0018380777520955152 0.12062477384620393 -0.11977200317197036 0.02762804446042222 -0.25845470920298547 -0.08564169964340959 -0.1626576689629266 0.14252360914516404 0.10132627015943482 -0.04462577264634525 -0.03637276394960094 0.02437380483340832 -0.0009626411560029786 0.03546872083005196 0.01199606370328496 0.010999986836113902 0.08884806190072243 -0.02040866571884761 0.01751797056111593 0.021885036945870823 -0.014465106438116186 -0.023245599180688623 -0.02299160186566289 0.020945834722030977 -0.024462234348922435 -0.014808965866446389 -4.43595805312432e-05 0.02055636417169712 0.004763691589176822 0.016007726048118846 0.021692549747769102 -7.101634882618125e-06 0.028632255372633073 0.02014993060132305 -0.002056717542133135 -0.006156466965574506 0.001952970717555474 -7.330828351585582e-06 -0.009979512738392505 -0.0027861290081593595 -0.0017442701265601498 -0.007643573059107793 -0.0071726240744582545 -3.0949668378478484e-05 0.008028835536654027 -0.00029119284751302136
30647 0.02291000125650089 -0.018906193297219227 0.020711745956235064 0.0009660231971254423 -0.006446842593276198 -0.01417341043926012 0.0007048720988949717 0.001689214943567221 -0.0007087591060924274 -0.002670197164691274 -0.003238438976149588 0.003933274037097395 0.002817908543206194 0.007194312382569267 0.004170083032473361 -0.0208057146868684 0.007741844053961465 -8.628946885766843e-05 -0.021043159336022257 0.000779835487485658 -0.016375316237641515 -0.005457319025003368 0.00032531269669022273 0.0005987341168043809 -0.007302424077312522 -0.0028686757566220044 -0.0012322740905008095 -0.02521657012206864 0.0171279160561635 0.0016966541985310466 0.02243435649928335 -1.8425651436901903e-05 0.014984028151190284 0.0016985968307311353 0.00997726994342863 -0.0032281992827665044 0.0016110949985506924 0.039712448815124334 -0.0018158414747391027 0.007122715049858319 0.032144181659033856 -0.0020273080114444507 0.011655242579089587 2.0811417282895803e-05 -0.0036624691829786156 0.002669967648838365 -0.022335967347604582 -0.05015674510211686 -0.012203667647584897 -0.029729537875081206 -0.049568283022337 0.06481850182694109 -0.0018134943696216808 -0.004610903650256146 -0.0021533977791056407 -0.010771428265376781 0.00020496658326654365 -0.31141064286810505 -0.016035041177125113 0.004315753774717861 -0.03462036495259084 -0.08146625332386147 -0.007486004445863674 -0.05924237145374262 -0.07688950002318004 -0.0012189780874218147 -0.01836952060383677 0.01434754681772226 0.007126914516225393 0.022918800135754813 0.062367567903778044 0.015016907308699005 0.008319984027493031 -0.14411240698245575 0.004914532326157851 0.12825531814100327 0.002284352993880337 -0.21995136819576822 -0.03443145528200856 0.00011306574154044117 0.011066332505049082 -0.3860854536249801 0.0167257143665745 -0.1357925221707419 0.03956720914036716 0.07675358885241396 -0.023215464578098283 0.003447036097962512 0.0955020492820938 0.032927021008632505 0.009751394639875934 -0.10208443465863921 0.0015110919490001757 0.025513057891151707 -0.06733118165234493 0.11626056718239375 -0.05610559088562287 0.03670667703849071 -0.04602710691635121 -0.04779392020413632 0.02651911864513881 -0.004546273678433932 0.016231995331601624 0.029340606441211857 0.07731457327214182 -0.031874253874153845 0.04693107224553928 0.03928872043098706 3.516493808722893e-06 -0.047581675706591 -0.031658474239791796 -0.10678170858994157 -0.06852453760831932 0.07920862572157797 -0.1338412911365836 -0.01949640042646157 0.06579245259231642 -0.027801504004108267 -0.008884795792250285 -0.022781281757214788 0.05978771784896764 0.019795573711122522 0.017673523899723063 0.04556326015176956 0.019714669166756522 5.818900383908267e-05 -0.05420928346078497 0.00828721091047098
32945 0.030721008225039894 -0.046030890643931864 0.016955885103997925 -0.023841211833491208 -0.003855087951727143 0.007154066351698269 -0.015517580042336668 0.026013000219303008 -0.005419870181904868 -0.017110576532975416 0.004666212491027773 -0.015792954917335657 -0.011605668563358009 -0.016881032216279457 -0.0052782307839120525 0.011729987260302437 -0.0017951116770208758 -2.2870756860972163e-05 -0.001563391103273651 0.005963790088952442 0.005799797090529628 0.005276683263206961 9.209123319003279e-05 -1.6697196164553554e-05 0.0034195382714226506 0.0012250677305906887 0.0029325535090214175 0.004866382196498615 -0.006063401335314085 -0.003153282022142274 -0.0011702981168597525 4.207018836743302e-05 -0.009784603692986239 0.0007917373163761786 0.03303277132413394 -0.00032087859252292246 -0.0007265435887983874 -0.003576661673767876 -0.0035870012570247685 0.006638914031835255 -0.020074202529203944 0.0009428626888563048 0.0014685261089919836 0.0004962499224858065 0.012815238870299691 0.00039168824637970587 -0.0015211953004677491 -0.004130696193340967 0.0013009809147821523 0.006508827699428268 -0.006272243869141132 0.0223459520351782 0.0007624824036423953 0.00013056759538549652 -0.0005388303911925979 0.003607248142002051 -0.0010752874658063606 0.03410563528259387 0.0017975199656903188 0.008547288410576807 -0.00019061617588168807 -0.005299539894127403 0.013150763231489615 0.013459864447169723 0.030919520959436404 0.007286592035241481 0.041429818386136436 -0.0012362934918624519 -0.0297331971147312 0.021712130152310008 0.0422360158912524 -0.0034477541454768874 0.007782801365539434 0.028679337418217342 -0.002083107862537942 -0.035826604343818964 -0.011251009343586898 0.08550665547275262 -0.05554275209868211 0.0003024927394928385 -0.012176200052002007 -0.009869780002769592 0.008878878028662059 0.00655792097752752 -0.017448355622516856 0.03734939014600413 -0.006164240194017482 -0.025123296235787542 0.02481306093911483 -0.033203568231576455 -0.018621441728262224 0.09899802597690881 0.038016981114870986 -0.056573511286334296 -0.12332264897376814 0.0427133655699029 0.017587660665613167 0.014852304346327599 0.16266566252694045 0.17562467794468675 -0.12243692489921217 0.05238812471094003 -0.12315001284252529 -0.21137206182651758 0.16478125445192593 0.023548672608322142 0.005150231671202318 0.008546544511495746 -9.70203829113072e-05 -0.1674579889549032 0.040245890280260856 -0.13698424384669913 -0.008752164284978655 0.06244084047000747 -0.008905955976322117 0.04406553693683874 0.015055743217045815 0.20175277340028713 0.023425198271913753 0.011692350690479157 0.023742781651867346 -0.11803887322206812 0.049294391689998385 0.045799943718070064 -0.16844720828531018 -0.0001612793791698341 0.13053193033180616 -0.04201240515450503
30693 0.02053780360494252 -0.016469284064471155 0.008856843030955738 -0.0015287497425444084 0.006659071742741909 -0.007058524674358485 0.00717103944568986 -0.011652247375589158 -0.0013270824548838015 -0.009478712202036865 -0.0005209795958377732 -0.009190183475619644 0.010503646130332523 0.02009198792516061 0.005545492991047932 -0.02770318035461657 0.014986925652640062 0.0003629574006423887 -0.013623211693670187 -0.006578934722201375 -0.01631528324494661 0.00390925342926755 0.00019969264407583025 0.00039577830794161373 -0.030736373927528635 -0.014125314876326544 0.009219450812406474 -0.21972571712249547 0.36445597512814737 0.2069559792990671 -0.20720302904315543 -0.0021240704415731323 -0.00896372169926185 0.00466909319507782 -0.012155354114354975 0.001194756815094672 -0.0005433883052989219 0.0007743214145648204 -0.001371295075354174 -0.0012516989055516466 -0.0017733169777004103 0.00012706579009649156 0.0007972303169620868 0.00010995280183591417 0.005439649573423011 -0.001825732347793282 -0.0020511120471536173 0.002338769787165484 0.0019226023664778947 0.0030581434957923787 -0.001874827098579547 0.0027518317755481146 0.0001111614612568084 6.666143556638041e-05 -6.488148726560168e-05 0.00015243323230999445 -0.00011489160903888245 0.0018673634453606179 2.686206429665347e-05 0.0009323100706564442 -0.00022105238846659798 -0.0002758506805070081 0.00015460200609171892 -0.0003931628737233153 -0.0007537297856116582 -0.00011102890069677746 0.00029486496876309523 -9.120924397010765e-05 -0.00024761837576888347 0.0003058519613655086 -0.00016681085275226993 3.342073135437738e-05 -6.030574400645145e-05 4.790316566471905e-05 4.565542404383568e-06 -8.851181901860667e-06 -2.4002515660153575e-06 7.08354250509374e-05 -6.858492481577562e-05 5.180215226436714e-07 -2.0221029677475685e-05 0.00021749039691710032 1.0243974982208871e-05 7.164741144086434e-05 -5.334971685496572e-05 3.3116311678427824e-05 -5.625207088643751e-06 -5.536190973775813e-05 0.0001167201760432818 4.5182320111045414e-05 -6.94470352423109e-07 -2.704916976222418e-05 0.00023782832421068354 8.572757794539499e-05 5.623706075938871e-06 -6.501104329326874e-05 0.00013956218290881936 0.00010424907790357355 0.00014186912428736586 9.172975336943932e-05 -6.336523068884406e-05 4.384791139180171e-05 -1.9566064729233748e-05 2.184850515110666e-05 1.8040068628618623e-05 5.666245709474061e-05 -6.114293218169261e-05 -8.242923595469676e-06 -3.862202205524092e-07 0.00011226236291343047 -0.00016817179220877525 -6.6302446118999825e-06 -1.304296045177207e-05 -3.115540604032742e-05 -8.647147873854174e-06 -5.7526511252082274e-06 -1.266802119304087e-05 5.6751089385844456e-05 -5.242838399047389e-06 1.751549180935074e-05 -9.776075407018169e-06 -1.4237261300367705e-05 -5.563883013489769e-06 -2.026943109676184e-05 -3.6898752021203286e-07 -6.755721214326966e-08 3.4770797385012615e-06 -7.913683008883457e-06
31135 0.0316273073034582 -0.04944300113624001 0.029953734581088395 -0.03772793393088738 0.012807780745684873 -0.0014422164436447716 0.0026720341471702866 -0.012311188242609072 0.0011721682032691395 0.05262091430982587 0.001588978628961693 -0.001867995874626478 -0.009156919749821689 0.003503837849650283 -0.0002597934645984078 -0.004086000866289683 0.014144186619916293 -0.0002458082807492798 -0.027097187936290203 0.016222908411386266 0.015237194204142341 0.01009841972759224 0.0007093706161383824 -0.00028091226711750896 0.0019151479621175947 -0.0007561811401469987 0.005190257202723274 -0.012010204196591998 0.019834583945954817 0.005686815371658519 0.09916171316418838 0.0014142841506506493 -0.02393906551206171 -0.0009729040198679901 -0.06698781380343667 0.004928381131543146 -0.0005261477153604973 0.18763364247136013 -0.00831454484713489 0.021225176613763087 0.1661781723096209 0.0023266733384895368 0.022027780147321284 0.016675391192709152 0.5114419970796631 -0.20843400666391665 0.08011083106740359 0.07234792288801627 -0.027432424101553457 -0.09729979291020109 -0.003504790157810816 -0.11900005996962497 -5.365835611886581e-05 -0.0007274983648542736 0.0031726364797477857 -8.98381929285618e-05 0.0003483749528236439 0.026704319753232474 0.0018509750922482999 -0.0007384796203688316 0.002714010377823784 0.03992750460373909 0.02020764445194095 0.002296346939423936 -0.018123050784105588 -0.010586052693064289 -0.0058098794183510235 0.0023257018618008047 -0.014251988287689336 0.017290203651791958 0.03977186598033836 -0.0003251294412077486 0.0029016234876248106 0.00015768503740408704 0.00024871765221025127 0.015123803842251241 -0.002345688449475696 -0.005928109734235991 0.01591588967206083 -6.993337254561122e-05 0.0008563217820973007 -0.0002790134798869571 0.00032309557594151596 -0.00019961413823406209 0.0012643129236624734 0.0015629402801791135 -0.0025633230359664695 -0.005051603161682242 -0.0002750349906515167 0.0011729850118718146 0.0011612004091930033 -0.0020065094407634033 -0.0028524809556152984 0.002539147905900368 0.0055221771229776095 -0.0028260087195986923 0.002084169233324161 -0.0006212856418885735 0.0015546534130865806 0.0032400831168619615 1.1710011721337044e-05 0.0012443790240928496 -0.0006471099965088873 0.0013808879379767275 0.0044811525425957465 0.0011448471610015902 -0.0007461493399235684 -0.0008831257224374673 -2.048058898591147e-06 -0.0019049905026476052 0.0023864717969936697 0.0005080955763071181 0.0033598367619796935 -0.000908488822438396 -0.004615797685966777 -0.0034566599733355523 0.00015049630604432106 -0.0004343383425975176 -0.0010148364722996793 0.0025094880700487513 -0.0006817352027594317 0.00015308220889203526 0.001476512121504374 0.0042662085438171906 0.0038949557195867416 2.1616728342763553e-05 -0.005229058052515718 7.126671517882716e-05
34685 0.03178054138250489 -0.04836352595615635 0.01954944630215983 -0.0425472732430878 0.013632032708905936 0.006183115082724707 -0.0024425008554664644 0.0009421266396979079 -0.00011465491045869934 -0.0038960097868097044 0.0011698522492614603 0.008246508332640498 -0.004775158943520396 0.002701800339067992 -0.0015104422339089739 -0.003185654239796493 0.01332212428195534 -0.0002327263759040475 -0.022534951498084932 0.015367545411500797 -0.029150573036742622 -0.017108798855844213 -0.0006598620903367336 -0.00022723332930260864 0.0037841668223646836 0.0002776008974112475 0.0018530741960038595 0.004960519688212956 -0.0063877624619443655 -0.0029261415766596082 0.004139783388043046 0.00012345194343405737 0.04091270340635797 -0.0007789764897844049 0.033674248849942696 -0.0013661796715603637 0.00013996274837679495 0.013865529169723131 -0.007587179135321703 0.00729791523595625 -0.03891576441239046 -9.526128111564984e-05 0.006438110884522719 0.001951438453510948 0.050703463282276026 0.006115253559157079 -2.199045794832905e-05 -0.0038372057697171995 0.003847531121038686 -0.0050871683027415735 0.03291801576942686 -0.06896207497802424 -0.0015120773575906267 -0.002353307241064196 -0.0015770488612248678 -0.006748852569377574 -0.001266543578994536 -0.17426287077986707 -0.010731020215876625 0.077541935934029 -0.056964293163515645 -0.5644652482266946 -0.22704680280648623 -0.09953201252967225 -0.14547755673310808 -0.045647207020397144 -0.11581005441943928 -0.008377832799033378 0.022641345610350642 -0.02709361667641192 -0.03552071091638764 0.0011234830014478078 -0.0037738475331141573 0.019208156561629327 -0.00023293371199712703 -0.007769350694737335 0.0009846977780510109 0.02457368803395973 0.018620767037522846 -0.00013209021153157637 0.004412466388459777 0.05217578507177582 -0.006753757926508815 0.0018109949458521392 0.00783363239175831 -0.0026572877459593853 0.0032210329451601498 0.010709571716000224 -0.0017405847815023625 0.021553684279909124 0.013999527272921612 -0.0012670396568781627 0.003916207845529379 -0.013682505610052301 -0.0023987368340338453 -0.020359797955143616 0.008452650403933273 -0.014563386001631365 -0.007636645030823498 -0.02111902481709667 0.01484544869775321 -0.0065532391516839265 0.007794039369889554 -0.00365496540550064 -0.012797181456558745 -0.00501050446107881 -0.0005651986335525976 0.003617354117742173 1.9278134651280926e-06 0.014002386069034426 -0.006602424198855919 0.002955599455230695 -2.471910368162352e-05 0.001443806642327433 0.00715620709142061 0.010723224032541764 0.0007059090035993831 -0.00421779975628624 -0.002198866543016531 0.006354132049402321 -0.003906187733496296 -0.014117032000199552 0.00525080692469344 0.005772886175695799 0.0039002836617425076 1.4411283062962385e-05 0.00036546990747043543 0.0006367956654869991
35096 0.026084825243175517 -0.03457945637622515 0.03706099531127344 0.008463760452353013 -0.015244631355295343 -0.026309429134600687 -0.0005757402743699696 -0.0025121845033039274 0.00609507772179343 0.013300826069791266 0.0029677884031627465 -0.00896195473178665 -0.004652886048568649 0.0049344573709867124 -0.0028873006664280904 -0.011783415397444447 0.02824535129050562 -0.0003694949528627227 -0.023476613638052854 0.02068035325494244 -0.020195701924815755 -0.013169717567406937 -0.0010777317806404828 0.0002463846778964546 0.003202878192718256 -0.0004107456231548782 0.004563647322005388 -0.018200598109545676 -0.00904130621458249 -0.0018889823364885343 0.008819655014202598 0.0002195030580311911 0.04268566174368513 -0.0007928758428470102 0.016843428095782806 -0.0011556340510483858 -0.00034172785684045607 0.01998001373416307 -0.001929142329607408 0.002047744891173626 0.004964382812664797 1.4592758829790394e-05 0.0002448699913283516 -0.000615004961291623 -0.01845384691689889 0.009414413988729633 7.484661804637318e-05 0.0365083419587528 0.011656045944429885 0.015416300586399834 0.004634262851093806 0.0012307433848629727 0.0009021424732472826 -0.0003504831526635122 0.00040230176360759055 0.0007921912295359617 -0.0005203887899680029 -0.037855408470255966 -0.003748040799932414 -0.00950397303245477 -0.012483502241523678 0.05918331554147598 0.050805271375096835 -0.023022657370031202 -0.04723918256789838 -0.004678134827654922 0.02780575779111664 -0.0017446162311474335 -0.04333111194695525 0.11306977806526208 -0.03396401764346959 0.008235101044164991 -0.012086737364809313 -0.08885065060732182 0.004178499320473703 0.07012400073700685 -0.05401618858353796 0.10655004304108882 0.18383500673121475 -0.0005237434888756255 0.011735617455882747 0.0354370321479321 -0.010300039855665412 -0.037024639302130215 0.10811706137274572 0.0006158618093911235 0.023449481107996363 0.00877172435089016 0.0037139367840653865 -0.04791058685537547 -0.029096603587976177 -0.0031581095731584167 -0.02701708540013061 0.018136878365505222 0.13345349260640113 -0.2865191151999622 0.07912654126192134 -0.09039605479837141 -0.13672076100391153 0.09108508859115533 -0.010649142814270528 -0.06994902405997257 0.06371626975174832 0.10790278581810187 0.059109674597750954 -0.1261006976388673 0.14627814845227574 0.09644200001571251 0.0002283549446213891 -0.03858439595483616 -0.03228004255961267 -0.13197374754554442 -0.1517519863101861 0.07423264308871139 0.0647434919233071 0.07004512878209213 0.03384601330581064 0.07673180300675983 0.006898494281497545 0.008905092285282776 0.08618092427782582 -0.02485277079529573 0.00904317113111009 0.007130104497226747 0.07181670121811073 3.2180561094430636e-05 -0.02650282497714649 0.0408143477451233
31454 0.0221561468585393 -0.021051063076762362 0.01334163293153555 -0.0054458017741306495 0.010039545774170532 -0.004837226420407642 0.011465286276203747 -0.016964026511495568 0.004595053501234771 -0.007523899937731368 -0.0018288009646742092 -0.009821558781361615 0.012119456095016294 0.02088074058648681 0.006384369220198901 -0.034378536558118504 0.02475778950274748 -0.00012408183205228333 -0.026441499036981654 0.010265580652244333 -0.008070667410196611 -0.0012223234271784235 0.00010667568526207441 2.7888071189912334e-05 -0.00859387396010111 -0.007111513477737866 0.005646317887343153 -0.056166321835047675 0.04932424054874437 0.015458564650720001 0.1778014537570975 0.002671110022824827 -0.025067689801072792 -0.0029913728173043626 -0.1298931618748266 0.0050465858037761074 0.001470025718957467 0.41816360237600875 0.0284193943899442 -0.004878673894706261 0.08371991817165456 -0.001421298539053868 -0.017113315908503846 -0.009962521743687336 -0.30798277741439894 0.02020783879764857 0.029989674193788684 0.18485271181181426 0.04523765828375655 0.033830349723705695 0.003628723968072005 -0.03904755042638632 -0.0004119861344348647 0.0006351838122058799 0.00040244320657597214 0.001195827983532967 -0.0007996280526185342 0.026719695161926172 0.0010561720117016097 0.0020554961820073566 -0.0008442881918759149 -0.005439635646374985 0.0009072839843370363 -0.001861620298236992 -0.00926540885530662 -0.005291495510969226 -0.004513333109728066 0.0011110639081234111 -0.0015795261921524569 0.00040022132051034513 0.010655021593800962 0.00010329934210112679 0.0010764056226994691 -0.0005379461352472264 2.9659589128035576e-05 0.0034111197988497513 0.0014386315512242883 -0.009998344103111631 0.00044419831174884677 -3.2138900724581714e-06 -0.00042872968749412536 0.002366745736517832 0.00042063868320085286 2.918280453296475e-05 0.0003312886304914766 0.0003414099073664318 0.0010757156381393741 -0.0014175778642184895 0.000282138860123053 -0.00023414997132954838 0.0003827022334551629 0.0005603116664058971 0.0007018374217253304 -0.00028838912868414603 -4.661892174576053e-05 0.00161187988415422 0.00017587553250883312 -0.00014954641546365897 0.002019506253900388 -0.0001673765155603381 0.0009533422637332509 0.0003167873156595294 -0.0003824907559370389 -0.0004675876558493464 -0.0015107163545101975 -0.0003366289095311429 0.0007669936983792538 0.00013165479910181175 1.97124521911093e-06 -0.001176980265952275 0.0002182707781668585 -0.0004701937005453832 -0.0002220510791045335 0.0011540926645648038 -0.00038896097859747816 0.00038417967185602677 0.0005700140616936026 -0.0009568599030972263 6.63144220466097e-05 -0.001992569949677836 0.0005289606000855685 0.0008926711753676348 -0.0013909871479580438 -0.002136950792176298 -0.001094631070455297 -7.484108659568451e-06 0.0017379457800956889 0.0004434027664020665
30257 0.02558619227950832 -0.03210572327407806 0.035189276526114206 0.012609535734434747 -0.01916011800579283 -0.028331985419590932 -0.003349694576819009 0.003819027430536302 0.005232301414074581 0.00561008950049355 0.0032155483307529918 -0.013470149949759563 0.0025598588025684886 0.012978034581327359 -0.004536603688838305 -0.009317758375627478 0.024661871785789075 -0.0002341261582559565 -0.010108411236176307 0.014203137323889939 0.004900485474263142 0.0017441235483833118 -0.0007657920089294501 0.00032567528714796224 0.002124338557429669 -0.001871308435641175 0.014386499955079195 -0.10583085233527852 -0.05390468154473681 -0.015748928002901567 0.024560490724728223 -0.00010701739756969519 0.0005332145167763192 0.001363471821693661 0.028833661400786845 -0.0019585439234766086 0.0005119818390190407 0.04523379116091575 0.000982873145292339 0.0010848872583371493 0.010872833147666182 -0.00047076269483672446 -0.003824359045337461 -0.0020316101863204978 -0.061104795449348825 0.040655490805121854 0.0038066835028525746 0.07742827407533097 0.02840049691208644 0.03803447641739704 0.007827768143106284 -0.003809433077286875 0.00048564999367937023 0.0006817219418987015 -0.0003328329334106955 0.0016773251551349098 -0.0007702781148698161 0.033701002423533355 0.0012323922945373493 0.003953261214376417 -0.0037829798468873802 -0.06561597694511459 -0.05137529509636277 0.004526680931793651 0.06651087883193105 0.03189998850177578 0.052034717647788366 -0.005893376006631543 0.016877707240803674 -0.007706143250348051 -0.09301849724394018 0.004393087909621461 -0.006562509921234706 -0.04814548238783155 -0.0007890238305589877 -0.06125640515835545 0.018209393212535438 0.008107686703769221 -0.020370618324212008 0.00013810020413088767 -0.010738561135980727 0.019649829526076888 0.009088510668753833 0.02860299997961208 -0.027799303942943384 -0.0035045271914484494 0.03243069768586452 -0.051332884788739916 0.047107296038130256 -0.03130722318418573 -0.012785420356371138 -0.13083913973945124 -0.08418184124485492 0.1296564662540705 0.12982565570214244 -0.11254747866582987 0.00987048819999858 0.028080772664721917 -0.10126326481537033 0.12115942981666611 -0.05330395482125277 0.00032139059896876777 0.009109482053168581 0.03611090192854812 0.09176459981692349 0.019109086726055543 -0.03601249718880955 -0.005611827827102858 9.401302496369115e-06 -0.028072307694921004 0.09913467964050308 0.049069283765024875 0.12000667143945908 -0.09781215921876585 -0.14037841049914312 -0.15233416263022403 -0.030585360621999427 0.06850011124368928 -0.024729474776314018 0.12533625001296445 -0.05049066645293514 -0.04050449809002146 0.0969481207954034 0.20665229054982648 0.09513184834686056 0.0008651093812089829 -0.17594797002892426 -0.03210421546547134
31267 0.025959210226118867 -0.02686472231359127 0.017279498984321653 -0.0025817455049279062 -0.019371403701330496 -0.0019226657248156294 -0.010766184534642809 0.01160293619167657 -0.0022961434452803296 0.005636578183756974 0.00398697689553679 -0.004532766550640497 -0.009407598696044956 -0.006021376749183055 0.00027528803778525143 -0.00077582629958516 0.01422723921261498 -8.618461361190307e-05 0.011564041711364046 0.008205026539879224 -0.008509878511527026 -0.005092319122537969 -0.0008992862093367442 0.0003185305757826975 0.003936412822445842 0.0010123934097447337 0.004919499066873752 -0.01254326112354519 -0.018977818160164077 -0.006830008370358479 -0.01035142289477758 -7.716649884520406e-05 0.0058402510475535395 0.0006369236634873215 0.026070860915087708 -0.0024362450106929947 0.0028601423997412934 0.0011854016144688861 -0.002791933217023875 0.0059077809765881876 -0.00843330222140738 -0.0018319444278353115 0.0018308723425545716 0.0001823577400975468 0.0066770089935106495 0.008582811726226573 -0.0034235068979775875 -0.0006342549576529682 0.0019111384561663202 0.0014876147277010075 -0.00939435667381367 0.014074452041259053 0.0006720675920710179 -0.001097844108971672 -0.00019584688809753107 -0.0030098462891725384 -0.0005332492326581492 -0.009554413170725614 0.0002217289459915229 0.0035778381057296436 -0.003293886447719919 0.0006280176535689863 -0.008104646642323474 -0.0032693852663040414 0.007080475525643459 0.014882113443275278 0.029830256255764655 9.453469274941763e-05 -0.023308498009279432 0.022450697769024624 -0.00735532587545769 0.004882632170033004 -0.003458908125279829 0.005577873305097573 -0.0005400548641310883 -0.027889845377475832 0.005291935706375405 0.04952817089306622 -0.0459638370922386 0.00019478753187554445 -0.006468420598447057 -0.0041984188708499666 0.004703687403642771 0.0009887260661734433 -0.008772899179210841 0.021297720284975757 -0.010776696569951597 -0.038781635678701055 0.03904361973125448 -0.015188513018708032 -0.008720531697809737 0.0008566723793472976 0.03205689928938025 -0.03679152356840451 -0.03615961340868905 0.027863720478539224 0.025612119448890726 -0.0508636454390967 -0.018158209753388995 0.02535707917551561 -0.0218004452277829 -0.028689404670578476 -0.007547552697642452 -0.047939500631081544 -0.0559791543054487 0.009303194236983834 -0.024938859174984916 -0.007460612922218289 -5.823411654770991e-05 0.004501270219498921 0.0020873877983107725 0.043962507879924444 0.009268542527347899 -0.029256054057041573 -0.03731235385771626 -0.09277739416375934 0.009029954518875973 -0.12057389105805666 0.012736786473961342 -0.2626176155521259 0.13920364565546492 0.10251168266920746 -0.14852456877243267 -0.07000418402804778 -0.22865944655386577 8.026429931152603e-05 -0.04784871611646503 -0.10107470000272917
31995 0.0321376299519987 -0.050467273275115326 0.020773386488189674 -0.038950734756434534 0.010227563379906681 0.0041153376735856215 -0.005842469813494294 0.007170222472465996 -0.0014138861032645814 0.007413969466227312 0.0030308242270108204 -0.00616109150430155 -0.010349406992983015 -0.0040269885261374596 -0.004540000322624238 0.004994962633301439 0.01937963274139615 -0.00022512146545042316 -0.023472787361150726 0.01294909642199607 -0.024913197294970175 -0.013071397339974887 -0.0002999934077611756 -0.0001723957531532073 0.0022795025878516524 0.0001765180570674961 0.0023734637911548687 0.0017604793408555442 -0.007542491834015354 -0.0033581327857316627 0.007385974174074794 0.00012447827225177562 0.03890108388840437 -0.0014314827463288592 -0.0008421245800982852 -0.0019340523697136157 -0.0013659958965743092 -0.016175320979441084 -0.0052692537910858745 0.006440914002242399 -0.024507022239609846 0.0008424859659225408 0.0009877264041030422 -0.0001002760759604649 -0.0026667501371076797 0.011154408820305814 -0.0038884356968235177 0.01978175513008407 0.006885913331374368 0.01595095094419143 0.013098968693034585 -0.004950218312349217 0.0003578494970424939 -0.00021594915839491668 0.0010250968362715213 0.0009421726579721037 0.00040027510176832517 0.0035383812758638567 0.00043456904283209263 0.0035853700367888953 -0.0003129681044937846 0.02179155156557399 0.0035883150327021577 0.006897448158251496 0.024835933084060378 0.008908564137415436 0.036207929419725726 0.00527240295312377 -0.02298480597223924 0.011367153614553828 0.018389963513443353 -0.0003203933176221417 0.001342780635428546 0.04284781902261432 -0.0006339684428838747 -0.0023941951121895983 0.0005400568730953673 0.04296755641254735 -0.013865363871691102 8.29560049168724e-05 -0.0044376587749324105 -0.019568005446158207 0.004702485263656504 0.032991646260587495 -0.04484720156350587 -0.0158172510779989 0.051192484520550946 -0.012834762635937441 0.06482316961734391 -0.012053598429537724 -0.014600124748452742 0.00769916054842934 0.09457277019727683 -0.008103854674034376 -0.04450077085192342 0.02054302205433378 -0.06725445160731429 0.011429408001576541 -0.11325540966727432 0.03221999518354298 -0.06402404599248691 -0.050891462332709914 0.02023429739142318 0.07423807823445018 -0.1848517492640337 0.004100227995045023 0.01849739033431925 -0.03861742348568738 0.00010470011055677733 0.050762535552747026 -0.040150135147627525 0.04337402447649885 0.04307598736286799 -0.05558603354981394 0.08807823024308135 0.025571717410004146 -0.04148450579162367 -0.026431832842427717 0.01987956326961656 0.05657270595630954 -0.06940571880355238 -0.06559889293932172 0.029621982788384613 -0.015729031381672764 0.07276719150054631 -5.208891364347912e-05 0.03986976858627099 0.02361071253439085
30990 0.03241676629115223 -0.05454712166080249 0.03844779989330124 -0.03417855359558795 0.00549344394272882 -0.011887379226403233 -0.007510238360998083 0.009329849479628576 -0.0006380544092215181 0.06495209387242594 -0.000380035213263306 0.027308168465088763 -0.015466977857830605 -0.006939217956045726 0.0006433335234969453 0.0003132634558541611 0.005870632933032553 -5.525900393498153e-05 -0.004838829193674377 0.0073884167243545755 -0.03381791295800639 -0.01803783409521802 -0.0011378747400788258 0.00032353513515456913 0.0014924362346800093 0.00031467682338759184 0.002511113827385928 -0.005750942855991527 -0.017300056670818596 -0.006116713183237927 -0.01237931111911635 -9.711923571147908e-05 0.03473397851264837 -0.0009082395694710908 0.013726613089792086 -0.0006512907729176835 -0.0009086846011830113 -0.0025546197690288395 -0.0035797265139208196 0.003372399627327099 -0.016738434028529224 0.0007406282788784989 0.0017833578904248477 0.0002532699996615004 0.006782272702358322 -0.0011200147877215554 -0.00016977526634628215 0.0072896914140247035 0.0006760918988292381 -0.0035625858562712597 -0.011513892774284277 0.010870764720920386 0.0009149317297445212 -0.00024695737690800076 0.0002961717648637727 0.0018969394624608197 -1.0972324558790785e-05 0.021648472703360903 0.0014773478583264802 -0.0003321240751866267 0.0026426818998368604 0.022657889886557127 -0.008149770165816141 0.0017222936048701455 0.012932274723217575 0.011591937797867574 0.01837926301922373 0.00968208777014136 -0.01616905208960515 0.035246038819223 -0.0002197617231415483 0.0009708723907422429 -0.0012991807548779959 -0.021241500007142856 0.00038809224152308374 0.0007601113464929692 0.00941842537022476 -0.0482535832646943 0.015984404560976096 -6.156752564307384e-05 -0.0015860984586261713 0.04428861560820225 0.0002600545996437327 0.06518001745025422 -0.06562973074937117 -0.024869754094600943 0.010140585462990145 -0.02003558700068238 -0.015418364698092922 0.0015181337916591266 0.010103919695730787 0.050308274193252005 0.1806339409992019 -0.09909169023379782 -0.06801514340907554 0.06997925023025311 -0.06164593682318097 0.013738463583031268 -0.09020006363951846 -0.10986539530973984 0.04044565744566049 -0.004876334923371503 0.02161233795293405 -0.056832491975344596 0.10858800063185697 -0.020515659822594092 -0.04457384916290734 0.02418274301899831 -5.691605000151e-05 0.05019240165982485 0.08033534103791982 0.06529363384066722 -0.07319155853347944 0.05050611352668018 0.10927751193655073 0.0959832853785871 0.011248321418326261 0.06831349814855645 -0.026540463819112205 0.126377093258309 0.024475407748291968 0.09459349731707122 -0.029039748273353552 -0.03219083266794259 0.12313822529870658 0.0001355729278287989 -0.09881472467499518 0.008939126771898075
31650 0.004783658024368286 0.010044813287417534 0.04198552794967763 0.09737203180367958 -0.04854277206673879 0.20735143456648794 0.008059439376375536 -0.06013386240906824 -0.04616994727703785 0.010660295694650164 -0.006465116065097638 0.043990650077369804 -0.005485970806223603 0.011275175185609132 0.044675177310595116 0.009026865314558319 0.009145777705039231 0.0007464862082576876 0.002007566320543695 0.005086771849609673 2.40429451662958e-05 -0.000372469437277867 -0.0029888552561440932 0.0014944116058764677 0.004566653603909778 5.78492421639975e-05 0.007620054902548175 -0.0032413315368549915 -0.001752032435635391 -0.0027307895018698148 -0.0001391217969492415 0.0006473101504799512 -2.7853955284748504e-05 0.001385965468074892 0.001978634222829372 0.0004649540103407397 0.018127125775156256 -0.00082647625237674 -0.0007424793338215136 -7.046435795236372e-05 -0.00022471612908487448 0.00022102238659555315 0.0002861945588719016 -0.00014462072498768567 0.00021730164540181645 -1.6799128189716166e-05 0.0006844564747215907 0.00039129289423372077 0.00017973074383429444 0.0002747593290047613 4.7058971874044996e-05 -0.00012457248746846754 -1.561817908630208e-05 -0.0006160067321300916 -0.001347508962242001 -0.0013261262881564917 -6.711937282263135e-05 0.0001375385463568398 0.0004799773414000689 -3.788485878817361e-05 -0.00012569877317022268 -0.00019745713414183333 0.0004838026267948613 0.0005863389593999814 -0.0001689065507144704 -8.308993886609812e-06 0.0001046263500497928 -0.00011521704418408752 -1.4358278332775007e-05 0.00029174089070317514 -0.0001122499996321582 0.00043111461302645243 -0.00018905558902031065 0.00018204529648258106 -2.5096874328167744e-06 -0.00034406109583149644 4.6712103504787236e-05 1.9219085666340568e-05 0.00031982877999535853 -2.4118760522463935e-06 0.00010153879584347272 -2.1760716790451464e-07 -0.0001323389901916436 0.0004534295348573736 0.0006850745670746509 0.00014755501242592694 -0.00015939109935351542 0.00022060844667710046 0.00024067986923201925 -1.9781950053990125e-05 -6.576380891024501e-05 -0.00010531688225404594 2.002387364566434e-05 3.7919516395099927e-05 -5.0817491194656955e-05 0.0001870524005899378 -1.586794598623956e-05 -2.8780733055553917e-05 -1.7619184142649783e-05 -8.578214520400092e-05 -6.785151503921281e-05 0.0001547937480360281 -2.7611658202773027e-05 0.0001015176065827875 -0.00017244516622469104 0.00021685020508266066 -0.00022278021349516453 -1.8889953884899103e-05 2.4032166106308634e-07 7.285392512368377e-05 0.00030426875554382006 -0.000368981570339155 -0.0003330854504156054 3.7286134091028184e-06 -0.00010737506119020216 -1.3645632116911773e-05 3.40010848145503e-05 3.9829534120400694e-05 3.696592367305815e-05 4.17922093917598e-06 9.868689006469249e-05 3.815142509874684e-05 9.94709790181879e-05 0.00010235334484140416 0.00012169517134158924 2.0395431617104717e-07 0.0001654582092067937 -4.887645532677375e-05
31504 0.03273717877060633 -0.04297573933965735 -0.021664038486629365 -0.053211711365497086 0.01087388195795885 0.02466768937655691 -0.013048833301018952 0.018877770922662015 -0.006201052535975398 -0.016812920821686974 0.002377321247855881 0.007917231842989033 -0.005969987652908029 -0.007482505213621994 -0.0003146999133372418 0.0057547574081411295 -0.009501613970255974 9.143433584389712e-05 -0.001836580732008512 0.003794974930064681 0.005190196622212572 0.0052464030683640386 0.0002726280218631271 -0.0003054270899424707 0.00045682702569736354 0.0007553964193970776 -0.003386542941752782 0.0012702612166384038 -0.004142330506284689 -0.004813609012684276 0.009419961980183033 -6.326990404512804e-05 -0.025880137103512574 0.002194326726510455 0.061860637880771986 -0.005585104061096749 0.00011632701674699362 -0.11274380068430434 0.0002862041060359486 0.002942238502548857 0.11465650515870958 -0.0012335373259408813 -0.006419778709304681 -0.006769409266513942 -0.21617325581259672 -0.560948806033543 0.05817639040044176 -0.044682432971339246 -0.02392057009968249 -0.025932280843894713 -0.08274426604965956 0.0890175364523978 0.0018120667469071444 0.001297979992048713 -0.001313417004494699 0.002991081505090709 -0.001422055121040579 0.052104038642169885 0.0025314205716532854 0.0053003647778913 -0.0014943949708499762 -0.05638013913739207 -0.030078670767539242 -0.00013799851284436766 -0.011918756961284215 -0.015845867799784336 0.012441683538320735 -0.0016737024414208823 -0.04200504295773114 0.02634666068110512 0.10918272099925498 -0.004859711460821819 0.011873396161780472 0.0481052751911888 -0.001773846056215958 -0.0157585430780015 -0.004311927454816216 0.07430994670042597 -0.021687975401378772 0.00010591577760746345 -0.0006064052211838558 -0.04538981823435234 -0.00032625596616632697 -0.01135066002686388 0.00023409902026023493 -0.0057094360400093 0.0043020433255516865 0.043432565395354936 -0.013462086433612571 0.0046504110052472585 -0.002547907040002928 0.032151149646744204 -0.011185245098757474 0.002681386743915884 -0.0070195902165828905 0.003257330628202939 0.004876821140468527 0.008281775219913167 -0.0016959218124055662 0.00108031206779499 0.001176105831214397 -0.0037725289141971935 0.009073833882063741 0.026599070769946807 0.0012757420644171629 -0.003122036193351869 0.0036466251650999616 0.002202252254963305 1.7561028729595668e-05 -0.0007037938903773676 0.007928423434435342 0.0005326009772780888 0.0024849264792363695 -0.009858325397646063 0.012462813957669875 0.000985654669969728 -0.00027562852331372144 -0.020489448465837758 -0.0028323006156825642 0.016146622156247743 -0.0033842252531780053 0.003435685945168297 0.009003086402619924 0.02107844374650389 0.02400232043676463 0.00010808887844387466 -0.021712596074830864 0.0009729498428984781
