416 128
30135 0.04257886 -0.20099403 -0.020752598 0.027224032 0.039835803 -0.208167 0.13529922 -0.018987674 0.046344183 0.049392205 0.09202604 -0.13758811 -0.12887806 -0.13151738 0.11620782 0.29131424 -0.08449818 0.049092732 0.006405346 -0.12230607 0.116350725 0.40010777 -0.047336563 -0.123220354 -0.15613298 0.1295415 -0.12795943 0.05338918 0.14690849 -0.01773219 -0.1703843 -0.082088925 0.11037725 0.11083217 -0.16225098 0.05914737 0.1944775 0.01025218 0.025511468 -0.17412303 0.13336815 0.080890335 0.048758373 -0.043707695 -0.000477657 0.1860192 0.03810705 -0.1722417 -0.044724315 -0.041847963 0.11219148 0.14377905 0.14481333 0.08398381 0.078534044 0.02605593 0.18763326 0.0667086 -0.03678595 -0.034260556 -0.077156015 0.06305422 -0.01807137 -0.08314704 0.26275483 -0.0929464 -0.15300414 0.023219876 -0.15651567 -0.108836584 -0.13552766 0.012707651 -0.39110532 -0.008214693 -0.11290303 -0.12698291 -0.15370962 0.0432803 -0.009894648 0.077036746 0.0070055365 -0.096218936 -0.09085755 0.19812195 0.20341183 0.01985467 0.15184608 -0.0822761 0.009895811 0.083035 -0.031632155 -0.14179972 0.21742673 0.17686698 0.01726283 0.013642244 -0.06374835 -0.08839453 -0.16039385 -0.052968983 -0.09159041 -0.0009115498 0.015483379 0.012159396 0.087230526 -0.038984854 -0.16079432 0.036041252 0.088313304 -0.10812574 0.17507534 -0.13524602 0.006393054 0.12030018 -0.0535201 -0.037307322 0.06520522 0.016744388 0.01745085 -0.09643286 -0.12244876 -0.08413125 -0.012218925 -0.049968865 -0.057775967 -0.19563787 0.13708864 0.024333725
30397 -0.0012236203 -0.074898586 0.06287575 0.03732982 0.03282286 -0.09212743 0.06859647 0.04592779 -0.05941577 0.19197963 0.17834988 -0.0090021705 -0.23006655 0.06150277 0.13830341 0.14794753 -0.018525785 0.07500776 -0.109758146 0.0327983 0.15868413 0.15850829 -0.0038070066 -0.12202415 -0.10532184 0.025755906 -0.19428743 -0.041228168 0.108273104 -0.062299624 -0.26241106 0.0287254 -0.049321704 -0.03454296 0.0155854495 0.050070178 0.26062047 0.07833672 -0.0032467085 -0.02716951 0.038294364 -0.017319271 0.164816 -0.09785109 0.017148167 0.066132545 -0.10662098 0.036580708 -0.05303679 -0.092618756 0.058024146 -0.030790292 0.204117 0.13456784 0.21683279 0.108922444 0.32218182 -0.015871994 0.013330132 0.039831385 -0.08786215 -0.03431202 0.049784727 -0.10703503 0.15005425 0.022431044 0.07194941 0.12484861 -0.15133354 0.01824 -0.030528601 0.06239017 -0.23377067 -0.11042212 -0.13980052 -0.15762217 -0.11238434 0.18523549 -0.08505321 0.13174894 -0.0739871 -0.13313784 -0.06408343 0.16412286 0.21005353 0.1355808 0.17491227 -0.18047956 0.04182289 0.21102431 0.0033622216 -0.11596405 -0.07441132 -0.051981915 0.21761976 -0.03593227 -0.07720072 -0.08312892 -0.13610533 0.120433986 -0.06378936 0.11862779 0.012215349 -0.07616169 0.14642401 0.06640021 -0.041044217 0.05281663 -0.20802177 -0.2709849 0.21671753 -0.105938315 0.02660041 0.012971875 0.19248278 0.0052307094 -0.029194612 0.015691575 0.03859293 -0.1361151 -0.20191461 -0.08171823 0.007230747 -0.11204201 -0.04485909 0.0028039617 -0.06544499 0.005671303
31057 -0.062539585 -0.048111185 0.07199105 -0.037976965 0.023276739 -0.18181327 -0.063871294 0.058495324 -0.092225835 0.06410899 0.3059174 0.013465116 -0.20511684 -0.02646273 0.22608708 0.15141319 0.02233568 0.09813737 -0.00879003 0.0115280105 0.20520017 0.181062 -0.062095385 -0.15053979 -0.17900467 0.14320476 -0.10273959 0.039389584 0.11894159 -0.06710564 -0.23174575 -0.06365226 -0.037894722 0.051711787 -0.0032947944 0.02549201 0.18764696 0.08683694 0.08513721 -0.08736834 0.04049658 0.06495874 0.12713616 -0.023194699 0.054777242 -0.023238288 -0.021053009 0.112119526 0.009895797 -0.046135478 5.586201e-05 -0.090200305 0.15740462 0.1963578 0.18698615 0.08583104 0.27015376 0.029143441 0.1267528 0.07857249 -0.02250775 0.07118572 -0.055270318 -0.05274492 0.27702674 -0.024596695 -0.0814313 0.19586955 0.0024288138 -0.004466729 0.037599217 -0.059073668 -0.24570851 -0.15292569 -0.09213767 -0.0734393 -0.07221695 0.10244424 -0.024703108 0.1490619 -0.05486632 -0.21606678 -0.043590963 0.2267061 0.1196875 0.19417234 0.23828378 -0.14671001 0.11405785 0.17407836 -0.044022158 -0.05453752 -0.027985066 0.043573853 0.07582623 0.085320435 -0.07332477 -0.1380853 -0.17013545 0.065565616 -0.22794484 0.13192646 0.0949229 -0.083176255 0.088851646 -0.007280608 -0.079504766 -0.13080262 -0.13258164 -0.32058418 0.19603312 -0.10615359 0.015917536 0.03686722 0.1222928 -0.03169484 -0.026520578 0.071242645 0.12873772 -0.1661572 -0.2787927 -0.08451882 -2.6472948e-05 -0.1302381 -0.051871113 -0.012054088 0.1707293 0.09621628
34100 -0.023906 -0.14111532 -0.0401218 0.01596392 0.008233563 -0.1784274 0.09503526 -0.024822975 -0.086929746 -0.0009015545 0.13830703 -0.018197035 -0.13121082 -0.08241036 0.21571001 0.11525952 -0.0005430307 0.14183182 -0.021463798 -0.07122763 0.054799832 0.27178815 0.031891085 -0.064304225 -0.1087317 0.14134093 -0.022738365 0.106354326 0.08166627 -0.059020415 -0.19895414 -0.06991334 0.15102305 0.071250744 -0.17631325 0.0007355467 0.28623888 0.087142594 0.18173075 -0.10747303 0.082842276 0.019086566 0.03183206 -0.08570136 -0.026576329 0.081109405 -0.079621404 -0.10914438 0.00022847185 -0.032807462 0.03898358 -0.051158145 0.28437978 0.25140896 0.108201526 0.07105005 0.20928141 -0.04565966 0.037359636 0.09948743 0.050808232 -0.0022025981 -0.069396615 -0.06932085 0.22944541 -0.030502928 -0.11147501 0.10241072 -0.09055744 -0.0031278413 0.009277021 -0.041545246 -0.10080919 0.0031365263 -0.1544205 -0.08186619 -0.12790161 0.09182206 -0.03375724 0.084439665 0.026971802 -0.13914321 -0.070507035 0.1772734 0.14422789 0.14625786 0.19820079 -0.047142748 0.048822623 0.15646039 -0.07148307 -0.06606979 0.02645458 0.1753453 0.11139291 0.0020428116 -0.027868956 -0.052903753 -0.07201933 -0.11420495 -0.13749412 0.004208457 0.07445867 0.032763463 -0.004591842 -0.15703858 -0.03212841 -0.16477582 -0.1632303 -0.2662826 0.13674062 0.0048105353 0.039048787 0.12700501 0.053021826 -0.052630994 -0.012062477 0.053585548 0.045050103 -0.13794097 -0.22887546 -0.13895132 -0.0052524377 -0.09204687 -0.022266787 -0.20760995 0.13632195 0.112050556
31295 0.047033392 -0.24483374 -0.16984826 0.11899664 -0.014782855 -0.053305622 0.082232244 0.00054859195 -0.057315912 -0.13919914 0.15390818 -0.0598265 0.03966793 -0.17296149 0.28140187 0.19719127 0.03397723 0.11944257 -0.043105703 -0.19079243 0.057403225 0.38430554 0.09258884 -0.007827665 -0.0110003855 -0.038663834 -0.055574916 -0.04196931 0.17730315 -0.042766996 -0.3004889 -0.024924101 0.07929891 0.06820771 -0.15998852 -0.06866152 0.2206679 0.015852114 0.04166431 -0.1759901 0.07052427 -0.12107388 0.08434821 0.014662856 -0.09542089 -0.029083671 -0.10437754 -0.21358564 -0.0146596115 -0.08270328 0.10877244 0.06924 0.27504376 0.23221482 0.14682089 0.047147837 0.25171158 -0.050382115 -0.18313275 0.0018077848 -0.098280154 -0.0074001267 -0.046846446 -0.239951 0.030543657 -0.09008708 0.105565436 0.12874405 0.011514439 -0.07285135 0.1336674 0.09675945 -0.12825692 0.013496705 -0.20962715 -0.10961858 -0.13398457 0.07238529 -0.1596899 0.024102094 -0.034166005 -0.05100206 -0.15804963 0.092429146 0.11635156 0.1313505 0.26234367 -0.12078647 0.16924469 0.2084192 -0.054993976 -0.26177123 -0.01948226 0.119697064 0.17657474 -0.08433006 -0.033584144 -0.035807543 -0.03256624 -0.008559849 0.067569986 -0.02599824 0.025776036 -0.06775298 -0.015106134 0.029222585 -0.11341702 0.05595893 0.032891456 -0.1454242 0.11221224 0.035313275 -0.09524024 0.30167475 0.022242075 0.09056786 -0.1477429 0.14011773 -0.043005724 -0.046498563 -0.2309779 -0.040433608 0.06832684 -0.064847186 -0.02183982 -0.240806 0.010332482 0.00261937
30977 0.038639724 -0.03522369 -0.06389306 0.049237467 0.017371938 -0.14569114 0.0879072 0.025935099 -0.049535036 0.06387849 0.09289324 0.011600116 -0.059127666 -0.09960614 0.13391653 0.10034967 0.06717662 0.060804456 -0.01605813 -0.018791763 0.057857327 0.20036992 0.040499285 0.004194803 -0.015352937 0.041280102 -0.055686753 0.045870394 0.13808016 -0.019863456 -0.13903917 -0.012983175 0.028501425 -0.0019273227 -0.22736257 0.015227522 0.28976363 0.034282453 0.17016166 -0.132176 0.045847084 0.042107303 -0.00031514274 -0.10280145 -0.058362212 0.21577528 -0.08609298 -0.14772598 -0.085866034 -0.10627038 0.13408913 0.02400972 0.22921167 0.28604868 0.13670996 -0.0023904887 0.14830355 -0.07737802 -0.037664093 -0.0014748654 -0.019167196 -0.018652163 0.0109403245 -0.035139892 0.16601157 -0.012530734 -0.0577814 0.025331674 0.0044127693 0.021483418 0.037627887 0.12819958 -0.15157619 -0.010310408 -0.17933577 -0.050700113 -0.1162229 0.16155745 -0.14092827 0.13201925 -0.004476675 -0.06343108 -0.08517765 0.1011191 0.13859437 0.08164338 0.16129369 -0.12849672 0.116353765 0.21315154 -0.08087139 -0.19977266 0.0051037376 0.03661781 0.19919233 -0.051817276 -0.025842337 -0.16344817 0.015744383 -0.0003878525 -0.06304423 0.025822042 0.059743408 -0.025049727 0.04511737 -0.05993741 -0.0072805164 -0.010310784 0.08340708 -0.23216626 0.10943955 -0.055504274 0.006062725 0.22570735 0.093867 -0.06951893 -0.05869692 0.18623139 0.086180024 -0.07301141 -0.075322926 -0.025069604 0.0052434923 -0.03179827 0.02349161 -0.12334278 -0.023622794 0.02517044
31703 0.099569134 -0.21346381 -0.0104392255 -0.038848404 0.083845176 -0.2750196 0.12100974 -0.025140898 -0.042358287 0.042167824 0.17650366 -0.009490612 -0.056086205 -0.034260128 0.14717688 0.09426925 -0.1018426 0.107970744 -0.06881031 0.00987095 0.021145932 0.18505459 0.048535094 -0.040134814 -0.08389195 0.09156212 -0.06915484 0.07273296 0.117097795 -0.020494398 -0.28470474 -0.09717167 0.11638789 0.025067631 -0.13096468 0.012723317 0.2741128 0.07157388 0.1378613 -0.06467138 0.04455756 0.10005217 0.11378572 -0.024840835 -0.12370868 0.13394025 -0.07314321 -0.10255641 0.0796629 -0.086694136 0.12924705 -0.017283788 0.19808275 0.18378082 0.11313664 0.12680669 0.17040695 -0.030935649 0.034778617 0.040279966 -0.011114544 -0.040217236 -0.09843089 -0.09303182 0.08449377 -0.05376452 -0.009506822 0.05985591 -0.030154062 -0.007254178 0.028947104 -0.09880364 -0.1814894 -0.05481909 -0.0725532 -0.11496258 -0.09192343 0.107962884 -0.0711705 0.18714897 0.010810111 -0.20838815 -0.030772898 0.20358843 0.095979065 0.09835532 0.17491807 -0.034169905 0.021733005 0.18200596 0.0318142 -0.009984411 0.049836252 0.14778791 0.13159795 -0.10816876 -0.1724299 -0.16448918 0.00751404 -0.08232094 -0.1422295 0.014341787 0.06437655 -0.012816128 -0.01595731 -0.03374183 0.04840608 -0.122506686 -0.090402886 -0.25313133 0.1533212 -0.008351824 0.08761007 0.091059476 0.059119478 -0.07438408 -0.051696908 0.03380617 0.10821123 -0.09344919 -0.14544807 0.029687023 0.04377719 0.025266204 -0.0353848 -0.12433789 -0.049225613 0.0007508436
30721 0.043786597 -0.15229134 0.053096417 8.925374e-06 0.05564557 -0.17184424 0.18280822 0.10932971 -0.03242335 0.01440313 0.14230098 -0.026189527 -0.049771912 -0.04717795 0.06945922 0.037437357 -0.019242458 0.17521499 -0.06550604 -0.07966946 0.020616164 0.21789289 0.08313117 0.043255296 -0.060996704 0.056989145 -0.07671028 0.13752896 0.16713952 -0.030406475 -0.25154626 -0.018045621 0.020912576 0.028576847 -0.12811014 0.021851776 0.27065805 0.0147170955 0.12544091 -0.06315831 0.12031014 0.05922361 0.14933008 -0.008408462 -0.017162496 0.12395858 0.011355695 -0.10091329 0.030672073 -0.039074197 0.0985165 0.05325665 0.16705103 0.11717955 0.16584465 0.09612724 0.14236614 0.039006084 -0.020013679 0.035471916 -0.07677725 -0.074157834 -0.081292786 -0.1147601 0.16124277 -0.04076261 -0.0010299813 0.059008412 -0.023849312 -0.0060064867 0.042071566 -0.02210788 -0.31185699 -0.058672935 -0.0813902 -0.14110565 -0.052238464 0.09310699 -0.021656612 0.25758174 0.01621159 -0.112754844 0.0034592233 0.121321075 0.11673648 0.05650903 0.1537438 -0.14179386 0.046581477 0.17390433 -0.0033099868 0.0036026519 0.022153737 0.11440865 0.13438237 -0.1465499 -0.07775311 -0.077489756 -0.04257476 -0.030142747 -0.14124154 0.012537162 0.016370183 -0.02956899 0.019112492 0.03099879 -0.022611778 -0.113562346 -0.06434668 -0.14851363 0.21303052 -0.039126646 0.055517517 0.16235332 0.04523391 -0.12918864 -0.005843695 0.08068775 0.13301341 -0.09607349 -0.15041284 -0.0081864465 0.045303505 -0.02006707 -0.047625247 -0.16340977 -0.01824233 -0.0136214495
30529 0.12439217 -0.33328548 0.11437419 0.12227289 0.0244375 -0.25812277 0.1722352 0.119417876 -0.00850485 -0.05604872 0.12574431 0.004090201 -0.115025565 -0.09236603 0.1387561 0.14599888 -0.096983224 0.14443702 0.026075786 -0.0554054 0.036381487 0.15410632 -0.0078068487 -0.044575926 -0.050615784 0.066309676 -0.114158176 0.07237629 0.12342739 -0.024823366 -0.08997592 0.03412209 0.032559212 -0.040872905 -0.11146798 0.096169524 0.229184 0.043892067 0.12146533 -0.1684365 0.07366546 0.11349533 0.05638792 -0.080645755 -0.07802838 0.10939636 -0.042920213 -0.09677625 0.057333555 -0.12844144 0.024340698 0.042393092 0.0705754 0.081308074 0.079058595 0.10886077 0.06296859 0.009132071 -0.0022256696 0.0069485544 -0.005752897 -0.031030541 -0.10586562 0.012174558 0.13712808 0.041094422 -0.07669653 0.1241223 0.016245116 0.0025777807 -0.032197475 0.011742978 -0.27162877 -0.04762793 -0.0939901 -0.09786567 -0.074581556 0.09549326 0.0061997557 0.14499561 -0.021520726 -0.13931388 -0.0082772905 0.15400831 0.17173782 0.11099864 0.16057363 -0.06423468 0.079720415 0.20103174 -0.1019722 -0.042021796 0.04973729 0.07529526 0.12413155 -0.12822463 -0.13008137 -0.08484342 -0.004280826 -0.015945699 -0.12558548 0.008775818 0.038520444 -0.06515317 0.033542287 0.056373145 0.048909087 -0.12994234 0.029727235 -0.21615174 0.19255815 -0.04887282 0.07236187 0.18139467 0.051456187 -0.13877684 -0.02184832 0.13253099 0.14059044 -0.11536907 -0.108571604 -0.14954452 0.015727142 -0.012091886 -0.09753369 -0.18238032 -0.005314563 -0.025161577
30198 0.03653912 -0.16985846 0.17255063 0.06619488 0.031525884 -0.2176788 0.11223317 0.03492656 -0.10990444 0.036026046 0.15168904 0.017155122 -0.12609987 0.018492598 0.098162524 0.159585 -0.008750707 0.103324 -0.01446739 0.001584374 0.033528317 0.19710614 0.043778274 0.021421479 -0.03193953 -0.03387529 -0.08165763 0.17091964 0.13775873 0.032555826 -0.24726906 -0.04549684 0.06332059 -0.03643593 -0.11177176 0.07144059 0.2354394 0.06370008 0.15906976 -0.091946654 0.072920255 0.097695865 0.04902913 -0.07706338 -0.09190489 0.17098166 0.008345723 -0.028076645 -0.091223754 -0.04680987 0.15156305 0.013099365 0.18210982 0.09643041 0.187906 0.1518461 0.18302098 0.0053766584 -0.008877239 0.04295774 -0.017981734 0.02607409 -0.026007572 -0.019177575 0.107355095 -0.046881795 -0.051901367 0.11282866 -0.0069160904 -0.0021664419 -0.03131206 0.03952759 -0.27105108 -0.038769223 -0.11085599 -0.13620907 -0.04289927 0.21033682 -0.055974666 0.13319542 -0.07669696 -0.14604762 -0.028222436 0.13263944 0.16967836 0.014039037 0.18421477 -0.13441968 0.045070976 0.16396298 -0.04844627 -0.07046695 0.055102628 0.04992608 0.15333754 -0.117766544 -0.114145085 -0.16133772 0.000446165 -0.042573564 -0.13197803 -0.042711675 -0.02722146 -0.0055737863 0.034728136 -0.051784463 0.011227441 -0.06995096 -0.009277277 -0.17634454 0.13525377 -0.13071872 -0.013655126 0.043461815 0.015242609 -0.07683128 0.059537847 0.07163364 0.06451493 -0.09295873 -0.12699969 -0.063332014 -0.02268957 0.0037760956 0.007959522 -0.14287479 -0.031654153 0.022706065
30434 0.02333351 -0.24455324 0.04111058 -0.038625892 0.08633869 -0.24885371 0.13951568 0.14570408 -0.0164289 -0.061652664 0.18415551 -0.056804013 -0.032792415 -0.081944756 0.13383362 0.08679375 0.016663007 0.08341152 -0.015492287 -0.05076166 0.08904775 0.25893372 0.06892247 0.07202417 -0.032730173 0.07513722 -0.023340516 0.07608794 0.11286622 -0.035380114 -0.23574482 -0.050975293 -0.015237812 0.032818634 -0.16999929 -0.018558575 0.1717286 -0.031402167 0.098797485 -0.14368607 0.108963616 0.04652484 0.04446845 0.045231443 -0.059154056 0.16591425 0.043719236 -0.084685355 -0.04548396 -0.08355733 0.121721394 0.07551413 0.23295859 0.109374925 0.12584892 0.08645519 0.17179677 0.04079029 0.050865598 -0.006501736 -0.0762722 -0.05650634 -0.12734006 -0.065674275 0.23257743 -0.116476975 -0.07933189 0.0024740368 -0.09192298 -0.04277203 0.001985114 0.004870755 -0.3096451 -0.024337597 -0.19876303 -0.16210282 -0.1230513 0.08792544 -0.108357005 0.25827613 -0.017906737 -0.11217507 -0.021908782 0.14598106 0.1915987 0.046067983 0.21418884 -0.10606758 0.07680258 0.13769242 -0.04653626 -0.16173875 0.038483057 0.18548357 0.12410488 -0.07467978 -0.08764266 -0.12187335 0.0031532599 -0.09035638 -0.097014904 -0.03613825 0.058774985 0.034301236 0.0053382237 0.048132155 -0.06177135 -0.07869097 0.037236705 -0.14597017 0.08982707 0.006485971 -0.018170109 0.19429255 0.05134835 -0.091582805 -0.046120163 0.09556114 0.11814677 -0.05106312 -0.04953016 -0.14364523 -0.009020251 -0.014915746 -0.020179087 -0.13957714 -0.004997537 0.014343601
31577 0.026354866 -0.23331402 0.079142615 0.01660213 0.03777732 -0.2547337 0.13464642 0.051530447 -0.038569085 0.018715248 0.13986056 -0.067976974 -0.20316343 -0.08401063 0.20029528 0.21768805 -0.04493693 -0.020437242 0.039297115 -0.069170214 0.22531769 0.3110846 -0.038983345 -0.07986419 -0.10237145 0.07612102 -0.0559399 0.016528614 0.20983478 -0.007872641 -0.21671934 -0.03245616 -0.024803936 0.03621393 -0.18828179 0.038803186 0.18046087 0.075657204 0.019137213 -0.19894874 0.117452934 0.04262606 -0.0010015705 0.037698735 -0.005140521 0.14909503 0.042153984 -0.08088748 -0.14464527 -0.026071966 0.02131556 0.0016802896 0.07910711 0.09965715 0.17524701 0.08713727 0.15571198 0.023253933 0.046765536 0.002453785 -0.06616176 0.036282565 0.049984217 -0.05486222 0.17007461 -0.16865878 -0.037523616 0.032126278 -0.091605 0.010861728 -0.11551486 0.05967352 -0.31292868 0.050837573 -0.20227523 -0.09461819 -0.13532652 0.084382966 -0.051534344 0.12044295 -0.041139435 -0.15896246 -0.12755796 0.16490428 0.26211074 0.014099202 0.23623894 -0.07808424 0.10935133 0.16602643 -0.10443889 -0.099786974 0.15737493 0.105236724 0.16488671 -0.034599178 -0.056828614 -0.089081526 -0.11680879 -0.038123097 -0.110273026 0.076261215 0.046852756 -0.06786635 0.051466342 -0.08088702 -0.10170015 -0.02117315 -0.011286719 -0.12320291 0.1686533 -0.10015546 -0.0220045 0.06722751 -0.020936156 0.004335926 -0.012730591 0.007865667 0.1054375 -0.07745905 -0.06206762 -0.110834554 -0.06425354 -0.031152656 0.00021045157 -0.11625744 0.08117234 0.06049138
32070 0.080364905 -0.27018684 -0.07335192 0.074171245 0.18750946 -0.17757535 0.17965324 0.12195519 -0.05587628 0.046107188 0.20572507 -0.17627124 -0.14285631 -0.18620403 0.23938043 0.28598115 -0.027885793 0.20433225 0.08856153 -0.12226183 0.08202276 0.48058447 -0.027547473 0.057176102 -0.18396902 0.090457074 -0.061290078 0.07021467 0.10665433 0.011556354 -0.19354795 -0.11018586 0.09440786 0.08521739 -0.24584036 -0.0037843185 0.27056822 -0.10123778 0.07717306 -0.07703054 0.05251088 0.009885509 -0.031726178 0.031823877 -0.0027970274 0.13395067 0.04953702 -0.1466249 -0.15396997 0.014913291 0.16100746 0.15761144 0.2200878 0.15552211 0.0793365 -0.024685696 0.16067374 0.09414567 0.010077502 0.040445484 -0.13798817 -0.010040205 0.029614065 -0.012764224 0.24873082 -0.0063589583 -0.07891478 -0.06891276 -0.112279855 -0.0010253317 -0.03206859 0.09457884 -0.23698908 -0.045929596 -0.15813924 -0.26072615 -0.17392956 0.07327058 -0.068813875 0.18766643 0.02764463 -0.12173316 -0.07383905 0.14096935 0.09351529 -0.008627072 0.1650999 -0.0821854 0.036440272 0.11394734 -0.061479505 -0.14030902 0.11327384 0.17340575 0.02595621 0.0075984257 0.030974261 -0.050316256 -0.14693634 -0.05406585 0.00048679655 -0.09832251 -0.1125445 0.048950333 -0.0241034 0.019610332 -0.18867853 0.006018313 0.123306155 -0.096944995 0.12601961 -0.063496105 0.025953235 0.17178261 0.0152443005 0.003373493 0.048959494 -0.04790607 0.034336343 0.069050245 -0.099953786 -0.13796972 -0.030956592 -0.046065167 0.06321696 -0.12511449 0.112563595 0.11937786
32467 0.13664162 -0.16480425 0.10659087 0.10487465 0.10636762 -0.18748201 0.20517357 -0.0077707763 -0.020895358 0.09764395 0.050474193 -0.09468898 -0.15152591 -0.047601134 0.15018629 0.09162579 -0.1022772 0.16210577 -0.07501676 0.0020920627 0.050249193 0.21911281 -0.06505906 -0.0014522024 -0.17420396 0.08842134 -0.12857819 0.07632486 0.17084862 -0.033783197 -0.17493384 0.032092582 0.08391612 0.041662216 -0.17893337 -0.0110714855 0.3454864 0.06793377 0.15742281 -0.046207994 0.058003917 0.059185587 0.1510823 -0.026992684 -0.06720277 0.103658214 -0.061666053 -0.028223917 0.000650236 0.015261891 0.07239608 0.014163365 0.1736939 0.16950276 0.131058 0.07840446 0.24946709 -0.032126095 0.07360446 0.043808173 0.00823373 0.0052957493 -0.050499756 0.0028308772 0.16848029 -0.04799478 0.019399619 0.025557043 -0.06649662 -0.019678524 0.0127440225 0.03204961 -0.29870835 -0.037884343 -0.06742428 -0.07586043 -0.07022432 0.13755366 -0.053057563 0.1883184 -0.035604317 -0.15443079 -0.0092478525 0.115159586 0.11679199 0.05104842 0.23466076 -0.09447572 0.036476284 0.110589534 -0.0004206396 -0.046678856 0.007469524 -0.0020479474 0.066077225 -0.050346166 -0.104143664 -0.06757901 -0.07287454 -0.0058958507 -0.07872354 0.0924358 0.055796 -0.023988295 0.0075574685 0.06964585 0.0047337795 -0.10894626 -0.05847438 -0.123937145 0.18115392 -0.02512244 0.06797642 0.08697148 0.03375224 -0.050591733 -0.044246055 0.091174036 0.12511459 -0.038216162 -0.05457853 -0.068841696 0.06001172 -0.026828833 -0.0115133 -0.08255074 0.04608287 0.017039374
34082 -0.17963584 0.1675763 -0.37583116 0.02274299 0.3305495 0.22262602 -0.06976837 -0.15455192 -0.073577695 0.065400384 0.3165867 -0.22920105 0.038007323 -0.33872736 0.34107983 0.17697832 -0.1777353 0.037381634 0.12949876 -0.102851845 0.13403943 0.13665475 -0.1624243 0.031374466 -0.4023789 0.32297984 -0.36469966 -0.12754704 0.15416011 -0.12901202 0.08402919 0.04306956 -0.046135433 0.27762565 -0.093965285 0.2142685 0.4459927 -0.16315648 0.050522808 -0.10004413 0.26526266 0.10847173 -0.11876956 -0.095771514 0.11673886 0.25231895 -0.08559175 -0.005263681 -0.25207788 0.22311562 0.26977846 -0.001552594 0.12923999 0.23572671 -0.051681634 -0.48855838 0.11035394 -0.18709284 -0.2103096 -0.0694621 -0.29161683 0.0064085084 0.06846925 -0.3100794 0.48551247 -0.13280609 -0.44798562 -0.1248855 -0.3156799 -0.3810484 -0.057849165 -0.22436872 -0.4489219 0.013183522 -0.23386261 -0.22237109 -0.27620372 -0.30019957 -0.2267118 -0.08344679 -0.046872385 0.03068007 -0.1064316 0.14385466 0.22031589 0.10563897 -0.021663858 -0.100462794 0.1704157 0.21611148 -0.14850968 -0.17866652 0.36257827 0.39502364 0.14412287 -0.10881358 -0.031855606 -0.097421035 -0.20663165 0.10469309 -0.21844521 -0.032538276 -0.25516412 0.26309568 0.10282022 -0.19742362 -0.29696953 0.15331364 0.16537754 -0.38365248 0.06023261 -0.28556094 0.11905944 0.25832823 0.082221225 0.20846224 -0.075947404 0.16520931 -0.06708853 -0.26960114 -0.25701225 -0.44227925 -0.14736897 0.026313996 -0.28699067 -0.25174582 0.31241566 0.18948466
33195 0.08100144 -0.06538117 0.02972622 0.036131565 0.123518355 -0.14789356 0.14889872 0.023082763 -0.05519847 0.08278584 0.13909929 0.004162329 -0.15105462 -0.044115875 0.14126086 0.15896018 -0.045300867 0.08631438 -0.016465861 -0.024982665 0.12300498 0.18689354 -0.043039896 -0.0042044534 -0.14649324 0.102333546 -0.12160993 0.10496577 0.17962134 0.048359912 -0.15030758 -0.032817453 0.07243036 0.095708914 -0.18826951 0.048993606 0.3175107 0.013194065 0.21145305 -0.094535924 0.10478674 0.038923457 0.067866266 -0.0868639 -0.026417961 0.12577665 -0.01736969 -0.004612231 -0.113874994 -0.043638352 0.19957711 -0.0065439334 0.110253304 0.15068403 0.16203946 -0.06107882 0.19630173 -0.059041824 -0.023916988 -0.049080893 -0.09414698 0.0066992478 -0.015974365 -0.077129416 0.18598095 -0.089326665 -0.0854372 0.042128913 -0.10141779 -0.04797865 0.04331366 0.0026148718 -0.34422064 -0.046570893 -0.13559212 -0.088351555 -0.052042145 0.09150097 -0.0965816 0.15003347 -0.07682506 -0.040062588 -0.01788258 0.047179945 0.12370818 -0.016569732 0.13372163 -0.1282477 0.09750482 0.13070606 -0.110015415 -0.05879964 0.0036986333 -0.020680528 0.13212146 -0.06250772 0.016173309 -0.020197751 -0.041496977 0.028358215 -0.093207255 0.052380793 -0.012917076 -0.03359264 0.061795615 0.0006382033 -0.06642282 -0.031032212 0.006739607 -0.1623095 0.21725236 0.011731557 0.020360336 0.13143069 0.115147285 0.007969251 -0.05666422 0.1369792 0.15123528 -0.08569253 -0.10363197 -0.08698939 -0.026786359 0.022384383 -0.06074433 -0.18178158 0.07306617 0.038020577
34761 -0.055968437 0.21403833 -0.52040386 0.10763693 0.08292702 0.27222443 -0.092056625 -0.15406115 -0.15489691 0.1637633 0.37061107 -0.095625296 -0.13414967 -0.24547175 0.31722677 0.48176864 -0.25170404 0.08988101 0.08300471 0.0037249415 0.1019321 0.25696003 0.004451533 -0.15998183 -0.39266583 0.3843151 -0.29022574 -0.020469474 0.07251139 -0.08182167 0.021657083 -0.06969359 0.13865703 0.307542 -0.23073371 0.14468454 0.55301297 -0.14956659 0.16177757 -0.05901095 0.09714506 -0.009662412 -0.1385223 -0.08490149 -0.036329504 0.08232307 0.022572538 0.13208172 -0.30999124 -0.11276812 0.27329114 0.013519777 0.019985653 0.06815369 -0.049237747 -0.44958428 0.096986905 -0.18975051 -0.24199003 -0.2624708 -0.22291745 -0.05392129 0.015115191 -0.25367904 0.3513434 -0.15855755 -0.37271863 -0.05472057 -0.38491926 -0.23127961 -0.072481625 -0.19204992 -0.21992719 0.05107736 -0.25983056 -0.20651762 -0.345195 -0.12088769 -0.2687522 -0.18972665 -0.08656937 0.040227134 -0.18452354 -0.019396914 0.32019964 0.04847106 -0.043920543 -0.07772733 0.036273714 0.16087648 -0.11806255 -0.15916036 0.2184574 0.17497545 0.14162695 -0.0033078066 -0.034291558 -0.043787766 0.022371802 0.015143935 -0.123149455 -0.020815188 -0.2521352 0.12927839 0.16760057 -0.24008127 -0.2719012 0.24786687 0.09169754 -0.3936233 0.13216929 -0.13738109 0.0042957957 0.1504776 0.33902702 0.33627525 0.030624298 0.20614146 -0.04325547 -0.3045939 -0.2751778 -0.45832223 -0.23744781 0.01503343 -0.3608778 -0.3362123 0.28198686 0.20222016
34711 -0.07611166 -0.13329087 0.016048118 0.06462528 0.11335801 -0.10615603 0.072382934 -0.013743338 -0.10221615 -0.107376605 0.116909616 -0.02329573 -0.13329615 -0.15464635 0.11572576 0.15650807 -0.029071592 0.1797175 0.11187271 -0.13891566 0.06974218 0.28047067 -0.033951193 -0.053786818 -0.013792086 0.06815145 -0.04841286 0.042048883 0.09760344 -0.11265618 -0.25849098 0.026149327 0.08784909 -0.022666553 -0.06811422 0.0023175457 0.2805161 -0.045947783 0.03740909 -0.11900381 0.11132047 0.0141888065 0.047693618 0.04249314 0.04265888 0.20708914 -0.0047595473 -0.049082275 -0.12418674 -0.07390582 -0.024171326 0.15945542 0.21069297 0.1203868 0.21389736 0.10143868 0.11770614 0.101383306 -0.026736887 -0.085002124 0.00016678378 0.0026991586 -0.03173805 -0.075767376 0.2978039 -0.13114975 -0.0728598 0.09847995 -0.06536862 -0.0050272467 -0.020357987 -0.00028888014 -0.38284823 -0.09231865 -0.1598253 -0.16305244 -0.16584754 0.14006726 -0.026218832 0.115987495 -0.108140886 -0.13583069 0.0008291546 0.15679848 0.2203945 0.018980803 0.27463984 -0.16525279 0.041307624 0.18519692 -0.040309463 -0.054575957 0.07171177 0.15714745 0.047413997 -0.059142508 -0.14890844 -0.12310676 -0.03360743 0.015204447 -0.10013484 -0.04937366 -0.092636675 -0.0068705897 0.08833682 0.052270655 -0.065315865 -0.10279609 0.079561256 -0.13572308 0.1078976 -0.09867715 0.0008939463 0.18190318 -0.02319793 -0.14630634 0.09166819 0.027667988 0.041629728 -0.072439075 -0.018582502 -0.05678303 0.06705568 -0.12276952 -0.07664408 -0.14852284 0.04996056 0.026001468
30852 -0.0008223261 -0.12245178 0.050129708 0.00950838 -0.02551143 -0.21096694 0.15336433 -0.013411828 -0.053286318 0.061930396 0.14699642 0.015792029 -0.11031551 -0.053305008 0.21967877 0.13658446 0.01496141 0.17766726 -0.120932676 -0.0061364677 0.014164314 0.249278 0.05558198 -0.07692615 -0.014762845 0.060779374 -0.0840605 0.09610869 0.16881737 -0.045402426 -0.2217749 -0.07067213 0.12679374 0.0056006867 -0.16468164 0.032818086 0.28113815 0.08069628 0.15960285 -0.13961585 0.02562071 0.08080797 0.08380445 -0.06865218 -0.011222449 0.06029436 -0.14943913 -0.07931625 0.07215228 -0.05964833 0.06801311 0.037764974 0.18035355 0.22129335 0.15494639 0.09727296 0.20144528 -0.01000186 -0.0007910482 0.038584597 0.072425865 0.022580044 -0.06505874 -0.12933217 0.103177495 -0.07349738 -0.010516258 0.13333638 -0.045459997 0.022073025 0.032800313 -0.01641012 -0.124884166 -0.050883804 -0.0774927 -0.04958758 -0.085818276 0.1199275 -0.050673585 0.041391183 -0.02834955 -0.19314682 -0.037931 0.21136683 0.14385702 0.07503461 0.21746174 -0.1164504 0.02250908 0.12143449 -0.00016720747 -0.084417135 0.03302901 0.112822734 0.09630376 -0.036230948 -0.100899786 -0.11380529 -0.027517091 -0.09793783 -0.070778325 0.025274165 0.11913775 -0.026896117 0.061383795 -0.09693851 0.0005134355 -0.123937935 -0.060647044 -0.23027027 0.1742696 0.0065904628 -0.014791561 0.1410829 0.0014426634 -0.09042401 -0.049421445 0.07026156 0.04669086 -0.10150782 -0.14437708 -0.009058189 0.024965877 -0.05409869 -0.07455304 -0.13174197 0.01887974 -0.04581257
34524 0.053199887 -0.28469968 0.059522618 0.049103197 0.060352307 -0.33725902 0.146923 0.081864804 -0.08211994 0.074083045 0.14569917 -0.052299723 -0.16784546 0.014879747 0.19050848 0.20839131 -0.02754957 0.15408336 0.024569595 0.045820653 0.12064815 0.24843992 0.012369584 0.0025408196 -0.06885753 0.06332332 -0.063169494 0.07938035 0.08722001 0.05542568 -0.2389756 -0.044788007 0.033896986 0.0077122063 -0.116015986 0.00836023 0.08025682 0.0094401315 0.037585225 -0.094850525 -0.008762215 0.064415544 0.055648938 -0.044358213 -0.011533515 0.07936552 -0.035429694 -0.055845376 -0.055415742 -0.00467417 0.16313267 0.035625685 0.1807643 0.047604125 0.10624685 0.13863504 0.24490133 0.0622653 0.0717357 0.0031855665 -0.061339915 0.0038006823 -0.07912086 -0.08858958 0.124934606 -0.019771816 0.02083405 0.044757873 0.008510769 0.037703898 -0.0017918255 0.05552156 -0.29424083 -0.09144713 -0.10045446 -0.19422986 -0.075909436 0.16654792 -0.04739548 0.19105038 -0.012939912 -0.18898685 -0.044412155 0.20522915 0.15693825 0.068144165 0.23104443 -0.17761105 0.046891037 0.11613682 -0.07064554 -0.030621687 -0.052595668 0.046266463 0.105430044 0.05563759 -0.07223964 -0.10694919 -0.042376377 -0.024485553 -0.06845049 0.051002644 -0.024132092 -0.0052857683 -0.007093592 -0.0102874655 -0.063032776 -0.07420146 -0.07888735 -0.14978385 0.12491811 -0.032757815 -0.05026519 0.07080166 -0.0084910905 -0.03845522 -0.058717374 -0.0016028367 0.086588375 -0.03102984 -0.2193888 -0.045110956 -0.046551414 -0.044339795 0.024803655 -0.116667055 0.057627156 0.10106944
33667 0.059481855 -0.24382536 0.054809403 0.04761675 0.07841846 -0.15823703 0.11783634 -0.06771228 -0.1056692 0.04719507 0.15006539 0.02834184 -0.14822714 -0.056660946 0.18639982 0.21675782 -0.006286228 0.20656268 -0.038453743 0.010287304 0.06256913 0.2922667 0.08225651 -0.02393931 0.007888548 0.07227347 0.006330603 0.054224733 0.1187915 -0.050836798 -0.25744954 -0.057593677 0.010677583 -0.023521237 -0.19843677 -0.070632495 0.122279204 0.0049714292 -0.006399979 -0.17289317 0.041918576 0.059161544 0.09265869 0.0045378734 -0.00994114 0.18708351 -0.028832573 -0.124499105 -0.068314575 -0.09274906 -0.006629832 0.07379818 0.18059559 0.07784605 0.15802917 0.19012499 0.16762477 0.06904254 0.081380725 -0.04984332 -0.041155785 0.031711474 -0.112530366 -0.037806515 0.16105863 -0.13980667 -0.025622234 0.04846724 -0.008866292 -0.02813449 -0.041096795 0.061392836 -0.35681966 -0.039717738 -0.16654024 -0.16920003 -0.11530739 0.24970812 -0.03885518 0.22465877 -0.03411304 -0.10457374 0.029132053 0.1411078 0.1332492 0.040354647 0.2514548 -0.14379744 0.01938653 0.0451855 0.020693256 -0.006362083 -0.014694885 0.052022275 0.0903417 -0.028367037 -0.121462986 -0.057192527 -0.019911895 -0.013316892 -0.061589252 0.027831193 0.049743228 -0.0263747 0.06585898 0.07910373 0.034213863 -0.064333476 -0.065853514 -0.13100852 0.11412996 -0.10351949 -0.034284655 0.07700478 -0.011581074 -0.14878489 0.07229606 0.0018084905 0.14603525 -0.091758884 -0.12036813 -0.030429412 -0.008682976 -0.039624248 -0.063774146 -0.20272389 -0.049013264 -0.0040109586
30792 0.008021198 -0.35852164 0.049733847 0.15818393 0.054628827 -0.26427358 0.21291235 0.08458565 -0.21738443 0.010294478 0.093180254 0.02220962 -0.101421855 -0.09341794 0.24810185 0.17371237 0.016924728 0.1244501 -0.023229402 0.0038512547 -0.021340804 0.162289 0.034023553 -0.022551298 0.04703923 0.049191054 0.005996118 0.13346915 0.06539998 -0.016256474 -0.19740774 -0.028968113 0.038466353 -0.02272858 -0.25254992 0.0026509468 0.21221957 0.04982805 0.16173357 -0.15143108 0.05725948 -0.06503663 0.11424181 -0.0068456074 -0.06803244 0.19663495 -0.029112654 -0.010225403 -0.037625093 -0.106120296 0.03698213 0.08438884 0.20252854 0.18522845 0.11143323 0.05004543 0.13397436 0.02614533 0.004336346 0.055329055 -0.020309348 -0.053405393 0.0068195327 0.0062127057 0.13180229 0.04387276 0.07962462 -0.003676177 0.032322872 0.018734155 -0.029592881 0.029807065 -0.1624991 -0.105612926 -0.123715684 -0.16555926 -0.107022665 0.16553043 0.02691717 0.157382 -0.0054895203 -0.08703503 -0.019199302 0.18846859 0.11744811 0.11442246 0.15623161 -0.10592215 0.06317169 0.10768611 -0.058985226 -0.020081937 0.013410334 0.026899543 0.09938821 -0.045838676 -0.12081793 -0.12298905 -0.033846855 -0.032582812 -0.12121768 0.052890074 0.054967415 -0.051251397 0.06418112 0.007283532 -0.002786828 -0.08991459 0.00784773 -0.1560774 0.18936163 -0.00025376736 0.037563212 0.193118 0.031720232 -0.07016011 -0.017116275 0.08708539 0.12548545 -0.08297626 -0.15167953 -0.07135913 -0.033251774 -0.021223351 -0.06037188 -0.14903745 0.015314596 -0.0027199674
30647 0.119542114 -0.22281778 0.16183707 0.06083924 -0.059800193 -0.22537734 0.22856651 0.017677408 -0.024325041 -0.004004195 0.07846797 -0.042770173 -0.030834625 -0.056030553 0.07559929 0.14193775 0.014488974 0.079036474 -0.03279178 0.01646437 0.0057444023 0.23467545 0.015605115 -0.0067484225 -0.10515975 -0.04841722 -0.13567057 0.10934568 0.16169746 -0.024572102 -0.20658052 -0.084114775 0.11643317 0.01541962 -0.21391736 0.07171786 0.24850678 0.027120782 0.11024657 -0.18801016 0.051763687 0.10900953 0.0051882262 -0.04071712 -0.07150962 0.010559188 0.009849298 0.0012579687 -0.011273088 -0.060762297 0.17798796 0.0076911007 0.05593436 0.05218478 0.09216774 0.081095345 0.18978572 -0.006134181 0.008476217 0.033140827 -0.0039521945 -0.027504308 -0.017088259 -0.05519723 0.047473438 -0.0783159 0.039213095 0.09837812 -0.022674795 -0.053362213 -0.009175899 -0.0064758235 -0.29679927 0.0023845462 -0.02382575 -0.11020868 -0.022859927 0.16637485 -0.09547912 0.13187659 -0.052212086 -0.22596928 -0.028408984 0.1563296 0.22180705 -0.0024677168 0.19003402 -0.13349994 0.07905431 0.094136365 -0.019983785 -0.03318047 0.10895423 -0.0115077775 0.118519425 -0.10248308 -0.06257648 -0.2197313 -0.01296053 -0.09517877 -0.10109341 0.017766245 0.045773454 -0.026452856 0.07456949 -0.0004823383 -0.054295663 -0.05737721 0.0712895 -0.14483751 0.16170043 0.04374711 -0.06396843 0.052073926 -0.008884693 -0.063894644 -0.003338791 0.08090629 0.102796584 -0.027441371 -0.14278738 -0.046464734 -0.06070814 -0.024054881 -0.018288054 -0.118986525 0.010783399 -0.026984125
32945 -0.02792644 -0.14921704 0.031972915 0.058730707 0.11999403 -0.17568807 0.18716347 -0.013546742 -0.021338305 -0.0276676 0.18130676 0.017589675 -0.1116899 -0.045525197 0.12369518 0.096459605 0.024623966 0.027312852 -0.0015860929 -0.092923075 0.11530426 0.2290624 -0.07790242 -0.012963824 -0.10427199 0.0956558 -0.09922595 0.030184746 0.0543216 -0.09040167 -0.117030956 -0.085598685 -0.0127046015 0.04168078 0.0016498705 0.16789053 0.11273628 -0.025666859 0.036292322 -0.13231792 0.03197011 0.08073113 0.036672946 -0.025654418 -0.0060214256 0.1745542 -0.038151238 -0.073551394 -0.16203104 -0.09851584 0.06906423 0.11160486 0.2121869 0.100276485 0.18512347 0.03548724 0.16436209 0.05705582 0.037949197 -0.116369985 -0.0504712 -0.013809458 0.00025368948 -0.10991219 0.27517462 -0.084896535 -0.10116692 -0.015739346 -0.07552571 -0.0777741 -0.03227314 -0.12325355 -0.35752892 -0.06404389 -0.12822853 -0.17665261 -0.10097666 0.03772329 -0.10663427 0.21357703 -0.12423956 -0.115851 0.05425281 0.26417333 0.14828838 0.016780326 0.18226624 -0.15492846 0.13795611 0.20903018 0.0054119276 -0.13275905 0.085555054 0.12585989 0.24812497 -0.06783057 -0.024534568 -0.056218836 -0.13240424 0.014846227 -0.08663268 0.07244898 -0.044768002 0.038232252 0.020619215 -0.030507714 -0.11122983 0.06884309 -0.017717635 -0.12735456 0.10865924 -0.099311024 0.0006315639 -0.04637389 0.057800967 -0.039411623 0.02876431 -0.005177136 0.06738379 -0.15876596 -0.18680787 -0.060713075 -0.12285075 0.075735375 -0.16128193 -0.2725893 -0.01831213 -0.003118633
30693 0.099474065 -0.0823914 0.00162823 -0.04597106 0.038655072 -0.13847533 0.10811213 0.028702678 -0.1176897 0.025612663 0.086067125 -0.020731844 -0.12431667 0.029114949 0.1557785 0.106313735 -0.030496411 0.056107517 -0.087650046 -0.0128450105 0.15691856 0.2254461 0.09761069 -0.059849076 -0.08181462 0.102411106 -0.03785519 0.09333702 0.12023384 -0.059594944 -0.3747478 -0.080276266 0.19012699 0.03897695 -0.18355146 -0.009713121 0.25090238 0.07445334 0.16974713 -0.09517803 0.06617968 -0.0076969597 0.06873854 -0.0010088679 -0.027591284 0.11560463 0.03275656 -0.042022943 -0.036695834 -0.05422193 0.11741649 0.17095716 0.28621775 0.08931447 0.038815662 0.15514274 0.17500688 0.0023286298 0.044999026 0.0024953478 -0.02863555 -0.02455296 -0.028919987 0.06172337 0.062612794 -0.053735565 0.06296595 0.008065139 -0.044110525 -0.03701131 0.05194539 0.0028939038 -0.26143873 -0.08694707 -0.14568843 -0.07318897 -0.082329795 0.20993826 -0.04147515 0.3082429 -0.045203544 -0.1049358 -0.070462525 0.17524834 0.12515259 0.0056801615 0.24362668 -0.049251877 0.05003909 0.10476176 -0.025109924 -0.12856391 -0.04688596 -0.010650151 0.09018377 -0.035783112 -0.08217646 -0.18242244 -0.04352251 -0.10060582 -0.061994486 0.105073385 0.057975143 -0.02795588 0.007228747 0.018816343 -0.03036034 -0.008309702 -0.06490096 -0.073221706 0.16590348 0.08174334 -0.061656576 0.011087366 0.032917213 -0.06499321 -0.016795525 0.08920226 0.09204041 -0.01641259 -0.09220801 -0.05509088 0.015377338 -0.041731555 -0.013793882 -0.11013929 -0.016315829 0.00075081864
31135 0.038276363 -0.20365137 0.024909457 0.05155634 0.0619079 -0.12567757 0.17278935 -0.009601354 -0.047442526 0.13776225 0.17846063 -0.05760171 -0.071113795 -0.10984694 0.161802 0.33927056 -0.09435645 0.091195494 0.12049149 0.076454595 0.037571583 0.2122694 -0.15432103 -0.06879622 -0.16035844 0.18386543 -0.06425702 0.08427812 0.011319243 0.06267451 -0.015374245 -0.06417051 -0.00852573 0.057655428 -0.114008404 -0.08137237 0.12521082 -0.078980595 0.0016251362 -0.0651912 0.12424441 0.025524028 0.113284215 -0.020403422 0.015186162 0.09486088 0.028550634 -0.0030989114 -0.049433146 -0.044085607 0.18208629 0.07209129 0.16791269 0.009010344 0.08746113 -0.08172013 0.15523738 0.078853585 0.031405773 -0.042530295 -0.17166072 0.022010054 -0.118387036 -0.081185296 0.19025655 -0.059541665 -0.17689556 0.027484247 -0.18178685 -0.18314333 -0.10178221 0.006572332 -0.35535777 -0.054002356 -0.11363133 -0.19910401 -0.11565384 0.1203861 -0.009973708 0.16674563 0.055905074 -0.13174172 -0.0550435 0.16611548 0.18260333 0.08423747 0.14486781 -0.20643722 0.050216276 0.0038510568 -0.07440006 -0.013163701 0.017416954 0.04769791 0.071523935 0.008750778 -0.005915076 -0.13261932 -0.032870606 -0.03656878 -0.20394169 0.022499252 0.048786253 0.08055623 0.19868715 0.12425867 -0.1474339 -0.052408084 0.01837967 -0.22266817 0.25398618 -0.06037258 -0.07371103 0.23513466 0.23374724 -0.0586378 -0.0027040793 0.12141676 0.15357573 -0.13060987 -0.31656557 -0.21007137 -0.10257114 -0.15293753 -0.13166808 -0.21625347 0.14263985 -0.020271352
34685 0.137693 -0.28653538 0.101443194 0.07601801 0.1691252 -0.35938662 0.21751155 0.044654958 -0.028788818 0.11016139 0.1773783 -0.0064147087 -0.08137866 -0.047587402 0.10761034 0.2162112 -0.037281334 0.21330585 -0.081452094 0.01964235 0.12912442 0.27073446 0.043348007 -0.0011488055 -0.08318186 0.029972173 -0.119714044 0.1202739 0.12138999 0.0071394998 -0.12693511 -0.05177944 0.06218986 0.057864614 -0.055023156 -0.05080377 0.20475702 0.030335058 0.14742503 -0.040436916 0.039826643 0.078512244 0.1021623 -0.04947777 0.0036200942 0.10201351 -0.008489384 -0.06721962 -0.08575524 -0.028918397 0.15536429 0.023466915 0.18894398 0.08878132 0.101686485 0.05125774 0.2102266 0.019338662 0.039138034 0.044021625 0.0341694 0.0025226106 -0.06329267 -0.06402208 0.09717502 -0.053434204 -0.05951623 0.07335845 -0.0137864435 -0.014579797 0.0028191123 0.011566766 -0.30771643 -0.018021127 -0.1152293 -0.20480509 -0.023513427 0.19527945 -0.09345687 0.23782867 -0.06807243 -0.16206326 0.011259367 0.21760769 0.16382845 0.09719953 0.19921944 -0.12963955 0.033321563 0.08725118 0.050866976 -0.05544512 -0.0008026744 -0.07551389 0.08632256 -0.079582915 0.035504475 -0.056778643 -0.084758334 0.026521724 -0.1024855 0.0823928 -0.038421348 -0.020835973 -0.010355234 -0.0014084595 -0.11251887 0.00030895264 -0.050401956 -0.086511225 0.15579167 -0.022959102 0.019141462 0.007204587 0.09087707 -0.06533105 0.08457811 0.03764703 -0.0027143958 -0.08215671 -0.2514675 -0.056091074 -0.058967497 -0.103129245 0.02563596 -0.12475597 -0.0049257027 0.017696237
35096 -0.027331421 -0.15005592 0.109276436 0.07178014 0.0097311335 -0.1850467 0.2809956 0.09783072 -0.092767246 -0.07731381 0.15230434 -0.0024494627 -0.15399508 -0.068420425 0.23008564 0.18465978 0.07837939 0.10477677 0.09575819 -0.090165846 -0.0055063087 0.31105173 -0.05668672 0.017621936 -0.11844921 0.10912135 -0.06275761 0.16330746 0.11446998 -0.027813504 -0.17260374 -0.1229061 0.011753091 -0.08219355 -0.074563116 0.06320263 0.20239322 -0.028647922 0.06953565 -0.140094 0.075557634 0.018974008 0.056601826 0.0021764871 0.018097762 0.11302988 0.0060747666 -0.13770176 -0.0034939237 -0.0006778383 0.09110556 0.11372348 0.16955878 0.16244364 0.14540787 -0.008134228 0.2115758 0.056950293 -0.0057544373 0.03442588 -0.070287295 -0.012662421 0.013484638 -0.022019517 0.21608354 0.059131183 -0.07196587 0.09528152 -0.009803328 0.024011143 -0.0010781869 0.04641578 -0.25690413 -0.11847717 -0.1608872 -0.03309753 -0.11703867 0.12900734 -0.022894701 0.1722073 0.0046492172 -0.10980099 0.0074493485 0.15672448 0.13194096 0.056495745 0.13002412 -0.091207564 0.057008136 0.17557152 -0.10494356 -0.13760792 0.063586846 0.1480952 0.09719778 -0.025384791 0.010003958 -0.07752181 -0.09304878 -0.020802492 -0.13321625 0.020330464 0.008018326 0.01809442 0.03982891 -0.07302757 -0.018894227 -0.11583414 -0.0032555985 -0.23004222 0.23556587 -0.14967409 -0.0061153835 0.19105098 0.004906574 -0.101159886 0.028733058 0.09836929 0.1742905 -0.07169001 -0.16159108 -0.052366305 -0.045337465 -0.053104356 -0.029078655 -0.09987032 -0.0044856733 0.026803892
31454 0.06076658 -0.15263204 0.15686147 -0.059171703 0.106518 -0.19675311 0.10948774 0.047567073 0.0068629216 0.10191599 0.117357045 -0.039874513 -0.09360628 -0.008993313 0.04870965 0.09127835 -0.0069832685 0.14375891 -0.052615047 -0.00151776 0.047881283 0.1748028 0.02956875 0.00074012193 -0.043638375 0.08347616 -0.07981226 0.084317 0.15162782 -0.025684368 -0.22550754 0.037343357 0.095256515 0.045587946 -0.1564749 0.021475222 0.28311893 0.0035091299 0.14355212 -0.022700295 0.057794847 0.12210794 0.08534596 -0.03610658 0.017497199 0.060878243 -0.04717208 -0.052225333 -0.030900523 -0.064834654 0.118932135 0.08528115 0.18080887 0.101972006 0.12508978 0.089034356 0.14364411 0.0519181 0.016612558 0.005028537 -0.014610032 -0.05921961 -0.071942136 -0.13104238 0.13783595 -0.13321526 -0.029372964 0.056478262 -0.05516866 -0.024039222 0.0007782655 -0.005900158 -0.2851293 -0.04226448 -0.11929232 -0.10053662 -0.09511704 0.13313079 -0.12344982 0.20859295 -0.023944175 -0.11421932 -0.069758646 0.059101433 0.21140994 0.0067092953 0.21280783 -0.15926343 0.032216568 0.13719566 -0.1261814 -0.07189283 -0.052364964 0.102907464 0.16682021 -0.014661223 -0.07229826 -0.10361572 0.01949218 -0.113961086 -0.0760558 0.030931316 0.08556473 -0.008468017 0.03718206 -0.025528178 -0.06433413 -0.096381135 -0.05169531 -0.2051154 0.0862113 0.0038990239 -0.010035125 0.14105798 0.08434316 -0.101788715 -0.04835843 0.06886146 0.08180202 -0.011357491 -0.16091207 -0.08920158 -0.0029738436 -0.065917104 -0.06578089 -0.23482035 0.04611137 -0.046708886
30257 0.040652778 -0.18626647 0.030788023 0.05951295 0.032478698 -0.25018382 0.21520062 0.04348983 -0.10443238 -0.015854837 0.1778947 -0.04279817 -0.2041982 -0.17316729 0.25876236 0.21834674 -0.08289022 0.1086443 0.06873201 -0.12269233 0.09311347 0.29584712 0.0036415858 -0.058570426 -0.10899663 0.03528457 -0.06482091 0.08110457 0.09337882 -0.08510116 -0.17808731 -0.16042824 0.16776982 0.060245156 -0.13533302 0.12662339 0.15902326 -0.04202614 0.049460486 -0.14147496 0.13645527 0.02993045 0.054446656 -0.051748224 -0.06670072 0.16007204 -0.029191107 -0.052163307 0.01881561 -0.15597518 0.050735176 0.13270403 0.1470155 0.10706715 0.18426825 0.042673863 0.17852226 0.029708879 -0.055573292 -0.022452721 -0.07868389 0.033179577 -0.08733026 -0.058411922 0.21665943 -0.080443405 -0.032770474 0.049254343 -0.047356397 -0.0054897526 -0.006445924 0.02217764 -0.3021141 -0.18890968 -0.082976356 -0.039449375 -0.05303806 0.043045133 -0.0013145161 0.19072668 -0.02619038 -0.103846826 0.01742315 0.21486513 0.1459976 -0.062294316 0.14322022 -0.1362786 0.02114297 0.12011925 -0.086957745 -0.09218481 0.079963446 0.19663575 -0.036518823 -0.121321894 -0.12567496 -0.07333978 -0.0141010685 -0.032641523 -0.10973757 -0.063551016 0.018084582 -0.027904987 0.037373453 0.05201254 -0.030989025 -0.04260617 0.070934616 -0.14172111 0.12089976 0.010035437 0.04434452 0.15188624 -0.034200363 -0.10464843 0.008050808 0.09595612 0.110692926 -0.07073998 -0.12190118 -0.017924996 0.031003946 -0.03361653 -0.08784457 -0.19029678 0.046747655 -0.05009509
31267 0.06339124 -0.167971 0.06922459 0.09408801 0.0048216246 -0.11823886 0.14168912 0.01427296 -0.044047747 -0.00032194977 0.13752054 -0.005554444 -0.14481115 -0.042542163 0.20256357 0.2488866 -0.046319593 0.040085196 0.017619446 0.0072733113 0.11142284 0.2756221 0.018354988 -0.0344613 -0.116706274 0.14943886 -0.07818219 0.08126029 0.14880513 -0.014348296 -0.21025999 -0.03851756 0.0230554 -0.030715937 -0.15640925 0.010446725 0.19625874 0.090814285 0.080864 -0.1734614 0.002088318 0.11028133 -0.0044431263 -0.03310765 0.01170361 0.18953238 -0.016977856 -0.14175764 -0.062129594 -0.015398769 0.045000233 0.13037828 0.18234931 0.14443581 0.10460399 0.112016946 0.19564521 0.011206887 0.08050602 0.025878998 -0.048232727 -0.017150458 0.014539286 0.06681795 0.091371246 -0.021169776 -0.057691466 0.049939316 -0.07015007 -0.004386954 -0.05261401 0.09059966 -0.22899443 -0.011381118 -0.18145856 -0.07186812 -0.1339957 0.158941 -0.0006339189 0.18829359 -0.0002662787 -0.10298743 -0.04314044 0.17656267 0.14602345 0.04626378 0.20517336 -0.01830816 0.02890714 0.13201593 -0.043708436 -0.10264727 0.017730137 0.030796602 0.1445127 0.006928636 -0.055838745 -0.06937813 -0.05469831 -0.040175993 -0.05339903 0.07956282 0.06605157 0.010389849 0.03071006 0.010154594 0.023863856 -0.07184127 -0.041112985 -0.124623105 0.16130616 -0.09592702 -0.05777168 0.096960366 0.0077446713 -0.09013895 0.010005849 0.055830866 0.123027556 -0.029686376 -0.10863268 -0.16880913 -0.020825451 -0.012764028 -0.01139677 -0.102520555 -0.06645209 -0.00033557374
31995 0.08040567 -0.29500717 -0.014997515 0.13422641 0.054937273 -0.15795948 0.1940262 0.023303006 -0.106767 0.08322775 0.21612965 0.0043102605 -0.22641097 -0.012813653 0.24234185 0.39154157 -0.09368782 0.13825494 -0.027215544 0.0034991775 0.052445065 0.30984116 0.052418698 -0.09047281 -0.12475751 0.09687711 -0.18291815 0.026947299 0.12126579 -0.04042459 -0.18678166 -0.12231975 0.043939527 0.04665811 -0.12198156 0.117586456 0.16692814 0.0014269226 0.053033285 -0.1226239 0.034267515 0.0647946 -0.016246092 -0.06158833 0.028792646 0.08352062 -0.035134014 -0.04458925 -0.060916677 -0.09595742 0.16354428 0.017201949 0.16194618 0.0062451917 0.10932819 0.0673583 0.25200477 -0.05252681 -0.048699662 -0.072429 -0.06331838 0.00026771176 0.007848425 -0.020367747 0.1026724 -0.052710578 -0.018082289 0.022594433 -0.030902348 0.021979464 -0.00055177143 -9.558267e-05 -0.28215617 -0.015377004 -0.20064199 -0.13917477 -0.14747576 0.11944454 -0.119622245 0.06507557 -0.07089029 -0.12948084 -0.08695407 0.19355687 0.24597573 0.05435587 0.13084634 -0.11480005 0.011876239 0.13972208 -0.00013450006 -0.15360747 0.0739073 0.0031379827 0.11271651 0.020425985 -0.019866407 0.033139966 -0.06893887 -0.016380064 0.06714331 0.061471853 -0.1330119 -0.04937486 0.04423572 -0.04226438 -0.07461123 0.1002131 -0.047807343 -0.11595918 0.15097755 -0.1349933 -0.06320654 0.016992552 -0.006530031 0.043340728 -0.03979665 -0.04153013 -0.03306242 -0.13144232 -0.13437764 -0.034191564 -0.11192899 0.03378733 -0.0737936 -0.0187838 -0.08008376 0.033128235
30990 0.050051875 -0.23803982 0.12611398 0.019410586 0.10084443 -0.26006284 0.11785323 0.08947438 -0.026157204 0.14540386 0.20989811 -0.018145043 -0.1278008 -0.03991817 0.13897449 0.23953973 -0.013920835 0.16030966 0.008929194 0.029440241 0.08231945 0.2695522 -0.029235851 -0.013643303 -0.12931958 0.100610636 -0.07995135 0.13318616 0.14862536 0.04538585 -0.19442342 -0.033429872 -0.06785922 -0.0073879794 -0.07173897 -0.02394984 0.19026938 0.0259361 0.111050196 -0.0660914 0.07906893 0.08295192 0.08947689 -0.01866543 0.014906979 0.16184571 0.008836363 -0.12346089 -0.043276783 -0.040743798 0.16025952 0.05621697 0.19449113 0.15095657 0.16472027 0.09543227 0.18911813 0.11400416 0.115715764 0.098581664 -0.049143363 0.0093007265 -0.011697671 -0.043798946 0.12196798 -0.05222482 -0.08206789 0.08962509 -0.010964472 -0.028873997 -0.062383372 0.015344604 -0.27503344 -0.062761515 -0.10526225 -0.16449536 -0.05901339 0.18961734 -0.017987793 0.2284206 0.012554382 -0.11626319 0.012223252 0.14553894 0.112555884 0.09839522 0.14675498 -0.08805177 0.040803254 0.038680494 -0.009883096 0.0028713432 -0.031139277 0.021835787 0.117707536 -0.0073053064 0.024697213 -0.052058335 -0.08593275 -0.012909964 -0.095435396 0.07009095 0.033810902 0.013067541 0.041312594 0.041039776 -0.0640422 -0.1264145 -0.044739157 -0.18941054 0.2557352 -0.096179664 0.014274717 0.09356283 0.052091304 -0.107791334 0.016481556 -0.00464306 0.1662738 -0.03307418 -0.25728744 -0.091534935 -0.06640334 -0.059251536 0.013593446 -0.1455402 -0.00812545 0.0029647804
31650 0.23721424 -0.13782832 0.021846496 0.03924707 0.0006791747 -0.118246146 0.1034565 0.09453149 -0.03271305 0.17596577 0.07946841 -0.071932524 -0.026676642 -0.18062931 0.16886665 0.024199525 -0.045558155 0.15131134 -0.11774457 -0.12960142 0.09907825 0.25199205 0.14074387 -0.05652587 -0.070426136 -0.1717399 0.013883088 -0.008224314 0.23964085 0.08271323 -0.115577735 0.0068760747 0.04262684 0.06632947 -0.28947818 -0.07277116 0.24256828 0.03554359 0.18494068 0.026606565 0.1544995 -0.03432045 -0.060950793 -0.018039677 -0.05018101 0.12706044 -0.0063488856 -0.08907387 -0.13918273 0.10035857 0.17120352 -0.017219415 0.14318413 0.32057238 0.09148637 0.051024653 0.091250986 -0.13648447 -0.124156505 0.18934713 -0.012066723 0.0616153 0.22794102 -0.0028906178 0.043420464 -0.101943605 0.09658013 -0.023503197 0.07770595 -0.10357028 0.012235204 0.17048705 -0.039808124 0.00028015254 -0.1421451 -0.05721981 -0.0916359 0.19524047 -0.17001756 0.21581881 0.010089562 -0.06026373 -0.1788815 0.029699188 0.122289 0.08672494 0.22886094 -0.10510926 0.15975253 0.18689786 -0.12697038 -0.12594952 0.079602584 0.023675716 0.15372032 -0.16070691 -0.039685592 -0.2773746 -0.0056211185 -0.09146633 -0.1685649 0.0049166037 0.03458156 -0.1269543 -0.08926108 -0.16383277 -0.13814573 0.025671499 0.15132637 -0.042560987 0.071475014 -0.0027848026 0.061519183 0.1820139 -0.025993288 0.10672311 -0.12405665 0.1697921 0.025527108 0.10219826 -0.2216134 -0.13788116 -0.15607445 -0.019808853 0.04883279 -0.21228188 0.09401401 -0.030567802
31504 0.15200508 -0.18558186 -0.043096337 0.052459925 0.0031662034 -0.03750125 0.057804972 -0.056915455 -0.03409751 0.10682737 0.15513238 -0.016206019 -0.03927556 0.002742132 0.10935683 0.1338438 -0.085623614 -0.009833411 -0.04263146 0.06872002 0.14674634 0.1477994 -0.10217042 -0.080733925 -0.19579135 0.15770888 -0.13718829 0.09682019 0.19377102 -0.029202674 -0.064296365 -0.008423359 -0.038115136 0.10915927 -0.2241568 0.008506169 0.21962568 0.05247385 0.07366507 -0.12475127 0.053647395 0.08082236 0.09127861 -0.07166266 -0.05409092 0.215423 -0.046124037 -0.0031477213 -0.17641301 -0.083075814 0.20388108 0.030939827 0.15634272 0.077482246 -0.0062958314 0.04231322 0.11513155 0.002469302 0.118175246 -0.06880691 -0.11521934 0.020827439 -0.097147666 0.0020993205 0.1745582 -0.046614513 -0.1916293 -0.061562322 -0.18258868 -0.12636742 -0.13151589 -0.031209635 -0.33494547 0.0128834685 -0.055531558 -0.25811008 -0.14292166 0.042812623 -0.08526531 0.098135665 -0.0154562965 -0.15190135 -0.06893473 0.21663049 0.24445206 0.072872795 0.18880913 -0.06577099 0.084116414 0.060538314 0.0075735194 -0.0662456 0.10605088 0.021506123 0.26527128 0.038981568 0.08929911 -0.09901317 -0.10278376 -0.021139089 -0.0802618 0.13074844 0.09441473 0.023686912 0.17711459 0.0027987498 -0.14063597 0.020102441 -0.054777518 -0.11983458 0.2397593 -0.007256782 0.017689902 0.07382733 0.36603314 0.061082393 0.0113517735 -0.01114073 0.075213656 -0.2245714 -0.09552668 -0.12146333 -0.1103968 0.034453765 -0.18020591 -0.24350588 0.048905075 -0.090737626
31834 0.102415 -0.20493452 0.12304804 0.065976 0.03868878 -0.14689265 0.058691792 0.0630582 -0.12798145 0.09661348 0.051586427 -0.09142939 -0.17207646 -0.018552057 0.2812951 0.12351226 -0.07068459 0.050410703 -0.13022687 0.0075417035 0.13827957 0.16915818 -0.04257686 -0.095233776 -0.18797173 0.041326106 -0.13641895 0.15741792 0.16421224 -0.11504521 -0.26119426 0.040566575 -0.040547412 0.016767172 -0.15072003 0.12013645 0.21500307 0.04114289 0.06167557 -0.11141138 0.06806213 0.0063276016 -0.018027378 -0.045169313 -0.10058433 0.14794928 -0.067057244 0.027927538 -0.12732098 -0.11464896 0.10079785 0.010229691 0.1450023 -0.0017694269 -0.04600103 0.10133275 0.14799775 -0.057183675 0.0030534805 0.074917875 -0.030131727 0.010087242 0.066045836 0.052492887 0.08028879 -0.06530546 -0.0032692926 -0.0682491 0.0410933 -0.04054192 -0.12970264 -0.045036923 -0.3398434 -0.10783351 -0.023417527 -0.19050455 -0.06372603 0.14874853 -0.17854825 0.17730232 -0.11179632 -0.14639223 0.050517593 0.18097536 0.294462 0.062442068 0.14592485 -0.019030098 0.060936034 0.027731203 -0.10044298 -0.09614707 -0.028440092 0.032258052 0.16260329 -0.012728138 0.014985492 -0.12665576 -0.0013928005 -0.030444855 0.061314963 0.010521473 0.0014141462 0.04804721 0.0038728206 -0.06511425 -0.023883477 -0.04014358 -0.06044817 -0.100696295 0.043932796 -0.023791129 0.04092905 0.03832826 0.04626621 0.054323446 -0.09693413 -0.015659628 0.056112397 -0.08883649 -0.04316873 -0.05915052 -0.06689126 0.1091358 -0.06435506 -0.17325208 -0.06862306 -0.048891816
34574 0.1457879 -0.38751635 0.08489988 0.025056517 0.08477793 -0.35215724 0.15103146 0.14126937 -0.004419104 0.11150319 0.18832654 -0.04800309 -0.11121029 0.050551992 0.17304358 0.16590866 -0.027290666 0.07420171 0.03353233 0.021192392 0.075392 0.23060755 -0.011384467 -0.03885612 -0.19749737 0.21255107 -0.10529553 0.10502401 0.17356004 -0.0018940247 -0.24768014 -0.14674443 -0.005827891 0.07344204 -0.109441556 0.011454627 0.17853437 0.022151934 0.06540587 -0.0803543 0.07664196 0.07869406 0.10805671 -0.10072574 0.008158453 0.15910427 -0.030493824 -0.11991559 0.04076335 -0.04432649 0.20660847 0.020131562 0.21808536 0.09521325 0.085204735 0.11502446 0.24930765 0.02530409 0.108995624 -0.0007321572 -0.10162959 0.024332467 -0.1121265 0.0075765657 0.1852484 -0.030811556 -0.105504036 0.017407827 -0.06391092 -0.008354418 -0.008941741 -0.020573951 -0.32707658 -0.13022318 -0.10222144 -0.15716553 -0.13281925 0.106927045 -0.03870643 0.21566047 0.011850688 -0.17657527 -0.037595943 0.25473693 0.11881931 0.1538466 0.1478117 -0.076415196 0.0033832223 0.0687274 -0.0044305352 -0.03657996 0.004897791 0.12496867 0.04257536 0.122075506 0.061503317 -0.028438356 -0.13709125 0.013362998 -0.026400471 0.07779613 0.040867813 0.015145788 0.06615152 -0.023125762 -0.03081163 -0.07209529 -0.07551209 -0.06858491 0.13640614 -0.12355087 0.009920772 0.048638996 0.061053943 0.015098635 -0.06787162 -0.0689823 0.10473299 -0.10060961 -0.19851941 0.012281665 -0.044199817 0.04128878 -0.078647524 -0.056086265 -0.055892628 0.0038152062
32337 0.07656786 -0.16712546 0.014393911 0.113754235 -0.027067352 -0.06378878 0.12025144 0.039278395 -0.04908998 -0.031664938 0.08742022 0.0030389836 -0.057472978 -0.041043203 0.13925281 0.104951404 -0.04159238 0.11474223 0.0041455138 -0.024135612 -0.0025241862 0.16710298 0.0101982355 -0.013144366 -0.087428644 0.064884596 -0.033517882 0.093392916 0.16182213 0.040598057 -0.19623074 -0.002168078 0.05649723 0.047195815 -0.15981355 0.008325395 0.18430161 -0.0189304 0.05243518 -0.1260527 0.017118938 0.10907115 -0.010120925 -0.08207628 0.0013794262 0.15492573 -0.08926696 -0.057633966 -0.029244715 -0.02617378 0.081778824 0.04056649 0.19186229 0.18905665 0.09094661 0.16336988 0.22724648 0.020816775 0.027071618 0.025180312 -0.053695492 0.003439526 -0.046886045 0.050534684 0.1324929 -0.024053542 0.005817327 0.0779983 -0.04560582 -0.040125474 0.0023659705 0.09261652 -0.22296628 -0.028039789 -0.06370894 -0.10437146 -0.11880977 0.1563973 -0.038367745 0.17299648 -0.008064079 -0.18619709 -0.038160164 0.1971174 0.17567636 0.054183327 0.21972679 -0.11356343 0.041408226 0.1051724 0.010553803 -0.025540123 0.05913505 0.035561 0.114254415 -0.023297498 -0.093467586 -0.105375536 -0.032640554 -0.018745711 -0.10162337 -0.022200147 -0.017058698 -0.008035511 0.077219725 0.026438104 -0.00680199 -0.018645009 0.00010289218 -0.10129198 0.13493228 -0.08169248 0.014016661 0.13337931 0.01965281 -0.029393017 0.00094635464 0.07052695 0.14074 -0.07397107 -0.20627606 -0.13936032 -0.034323264 0.0052381866 -0.061498385 -0.15096729 0.02222737 0.019776544
31453 0.2138017 -0.07575607 0.00683206 -0.006755724 -0.08484159 0.025323126 0.15379386 0.013731878 -0.05546122 0.018550571 0.037011478 -0.03769987 -0.093584985 0.015319562 0.12483953 0.13908811 -0.13057886 0.060123794 -0.102580324 0.15308131 0.052229248 0.03565274 0.13234435 0.020871071 -0.041737124 0.0017855379 -0.108789526 0.14002994 0.082971536 -0.004496854 -0.11497592 -0.055026315 0.2477909 0.0109164445 -0.19410573 0.08337405 0.2091782 0.035254475 0.04234872 -0.056651086 -0.0005844802 0.06734112 0.05636749 -0.13101907 -0.061503302 0.1449925 -0.055644944 0.03156082 -0.010660488 -0.1886329 0.14482662 0.046536125 0.174401 0.02120142 -0.02888013 0.23836295 0.32845366 -0.0894683 0.022418696 -0.10871055 -0.12665123 -0.113152936 -0.10862793 0.074039295 0.11169835 0.124664344 -0.0013320966 0.07865547 -0.01884357 0.019004006 0.038330566 0.045353364 -0.30947882 -0.09810786 -0.08749307 -0.1626654 -0.1227866 0.23783429 -0.19178763 0.22326058 0.0072585163 -0.28637183 -0.10041625 0.12770498 0.31030735 -0.021987848 0.075733826 -0.07650901 0.021592453 0.17614175 -0.14820056 -0.18650402 -0.015252441 0.076629676 0.28316608 -0.14365526 -0.100964546 -0.08407774 0.030750746 -0.1306061 0.04874334 -0.06385429 0.12746565 0.010522434 -0.0142616285 0.030781908 0.09780145 0.085576646 -0.15935916 -0.17151119 0.11186546 0.10704221 0.08017882 0.0054379115 0.26176792 -0.0950694 0.05552638 0.07697005 0.0066544563 -0.1340701 -0.015793664 -0.0064473967 -0.048944023 0.020678785 -0.12606345 -0.10645485 -0.04710707 -0.057463434
30615 0.1467255 -0.046250384 0.015210957 0.01361647 -0.07406291 -0.045593332 -0.052633062 0.003054654 -0.0441078 0.024721643 -0.0071389023 -0.055000734 -0.12166846 -0.14227521 0.14105491 0.16633716 -0.015268437 0.24288896 -0.102933094 0.18799329 0.09915382 0.23555338 0.09948963 0.007457543 -0.061965484 0.16683537 -0.019442176 0.21493869 0.18353646 -0.026846964 -0.29289213 0.007765218 0.17983282 0.12361275 -0.29281783 -0.12507848 0.18731444 0.018839907 0.11909253 -0.11419225 -0.025699079 -0.023381954 -0.00075126434 -0.061111838 -0.012126363 0.19267836 0.011283723 0.012145787 -0.13144545 -0.031926613 0.045123056 0.03653985 0.16806373 0.13622166 -0.068943374 0.1356234 0.24426465 -0.0388156 0.075392045 -0.069005646 0.015804444 -0.08905451 -0.07763911 0.09963321 0.14262849 0.03703578 0.01930525 0.05409468 -0.063980624 0.021619974 0.043602917 0.06304383 -0.21274024 -0.045394875 -0.02764914 -0.1395683 -0.08889547 0.12672673 -0.05852009 0.15244234 -0.020073703 -0.27278137 -0.03233997 0.16471758 0.17817566 0.076826274 0.1450264 -0.063231036 0.12055838 0.14750881 -0.027569173 -0.05487339 0.023472082 -0.0059699616 0.18572247 0.036271807 -0.063025415 -0.20574598 0.071651675 -0.12027332 -0.022695836 -0.06886951 0.114457004 0.064504296 0.039504685 -0.076898396 0.09031099 -0.10421255 -0.07329433 0.010978907 -0.029556094 0.09678946 0.043037307 0.026166055 0.15867768 -0.065093294 0.07596269 0.031903233 0.073235944 -0.087931365 -0.13381962 -0.08165452 0.007296943 0.024645923 -0.1466524 -0.21773218 0.048835695 0.0026388066
34321 0.13725023 -0.20407303 0.13554779 0.16040666 0.04052185 -0.3082749 0.23249213 0.05387213 -0.016470848 -0.026773503 0.122914664 -0.006273579 -0.14357755 -0.2022765 0.07208459 0.20973241 -0.015620435 0.23477022 0.003010921 -0.068675436 0.041808296 0.22144231 -0.0419909 0.050560396 -0.12607014 0.047977332 -0.11096654 0.16386577 0.03049045 -0.0176935 -0.16518074 0.020557867 0.058212925 0.010321828 -0.023432827 0.010578038 0.2778771 0.046889238 0.2522055 -0.16188192 0.08464752 0.021861102 0.11412848 -0.031787857 -0.08525082 0.14515588 0.056114513 -0.10486927 -0.038612567 -0.1475833 0.10703884 0.06235928 0.18697925 0.10529245 0.24254149 -0.045026083 0.1831742 -0.012849275 -0.07715533 -0.017212145 0.001626502 -0.06639144 -0.06292542 -0.1046872 0.1286944 -0.035936933 0.0024516552 0.07094834 -0.021749549 -0.007869106 -0.034911864 0.057435337 -0.31522056 -0.06492347 -0.168442 -0.12390711 0.015595922 0.10473283 -0.03582154 0.2956372 -0.060104467 -0.06455685 0.09259628 0.16911055 0.18476275 0.0859263 0.21833159 -0.18141188 0.15597494 0.15911523 -0.023450598 -0.1138897 -0.008517291 -0.004798907 -0.009699601 -0.20629318 -0.1272288 -0.03128022 0.06109236 0.0029562425 -0.15005933 0.08789579 -0.03345772 -0.024021301 -0.028016424 0.11103126 -0.01693304 -0.09717974 -0.0064265067 -0.1651634 0.120352484 0.0039432235 0.016436348 0.08381926 0.04058097 -0.14733803 0.03240355 0.18710475 0.05990928 -0.06437044 -0.09475203 -0.038800757 0.041419365 -0.0832935 0.036115646 -0.16233422 0.03570347 -0.020369845
30185 0.15003812 -0.20839782 0.2550302 0.06482855 0.06900941 -0.14805877 0.12984616 0.02973539 -0.15486448 0.0737232 0.033340856 -0.007390552 -0.100988865 0.013026181 0.18707111 0.13413458 0.014245491 0.1251233 -0.12762477 0.0727317 0.13416998 0.20194928 0.011617923 -0.039665103 -0.0806218 0.10865565 -0.051630378 0.10192676 0.18723874 -0.08258078 -0.21685225 -0.011313158 -0.0023068574 0.15606678 -0.22965945 0.07785026 0.19323656 0.01551462 0.04076357 -0.16500843 0.09477055 0.0040055146 -0.0027953677 -0.035910375 0.0115874065 0.20351478 -0.025693215 0.1319782 -0.28497905 -0.034537844 0.11897088 0.0009492808 0.25751433 0.081482515 0.056716967 0.084145956 0.16490822 0.031125076 0.13941553 -0.15126252 -0.05326358 -0.024458628 -0.038816933 0.061153404 0.15835147 -0.14962456 -0.052241653 -0.022196686 -0.16148217 -0.101126865 -0.04168537 0.0062947148 -0.35191965 0.07363341 -0.13166772 -0.14410268 -0.07022583 0.11654251 -0.120524414 0.17036124 -0.124161266 -0.20793727 -0.028321648 0.1784524 0.28909916 -0.020869724 0.28518644 -0.13548191 0.12973957 0.07190223 -0.026059182 -0.1629148 0.07562586 0.06004952 0.25820965 0.015640695 -0.0071030967 -0.13878141 -0.12774663 -0.021816565 -0.04057327 0.03841982 0.09835696 0.102258526 0.16476166 -0.0048464504 -0.10520435 0.036732927 -0.023424938 0.028856523 0.012360614 0.008063955 -0.016167969 0.014423136 0.17209439 0.0795976 0.024465777 0.014064746 0.04518013 -0.17453088 0.043536797 -0.09907075 -0.028975675 -0.02591582 -0.087993376 -0.070938945 0.05255114 0.037990376
34492 0.102804154 -0.17195049 0.10398933 0.08988173 -0.020151544 -0.13224187 0.23374502 0.025782408 -0.058415804 0.00051794027 0.1326482 -0.0065331175 -0.087672055 -0.05999527 0.09239807 0.1478114 -0.04594829 0.06281126 -0.020323334 -0.05598594 0.02162065 0.20955984 0.09701411 -0.032251034 -0.082758844 0.080649234 -0.10149068 0.078603566 0.15745765 -0.08024923 -0.17230164 -0.05106823 0.10744422 -0.003098659 -0.20224175 0.05050154 0.27608553 0.09106267 0.13503209 -0.09044144 0.11060036 0.046379555 0.07618301 -0.10975923 0.03073725 0.13110763 -0.024373652 -0.05218362 0.006376877 -0.059987027 0.08632669 0.10150621 0.15678246 0.07694928 0.10816314 0.075622596 0.134346 -0.048477273 -0.01224587 0.01511202 -0.022147588 0.011017393 -0.016814003 0.035182387 0.08701954 -0.026754862 0.011108535 0.046915177 -0.067181885 -0.039754704 0.05678677 0.057142626 -0.23670296 -0.05430264 -0.121760204 -0.088247076 -0.047129083 0.19652207 0.0056344513 0.1966449 -0.01712351 -0.119731285 -0.10798323 0.15363187 0.1729935 0.028125929 0.17757495 -0.12880543 0.0028236855 0.117614195 -0.07527001 -0.08090098 0.029132348 -0.025064383 0.14247356 -0.0624762 0.018025888 -0.13185534 -0.037907906 -0.06427677 -0.10622664 0.0500536 0.0356891 -0.032456927 0.10558589 -0.002943249 -0.03273248 -0.010646253 -0.024491426 -0.14740312 0.22193089 -0.034626465 -0.054917842 0.10261124 0.098964855 -0.071554296 -0.008067923 0.16090797 0.08405553 -0.08186079 -0.18048595 -0.11424495 -0.017480386 -0.05698903 -0.062239397 -0.08252876 -0.005435705 -0.05367216
30423 0.10670367 -0.097757235 0.14825964 -0.0003648738 0.019213267 -0.050984398 0.16244617 0.019184548 -0.054431166 -0.042110987 -0.009889028 -0.029303167 -0.09526915 -0.027760977 0.11075535 -0.033193752 0.014598304 0.097750045 -0.09802727 0.0072539966 0.048362445 0.09513906 0.06533009 0.00125814 -0.050618928 0.071100265 -0.041095182 0.10774798 0.16147049 -0.14473765 -0.20842843 -0.034351837 0.14769399 0.047406174 -0.27201444 0.028911905 0.2855476 0.026169017 0.17204891 -0.11326117 0.02099697 0.07544053 0.02598657 -0.068260744 0.04912138 0.1480312 -0.048850037 -0.008762144 -0.07443896 -0.052528054 0.089801334 0.11914389 0.1995796 0.069933094 0.007978645 0.068543844 0.20963247 -0.044175748 -0.0002579611 -0.08632052 -0.031237643 -0.13643524 -0.04702683 0.0439604 0.13383149 -0.0076474985 0.08253357 -0.024647882 0.016680185 -0.01353384 0.04267301 0.04664648 -0.2929712 -0.050449867 -0.06925175 -0.081185766 -0.07655292 0.12103236 -0.15120222 0.23504536 -0.030787557 -0.13130432 0.03493998 0.10719603 0.16710484 -0.02571506 0.16063932 -0.060650386 0.082317926 0.23770949 -0.07704088 -0.17408316 0.01079263 0.05535639 0.22631718 -0.09059201 -0.028393045 -0.166078 -0.07242518 -0.10010605 -0.0056723254 0.09819592 0.10453662 -0.012055424 0.077113025 -0.02255255 -0.04236408 -0.030159976 -0.04755047 -0.07786041 0.114380874 0.06112942 -0.0031549006 0.07217258 0.081296355 -0.06888176 0.008984524 0.08200481 0.05831246 -0.03345474 -0.053310856 -0.038686827 0.0526119 -0.047591425 -0.047845684 -0.15969755 -0.04399413 -0.020580262
30208 0.10282629 -0.35676116 0.15902796 0.01865968 0.1181393 -0.29409632 0.1619782 0.10100379 0.009651499 0.13682142 0.18225132 0.073722206 -0.08885529 0.1285946 0.12131321 0.1537208 0.0016899995 0.05517505 -0.086996935 0.09469745 0.05125243 0.10169895 -0.055366866 -0.1448915 -0.17618796 0.24252321 -0.116514556 0.10574024 0.23669358 -0.035445478 -0.23004232 -0.080682784 -0.06442289 0.0910815 -0.19008277 0.0049243034 0.23825352 0.04327829 0.1228965 -0.13444053 0.06323443 0.062122595 0.16011082 -0.06995152 0.03553714 0.11749331 -0.07939276 -0.051869366 -0.032413244 -0.11767004 0.20029198 0.0076013207 0.2447816 0.09422606 0.09830059 0.12969793 0.22899213 0.05759923 0.19144112 -0.069503695 -0.044793047 0.0024538357 -0.12762748 -0.038924802 0.14106274 -0.087998405 -0.14849064 0.00947893 -0.07875445 -0.042557757 0.005682059 -0.094938934 -0.26863325 -0.050785188 -0.12377952 -0.14504245 -0.06716434 0.16202384 -0.1258992 0.20896083 -0.0554036 -0.109809406 -7.343387e-05 0.13988844 0.12381937 0.12796955 0.1736574 -0.05667251 0.024401104 0.047190428 0.059478663 -0.05239081 -0.12687513 -0.07631067 0.17312743 0.13951637 0.11875142 -0.056626987 -0.078906365 -0.040757228 0.00978922 0.14936216 0.11461338 -0.0016947153 0.08898406 0.048305675 -0.07999399 -0.061834328 -0.1012395 -0.048949137 0.15940686 0.0075446223 -0.061794136 0.026158122 0.13745998 -0.012254811 -0.11405855 -0.061107375 0.11109812 -0.08775942 -0.2102911 -0.072666034 -0.09593692 -0.0143710775 -0.120540604 -0.07722242 -0.109767474 -0.04686615
31714 0.017512918 -0.23526219 0.124800235 -0.0004986705 0.12137064 -0.20451978 0.13373952 0.06497657 -0.082133904 -0.009353307 0.156954 -0.06712801 -0.12610409 -0.020148976 0.10173549 0.090316705 0.038369503 0.0689043 0.0014331955 -0.03576069 0.09755582 0.21467319 -0.04960773 0.0754735 -0.08156831 0.06997366 -0.05124743 0.15985663 0.17738554 0.026272383 -0.30516082 -0.014631456 -0.0039930325 -0.033500217 -0.13840489 -0.023959087 0.2312804 0.0789325 0.18883827 -0.091442384 0.10425127 -0.002124347 0.09482986 -0.010864796 -0.035899214 0.007624619 -0.026513327 -0.05530494 -0.051929634 0.016643684 0.052582234 0.036658466 0.15755568 0.11404569 0.1508352 0.09789336 0.1208254 0.036960654 0.012810733 0.08088384 0.011062666 0.023395993 0.0060516335 -0.06048731 0.088037886 -0.03232972 -0.03866977 0.10425689 -0.07772745 -0.056765694 0.0003357323 -0.021218838 -0.27746382 -0.035682395 -0.18320814 -0.17372234 -0.06433873 0.22547239 -0.043028556 0.20573603 -0.040813744 -0.16649297 -0.09011903 0.14858358 0.18224499 0.05174435 0.29443923 -0.12397965 0.088579156 0.14873071 -0.081427164 -0.040960856 -0.10354904 -0.021787087 0.14755556 -0.018411618 0.0004741564 -0.05309856 -0.06310748 -0.057243723 -0.050904334 0.024263969 -0.047439117 -0.015080119 0.028722407 -0.009875166 -0.07863767 -0.1501873 -0.05486864 -0.2188642 0.2193773 -0.028318401 -0.055359766 0.10970306 0.0008383823 -0.0768021 -0.040718414 0.073427446 0.1156729 -0.04815076 -0.1598765 -0.13713443 -0.011470217 -0.011696606 0.04117703 -0.12948371 0.075385466 0.06664236
31123 0.18080361 -0.21068609 -0.002243416 -0.004819861 -0.0034889244 -0.21931222 0.048146512 0.046055354 -0.016284494 2.73234e-05 0.11600133 0.009123137 -0.038979314 -0.065790124 0.072741374 0.23840107 0.015007269 -0.061549067 -0.0061811805 0.056027863 0.12109799 0.22242297 0.09673446 0.05324791 -0.08104121 0.08267636 -0.19504955 0.11167753 0.21548069 -0.027094688 -0.31892538 -0.13368928 0.26310477 0.0973197 -0.19005693 -0.05424562 0.24993223 -0.04214517 0.17028043 -0.10798292 -0.01624618 0.03301439 -0.050996646 -0.00754913 -0.04752158 0.026141115 0.07774511 0.11162631 -0.06598019 -0.008745931 0.09631783 0.04263512 0.07709572 0.12411451 0.024841521 0.061110783 0.26306382 0.019337546 -0.004332772 0.017686682 -0.08930464 -0.05664862 -0.00867669 0.04234748 0.02637652 0.011702608 -0.01889581 0.05913042 -0.17917971 -0.0072799195 0.07083429 -0.017117778 -0.20480165 -0.14432357 -0.1404754 -0.082905054 -0.0878825 0.1339997 -0.09401158 0.18352243 -0.06253149 -0.2286185 -0.1261626 0.18689793 0.16281992 0.012242762 0.10936826 -0.015647268 0.041255847 0.21406546 -0.030644102 -0.19043662 0.102053285 -0.028712565 0.1760521 0.0013937779 -0.061869938 -0.16491641 -0.03490534 -0.031975027 0.0104460865 -0.04791893 0.028227571 -0.0055230744 0.09173383 -0.049177155 0.062228315 0.07515741 -0.0012476472 -0.12819746 0.045334823 0.024422172 -0.08560153 0.007951072 0.06308308 -0.034011036 -0.0031989347 0.044989657 0.06773941 -0.05776431 -0.31663325 -0.16648082 0.006748072 0.11601136 -0.07752405 -0.11237621 -0.058957607 -0.09838624
30194 0.1702789 0.020825671 -0.005107106 -0.055237252 0.0050102924 0.04975187 0.07683607 -0.025132198 -0.11938797 0.080472045 0.059511587 0.02043232 -0.09034042 0.021873642 0.12824214 0.0936073 0.019605653 0.03985415 -0.016985979 0.19349454 0.091786414 0.07211921 0.06071509 -0.013202762 -0.06186396 0.055008043 -0.044544227 0.12681386 0.11462378 -0.04388033 -0.06474828 -0.116555795 0.12246245 0.040272918 -0.11049215 0.04223588 0.16631961 -0.09699291 -0.005857843 0.021071197 0.035976984 0.07500771 -0.039507672 -0.14471494 -0.14374533 0.03154738 -0.08495229 -0.024007734 -0.07665319 -0.18332641 0.2371789 -0.00089563854 0.19525272 0.047483455 -0.08107344 0.16394666 0.12056332 -0.034503765 0.09935698 -0.07100354 -0.021007368 -0.06808231 -0.089466 0.16778982 0.020752491 -0.0029254332 -0.02706103 0.07959419 -0.01063672 0.016488498 0.012367549 0.036125287 -0.24723008 -0.0119015975 -0.11171293 -0.13026395 -0.14055656 0.24018905 -0.26189294 0.31158158 -0.007257366 -0.29359668 -0.11253785 0.17771035 0.3315104 0.05600785 0.14455628 -0.040046953 0.091851 0.18116954 -0.07970834 -0.18339913 -0.086497985 0.013851783 0.30022478 -0.10113044 0.019710982 -0.19955179 0.01958083 -0.07843138 0.08426092 -0.03998822 0.08715031 0.0059112036 0.048787974 -0.061918598 0.014277291 0.029842963 -0.0018675644 -0.2251294 0.1285705 0.06912292 0.068791345 0.049755413 0.26500657 -0.03182513 -0.022802683 0.12035422 0.11426703 -0.114622355 -0.14115733 -0.0067543965 -0.082033284 -0.008591074 -0.035419058 -0.15314154 -0.0881622 -0.013774957
30140 0.051016506 -0.0680335 0.0363243 0.13210416 -0.039194487 0.0005396137 0.09420616 0.03323872 -0.1818271 0.10861843 0.030476142 0.12181758 -0.10018834 -0.038225032 0.22724964 0.10466507 0.049134422 0.21057136 -0.08378341 0.099188894 0.034604684 0.15065007 0.09907436 -0.06833608 -0.011533505 0.042220283 -0.028056554 0.13164051 0.16523682 -0.041920256 -0.16943158 0.006852125 0.08088961 0.035102457 -0.23107015 0.029274927 0.28774503 -0.011048348 0.15739954 -0.13897859 -0.030750042 0.098884985 -0.04612137 -0.11758489 0.09445131 0.25463644 -0.16302668 0.026943166 -0.07821427 -0.07268458 0.14095311 0.055655267 0.2406959 0.23558828 0.029129567 0.10196422 0.1912661 -0.039466776 0.09814878 0.010611136 0.011459037 -0.07185492 0.026385589 0.11105257 0.06876456 0.01125669 0.111561246 0.049049914 0.05891828 0.0794614 0.06800186 0.08360842 -0.14470436 -0.06251083 -0.0050183707 -0.055479437 -0.08558997 0.1606643 -0.0282436 0.18789576 -0.036283348 -0.11032721 0.030597411 0.20163898 0.19204573 0.05491063 0.16565047 -0.1136718 0.121108405 0.11164978 -0.025932735 -0.023008103 0.068588056 -0.07937251 0.20007917 -0.0022723274 -0.058126297 -0.15188779 0.014158573 -0.05808805 -0.06881934 0.07625769 0.09426723 -0.036786705 0.07968242 -0.019070482 0.064183936 -0.025257295 -0.015526363 -0.032058865 0.087595634 0.06258521 0.031211225 0.10667384 0.10142467 -0.061092366 -0.008687765 0.026558686 0.1297653 -0.015821371 -0.05974353 -0.025021557 -0.048295308 -0.03798439 -0.07686758 -0.11920127 -0.028370518 -0.02521544
30980 0.010542173 -0.23418854 0.19492619 0.08885624 0.14034475 -0.10872001 0.12617423 0.039415058 0.0015522394 0.17331976 0.12354341 0.009644486 -0.16599943 0.11565473 0.12548882 0.11690022 -0.030856436 0.11014338 -0.009262811 0.016933067 -0.026310898 0.10861743 -0.08221906 -0.15702431 -0.103151515 0.119061075 -0.08112396 -0.024538277 0.15901689 -0.019156896 -0.07418784 -0.049608003 -0.20487492 0.078777015 -0.05395061 0.12836727 0.083792806 -0.025637824 -0.073528536 -0.054239884 -0.0138203995 0.12840879 0.028609937 -0.14077336 0.11073008 0.14619452 -0.104306914 -0.081792705 -0.12405746 -0.09473336 0.12968521 0.03286615 0.15517531 0.0682386 0.17314827 0.12220074 0.3237189 0.015424112 0.14256555 -0.0798545 -0.058355305 -0.041539405 0.016831055 -0.011692996 0.27882028 -0.11355862 0.034593865 0.0022365693 -0.046543144 -0.062076807 -0.07817152 0.043023396 -0.32722735 -0.037470445 -0.11638726 -0.2055109 -0.08119009 0.11475269 -0.101719044 0.1906205 -0.11081226 -0.115571454 0.05131591 0.2186958 0.16251726 0.06349298 0.15134482 -0.20297453 0.041992784 0.12694505 0.0133102415 0.01756822 -0.020735756 -0.018355373 0.20993297 0.090745024 0.02995527 -0.033844747 -0.16317497 0.10913363 -0.01831161 0.11257048 -0.00068923313 -0.045845762 0.13959457 0.005429392 -0.13323197 0.026707789 -0.071582824 -0.06646924 0.1722783 -0.1778219 0.01573984 0.050074562 0.014853637 0.08548718 -0.051690273 -0.07309526 0.14312996 -0.07582749 -0.24746507 -0.11195076 -0.11763844 -0.0008565811 -0.14938986 -0.16522354 -0.14271586 0.025914496
30928 0.20427068 -0.12318461 0.15001577 -0.015153597 0.082832895 -0.03232738 0.14723317 0.066218056 -0.023441684 -0.016531488 0.03300997 -0.120106414 -0.11196919 -0.035274465 0.18236624 0.07980105 -0.005803025 0.13187493 -0.15725829 0.059511263 0.09427241 0.22239003 0.041353732 -0.0050805104 -0.11847685 0.18296416 -0.04031807 0.08236438 0.14212763 -0.12489704 -0.1665635 -0.05926456 0.05602719 0.05812974 -0.2460384 0.009491496 0.21650232 0.034955878 0.106594205 -0.13743006 0.01773302 0.032131363 0.05183716 -0.029257933 0.0022414038 0.04180994 0.0030752849 -0.030229507 -0.041857403 -0.039271504 0.10055804 0.058387797 0.18514524 0.0922173 -0.075194106 0.073762 0.16639729 -0.06934005 0.1023772 -0.08775755 -0.013389226 -0.11275834 -0.06802013 0.09063313 0.09582541 0.013249495 0.043929026 -0.02159765 -0.09123016 -0.045421004 0.006151815 0.01139983 -0.27647284 0.058709014 -0.12605448 -0.09079539 -0.079801895 0.10110634 -0.14076032 0.255842 -0.057622407 -0.1926197 -0.0009325345 0.10891787 0.15977855 0.014516932 0.18444972 -0.020724734 0.14987956 0.21491817 -0.046317276 -0.23934194 0.03458912 -0.0064634713 0.26473743 -0.008512947 -0.020485979 -0.21091384 -0.09782347 -0.14775427 0.011922568 0.06811277 0.17349194 0.059952598 0.05326881 0.006077284 -0.04766223 -0.055648062 -0.06293785 -0.070570335 0.10912944 0.091815434 0.021485552 0.092863426 0.153193 -0.031630885 0.010640996 0.11994848 0.11886495 -0.02790237 0.02597299 -0.10393136 0.014346162 -0.016407924 -0.04941425 -0.10479498 -0.021066591 -0.03736319
33360 0.016165739 -0.18310997 0.03804427 0.059391342 0.09810324 -0.14477296 0.11040943 0.010727951 -0.088465296 0.07926152 0.19625135 -0.0053787758 -0.052702397 -0.0027393727 0.17041042 0.16871518 0.04466599 0.07346552 -0.035635386 0.024417177 0.07002078 0.20223401 0.052501187 0.010981263 -0.112519465 0.079433285 -0.055085555 0.029534433 0.122850105 -0.034462057 -0.20630065 -0.066470586 -0.066994116 0.0601727 -0.15784994 0.007700567 0.25288957 0.06993781 0.08005458 -0.16948661 0.12240382 -0.0009476629 0.14969364 -0.044120107 -0.015193661 0.23803751 -0.05243702 -0.08711956 -0.1308306 -0.119748734 0.1697969 0.024157545 0.30510372 0.17541488 0.22632381 0.097060576 0.24378125 -0.015058578 0.106531054 -0.08167617 -0.09301668 -0.03498542 -0.0704508 -0.11442309 0.20209177 -0.15109804 -0.112620115 0.0060032625 -0.11761645 -0.037544686 0.0009872233 -0.016648557 -0.36736482 0.011535949 -0.25146893 -0.18693802 -0.13612966 0.19416611 -0.13517852 0.26589876 -0.038969807 -0.08165618 -0.07377282 0.16187048 0.23627794 0.105663836 0.24978922 -0.17116453 0.10212975 0.044357367 -0.0077445274 -0.09085619 -0.0012777998 0.07050964 0.11034049 0.026247691 -0.0044185547 0.06333837 -0.10175509 0.054266162 -0.040048994 0.10515577 0.030310286 -0.01615541 0.023702983 0.0330101 -0.030854926 0.034320828 -0.078859285 -0.1406942 0.09565815 -0.04108246 -0.041961566 0.025159635 0.09999421 -0.008083699 -0.028207066 0.03992993 0.05797909 -0.12652111 -0.02857129 -0.026929267 -0.057671808 -0.04059959 -0.021847581 -0.07101146 0.014786965 0.069365926
34783 0.16924615 -0.22283518 0.2383919 0.10535043 0.04810296 -0.061106455 0.14390348 0.08073311 -0.05211303 0.048855733 0.055902243 -0.064057246 -0.052647192 -0.017939836 0.22723675 0.04491346 -0.043689612 0.07402177 -0.07470833 0.1053716 0.056336056 0.03857914 -0.044953108 0.053777028 -0.15834068 0.0783515 -0.07196663 0.13341886 0.21429873 -0.09517469 -0.09709878 0.00965231 -0.038598213 0.07621329 -0.17952569 0.09214111 0.22069873 0.006306541 0.048143174 -0.11567394 0.07525391 0.115718275 -0.045218136 -0.13048188 0.04515164 0.2473344 -0.17231423 -0.02530133 -0.12014424 0.0020926457 0.112673834 -0.00772717 0.22599038 0.17405556 0.026634432 0.10033892 0.2157416 -0.09132754 0.010669968 -0.013821729 -0.08046715 -0.043327577 0.009957169 0.07885343 0.11768713 -0.018609367 -0.037597038 0.009639153 -0.038727455 -0.055894807 -0.09002757 0.0907663 -0.29666385 0.008592365 -0.09015517 -0.13388367 -0.081411414 0.04595686 -0.1560219 0.11450174 -0.029140502 -0.18959372 0.0055310377 0.18312462 0.24190426 0.062017992 0.16875437 -0.06570676 0.11958379 0.18265547 -0.07393527 -0.10019392 0.083110034 0.088469476 0.20647494 -0.024311759 -0.014784688 -0.0683082 -0.07050085 0.013349146 0.019224925 -0.03831705 0.06901668 0.024026869 0.09174936 -0.05083194 -0.00746012 -0.018575246 -0.0379397 -0.079086445 0.052202214 -0.04892451 0.08780459 0.09446215 0.08476664 0.026708009 1.8758217e-05 0.069810875 0.03570321 -0.10209013 -0.02400716 -0.1093017 -0.034812264 0.02502106 -0.12040399 -0.1379507 -0.029007664 0.0022683374
30466 0.08103821 0.0012281582 0.06980239 -0.043403145 0.04685612 -0.010497305 0.051970903 0.094472304 -0.023437353 0.07525956 0.0064311996 0.030135948 -0.06249624 0.005161531 0.04524657 -0.032926455 0.10676314 0.07526056 0.006146506 0.044048432 0.046143513 0.110759735 0.07739408 0.16715215 -0.1550707 0.09277374 -0.040985327 0.11406869 0.1388055 -0.03823152 -0.21934429 -0.10480867 0.13000607 -0.031199519 -0.20257202 0.07342044 0.24601853 0.008508803 0.19232368 -0.13101529 0.054708503 0.13477555 -0.0790202 -0.13037533 0.12373595 0.21447048 -0.13059032 -0.12383278 -0.018836906 -0.013802865 0.2077284 0.08701481 0.21511385 0.1936473 0.006661376 0.07185262 0.016867407 -0.011456437 0.044369783 0.093402915 -0.085286684 -0.035995208 0.017693495 0.14488234 -0.008141858 0.046925403 -0.035248376 -0.052398533 -0.027049437 0.09304811 0.08568049 0.13004264 -0.22292528 -0.075071 -0.08392804 -0.11358123 -0.10955123 0.11016123 -0.05956637 0.35180604 0.04412097 -0.15651952 -0.002476446 0.2063932 0.18408234 0.014380442 0.21391249 -0.075951174 0.17872992 0.26688933 -0.12341944 -0.08297292 0.034019113 0.037104007 0.23438144 -0.015236372 0.03600642 -0.20716964 -0.0011770334 -0.15496638 -0.023338722 0.049672186 0.04530497 0.03595045 0.07367655 -0.020890385 0.030337721 -0.0849416 -0.035573155 -0.087223254 0.0887494 0.06969934 -0.0068490114 0.12873325 0.13758251 -0.16280796 -0.018045358 0.07073591 0.14248319 0.06402419 -0.017734487 -0.014336454 -0.03894353 0.051667117 -0.015416721 -0.08117924 -0.09303915 -0.053882137
30994 0.051380295 -0.16735207 0.09647977 0.12027273 -0.028041467 -0.20583375 0.045449033 0.03470267 -0.066769026 0.07249847 0.20483081 0.026364142 -0.17534184 -0.103270285 0.16779475 0.25360224 -0.062876284 0.09992358 0.07034585 0.086990915 0.13177116 0.16153541 -0.020264916 -0.046781763 -0.15527742 0.11037163 -0.11424001 0.144542 0.17836441 -0.034010198 -0.15813605 -0.07616744 0.05871354 0.05423809 -0.14929995 -0.0043452615 0.24407798 -0.012870455 0.107417285 -0.06990824 0.044572406 0.05208312 0.07691755 -0.09692204 -0.07782803 0.13704674 0.02407489 0.026965743 -0.032406636 -0.16320235 0.065711066 -0.023773463 0.09481796 0.10324262 0.21534598 0.11106 0.26997858 -0.01710963 0.046444084 -0.054072432 -0.032382637 0.011514948 -0.07547116 -0.002417394 0.17274824 -0.057393227 -0.046052977 0.120568536 0.054695655 0.03334906 0.008956878 0.018241478 -0.30450583 -0.15173 -0.09811404 -0.082889915 -0.030130276 0.15524215 -0.062423833 0.20101851 -0.014360715 -0.15615189 -0.008349919 0.121121176 0.16085085 0.10919448 0.0925641 -0.09776797 0.0381492 0.099762455 -0.04860016 -0.03819922 -0.052782502 -0.000636297 0.021217909 -0.039799906 -0.026921524 -0.037171297 0.05157004 0.10428842 -0.07143875 0.011952223 0.060190223 -0.069906995 0.062739246 0.05080394 0.02437572 -0.08024344 0.04158441 -0.16230823 0.104632296 -0.06497962 0.016394095 0.06299277 0.072692074 -0.06232682 -0.0051880833 0.11165943 0.13742867 -0.12067356 -0.24856722 -0.056395456 -0.022017168 -0.017865956 -0.055166017 -0.12706894 0.0057424144 -0.008429224
32575 0.04035183 -0.07786685 0.09868924 0.07303564 0.034206737 -0.0011721731 0.098819174 0.07517955 -0.064658254 0.16809747 0.09920759 0.050102618 -0.06632184 0.009044286 0.10814677 0.13918355 -0.0036514322 0.25059816 -0.08504166 0.046770923 -0.037204184 0.18058169 0.10235031 -0.022985207 -0.097187065 0.07748474 -0.11094982 0.11648998 0.060043212 -0.037269577 -0.13147466 -0.035828665 0.116956145 0.087657936 -0.19776121 0.13562672 0.29286402 -0.06934634 0.14835224 -0.07609411 -0.079605125 0.14955436 -0.05023039 -0.12790166 0.14450611 0.1153422 -0.15029801 0.045469902 -0.065592766 -0.08853256 0.14725657 0.08670666 0.26034063 0.13677192 0.08783757 0.074672714 0.12967567 0.011072232 0.07842802 0.018612808 -0.059203383 -0.07451622 -0.025055401 0.069037765 0.08025997 0.040260725 0.0113665685 -0.041936107 0.022378165 0.07143527 0.1122085 0.053386834 -0.17848375 -0.091238484 -0.029051188 -0.14460501 -0.018700052 0.14940484 -0.052079827 0.2324339 0.0046241907 -0.15203911 -0.012952913 0.1862457 0.1598548 0.014832431 0.16866119 -0.16505904 0.07534124 0.23267348 -0.08112297 -0.048826877 -0.002774924 0.027883962 0.26534134 -0.015373731 -0.07567071 -0.18461126 -0.0024590036 -0.070941076 -0.071445554 0.0062309564 0.00074073946 0.0066164774 0.03073026 0.06741829 -0.03346668 -0.037575006 0.01316316 -0.06459591 0.041978896 0.036509853 -0.01389567 0.13994624 0.04764513 -0.08290703 -0.04451979 0.05903532 0.0034272352 0.02363061 -0.08516777 0.012771331 -0.050319053 -0.026771372 -0.013501421 -0.02372786 -0.0671457 -0.04015857
31150 0.12709193 -0.2692751 0.116340265 0.01368623 0.10980022 -0.22749361 0.13473149 0.032423362 -0.06836701 0.060801677 0.14645353 0.029797593 -0.13233106 -0.0046004406 0.16140272 0.15183398 0.010706902 0.080714144 -0.02856212 0.07176585 0.12585509 0.18851934 -0.005661623 -0.026251342 -0.090200685 0.08956861 -0.082368255 0.034132548 0.20714436 -0.03941726 -0.20339592 -0.05523566 -0.028665643 0.061443202 -0.1320188 0.028582603 0.1981046 0.043058876 0.069318354 -0.09566234 0.13222423 0.019731227 0.1396548 -0.043335404 -0.05149886 0.13001435 -0.032648306 -0.07559874 -0.078168735 -0.07264898 0.154975 0.0072408016 0.19412845 0.1440507 0.15151192 0.1275927 0.19599897 0.005435648 0.10300127 -0.061321203 -0.030242978 -0.012126497 -0.06325186 -0.032555703 0.15613373 -0.10265389 -0.048576284 0.081619956 -0.08459426 -0.056691892 -0.016439319 -0.045818478 -0.3298382 -0.011343037 -0.17590472 -0.12327327 -0.13390434 0.122607864 -0.09350235 0.2007444 -0.051174216 -0.14908901 -0.06685248 0.16589797 0.19618021 0.09796402 0.21861714 -0.102502175 0.10971648 0.106905 -0.024227 -0.08706445 -0.014047166 0.022082381 0.13819055 0.004070969 0.033133056 -0.0014609433 -0.117619134 0.0027405452 -0.009060563 0.0921438 0.052441683 -0.054286584 0.038594108 0.03136256 -0.046655606 -0.017467935 -0.06951412 -0.14440754 0.1795772 -0.040825944 0.007094626 0.030642603 0.09346316 -0.016671002 -0.039459687 -0.00075428584 0.13628362 -0.10167596 -0.12182985 -0.054766748 -0.051662933 -0.0039582946 -0.077478185 -0.098657474 0.0015990965 0.024252092
30476 0.18626332 -0.1434352 0.09703191 0.0728887 -0.038094014 -0.086334646 0.11201773 -0.018500788 -0.07459962 0.03765237 0.0047109686 0.05509458 -0.1426044 0.06592594 0.16203871 0.14700456 -0.07059872 0.17244677 -0.19135931 0.055737067 0.12706918 0.19819109 -0.03328814 -0.19347514 -0.14146462 0.15547208 -0.08510411 0.1044509 0.21145104 -0.022984605 -0.1696428 0.025317179 0.0019314167 0.115399286 -0.13322298 0.08070781 0.17644206 0.13557401 0.07346329 -0.15544944 -0.010219838 0.06644811 0.016396519 -0.10174581 0.06328844 0.13964611 -0.13416758 -0.04074099 -0.17969857 -0.041397754 0.12062146 -0.007549788 0.239973 0.10255087 0.020802682 0.1589049 0.20926511 -0.05461203 0.13925338 -0.15794624 0.033658773 -0.023229215 -0.040229484 0.08665188 0.054587774 -0.012431073 -0.00022900778 0.0054363403 -0.045630086 -0.012398596 0.019844275 0.006455789 -0.24908592 0.07828802 -0.051283754 -0.11491065 -0.069169685 0.14558306 -0.09415104 0.11687596 -0.11120817 -0.2788715 -0.025851255 0.28076103 0.28722197 0.06708047 0.30864918 -0.11287499 0.113031514 0.12568077 0.022844676 -0.060157787 -0.008509723 -0.10355119 0.2948071 0.122956686 0.080071084 -0.044549074 -0.13439842 0.0011874632 0.023129206 0.21361598 0.04512061 -0.008507008 0.09351881 -0.04174074 -0.07347068 0.06669481 -0.15599483 0.053889025 0.11887744 0.04296982 -0.051162794 -0.0941241 0.23053002 0.074760415 0.0035752095 -0.005778764 -0.028855635 -0.15925702 0.00051714375 -0.02786918 -0.057808343 -0.013794705 -0.09702323 -0.065337546 -0.049195793 0.03439495
34653 0.21788217 -0.108084634 0.22938931 0.050858136 0.07932812 -0.06627337 0.11513219 0.08905715 -0.07350853 0.06028942 0.028492497 -0.06623782 -0.10391437 -0.02550099 0.22757827 0.072787955 -0.01800771 0.24403775 -0.11344214 0.09091358 0.02783453 0.1225898 -0.053509034 0.020629171 -0.14289619 0.045032863 -0.06692786 0.12311287 0.20830068 -0.04490353 -0.09397236 -0.021407183 0.050480247 0.1264513 -0.14415215 0.06810415 0.16751945 0.0059810155 0.08017557 -0.076863006 0.08243429 -0.028699929 -0.013742306 -0.09128602 -0.027049344 0.00721327 -0.041464143 0.008751612 -0.13763572 0.049009487 0.09153231 -0.045596685 0.1398589 0.04946744 -0.011175328 0.011391018 0.21297401 -0.088867314 0.06258657 -0.079168506 0.020357616 -0.013997256 -0.018992033 0.113034934 0.06111472 -0.019098863 -0.014090634 0.048721574 -0.104865916 -0.14161466 0.014578972 0.00449367 -0.30799183 0.011105183 -0.13725117 -0.09670168 -0.012505318 0.081101954 -0.15420768 0.16105035 -0.12613568 -0.34435245 -0.0028332663 0.24732944 0.23455353 0.041557938 0.29756916 -0.12775151 0.21346577 0.19202216 -0.07004945 -0.20044816 -0.018800786 0.0047597275 0.22912516 -0.063539 0.07074641 -0.12899019 -0.122964874 -0.022678664 0.014081108 -0.011591939 0.03694866 0.040238585 0.09931733 0.03441628 -0.04199345 -0.015830182 -0.0595665 -0.030700307 0.09082615 0.03338442 0.03847288 0.0230669 0.11990282 0.03481802 -0.033915844 0.11925305 0.04894729 -0.095176116 -0.02760592 -0.1282963 -0.017529078 0.021594528 -0.073061615 -0.026192708 -0.065707736 0.019564308
30436 0.083359055 -0.099164605 0.12397128 0.030835968 -0.06840421 -0.06369031 0.10442493 0.08922953 -0.103897035 -0.050135966 0.007888792 0.09687925 -0.032674033 0.0052482155 0.114198856 0.060659453 -0.020249773 0.14580196 -0.12424899 0.092475034 -0.025304785 0.11511554 0.06970492 0.059131768 -0.09595512 0.053931464 -0.063307285 0.25854522 0.24785286 -0.02990956 -0.20848696 0.01618395 0.092241906 0.09094937 -0.30552584 0.059679307 0.23246278 0.034358438 0.21139991 -0.18194392 -0.07788869 0.19556122 -0.16272865 -0.059965793 0.022357184 0.09627162 -0.029141229 0.113582075 -0.03727338 -0.06136445 0.113664895 -0.09470804 0.066028446 0.15089902 0.016563714 0.16629428 0.27846798 -0.05009658 0.07049062 -0.002809698 0.010734421 -0.09059079 -0.022466607 0.19034402 0.094624825 0.033800136 0.035939768 0.039447986 0.09937831 0.020250661 0.06634008 0.05724572 -0.16704495 0.017688839 0.010590707 -0.070613995 0.0059635937 0.09725143 -0.08460068 0.11039053 0.017321141 -0.22797562 0.012025614 0.110551566 0.19001502 0.008337267 0.11422478 0.0012231659 0.09682886 0.20323434 -0.02936707 -0.023850912 0.083215155 -0.07035579 0.2898769 -0.0568343 -0.034575198 -0.15706623 0.058540873 -0.08001005 -0.033286326 0.02821488 0.04687483 -0.006810386 0.08021032 0.022279775 0.035311643 -0.118370704 -0.020163799 -0.10455771 0.18709706 0.096856974 -0.019262746 0.16195104 0.11425934 -0.079616696 -0.053866982 0.07632601 0.1911548 -0.050647706 -0.070501015 -0.08770602 -0.017125476 0.08235069 -0.071328215 -0.12277209 -0.088538185 -0.004297354
30599 0.060972475 -0.17740144 0.09827617 0.138317 0.0951561 -0.14163277 0.15185691 0.040258415 -0.05698172 -0.018321587 0.1576638 0.059745323 -0.15771256 0.029888395 0.21023344 0.14267687 -0.044793125 0.123105355 -0.009201667 -0.011192369 0.121601805 0.18546706 -0.05558198 -0.062469114 -0.15230152 0.16554771 0.001014319 0.13199408 0.14099969 0.08274921 -0.2464451 -0.03858249 -0.027659277 0.011604554 -0.0661632 -0.06383279 0.20204316 -0.026522417 0.036414113 -0.1308415 -0.006375853 0.0141277 0.05456365 -0.07024893 0.029764133 0.18754141 -0.14903577 -0.04301163 -0.17938152 -0.07580968 0.09082622 0.019323092 0.24965678 0.1309213 0.11162732 0.121542215 0.21379985 0.0390146 0.06218021 -0.14363015 -0.08085973 0.07491904 -0.060200695 0.026050482 0.04624699 -0.03128515 -0.11685928 0.105374224 -0.05797344 -0.0060855807 0.04621051 0.07646501 -0.24124992 -0.043643244 -0.12379377 -0.100062154 -0.06645069 0.18987593 -0.11952843 0.1583521 -0.07483013 -0.14103842 -0.008851088 0.08148609 0.15708026 0.0074459035 0.25191092 -0.03279696 0.12879746 0.20730291 -0.048321392 -0.07722785 -0.15550685 -0.023639275 0.26610002 -0.0047590276 -0.028201424 -0.092051774 0.006383296 0.020557681 0.013465364 0.060977895 -0.0011067358 0.070988886 0.10522562 0.0057959375 0.005366506 -0.07812172 -0.05255377 -0.008335213 0.15943675 -0.0053455024 -0.027558513 0.14603092 0.15712374 -0.025886865 -0.00834625 0.060219605 0.1647841 -0.11945376 -0.04061155 0.019100888 0.0031174186 0.012252577 -0.09339525 -0.17009151 -0.13070577 -0.005234468
32448 0.21716797 -0.16537964 0.12502612 0.07823522 0.15269512 -0.17428021 0.2395537 -0.029661989 -0.121568605 0.122013904 0.1525948 0.07574224 -0.16658764 0.06949755 0.15840425 0.14716622 -0.017045226 0.18078764 -0.14754213 0.07160286 0.04875 0.21258825 0.0055725994 -0.050622646 -0.13291651 0.14370525 -0.05440225 0.09521494 0.10385348 0.022770902 -0.15095909 -0.07059576 0.028365433 0.061177447 -0.13414134 0.037482645 0.1761999 0.08007941 0.071008146 -0.106677316 -0.024513543 0.014195631 0.04543981 -0.050838526 0.005223996 0.123771645 -0.0538434 0.015067915 -0.1931616 -0.04374519 0.1336572 -0.064272426 0.19321933 0.08201856 0.05951508 0.033531163 0.14851248 -0.040193215 0.11280422 -0.16494936 -0.0372352 0.017535165 -0.019865867 0.10830167 0.07958663 -0.032163918 -0.098273486 0.01115507 -0.1466381 -0.063201584 0.02685843 0.030187411 -0.24508812 0.04326302 -0.17046997 -0.0918145 -0.10259377 0.1440619 -0.090318926 0.15626775 -0.12800172 -0.1503161 -0.029572817 0.15086475 0.12987453 0.0159894 0.2518417 -0.15120047 0.15522987 0.17378728 0.012113261 -0.048080638 0.029143658 -0.09710268 0.21951097 0.050024807 -0.017365016 -0.07647949 -0.098067455 0.03127503 -0.080936566 0.179421 -0.0056153545 -0.025084296 0.11005588 0.012390991 -0.027042931 0.03050002 -0.10661887 -0.04322192 0.17205885 -0.054916997 -0.0035997182 -0.039586645 0.19847418 0.030302793 0.039149255 0.034077454 0.1414051 -0.1415381 -0.057738148 -0.065398365 -0.09887562 0.048331413 -0.13540763 -0.17830443 -0.11869389 0.038140636
33367 -0.020705247 -0.17727481 0.10767367 0.051173914 0.05200977 -0.056424387 0.11582528 0.056213323 -0.058087457 -0.08787228 0.17951816 -0.022982005 -0.066930726 -0.07330985 0.17577831 0.1282988 -0.01716751 0.018903796 -0.021663385 -0.03958772 -1.8648501e-05 0.08466641 -0.0070220134 0.0025890018 -0.10890959 0.062195607 -0.082365386 0.15461864 0.21092996 -0.06266398 -0.22653401 -0.029780542 -0.017794719 0.014059295 -0.18968314 0.098538384 0.2620948 0.005920172 0.07962887 -0.17366928 0.028646061 0.04120883 -0.12834235 -0.0042947014 0.0426101 0.17481035 -0.03302684 -0.020453652 -0.16857389 -0.03560181 0.033890557 0.023847409 0.15108277 0.17107974 0.103843234 0.08067038 0.22683027 -0.019857997 -0.017870031 0.0030009756 -0.07590141 -0.0352342 0.13844416 -0.002407405 0.13190058 -0.02546795 -0.10902821 0.0036494283 -0.05377943 -0.030801626 -0.06510616 -0.026723906 -0.20647222 -0.058035173 -0.20082583 -0.16189283 -0.10896785 0.15068266 -0.18727683 0.09927875 -0.07522527 -0.13241544 -0.0037115028 0.09285306 0.23634352 0.015045957 0.088076465 0.0056759897 0.06455055 0.17997952 -0.0955045 -0.14567369 0.09319126 0.07986343 0.22929455 -0.071796425 -0.026274942 -0.042133123 0.00092240976 -0.02614086 0.041099917 -0.082182996 -0.08430462 0.037028026 0.024906373 -0.08392209 -0.012759065 -0.05855012 -0.005308934 -0.17638338 0.1188478 -0.060431007 0.018507378 0.092950255 -0.02540904 -0.020441322 -0.028944962 -0.0032421704 0.044968754 -0.025166601 -0.1714111 -0.22564048 -0.13598537 0.096205354 -0.13343707 -0.2494392 -0.14053583 -0.024425024
33277 0.15087807 -0.2980089 0.11939836 0.07504035 0.13292497 -0.2777546 0.20967099 0.049607158 -0.09687321 0.096950255 0.18000701 0.04749943 -0.103060484 0.016559035 0.1793409 0.15155788 0.013282565 0.112624705 -0.08142079 0.022811146 0.12999614 0.23563449 0.06075162 -0.050058853 -0.12929197 0.13909377 -0.107931085 0.045716003 0.13102584 -0.03925527 -0.17501265 -0.065966204 0.017189357 0.06931224 -0.04431544 0.017352648 0.16410036 0.025723122 0.055175643 -0.07770078 0.045921337 0.02378721 0.1087317 -0.073486425 0.032820586 0.13817093 -0.07907977 -0.03314561 -0.060229886 -0.048308775 0.11904412 0.006356471 0.24006143 0.14779976 0.09016414 0.08095269 0.22101332 -0.007667412 0.13831906 -0.036655333 -0.067944705 -0.009458938 -0.06694618 -0.007827282 0.141792 -0.039843116 -0.07446661 0.07079531 -0.08703434 -0.016237019 0.051389113 -0.037331037 -0.2850451 -0.075254634 -0.11744756 -0.1164884 -0.089529544 0.13954756 -0.06381896 0.24576882 -0.06975047 -0.11950596 0.0024890236 0.21261328 0.14663666 0.08806961 0.18459904 -0.1332238 0.10578288 0.11009892 0.01113025 -0.030294366 -0.023660852 -0.017899144 0.19082391 0.048322048 0.010080624 -0.041477103 -0.12730432 0.030847464 -0.057849236 0.13836011 0.050724458 -0.014780192 0.06558737 0.00205949 -0.017042695 0.0059966687 -0.11414787 -0.095767125 0.14306134 -0.007971574 0.0089072455 0.017335301 0.12881027 -0.021178005 -0.019892456 0.008771816 0.12986372 -0.12888542 -0.17314646 -0.022573829 -0.06555024 0.013024088 -0.10967467 -0.116980486 -0.045578927 0.020464554
35249 0.021204736 -0.24904063 0.013637297 0.032793503 0.06661769 -0.18008967 0.20182115 0.0006039518 -0.06573734 0.12626287 0.14213765 0.028224811 -0.12514047 0.045067515 0.14723314 0.16804737 0.004006224 0.08460812 -0.05085854 0.16041242 -0.05259117 0.13849951 -0.04972203 -0.0044630067 -0.11039356 0.11163803 -0.056814484 0.100042164 0.09316378 0.029920768 -0.18002377 -0.12095408 -0.03098081 0.0077192327 -0.18758278 -0.0021021238 0.12075478 0.055761866 0.08004353 -0.09427613 0.0670237 0.028050765 0.18257934 -0.08322002 -0.051181138 0.196711 -0.09950396 -0.08355495 -0.009209246 -0.1208687 0.25759596 0.020958971 0.20767315 0.08781293 0.13817362 0.06458823 0.27968192 0.007946846 0.09941225 -0.09067844 -0.06920826 -0.047368664 -0.081784226 -0.065574676 0.13409379 0.008083758 -0.049695205 -0.0027143126 -0.15958546 -0.06015245 -0.056587018 -0.041930117 -0.3004625 -0.030198283 -0.12595633 -0.20176812 -0.12860698 0.15338139 -0.052175313 0.22431941 -0.00064394274 -0.14366831 -0.034188114 0.22028364 0.16040303 0.08644974 0.16933689 -0.13412128 0.07348858 0.06444521 0.04678448 -0.0058371136 -0.00036936477 -0.058242988 0.13604127 0.068306535 0.0071707675 -0.01200817 -0.07145176 -0.041651387 -0.034608465 0.15850592 0.04017883 0.007576191 0.09878566 0.041690618 -0.015380274 -0.027511932 -0.13620128 -0.13582367 0.24780485 0.02253767 -0.017517278 0.025715018 0.14101484 -0.01795029 -0.06190999 -0.040269032 0.17593305 -0.09682175 -0.16370703 -0.03821777 -0.10498214 0.008910741 -0.114558056 -0.14736249 -0.028567621 0.022807026
