416 128
30135 0.0 0.0 0.0 0.0 0.0 0.0 0.0 0.0 0.0 -119.35838237391968 148.15387386031938 320.4066914502105 -190.5267233029095 98.37713195111367 -341.8148056805401 141.80148781683897 -491.549443046926 157.38405051245815 -238.5283557111023 143.42176979272472 924.848231682562 401.8365775280444 -78.66611620470023 235.8303594433822 -957.0842999108511 1365.1898926990173 -421.77429773944215 212.41461636954594 -1192.8135808705222 184.5912274793195 -810.98555840902 -528.8997260714951 -761.5845266699653 -549.2076007343065 -67.32879553135736 1280.017539840627 467.81061395628626 -343.20829193816047 72.29356670681551 -1349.2550296895286 514.3273683494099 -472.74865824948336 126.68397249448215 -1785.1138400259058 -493.7210868933428 1157.449758218427 -1923.258810196431 480.633729915389 634.1150328421797 127.1688450056372 -458.30049103597446 692.0921955660331 253.28444227113837 -391.7999783680879 44.68059101990327 -1216.4659592905875 -924.1301540771162 -554.0094091493793 2905.9405646961136 -72.11131481481738 2927.0612333550175 -5305.161757786118 -4093.281238547572 -5286.9849359611935 0.0 0.0 0.0 0.0 0.0 0.0 0.0 0.0 0.0 -144.58259212336037 160.06446319057088 322.8550616823128 -178.01201923092117 108.37026408113367 -318.29330455478487 145.90105297224864 -453.00838266977956 182.248766090421 -228.4688434148159 139.1777686215259 903.0793146099236 406.28444438416324 -90.3547085555557 209.8983046765592 -920.6007394532479 1387.0828774386894 -430.91348417447324 231.92865477135936 -1243.3576972842484 176.35150365007942 -656.4868003290019 -474.8729363787779 -710.1507104526347 -467.32844486096724 -2.614371819251981 1220.3158793866917 334.2132779934666 -377.3113115361157 92.933307252497 -1456.9615810623905 488.4386830315155 -430.6503260990579 1.0301673030734908 -1916.8130375540366 -569.2254459558146 1171.2143751392434 -2034.0615326408756 523.653649895125 771.1378359444976 89.35816986622613 -531.8403447376326 671.0851786101981 255.22317203897657 -453.2904338229212 -47.91617918658189 -1239.9167480192466 -1012.2611890687614 -612.9198763211153 2997.9395016843955 38.75486533088706 2993.460658489149 -5471.887223792881 -4210.19209183477 -5394.192589349175
30397 0.0 0.0 0.0 0.0 0.0 0.0 0.0 0.0 0.0 7.1710573945965175 -1.7176570565869134 59.04917870779947 -21.645032068582346 30.549969058809758 -24.12332733517887 6.779338222062807 26.57922822361868 -28.813685927598776 -34.292168362849836 -240.81771202103033 89.3211237553573 12.667604166355137 -14.243595687823483 22.328549833126306 -166.4905853781628 -76.94375884479206 -168.2703845498853 -184.06918901231393 424.0251633427195 -44.459279980738636 -741.2070152834377 -0.2548239474247629 1033.4689351864745 -184.3673986681811 345.6354306103718 -825.5487087224228 2411.284784539119 683.2186702342806 -1509.4200581057282 1287.4509789850918 -1105.793606148741 4282.605454185965 5914.147976851619 4317.222321100305 -5969.849406516501 5252.407530945554 -9310.921846963802 2780.3473358909564 7217.639335292804 -7468.003518011919 -12050.807610991313 18253.545562187323 6474.6325413889535 -10808.556176187696 -18066.805721965848 13788.074361209245 20837.081710319155 38235.623670060515 12966.120652180838 17142.212329216894 -50639.40695836262 148279.50839161268 -80180.89100892215 -289827.36456233193 0.0 0.0 0.0 0.0 0.0 0.0 0.0 0.0 0.0 2.1449957403963786 2.1069860122796005 56.60960853216952 -12.268035489459981 25.889757619058585 -11.409726524369137 13.503719752369717 42.034700890561275 -40.287652831821106 -22.92261281595391 -251.31458043194112 97.95770422461572 5.802593094257782 -7.735409729179914 48.85954722326881 -195.58428357418646 -71.48712263850801 -197.09795181491387 -141.22212210072865 397.00603091084434 -80.00361489260376 -749.4632241195982 54.65944867990798 1007.2964230515571 -190.87871031382272 380.3823288119338 -761.406071217342 2367.954048979917 675.7773827596078 -1548.2718642727452 1091.2185958246848 -1164.0434590839513 4188.257031283483 5916.353617377102 4425.248698561374 -5826.320029203915 5079.756914496795 -9507.775099261511 2903.0772321672057 7133.3800710702935 -7869.0427232007605 -12288.417427814204 18219.489721409118 5987.356371083784 -10930.972879182735 -17410.44192174302 13209.924774199391 20085.05993388187 38137.59608029578 13109.909713446445 17280.26123868675 -51248.49783395426 149458.69546014877 -80319.67544094904 -288511.2608871367
31057 0.0 0.0 0.0 0.0 0.0 0.0 0.0 0.0 0.0 -2.4302515619028724 -3.6406410178667867 -7.600860890169827 38.748205144471754 -152.45606154622143 67.03359014473654 -86.6449617011746 6.360697824087102 45.30950583016595 -22.023590335949763 217.71710793325272 12.374135418087228 -80.58918444052385 -106.65263170060457 -164.37982226508538 395.0030725314491 236.95179638715405 340.3902520036376 138.44316178196553 -862.9761295607391 289.8467734717142 2037.6207653424358 3.635637849409368 -1124.3381953573148 -261.3395006321322 -296.4521782528103 201.20014871922544 -3461.621919969844 255.37923687795805 -36.504087960149896 -1851.1870774978674 1870.5360144104427 -8069.251724617694 -9522.256964610533 -11787.743053298344 12923.680011059996 -5602.641408905614 -6207.415911498344 -3484.7600972089144 -19893.347678411294 18752.094945331035 10633.00711823851 1081.9761517823863 5440.51821305497 -13006.623047081861 27484.782588313847 9727.414493932001 -4534.5891428539135 21478.76163804055 -24751.194208115176 -3334.678052701777 -36779.13996288027 61067.060329608845 -74828.83815214576 -176765.5679660382 0.0 0.0 0.0 0.0 0.0 0.0 0.0 0.0 0.0 -5.373060839723084 -7.042640597776469 -5.795814822308709 34.751547985550154 -152.80347987346067 55.30354025477236 -84.78752013477843 -14.283398359321781 59.19397127756228 -30.281197516594343 230.47157049459625 -11.984725139565068 -79.7183998536699 -122.70716645319776 -201.86643267754746 479.4929959400662 255.45171729848735 394.4310657182404 76.53816365103019 -820.9182453748032 362.777747291848 2148.2746583263024 41.96476544598498 -1127.573779452773 -280.43459096852723 -234.18510985068787 58.18789393545218 -3548.6001054050666 223.7426916626581 121.82297751751838 -1775.286431475011 1919.6028759727517 -7886.354294345346 -9558.7585566206 -11757.96483363119 12612.886959617861 -5565.002526491027 -5916.889373071468 -3818.705878111221 -19763.375317743856 19064.677148151648 10513.068106740433 1191.2109585874223 6627.655276943731 -12846.545281530058 27727.38230093438 9688.791049363253 -3917.3571987158425 21091.509298956862 -25682.690187362958 -3396.918281684939 -36766.14923800467 61425.03443453247 -72632.14641662591 -175228.07281151594
34100 0.0 0.0 0.0 0.0 0.0 0.0 0.0 0.0 0.0 -230.19729661187557 63.971802554191655 87.2709788734944 217.06941318441574 315.71971267534656 108.11241544702331 -450.0801607214744 -64.30228314811563 -16.943129410169256 -600.7675011812339 -473.8866714896465 -926.4356713567352 188.40005354039275 997.5014561776802 1101.9675984585365 -2771.2307740334095 -3996.417311738763 -74.7664461246529 -650.8071998213638 -468.6180879874621 -6.77915107322629 -5396.969435007714 333.01447048101477 -1299.486781478334 -4341.699865045525 -553.7966556697078 -6995.551154544771 949.3686623057677 2102.1455624613727 1685.3615591893201 -1746.344482590599 -402.17120775455567 4086.82626080677 -4500.840920553609 -10212.276280169528 -8212.971460239049 306.91475141804193 -1062.749957636254 -2447.5295413806775 2240.0129920431023 1201.655763104859 7013.037809734795 -5256.450760017338 1031.6245218891734 2954.7431113167095 8955.966634495788 -4847.70205813271 -8886.331315459334 -14069.670665618158 -8735.676968073089 38504.772217841506 -8433.318331458793 -11599.604455308505 -27874.570172370266 -98902.30716032453 0.0 0.0 0.0 0.0 0.0 0.0 0.0 0.0 0.0 -216.67633518953667 62.507166071302116 85.09074024143678 215.29032775759902 350.8696207125382 108.60568965092186 -459.1890720394467 -51.83260470149886 26.513804856251383 -605.515345212996 -514.4374837712804 -905.6138897361582 223.53759381845293 1065.5715405029077 1206.346043132507 -2784.3854271295127 -4059.015589181453 -68.00469163203861 -650.712191583013 -782.2146104678814 -20.504606328804066 -5264.100201195054 280.15385795095085 -1136.2472287853163 -4173.593842940749 -681.3584736002915 -6561.634527641616 652.0491971581796 2167.9073870108555 1630.2358246602798 -2277.6777212836764 -283.95125123434156 4604.9436734821775 -4771.700924400303 -10824.170791015793 -8527.795913940576 229.83788160112627 -1825.012832243314 -2154.4691404540167 2697.071879406381 713.7597338365107 6911.263055704688 -5237.634145595687 449.0182783155796 3216.305357136657 9244.617397383892 -5580.721319982218 -8894.646526848415 -13004.877310621752 -7850.5258020745305 38206.52645372436 -8618.865862615969 -12372.846637659932 -27199.11684902007 -99176.00300045035
31295 0.0 0.0 0.0 0.0 0.0 0.0 0.0 0.0 0.0 27.493297841098503 -55.43995348964862 -3.2956971936034094 134.23831792103172 -60.43570970646383 -34.938294161885935 -170.2920786444329 -50.326657456072496 -358.62669154692634 -89.92014360409938 295.2791050081451 -1.2132523416255794 -97.85147080292825 -67.4857134127782 20.085072603468575 1298.9100486823413 86.91116991099145 963.0084729638709 237.1459000394269 -1253.8448251003144 -482.4342771139611 -69.39177710610245 32.153285821259075 -3925.6764650981477 -491.112937923721 536.4038820452575 1010.4211976415563 6527.543379760062 -2270.997413870502 -1541.3973866052245 -2516.663358856471 -11593.479178696904 9057.64047547407 4876.506186661048 -776.7918375963051 8239.27695716505 -25399.243870334514 660.3968018275934 5781.621938963527 8571.176626976763 -4585.037195959096 6016.277038048519 -3447.738282818988 1854.2479703739693 12966.097177993108 -2323.9932983383 -9574.499345094366 -20847.935824720284 5600.356918547801 -12070.149275863201 -5075.877886865686 -6211.086441394011 8241.758879948055 -22974.383148187895 -130548.88213652583 0.0 0.0 0.0 0.0 0.0 0.0 0.0 0.0 0.0 36.914464888554 -47.50932007309178 -16.95590051370941 125.21929153774269 -73.52774681929688 -0.8447125512199185 -150.81708487886485 -100.55382126921045 -356.11763537360986 -115.42040097291536 286.9166333498185 -35.23197841475256 -75.83142980887 -65.49218597187685 9.436513184563882 1314.6586816576714 90.78196488814545 983.2830759279107 227.15459234934764 -1463.164082860029 -354.99792700050597 -140.11606605832787 -175.2023138174257 -3807.838299349126 -413.36449108908926 478.840293978557 1059.8066389367546 6691.365602771423 -2441.884556582672 -1644.178323550473 -2408.8990931559088 -11569.66355984285 8958.933968708014 4854.657073983807 -1007.2605525891389 8528.74892008021 -25144.70425603178 691.0906745194657 6032.877073953763 8790.91098556397 -4458.385707447596 5472.695294789784 -3460.010213055747 2162.474414371984 12372.84546833602 -1447.9726890798888 -9760.983300220028 -20771.943597038226 4316.413477543163 -13219.70823941588 -5276.616204051601 -6186.072354400376 7248.460424067027 -23557.61446415848 -130858.08455840331
30977 0.0 0.0 0.0 0.0 0.0 0.0 0.0 0.0 0.0 -57.761633682926266 32.023949175359654 -122.04203794591837 -140.8299387438212 -42.638997092254634 314.506626804266 196.80755132756363 -89.25473926829991 193.235261113303 26.175127306914767 -249.59668432283536 57.51333686852575 97.70271944546238 86.35300810439566 96.27047723505098 -741.2731804230663 581.799976895456 -584.6356305484563 -11.366000607808763 -555.9869670933841 320.3517622400474 359.11718918600894 463.52521018427973 1408.1195882708753 2483.0673698379496 149.89017544615436 -1136.2438550714896 -883.6055898287983 86.65282876410308 1986.7501767561155 -2346.3530922023715 2873.0898372111833 -820.66799172231 5147.458900187648 -1470.0560609955771 -1811.3689481629094 4098.705839431956 127.19791880503051 -5326.570585142871 -1324.1249554298436 -10480.526921626968 -703.579403108312 -9566.72902309377 -20409.09382968509 18125.9520568786 -12935.399064821288 8794.281756223225 -29944.937924742684 -50234.08365463774 -60491.05340370437 -51058.04743979138 -7724.230000795736 74105.4996549984 -12745.632635234197 -291598.2400519923 0.0 0.0 0.0 0.0 0.0 0.0 0.0 0.0 0.0 -62.513880419528405 26.41381347086746 -109.87867268647597 -133.26900934043937 -35.047198065121385 293.68995918978675 189.76910801564978 -83.26903479761359 180.11204974923047 21.857586663215134 -247.59892288053848 75.61777135886742 71.57813197907718 89.15911543916654 114.701515454968 -720.2439817319414 500.23927975113367 -577.2427673992746 46.88229896444031 -496.2502993244641 248.3387743231849 432.4525965314403 566.7356586676867 1379.6948878922126 2514.3259167274946 54.794404147253985 -1017.6667782433807 -875.2492222720739 71.7812173321313 2252.4829552363017 -2109.535959053019 2832.485061971709 -663.5881384934753 5029.412747515523 -1598.4833188013488 -2076.1039213029017 4108.357171942313 292.8570944205692 -5981.851848967461 -1496.449152524419 -9755.75804302048 -257.39321819365733 -9821.90194895117 -20427.768069516624 18124.829174625036 -13718.999179217919 9709.004563781202 -30032.207865717708 -50267.58381812999 -59413.569790541354 -52036.018384330484 -6322.641554006439 74631.87624839491 -14018.52629319937 -291429.46166814736
31703 0.0 0.0 0.0 0.0 0.0 0.0 0.0 0.0 0.0 82.27345885138283 4.07269865033145 81.84546242893823 -227.0541622674447 147.08912677745167 -116.21536114450926 150.2708759096212 -197.1203942742686 -111.35082944835368 91.37259244991026 -99.37661736788036 528.5261147452013 -249.2832852501681 -537.7380099227129 -575.7263584884862 475.84001947216996 -133.16638822121016 650.0391641803132 172.66780220187096 -72.38579503970799 -733.8341198590243 68.28943254860779 468.21522231062306 -401.5091298276759 1625.977971455941 68.2219199140204 2018.374421734208 -2976.3642427655313 -859.225856607101 1625.5374772499683 -5267.633265989503 1934.9591510919286 -1929.0976605227315 -1633.7841590208045 12418.032535793904 3985.2789652511588 -905.5229139867166 6535.6907069074205 -7287.825575725935 -4837.3416076406165 -9427.935440263556 20090.98314122088 -7211.282903394419 -16291.472374823004 -16574.06566893672 -15841.411697747148 -7407.364106620902 -17719.678836032694 -18792.830249123694 29540.986149200962 77519.80753122784 78.34567519363473 -21838.25706403493 -62681.15423756954 -297224.12923680193 0.0 0.0 0.0 0.0 0.0 0.0 0.0 0.0 0.0 85.12008149342273 -0.36139511271872304 75.4713313656554 -228.74627648876373 147.42468208319144 -112.76535937476181 159.86331577083413 -198.3997619800206 -134.51003323007706 90.8083180513301 -60.76452770190924 506.65315495625873 -231.1741516724597 -537.4967827866956 -580.0604126719841 515.4575705038769 -108.98703679281401 620.1845966328252 151.74480209174973 -12.445742438316648 -747.4507599248682 45.26196796786876 371.36103419318266 -406.80272216821476 1696.1835963794028 74.42911546123571 1874.1557729065698 -2890.2750219873037 -869.8069996868265 1541.4350397740325 -5436.448445056021 1813.1211442465858 -1901.445308581462 -1651.252065264384 12162.618563204971 4278.143575428354 -1053.5740364644137 6742.657719558916 -7513.787573437124 -4674.541492910466 -8480.37882645751 20522.647354079316 -7642.944632719228 -16714.872250874472 -16485.535316216916 -16286.687251390022 -7233.800833859153 -18436.077321991295 -16759.916770283635 29116.772927233007 77710.36024817017 481.61674008577563 -22029.415827271285 -61227.499862790995 -299843.8341251346
30721 0.0 0.0 0.0 0.0 0.0 0.0 0.0 0.0 0.0 -292.4595834972762 149.47111234370774 78.98858694596268 936.2720218934262 -193.88298397768037 -418.3843570938998 -220.48641185031423 346.5764090898183 424.923573515665 -78.44236664665067 -217.20312078442544 -1299.5194888926765 410.27543908523785 1339.1318476596255 1403.4036705923827 -180.01400229632833 235.62335160981849 884.4162261412008 1179.0069066671922 1513.7411127906605 -365.6900781649528 -1497.3849915024248 -3371.7618822928353 616.0266576246805 -300.0206354250367 -3255.3767079873587 3527.4787948778016 1313.1514934114894 -2148.9370254078294 2975.2752387392093 4290.2615337966445 -155.5434651976325 769.7998517346588 -5842.96267181562 -4517.165905856407 -3165.6669968471483 1530.3443043430573 8412.610525776057 -0.5679575193196233 -9512.47392903561 -824.8497711066801 -2125.6940284642988 -13623.707643654228 -11251.5144664275 -3589.1970824944337 -18527.624432081415 4488.690900699061 -33167.87925726567 37946.15823431103 34660.68696360816 -45798.85985443209 17756.894523087343 -15835.703713152794 -51907.14787826783 -156956.24936740883 0.0 0.0 0.0 0.0 0.0 0.0 0.0 0.0 0.0 -308.15580896408824 134.50171414394342 103.91248534032898 944.02630966848 -185.17946505373317 -432.16344107097444 -276.4176419792115 358.23403338378824 465.1516025577504 -94.23636412351247 -223.9465125362503 -1276.5194977081549 382.41327816717313 1279.6193441682128 1312.3827940184221 -250.15925925521563 206.0820097586898 941.3330931826326 1142.56823734556 1453.0767992805115 -473.6438738828267 -1525.0065929031693 -3340.576654146344 574.9180118728967 -479.1453938742906 -3253.1338067948245 3653.6116189791123 1421.9122540771123 -2218.340582739589 2809.308111400296 4507.316070304495 -100.42461735324243 386.78229000535543 -6044.152502032305 -4550.730964671724 -2578.2848695334033 1513.9051485554708 8124.215222637336 497.8305724031015 -9273.363614760943 -569.8307911815369 -2210.8505943875484 -13490.006278055907 -10746.445729712956 -4442.36620854861 -18511.83535553546 4570.941797101919 -32382.187732070703 38893.452647719634 34644.90241157422 -46630.5186140121 18213.222806696915 -16354.026540995239 -51538.625780662594 -158903.31798387214
30529 0.0 0.0 0.0 0.0 0.0 0.0 0.0 0.0 0.0 641.2691958039446 -353.5358549471274 -451.7223677190337 -714.3691337749848 -524.687770016303 960.0309839129583 190.84933201302442 9.03495716473155 -1140.0602657305233 572.6399199230898 1227.7253286386792 207.03088830925586 -1697.4460415347446 -356.5184727182209 -211.46232737312732 -657.0689773410875 13.507813905841672 -1912.9597205143345 -177.62316085615495 1619.8714065660076 -1697.0360521840446 1253.3693870507966 3105.421495399445 -194.23267388277722 -952.6770242643876 461.76805794560204 -1726.0338449038695 1398.041085141384 -555.3772824045818 2114.351619288586 6183.820478355809 473.4836797115931 1074.0026974508896 1299.8115760757962 -8375.963486757333 1504.4893101862485 540.0118374572912 -2350.983203281715 -5710.076950778514 -2230.870959753232 -2926.1351526919216 4385.707060312874 -151.0864271416204 -8913.6881775759 6806.949434362807 -6782.337834160636 -1099.6613505317932 -8563.35900530589 11027.828209875845 20041.69077379602 -541.5660806359499 9280.338755328172 -16349.966048575643 -22410.618910571346 -37592.97390937344 0.0 0.0 0.0 0.0 0.0 0.0 0.0 0.0 0.0 723.9705547144068 -327.06293829193606 -523.6769631937847 -739.3796077205296 -486.1686914737351 953.0053175335498 124.179823185883 -36.946415484841744 -1113.1726103257533 557.3660926061032 1210.83478632732 250.39745316497704 -1670.1899428630584 -372.13716841099836 -158.6852526582779 -746.253812004712 4.373094369217866 -1916.8145008855481 -102.49796178423826 1585.0953262856804 -1645.685289079997 1061.7461491237418 3084.1847917193145 -269.3514453075235 -1294.797114652532 476.0312111861964 -1280.5566895985464 1308.7498665921307 -449.8738629403627 1783.1344091197489 6150.099742328857 342.82510105974274 1241.9437191336744 1284.703749103932 -8486.960405586831 1771.1782744303132 147.73688668275886 -2551.527940759694 -6010.219186772165 -2077.6972567852904 -2530.940832824033 4157.665099849369 -171.8117340807518 -8894.901461804824 6775.61209728583 -6685.749633601851 -934.5738199898548 -8321.831286134267 11469.718513861239 19698.480289373463 -250.65179901416943 9230.02844841139 -16730.804700828445 -22428.38742008596 -37885.04048208089
30198 0.0 0.0 0.0 0.0 0.0 0.0 0.0 0.0 0.0 484.0894291962481 2.186211434972601 -940.8283204695077 -942.8929292823296 -54.16971238091844 -489.50980954561743 162.9737924064607 -298.2471654342229 454.9003921988891 10.720095184433038 -678.2485888824333 124.43024319851747 448.5877871030304 205.53415311402404 460.86489135156836 -609.8906945668128 1488.5618230489579 -278.41377315893794 -42.64001959449156 -1701.2588386493119 1102.3946288178086 30.57437058466403 -818.4815135286183 107.2543658657936 345.84529873285356 344.8311473108551 -1928.125810256009 -2421.1417592184534 546.2022939996161 -229.33451667386913 -1942.8680367030245 -915.7904530017777 2561.176262892444 -646.8757550008698 -551.2988852142071 -1237.526529159788 -592.6147345819099 -497.89406442497364 1420.6628405955673 -210.0139828543206 -2006.9516941068118 -4568.230111417021 -1236.578858950777 2847.6887543115 2592.2483048654735 2319.892057658214 -2702.5931892753897 -4773.731175613816 10264.816287176465 8315.475128440683 -4324.856075734562 4929.03553478489 -24999.425521069534 -20745.089752923912 -53760.08435398184 0.0 0.0 0.0 0.0 0.0 0.0 0.0 0.0 0.0 459.46455950324616 -67.46892459716034 -996.1242728513969 -884.5406528115894 11.132035563258226 -655.645887701623 96.46938613499286 -282.47632864375186 384.5099897965027 1.2662346527135468 -640.9095810345069 275.88086420333246 470.4954330569645 177.40953757224517 455.583066886677 -482.0375470935053 1847.2809106823254 -83.23656939944472 -26.344602434915487 -1707.814616208829 1250.461131360791 162.75552236127876 -853.3523141693322 -111.75561988296789 31.679112281302128 333.62897194379957 -1998.1135233828184 -2571.0250551568006 576.6397776024005 -193.87030778619186 -2214.7763973471524 -833.2829643492828 2868.567625500014 -1177.5764191169253 -651.5998118989388 -1780.2358876923543 -81.35358795515778 53.59525177637278 1151.941791916371 -187.79781660875756 -2825.9980255210335 -5372.57702645671 -1585.167441473127 2938.294148136988 2438.6537592077457 2110.88165117939 -2384.9484428871133 -4830.1009889586985 10125.828258266152 7446.629306821043 -5259.560683650711 3972.6826028949813 -24005.034474194017 -20817.68432664612 -53786.574538111076
30434 0.0 0.0 0.0 0.0 0.0 0.0 0.0 0.0 0.0 286.1818556772253 -29.11778879940175 -73.59892409928312 -271.29103769744427 20.064339227664306 365.1733583630159 -299.14898847783684 14.813397775260361 29.42605439878811 303.6672415636611 -194.7264961208858 447.6959880058476 120.06738479646704 -429.6408450090534 -460.42893331936546 -596.9774335287134 626.249548754008 184.49661948972332 -35.15071246461827 -997.409428366735 -287.7433940750262 -213.66812625085 -394.97655059947436 -954.3302357564179 -335.5999994095147 62.150666023891425 1271.613994946668 366.0258811386632 -57.66025322327845 -295.89877555428995 -741.209298522663 522.9165333878635 120.33147824243439 -883.1433831746901 -3561.757562678658 -1509.6900961643441 2028.8841772868007 -1243.1346344282351 500.90940125344207 1339.7180771122503 -1182.0809058338195 -677.811188151781 -608.7911564678353 -33.446844575389015 520.6616016111179 -1768.9189832877123 -759.4243703783726 -2249.095446856054 1057.7818317667156 4528.018383757725 -175.77193839755347 2566.335605838872 -3989.46177324472 -3818.032446651107 -5106.617307077908 0.0 0.0 0.0 0.0 0.0 0.0 0.0 0.0 0.0 278.0123759829667 -22.33542665152701 -68.2596635355131 -257.58970219088326 34.808980931476604 372.86127623927973 -268.9806657340502 45.691935719381185 59.19008979805247 314.18013757525813 -231.10361560916482 478.09432970300867 114.02500272954214 -463.179843414466 -490.5747999919451 -630.9376327448291 644.617466486595 145.810645255543 -14.058337412573986 -986.7050026173359 -303.5680152787157 -125.4457886583608 -312.13629409887983 -814.0579932987237 -254.83458788412815 122.9499821076059 1266.8906781695257 323.50707313731976 -59.0429670575166 -388.07465171045607 -695.574302406015 447.48488300978016 98.89110678867334 -886.8989488257864 -3591.1455912297124 -1371.730384863224 1858.4887612424432 -1228.052945742457 502.39010114202364 1323.1870625706742 -1079.515284308918 -597.395916154844 -645.5492241055983 -44.27007481390393 519.5842082384936 -1727.7351317796367 -792.0160848377834 -2263.6737371350264 1201.1608335880808 4660.259832433192 -104.47077544421008 2557.064871221623 -4073.166027362489 -3866.1674132098387 -5232.5813587952025
31577 0.0 0.0 0.0 0.0 0.0 0.0 0.0 0.0 0.0 59.739139465149776 -12.351452623192921 -82.86278159859353 -64.47919688878643 -67.10560797453863 173.90339090476223 -96.95005621957507 79.90343781972638 -117.23328805433435 119.3306010894618 27.16276508058157 75.49085729505367 -7.009756171997032 -67.66419820619929 -108.03744218217275 175.11329528543095 60.59136580463692 249.5960248817264 -69.34742667314764 -707.2500881991684 4.859511143038282 -15.662897851295137 -392.42189789579766 -886.67475207881 101.4620546753568 -100.08042835028405 212.05388554546278 893.0715498070017 303.5774402314983 -17.928045650733903 -801.0009931705139 1087.7249265726339 -654.7185368569217 411.1167344234367 -797.5985807843986 -955.8960070503238 2145.043154741091 -135.77763068291148 27.475338084363642 -18.306326723544412 250.71569367966694 -586.4133676786762 -596.4383177067438 520.6697821949824 1006.4445780166819 -49.3288845788452 10.6788552270095 -1340.3326794835361 783.6790442748002 1925.4593555504266 874.9887219148268 534.5922251430719 -1131.6143284883576 -829.4267782117729 -1664.469744258388 0.0 0.0 0.0 0.0 0.0 0.0 0.0 0.0 0.0 60.927627525038915 -7.530516015144252 -78.8382727924765 -50.25061016612748 -66.47131291990392 187.23785389027165 -96.80556956509311 105.71842266184954 -101.14432340748641 131.8227051347069 25.092646905843168 88.18248364921084 -12.696333880861888 -75.38016383252463 -111.43201340849483 117.84170330209236 107.02361015726494 239.03384483329182 -70.84582720988335 -713.6471962935049 4.7287910718043555 -0.3378888762802959 -355.2433240886545 -832.9684802383548 122.35603004726968 -58.66443450078732 242.82947038908452 840.5376487922731 286.1213391845005 -44.0091172990765 -792.2246157935585 1042.9531543904557 -626.4048611660675 370.4459874171145 -866.4542174759898 -953.7456070450689 2095.2242217706353 -137.00664909977277 24.05578898776732 25.26728466507593 254.66992173981058 -614.9540913708563 -624.2650112064779 537.6461786950139 978.3515831667513 -60.20344371106879 -20.904342893655933 -1391.082696716293 827.5499100950615 2024.362731974625 958.0033363914214 539.3301922082698 -1185.868466964692 -888.0187139359027 -1729.9625493723547
32070 0.0 0.0 0.0 0.0 0.0 0.0 0.0 0.0 0.0 198.73974180394143 233.89827759684619 206.7584108822229 -443.29452901916596 -54.71563090922318 335.9697491389028 -53.1467809454614 -363.57838219159146 338.2358542156601 112.73263268397312 -187.87722233574607 1199.125603734796 499.201907436491 -679.3712501311745 -499.36013459018506 -1614.0626056413187 1279.0649972206525 -363.76576007748463 110.63895869826592 -1918.9022872550267 -481.9684601180723 -617.357423195191 -552.7896041098171 -961.7253630594165 115.29607075143305 166.03272387124719 2273.195522263378 497.66731898536693 -588.6695275123946 -233.66414099337513 -1552.0110671741884 395.2842557076282 154.4800624717473 -371.96160896847414 -5761.210869949344 -1598.700746683236 2442.707878721816 -2741.4644803670317 1380.0597805358723 2221.1371100176307 -427.5363377534021 -625.5267568749971 -619.0046866704816 840.6030288255836 1459.7384491377031 -1746.2510330995433 -1773.8870242653065 -3625.5257718781368 2647.2861782902473 8752.453326699078 1490.2945036907254 4887.830954246013 -10024.94678690976 -7510.240513992288 -11446.0716010886 0.0 0.0 0.0 0.0 0.0 0.0 0.0 0.0 0.0 147.0975241555044 232.5113993927041 218.0284980195691 -467.5247770509038 -38.74481219328456 289.12936849194614 -18.177545092495716 -339.94703009774605 380.4828794067672 109.35646487912942 -171.0444055524074 1232.4160258786173 491.74180631521244 -692.3199300468337 -516.9708683948677 -1482.1698215839567 1243.6438278542605 -388.04183751660116 112.07457059444913 -1898.9162718533694 -495.66312596568474 -315.9662371575273 -469.724222394436 -896.48896562167 227.22580533276272 256.1334011684744 2093.41115940117 472.7229094822819 -523.8260269714197 -303.73018859573284 -1426.8772995519364 436.7385615734397 133.65846006252087 -535.5482746821336 -5917.202891694231 -1629.6096260272013 2478.426814404735 -2752.2978385665087 1294.3375093090258 2295.636286250333 -459.18237123155825 -549.1305409809335 -630.9191379859903 590.6348617002994 1289.9124658807907 -1883.0522205319749 -1760.3815525052325 -3622.633943620513 2543.5321017560077 8707.898761379756 1548.7040374250528 4853.807991696219 -10074.056312598816 -7671.672500831821 -11498.328883020677
32467 0.0 0.0 0.0 0.0 0.0 0.0 0.0 0.0 0.0 69.11367926939022 -237.7059735131863 -428.6571355977809 -470.4024515294941 337.7067369036029 615.8846662257104 121.45591276852102 -417.148624685552 -403.4118976927467 95.8507489555921 953.0108549885349 298.4796737026549 -11.173105187977983 -659.2864507766193 -795.2529717518464 -296.3597885035113 -2070.674256661892 -1612.4430192420023 -143.2431958883143 8.477403866780026 -2385.990035951798 -995.2313557426559 1086.8608706946409 -1427.2152640371532 -1955.9425903778802 -972.6206348674377 1908.2701301403588 -1396.682116340415 -5275.044404069713 9048.071341405355 -4213.282689109763 -932.7165822356876 3768.249704407195 -424.7244139987533 12989.14014384352 -3005.6098636033 2043.0764327818843 5732.560287779047 7215.871199260516 -1397.1212479290466 9307.17455812585 -12948.759709498385 2536.137216967919 15695.78136857582 -16588.393395086645 8209.128616270398 8371.387825956865 11949.330453347971 -501.02689775007264 -23301.524909424417 -40130.07311876008 15300.444473852875 -49324.77099291479 -62558.05215448537 -151919.5239785286 0.0 0.0 0.0 0.0 0.0 0.0 0.0 0.0 0.0 125.33143163173644 -238.8900002406272 -446.4963033390889 -539.8830743697356 359.6758527055759 624.5363593250524 114.20743993687819 -442.1076692778383 -423.43611480848955 70.18762401283048 996.9154693178536 448.21269161919406 61.24331402188634 -682.162734296918 -743.3737030998417 -230.97450295977467 -2367.0568060159785 -1670.5198863925898 -43.19314671714084 11.222814156509285 -2520.3682206622366 -1058.5757502769793 979.6774640807865 -1343.2557967759594 -1950.2573151375846 -1268.3461154797044 2326.944386472461 -1417.7784875791385 -5104.681927045887 8527.06413087658 -4803.870715430971 -870.4447487260733 3544.1701782047276 -205.54068513074523 12360.753218150232 -3075.469396585602 2523.2334874212293 5501.994905048407 7580.194654788019 -1080.722876335099 9038.275741809006 -13061.022026858911 2419.3644170611083 16151.68143244721 -15840.308183315161 8144.582125193551 7991.2016497424265 10982.37126861458 -274.6732254973862 -22404.471870686953 -38690.950109420046 14970.157372575148 -49721.087552445766 -61372.70278231039 -150698.17301962792
34082 0.0 0.0 0.0 0.0 0.0 0.0 0.0 0.0 0.0 759.9356585840417 645.6675790520238 435.12730647591064 486.7257028777961 -195.87966645342698 -1209.9942101267357 701.1682371388731 987.9555792842889 636.7669100760755 868.5337234637475 518.5023260967176 -826.9839017484668 680.1064468411874 -385.91676254350307 -933.9217824756811 -422.0434870113343 -733.7454272777281 -1163.7607535482152 56.019712238278125 -795.5138654776008 -701.6926327183803 90.34018321117243 -440.1534269106435 12.04760103754567 701.9884351200857 -39.2524361885697 -69.36805638947304 -54.580638940657444 -99.03159749379735 -274.65462619558673 -564.5290984150422 -318.0241583517611 -211.63003918260256 754.7521094472027 -233.72365646774043 70.42210467275176 -73.76895258114455 -503.25590544533316 432.4116841766762 399.3981111712148 -192.66982289878678 319.9320063749263 -152.13914092909545 306.3182643478485 685.7782471874561 -27.854575698394502 163.5482926292805 -625.5035456636763 -1000.6820564891196 -1066.9483727596707 -140.05297706658047 -440.3702850824082 1247.059327574582 -950.8718083262306 -948.2717508984309 0.0 0.0 0.0 0.0 0.0 0.0 0.0 0.0 0.0 780.3536219145999 651.3109874057939 441.0588678142325 491.3212596868592 -222.85321716665536 -1188.9924781071672 688.1994176935684 986.2200769629081 641.7521674280827 878.4669036799461 537.2827075161842 -846.174766986156 665.8308540341411 -393.1634871784643 -959.3006566227228 -455.1311486931278 -637.0616677290627 -1190.2843073002023 26.82193592497373 -812.2391715190506 -702.9189781937629 113.81071875693067 -510.8510600090803 -41.210820818310104 704.8473767044787 10.074753984316917 -63.79559574454078 -84.46874804817804 -109.60591046885436 -333.85824378184924 -585.762321981441 -337.12953860194483 -224.11722315872984 738.0612833881072 -238.33918488477192 136.82982835639652 -111.46878742689125 -501.67543258713647 456.99593289793455 405.11652027093606 -173.7000253039163 318.5561786031065 -165.92126382303837 304.20657846829386 699.2836872062045 12.356787185831784 153.8035646801469 -637.0017516865598 -1006.1884944943579 -1102.7387095002596 -116.4678032705763 -451.9212175883243 1244.545192615919 -949.9089291831549 -964.5653541689242
33195 0.0 0.0 0.0 0.0 0.0 0.0 0.0 0.0 0.0 -551.2133055897275 -105.27472351105206 -554.1129757641098 -536.4029178092205 -48.21769390464104 -783.8718097450043 439.80680779972676 180.31893371120188 -34.42495065204496 1418.8426834940003 1014.7918697540881 -2173.8789240286947 247.46027881184145 -993.92972606334 -2641.0511115965655 87.81683487850776 -327.97015189469516 -2719.821398685799 -813.6540085417109 -640.8345537828811 -880.662716215198 -14.388646003635827 -2189.4421356142766 -825.1535157129316 -2463.0971397729563 -332.51642307752576 1966.8055390178458 448.32871599275404 4073.6516176407335 -7378.751937953412 297.0113749769616 472.77085793312557 -2354.3707531814157 -212.05311773147818 -998.8017554312191 -623.070150041592 132.13612581352237 -399.83955061167313 -2664.48536151324 815.5460453354057 -8562.928317829103 3213.67254074917 4095.1169396286596 -1546.2926860680982 -1242.9276474675833 -1780.769341784798 -890.0381862322374 8235.794957805296 -3268.4544904707654 -6728.212987135483 -10985.48367944533 7361.787503752674 -36741.61464130305 -37072.75604815618 -82286.77064492051 0.0 0.0 0.0 0.0 0.0 0.0 0.0 0.0 0.0 -587.3460799256031 -168.02008234737704 -585.5648532040462 -616.2857684909159 -45.42714066699643 -832.5030181690709 505.9748317459468 222.01679673529284 -88.9889459150481 1337.4092581725051 945.2265868877593 -2121.960091605757 302.3780370854123 -1014.5375096328673 -2683.4860420273417 290.6418830057799 -318.7811501148991 -2583.7954768830173 -1010.5072562826747 -627.8585087895082 -885.9995408160264 116.08589904119628 -2258.4724594522854 -623.4162219676324 -2591.5030826078987 -482.40162739262007 1428.6816982916903 572.9789018393917 4071.430798678724 -7246.781244748182 262.93871212885745 357.23588808365787 -1985.0067327202237 -95.01289218409117 -1105.4744993852155 -1119.5778534484152 255.59470531710565 -604.1076814340231 -3118.5947640390923 292.70822518829056 -8566.396015195292 3515.6877143837132 4054.8151561638724 -2046.0610184401617 -1299.2381262756637 -1149.8691905578032 -814.3163957345851 7593.549751794452 -3284.7179264551323 -6897.160742960359 -11422.658330086924 7527.371281944687 -35959.18850554479 -37543.74565340266 -82241.14750670188
34761 0.0 0.0 0.0 0.0 0.0 0.0 0.0 0.0 0.0 826.5080871619695 -89.28080362884408 1354.5308672928234 234.35080462330052 529.8997577940936 -1557.1866646350222 857.1349471850913 1682.3112227426238 399.33582714161383 1402.7991349996573 977.882825316842 -1411.7033254613239 779.6943350202042 -371.51670342084316 -1118.773657021633 -814.407190517766 -1313.7978077988955 -1178.8150040636258 76.10869456702324 -792.6448484355066 -752.1913882737663 172.86616106938584 -745.2747049922677 -703.2489236178164 1267.8947025243156 -137.50032658291005 -142.94898383075122 -399.95798418020144 -33.053689654277264 -255.55013322654568 -1062.2338387498016 -303.5187770881852 -292.8413678781112 1157.7139948742931 -776.8566199016291 171.3282134220031 -207.79386840840283 -1132.7229407404666 617.0659226540884 259.9210708930543 -106.02177020655385 305.36557088791693 355.31683365700746 231.83445358715193 918.0564204604113 99.1897152836488 -31.169836477215004 127.49596706509051 -860.3786857812095 -708.7727691710458 -398.9091465405205 -485.30596741414604 1857.3398665268319 -1021.5522121198777 -1013.1106228723733 0.0 0.0 0.0 0.0 0.0 0.0 0.0 0.0 0.0 824.2260541682945 -74.95193673978832 1347.1453982552935 256.2137060725001 517.6588527988575 -1543.0577006914211 843.6984471292132 1701.9678264351242 428.44410029626994 1447.062433245202 997.0743123629516 -1453.5589707434776 781.7334683592567 -380.8252725986931 -1153.353827212142 -866.3170661890931 -1211.8915304557042 -1201.2292004133365 97.04816862432321 -775.3117481344086 -717.8877443727771 187.76052528140147 -799.8455058815247 -750.1530227760903 1252.5822495257605 -60.91727242775485 -105.62248079134129 -437.12795018320355 -27.660261226349125 -338.4805335637248 -1079.2608025660377 -312.1225715071243 -335.5900911673356 1138.2899884325375 -801.3766488830584 237.17675866737102 -251.01404993169504 -1149.7515432813373 676.1883547311763 243.16448933447572 -83.9250966527421 306.11238359921316 349.43549611870253 214.7016670834297 940.8539028417384 132.85727079561457 -30.155536086478413 126.50349413027364 -869.2559367766145 -751.6978901381772 -384.45090231086834 -492.2138263379858 1877.9578499139404 -1023.5035880704421 -1035.7477404040542
34711 0.0 0.0 0.0 0.0 0.0 0.0 0.0 0.0 0.0 290.46947348309675 -26.630197397070855 -55.68323427325508 -248.5823628510829 262.36479187856077 214.31260193180754 -202.92874397246726 -23.825758447416018 -11.28775717520669 235.44605886702064 -333.1925880721603 601.9142659648347 218.46365624240468 -564.0657878210643 -595.5020495672156 -994.758909442735 960.8653336108785 -76.08443995176577 44.77772285362763 -497.64222217359156 -102.08371955105571 -1398.8414947681151 -232.33173611557035 -563.0737521737649 -367.1003822330037 22.125760627228274 1358.9204441741529 1374.569643699647 27.643399321291852 -421.00793697276816 -199.43537526515618 873.4867662863943 -1258.9307211428563 497.29207778864935 -1710.966602169896 626.2963908973004 1219.8217389410966 289.479559430275 58.68710756604034 -844.7668461021484 693.9790247803722 65.34242170037452 -1316.414795974197 552.5466358643441 1910.391928469094 -129.0886065790966 278.00893756537073 -2231.767243118639 2922.019663561697 3180.7459948365204 -373.66591366557213 526.3288158651129 -843.220379683955 -1380.171729374159 -2916.4680200969597 0.0 0.0 0.0 0.0 0.0 0.0 0.0 0.0 0.0 282.5143347874082 -15.556240596626584 -55.45073612432696 -244.40853576079832 293.0489830677968 219.46180669067644 -200.39423400994013 4.617895452946078 7.783465482373381 255.29988081935247 -370.49840079761157 629.5987565403993 232.46611698571772 -613.4939533789772 -645.6038968081982 -1070.2457038286614 1050.6672460718135 -120.06974589053915 61.003291727964076 -556.5001557713101 -93.69977281901066 -1404.7987102816187 -171.7687127469229 -538.6699002878032 -361.88355494366306 98.35462871791795 1330.9190683833415 1324.6403468721842 24.078861663832544 -483.059874655003 -266.3637809989426 835.7874257850211 -1282.6755884700497 408.53519812317097 -1864.368621428378 680.6373704008947 1156.5597448829903 206.6651341945902 -1.6021777760996045 -862.8535208050598 764.0138737104658 79.38416536815203 -1346.6293000922415 566.443612962509 1866.6811648033538 -119.90110923172898 269.79601655745574 -2252.588462943254 2989.045523780598 3215.2638065926735 -325.0460642158421 501.168661073241 -835.981922509807 -1419.7744751734808 -2974.399066472864
30852 0.0 0.0 0.0 0.0 0.0 0.0 0.0 0.0 0.0 16.148240125074018 -154.498815387952 -40.19859974355243 219.1340140141164 138.95516989145494 -188.47491172806681 136.28354513490788 309.1550098283325 64.71091324325444 231.24410213224476 83.61455293972988 -189.7497426566167 177.88176835363777 193.74788630376108 214.8380767754788 926.678306564485 1937.528683809057 -189.9760551499078 464.8967505572558 1480.471606312973 626.2886615745242 1523.4244567502299 -1277.0338160202302 1440.3391482381153 1169.968130127475 -97.15796734213535 2549.600311268221 2485.096725680215 -1189.5405164113772 -293.7408544651049 9028.713750884059 -260.6715997315689 333.01616674603775 -1290.7768547237667 -6035.296290983795 -3565.5899156475443 4232.761272400424 5687.60108529704 6775.534142813913 8160.976823685433 6919.804618052186 -21568.663456308415 -5280.707301031642 19316.92145766752 5651.165169091424 17941.99757956774 -7942.023035232261 -17376.60875549827 -34527.94783040566 -22896.026893752965 61925.10864351448 -4231.64651480688 -38900.775468505846 -65638.8516352704 -245771.56206571686 0.0 0.0 0.0 0.0 0.0 0.0 0.0 0.0 0.0 3.189343226945329 -151.91813671042024 -27.37679928371139 206.90618245215651 129.61526018989784 -199.15989379250618 119.4747168359058 325.73213965366006 71.4623471195091 254.30841751218878 56.68955073170279 -181.41394953287698 148.04070425432914 160.67324861116447 169.59739441638828 813.7446775071386 1934.0915981863936 -169.4581684983978 514.5590210174189 1623.9661824706 561.9052829996514 1363.1930214381882 -1273.5529827248301 1344.7319427894556 966.0557275173492 -139.93876114113792 2286.650065104504 2563.881625076051 -1241.0534637309866 -118.46499967150503 9567.943783550207 -167.1332464559847 -52.977058762423894 -1492.8715656745612 -5701.758078703739 -3529.1798999779357 4461.075451549978 5774.138259794126 7107.642659637836 7325.143935431197 6150.628167136099 -21444.779727531768 -5034.385833524568 19075.779759930476 4571.63161104826 17155.160992808214 -7497.120725781696 -16499.783878180726 -37033.36349821908 -22666.916468301813 62108.04696191758 -4535.186911876328 -37328.05940475914 -64506.147979663576 -245952.5272899756
34524 0.0 0.0 0.0 0.0 0.0 0.0 0.0 0.0 0.0 -40.33953369925919 293.853439282961 706.5133229995735 -142.42315380961054 84.93902746132184 714.2264995718896 -289.70227591116225 674.3319525510634 -319.2537447374069 495.75273714795105 -214.91690472151717 -203.29862362919326 -72.2148126726131 -26.53944422251722 -103.90242930357829 -319.27890887162124 2074.6130477415245 524.6447590404746 -315.5618934775281 204.55568048381005 857.1988774912588 -939.2231836625011 172.26837092351218 -1205.1711543957026 396.6555391841473 1905.1271511615112 -1606.7604445831369 -1378.250197915755 93.41825438074378 -926.9610909126941 -2644.8447953399673 -394.71745664356973 234.82099712794428 -77.2661158709978 381.7004182570256 -899.4181230341272 521.4364608347988 -4665.140070825491 369.28781531514494 4071.1025641187402 1182.6412543467559 -1816.4035829755012 4818.234725069673 -859.9767191799183 -6068.62060891395 1701.6639278601028 -3025.6798008929322 601.7546235235116 -5638.645958245941 713.4756379083756 -4451.009826027345 10411.437499801974 -26981.518323069933 -22242.5080629238 -32593.533478835954 0.0 0.0 0.0 0.0 0.0 0.0 0.0 0.0 0.0 -87.88272243034827 262.2998010764284 625.0348117188266 -186.04965749095243 149.59090989388494 703.9179207702493 -282.7722997765977 630.1487688097659 -199.12652544016623 465.1374507426744 -214.5432562672454 -290.72178396621564 -20.846093082341255 -67.70563574579178 -206.88330748046354 -361.72376563617513 2044.6838399964422 492.15910090526455 -304.43245318421674 314.8325469737953 875.9416241728995 -768.0726683796848 322.530999923026 -1159.5524251693153 386.21746105081496 1947.175383275366 -1689.35852299286 -1484.4320304619757 -148.05445589589388 -583.6836990742268 -2565.9000987487334 -481.7427919713 437.5366946635168 -153.89573584051095 310.9061499520078 -957.0242135139033 292.4115755515688 -4703.688852040251 71.75513980661334 4181.857018252738 946.5155284629222 -1846.1172292125732 4931.893323696129 -859.0947643358943 -6102.443550308404 1604.4835261407814 -2949.553296379422 319.69805729772276 -5830.03726156953 500.1218192778882 -4651.856822583104 10558.908259617936 -26971.052495854758 -22583.453986400396 -32576.248924750744
33667 0.0 0.0 0.0 0.0 0.0 0.0 0.0 0.0 0.0 -43.11460126289854 -344.3344401365039 473.44933977071565 -248.53069559961844 971.9985012292843 459.1155735149141 -449.0506136982304 -151.89585785713524 -366.5934277684671 308.2987166603067 -563.6907614328397 285.88531855883076 230.77372031031223 -401.7416213116513 -555.4362965270861 -297.4585023573004 612.6021753678639 -73.76379250804077 -314.90420088604776 221.4189034379067 -681.2572134751343 309.531521862619 615.6087657170849 -535.3952240167724 537.5592561918941 1176.0414430931494 154.47638531233946 -303.4516611504449 -399.39634462317684 -209.72216951564448 2148.466935676006 -491.39032368905583 1306.2915742472587 -2927.655293634881 -6212.957274450478 -624.5249888136478 357.6236310828604 -4495.164668125022 487.5792125682211 3006.5873952199895 -3990.2068004884604 1597.1277290682008 3366.7347457881447 -5611.213209795823 -5248.872539952647 -4810.9099180183475 -2413.9476117975328 -1426.5906498539084 714.0909066050119 7223.878641927318 -14066.771062074986 12676.435761185821 -24976.140382757785 -25786.156065332652 -35787.843576909734 0.0 0.0 0.0 0.0 0.0 0.0 0.0 0.0 0.0 -55.010510902517076 -326.4722951250408 448.2381854855455 -233.00019398844447 973.2463848842124 493.7171149059821 -390.8645818054044 -121.26735188684835 -372.13657348741805 299.01193652179376 -555.4959734884525 300.1454782785395 237.26976761096915 -355.37520154906235 -480.01759661985915 -192.39360328907287 605.8746471626661 28.178875099207747 -301.5604790345769 113.27061370957776 -693.9584748357621 399.00428139611705 517.392002884974 -593.1417171822504 497.16212697299864 1080.8003455973062 95.10489256947872 -212.7718735993105 -337.03130422777537 -242.396005577949 1957.6657563459532 -399.1335116372084 1239.3440609617205 -2896.8423311741517 -5919.331145012039 -621.1408820010485 516.5640401369474 -4532.880262010807 577.3822505812769 3076.4128433696696 -3710.1703099643555 1491.1485589968581 3500.6465841638214 -5544.500035194184 -5367.6259935430435 -4587.807132367427 -2265.1274025852276 -1334.4764358273403 961.5097456477226 7070.931848716987 -14259.809600993956 12718.67328996482 -25098.197414227372 -25882.448693844428 -35969.69197327406
30792 0.0 0.0 0.0 0.0 0.0 0.0 0.0 0.0 0.0 -86.21514750786775 70.1306022430019 -133.9405446398597 -138.93037586861522 303.8471567015106 275.02674988197697 202.83762010946006 681.0060831089914 76.98980866574492 276.90312652327316 -17.036032434631682 129.07229200998222 -917.2662206136225 -637.554117819088 -822.2135938553228 565.4676555733853 -182.03206199453876 -641.1314757682885 -904.0425460468333 1064.802737204201 1336.812202882148 -17.463736501279293 1645.2143217026194 -297.4666469118316 2270.3255839924404 2105.2895264700105 -3248.5373358034913 1906.523864984607 1139.7508865073264 93.60745168635096 -1053.8215528799465 1067.5921715871655 1103.7412080793242 526.5428100028618 452.8424779069628 -521.9282325766535 1417.101970520109 2040.825538177566 101.40946406145179 610.6302593184014 4513.536046967744 795.1200816217187 -5005.147398732744 2130.2231742518034 703.7130629842918 4353.84300446992 -568.2035935021146 -10338.981048892409 10337.082710026143 8914.976554002125 -6897.269430303564 5052.410496731145 -9646.668460758316 -16810.540493218457 -30446.513570264036 0.0 0.0 0.0 0.0 0.0 0.0 0.0 0.0 0.0 -98.16550727182758 5.867856228843225 -162.74569203031294 -145.81582966639337 402.6936115951895 224.1743435476734 202.2451700613727 668.0213272558019 43.18408290798539 298.61538389549463 -54.540787349595576 143.28325294849583 -846.0300372969895 -647.5045874060779 -821.7731830305233 548.4427058623601 -242.08446724497213 -598.2062513577049 -911.4491842880778 1237.1672781827021 1355.6898052095 -84.78821998206011 1776.3352190816977 -250.7427723693775 2204.9137652438017 2144.4006586487976 -3311.3299753026513 1932.1480835723623 1081.6077658107697 167.14503882212304 -740.5315330253318 968.9936897656372 1375.9791507072998 418.6085988956787 352.9880503095227 -368.93198882673636 1239.6743718395896 2129.4811980252616 -96.14898168693384 790.9260231732651 4327.507108520968 617.3908964912146 -4915.796083894218 1926.650659242609 316.109010444855 4699.502734338013 -763.0409030078852 -10402.05328829413 10203.494204958532 8496.50835525588 -7361.314339335625 4897.15371659195 -9727.656901887765 -17137.38098117851 -30758.531022405332
30647 0.0 0.0 0.0 0.0 0.0 0.0 0.0 0.0 0.0 -282.4470933710499 641.0458213327615 -637.1750889737224 -704.5633092654429 -1030.1887687871665 98.65762272113076 -218.1962855664263 31.42008087498308 -399.4045933335205 140.86452312285124 -890.2538533587166 -1405.9590511436113 -795.7413409615326 437.54968062412473 -154.643543759696 -397.853149275617 479.37524950091813 77.24315828183589 -81.09004518748269 -2688.6709015958822 627.2278922698767 871.4211069454597 -394.51318867156414 2825.3714863929954 1786.5883277412584 -642.600515805733 -3150.576167805508 -3546.05748481024 552.5049832709228 0.6684502952433048 -904.6386379921332 -2084.1248769374693 3762.314955996046 2428.2282317325057 1828.0987536633963 1626.118972991196 -2189.8280328280093 -1992.1523561193549 4584.84483459662 -582.1501664083256 -609.663782176339 -5807.482279550863 -2408.9410764151266 2693.0685511487527 4407.47536374477 5895.065516264179 -2134.5117640218705 -6306.481596941929 11198.09048134206 12185.893790061951 356.840128898366 8233.217493232745 -28537.09676274415 -22417.84736253161 -59823.54865415612 0.0 0.0 0.0 0.0 0.0 0.0 0.0 0.0 0.0 -208.0859398316113 721.7968488347743 -701.6045237110478 -792.7858616586661 -894.5678781144737 72.7776071666469 -279.30552216325685 -53.09583428126151 -177.80362996327605 123.37048394985659 -811.1055565340413 -1343.1351322299768 -600.999246059918 383.4012844687182 -216.49673197636895 -345.7190298347152 319.432026198738 19.119421034029255 -29.20228081356816 -2336.0181977410743 765.0535348897803 978.8129440671895 -304.28939537137126 3020.1664690402813 2111.572161368001 -693.4221924678965 -3182.0693370929725 -3349.237363180386 597.218272016099 226.12860371327545 -585.1432165334697 -1976.6285427399562 3971.636371023254 2072.5487972394094 1800.1439232694647 1633.2899533191385 -2323.5011476824207 -1642.837456078512 4393.885461229431 -618.3580104132499 -489.6932455186176 -5737.504372339721 -2782.6094704804605 2464.352878830581 4093.0248027586726 6008.874944364624 -1869.951693265913 -6998.107771616753 11624.788144156386 11867.58197213409 -575.01013624258 8079.883890278264 -27989.972648850595 -22751.004427844247 -60565.59020820923
32945 0.0 0.0 0.0 0.0 0.0 0.0 0.0 0.0 0.0 -175.0086296828534 -43.06155053247004 175.99096684645966 -79.09955514522566 -78.02594457532193 -167.71424058514043 350.06492811417814 -294.41350280294444 168.76764452081778 -347.31050189286265 396.6235107020634 339.1536609425751 292.1663799953643 190.98190314095058 400.4736220261344 -109.72633601734928 56.740811635780354 -180.7778778547999 108.63701613157939 -341.66159410820586 172.1929763697353 -120.48704255778709 -185.54613801489222 -495.4567046914572 719.6324796755036 -336.9973613234688 484.86360760674313 1882.2376814846075 -41.09774472236953 475.9207560346061 -794.8264924917196 1272.6722258505301 -1538.299093561121 2431.966762792507 -1123.8124773940508 -244.860498574039 1154.0128687007639 -3085.7462360810027 -1049.7875547224157 36.25775172587366 1995.9687008839046 1837.498754318117 2874.4557413630487 -286.5510546273652 -386.1354256909716 168.71699269041787 -916.9472290858564 1374.1491340640307 -1799.2616032050778 2218.7308054417376 58.55087239204388 4692.759364980321 -12881.291379457674 -7426.057082725231 -11567.769038022616 0.0 0.0 0.0 0.0 0.0 0.0 0.0 0.0 0.0 -160.90233333038785 -48.38563424883904 201.5171064211871 -104.34182333677116 -56.17747472990591 -194.4615511193764 304.7934648313891 -302.3996458225364 172.51927230041167 -324.1940697414729 351.9494561768048 368.31482067004157 275.9762169162731 146.1753200183991 353.5198467076534 -201.0452958578801 182.3750725682695 -192.94642172559182 93.6453805534863 -292.81048276722345 192.3783368554025 -140.66484158273207 -192.39951965097774 -511.5121526874178 566.9259369795294 -320.9670356684743 566.2239185385396 1854.0756295966216 -47.436171000101446 466.7367011559305 -749.8089451604358 1284.8926458576846 -1551.0188593408664 2369.2377685082292 -1231.642688313869 -201.74647735697215 1107.2201468684389 -3213.755665151597 -1219.683494810063 -27.296939313260673 1928.5386636137862 1732.8228282092946 2867.8282570717597 -321.36388473698213 -388.0315401519663 146.9035836394013 -900.8015582290035 1159.0593190665559 -1755.3857283168368 2243.2663165356685 49.47026379162254 4743.477512804454 -12829.437278380208 -7534.912744366012 -11501.41607865167
30693 0.0 0.0 0.0 0.0 0.0 0.0 0.0 0.0 0.0 -226.1333632278732 191.16347498658146 -407.0143472672444 304.58183200724267 -169.8598868531321 238.8731192212207 27.298951266827736 553.6072845769972 1244.5811069076005 -60.83318903901983 68.36058149922822 -911.0446954260013 2691.094589016613 569.3925186766289 673.722690601952 976.5953033806996 -43.9575491865711 1532.936583300171 -1537.9144116680905 -2527.860399418541 914.8035367255254 -894.7822089709443 9385.535000111664 552.5095722100547 -3244.7430693724646 3021.8142498003995 5201.007450294587 88.70872970466168 2418.215143117119 -2241.536585664881 1508.656212914687 2512.327356365873 -535.7715979496616 143.31907450991437 115.76086706427756 429.8049949009872 1405.526173363389 3375.6745664691393 -628.8017133494524 137.44112926815978 1469.413646366171 -3635.846705025558 -289.8281932208469 -3221.2415587277524 3611.490646012267 -4117.716740336708 2204.8311230675286 2784.62515168655 7385.039085386725 115.22442981490677 -5173.494003127459 5925.635785462647 -22972.192509532008 -22564.006149776873 -84839.25792406555 0.0 0.0 0.0 0.0 0.0 0.0 0.0 0.0 0.0 -141.13237357671477 176.199952335218 -382.00989978851806 299.8107958381219 -164.92907865994624 228.5881624505572 63.18994824555696 499.8994119111125 1292.0526173045505 -54.94540305948683 57.21148266468052 -990.2852643754735 2655.3022867617597 626.3944916691177 629.3473340441375 891.1961073129821 -252.1567702622532 1532.1086002561046 -1540.8917380008522 -2547.012587954923 1198.4227202009934 -845.1733101095507 9276.180615278014 803.4772430196135 -3031.320152850212 3146.499814469464 5821.493810396973 118.84051110224291 2497.4954068517272 -2040.393259774779 1686.7432589006728 2593.8428390797744 -254.56486910889004 475.9564995367239 418.7668470704974 906.9915498051389 761.1144567024251 2946.3137548736086 -698.2355780697166 144.2178554822791 1793.054548419792 -3754.240670875765 -8.467842202469328 -2758.4192875383424 2780.3211282342318 -3972.909973792584 2254.1547355571283 3142.6807337449336 5532.494339320991 -75.12880027919232 -4232.804975269645 6784.902362258183 -23448.89599505205 -22611.08598262555 -85061.96163143468
31135 0.0 0.0 0.0 0.0 0.0 0.0 0.0 0.0 0.0 -72.96078793113534 229.62324492894538 -376.8426250572833 620.8016379437196 -565.4763968576659 64.62884141194294 -245.25759734569178 495.3295321043981 -165.66443641140134 363.1886008237943 391.9785619895923 105.99432774169303 -602.4187107683131 -78.66080355396026 -165.8770069646772 20.97498434534727 200.53794083418612 266.0502143120113 -283.8514968974099 -1080.5259224317492 -211.67915717238947 1140.3841026545124 -497.6846538779275 -1381.13883781686 -467.814447972361 409.47138799015534 520.6544466597637 -1926.660150340845 17.133503618607595 -534.215683543116 -1722.6571599431286 -265.56134876106717 1814.05893458766 -3124.9305733286865 -4017.124233505269 -4294.858521882999 2294.723064205719 -3496.455117187188 737.689146703835 4916.818415186674 -3305.1541032617233 -1985.0570116904237 1697.0562087106664 -1623.2232273022696 -4300.141581471843 -3547.0180810715733 -1827.6367216773558 -1047.9338502516525 -4497.648684357341 1915.7663066873297 -4140.118739460581 6088.124313326686 -9731.533358021026 -10972.905379552163 -12134.878610266856 0.0 0.0 0.0 0.0 0.0 0.0 0.0 0.0 0.0 -58.53165065610739 221.1333566696888 -332.003671648307 603.4339688687342 -570.0941394330841 112.46730344076123 -252.5459100970383 504.2182877622037 -176.95105836980042 418.7665785978195 423.48318212898903 85.7521184436697 -610.073452488085 -87.04132080832477 -189.1165502592637 75.8032662895779 262.77645030028776 382.3052736868596 -208.97074628811947 -1156.3567873167483 -192.567409469082 1183.9239196037147 -408.8694512769542 -1413.6471361787094 -507.22775960995205 521.8587412294581 546.7712460466188 -1867.4019484853059 2.285514736315579 -519.3111860455922 -1745.838262946374 -128.95756882562526 1694.582568077983 -3102.2416070952527 -3888.1178241110483 -4207.846086628366 2473.82301760545 -3257.2619638302494 876.0293336216408 4935.141383969612 -3355.935512556447 -2068.176224066678 1605.763948116656 -1615.083341037162 -4163.183594652355 -3537.8931871551254 -1761.295697411446 -1022.7640582645466 -4494.312630270224 1959.5262818696144 -3891.355014996188 5986.0627749770465 -9620.301080469457 -10809.07697371259 -12041.981914507562
34685 0.0 0.0 0.0 0.0 0.0 0.0 0.0 0.0 0.0 7.303865876613251 58.59185696229383 -74.13547523975781 367.1016228572938 50.67439773450648 -396.471084326487 -79.21140594623006 362.54769626917187 180.47240169602844 74.12856331040274 -810.1899888584106 -175.30127298754797 -88.38101779461863 78.43721167642752 59.75668183039256 -166.8446770049857 238.32584772073918 780.6634104358133 -215.78783194855137 214.03507977067449 9.772441300066646 32.816103828237935 339.70493547251414 206.4704888821924 1163.4079685079737 363.4769779633177 202.72471036499667 -855.4689977533221 -186.2259036326599 -456.63703509761535 -1260.8178092174296 -702.5198166426292 177.20671959537387 -400.07536962415594 -520.1979392502634 -1053.431233971427 -655.1079029513069 -4331.487669100893 878.6179379569027 3038.8890205697526 -102.36234539600478 428.5157687217083 4714.729149503749 -264.3484047894702 -6877.355481371278 100.51034658477923 -2202.856909969294 2402.2885429817143 -6260.904530556893 -1737.464597051567 -8685.375455642494 9350.973499720201 -20589.701576116793 -17261.77849993411 -22702.944652704886 0.0 0.0 0.0 0.0 0.0 0.0 0.0 0.0 0.0 -21.157045778278228 57.26157328266521 -54.56882068112073 336.9123066554674 4.878483391698892 -438.5556119376575 -50.35411167866251 325.81811991438104 162.21694350379323 64.4792458328201 -808.397770601102 -244.30680011839274 -148.22845664548683 83.66325360548672 41.24043024938245 -42.808239896736644 121.84246539123404 806.4446331461612 -179.23879792067683 289.1706499851619 -19.73206177874948 213.45259401162886 396.3909270703447 248.70490511985474 1288.8507616545267 335.797569722385 94.79718066405393 -942.8866118471831 -258.4451684657962 -318.534720117097 -1184.6634194727608 -744.5335274549864 233.1401585754006 -412.39963511837504 -337.77680115722575 -978.3439577225712 -751.9557752550768 -4308.462152501855 955.4844308575344 3118.8036327705263 -110.43989894509905 452.1293197897038 4807.416476827021 -243.04398857136252 -6928.549239735707 176.82929245353552 -2116.7533304827243 2388.4190902893633 -6267.190587455404 -1954.1156401805426 -8755.221734895393 9382.74689727444 -20725.248805887197 -17351.208513391295 -22793.284246317962
35096 0.0 0.0 0.0 0.0 0.0 0.0 0.0 0.0 0.0 53.63466486515102 200.4134598272415 230.94867444388862 -120.39094768435031 181.80283558126928 434.6967683495582 275.22095707374035 159.85685052237594 -24.085570455654654 113.72704009969539 -453.3750286727526 65.23632742038953 -16.008367368893698 -145.65231072699189 -154.35368335270277 -582.6987135587467 658.328229634997 -51.186989780640694 -363.52496321506834 -1129.239916271428 1.4273745930046995 -42.915825857951155 -301.96341026060213 -800.4305252226887 1472.7713508131988 700.3220052207557 -176.63537723807198 -374.06534302226544 19.951400627915323 -777.993936440892 -2263.249372638123 -151.19602319466895 399.6271233148459 115.64646537175497 -1668.4300448436602 -1588.850976375535 2089.354524843139 -508.7205135195458 1712.311094889452 1534.000976162215 1734.332614935743 -3162.642977480783 -2382.9576014071295 2402.9842222639777 936.5358092621924 1561.6730931127606 -1555.6810141833494 -8019.083814234391 6278.164121833398 9004.806152314593 -3763.1986430149386 5314.369540470993 -9660.981414460426 -12317.658526845575 -19251.45553852807 0.0 0.0 0.0 0.0 0.0 0.0 0.0 0.0 0.0 23.384657244730416 206.31668664262946 238.9810819698345 -56.35868190486354 223.88875858604837 427.506115043658 348.7248821287046 230.44789347359708 65.78973242905353 99.96131529562783 -481.86950731041566 -14.154513566592211 -12.707124525492501 -66.47321752562304 -77.9702333946721 -628.9532433750395 788.1125279472966 -17.20696982688261 -342.5022145070959 -1013.5603363073154 71.33947013749322 92.95801214180614 -313.3527966888571 -644.3298641304759 1669.5153541820769 736.5347873365532 -232.59426829604752 -757.9799642116353 -96.09196424374801 -806.6137189896144 -2572.7715016571565 -464.8424042819876 652.0258545290149 -21.55084208708008 -1428.5404663945926 -1690.2488573971045 1782.2339429348322 -357.1335422697646 1853.6763482677136 1926.1534466529865 1939.8038047279417 -3584.5849113304125 -2428.9998079488923 2827.81396135748 403.0656502192427 1861.9677802373412 -1621.6134713285148 -8084.215909397652 6116.140366508167 8552.848428055071 -4107.543581054281 5263.270265700856 -9776.197745965303 -12582.588342144574 -19497.604910206548
31454 0.0 0.0 0.0 0.0 0.0 0.0 0.0 0.0 0.0 648.4603933439797 437.9701817325019 689.571602554212 -332.0279635808078 -509.00811982633604 744.8633965594297 -38.88204838920146 -1037.4282523040858 -488.04049212414594 -1143.4392814935595 114.19589225369822 1216.4234445328025 -1565.0719655693988 341.91685606847665 1159.4192910320862 -293.3535693763735 -2437.1992595949655 -564.480885918258 208.87795415719685 512.4602712283697 1157.748148794946 23.633157645411295 -956.5912146595603 -231.9635324839109 -1676.7523893778744 -3295.4140497845397 3563.1688679848344 -290.3705511268147 5720.335968652662 -11477.629699418316 1081.4203605782245 59.45124341356585 -6630.670776462148 -1685.1808383554212 4411.489475190759 -2157.042300739005 -3914.4243183631665 3092.3896767910287 -801.9887434097782 488.1377865528833 -6317.00201836657 -5557.00179572976 904.6212659070997 4207.221838124275 -2637.4292151905465 -1650.5449677779673 2455.258470279488 3820.278537643035 -2346.0900646069877 -12412.40721412146 -20239.784919154674 13158.16961484096 -39481.686687935835 -41017.36256141783 -124668.78821746485 0.0 0.0 0.0 0.0 0.0 0.0 0.0 0.0 0.0 657.4100635925996 456.39049784494887 675.4698009111255 -186.5393259711923 -482.9867759980708 751.0828249859342 -32.85657449459663 -1007.6467703430023 -464.2832245161 -1102.5417930259896 100.41092264143582 1145.662288286029 -1544.7479918614097 387.24059381807524 1138.3820862215655 -383.73981434412855 -1936.7465205354383 -664.1123648276657 -99.05761694496594 432.3917632221185 1363.6598680329496 -106.87626168694642 -1345.3642278466411 -308.34662685628973 -1678.7825417643494 -2905.858461417088 3361.111601013998 -452.71660970865 6155.145671334776 -12051.18655621029 581.3652137820499 56.82646006583172 -6962.814413764548 -1721.7170232435785 4833.441554251846 -2336.0059195236395 -3846.7895315250717 3281.819117633174 -1277.1960580360906 130.99763397224226 -6357.405433645432 -5309.4678145608705 827.1673516224546 4355.776711906065 -2996.40733156617 -678.4720082496328 1992.0184945313952 2783.988667032177 -2537.95513611598 -12492.858705583249 -19258.270832164704 13063.347609083023 -38035.70877204922 -41379.16384832116 -123962.89059231039
30257 0.0 0.0 0.0 0.0 0.0 0.0 0.0 0.0 0.0 -304.59417258004913 -106.8577420124347 27.941033478746377 -127.1259952475591 281.85743539654715 589.7664231454634 638.6612705714821 -103.84525029267468 -194.0727692133781 -85.61934805708965 180.3063372627665 482.709248745184 -183.56645558965883 -420.2635715340531 -451.51624968560446 -425.243897734386 -616.819218527987 -1869.3559026961868 -437.23494004189206 216.76103360099177 -623.8337982860686 830.4711013593374 1417.502810010141 55.49514364332517 1537.1004460298775 1134.922875858322 -877.4663889003033 2433.8435135856935 -203.37123242014252 746.8328452003735 2728.1726051417527 738.0430052859662 -353.21213632999957 1170.4233343334733 -3972.1466863576215 1249.7912734845786 836.0825530281234 393.1207451770233 -886.1802831465949 -1584.229551786193 954.0817166813255 3229.717536635195 -2579.751338104241 -1671.0375816166038 3807.770234799479 -1121.6895631435702 -1188.393510889018 -8333.417669356371 10551.561916940267 14247.754183391466 -3679.912716825875 4854.380710674264 -7932.378245055382 -13196.437058754569 -20734.434448985 0.0 0.0 0.0 0.0 0.0 0.0 0.0 0.0 0.0 -302.23715774348165 -105.68675109596005 14.090397748750963 -83.54563826645494 248.81649686559254 632.797722793733 736.3534208423017 -119.241113272079 -205.154791304227 -87.16035268105767 199.50565219112812 471.43680372946983 -194.07906593885093 -379.2358437053396 -360.73968314065047 -326.08761594701747 -691.2998640966931 -1933.0126750467691 -420.38757305661187 346.2533810356656 -755.4181187473737 943.9728976418522 1477.8263809224231 109.5895817399034 1380.2526328355937 1142.9599333739218 -1116.7741003214435 2368.643557344771 -188.81100990260674 719.5592744997974 3014.186573900794 495.97564068526486 -131.93237739551745 1055.0526286347545 -4131.09987732609 1205.4776046814427 582.4285098635855 225.3273852475548 -1089.3284628829865 -1441.876621345786 1012.9911861791143 3448.6347523477993 -2369.3796746158437 -2013.4942862915143 3473.013416304914 -1031.7966257517135 -1369.175503601734 -8067.594538645587 10486.580639339354 14121.534063643066 -3429.0253511583246 4880.607495176405 -8210.053496883043 -13441.717176096246 -20826.067116429374
31267 0.0 0.0 0.0 0.0 0.0 0.0 0.0 0.0 0.0 206.90375053805275 27.458957200490165 -7.00871569753279 -110.62944794993801 127.90778127288219 265.17981202068785 -190.80762888867417 -93.0216656031251 107.39495678944921 -24.333009812481535 -167.3496203664327 420.52630235610775 523.0778681578853 -353.20414508021065 -294.4516676727581 -796.3952049301226 168.74816801438678 34.60185542001898 23.64171280729587 -131.64841425689846 -475.78210134521197 -414.60076562904845 -267.3408166894592 -640.5825759026432 705.8979973631306 30.59530624265958 1206.7577343193784 -51.62114119140818 -431.1889062186977 -510.16325205808783 -412.2095627634135 42.08156537464821 -497.9971834920682 1498.5543542961018 -2718.67018593984 -15.348794106335806 812.6779809453633 -2070.075747140338 -977.4685095533628 319.56386020681805 972.4501474475154 -1487.6261955482532 814.5802430417416 -506.54032300307034 2922.2592456538378 -1175.3178063119217 347.9344486200169 -906.5811637120024 2848.2894756091846 3841.9305736344018 477.67685230177136 3177.566123757423 -12021.350532330314 -6573.890318301097 -14111.641559718646 0.0 0.0 0.0 0.0 0.0 0.0 0.0 0.0 0.0 190.3416489314071 29.919343117519745 -23.508749890695317 -83.65856232606895 98.8332531079351 257.71923231194705 -153.7915644440429 -64.25589727448362 137.97098729075645 -32.853810133257504 -205.76237316724877 417.3557431541462 485.4717814127551 -339.8817096930599 -269.57282377652126 -749.3102830160316 94.82446123006349 -1.6813790046143562 -19.74191200530672 -200.18794109923067 -483.69375627708814 -89.47526289911234 -276.82775509646365 -611.2320085267778 779.6725918358335 80.64872206250332 1141.5032257778635 -189.3804282109925 -384.9770507634437 -610.7620609706454 -482.52227911806017 -43.427712347572815 -346.08689297314254 1449.4428143638493 -2802.934066107463 -178.49814652120386 806.0452837441917 -2096.234451268374 -978.4922286665889 419.4394260187252 897.2949695178881 -1715.255737529162 677.6469710382449 -328.40970253136425 2998.3009029422797 -1067.1588177045319 196.21774171664873 -1306.2279797305835 3024.479613173236 4198.1367629044 788.5075500682968 3217.7144562843 -11988.076925518779 -6765.922160590705 -14171.3609797928
31995 0.0 0.0 0.0 0.0 0.0 0.0 0.0 0.0 0.0 -63.537716437706756 -193.42867034827194 231.81105847139065 269.01610942876385 154.61998920348927 306.48920974341684 118.82055839780104 233.65534027210165 -127.20780340079875 2.625169008279225 405.61837700823884 -465.55465275763993 -188.72172598191304 608.9780683491763 686.5372379921646 292.31264121157324 877.8375947583065 401.6714773343953 146.8516498098669 -413.29969074057345 471.0079453813681 -171.8639791636303 -475.29808652136904 -858.7550493813649 583.8928737544403 -42.14305752370798 185.37744045640093 57.971783981548626 -39.480688488734465 118.21696392554149 -2155.8267083640176 483.11203255311096 -43.69776278676493 -181.30813468747175 -1255.7101671476582 -2064.2975011872745 1317.0310659826166 -4192.803801759956 515.4279371824041 3174.236079689279 988.3605147767332 561.0731038910338 3870.695636079911 -1470.9688827938853 -5315.100235091453 -1190.8166690859027 -1636.4244578358612 1416.7150630137082 -3727.8740994127133 1393.187129702198 -6214.2562097766795 8067.306451709869 -17389.741509456773 -14322.97068899834 -18606.618903296207 0.0 0.0 0.0 0.0 0.0 0.0 0.0 0.0 0.0 -46.60014709165927 -212.77605912977953 235.30878699923701 278.3993334254416 156.2336481695887 288.14432982137356 141.82907036175249 221.4101185934203 -137.6626872783585 -13.02070392261948 427.2167901700067 -478.05738087617306 -185.7652477534705 636.2938979463723 711.7867780408616 347.1231302847265 841.2030561517576 371.51441931982475 202.09716439232184 -360.57017133837354 457.9034741525213 -27.124506647093813 -372.15465969977026 -735.9222224699997 635.1479470245855 -47.854560945501795 197.94218333602683 -64.70808232362552 -164.34419434890492 282.4503928828296 -2041.0257592615683 410.87981882444234 46.76354646041793 -263.3976492065844 -1302.1558252735304 -2037.4102198139044 1176.9134843405482 -4306.65419524832 653.2182518170514 3309.612210492438 896.744155601759 505.6053560642902 3951.4985973477487 -1504.8264417499108 -5435.693703202951 -1236.1170124149246 -1623.098456247028 1282.413233735315 -3675.002871697481 1428.585166991682 -6415.7667991060425 8249.979468574313 -17628.26006070714 -14566.112834449505 -18829.565428735565
30990 0.0 0.0 0.0 0.0 0.0 0.0 0.0 0.0 0.0 130.4734444851938 -31.37631610305677 31.49374638355055 45.02771721915494 -68.8312550589239 317.7520984195538 -26.00032521584601 27.260427338853923 175.3826478184981 57.23184812345284 -217.07982272437738 -91.73801595083083 -45.61214485762789 44.29782864685338 78.64446816916373 -206.1837482140118 -184.95690460185347 156.69402068887246 -81.47203815054284 -683.9090714173227 -322.63266574482606 1134.2543823072085 -106.26721908549104 64.99991055787368 493.23427522601384 64.79412253421675 584.5731970750335 -1616.4133073258315 -326.285510021721 -292.8263872415094 -997.3516886378072 -1153.0648869939162 1919.03800903866 -1732.5375991573821 -2937.7302712020855 -2301.5848546069506 54.00887108476055 -2553.5264401133654 1336.9930043737404 3154.2132991209055 -1830.5302584267856 -923.6330233619773 802.7259274627698 -80.18266611753744 -2225.7908070878234 -1620.9082282628947 -2038.5164550087356 -1344.2686387076467 -905.349164204467 3809.5302482259963 -1875.1954524600758 4597.2129915892565 -7497.295994307747 -6571.154717183405 -7788.616690246567 0.0 0.0 0.0 0.0 0.0 0.0 0.0 0.0 0.0 117.96705822989443 -34.73656455323136 34.657418446230125 34.364808381717346 -91.32028673720738 307.8604976746738 9.199103148880612 23.605096971601096 179.37021540278747 56.86869729348616 -215.93816390207303 -79.93503989519125 -71.71269983599548 46.642032897226805 69.09333297784649 -97.85055065640262 -261.02168366272616 169.17008803969 -62.760880033659205 -592.8866756364006 -348.7086906504066 1301.317733667868 -110.56016121877222 139.83022852224886 581.1866981151115 42.52165773283406 570.8454035107901 -1550.8404141187261 -309.68674692075524 -304.5136729460988 -848.1053604030119 -1115.9306311631453 1863.6791532587608 -1669.290034785504 -2868.4283070206557 -2218.668884568071 46.99755168821122 -2423.785787333958 1363.7656025595454 3136.4482023754776 -1800.8898089374616 -839.6820726407884 773.6278705592201 -170.03708868911755 -2179.4067209634086 -1618.078479154186 -2020.8585751163066 -1353.7797879009454 -855.652470301532 3860.1647982094732 -1867.8666397581264 4559.042257976443 -7508.549347468614 -6569.320195040562 -7834.594109601893
31650 0.0 0.0 0.0 0.0 0.0 0.0 0.0 0.0 0.0 7.3430370369630795 -145.58148962403266 41.35490555470752 110.70365132180139 23.50530615328121 -87.48986260015013 -50.21544561629653 -142.08361772456914 316.9527636420421 14.545740569581417 73.8087931968208 37.57108562312848 123.55624272034478 112.71744164068551 13.964513401692665 -375.09622453803905 -313.14673248210084 696.1749899925117 629.3887807991381 2628.46388542629 -269.2605766699981 1367.9680035983995 -259.67795108312504 -778.9379257481303 -3468.5504411019165 259.24077979395855 86.99936989519345 -3340.9701901804697 1191.1228396860154 193.38650707272933 -1150.4463506849409 4096.840645082154 -3647.64791041545 5438.45666628738 2472.3384754213366 4207.418783467703 9356.748869696326 -3880.0881462661982 31038.895141656532 6135.297138650263 -2585.287177234445 25198.47499544268 7632.168391035435 1500.6379426383714 24995.041056941587 7422.196849147034 -8343.958575882636 -22235.994503237194 12369.616459031287 4784.71455782022 -4419.802112781754 2235.2487469217162 -5491.526243899752 4105.811123938496 -140756.1667161228 0.0 0.0 0.0 0.0 0.0 0.0 0.0 0.0 0.0 10.491255882083244 -146.55780756728234 40.79380929286509 95.9394760112902 5.103625019036216 -73.64642980810396 -48.38716031420008 -131.951744291948 316.96868530947603 15.803865639445766 58.372476520712446 34.965832206766486 127.12875228614686 98.29086105640634 2.4176703613063126 -353.8404952771964 -197.47841530975316 690.5543804338488 581.6522039124305 2552.333307058444 -261.3919814543844 1310.1732931316405 -130.96459327582966 -812.2081487908682 -3429.4918307815665 228.18433240236058 12.585419004354462 -3277.6828926127237 1526.3254208966055 -140.4340120845527 -1242.747868818037 4069.667875461497 -3523.401690598536 5734.849870167292 2328.894358764194 4647.93964597501 9344.439531203416 -3631.201115987501 30990.089927987177 5729.020370572376 -3028.918897068636 25431.45261299061 7066.790441456312 1278.1500160975004 25555.930848763564 7918.717318427852 -7443.242799168163 -22804.32684947121 12086.375982060637 4501.87923081623 -4245.842981481696 1611.1790873471984 -4592.108408350445 3169.4965232203344 -140295.23877596192
31504 0.0 0.0 0.0 0.0 0.0 0.0 0.0 0.0 0.0 180.19412129956686 -30.843618121510936 189.3371166502777 164.60375520477302 -341.95575931045363 -403.13199670834734 -23.09269900680848 335.76152600867863 369.1028297272609 206.17035915012337 617.2542445689382 -338.5612856857595 -46.57094086642906 -7.904089355946363 -108.51403791696191 -235.59228164552542 -435.6023646902871 442.01931161897437 306.07507283821633 855.9547132178147 -440.61261242338156 -349.87531811873043 -9.698243667458472 220.7972315150189 1161.9183229744958 50.461657419322925 312.17502466101064 378.79427799215296 -754.7285486807117 821.4201994636578 580.6148869618798 63.23033314058723 -581.9404089836343 1354.3617843473796 -1641.6174453223819 388.4151031142605 -420.1143509380353 -2550.71387454519 -1003.0683780266426 1426.9482080025605 909.3909405439634 3526.1971189580045 4688.726071624485 -1106.165685831667 -2128.8962624947485 -3129.214367161804 1268.058314722042 8293.562353856625 -4528.347797256953 -4344.503764293776 -1258.134339797715 3066.324541785762 -14827.090571772915 -6766.222040302099 -11828.985264675455 0.0 0.0 0.0 0.0 0.0 0.0 0.0 0.0 0.0 207.7364878570775 -58.37134222782465 191.38719935371358 133.77890965051083 -337.17174711477185 -435.2930560862994 -30.52882811046899 292.6239339186522 345.08885041542493 206.04930829997562 601.3803159993366 -340.5029870244138 -85.93764485782867 -23.258538757846004 -121.3366290028654 -254.7407353716447 -471.3840972106483 420.86823390391726 305.59674046204606 863.2597387696946 -445.729860133024 -369.483752826112 -20.13625047042838 169.0434900249545 1084.8415601122783 -2.1072674947239944 322.0476128319596 396.89923862928515 -690.3443911030498 761.5912126426439 629.8190088533697 95.63458367588451 -636.6873147467678 1399.2398572397326 -1565.338323044915 429.1799203314365 -451.71446590635753 -2624.4565178159546 -984.5104853808102 1373.3184273321506 943.4523831111393 3620.9792557845976 4752.10909857927 -1152.91961795967 -2157.46095646454 -3197.450639580422 1439.2743544906084 8322.022322855559 -4329.663315772426 -4495.095549262815 -1336.5937991171143 3111.908285328835 -14867.222235372778 -6887.286876265986 -11819.370570491343
31834 0.0 0.0 0.0 0.0 0.0 0.0 0.0 0.0 0.0 -87.3905739981955 42.47455126312863 24.027379652533856 109.27182625787445 -138.477204683396 181.61251202898092 -200.5570030737819 19.95552383203284 484.25916197715173 -411.43935888545525 704.4598577987734 -254.31506240278512 405.76081470195567 64.31274310234761 50.35665557469313 -575.7384529676299 -484.03181199151777 558.6793235234212 350.98275310555294 613.918284769241 341.2211001906257 -143.72864654073942 -403.80583372635505 -1.0725884050926793 2770.8682923951965 82.47310748481944 116.58367409514345 -1995.3570017702107 -257.2759798844972 -765.5077934721032 -1052.2769504216956 -1209.291634983767 1172.9342949469376 1433.0552381485888 -1226.4542998938364 568.0909925533975 -712.1238560427179 213.74341004824362 674.9820238173687 1674.524222802119 2290.118299729065 -800.1321649651154 416.6341764024385 1477.4381617942408 1683.7079958365755 -3982.1186443931024 4649.472556543884 6379.570021667498 3614.93314031875 -2671.8953609807118 2826.4192372606844 -42.996325506598346 -13729.754643582757 -2440.9025466685325 -16489.362880908924 0.0 0.0 0.0 0.0 0.0 0.0 0.0 0.0 0.0 -97.179570681265 18.736441635151873 36.649655399870944 68.38756675969888 -131.68374290252865 179.05548193038223 -163.1005950288322 18.010211275981096 480.10919111909334 -399.7575729289451 690.9366739671716 -256.8541888607627 392.0790908284324 92.33035289151061 68.96679904539563 -625.1470605966665 -435.63079436523407 530.343202404779 310.31193173515544 648.9450426210276 291.99629563417045 -51.50402408517168 -463.2862437351007 4.906412569110548 2749.1168846881205 74.02580045811688 113.92961375186621 -1907.0607254583172 -262.51222322927373 -792.1627258206065 -908.3757133544802 -1214.7632242024863 1134.3734449080769 1495.3981692998295 -1321.1064029885185 541.7819340295077 -696.47870248224 323.1674591832206 684.9790931633833 1621.854598261952 2160.8230537181744 -749.7440193137282 462.0092506866272 1587.9567908239374 1624.2157949096004 -4079.5564652554112 4719.096911454916 6405.196605424772 3670.0339357278167 -2796.6608358149397 2779.8173449680867 -123.7750826221567 -13689.735019730982 -2733.450784126934 -16450.26438914522
34574 0.0 0.0 0.0 0.0 0.0 0.0 0.0 0.0 0.0 65.28882621424368 -88.72259855858354 166.84142964862409 -17.36340607710848 -43.30911427576592 -90.91777498941381 109.35534342712243 -295.0620670087921 177.0593324350503 -214.49708293189065 60.05781516171012 367.8939773841868 135.9473658166264 83.92982754942823 291.50129543833 -191.50913032971954 -137.89909691598615 -266.3422815866448 32.24105766826748 -479.8776359277619 -245.842267361323 885.2133346778025 194.7807353999328 80.10631041564517 70.51812955793717 27.740516654536666 523.0911785010416 -686.8193359109031 -516.5301793082225 372.2779146969118 -133.1011065726086 -646.8878415829315 1216.16242529818 -995.7533300350495 -2608.4390115146007 -1392.0587666305364 -204.40501221305 -2794.9044721282075 545.6981883846281 2046.3674285570892 -1489.9323110095681 243.43088465610327 1636.4637226500915 -918.4149927021316 -1943.126091500071 -1262.2409837517368 -1982.217185111623 -188.73779809617366 -2041.3557618183584 2848.5584863157255 -1106.4184643774422 4231.115585711733 -7075.000563690506 -5595.730069973206 -6213.551178303041 0.0 0.0 0.0 0.0 0.0 0.0 0.0 0.0 0.0 76.16360466503001 -88.76804705961852 162.27980071395666 -17.90823646098739 -36.044650704054135 -105.39131117180303 119.74823859019732 -290.56043784780263 174.81631643456512 -201.05517317530402 21.40037284459056 396.6451956563371 110.98103980862842 54.92750921137253 258.8871585771138 -158.96325032285938 -105.95560941544088 -264.7874356745293 56.77172817969383 -418.65796788906846 -258.13104181678267 895.5734582511188 178.89966867480206 132.67320862669683 61.55010607017673 22.60887689366056 603.8481254389321 -611.4388723734049 -500.20276499660173 319.50011319669915 -70.76302728634401 -601.6242645465858 1117.0784362925249 -944.5519731392308 -2561.0137150928235 -1235.2341975579795 -235.19545364857208 -2771.4723336286693 577.5169913744236 2003.198813051373 -1398.5233324731057 316.1242470352033 1622.5723831359094 -975.3267931233137 -1887.399908121741 -1232.3362460503204 -1963.4877878681523 -208.1231587293413 -1961.9442885395365 2897.060516411096 -1111.2739049450136 4242.460945593991 -7173.147125948253 -5612.421677625273 -6278.70089775235
32337 0.0 0.0 0.0 0.0 0.0 0.0 0.0 0.0 0.0 185.66995605300497 799.8114205113171 373.5243704082062 -161.17041646360337 -377.8519643991216 -803.1012291120836 -1111.3269281023397 -525.1659791959194 22.992904137935156 263.1191423624869 39.4377198446487 -950.7632246804984 -764.3425394624638 303.18271882946283 290.3470297104975 303.4055327616857 555.4345774396876 -2040.9950422495174 46.53461398474738 1214.5975708821582 2711.8634626154885 335.37315053517426 836.930560614323 -1191.447274298329 -77.84553459267255 3198.5495155901694 269.96892339337614 1179.9764729259587 287.6280155546971 2445.422967762338 -1031.2957674849602 2428.488787157693 2343.894443632388 1685.6284636865585 550.3279032411718 -406.7365621790726 344.94288296798976 -3025.865303257599 -3173.7006523061277 -3270.5066533757995 492.39809036085774 -1686.2301563441958 1685.7339568281564 -2982.4619741243223 4286.46005894502 2573.016372589102 -2271.382175759977 -773.7348245170306 8137.320070061997 3175.9394562609464 -1254.734481428175 4839.616823677963 -25549.74656883136 -13569.84655134824 -54634.51114978643 0.0 0.0 0.0 0.0 0.0 0.0 0.0 0.0 0.0 263.1531048186959 816.9183078890012 447.77399802510195 -147.96698658246927 -437.66451748997815 -773.5558667820716 -1039.5654684216024 -605.3594195052422 -82.99209747307853 299.01172655113754 28.292333096579057 -1036.7858173990874 -881.9243556894393 254.39049137569884 208.46988818760136 315.860304910007 546.9190065235763 -2098.296387205946 237.123827022505 1090.1691851278251 2769.506899106261 237.03059134439258 1001.796865609013 -1428.0898614904677 -200.59820591251352 3288.873933380647 311.0712281811363 1185.2497497081906 131.6491978340026 2809.395914681796 -925.2504303903398 2455.574841897188 2389.7156916996296 1510.2421305480339 396.76056228092585 -462.52760162719443 505.50805477971477 -2776.110623136033 -2734.79018697068 -3368.986203668018 138.5005270659037 -2182.309510669654 1628.8705034197642 -2747.166914869143 4245.146029231257 2162.587542624681 -2391.0400804304936 -1247.9591788863622 8136.846634895267 3287.598682025956 -1167.626724153172 4943.884931183927 -24822.4224349876 -13614.628122978937 -54606.973438086796
31453 0.0 0.0 0.0 0.0 0.0 0.0 0.0 0.0 0.0 90.58607762497499 -60.33293974484225 -70.01364427106991 -17.97230206572784 55.074452926980875 -346.11527671718375 43.893573684730185 1.7596216422180684 -236.4955525951892 -47.58599801875973 -982.7253781701954 14.240001708050503 -329.0093317479388 -40.16691108504397 -122.3941005761442 -810.0079770641978 231.99125194414947 -277.3988654096314 515.1446456537461 -957.7682142347587 50.01531827766196 2286.2179053464442 -592.0118833865724 -805.96800948241 -1159.669123543944 -1142.3341975751155 -672.177365173204 254.00231607770846 466.4425469378599 -634.9592836389802 1469.6163110433504 785.7133014808231 -344.1632322375683 446.2223970633823 1166.6155837971544 -3526.0961697798425 -2921.8471637501366 10804.620352231872 430.0142335165223 22358.341530289155 33951.16905566145 3152.2085374811713 -1002.9658592504318 -37795.23987195712 6717.722120468709 2230.6969209679983 705.7235054518849 43536.60727448048 2962.736755350947 5525.031458384253 -2083.0947671588788 3304.3647787808773 10794.662954270143 -2229.4856492052368 -172145.6349949849 0.0 0.0 0.0 0.0 0.0 0.0 0.0 0.0 0.0 79.38361970332367 -57.30619604580274 -73.42453219530371 0.9387968040553322 49.64816133602772 -340.95164664975226 49.594772520909494 -19.16288878308451 -263.5106423098966 -53.403270226259615 -980.0431944044573 -36.51876616717878 -325.0389861919843 -39.45652306453013 -108.57701997678339 -757.8932666007572 279.2334596961593 -292.7044276146011 567.891843430883 -931.0392934535951 153.80077802385532 2242.039553038154 -583.5280814049252 -858.7771371485945 -1297.121169383277 -1223.509621591673 -674.8264945297383 266.6438330221708 525.3656208462569 -696.8988514202942 1423.0031614777624 839.553371143662 -47.529818987111575 548.1970081315443 1403.352598727337 -3547.0742582166604 -2803.715539912486 10846.116718659263 862.1502183554178 22235.4136629722 34384.45630283591 2687.6777962926813 -799.7647879920812 -36963.55708191486 6632.881627431802 2819.7970453110893 986.9486572549321 44131.753049722756 3161.0125081890983 5077.68741606636 -2262.2314889416793 3984.0825206360655 10766.094443948645 -3306.173008589676 -172273.40227311273
30615 0.0 0.0 0.0 0.0 0.0 0.0 0.0 0.0 0.0 -596.2117848632835 367.3269042554296 -66.73750106534293 -1190.7511846987838 -10.911893657029555 226.3419913559958 894.5985994283377 1093.040514337589 189.18928579211544 952.0787249754179 -943.9633513753882 938.25195025255 -83.18118561620173 314.6910753958652 1308.1625043873403 588.2786039703071 -187.35621707841938 -348.0955819287568 735.3952993042202 1829.7020906354874 -487.40468978653956 -703.2535385903772 -505.86886956241364 -470.44366317426704 455.66123864221555 1581.3437546585837 2333.789296374436 364.558247617035 -9.513965069373606 -507.25690765706054 -3185.1973581884113 -875.9320294858262 1483.589722129726 -1127.328147184095 -4062.632880808567 -2576.3002827402984 811.7939984310854 2503.239271152672 -387.14347363686295 -2208.7585354591743 -1016.3450662304979 6016.097300636797 -2026.0329705328118 1355.347469541132 5388.240375771853 -1808.5415604484754 7710.180905349112 19831.09412499313 7777.938840691123 -13000.645711413106 6466.937566347174 -6774.562480014852 -14076.90079035707 7742.604875676344 -24126.42574667733 0.0 0.0 0.0 0.0 0.0 0.0 0.0 0.0 0.0 -515.5103080381334 400.295377084734 53.25454236598686 -1241.8168203706416 -85.52300927670713 254.02122598451828 889.6917617585196 1126.7765572097278 185.7970537336163 1044.2009151465847 -895.8545206791458 1028.6895351771157 -8.499938452085846 403.9898457793004 1405.3016238191674 663.701307656724 -318.3441405338706 -253.6775118516406 633.3571530830022 1775.1707155806728 -533.3629587001849 -722.5281231730924 -539.6244041007081 -383.55754935300814 453.2247776227198 1606.518684224096 2426.119582010872 443.59331930061245 -42.253083824042676 -565.0304535293214 -2831.1758572095064 -782.4509410823108 1375.2703218250078 -1051.150381740722 -4147.781856672174 -2287.725622036848 619.7044753255485 2366.4275362312837 -351.95389906604606 -1895.2477120881879 -734.7895614734637 5858.900623649198 -1715.959234583594 628.0160883352928 5220.378158748281 -1581.8118131979297 7124.933960442194 18838.05212700566 7421.682610551588 -12322.963123906513 5729.245544865917 -6640.290433589546 -13434.28158264584 6747.588638308464 -23192.643842971564
34321 0.0 0.0 0.0 0.0 0.0 0.0 0.0 0.0 0.0 155.56511969099117 -483.1241973073164 306.0689455363856 -562.8737800967807 1182.6612611440485 -543.1319968086483 99.46189756964154 -224.0994345387654 -308.6911920115606 -35.793463450658145 -627.6016378073896 -0.19664967183348023 -80.35488087913804 -185.66377332434882 -359.11228524196173 624.6012115512646 -307.0510827036847 952.8231319437076 -634.5575867694424 671.579125477804 32.252155584368346 -554.4501518362514 723.7087893312915 -753.5455357061682 1456.3439983931996 430.0654916130373 -1010.7527011266062 959.441236051001 1023.1044738225444 -1151.881948467212 1179.3463518367314 499.5664978370002 -458.97502464171816 -2116.039733288593 -1439.4677878658456 -553.4597768282337 1586.2033341333808 2605.175737953215 1128.9159682134946 -215.50549197688133 374.8208679271014 -1159.2188745858346 -3551.9117993734917 -703.9045553874961 -1768.802888663836 -1037.6394188992306 1347.902481469024 -7859.182087330067 7991.080187186043 4273.659266770617 -16970.067089929784 4367.936443639969 -2897.354675411102 -13586.26992708829 -18259.58549767383 0.0 0.0 0.0 0.0 0.0 0.0 0.0 0.0 0.0 173.3264326930206 -441.89009633905926 352.00640666407674 -638.3709583733863 1118.8443402393773 -546.0122855787549 95.9008657589638 -255.4159043921768 -340.54221704846185 -20.35389897157834 -647.0963532463037 33.071363517592374 -68.5076506908466 -233.8608018679586 -391.25162464878116 649.3663725612254 -337.6981566471625 1078.6008832157306 -639.6438742736439 733.3900327618653 21.709750757222814 -696.2639532677663 804.5093519324641 -821.5757091275952 1375.0739982080954 445.4256821589372 -1043.935577898461 1256.9940756574922 1093.8358402352294 -1210.026770505543 1376.1650307564134 589.3787063074684 -567.7702163214868 -2011.630684277577 -1414.9177159090343 -467.033149984308 1689.277489768794 2716.320506442912 932.9052028257178 -323.22311495743304 550.7922643430603 -1049.538100750411 -3443.121139547573 -703.7335877543303 -1818.1204176113852 -833.7560488213828 1456.9344669542602 -7601.014454298902 8116.126954586247 4040.9300545842216 -17044.024493045123 4226.488420618787 -2783.687201886658 -13417.672063253285 -18428.88884088831
30185 0.0 0.0 0.0 0.0 0.0 0.0 0.0 0.0 0.0 -29.69109814854759 -11.951579376047219 -19.027126920415167 -27.44377241460183 -18.65596711264514 -97.31649060269862 20.03024294061411 12.89282519033091 -14.374103956183294 -39.18117587607805 -194.94213374274727 -77.2667131209928 -54.616296788805094 10.780292691247261 18.15918860051343 -279.0557383150163 47.757946767183284 89.9600574978068 39.44288738436272 197.8687968195078 11.791502868656949 -124.84062067885722 73.96758483276398 -27.551001327579602 68.00592548618752 79.80281585725578 173.301191500618 449.35405121756344 -196.29946099178534 243.1608220959255 259.59802595043055 99.22364070886476 -515.9529423355157 783.5035662168762 175.9821526283449 830.03927182127 -180.54990865604597 140.96984030988605 -396.98856184399256 -842.0410260032828 -117.24911657610683 982.5542618457291 1069.10914949026 871.8356001131302 -73.84907660340843 -394.3207844582601 655.9666453992935 2923.245987909281 -754.9025083557201 -1682.5469541031991 21.903134804906582 164.27858753998453 -3447.600884158708 -932.6319764195342 -2697.084252186081 0.0 0.0 0.0 0.0 0.0 0.0 0.0 0.0 0.0 -21.574635102542008 -13.619912752948789 -20.5451586092769 -37.869012612113906 -7.979143251426287 -107.94206416715622 19.053413783413593 2.9280336242284695 -15.282847726417861 -45.279506697362095 -198.39021821133818 -77.17501145369668 -61.24626204751165 14.468746035447188 21.82204988595738 -280.2256019538807 31.711747211979503 82.69773568266952 30.693623275786887 200.226212289052 10.94030499636288 -137.51806090612342 71.10077369740094 -43.73640943959505 53.461237527396655 69.14897829352084 165.27445191211828 429.44343547611936 -183.96173457623362 247.19197920291055 227.63038773439453 99.10138883481316 -504.7850626114067 757.2590706979065 172.07453883101033 807.8186313717758 -185.33435854731175 113.98676854697992 -402.78541471616614 -838.8708924725732 -133.33794259035113 995.535983213261 1065.705733831462 862.6683462160925 -109.45573039100827 -441.46340581445224 703.2917014982579 2918.7495693589203 -708.0124782839168 -1723.6452010369658 -16.811856824038014 182.72238741374278 -3437.231445347211 -985.993912299135 -2683.22999460026
34492 0.0 0.0 0.0 0.0 0.0 0.0 0.0 0.0 0.0 108.44602210808952 78.35890194028468 139.6014540921233 1013.869483612298 -368.3364498095004 -82.83252098806783 185.9795666452054 638.2156246475304 672.9320729087455 243.4050607356571 781.8081317974058 3327.997384305152 744.3615203466734 -1743.0890512007777 -1268.590128977876 655.1228789274635 731.5261006058029 -503.4289517429646 -291.3622400067969 -79.22956469989653 -46.80701724438886 -291.755219476285 441.83934502516837 842.1252847470724 -933.4544718860697 1203.6305698663218 -6905.134866513978 -1371.4483468259523 1395.1927564724322 -199.42233551863788 2470.005262538607 -1221.471032444902 2205.849690755124 -2971.786951416514 -59.93118675790664 -754.9301599586913 -1438.1994810180242 3223.757012264196 913.9675485982538 1541.3420197095852 -1028.0712508200058 -1313.1431077687014 -899.3956240023927 -717.5999345053507 -2413.518122149981 -1568.608049975687 -2583.3594142303164 -6424.549208710272 6712.180594571187 4210.1037517376935 -13839.650187263398 8970.101705997837 -26167.827163730763 -32423.565091174656 -72881.86440755952 0.0 0.0 0.0 0.0 0.0 0.0 0.0 0.0 0.0 111.6707950732105 9.173630250432147 180.24625184899352 1093.7522435100975 -328.8169790987309 -152.9293853161463 154.90066231233152 646.7179482784358 654.808570907323 198.6731406748277 780.3917870391797 3215.1686959680274 688.2635958690421 -1658.476160206699 -1113.3317869289192 545.1349371843772 467.94658812810735 -607.521068167073 -122.47600280012604 70.48150961435549 -140.59653246920792 -314.30520364942953 1006.5605267939662 705.3310689287254 -775.7610995197581 1377.5425880676346 -6902.986410466046 -1296.5405280574746 1286.9063275662058 -172.4561029229507 2823.165089720147 -1339.3690194946194 2159.3733569879546 -3111.1525398489443 224.99315218345788 -714.8889333635619 -1847.213939661314 2995.161502401517 986.7366928291485 1640.0657280769938 -1082.3091690363844 -1185.5072359920964 -443.2288475374926 -1601.3652670494682 -3174.5679308329104 -1593.6812516509144 -2615.4173406662317 -6172.378947169725 6825.483034645457 3565.980447528797 -14826.757107116757 9401.929650865628 -26424.652882896506 -32464.838590659347 -73615.01549672715
30423 0.0 0.0 0.0 0.0 0.0 0.0 0.0 0.0 0.0 -167.65521542078662 174.9216501319941 1153.326412966315 696.3411100437299 -692.0117085646234 843.715416464211 120.24428818401782 -1141.5868427178777 -237.1568828067929 -1550.03334595308 17.22098498608952 -1399.5000570438126 659.1370404267052 -398.3826139031635 -2520.183793526935 -556.012958676031 2219.7971683000555 222.6158437395052 -4653.85304164736 493.95756101324076 1407.7308344948758 1386.8037417563453 -578.6255400983047 -330.97431944899967 -221.50750438036 -606.7033966977589 -2952.2434869016674 1526.3142325028014 270.5315290562953 1000.2750991057304 -455.64564649431287 541.1631428756277 1527.1256279803836 -1768.1207759896586 -20.36162579094606 -1716.0979219570936 -384.2543202225009 6508.930430555309 4316.553046453319 -9584.517473053456 -3899.0508394591707 4373.698085603896 -3821.8739687409175 2948.8596418390716 2979.052344791665 -9785.567172667073 11541.921911472286 24093.506441136604 5731.29079032044 -8896.862030409153 4945.150479454063 -7815.685755151815 -31653.312303064315 5876.129532111066 -87316.01400623882 0.0 0.0 0.0 0.0 0.0 0.0 0.0 0.0 0.0 -183.89095519842388 205.55750310925188 1155.4030937225796 643.4755633689446 -687.8699465149642 850.5947654937066 27.049961175420666 -1201.8981545513752 -174.61459566632064 -1445.223959548593 87.96730701855383 -1249.2965636356266 627.0214694547748 -505.5715980892167 -2504.351558564014 -557.9600014007444 2154.312690144466 165.57475689158144 -4577.37162581715 322.09817529718697 1169.4736987814579 1363.7350332544238 -256.22777461161365 -538.9052398612657 -413.01120415538264 -420.7280521932902 -3293.573963288532 1491.688077457781 -6.133854732373491 1820.7998201161488 -205.1166435032132 446.19811220010934 1900.5602022866533 -1927.14439520198 -230.3909620442621 -2032.658052850933 145.9419444314878 6751.5918150893585 4187.0237992729035 -9316.924680764898 -4208.635863186108 3859.696973192488 -3505.7193256702535 3342.018919840438 3072.38965695256 -10579.248470258164 11674.134039993774 24111.487814787335 6013.778786844801 -9246.017683998116 4874.953010517856 -7422.265778333863 -30832.520037403207 4754.931195080808 -86967.0025639773
30208 0.0 0.0 0.0 0.0 0.0 0.0 0.0 0.0 0.0 -4.492943827346328 -9.216405682799172 193.0332204308509 -22.75264195419759 -211.78637447649692 102.48921525466346 -108.90149073585879 -60.72750221852261 44.563216825731566 66.68612659178255 -171.23223108643128 -261.24748234784926 -40.92830334355088 168.25352451307768 143.73725389282296 131.79607254998504 -62.01249149325961 162.84032402463114 186.13294107452478 18.173548746237447 -157.23330183958905 399.9588696428197 78.46291909965761 420.633129697943 -207.45912681284454 -208.39554001039636 583.7104908987395 349.9615942738267 -644.8101172509162 1032.7162307493352 100.9008538224031 18.715432170242842 98.61524785624674 326.2481800100619 -1145.4690460100983 -567.1362547014671 -719.5810898803339 -4738.4661218839765 -345.99898939918086 1388.494489971416 -457.22134275679156 1738.5860291679573 4693.038034601677 -2209.0575418027233 -3811.487955629922 -40.76294426076777 -2558.734575010121 3025.770636725396 -6611.610060068589 -416.4686437821422 -1642.1415841923288 5962.170116896451 -12015.262477884433 -6983.988544557065 -7510.493041703488 0.0 0.0 0.0 0.0 0.0 0.0 0.0 0.0 0.0 9.531574293451435 -2.7577033479874307 198.6497615514211 -43.828546049352234 -203.9880096369649 76.78257604913166 -125.49848691438335 -80.6951824529986 31.324608899302586 59.15425993832061 -165.63884381050994 -238.429170279915 -82.949244328844 147.15601820800902 123.0393170937594 138.54062360600642 -63.17572473762622 138.61028841390612 218.43420374735814 76.73652339491629 -135.45104688860934 362.09940519072956 57.552455283017586 420.81895708263283 -210.80226966771838 -261.6525386420582 630.8506835101883 339.38884498138117 -624.7856740585016 1033.018289191012 107.86375647335313 81.82124643968739 30.00013744597972 338.51442591090097 -1035.8633850915035 -435.97501108488984 -723.0079268790561 -4762.203470982501 -306.22150429588385 1360.1079568070304 -361.6591602066131 1792.4174747567592 4687.150029643306 -2250.272010033071 -3691.3573453981044 -99.86510815676701 -2410.035179726767 2995.745562581544 -6456.820630849627 -480.278711767382 -1592.3179528375626 5897.749047731035 -12011.281613122774 -6878.816484171479 -7399.935579922271
31714 0.0 0.0 0.0 0.0 0.0 0.0 0.0 0.0 0.0 -645.200283716671 611.3148265763764 -697.4885183283451 1425.2452039532047 -1274.3687952058092 -1107.6507399575241 -377.2852131515179 1201.3977417249012 -379.8212649005222 -146.44035271260566 -654.9838057043709 1927.9551259686766 -1709.9471917227324 -1267.6006882249403 -1191.0213073549662 -858.7803466180311 -370.4914986848721 1668.7952285231663 -1152.1737516550888 1171.7044566898098 -1557.469079831525 -1026.2155029665412 1451.7303028143551 213.34704707966455 198.47227129704228 -1281.025298918296 697.8509757792078 331.59001302457546 624.2009552110278 -1984.1937841990268 -382.2879972488535 88.08125080696523 -2569.6184607505243 4484.553118320933 -1538.539768910748 -52.766653838719165 973.4070368302062 -3397.9723598251267 -3991.061917452997 364.34286845304746 2134.3591848689266 -1842.5143831427777 3270.4926739827106 2568.911691029708 2013.7639621932485 345.8011335921804 800.2634901258851 -2183.8771241421036 -2765.822402501619 -847.7950785688683 -9128.98134863973 9771.313924757993 -28831.843495892528 -26153.999920089846 -43488.381571519414 0.0 0.0 0.0 0.0 0.0 0.0 0.0 0.0 0.0 -699.8061016741159 677.4700768874546 -713.0798563901186 1428.5049421441797 -1387.7692940923937 -1062.3093248447976 -443.3695637838046 1258.3742907637973 -344.7273461899844 -160.92127500421674 -594.1572233408032 1916.471694027329 -1752.1486089988641 -1248.61440868817 -1151.9171622462488 -934.4226127843003 -280.37991525032567 1620.274958733187 -1198.604412228462 1097.4247553662224 -1470.869521501518 -1099.5022936814278 1515.145535773291 50.934609898886066 126.99979474843455 -926.9980511087417 731.386119825813 234.77261172728345 419.79509698448 -1899.703188395809 -742.1867400247197 -20.29492633140507 -2392.615403515948 4542.218563224427 -1441.856866870638 -90.30051883483709 819.5416473805491 -3502.039950141854 -4057.270851459736 849.7608250771834 2712.7085854944107 -1834.7047782785896 3246.737749762921 2873.2177202742855 1901.3462933092792 667.3596640590941 752.1275419765933 -2356.6059329085615 -2730.4186078862326 -929.6200992153236 -7875.219475617382 9562.15576166653 -28738.002744648158 -26027.27748752633 -42848.53027209879
