416 128
30135 -0.38966225182310604 0.3003364010183168 0.06929946921037176 -0.13453655211678103 0.018486217861495867 -0.06037224416925602 0.15912856279339718 0.1408882302511205 -0.29184514463707023 0.004263191228474276 -0.1397859832911276 -0.012527511382013542 -0.0941193461872319 -0.2405144230755568 -0.19430968407556964 0.16035374001912592 0.2195009640185149 0.01491912917030602 -0.0014848911008139482 -0.14762487254724155 -0.0024668814995483295 0.055280448876376155 0.23760546806223065 0.11680832673066927 -0.020085584621897207 -0.07181994015204303 0.11171339442052013 -0.2638356381737281 0.42395443709320463 -0.14984471188863965 0.09990213465952016 -0.08748644807817783 -0.3497155123888044 0.4348977551293447 0.09243506056855363 0.13324407972580518 -0.457538091764479 0.12076190726448548 0.09226783831422297 0.04163444602264432 -0.12694973480549943 -0.03626854706471047 -0.22868365374204544 0.1398282981741811 -0.11459743706282102 -0.049698558547568744 -0.19160324205530166 -0.24718523574387266 0.1661969717401165 0.27065208714923433 0.09927811430265111 -0.0949356165772613 0.11806301788998248 0.06135234748133323 -0.008494044289032785 0.15290106018126753 -0.13983729745701423 0.022647898486164355 0.05420950272428758 0.07176499915497458 -0.03879998076051509 0.14880998059666986 -0.10692862045060879 -0.0355267463066818 -0.3518736304003921 0.45598097675661964 0.24947337276176137 -0.07116217319209589 -0.09515986503685653 0.42499077767107735 0.010152182672866421 0.015099590547487595 -0.08418661214786087 0.015839884277115357 -0.06146180735035112 0.0066263738899906745 0.040284313735876 0.01705877496663732 -0.19173507229883782 0.13166224494082052 -0.02633272642633917 0.025190312724591803 -0.1700978580956835 -0.06884009777275912 0.05522862704753498 0.0836408989006693 0.033906999987955856 -0.04220993412106647 0.17551009578182017 -0.11520010595144367 0.360417376099592 -0.0488632054590342 0.30852098610111933 -0.023351106721242194 -0.14630695006031075 -0.048102687844131825 -0.39858651375510323 0.35523260601049644 0.539864558535921 0.021923059242812706 -0.020003583980408742 0.07351537778603663 -0.10506843986398114 0.053312230725266835 -0.09215986396847331 0.4450265714090896 -0.10483472926381433 0.015418552547952893 -0.03197517762071823 0.16353671297815622 -0.028729653237828917 0.007263500222445364 -0.13738523639411032 0.13860504973563614 -5.007881016900342e-06 0.05569737211072948 -0.10288052807773164 0.19393766845592803 -0.018160715085158385 -0.04018574694480063 -0.08474925147541877 -3.3591587524241814e-16 0.21108705524907062 -0.03221840114272529 0.073294858771883 -0.08511228351436231 0.006906926117995338 0.011476083541400794
30397 -0.5567545151240869 0.17215419431506518 -0.12931208493532712 -0.0449182497475446 -0.23268010364760838 0.05124006324736291 -0.19126182995959062 -0.11857211706818542 0.2748724547942414 0.1575582772071184 -0.047274605830210724 0.06938181814084085 0.07671750787092506 0.12443151044030684 0.062906499081483 -0.16861011324971772 0.14339469335660318 0.021870954539194243 0.1580594143792158 0.1679067054471885 -0.35921879058052664 0.019594412720891238 0.18760331846825123 0.2154570514238033 -0.2104735076895924 -0.012222593451780577 0.14013293258391837 -0.03672968512114014 0.04698771151739284 0.08717546444145673 -0.0767188228423637 0.08170597821634515 -0.8122463176685377 0.007547232016769744 -0.0059078503970151405 -0.03965346299984349 -0.052934241776883835 0.03212428961822211 -0.2923023248152414 0.05953872282575533 -0.02723324440229616 0.09691006498408002 0.08332734754736576 -0.06383025825284551 0.216924329708762 0.18537041431134796 0.12917557250099057 -0.09585269676125716 -0.28131630859489537 -0.04237767369772835 -0.00014330552511109638 -0.025494222074989935 -0.04373228019436018 0.042459546024664056 0.10394297381185676 0.08238958154750009 -0.04565778670383901 0.07756117636136035 -0.0014452082771878158 -0.018727255807189265 0.04090615740114956 -0.03804029886994777 0.02939321212057995 -0.04471060055602962 -0.948585938925437 0.056516818974238464 0.008988657660371777 0.01736825462557797 0.006443541444641509 0.058837607278081225 -0.005160381694918497 0.002084705555911844 -0.11163059638870726 -0.026028803145725844 0.04472174195508101 -0.004932859390542949 -0.04547634709411896 -0.09206431196360369 -0.0925243861832996 0.004157165899031104 0.0004346661293819697 0.020258013074589746 0.033145948632810375 -0.02681633909082031 0.05466710936987797 0.07595238642839691 0.012237988884546873 0.06120861621012147 -0.008738348813353237 0.0900407253944629 -0.0862757367236836 -0.01964329953628273 -0.04615195551762764 0.0025985969042080807 0.12959723015327362 0.09466467829304444 -0.9721991173104406 0.0065742652716365615 0.021693574245699353 0.006607621649675681 0.03121979206314215 0.020577083240782154 -0.019753950850490774 -0.003601820021323051 0.06281634488813692 0.08414403256920074 -0.07529374889362854 0.03018409494588476 -0.024767925652135217 -0.03686936946467444 0.08494349273175253 -0.01693033361592097 0.00490931483824025 -0.01922238672343967 0.06543609797948675 -0.02699361011290897 0.039183508837882346 -0.10067764147517104 -0.008104959495320157 -0.02313919272780949 -0.016025811738926605 -3.9469026268424706e-16 -0.04381273013841712 0.012461492082344622 0.006695872156269254 0.059897642135184066 0.03331758062309357 0.025259566193991164
31057 -0.46964178844876253 0.2819921831831101 -0.06103246282202677 -0.08840292102746758 -0.09282312763431483 -0.09627055820657512 -0.07433626785944356 -0.11355992093504828 0.0654568301705015 0.2321643801892077 -0.093854556622172 -0.021549930055700654 0.12468687571062646 0.08658050419668242 0.13231001971759562 0.03133035469362637 0.009449845360381572 -0.10570138927836673 0.15660915225233485 0.2320073252737375 -0.14263705972221974 -0.16794583295461032 -0.05678568117053249 0.12624332865441343 -0.05956064736703034 -0.1901370983877843 0.12675106386124868 0.26028390545071867 -0.04117805151300771 -0.31915000911566066 -0.3429782589446903 -0.20261775355543757 -0.7129080454088191 0.3088012448440165 -0.004663829742428656 -0.09014511565803651 -0.04913111510428471 -0.1363606935972632 -0.19006214726653098 0.21719942441299425 -0.0430941328430138 0.035182683441552065 0.10658608288009758 0.0031549890932961572 0.02181084564809742 0.09286722672512192 0.1660716592524528 0.04647125043363412 -0.3119416918055981 -0.07761447528180965 -0.04127113638103221 0.011247939492487194 0.05057467300717449 0.0038850862922270696 0.047013529791756783 0.1421618117127373 -0.032912361948599006 0.05583923587801207 -0.11596971098557511 0.002766441483418661 -0.011446527914520365 -0.14798006803999444 0.23751175461380802 -0.06626009723579696 -0.8884397797934094 0.2773140708768926 0.04854976556211325 0.05163411876097057 -0.007089088000943217 0.05851884553800358 -0.037625468185673645 -0.04733938683596691 -0.054578063488859796 0.011124694064602106 -0.044508698472503376 0.011391392083964419 -0.029075351904625856 -0.00414408838408585 0.019769324426744287 0.09749216644690926 -0.01273503422096851 -0.02690091929228299 0.014884861960545018 0.03589460417419817 0.011258040387612668 0.01466758243200809 0.041492171868263164 0.10926966333810328 0.04250827562926206 0.0729180981193589 -0.14101679597133343 0.02909879210554448 -0.13105363061091932 -0.04442620332334117 0.013665457357414075 0.20507208267737626 -0.9402227522059257 0.185240076947805 0.10016080681719955 -0.004451187766878697 0.04767407805792717 -0.03065221535053385 0.06041902134959298 -0.0011089438504575495 -0.023587583007487617 0.07141896716891147 -0.015625497586949547 0.08901800756513266 -0.01009203304468554 -0.023843368200333944 -0.007772040181539631 -0.02234370235270795 0.08370500676768307 -0.01799855739137676 0.08585510891282223 -0.02869476782187703 0.04585554167937374 -0.0992276491024674 0.004599210434837289 0.01599048315868979 -0.04615248814799815 9.296183238975693e-16 -0.05683279007332936 -0.04410762938682042 -0.0993744539182445 0.05040792515911015 -0.02803508252668888 -0.037913600808688254
34100 -0.4934197311030345 0.28999275857845686 0.06246938516943062 -0.33418920140368363 -0.023860588254157544 -0.2663489610447932 0.07564417095080789 -0.10603909284016702 0.12230552770146194 0.00012691643987801737 -0.06260375551025477 -0.0941868662769017 -0.02380783093316186 0.06654150710413106 0.017906536577594365 -0.002950225168531909 0.0025219729338503993 -0.1501696433142808 -0.02891246547174222 0.15567588869303067 -0.14578520809324585 -0.1561458551226173 0.2223644895123439 0.09432847778821571 -0.05693252860281999 0.022272468316266683 -0.04137977354483762 0.030880097234299103 -0.47082220568955363 0.11525669985853818 -0.2057125183132922 -0.004526895995041314 -0.7240807040963527 0.21593697332594222 0.1705474622875535 0.06905418724922734 -0.15886043901554964 -0.09645506132627552 -0.15638833086168466 -0.010364789127064292 -0.14981362987897173 0.12700393991627337 0.13123469754971595 0.0252978752406202 0.24119053510855615 -0.14581879682609356 0.06476267876241135 0.1521862028782758 -0.20878762936338588 -0.15532137391314155 0.05349519865923617 -0.024166069263824228 -0.07850844755945324 0.06874265509448048 0.15191564071588046 -0.08410706404673086 -0.03847551347561402 -0.14828550738304613 0.04067249217931929 0.0943913485571385 -0.0019368135488951165 0.11202987489175793 -0.11674760460281246 -0.021665168278122274 -0.8941189396268039 0.2039384826827051 0.14069450734317265 -0.019788622601951526 -0.13760563973298967 0.1368755695657335 -0.0730104682624918 -0.04927557273039894 -0.060224678257000036 0.01622876146247618 -0.08232006777149654 -0.02859095430684596 0.0784767911530085 -0.020728503856661692 0.02388713306022988 0.024561146768370283 -0.005709188128977487 -0.08338039977256971 -0.011030621055947269 0.008356002102782523 -0.010974693173074404 0.07839989058118418 0.10261802040382303 -0.029796099454108604 -0.10095931476388702 0.0276576437768354 -0.1182943198429487 -0.06021523296150887 -0.019229256724174415 -0.015264355763975413 0.1231337326548422 0.06996449045314314 -0.9426701135926479 0.058477281085706614 0.15646363747865033 0.015941073265942157 0.06272428343714583 0.07040370317528727 0.018990565050977903 0.003949367464134716 0.04938215379246629 0.144711382940517 0.04102439227449841 0.10740493659856905 -0.013832355758392903 -0.09652504887663442 0.07257715135605602 -0.009808265598517475 0.045563393387090645 -0.059372541783227935 0.008904847984712728 -0.04922213287540319 0.022925337362505353 -0.07272367373954854 -0.010065581971974989 -0.00455485611456548 -0.019936080680766938 -2.899525535590309e-16 -0.028880145461438814 -0.0005532232608971003 -0.009709234851909538 0.07619896859389652 0.035120025909356915 0.008658335974017285
31295 -0.5015231525719306 0.10331524836942658 0.47226658590794207 -0.06455811236319979 0.29153347913927674 0.031659196596649175 -0.09244393177261517 0.023917913344276412 0.22563514049718916 -0.08851572603836903 -0.01999119502771577 0.24716799618548702 -0.23320740226547346 -0.012868992971400095 0.023584992266026988 0.047640580616528566 -0.019516154727590395 -0.023967764199857654 -0.10007161949229625 -0.011823381203498351 0.05677627459212253 0.1753820535000724 0.0650810280482649 -0.04592695379776538 -0.08716226666243837 0.1356585717501203 -0.20496244607796077 0.0838361573421703 -0.15279540677252565 0.036573245026429786 -0.2903256573572985 -0.049209345632555565 -0.7335922658191454 0.004555685762714115 0.08882241636575684 0.39819896830498164 -0.008406718642785044 -0.15409835775379188 -0.020045235732406054 -0.1414103050182747 -0.02855620133602576 0.15013353048970138 -0.002176484784018178 -0.05446961171490196 0.03609156047277444 -0.07668557863294584 0.18052912357574197 -0.09147627592499588 -0.015964297761820484 -0.0987855333777701 -0.2609319198168652 -0.016926452406450375 -0.09832235823949774 -0.11041438439561604 -0.13286769586505048 0.009218004095617271 -0.018243765825495948 -0.12716887902045979 -0.01947308488933562 0.10179662839999774 0.09709101084637697 -0.011228344636153756 -0.1007965767825904 0.10836482426991302 -0.8906440652671177 -0.008956598660673578 0.11085192589677587 -0.2638474906018815 -0.23921990503046664 -0.03233018358097666 3.0533292372078264e-06 0.024233458798032716 0.03354066950702997 0.03613974817864793 -0.05487147043154304 -0.057631243925150365 -0.0029107947517208444 0.008026656167468846 -0.15322494471875422 -0.05896057208593756 -0.0023570425369686286 -0.022072782414123453 -0.022223035983126724 0.06478240925707271 0.02072989511445976 0.11066984307229255 -0.01598968946483911 0.012387748669984 -0.02296343356953982 0.044278913139812144 -0.018744203954648028 -0.014191932188422919 -0.009263270668318509 0.04185911355087992 0.0828967377665166 -0.009978500076178098 -0.9437573590241496 -0.06703308507006597 0.05726323754241115 0.026446285166160526 -0.010116836078575903 0.2640807755790852 0.04076702088168355 0.02193836642504264 0.0033972260383764263 0.03977547779872251 0.03918344657884363 -0.0038101572240026365 -0.0599218934606701 0.03889748575542855 0.09799228323331739 -0.027722669802851638 0.010606448802680439 0.01666018035342077 0.030969871481583085 0.002961856261207948 -0.007205492978037225 0.03564796675564811 -0.027107912507558833 -0.01094040061770644 0.04959624299243245 -6.599407813574272e-16 -0.03538271351040854 0.011503301967343085 0.015773180783304547 0.02559010811090735 0.03147414559518755 0.031212154536257624
30977 -0.4433154340501127 -0.06535916271400577 0.26370492997584144 0.15680921769967665 0.06205036076867024 -0.08852064040989567 -0.2708194186391533 -0.16158608301890215 0.12250854233301225 0.3524121983734453 -0.04305833205150251 0.08639649245315915 0.05873827783323145 0.14063321827245093 0.11067575894208243 0.005945499494395678 0.16501447765900712 -0.0826127399427798 -0.20197707208805346 -0.13823168645534545 0.30698222807857595 0.1305851968755789 0.007550641321322883 -0.23897426837076352 -0.08089800509575056 -0.21249563088866052 0.14106123732843848 -0.1782877977153684 -0.07137375903884399 -0.12056119853049523 0.08666063265371785 -0.13023337545529634 -0.8394096898279847 -0.1538445482952218 -0.015128597739120897 0.21297564763735374 0.1593261176405404 -0.06626279481630667 -0.19785957582230015 0.07728447716751383 -0.025701927319620142 -0.048054145820897384 0.13570918587616768 -0.16809526224063334 -0.08410514992017191 0.12829205345690292 -0.10035459302684002 -0.02513511626754768 0.046896497931485245 0.0437441728193046 -0.06635579631203592 0.01909981754503451 0.004364827244292977 0.01623966199752172 -0.07578649297261385 -0.04749041400384702 0.09513662800308618 0.17115639819014536 0.005299589075768521 -0.07042873938574998 0.054985920909884765 -0.020824875215697824 -0.056914134686300986 -0.012967279401042465 -0.9367970480048214 -0.09243770477679256 -0.02403827031267215 -0.17757998182080004 -0.009813223466972092 -0.09544548124400379 -0.021957996966934564 -0.007574448044330049 -0.014132045394197918 0.026304184222549383 -0.033147127648824104 0.002348361265839293 -0.09137413139743247 0.011083291080566729 -0.02014718526507659 -0.02166588223641684 0.0737916679417084 0.05361614706415078 -0.05558937822632108 -0.04470849916077267 -0.04778244157163623 0.09996766782745627 0.04786773865478098 0.02095620059364777 0.026305455955300858 0.14924160798744288 -0.005611970676004028 -0.006060332026450332 -0.05740904579501932 -0.07682207558523436 -0.004217811028685957 -0.0007483405139020163 -0.974447378234675 -0.10657254300541744 -0.023589997596990278 0.02786481089415016 -0.07819674881000369 0.09588497886095762 0.04562667270676258 0.003183874814591935 0.05107422803004061 -0.02872839175828415 -0.03136490544964104 0.010354952042707229 0.044451407163575644 0.06188119869733848 0.043618774929381134 -0.05273321550996273 -0.031953950756315595 -0.011028913819417105 0.010266345280414993 0.0032606263690631914 -0.0015589676890798707 0.007681987902897315 -0.011195589470716114 -0.038628923120451714 -0.014261221673304292 -3.6012304600298997e-16 -0.021243589011444436 0.013070790494398767 0.02864130767765108 0.02469190260890797 0.0035399082171565194 0.011909268756521423
31703 -0.48469321224586115 0.14924014443849556 0.03910426628963481 -0.1732407624311675 0.012932306213249256 -0.39059793213358757 0.03557125357767924 -0.1873456616556819 0.29364744375841145 0.037075625670620165 -0.018834888598012415 -0.06802862290837826 -0.07545054784167718 0.21338951898888253 -0.2318103617075409 0.03743850056168465 -0.1485184671339963 0.01490382910413369 0.09909137266718071 0.24546820949620193 -0.16273041521177128 -0.0887399124718153 0.012653907770122475 0.023049406869552494 0.11768822750329624 -0.033198585917245636 0.08524401859083498 -0.23795042879219871 0.002899755645345954 0.15266051987799978 0.1380275380860269 0.27313590118274544 -0.7817101631485736 0.08031055400010001 0.0423513449709343 0.027709970105681755 -0.08249424416996953 -0.1391726973263017 -0.17405669653563816 0.07110589539911956 -0.21705842843861262 0.15120020892007116 0.15711460643127417 0.04352745068013022 0.1506702936123448 -0.06738802235594989 0.06479114955507033 -0.05546079908449678 -0.31304311173011445 0.18478351081878466 0.14027252922180777 -0.057664210869930926 0.006031936386032618 -0.017101536620897653 0.05104166674610162 0.06118225181840167 0.027710620712082006 0.1336531867643994 -0.042153367736496736 -0.042716049742797586 0.009644707821319575 -0.04238731015744451 -0.006508744640284904 0.036542050263380595 -0.9009790889587044 0.10296607432286238 0.050850819508471305 -0.004551528596037676 -0.06471840692702262 0.13171223714807737 -0.031471980129631455 -0.029009790965546702 -0.010372200656983077 0.054940463076286056 -0.18974781705428873 -0.016796934253105047 0.2423565068353702 0.017868896968661185 -0.05541327463914424 0.05960471510515709 0.081128648798842 0.06712169020340192 0.05128837024567435 -0.029674489619972544 0.059719157217601064 0.023492013780397447 -0.055049362580089044 0.011185737175431438 -0.03132034667770645 0.11422294527544044 -0.06666115586855911 0.030094316670704876 -0.04124457014696539 -0.0039407830841284896 0.004021717898370625 0.05988049913417577 -0.9524721771819227 0.02127188254012032 0.06746899770684686 0.010759926477513419 0.04375219995984444 0.04488628903198452 -0.0012138506765038712 0.0017735919358156935 0.0465366494870396 0.13024070266465146 0.035667341845507614 0.1491473614725696 -0.010507356898626617 -0.0968738076717888 0.10050732668852883 -0.04188939306621668 0.0830305132268117 -0.05441626597886789 0.0556479112421396 -0.028848697006286245 -0.021906394298504935 0.00402039520497994 0.007629501708691607 -0.02079463757819891 0.011333042062798695 -5.126268943753499e-16 -0.04025616181301066 0.027253398309586684 0.018703352789301502 -0.014478382294983834 0.03425980628673474 0.02739078298513503
30721 -0.35652292428720445 0.17504501849750992 0.06202874554605512 -0.17076821494487168 0.041574549106555475 -0.3078907979007046 0.09914590733517391 -0.17668441858987588 0.2255425492213351 -0.19008031110717233 -0.042008943536149174 -0.13316058444108722 -0.10076617377507154 0.3142958261866986 -0.3736765337847821 0.04326273002471342 -0.09635570965079496 0.1057379367779875 0.23958540547036608 0.10039496075998007 0.10000454412537169 0.11856312836628591 -0.264612515622708 -0.2063945780783505 0.0010527908300672917 0.04462060312131061 -0.009365000534875191 0.13305609446996378 0.1970557506816242 -0.045866905319393525 0.07410979921389706 -0.15459054621752696 -0.6578890032091206 0.16725230716913647 0.0990211023571416 0.09050859465096123 -0.11244575697305742 -0.1644266114530822 -0.2574245939262791 0.28066449403899396 -0.08150670591387475 -0.033968671266630425 0.16715865836550325 0.008526914065994136 -0.13500500936657892 -0.2708767459068059 -0.12023972129796971 0.1009247671193316 -0.3466631132208152 0.08454975374368338 0.05691120384117797 -0.005192511269132153 0.009545892023199068 -0.07142727478896967 -0.0781037151508291 0.05089004507573356 0.03906108460230654 0.048019887090490564 -0.004541880585918327 -0.13753051500812286 -0.05392808342983843 0.014410175693938492 -0.009542368461691526 0.11827516127185733 -0.7858684814181435 0.17017698234976422 0.10805254289178007 -0.024459319292318746 -0.13052908879826072 0.16094466958522913 -0.08360744197971622 -0.06604952593175749 -0.08233864473707272 0.08129335510686568 -0.21194750651539487 -0.04212778298303215 0.31691425410298224 0.044105937995332856 -0.040287408274201165 0.008347999627489158 0.08654084362390174 0.060164830591766166 -0.029261446044948573 -0.011673900906202688 -0.13526014897596197 0.014012173555381166 -0.23702213766360433 -0.0021912302842834446 -0.11316186170192644 0.12089279674429142 -0.02512892392221085 0.053768219465191044 -0.06382421564372447 0.0029646896157934847 -0.02656826431936521 0.014720982074110342 -0.8940615435985888 0.05653587383155368 0.12731257713564068 0.028042321154393608 0.054269233983272595 0.05548594028045658 0.08691063818300945 0.04063590083849739 -0.007109020363003198 0.17361196938041268 0.010883536300185194 0.1904430028266811 0.1352556243787021 -0.0905795583001231 0.026409675674980666 -0.13332573326485664 0.1407479830953544 -0.0490774691388504 0.02744039767685542 0.0027663447916844905 -0.0514796923108497 0.0698008356688548 0.06374121356530009 -0.030419008164266848 0.0761126579549787 -2.2740689510842725e-16 -0.06818395054909819 0.012021220098084739 -0.026234232577033754 -0.0386754276473244 0.06750077386931427 0.029440396184728677
30529 -0.46976606285601963 0.18576715262597102 0.06664520719463496 -0.29355550145157033 0.18688182966905953 -0.2334076256258166 0.31210194029136623 -0.025057358508240153 0.006998124623630076 -0.2723491359330581 -0.0963694514771647 -0.12277450167653041 -0.22160026901451474 0.042228762089238814 -0.007398543530348939 -0.025513805002797527 0.14188599838051408 -0.19039168113155364 -0.0882782356843195 0.0700467396515488 0.01796927064573545 0.0005063456864599728 0.14949242385637293 -0.00826964348498245 -0.08959671628010984 -0.02413909635061667 -0.0017223043552494135 0.07074671947328265 -0.39263248409356705 0.1082068894552159 -0.20244128380315826 0.06546526684899666 -0.6290860525139096 0.15794302779888875 0.27052308160825855 -0.019016581661851047 -0.16005120983119756 -0.2829344574629956 -0.17906829788978734 0.13799321353627578 -0.16888984826253123 0.09507331206809566 -0.036811529711464064 0.23355466643237535 0.22311632364724815 -0.09663237467578578 0.001613617470009814 0.01622120193805845 -0.27381285512528386 -0.1521954293334401 0.09647995395790782 -0.04792349492709221 -0.03493908201732385 0.02896930621856998 0.23625232334571414 -0.017218705021196136 0.0368965296594118 -0.07041285771717581 -0.010386611739774747 0.046944377488520525 -0.10714675881258458 0.07222417272103342 -0.0023580395198020644 0.05373628446242095 -0.7915202389872079 0.14453959921640036 0.22453391668005812 0.07758327683227316 -0.241102338299692 0.12268051469382107 -0.1423733904388065 -0.1117304821978402 -0.08560921105876981 0.03541600969942958 -0.17012070560676412 -0.010706950502680968 0.2326080853902235 0.11955645577244318 -0.09592941793613204 0.08939289573777635 -0.012075215169951307 0.039253089548166115 0.08177447088369494 -0.05095329001707127 0.017350545641429228 -0.023326357229216083 0.06420071748048896 -0.0701643240939205 -0.07869353635523793 -0.02504834248772416 -0.08286334022014955 -0.05644486004957877 0.07042173015582136 -0.009076616417904465 0.14948335280282163 0.04339054395240904 -0.8683121132637831 0.02342000456850493 0.18617225132406987 0.025993618531489363 0.1625348736051664 0.039835420258103466 0.1272046153733939 -0.0007481952849930184 0.0864378715419582 0.19961390007786312 0.05484669219105842 0.1837418687078273 -0.048584861545801036 -0.11920316602519687 0.11005501203153788 -0.011784190848282595 0.14882905369443078 -0.09698967085076234 0.0583527875293871 -0.08331260425172571 -0.012935832945012608 -0.0745407967222991 -0.024120890106533722 -0.018544569487940733 -0.02922321077654861 -4.218010821058938e-16 0.027778650773036838 -0.001690906372720715 0.013196996628651257 0.03482322256781466 0.031100530509075672 -0.022834228971424814
30198 -0.3490703656005208 0.20131368967145644 0.08493395674961703 -0.1970883925834622 0.060301280763842044 -0.0973605302045025 0.16283040950937117 0.1258325131043796 0.022469219781439637 0.2328350371958934 0.0778925975158738 -0.008437545451435437 -0.005811206019904671 -0.39961948488127874 0.28448306328994244 -0.24001256531368292 -0.3553115059861969 0.06026473232477164 -0.039017030405783644 -0.10080913470033545 -0.04880900868250554 -0.10105597393664012 -0.047899292413293326 -0.1096977541367205 -0.028307300352214636 0.2451524958161529 0.16459918126392317 0.1756351407456499 0.16696217214782888 0.0018723504830589813 0.24842384075110738 0.007691928974342762 -0.7707791217536041 0.33932231534216534 -0.050539141691425926 0.024167478377412822 -0.1580978883444289 -0.051688145861841256 0.17968117949388265 -0.047114064752640225 0.022709042652522448 0.004444835379710599 0.18487861103588224 0.0024254894225236344 -0.0731197893075976 0.024642495845206443 0.10353262019254562 0.20334483002791914 0.009952510276858973 0.16498541747935586 -0.11986278654284584 0.06569338738295118 0.008468093746016366 -0.008170873538005914 -0.08831184731574321 -0.10825351056103685 -0.0296807770805612 -0.2115740642207396 -0.035795066443967384 0.010064952915070527 0.07670082690391852 -0.10277070646681734 -0.05523296889692464 0.022930032032298226 -0.7487406501667716 0.2514042795947517 0.06653397463356049 -0.01917737657825778 -0.05919475132185187 0.18898410585776826 0.00147221698702114 -0.007847514429545451 0.09632405104705909 0.00786777491004284 0.004287810844389726 0.012530039588080678 0.003271839033159093 0.026429197999855734 0.04083879310545539 -0.0022344603627871755 -0.04567111472450908 -0.22613326952056403 0.046768470928805116 0.09840447251344665 -0.034298617647818046 -0.03950333521209651 0.44572868916465935 0.06163847598125741 0.09329049678465301 0.024064962104582983 -0.05913093615266347 -0.04153647256105091 -0.030343548022305416 0.14855252767794747 -0.08483882315319145 -0.07221563353629924 -0.9497366556151805 0.20205863865928494 0.10320887415370711 -0.0063874868115132676 0.00553173189340346 0.0006679116563089483 0.006296209741460955 0.008739058570960754 -0.08835791463466153 0.0693176034029006 0.07803458863618096 -0.02311257350966521 -0.0027269844107553147 0.003526248156543168 -0.05143127955177864 0.022256166333594198 0.017393153285105215 0.022198979369723325 -0.013666048906603731 -0.016291460546718976 0.01838446889520254 -0.0008452986405425795 0.018993043397887197 0.055146332317506985 -0.04150557960955306 1.4901377083072013e-15 -0.015263903109921624 -0.06788612660488186 -0.08729498873081197 0.0202356358043156 -0.06294108758350114 -0.019821405661739695
30434 -0.32546238120007676 0.25808000860720404 0.1432730429864901 -0.25613845487509584 0.08161650926764942 -0.25099955204950924 0.1943028807613998 0.07530732713359772 -0.1636267492939826 -0.026984215794186514 -0.011312332220171188 -0.07309078292542122 -0.11861013830915876 -0.14647526394872284 -0.17846737591270267 -0.0128402864048711 0.2285707358936788 0.08624965825184999 -0.23290340640536622 -0.16817301750584648 -0.051553948938664926 0.006702106572315032 0.3725129018757564 0.25087917781999286 0.02715050396676188 0.12755779648233168 0.02496854465012374 0.06888695920451654 -0.05768992313246065 -0.33282176627738463 -0.046862739495312146 0.20602634034889217 -0.28596731209111453 0.3089981239833605 0.06940799743261457 0.14554887592119475 -0.4552208108049596 -0.01319762640478996 -0.00878297241978349 0.12095838481143464 -0.3002128481200204 0.08598305885059311 -0.04898478371752244 0.1475744651294497 -0.15154025033295176 -0.2322485668161936 -0.09248473705572206 -0.23059529119266542 0.2645593464848664 -0.22130658512813403 0.07451377763993161 0.18194096342008756 -0.06309977430637809 0.03423437118937435 -0.13850788570514885 0.025414433382112207 0.045173081820061634 0.15380418204499602 -0.028261441700630833 0.02003419859577755 -0.0792761229374485 0.22505008984141456 -0.028331914587694976 -0.2169431177916265 -0.3072171437186322 0.4064185165894776 0.2286560186329721 -0.09701617450400853 -0.16709127324577666 0.5174773017654807 -0.035535138268657916 -0.025577707050680618 -0.049914178678913255 0.07498162000703784 -0.23261682115648288 0.002427705144100084 0.14802259749806063 0.11622878538494548 -0.09335543061296919 -0.04410873887481213 0.035731356208402475 -0.11160463786721612 -0.1515399450597454 -0.03393072557856202 0.048039652643317006 0.12732241361969765 0.16750025499911886 -0.026998598076812277 0.22588047744761755 -0.05148245119152311 0.2764418027290899 -0.07066606665990184 0.18234211901235098 -0.02137550952096045 -0.13653322473959087 -0.015191576109579259 -0.34384535401570954 0.31175394538452295 0.48204302171499563 0.020455043108021147 -0.03595302567675562 0.12412929371917783 -0.06466804707292825 0.0564015071820422 -0.1061884004064182 0.574334244938915 -0.010517689494447417 0.13844388180791403 -0.032224755988814795 0.1449734382689665 -0.006607081301731862 -0.014371141901549206 -0.02924225218605193 0.09292141526620465 -0.07207202874167995 0.09217655923947425 -0.1109487572825352 0.2512672292408209 -0.015613205376770958 -0.11934282409903295 -0.07852166317130672 -9.02198484040186e-17 0.004990628880331314 0.040553594245556636 0.07522630344652925 -0.07036147934027683 -0.06494500081786 0.09611799153047444
31577 -0.3209254279255956 0.21936137804254224 0.17358069961985245 -0.29456253089838663 0.14408376640617704 -0.19692240049391865 0.20662118165072596 0.15453945503042427 -0.192892615983009 -0.22289713839889638 0.05606212911764523 -0.055073671545831634 -0.0972251156576306 -0.1847628019837999 -0.09626249932075069 0.06300484328394622 0.3827743144256828 0.09917722808449775 -0.21308153458308032 -0.24568964830377488 0.13442961631583047 0.03505160566906322 0.03378052762843154 0.23651616492566216 -0.052333285565336604 0.01126230365963036 -0.011987984684699362 0.2268137460310637 -0.14251813967247384 -0.08071077699214735 0.09353753413544563 0.16569493447637496 -0.17646494290356035 0.22722659063136774 0.07249048196951544 0.10134106174676277 -0.4047742272309244 -0.03501581089346405 0.05131538084684998 0.09833828222633959 -0.2899456569380787 0.0542268035679665 -0.1284327753107164 0.21929863835646246 -0.15884135642415112 -0.2926104332553696 -0.19927236339193796 -0.34296370179955293 0.30495617335003183 -0.2682808468689058 0.15710354133275994 0.09918138839286521 -0.010592232857044848 0.054690612285627 -0.08296859024925589 0.13190479015468165 -0.08054728728305559 0.06225956906443663 -0.008799301142060345 0.11647571778864625 -0.06823580130814089 0.1883766777381431 -0.0058344813123183585 -0.11614251837352109 -0.10830488011993422 0.17238739384868973 0.11561962669722656 -0.0306161399143936 -0.1596247660169225 0.40231134475266506 -0.0721202350243343 -0.061702853994860356 -0.02922338630918218 0.10644368199229874 -0.33997714967823583 -0.012544992169605562 0.45180589120632353 0.2114025504129949 -0.11576962761139266 -0.09606546723658131 0.15603820116885248 -0.008431121437216737 0.014091325262245633 -0.0788158595797123 0.0486155735548125 0.005542173178954857 -0.036459553323483884 -0.05794792106519627 0.16174015120386645 -0.12649262579216553 0.3933777288735806 -0.025428466044359253 0.16013014884826784 0.09301129500975608 -0.14464124161817715 -0.2405197172655271 -0.06093691592551991 0.0711655295869067 0.1358359507767046 0.009637830015112508 0.020772399540224872 0.036147967915073305 0.00023146817509996347 0.032624302061860386 -0.04615606203553385 0.4203863031853995 0.07672228703961487 0.2936059847990494 -0.021271886745942336 -0.09614724382329762 0.07075876845722799 -0.046959776830441696 0.1435933027471096 0.058346311070368174 -0.03568401994163982 0.1744801685672657 -0.2658920506494876 0.586654410041797 0.05466309575243061 0.08950540435030278 0.0665945273974912 -6.55138198003402e-16 0.2619560621781138 0.07620684325123141 0.1452240260761089 -0.18901338689985242 -0.2503480201449105 -0.04545239752302735
32070 -0.3911973236356096 0.3219047469980314 0.18088643950606728 -0.24684598871696475 0.055345191955528845 -0.20414727567194121 0.2882121630776335 0.12276979695417536 -0.1480499843590851 0.017822567712532596 0.03016754838446302 -0.09951240667066265 -0.07268838540860804 -0.4045294297321556 -0.0895672634862735 -0.055974238172656204 0.025582963763394355 -0.029761598056356052 -0.1601547161220841 -0.1820467834151298 -0.07516570871110177 -0.2829767854282895 0.20969128748794422 -0.03542542314494754 -0.04554355852128686 0.19562021992959205 0.08490991505258164 -0.013253281501265464 0.15843968112081286 -0.0986060033136802 -0.13659723976569618 0.03442522512551013 -0.5763258421774843 0.5429599945597381 0.039726900691698055 0.20341638937154222 -0.3327355510848449 0.09935786541068006 0.05833309228040321 0.06799422671944923 -0.11767853350532757 0.005588861633719174 -0.1265116266036447 0.1187596260171323 -0.13462597478416088 -0.0707877853354771 -0.027331654466607857 0.03642862946527692 0.0853274332112559 0.17656143982826558 0.09799166720724768 0.1344346716736212 -0.13223861547610608 0.0018343247031215168 -0.09842199578809438 -0.020839358452173537 -0.02345402283427606 0.004794098665562721 0.08141075280123322 0.07471001680231237 -0.005846857498115601 -0.08074917029888212 -0.04644816156186533 0.13054582753565938 -0.61519323681138 0.514969523625689 0.19888435939279236 -0.13994435137647396 -0.06535037967725603 0.25097486034020733 -0.015302700720955496 -0.0176482294791227 -0.017062485754755094 0.018331888078557963 -0.0870688624541815 0.016309788917399887 0.08135038092769725 0.06343620327535887 0.052600254756988485 -0.08125046223924683 -0.08064625727506379 -0.09759336851013244 -0.09655362975924617 0.04838462971598468 0.0006107094581181507 0.0272774246092526 0.29754596555814805 0.023600378914219147 0.09041894827853209 -0.07313861051561096 0.050639546027972715 0.009047396872391861 0.12704193881212691 0.18149445793546407 -0.1264190655494619 -0.04642443145715924 -0.7764272138274068 0.40947935131964663 0.3558157292611994 -0.01402744387747722 -0.12320545428729021 0.01783032388452923 0.007075580806787933 -0.019319741124542752 -0.017717280831274527 0.16386110408544213 0.07847713153251422 0.04091995514386609 -0.012702038839972226 -0.008235005284960548 -0.05136079894397272 0.0671292015656643 0.05030505547939318 0.04035878168512024 -0.13888364146384766 0.07117553457296241 -0.04006695089428825 0.04338228729856392 -0.009925238965033651 0.011519786288318679 0.0407663258103176 -6.24378903911643e-16 0.06035676230139074 0.025985723881873268 0.06269242266589029 0.037151590794389615 0.012353553514474131 -0.02679929339821886
32467 -0.47314004870642035 0.19648720968902067 -0.2421722077708758 -0.07739953476129313 -0.12262579173883646 0.04339118028766239 -0.1588038648100842 -0.09823851811909501 0.19887877196142847 -0.34124504071823347 0.22589813285073124 0.12721519151137844 -0.0006777803237211392 0.2227369542761078 0.35889409725164223 -0.05254816202093954 0.03261651927911781 0.06450115479888108 -0.18392977607928485 0.017583065110068803 0.050494934045645416 -0.01126988318355283 0.0034759495848804135 0.036115098072986844 0.0004857854538691562 -0.037440080507870316 -0.10396498255375151 -0.17023058917665154 0.21936844393368538 0.20625505217224055 -0.027817259155177854 0.20181036167596605 -0.8107807140725427 0.1834668577177031 0.15794843598732425 -0.19715557946660103 -0.015893939424675953 0.0467403829416584 -0.053191571546176764 -0.11793763222230749 -0.15320675703786385 0.09957930589867409 0.14741494817670062 -0.16385487511217708 0.20909450086951906 -0.0635896087465257 0.038832702120049314 0.041761229400913626 -0.05525509372191087 -0.08080876482463611 -0.05656515320062177 0.02047134127657345 -0.03897087475504237 0.08146766483125206 -0.0961357164583067 -0.1467491935007031 0.06406415904018538 -0.09375944200199014 0.12404728211325154 -0.06468163791349227 -0.03968828273414304 0.03343064349269365 0.07176230250211826 0.023504665830850646 -0.9154080231069528 0.1722042436858685 0.10174721085890402 0.13427914065039087 0.015412189031445814 0.0790772283712468 0.015658826213311685 0.02213144543560222 -0.002671894720609582 -0.00034818938726978617 -0.019857158453643855 -0.0251962335754349 -0.019958161116552783 -0.1344149268980436 0.020512864057434126 -0.0618146486947839 0.08878070981089616 -0.07165908721605853 0.09618287758531412 0.07709619411361587 0.05166023213009576 -0.08831946425500223 -0.04248577667442102 -0.03402090019635966 -0.0759778916377669 -0.03938172451926247 -0.11967734268360271 0.019265866269925557 -0.0710339781270266 0.00919355197899813 0.06454188640077232 0.00798725340412454 -0.9734447709785434 0.04374943281871358 0.11688481962327493 0.012464914980746542 0.09250814355595022 -0.02925891540066418 -0.07033322907308481 0.0038727923384889993 0.05226812133846884 0.018753853483919294 0.006601043755066213 0.027894532479430023 -0.011992712448421157 -0.043973860191231305 0.05204165819390586 -0.009773676035078649 -0.05757300447618554 -0.014572394057843035 -0.014486245740860661 -0.02930519112423333 0.027885085021624744 -0.03131744559473024 0.027792794472298647 0.0026733443275486542 0.02596644683158532 -8.226056474079233e-18 -0.0578514975130719 0.013162683454532073 0.009814378211709109 0.017404167608344238 0.01161153899292092 0.040614527391701384
34082 -0.20163196242168033 0.14979216163390785 0.17849659632103893 -0.07101769534411255 0.06182703604532648 -0.008610975837647198 -0.10866118084930099 0.05634070973069572 0.01184154772793188 -0.25417816775614527 0.7335157214394094 -0.017608271296886274 0.20392974871851502 -0.09385865168049236 0.048963805215322925 0.015396633435366687 0.07798520700761477 0.16268901133943658 0.22653567858337478 -0.15786070967338886 0.08856688627301727 -0.00831484940763425 -0.22386513236120842 0.17719365768601886 -0.03400545326850249 -0.12942967678386036 0.06190544453661027 0.059987390667186787 -0.016189668526440635 -0.02512071464752644 0.023210374467429063 -0.00230674066974439 -0.25638105840815645 0.263172762640412 -0.0004711895440778241 0.3018017513110472 -0.14453433080990316 -0.10335330506901182 0.06342086915578943 0.022035483272205142 -0.16359581016531077 0.02492216472563473 0.08181042348052325 -0.009605793999135357 -0.2150107703812053 0.20793325535953355 -0.013559976791829024 -0.13196786523159532 0.11155290774465858 -0.3412451505448102 0.006773671905545625 0.3103305266439923 -0.2509218642079399 0.23888633324099237 0.16310224915641441 -0.032906959075352266 0.11127568857954072 0.09374628649358069 -0.3598499446412949 -0.1044172645582914 0.16870221078009076 -0.07796362790597547 0.04048730483712955 -0.1609621958117357 -0.18586054421660406 0.22154732927790666 0.11125111186756925 -0.1317605943898946 -0.11375587542887819 0.21915109936565874 -0.016393433862930767 -0.004221725887510341 0.07822848774990197 0.0525796505507022 -0.07954076268217561 0.017175884565635225 -0.25776279281122894 -0.029241101562999812 0.1285964207312559 -0.4747305779201919 0.3788985589425707 -0.14971947347612924 0.40627658350608525 -0.141635750260391 0.023843983795837326 -0.21212731745447666 -0.2531963684507673 -0.033492185157981164 0.07778582278512598 -0.13412821557023677 0.04004928040264055 0.01989634158168232 -0.02058132124437378 0.0805097105728947 0.058013649518310645 -0.0496187994092763 -0.2836917447969829 0.2603506163480988 0.38701777896805295 0.015672905713363376 -0.1361566007720127 0.2576519205098418 -0.008911522131012211 0.04087987576859027 -0.095782491385619 0.33673147612255083 0.055782445464120665 0.01980703882817297 -0.05761919506543639 0.40333921347281204 0.014616430188360598 -0.032140438660268 -0.11994396570846239 0.06904746865736766 -0.023488275237567472 -0.009650658576029675 -0.1508857690869274 0.07503404844611929 -0.03532201598314145 -0.2585710481478467 -0.24814006836504293 1.563191079423607e-15 -0.12326808491295309 0.10773695492725716 0.07327694167637726 0.11853135922302911 -0.21737112842771236 0.2244360941142289
33195 -0.4853190802545274 0.2907294214911335 -0.12476379002859868 -0.0824606946929859 -0.091365035170103 0.11042496411999722 -0.23289555616140373 -0.13124370713344066 0.19545208761270216 -0.31513332517559983 0.512013569186203 0.015067218339703049 -0.009569534942827836 0.07891728522868398 0.2970275307449205 0.0034117090927719904 0.05266957899232375 0.017699171249852406 0.03982625239169543 -0.16209291692227798 0.06698231236386389 -0.03644236187894025 0.05982598360712779 0.11299248675302465 0.0007808485344311042 -0.05855304659134415 -0.03801624513542957 0.03592441345674251 0.05320795527257902 -0.028822884600581824 -0.06837874980742013 -0.059215662725783595 -0.7219794141935869 0.2525846089949705 0.18897736876958626 -0.016822242968787662 0.056341456410655806 -0.1270280090120137 -0.1989683097534188 0.17471827862917316 0.20551585295631364 -0.15995635522424995 0.16245967495409683 -0.12193821821869251 -0.197459811955436 -0.00044197696918129285 -0.14336381510852192 0.057135258996800116 -0.07141121307806848 -0.07287388275954758 -0.13080722327156796 0.1515597884336836 -0.06123121208728561 0.00555131593637459 -0.10083459425290513 -0.09648915187622122 0.07358662844262506 -0.02712068763582973 0.017629777032756703 0.003356250365600322 -0.11689758396442274 0.01111064769846983 0.15362687828058885 -0.004655823394873378 -0.8839889053601099 0.2136307614643078 0.1625169285916 0.044656979600127614 -0.08385767560703072 0.023167270675764223 -0.04376571425593514 -0.026491439243835447 -0.05305802188717596 0.01711018269784956 0.04433668308498819 -0.020190002711326944 -0.09398697889634178 -0.09811624379342826 0.06634604407266446 -0.07803934785681223 0.14244154034694637 -0.0818212997173269 0.12105614908768952 0.002663884785826792 -0.13974590470758827 -0.12473443311036225 -0.08465913599488921 -0.008294414303849248 -0.04713875907183353 0.017947095825808453 -0.09614318975629588 0.03619562914188017 -0.02401534707448857 0.016179033897836866 -0.04465390905865592 0.00019200275486874502 -0.9500915163709104 0.06825336181254965 0.15901524925560628 0.032909606626889104 0.07697281597706337 0.016885401589797212 0.07808121968051956 0.03492081449139656 -0.00140062389664711 0.008447853279864317 -0.047879637330707735 -0.0016459403467963159 0.1502764275052813 0.03208425953766072 -0.05071368533504719 -0.08125161929241759 -0.03598754963712459 -0.0065144045496380735 -0.006179058246336731 -0.022771684269813235 -0.00028965439903798346 -0.028010249835657815 0.06051810085519862 -0.05593530133328998 0.043551671785610105 1.337095722039082e-16 -0.059394554673026186 0.008789582122853822 -0.022528386190572465 0.029039625428894676 -0.0213046274065537 0.029007933908513816
34761 -0.24951804617417309 0.17021290265539796 0.17840985408595705 -0.04522243922315718 0.021582665237396263 -0.056494821614309756 -0.04189769159013766 0.02941683276499421 0.08114785561392326 -0.15121972621674365 0.7325109292448581 -0.05935130191393987 0.2025238872503461 -0.12811728652574086 0.13220106711933632 -0.0817628466090627 0.049054983578722754 0.09668910040564567 0.08285071754350636 -0.249136335448492 0.14624838256631906 0.022296697338038386 -0.24617350336231952 0.08010065226454317 -0.05333814741871466 -0.08742743286425705 -0.03135508887047422 0.09352418086082295 -0.010269033386393915 0.07876245774238372 0.061860490033769346 -0.1324000062438369 -0.3616616866321802 0.27216845131537903 -0.07746897861146776 0.2978717437556621 0.06301584892993424 -0.012296024738157158 -0.09611672038853077 0.0042539390693025455 -0.09640375655993011 0.1405544517013757 0.21892545009272232 0.10355330542362155 -0.19076677100758904 0.06915154582733767 0.06843943292525065 0.06642673295920387 0.18304032706825948 -0.08683766888586884 -0.046218740891880515 0.3768239651797086 -0.2243340728677049 0.3982720254058691 0.11483245584004043 -0.043634519441467054 0.10995186580470323 0.07930168800035894 -0.24679024343669484 -0.01824934316912018 0.07390589053680927 -0.06169995382774584 -0.19425157940057386 0.11494804462967848 -0.43725740691108256 0.381763039140508 0.1258292320141818 -0.2556235015937311 -0.03974733516087951 0.12747197036859478 0.027498773194017778 0.03278455715189492 -0.024012900834830195 0.015573934862146513 -0.007768174348023328 0.012894737479655496 -0.16849380529967778 0.012714241407833473 0.24729990012381536 -0.4334514718164978 0.2720631784766899 -0.24803790833621964 0.23724093178629252 -0.13360099093868208 0.024450979188699866 -0.13793586131754293 -0.06502698090219902 -0.03668280883434331 0.06124457588634866 -0.017482356290202176 -0.027248449155750754 0.018372080578538234 -0.09290527340966534 0.15119897621405004 0.05155211532897738 -0.09712340470061899 -0.6607843062722479 0.39395043624670883 0.3423678058948925 -0.011426885604690044 -0.26269673920309483 0.19268660005303762 -0.03604660877865595 -0.0016229018149224795 -0.025937880547101663 -0.02899967277027678 -0.0031729230632922332 -0.015341752403197217 0.002520908322490766 0.028497771018644976 -0.05911055131516273 0.03706393726697216 0.047748573700243685 -0.06336192890557756 -0.14956807509669412 -0.004879631577507045 -0.1764155718023429 -0.00808630958488439 -0.029764568641124967 -0.19205093188567174 0.027076284123892708 1.0033629158583943e-15 -0.1244001106369649 0.03043953275806634 0.1036231545083589 0.1683391648128875 -0.14566035831368163 0.0293504105336446
34711 -0.33576431646012256 0.2559394323215012 0.14431036745347595 -0.3324854747338695 0.08529190105101449 -0.20985980153641015 0.27273624009349556 0.0873999293865218 -0.2620351397370819 -0.05725002442914743 -0.0448817083054741 -0.11442428811835227 -0.05386538573397944 -0.3111138798308376 -0.14100039634702202 0.11290821950040998 0.2662891921545412 -0.0404774027857586 -0.2039487837649105 -0.19945992435267887 -0.06718840199708632 0.11467011982167344 0.30705550348228783 0.09880975711611449 -0.14301637852704777 0.16606733075598798 0.0811344185502217 -0.0745605313118966 -0.02593211947787651 -0.02761443990845602 -0.008718595157489425 -0.01878281743044567 -0.2516962147291135 0.3133658301268865 0.11095887174255688 0.13685949660052876 -0.5212064606115885 -0.03218890795993814 -0.025591153935489053 0.16963217920004958 -0.24190473131725587 0.041980197360768426 -0.1814022889159011 0.25865234210890103 -0.13160325016120808 -0.24515752784359243 -0.17984102384919148 -0.2959851547589709 0.31886795000362866 0.07573091662804829 0.053324675099107446 0.10150588258894737 -0.026712374843447784 0.03150013994169511 -0.09703229118193402 0.04183256433485131 -0.05604594325400654 0.018594666991909297 0.04033169806688898 0.07009412373368691 -0.008915868333083818 -0.001199197093961493 -0.058936931825694344 -0.028553821676953448 -0.1824141592403797 0.26068501596229127 0.17347583781954712 -0.014044410075446288 -0.19855097001086186 0.45445742030076125 -0.10321929166123277 -0.0893173362106571 -0.12743407764755632 0.06774761016017472 -0.23462838570709402 0.004736567592312448 0.27231137369298847 0.10095478471404369 -0.10040253849163062 -0.05799258888048259 0.041809447526628546 -0.18477580334639918 -0.16194069771565764 0.045432744099431606 0.030038959320922584 0.12463520438135775 0.2252280652940072 -0.002436298240265515 0.2812585648483857 -0.10245050262433952 0.28555569893656396 -0.0742517841986765 0.2400617161045099 -0.03080745610441905 -0.23535165940618677 -0.09068759239554687 -0.16648500496527568 0.17417123844496885 0.3099547648522804 0.018144552679924302 0.03475046114770487 0.055056181311056385 -0.002241082432603925 0.046670488892794675 -0.06654687281198307 0.6102622363213196 -0.04583098715970228 0.22537340203058634 -0.029864195817967256 -0.0152881562128423 -0.03189590224143568 0.02859361619889673 -0.09576782896196818 0.19526280119455644 -0.06347365147216234 0.16116578808463414 -0.17351312469625343 0.4246431915061032 0.03191941211587777 0.03343942525918855 -0.08227136710317368 -5.999311994975324e-16 0.24876454532007491 0.01964829300467263 0.027893638905023565 0.06418829205928145 -0.17898238430404387 -0.10286871118189812
30852 -0.4284416227127617 0.201325584697919 0.01894049475151006 -0.23731857588163952 0.04162774591718139 -0.27389281939783255 -0.022232319671738398 -0.08467069542516334 0.36388294998928655 0.30092566482326555 -0.06787785866415535 -0.034368582136218774 0.012083789740877935 -0.23088194206398802 0.16395035970799263 -0.2033391716261259 -0.3390016743519502 -0.17597747518416218 -0.11397664166424895 -0.11384838900482691 0.16993264601372574 -0.13527692594435137 -0.048479971861146595 0.04088281103798206 0.057558861294822974 0.11131357430008702 0.050689367099147994 0.056882019440831044 0.1455205838328501 -0.07542383435327471 0.05672520805049809 0.09872306769688342 -0.7780609747896526 0.124396026577551 0.11516949589789258 0.028592037418849522 -0.07155442801991646 -0.1873159094366519 -0.23185210101820886 0.0338739418704605 -0.04200403201060083 0.12384491537520209 0.21299179190260062 0.012178090652952762 0.24037615170238724 -0.09424613527428809 0.06729060952723073 -0.09002806504249385 -0.26486948576221686 0.00764861599907785 0.09042216880611204 0.02691901438082488 0.013811578690926082 0.12949752519856697 0.137375726926038 0.000988340339244358 0.03787701443619867 0.01923290837730479 0.013531812825182213 -0.04197183257367638 -0.0204540469012253 0.07513310900862952 -0.05514094701339859 0.015540540595926591 -0.8715573077441285 0.15145465859587665 0.09558847816375382 -0.005475964136430384 -0.11713534070466514 0.12073916465953387 -0.05733592541109884 -0.03875371128906428 -0.0021473231621202135 0.02087016312704914 -0.06474293584999563 -0.0162245447799018 0.1247634436987704 -0.05777958644031227 -0.023749910096042343 0.03837172373531955 0.05857221409424656 -0.07508561117549929 0.09206795391668071 0.00574997650775222 0.037959190016037585 0.03304733061664251 0.31351965605733995 0.033655272718456246 0.011844987353246543 0.09428380753208769 -0.09578119054101408 -0.04542788120985462 -0.03157572517864377 0.08891841565041304 -0.00487424010047144 0.025005331692640468 -0.9617511640006003 0.03299397153291953 0.10204198141911722 0.013028937018143179 0.05949891613444028 0.05598010866501772 0.02937571911651179 -0.003841755571782888 0.051894552894350854 0.1023454782843654 0.029773049686494656 0.07497469245456213 -0.007794126963604138 -0.09607560052613535 0.08515858482656302 -0.019950123337800524 0.024825278065104563 -0.042065812460247945 0.05049971433012284 -0.06285310382035637 0.009456655027402196 -0.056409157200809454 -0.008743332379257616 -0.027593127431477606 -0.019525002099815725 -1.286684793813964e-16 -0.04989109919047015 0.0006910306709598022 0.01766304342726985 0.050816944475847885 -0.007842851439189388 0.019317368548585036
34524 -0.4830487193512325 0.33611845258050577 0.02313861517604136 -0.2576766240716886 -0.08484936789610605 -0.0594322837495557 0.1822657694302164 0.09735087590876826 -0.24334638339820647 0.16581237156405484 -0.1885504162610403 -0.02614100916515926 0.23332534028649649 -0.07618263288048226 -0.10120108079196076 0.17923023286407824 0.05170443910157518 0.014789974484752083 -0.007007998807624859 -0.16295383709346753 0.02238850505333093 -0.009056218850002441 -0.14555455965055017 0.16835968625606146 0.07475505739715323 -0.1661901160350863 -0.33089844150120906 -0.0009425561242832805 -0.16830759881773952 0.08805068001800828 -0.023906899076677326 0.22092312162259375 -0.7343462934159793 0.44446967893797706 0.01580933378230849 -0.032281435187954316 -0.2679558202408487 0.06201395972389158 0.17965290683809607 -0.017713141464832917 0.013369338596997031 -0.02459761597895913 -0.007893746571174023 0.09432689027976311 -0.1078500585909238 -0.01959853332773518 0.023976973084594382 0.12389631987950517 0.07992546977588441 0.12707410976774722 -0.04729573722212182 0.03862622595916745 0.1130142279227486 0.04893674213315604 0.03720746727444463 -0.08555012220629253 0.03390154751681782 -0.05183000110289139 -0.028820724295514993 0.230069007791106 -0.08200251148589531 -0.008827703843136926 -0.01902828652323726 0.032759033278806936 -0.8546906201904855 0.3896464519819561 0.11055165049454985 0.023054260642399595 0.0029305955472426815 0.1731657913636188 0.0046953130119657795 -0.011222409265665248 0.0586670336949741 -0.013066192115982698 0.025886808606773642 0.01495026407275798 0.03998121703866847 0.047883846940380684 0.03275535807384507 0.054217416475380545 -0.1060179324774393 -0.08579067472852948 -0.07921517866324339 0.0028464618510093158 -0.027811860963753477 -0.028009578559848664 0.07875368624106355 -0.03996057625282219 0.03408674662011454 -0.08127913876068948 -0.023531172740861424 0.04469237848878821 0.0024464607291274617 -0.12464414719282306 -0.0470152543799412 0.007844627768762874 -0.913687219171146 0.28011774232046555 0.17867908579653433 -0.013057721751937439 0.0034561068809435777 -0.05530454731047697 -0.013888642236573136 0.004775598680129466 -0.08674151077021929 0.09499372791113582 0.07400859242256162 -0.008708826816638019 -0.01038593475640384 -0.010897903019417763 -0.09137814321360273 0.04259178500090759 0.003682615123054578 0.042542531061277866 -0.028451242653840154 0.01037609151135007 -0.0026148159172235874 0.018081281270066175 -0.02001738860675703 0.07863798973977085 -0.04285029372307442 3.8064540938765365e-16 0.027320896472618317 -0.023784414604249977 -0.051897471983809534 -0.0070773547544112905 -0.02119752293384733 -0.05324541201437793
33667 -0.5596552398798577 0.291447729028365 -0.048462524261506365 -0.35805686133580605 -0.15461015596744762 -0.10194190854533168 0.17274203969178695 0.08671278710966628 -0.18467058896459218 0.1380648745139204 -0.2982025158910989 -0.05897223011899887 0.2269230012818546 -0.1511780994205518 0.05604241093215552 0.10203312286756079 0.01322348672788919 -0.019354807596251633 -0.05821358706799836 -0.1655012261626069 0.055995486122284756 -0.062070224166455176 -0.1305850477290805 -0.11583170992016388 0.04427676168496536 -0.05800999495276257 -0.10873113760380472 -0.17981983014421507 0.07236089362391004 -0.20161993679226653 -0.010026350356904828 -0.04370938279537805 -0.7606859957202352 0.2922610322976748 -0.03563888761386172 -0.09621074894187444 -0.3876175363620651 0.046568555562000805 0.09204525708206945 0.03032872534909459 0.044932795609618284 -0.055308496427026024 0.015892444744396272 -0.00967275442776634 -0.0036131594844895205 -0.06238447794208197 0.05293960395167933 0.16669224662160398 0.15509626604103727 0.20166188590189243 -0.051154236615730944 0.07496415465541476 0.026493520768373264 0.09308093090213465 0.06727185129794572 -0.04045515858668556 -0.05534111006496107 -0.02916361545118686 0.11391842149102374 0.04688216825714699 0.052749882456205405 -0.004206011644451389 -0.09939642875042719 0.058586614079479 -0.8857976997687963 0.25835747672218456 0.03735302450004834 0.07247700400136071 -0.052002880849346705 0.22583258024187716 -0.05059746302489154 -0.05757376793980059 -0.0036559275753784122 -0.008986579349497611 0.02426314031844569 0.018294901184844527 0.03560264846099469 -0.04531680322742613 0.06604882278004458 0.08936091454425094 -0.09448668712743705 -0.14507991470689346 -0.06877101793348936 0.004129342542150035 -0.011313144944049608 -0.028853525577841047 0.12826141358357573 -0.013901787750756256 0.008979051685026052 -0.049187744407904056 0.004565364101197949 0.05660662368751661 0.02720808758006597 -0.059728592107474505 -0.03568484923670971 0.04545430011535425 -0.9371266035677165 0.21406468456063538 0.07971226506168666 -0.014020098777960219 0.0341420464301578 -0.06786986805854428 0.031242670822548065 0.004626361104328338 -0.08230899063927948 0.13046516141331288 0.033785521217584866 -0.0023347555771453814 0.004268306811777438 -0.028332268674557376 -0.08942151834613597 0.041081850130906754 -0.021541717093828672 0.07895107074181133 -0.03741400088198526 0.00742063587364427 0.005004846158725035 -0.004177481689944758 -0.0003264641126200771 0.07582479062691824 -0.04669731065162782 6.128223899209149e-16 0.010093229022502644 -0.03136678257190215 -0.07442926511262378 -0.01581017700580885 -0.04883520007251998 -0.042627284854926784
30792 -0.4430591650004818 0.2703904748267854 0.25418295354252995 -0.2616274749662122 0.13493316754570325 -0.23673379745379192 0.27301829621850277 0.03539387880307497 0.09787638321622662 -0.2806940932491203 0.11854814492708092 -0.025470902580738492 -0.25056164712677187 -0.0567167760417524 -0.02068902844604136 -0.03993683884033275 -0.007751953155187087 0.15444060876307825 -0.1068816022504825 -0.1582322738532572 -0.0024069710095976286 -0.10060166655117464 0.21908409893566566 -0.13781215869776675 0.006118995406712313 0.1869483132949276 0.07346875600698238 -0.023534323225653325 -0.24631906448950844 -0.021466404116890544 -0.18374688923214952 -0.05541382610485553 -0.6831251502005793 0.34872733074534057 -0.0489704701770431 0.24240234501720404 -0.17205215039495272 -0.17117201102324783 0.0308920720125369 0.08668589443456808 -0.07825845261892621 0.019222884989125767 0.12289487366682282 -0.03027684034461259 0.03248251414564721 -0.33947757116718297 0.05850756152673941 0.09735442129880349 0.047014758441893775 -0.18252851523423255 -0.11011208660315804 0.17366032875946186 -0.048277138485076115 0.09688798597975691 -0.061097025647821365 -0.04240217755759057 0.028697660373423386 -0.10806985211153185 0.02860811602039022 -0.0420209736705142 -0.0029007058719097245 0.006007868455110363 -0.10524014474875588 0.10110193012038969 -0.8079383630822308 0.32656038966155876 0.08839087845025007 -0.16677409807487387 -0.16425059705063255 0.1651287038338293 -0.07028564074783825 -0.0796255013903954 0.03992654705731833 0.0276554780062775 -0.09388757877086819 0.009105670790468107 0.17851226473819146 0.03090215632364999 0.02905548667915524 -0.04674502995255737 -0.046139077300461614 -0.18168581125935113 -0.04531190297183072 0.11257102357893893 -0.029435648863585635 -0.07939429396048304 0.08920229218622654 -0.007665470581422531 0.025433631252153432 0.016674600143850006 -0.02608621445424617 0.04919734351331609 -0.029432781493972965 0.1352447685564405 -0.03532051922744809 -0.05341593675009447 -0.9137720742222761 0.24446608793818472 0.13970004677342532 -0.010636780013194366 -0.04502763290052973 0.09261461729553984 0.10311064922386123 0.002218885318284138 -0.08630767197102766 0.11187045622833464 0.10848198136160114 0.06830759082278884 0.004349268345475517 -0.05843166015598255 -0.04135175971518551 -0.004554484695310825 0.07708480320948632 0.03498580987796061 -0.012172152578518048 -0.0020196647310757585 -0.00875483145574641 0.04507279610624682 -0.001296909807404375 0.06545284905156804 -0.013222118505315844 9.526643548203854e-16 -0.039245401133125205 -0.027239829994956787 -0.062056706462914286 0.009242722432730187 -0.03536274697837304 -0.03830843579485154
30647 -0.5976951246798237 0.23929126986474109 0.20496260769252678 -0.13715057069621658 0.14053178498029992 -0.009167938976132377 0.2409674644369049 0.17329386390047116 -0.059829809951356026 0.1014732204711173 0.11237677792144103 0.05559705586740749 -0.141241303717714 -0.26349472416906283 0.11745760406982476 -0.20622684104464295 -0.04955325662588029 0.16817459920109196 0.03946647764739474 -0.04880544035113318 -0.15227988030444775 0.0490416527578181 0.05328354423108221 -0.2237341278217268 0.028216638229248223 0.25683280515956913 0.08042283864277416 -0.1368090172741844 -0.10817657353611586 0.13176236211445735 -0.07504313336298614 0.040542380614033556 -0.8037804278142678 0.2578496070608347 -0.10458926048503427 0.07878075864635434 -0.13909576558876807 -0.062346916287231165 0.20189349079012545 -0.05034929725735034 0.05669703528631466 0.006868669672309215 0.15186691572548322 0.05171501793817527 -0.07166451975390162 0.02660835927859574 0.05562726256946653 -0.005656670686670847 0.041793253157901264 0.12053083144483494 -0.2402305771899018 0.04928722185849992 -0.10621623261645745 -0.16272999773517435 -0.010623754221421148 -0.02465897359216552 -0.08459247254876433 -0.08595191293179197 0.07228706795846973 0.043288964988615584 0.014798825722731807 0.02911362913700373 -0.14319692899538664 0.08770072161033099 -0.9209033252455298 0.17232282811181968 0.031792157618337286 -0.06454364232038465 -0.08220352803079221 0.10186662257161591 0.002320383653219835 -0.018273234833592833 0.05179037006958129 -0.01273446554654152 0.051047058304030696 0.03273339126830965 -0.011517821995042778 0.07519311506077386 -0.0905515212930993 -0.08144495844736646 -0.13803171768590844 -0.08194084570646822 0.017205352904452964 0.035490686880587985 -0.07131443873201596 -0.003557324456578358 0.13944559696792488 -0.04202923435316304 0.08371411504589045 0.07714476624433199 0.03299046410580841 0.01941652144152614 -0.021266271347223975 0.031180012379987916 -0.010283349973476758 -0.05350711417275494 -0.9615995816652475 0.15851608480449753 0.03870400265390247 -0.007392629133908744 -0.012326873924970581 0.03094458414042374 0.02754712716979885 0.009025293012069207 -0.08088487559229447 0.07450466725030101 0.0014702728666220774 -0.0849843324072911 -0.0294294048301375 0.03900540191800364 0.008276977933207459 -0.016237696805336183 0.05554570224547073 0.06074982405831391 -0.0105765763816944 -0.0022986833186850876 0.021756761140987443 0.04073260659673068 0.02317918707592647 0.050229588451875515 -0.04232952830431183 1.1566585613728383e-15 0.016981499808496153 -0.0480546843835287 -0.08036885227280724 -0.0004767423221072799 -0.035645360506583394 -0.021301392219731655
32945 -0.4933494982515192 0.3507891882206547 0.08657780597563669 -0.02829568565373742 0.04655946694289482 0.13945987247176583 0.0583386603166464 0.21089905668795336 -0.36735410768499804 0.12715148957380018 0.1158041883681624 0.1489272354911235 0.12568071082392354 -0.19592971796916506 -0.008765675369434076 0.015005829874103071 0.20629946096002094 -0.026727585261908698 0.042928207800962744 0.09684346556134422 -0.1275350752965008 0.0536701807794308 -0.21716713283802544 -0.19267699807081298 0.006824193129196028 0.023949821498702763 -0.02211875522215922 -0.22196409742352868 -0.014342705818932319 0.2300306994997274 -0.08771121281919593 -0.21318554177330767 -0.604227845126851 0.5569920154296808 0.05922094387499491 0.033786402255717676 -0.15056064400410382 0.15525712008745124 0.1604946190356209 -0.009852548469230834 -0.022089567084557532 -0.06407103915706562 -0.1656068106974126 -0.012775509910654917 -0.13482259187432608 0.20102573510627153 0.001586827695874711 0.03476378234502475 0.05812318383533856 0.21162889768519813 0.026789247145403604 0.04552828509924903 -0.12494029185890915 -0.06018593686247538 -0.035062135762103305 -0.03939813833814927 0.017189183310328367 -0.011247804344677462 0.024958631846035084 -0.19795964183640338 0.16577357662650946 -0.07314232452720747 -0.09411061667308619 -0.022796966619320153 -0.7273486204225501 0.5467116960149598 0.20297829197714742 -0.02976300324563395 0.049665741364137005 0.04345974926355272 0.025366251361692002 0.00992343445207369 0.05620122340437216 -0.01684473596178272 0.018974174102811003 0.03545703702807217 -0.209947237140862 0.07838015583944546 0.009911264893356366 -0.06280519782522616 -0.11976653049281465 0.029116495472556445 -0.0851715341733735 -0.06498951710463266 0.04213694687285039 -0.05470657725827469 0.023091105033469592 -0.032619813180448445 0.003918958559309308 -0.08242462917591435 0.1433276612553999 -0.015906361193859832 0.019548029196253213 -0.03656832277761569 -0.018137541363655762 -0.05361730403069417 -0.8032087636981513 0.40712467609808334 0.34444747927529623 -0.015837765097808976 -0.0825100010632596 -0.06721503589953229 -0.03286931486178005 -0.028746900652139567 -0.007464354497079302 0.012157993898371008 0.071580927477037 -0.06502635882421551 -0.02293918332186459 0.07653291070701947 -0.03303182135061137 0.0556189213835097 -0.008813922025924924 0.06734416902786702 -0.1106853266776098 0.04033331174124618 -0.030033414972538343 -0.031185395891738618 -0.010092435039119099 0.008112295272428299 -0.023823415914467055 -2.9652236877486406e-17 0.08386462724657762 -0.015983339462682503 0.06292409174360812 0.03332767638878609 0.0546138960915813 -0.020287958668965825
30693 -0.508203377775757 0.21282410405215488 -0.03879864617981371 0.08433234392293958 -0.028158247593723526 0.09188942725795225 -0.08274850479870519 0.02474846565230408 -0.02720896899780035 0.40971825211184804 0.1226105621115418 -0.06565239578163176 0.005146102294503273 0.14204304668837595 -0.007722494945806643 -0.15315073826149295 0.22232475512994218 0.10248119771528791 0.1991638621915409 0.22224822994115867 -0.29159982053827505 -0.02558392250267481 -0.07099860413500805 0.26015027319657313 0.08695545871538439 -0.03507914971230735 -0.2524791856165396 0.191641444062827 0.04254895978265088 0.004063337549743045 -0.0023808000468528417 -0.14477358862853146 -0.8018589775915769 0.2889374175488784 -0.0822275942498461 -0.08883109593599066 -0.030788657556022492 0.007089606751278553 0.16724598513181066 -0.09186167094681451 0.06592650744713456 0.02236073789521003 0.21502251674123363 0.0045492519526522885 -0.12398377654139725 0.16996515712326882 0.11764458368979959 0.15234391063599423 0.00925705011796216 0.1414126004665377 0.02627994178816691 0.032680113872484734 0.04157431090663296 -0.04405150087092109 -0.08387592872268339 -0.0678124213776315 -0.012575707020715051 -0.0701248851564595 -0.03820971153881785 0.0032166744541543947 0.09586000667689339 0.022775229308586484 0.01874244284488923 -0.18792733173402185 -0.9107308004712679 0.221934033242456 0.0017574106192332457 0.040482796213332596 0.057325861515277396 0.006428195924413204 0.03993964676097661 0.02635379955662929 0.08907347784798883 -0.011985781599621029 0.06779719894940837 0.0028118206813767953 -0.10612369592738141 0.05657230864852251 0.07581823316232035 0.11818633121996844 0.0001114909769878742 -0.051157547290285224 -0.006832225832984718 -0.1073923922655467 0.03626724603121211 0.006246266061749264 0.022419956744524842 0.03955512568370596 -0.04322305471558778 0.1308024583459848 0.04915249905804149 0.04211860618368161 -0.1343439817140097 -0.06458228306937311 0.06093510757664392 0.021818747203484774 -0.9680799199380553 0.16547875076470592 0.05755873608277279 -0.00828169084914967 0.020216806751580236 -0.030635466038170425 -0.02359744024950752 0.009583409408290677 -0.06566551464331051 -0.010709286365680313 0.031406454526856496 -0.03507535623643009 -0.0006106354888012838 0.023340374869567616 -0.05079459211147326 0.016584135761563343 -0.01461110200403893 -0.00887899869579119 0.023772668390261157 -0.01605565843519883 0.00026053497089640216 -0.028021737823728396 0.015425623198296495 0.03141286755955995 -0.06815705963419404 1.4080836348729231e-15 -0.011707825284679287 -0.05733498098200721 -0.09031771744395206 -0.007104542063002569 -0.02318392482200861 -0.008757559156216904
31135 -0.28468765819414643 0.3086661391837363 -0.09890365836966657 -0.2521930094412873 -0.17443300307624088 0.00796735824876816 -0.14898934615294018 -0.04405484930307507 0.00454326542016277 -0.1254522569142123 0.2883107496100175 0.017182536174963396 0.23420259400999743 -0.01660710337505986 0.0779959071640305 0.12465831483271647 -0.003474189835507381 0.08841809612249459 0.04792033759333092 -0.3435112655898914 0.2539156144211724 -0.02045764085580251 -0.20525433127064532 0.27628504936948933 0.06521854294484732 -0.20516887113579033 -0.010679305909316877 -0.11166476291468173 -0.09807479395225695 0.2749594717769369 0.16524054860142467 0.19183780765006603 -0.46471855806459433 0.5021757482728925 0.12128872022381683 -0.030303531894298203 -0.36159445787231786 0.2134422540468307 -0.08054316297122417 0.015346349512009446 0.12414930088278187 -0.055683231956625986 -0.07361109077937243 -0.11892532418651237 0.02031512899264614 -0.03314460154461952 0.03673503571318604 -0.014260626829167516 0.100835212748201 -0.19959066437751916 -0.0852920184503683 0.2037306334672192 -0.03782556569615841 0.2622060950540787 0.18217724082612835 -0.06749235404787368 0.10542981158929725 0.01465414991254717 -0.1912093830253393 0.13618776702981264 0.006152072379584604 -0.03257189268587991 0.03826042979367887 -0.12784310331891996 -0.5397193673935057 0.5351666519136682 0.26188421037801013 0.04371661388810536 -0.0187906089950018 0.3616506028253817 0.02048086010690723 0.022917082205587126 -0.08559396052733098 -0.017675895101413267 0.0625431588277388 0.016999919377756547 -0.12677026577385353 -0.15835959794355944 0.08137611480419812 -0.19744707684085283 0.09246021734336417 -0.0265687899592111 0.20484456868069384 -0.02603480443100971 -0.011844457736685774 -0.12667232070970447 -0.06787186317130124 -0.02006854049711334 0.07419643506260279 -0.14753755899810791 -0.08041333989980373 -0.029760713464661005 -0.03917218620476448 0.10755975204031644 0.0172115584272166 -0.0027078827995533085 -0.7270297166611017 0.4177736318673638 0.4299826644783389 -0.005144531250133452 -0.023017498973491743 -0.09313101039607495 -0.04495772431132924 -0.00793679024692191 -0.018865580973450428 0.17876886388178934 -0.001020068307006429 -0.05345901186474898 0.011124462264441333 -0.008545070860890687 -0.05358325006472158 0.05345178609978134 -0.012130973623205912 0.06167835609111963 -0.11302438422381476 0.03853130464000179 0.08373979434805735 -0.09293408605018488 -0.039557346416872176 -0.0570588250610352 0.07478177188460165 -4.466810325655553e-16 -0.049135085892035565 0.06452153995233419 0.07700951848709348 0.029690515738774906 -0.04232184134521717 0.011959036292158925
34685 -0.4384123658863886 0.4234009874182509 -0.2840159539112226 -0.18581497942711672 -0.33354962413419253 0.1958668964119616 -0.24350033596719842 -0.0616047406558351 -0.08584514929833131 -0.1277267358637185 -0.039140706081177104 0.0683470419825812 0.190956898850297 0.13711675999049502 -0.03528793405878673 0.231202461567993 -0.08519976869787259 0.07757853900848427 0.08693370555023801 -0.13375595776470714 0.16878603390463012 -0.0484753676635037 -0.10308387132508201 0.17375397659336986 -0.04180441370793346 0.12273119811218938 -0.04331991730778477 0.05600353696841741 -0.10670954347629517 0.0029106638155179734 -0.026461942270063113 0.12835470075477776 -0.5855599785868102 0.5535239234100536 0.10535723591163657 -0.08115791125948241 -0.19971754321922497 0.24348929750100617 -0.14151496194915614 -0.026701971891675075 0.22316726739908807 -0.04971771189267281 0.00633684752132192 -0.22288638852915552 0.09451749044919759 -0.07412244880716247 0.059639419537260936 -0.04174102511478808 0.04612415584734635 -0.16236199874840462 -0.07394669871898421 0.08238806527596726 0.022748557193874197 0.04149205417973474 -0.13908251218262324 -0.05669955722026782 0.07402093841037473 0.06811857138979652 -0.07072490660727654 0.07727362204373514 -0.06072763235184018 0.024359321707442927 0.004377481293437946 0.021773366938010984 -0.6816590569050162 0.5466021776874994 0.22377394059873484 0.08080141635558628 0.06402942269321157 0.17523214142354024 0.030549371005489902 0.0248185631499133 -0.06429728121478752 -0.04696149448972115 0.12920457168728328 0.013012915215864755 -0.09277869491579506 -0.18035059934701544 0.039841079255485336 -0.0653306509927561 -0.01765993862655194 0.08021504541741357 0.06818707097832165 0.04806204726319217 -0.03261698608567982 -0.05768450655932272 -0.16344686607346662 -0.007508751864451668 -0.048283676142876215 -0.13036973073417712 -0.0654422069078476 0.03535760918987242 -0.05738254019058815 0.005515489378571639 0.01425043909754959 0.01267558474060554 -0.8074491519700241 0.3901645533298474 0.34019951435200974 -0.012072579874913824 -0.030638474705007166 -0.11533303011952835 -0.04102037895086257 -0.01978762488738593 -0.005101364071852064 0.07384663016862589 -0.0025430191861948964 -0.056806241302100276 0.03677972537651198 -0.04550258273301763 -0.0709603523944392 0.05762347802079609 -0.06790164743852092 0.05378346654097947 -0.042626076203127104 -0.0028052018607619494 0.09617352635790181 -0.0878161214032674 0.007222054375822965 0.031733018187170926 0.08754295063704032 -7.058767379905293e-16 -0.05717704144718605 0.059389307060164 0.030321378187489603 -0.013532434686901447 0.006050460305103428 0.012729923124167198
35096 -0.3435993669672563 0.32032868332924774 0.2014373096440964 -0.35470217941900084 0.09795869980914708 -0.30854827356679176 0.26969182026733074 0.040183954059024966 0.014381605825431104 -0.1655802416641452 0.09144448284645994 -0.0454246315158562 -0.21719304932941771 -0.048915482800106526 -0.15752940270187843 0.07788047717495686 0.18337022420770727 0.021562678969454428 -0.14654640770140753 0.008117512173720125 0.018287124061723205 -0.019902662669173708 0.3061102971372944 0.12830906657444446 -0.11852473410824772 -0.26497453019181827 -0.06295952262230968 0.0748834069160612 -0.201192571169942 -0.1130451490760874 -0.03213217985119465 0.025429834801272918 -0.39098391628572804 0.4421424530123869 0.08902143758500626 0.21080755595750295 -0.4662865311435071 -0.01570648689977273 -0.028010433124697996 0.11170786646069347 -0.2808321490623624 0.1063189584834712 0.024988996681869532 0.16535858014861401 -0.08124424092683345 -0.12350888842135462 -0.04090260893720471 -0.10255070348887675 -0.272848777503311 0.06934341036614407 0.07171290023243548 -0.06574006453109282 0.007327703885660262 0.04228287122464811 0.11818032306527328 0.14595327642010358 -0.07722221268303822 -0.07406043155518711 -0.13685588601462959 -0.03280025778783085 0.040430476590211574 -0.06279347872263298 -0.15203007042970657 0.17431730698936485 -0.5246377241298193 0.528134817792234 0.2545960533551574 -0.13475622808944837 -0.16623081540440665 0.43875097801878093 -0.0507898246739119 -0.04628138121751568 -0.0007579263806105964 0.05805560963401638 -0.20534250326044623 0.013325765163696292 0.09300610294962862 0.15060142091168485 -0.07122086302788914 -0.04969501048029563 -0.0115618166118628 -0.005285385135024241 -0.05618621657369324 0.04754393882780942 -0.021871186424439807 0.03698452290002457 0.0253570641098065 -0.019149047606074204 0.0004077573658462482 -0.028359101407712594 -0.03543023579326805 -0.008192183171315781 0.02934302817892071 0.17992003696932482 0.07299912317338465 0.06545231673563338 -0.6155695215255258 0.36796028795242314 0.3958403153377853 -0.0017122462388294137 -0.06774630170364088 0.051730822173338846 0.025472814695819395 0.004765046451451001 -0.043269214450126325 0.3978766278534029 0.13171572031425843 0.1723636150755514 -0.016638463388897986 -0.05651195614228083 0.06253134465637393 -0.03544384890947712 0.24409874288700995 -0.06400633650557067 0.0026749598896807876 -0.03222123874886757 0.0015320357062585971 -0.05308204977863779 -0.06303813008394912 -0.039988296083937044 0.02572575888705543 -6.950744649787733e-16 0.05581037755230934 -0.011591619704266089 0.0402902198496913 0.13905971769354908 0.060067594506176804 -0.05981005993867221
31454 -0.5601914528999759 0.21766213192853484 -0.2087927196277952 -0.012295134627548394 -0.14994636273115092 0.14773026294038183 -0.16422101075510226 -0.09626853885422765 0.19217891377657734 -0.23772136624256585 0.10323403834911817 0.03302970074986551 -0.14935337251676145 0.23908838042654665 0.19837801750651887 -0.08414443187872596 0.018729299430787334 0.06302695655364385 -0.11278193759829237 0.062088407804393925 -0.02605452150309464 0.045763433605398814 0.27650791014283216 0.10223347710506533 0.0059829313629788045 0.17549632524343434 -0.025293888690436216 -0.21700241472831414 -0.003617342431541805 0.02119575105201481 0.28633443046544005 -0.10876091754244191 -0.868521502209262 0.1252667204215162 0.06972570519597081 -0.039083675358808544 0.051185645856384125 0.08725822015704962 -0.08828751880337576 -0.14511349684691546 -0.011429613579592176 0.10574180216118022 0.10851272724816434 -0.09733674117310066 0.2509694049078332 -0.03491362294461927 0.058493248980347794 -0.012843931002409876 0.0003058611879593783 -0.03327734867526376 -0.1679059792111835 -0.02376521488794261 -0.15808479768767295 -0.058747228397695916 0.06020160096715537 -0.0735146668459836 -0.030565718112871683 -0.06375914538906285 0.007767165984580221 0.03638712315588169 0.011077689401343164 0.05624368060669319 -0.0834379794088079 0.013536936104443537 -0.9467505473896495 0.12879350649154442 0.06692672807050166 0.02724101865114324 0.0029299881127772386 0.04594087220928286 0.014484697013024753 0.02423609255631267 -0.06634895860287347 -0.03816585417718142 0.07546551237392103 -0.024620774352382663 0.003183114963742145 -0.11643540350427525 -0.06611573208562999 -0.0887087536785417 -0.005940097076602685 0.03802662364860405 0.062328709020593245 0.02227235412308867 0.01201091909221771 0.03131783448371815 -0.04862626755832359 -0.08086025841691859 -0.046596350276378776 0.028015969969964902 -0.08680534614262976 0.02914723269809704 -0.051953074062066444 -0.005129369500153098 0.10221930087271358 -0.02376676034109606 -0.9800497478014549 0.03260076637883269 0.08160696318798587 0.009853355992046993 0.04117912743758 0.027369150951964714 -0.051438396131754154 0.00370152158529953 0.05064125316950616 0.033015347469637295 -0.06167454047165958 -0.04262812578328268 -0.018243100475494125 -0.046089727676662924 0.08330263593295462 -0.023220199836136306 -0.021720219301087487 0.002490534408928171 -0.008315057895158233 -0.02691996342453266 0.04798635686226175 -0.02977724043083631 0.006990313133526142 0.0035611558837565197 0.011102280555306787 -3.6430389111344247e-16 -0.02646268726144003 0.02879903291851813 -0.00097414370728205 0.013231986986252662 0.016679696510289707 0.02715838962864683
30257 -0.392624084466116 0.25599940687965583 0.09632404413552507 -0.3262664548102641 0.06673005638279743 -0.2543672873829488 0.3881214636943039 0.03666065159017212 -0.06774656454110307 -0.24916154726995648 -0.04870839702922826 -0.0926381892893316 -0.24569034650770982 0.09690554569260999 -0.09361656593653508 -0.011757085173585414 0.12161549169111165 0.03847330747232206 -0.16851244913674865 -0.0743590367089144 0.14513399250628095 -0.09571536164433275 0.20779332642878537 0.028163836818111493 -0.0414861150267812 -0.2758184926088564 -0.002678684313919193 0.15858932139829393 -0.1860379354832859 -0.13589309256325321 -0.0820452250449494 0.0025536333297713444 -0.5573655004620625 0.33926534557213095 0.04024732423744677 0.01000866120309223 -0.4087610147978427 -0.06815627690397513 0.11543212921002606 0.10048394760367102 -0.19892470554521405 0.04962698331795543 0.025957663860627127 0.20780592160822636 -0.003085791245206391 -0.20065423893194917 0.015007310064031136 0.14476549334460173 -0.3779390230681855 -0.021316357814142487 0.03180921606551349 -0.12303594750808934 0.1283658466656892 -0.016901028084382 0.10541363336329515 0.11680169863550222 -0.04580209537299558 -0.0320009663224516 -0.019523709766526304 0.08616393703831683 -0.05782347077098929 -0.014483330770909623 -0.060678243256551835 0.1044166453007997 -0.6984354211873586 0.35745963745905773 0.14974945636656314 0.030024736051610112 -0.11358331866588464 0.33660486104412835 -0.061477616078305555 -0.07369787724650803 0.04041922065316428 0.04525974426209006 -0.1819117536512563 0.013891210043588538 0.28865034825073793 0.18449836301229997 -0.07483234996085363 0.12517283582474126 -0.07895631703744056 0.0572871415979103 0.017342319001630965 -0.014927310167601914 -0.013312396189610439 -0.08445363371283716 -0.02324072997324825 -0.0029579959882079284 0.052403966821025265 -0.10161407505059816 -0.05676650381254814 -0.03276263585870568 -0.04469638496316227 0.06988182480660737 0.08902865431408064 -0.001653897869166724 -0.7953425789535274 0.2643074533425236 0.20099740884910391 -0.008438107261887946 0.03510161620060017 -0.048294581230043265 0.025080606942234452 0.011968955542508514 -0.08321936091133164 0.28249345181155866 0.16018480753747844 0.19962910108811283 -0.018992499766285673 -0.11802830926204794 -0.006913416680591953 -0.020134199241390507 0.21670242246663182 -0.06136182338710854 0.09797516148774367 -0.02862879787483497 0.011942692723532107 -0.04881329057356526 -0.05987034809649595 0.04760578776778189 -0.041233617999554606 9.551785398547906e-17 0.07274330158477832 -0.038704166057003574 -0.021244965698852293 0.023344172128722165 0.04548500710520606 -0.06859433965314461
31267 -0.5286386042560101 0.23791159230983477 0.3104327129959077 0.08529056008007664 0.10559341398696308 0.1292681292846517 0.13282593047713975 0.21585347299470872 -0.37703663739433774 -0.09455464364390608 0.15555848393816216 0.032453495179965715 -0.0019507610750780415 -0.03771908538550063 -0.09378560495167754 -0.053176788926552664 0.17661624907697218 0.02882433616809542 0.14141845768767966 0.16134680092084042 -0.09295461412190271 -0.22250864185562116 0.16548260337253942 0.027685227426889544 0.0405856099462139 0.08805282211683321 0.10943876439991504 -0.07178047890164332 0.060198397412603036 -0.1275610703305556 0.05669605385053895 -0.2545665737046037 -0.6892319801629576 0.4397071310259118 -0.1057971210493374 0.2765600896827578 -0.01855672567326007 0.03757990010824148 0.20365940920864015 0.03629025726992922 -0.07741088166240681 -0.04230488163699236 -0.17121536804370585 0.14985520239383712 -0.15030368252588427 0.13089537298674572 0.005474923053275031 0.1361670705084944 -0.00017122322696042487 0.016886961364267667 -0.010915304725958848 0.01651791278274872 -0.01837652219419773 -0.033908220046400254 -0.13718585686578708 0.016400926913756546 0.020932866159436698 0.1584119492833039 0.050677610187514655 -0.017762005290386296 0.10313395711525218 -0.0387304363801237 0.03347556045959621 -0.1364217004065861 -0.802627894415431 0.4063394942522334 0.04363597301624201 -0.23709600087813282 0.024372895609854353 -0.028831580882822703 -0.0034112899926749423 -0.023895935815355464 0.08903693745028159 0.00026971908022360605 -0.0440366447052108 0.035801056521359176 -0.05411698293744277 0.1334439258475751 0.08544692523348829 0.008651813501792822 -0.08500652065783508 0.0424446798885918 -0.05849819183545239 -0.05087794758148542 0.04581796482248712 -0.0635753091772219 -0.09498770600863174 0.14172467982901552 0.028831848295213874 -0.13784152818831974 0.11846543146914544 -0.07765365347773341 0.004580561557141661 -0.003406824058381862 -0.015989579053386153 -0.02859512963423444 -0.8677826806408955 0.34613001269857313 0.16122887848828968 -0.030187611291185138 -0.18831932733991366 0.03731878524468143 0.030264633768648158 -0.037881474804585584 -0.007940035266234047 -0.011920444411623925 0.09848400165074973 0.007905766849790314 -0.034798670215575055 0.07415562969360337 -0.08427920004110646 0.09463054506592554 0.01154851392060817 -0.009261344551329646 0.005711142016235701 0.1175686973152228 -0.02828410157512719 0.007551367344689076 0.00872088551681228 0.034886035063274624 -0.027069810060717802 9.946716995515314e-17 0.06927495216309645 -0.02794336079124341 0.06371467707665637 0.0005767518268455278 0.041010671696590124 -0.004478150444311257
31995 -0.5046154244382167 0.426669066751617 -0.08633530436935567 -0.2415268971032342 -0.13957949436678338 0.035619690332612634 0.0495434934179325 0.06809376238029084 -0.1866789809000302 0.10844350167100028 -0.26761304434519595 0.02539278302406022 0.28298970350796504 -0.03219183023816231 -0.13910553353639998 0.15999076515994337 -0.045376558850736076 -0.10326300446384103 0.03602231119002602 0.043104831140348354 0.016267020980933213 0.017939046162343462 -0.3052246620823188 0.06762793303306026 0.06089930120438908 0.045415803255217144 -0.08802263889377301 -0.13538312101989738 -0.18465041449525071 0.1424419488820703 -0.0617430705386396 0.1431860034140501 -0.6778568723461192 0.5672386814983422 0.06752991323184225 -0.04738767634549923 -0.21724543556297918 0.1617859765169406 0.08989494317827193 0.017424031562718736 0.05822766940329949 -0.07341219499800467 -0.13928798420355576 -0.006337800082517504 -0.02191918247393587 -0.012294877926757021 0.023043445869234274 0.1054236104417032 0.0509139603265753 -0.0586345733408585 -0.11387781947578673 0.0889620165853893 0.012640783699861493 0.09840661558016814 0.10159145393470041 -0.07706178229326083 0.11962690582574483 0.08255190128327755 0.028387313040715404 0.08566830210905188 -0.055213832807520145 0.058944826049257174 -0.0296415698111698 -0.001993722365248282 -0.7524128131724418 0.5352087494323501 0.1937536318920159 0.03672381478879079 0.042143327231837585 0.18130714624858488 0.010466496665180047 -0.0028594032773153898 0.010335352513587567 -0.02001422186785729 0.02002179384570723 0.021734691659919824 -0.020914778801785543 -0.025319439351235512 0.01488130575550702 0.0046969976425497075 -0.15667780390875538 0.0515436465857669 -0.1017025129644421 0.07131780353158057 -0.027533456169895772 -0.013232604582165464 0.019027780373446233 -0.0013260218527715473 -0.04516660393837862 -0.12089867102751818 -0.014768805159062464 -0.024060953947769727 -0.0034211547230303466 -0.05968550225320283 -0.030903232606766924 0.07179661567392469 -0.8475011636755838 0.37816435416919175 0.29240123872309687 -0.017156330263985015 -0.04140033592472046 -0.10758805200638628 -0.017798597948499077 -0.02477284857806847 -0.014356218951976214 0.08704171952153013 0.0658005470495962 -0.005476413201561022 0.005177157377965202 -0.005697186459221657 -0.07264108637211815 0.07124876675876297 -0.020796391624023195 0.04247163474043531 -0.05907503637886003 0.025618437579522597 0.042491852684282294 -0.046347698176449154 0.0029159665654734496 0.05088443886993438 0.01872251943504613 -4.2410933503161604e-16 0.02255902120999404 0.004071280259059844 0.03707590015233676 0.012222820116046303 0.019439070156024633 -0.021325325268064795
30990 -0.3892787045774851 0.38297598322972654 0.10312275435510493 -0.3167596050550757 -0.06001491290363026 -0.10509275370006552 0.10609489221596834 0.05593005202628203 -0.14843742092922763 0.30138222705115286 -0.07761632788637343 0.05340504682314369 0.16310006357482537 -0.3134533845264845 0.054247785429079064 0.08367921672415275 0.10004967446990021 -0.03632554751466096 -0.005219765492206495 -0.1635419982542305 0.09363434665610704 0.15422843474427786 -0.1228342961808712 -0.01840057480478524 -0.023008242331943093 -0.09800429147811887 0.2097201711573658 -0.18569531107485365 -0.08427545516479794 0.22395853991820008 -0.06347685989465152 -0.2632052341282844 -0.4133745342227589 0.47570190796839207 0.09690730137279734 0.14109020462986296 -0.4661650880966403 0.1296453351059534 0.015982257494004715 0.049973012306709357 -0.055511405443438654 -0.033809271705342675 -0.14260286560103236 -0.013362331240438171 -0.047724128470793735 -0.0980239357179823 -0.058012636089657434 -0.16667917784701472 0.14194348564185114 -0.06994474296899125 -0.05641669473359808 0.21751142452727337 -0.06634728880484281 0.2724011968612066 0.07062294341591996 -0.00858905943764063 0.07537972192031157 -0.017211634104809238 -0.2709527402654724 0.054570606425046235 0.04724924180151891 -0.04310570964529921 -0.07553079589800046 -0.13236904785527445 -0.4622385622639651 0.5426561772169416 0.28118316509483 -0.10616251012509549 -0.10947105819323469 0.4574047544531893 0.007445737106508095 0.012010756066047845 -0.08734976615298906 0.005413717139311695 -0.02930189998498941 0.01699801599615083 -0.09179240555352698 -0.014070462969029566 -0.09798200745182976 0.07582598949502185 -0.041048259038133555 -0.054738037563689224 -0.0873411196078705 -0.05026110375922087 0.03587544984761915 0.0415173009064467 0.22881842598029278 -0.004388025667398191 0.19972600578146157 -0.07701430146567123 0.0884364023657645 -0.024528161724140386 0.10872856503900413 0.004228199925023417 -0.10268608257924361 -0.022128525117208905 -0.5908310232973745 0.42250782218095617 0.5311346810575114 0.008553203398781968 -0.07497230206346646 0.06710609533826503 -0.07150922845588598 0.02633365070837128 -0.07649736773347476 0.31429769775078115 -0.010708870635595925 -0.030212879989230973 -0.00016045509986604108 0.051727708967240375 -0.05080602513002457 0.024387868665426575 -0.00666934952971411 0.06583116474488113 -0.1501593991127134 0.07518645790425751 0.0264944179377444 0.01235051969809617 -0.04925557766233172 -0.04510337545863714 0.0904405190990697 -4.830779464711616e-16 0.09124940041455937 0.0110908191964557 0.08670041972053409 0.01426647581722424 -0.019472292222446487 0.012678375336567706
31650 -0.391584565265595 -0.13858716785727493 0.4062890334981211 0.04247325118858202 -0.14667558151281795 0.15520887116582557 -0.19600030170252838 -0.12762164477049237 0.19141086454512382 -0.13876025637683856 -0.20511143170387475 -0.2680569189167402 -0.04618126988516186 -0.14947490253202383 0.048540217902388744 -0.04314804406717379 0.23826098412903818 0.09954945682000847 -0.14804342325403277 -0.12846731945479156 -0.3420506430859102 0.15106477651225605 -0.1990448939424563 -0.06963405410843129 0.05833407734103929 -0.11882611872444222 -0.0011356324748789635 0.12907735701102618 0.03168338992359161 0.026593951345910312 0.008178918135298776 0.19082329957673694 -0.7366134199317449 -0.2518356533527313 -0.07024567881919276 0.4250026611383387 0.0388141169286421 -0.03515064248329796 -0.22873024810032558 0.020314604295689306 0.23608858450704445 -0.08298923830130298 0.11407315127674938 -0.06830347527102468 0.04749447832119964 -0.055251103879421254 -0.131926045674419 0.06162561276047444 0.09527272146746604 -0.0011100231563454068 0.035325234632611585 0.034871914362899624 0.014607824326670975 0.1300337978556634 -0.017713146838578664 0.05718880244174276 -0.04999127186530753 -0.021010200818527423 0.03198851840572003 -0.01157321489516395 0.027816140416055693 -0.0605188860296825 0.06611881245511793 -0.03126474650570617 -0.8456001121679197 -0.193099223821943 -0.11374821231410967 -0.3720344313245897 -0.08660937211839356 -0.040028360251980505 -0.03930557641907335 -0.019670578336468115 -0.0885388636003076 -0.01677196152050057 0.08918398328812613 -0.008181943531188647 0.05196232006012504 -0.10286083543064205 0.06743301151602306 0.01974290024699988 0.07246261546606794 0.02584349719180817 -0.04097365661481028 -0.01499584510495775 -0.02763102187126648 0.010042275968187539 0.02974417676274839 0.04984530925360597 -0.012096933971300147 0.05284235220939905 -0.006078851553849304 0.1495664738412219 0.10833662139505947 -0.031473117991288796 0.011132411423802849 -0.02603654103031092 -0.9172103746429721 -0.14677137255783912 -0.11933925978518183 0.02161221409474741 -0.18325091164651247 0.2305586277424417 0.09893860574164347 0.006161066653425044 0.03992469234390441 -0.0007232486536971538 -0.03036940878775215 -0.01289952755810053 0.07947458724922658 -0.051090394494308994 -0.014774549674343945 -0.012220140166145203 -0.06689036895386262 -0.016331979243827864 -0.017566200349098293 -0.002812524105229303 -0.019200560271024326 -0.022260839268039498 -0.001962459007929076 -0.023844417218986533 0.03737868806070852 -8.36265155158527e-16 0.0026397956243894216 0.06632456831026555 0.006596723686869806 0.013050779561526766 -0.03530639768752718 0.013209334777496601
31504 -0.45351354351319584 0.2299830029710713 -0.2658383555283865 0.1671672736021298 -0.19426768559478558 0.27938803563455256 -0.15218686893434527 0.02790315930516141 0.09930585190960309 -0.19490534378130292 0.4553920066409569 0.01537932770950246 -0.101854165339114 -0.09736904893532998 -0.07379003939764735 -0.20657009563341452 -0.06760054213087828 -0.05494990866565634 0.10719769642620146 -0.04036258923338254 0.09974514159670267 -0.1149471295921014 -0.0529431513620653 -0.09480342428104827 -0.06133011970193629 0.024900853849926474 0.07837464032824881 0.15966926145414712 -0.04303280966780227 0.05093115425337278 -0.21286583704092252 -0.19545745394392683 -0.5869610327565709 0.35124747962419556 -0.05390688972126733 -0.18998661968816546 0.27452043056380243 0.2987485437627554 -0.05029181366808617 -0.0879306921201944 0.2644445963833501 -0.02869886619076744 -0.0026590113689644265 -0.06935614311418342 0.012606644963238121 0.14899304855260917 0.08618394300439933 0.07897109766911857 -0.0438677751739376 -0.13279993323093733 0.03480534064642247 0.16478496093116954 -0.13272174399251896 0.21117925540911797 0.20487734244641057 -0.012144880964728462 -0.027675951868876444 -0.059829443734415434 0.01771655848979533 0.036870350250166176 0.018442286210218643 -0.16092345893895535 0.03512092403879893 0.14451829658077503 -0.7328525623770312 0.3650637748054946 0.047971924147341985 0.10519234660416887 0.2195845593051994 -0.05504093845601716 0.06800239869689959 0.05557954186092074 -0.027185101166098444 -0.06221734896871228 0.1887947537578385 0.019018370487210463 -0.18291055795625402 -0.17293982623568616 0.139941564612756 -0.15215415588926948 0.09887336769208954 -0.0804067302895005 0.1694302543933395 -0.03677233433450699 -0.0188055139993139 -0.1305461772946218 -0.09359094097173694 -0.01420969893441507 -0.11730902758028833 -0.06963124563172426 -0.02913255669250781 0.01728063937524839 -0.01602232181916001 0.11519116285098774 0.06736471876235381 -0.011673060913254176 -0.8664030840966696 0.33286352506532 0.15813635252730182 -0.02694255413369109 -0.07809739197392232 -0.16180986009830117 -0.0792791873196377 -0.03302963438747114 0.022461537510418284 -0.13547086264734234 -0.05603839293041015 -0.08636376561372146 0.033281052546621365 -0.027448046020639556 -0.07896518916549732 0.06647814516427437 -0.08780380188643823 0.022166355877768645 0.016207353886701144 -0.058399623849679894 0.000517386179765996 -0.11707972775335367 0.024510033990920537 0.013580257371620306 -0.01335847036598282 2.0229870520097104e-17 -0.04828406159143345 0.022380486652160046 0.028065914231068873 0.010595768426833872 0.005952599937164261 0.029526387743959406
31834 -0.3932178224161241 0.08053759760632906 -0.08023911925865428 0.3269197633065489 0.019316352140896054 0.07480688024388589 0.1877884037494852 0.009762659018579027 0.0007103347026014564 0.0963290110843331 0.0258010142428817 -0.10780273049541189 -0.1121323139664322 -0.06204096488182402 -0.296752729148292 -0.2525452560984818 0.10874978726006491 -0.13319119265182777 0.22689737702281548 -0.23056272599252065 0.18428592566391633 -0.20693268622911265 -0.1507403783645395 0.31604060664787104 -0.0828538276964355 -0.2542954416896752 0.0820910761300127 -0.15007132114831206 -0.0975530836791507 -0.12226111595123804 -0.12754525112630113 0.1389260972953166 -0.5881262773923445 0.20393162554686237 -0.08722292823794339 -0.13387719373425613 0.3244494020638177 -0.016678469683296192 -0.026297783547703214 0.18486578723415156 0.10050901425181183 -0.08298565298439141 -0.2608169471843338 0.1923490235080737 -0.05430491672047815 0.21308140330359804 0.06698448178940221 0.09912064162089224 -0.13331599256400115 0.02828732837310915 0.2467560592795762 0.1903852346911201 -0.19888243531994226 -0.02534655726899453 -0.06613966856302177 0.1313517136102831 -0.007375194810284984 0.1847588892073389 -0.06740386263215645 0.07617805805128929 -0.15848239482789545 0.08192018692014101 0.0576171282245769 -0.06842748376569316 -0.790134076851946 0.2637052363803635 -0.02648779995141401 0.10204864153309763 0.21095993735054505 -0.3008167287300342 -0.014138586669013825 -0.03641637815187782 -0.1092658201362789 -0.04418712301558231 0.03627522717468256 0.030771802764500283 -0.00639932803605738 0.1312815079567213 -0.02694071087965318 0.08266302776843212 -0.037352194276621314 -0.0038802748136902046 -0.06658533483315057 -0.12477088284554463 0.0591762696424338 -0.06253559901038158 -0.0425051116870472 0.07570255640659097 -0.08030617289434745 0.0720216578660655 0.09534970501643715 -0.027282674513939176 0.04530696125148271 0.22249040744790952 0.039433106195280336 0.08110935606379564 -0.8844342637901125 0.2689702309289656 0.05268179464217143 -0.031345328699490256 -0.023392559642856758 -0.15222574041575632 0.0885486885457078 -0.05562152185007762 0.06078124069338345 -0.2147270674340268 -0.07193194616698927 0.00748724296688734 -0.08264479297035032 0.027095481714645677 -0.09640747483698327 0.09092210580466688 0.03138866638498167 0.008842353104770141 0.06471893460059451 0.024638704511613492 -0.1010785161579464 -0.04777079339152167 -0.02186263318052749 0.005174222058550366 -0.03307478281725566 -2.2006776473247698e-16 0.01645306163304959 0.008421143104436526 0.018383162613398688 -0.032768001063106816 0.028196612446199355 -0.06599806941920172
34574 -0.4374465233990672 0.3711135230826008 0.005020219600613364 -0.25265560866091125 -0.09869752243255456 -0.05110094114315412 0.11870784700218169 0.07363312599067898 -0.36124570115638627 0.15888547993419672 -0.1932807070130584 -0.05779011090236041 0.21798684402482954 -0.18447065302023025 -0.05986231706894752 0.18925582899843368 0.24094963462402733 -0.10755899274929834 -0.17251320477573528 -0.13137312451875777 0.18890924726092292 0.16721112708630845 -0.10075732024548316 0.08554065809151166 -0.017110813056000405 -0.09008452960678798 0.08665506371520053 -0.1877828919863337 0.08412907409370167 0.037153733540876026 -0.0025027263828847923 -0.019885867591678496 -0.5073003272168006 0.5580455895744338 0.12068618758002057 0.03523428383048346 -0.46937906160842047 0.21970668507756133 -0.044666235640698916 0.061801517543779494 -0.04350790006452941 0.00392448140307897 -0.13912612566411853 0.06652636143447163 -0.10730563684590191 -0.04603090675444161 -0.04349594689906465 -0.06655173067377065 0.21450076070236074 -0.036215210583374444 0.04130821611912361 0.023018465614312065 0.09100112211773989 0.014289899299515149 -0.008138044409978121 -0.044227531652541695 0.109999950193684 0.11991622042431081 0.015684834504537812 0.03558948136171071 -0.06601709474917684 -0.025364770555746197 0.03366581123213278 -0.03441705787969138 -0.5600815656707272 0.5698888997614475 0.2743527948215055 0.015171029367713015 -0.005448894757583539 0.3449469415834004 0.02746103250757781 0.025355979392241105 -0.1184283775981126 -0.011216259925854158 -0.006123520281591219 0.017604531547199775 -0.026919019902795494 0.06268220004824171 0.017060460164860233 0.03390288149451243 -0.10189582822783742 0.0615922071873545 -0.12137527725215501 -0.03644128212786216 0.01836104315117019 0.055902709650001624 0.06733475295870349 -0.046011770289894977 0.13395802940015872 -0.12426306195812627 0.12409836784492473 -0.09173564503711257 0.14044015395665016 -0.0790711674633049 -0.13248764599404542 0.06283115460318095 -0.6589820824233552 0.42477578176914027 0.48396709993641396 0.0012177701220798375 -0.0213451449973585 -0.07121462460838372 -0.07792683473306673 0.00775743554710968 -0.035017741715418944 0.22640650093540265 -0.03477276506364729 -0.023106912518309746 -0.011801736400098156 0.051997112406796796 -0.06699617036336353 0.04649553042186431 0.027844476808046015 0.03975569591630466 -0.1546681119745833 0.14010267063392567 0.009117592810552633 0.01649992980014571 -0.04166146700510067 -0.04886282581113591 0.09374685819373392 -6.088369226864693e-16 0.0622833265609727 0.008304388058686909 0.09101239016557594 -0.015858428706288147 0.0010921458119236155 -0.06357713280821639
