416 128
30135 0.02626765285384334 -0.03647259753176604 0.03240515505058055 -0.047139840036954817 0.009254781236631199 -0.08815219587442812 0.007776260008942925 -0.020347659081808817 0.012833382421248178 -0.013467513121469583 0.03219511870206087 -0.04011755093334108 0.01133415257775197 -0.03762097786023849 -0.00020887175473611376 0.020327306854924145 -0.016923183030414457 -0.053085385043257605 0.04976702114686949 -0.0035498914074727906 -0.020201285910970708 0.04982323793832424 -0.022954668272429254 -0.0032734956410338466 0.03862658345923549 0.04985910832934262 -0.00012984364621378212 0.010132741577596641 -0.0019258936233397456 0.05033043995018754 -0.038720848367152484 0.0017210579215851346 -0.0030919196007515443 0.032716391420234865 -0.013081319941611253 0.000243991019082159 -0.0035689000197595888 -0.04117880013299602 0.010786141284074603 -0.014954023509783212 0.007099938681616434 0.004356203815380863 -0.03444565606405906 0.00627837805333229 0.005798164757731324 -0.0031357735645430344 -0.002695626211386255 -0.0007493032669658875 0.005733933831048415 0.007791195934964916 0.009579119250684968 0.012623697439112312 -0.028575430476832454 -0.06569836898164169 0.023441380371504113 0.011479956665949677 0.0014970307122134253 0.05626740132586213 0.04616566964704551 -0.040909958553719074 -0.04082695699191219 -0.005455695168415101 -0.009395186450512438 -0.003942058450480876 -0.011493790114760606 0.032376332414683885 0.017051129023016365 0.0170749374146007 -0.0010130369706796386 0.01822032514938076 -0.014711371760042263 0.010901432161200342 -0.005206205347850131 0.024984694036572525 -0.010769982240111341 0.07918115069793445 -0.012634259068981387 0.016131476439271174 0.003920242098111437 -0.024845123871310302 0.04068773616769674 -0.001361882307469375 -0.046418799554254236 0.008252423686012136 -0.04482811959687742 0.06087418438336432 -0.0040771178248633225 -0.00014318791368267162 -0.016822879624661304 -0.005549899553419549 0.0817556922040775 -0.08566255847688664 0.10892263351277628 -0.18762546438593378 0.14305913862068248 0.2299701989305679 -0.22620687384717464 -0.0650294849788482 0.1332454628661763 0.13829448870296174 0.03714808894065493 -0.08408949383733723 -0.0036611006032787807 -0.05046212869359204 -0.0058046016232101046 0.0328206075277033 0.04149043284193194 0.008948120912634921 0.007067711409163173 0.04207155924072003 0.03323287052907384 -0.022908213024781715 -0.03080002259337914 -0.10525708193129175 -0.021732931721468778 0.02602751294699097 0.07696307262355931 0.043330479066183245 0.0011124497658522982 0.13237158364252524 -0.009066589725846896 -0.08158713973970326 -0.02565470347941211 -0.09515742970114453 -0.050115869871867114 0.07219629635604574 0.1455766282321185 0.0037303120316352413
30397 0.260323320450725 -0.2132729955294017 0.13351874572220754 0.14083834861510705 0.14229664534569056 0.0017138480993216243 0.041085233149787716 -0.21246091560568836 -0.2534242262399189 -0.1159126550271866 0.059528089543827725 0.13890035334255213 -0.18836807773049088 0.23987298636834836 -0.0100466289513189 -0.058947582755481856 0.04134127822845572 -0.21525785477774964 0.05522005284139572 -8.31613288144184e-05 -0.014552408964158742 -0.02029206647620215 -0.02183039872861174 0.002261476478097841 -0.04530089094949986 0.040264476518056806 0.00134533467394408 -0.03188057978086861 7.498002400888179e-06 0.014658235085327882 -0.007063332361898544 -0.004866537131020927 0.000694027261856316 -0.005875724275131345 -0.01411949883056777 -0.008050257158662732 -0.0006140182624013008 0.007928791358128087 -0.004039448282749716 -0.015637773089436764 0.0033845715345644863 0.01088910886373614 -0.013723508580836952 -0.003148120808899045 -0.002996414796768433 0.0029101156215119318 -0.0032892941769615477 -0.002941287778567513 0.0025553450725406338 0.0027748921122116863 0.0025717461383634793 0.0030421238706341723 -0.003366505160240502 -0.0025717524833470187 0.001326772170218355 0.00023931821901917462 1.1613046770145725e-05 -0.0009807076753069457 -0.0013930048041957514 -0.00011826121321407805 0.004397945315449515 -0.0001660432795341771 -0.0008053115616974325 0.0002492882189300239 -0.0010107771070218233 0.00010449809500831173 0.0010487519208149073 0.0006790957376422964 -1.2473431027996377e-05 0.00028467783753573055 0.0015276941381830726 0.0007313823155737722 0.0019565537897026325 -0.0019377202520677816 -0.0007747644631505588 -0.002612030939005536 -0.0009328053211419421 -0.003343493809234039 -0.0009835496498236188 -0.000585462561937802 -0.0025060903444275346 -4.413846988037859e-06 -0.001107982626467534 0.0008613796619222774 -0.0013592580378628915 0.004328813818765742 -0.0011718544434629352 0.00012181586894292353 0.00023337001650445101 0.0011649319265069824 0.0008552342184945036 -0.0007812291662577845 0.000323218560791825 -0.0010235780427013674 -0.0004318669328560055 -0.0005899049989187043 -0.00017183521994885726 -0.0008729737408251007 0.00043718441394152924 5.8723630467848176e-05 0.0003130902658000376 -0.00024321537935360188 0.0002493113777261867 0.0003228232124860683 -0.00015667487022521365 0.00023929998044415848 -0.0006870890586389475 -0.0002512638910590966 4.693494938531461e-05 0.0002653738782173343 0.000256631982619572 -0.0001502767737765226 -0.0004776306449993608 -0.0007012780318354959 0.0006456662344595296 0.000800898573528984 0.0014682634546126947 0.0010093319074600607 0.0008407154206743088 -0.0006197390802066339 0.0010658223621132566 9.479533831841316e-05 -0.0002612461091052165 0.000671349859043706 -0.0007187211429367796 0.0008852751632347272 -0.0006904512822219413 0.0007704004343329858
31057 0.19621871651383038 -0.20415824412339623 0.150966763823266 0.013026501436615212 0.18851971039075358 0.021279808814267276 0.04424705787600955 -0.22110346570089973 -0.07321221516473118 0.13769871500712846 0.12515757249099269 -0.2607133556179331 0.1725788149201586 -0.2245641090422205 0.052944800400314275 0.11998313460832645 -0.08754889539056784 0.25749051787737653 -0.017298314937495163 0.002640823887878141 -0.010583781780860042 0.005972376453716646 0.029218038519163096 -0.005906281882047903 0.056512153176833224 -0.017719609896346383 -0.000612258770858819 0.02803814806040197 -0.0005436625638881381 0.003799169407714003 -0.009897358198565458 0.016087063656100447 0.0034555219899655354 -0.014875965608949163 0.005439625966172737 0.011503274925347709 -0.00017138996412940867 0.0049321722034605065 -0.001265618880516174 0.00603456915384682 0.0006991962813321755 -0.006527587361814908 0.01124610677219812 0.00038996541439229385 -0.0019435006175832076 0.0004029227593620575 -0.00016731231338278156 1.185882564392742e-05 -0.0020070277371503293 -0.007419316807068619 0.00032757135681665264 0.00027196725047141587 -0.0010313125335956784 0.0029700851943171777 -0.0014071490031019847 -0.00014843810805456647 -2.8830431485590184e-05 0.0004982999903621835 -0.0007067753613740615 -0.0004382204360991078 0.0009843076849015437 0.00015099900159851578 -0.0011437646376517012 -7.050639024126467e-05 0.0011634225610858322 0.001362907185265519 -0.000847233766176471 -0.0004253219180099365 3.920383962852697e-05 -0.0017891681685018703 0.000692755681750314 -0.0015684999900681424 -0.0009631695451475304 0.0006347756840303252 0.001335108521153937 0.0008209074134610181 0.0008595440479879785 0.0025620347969426455 0.0010039792832138052 0.0003464436689077019 0.002159128381550631 -9.344958313377028e-06 9.961352370158397e-05 -0.00024201613942977616 0.000638070986578981 -0.0009270579836870175 0.0010786203798064057 -0.00013594455932230945 6.505611888061452e-05 -5.250786352196078e-05 -5.930032751771605e-05 -0.0012947384857112613 0.00026712538708616694 -0.0005155404759675762 -0.0002377399595769568 -0.0002337975219640423 0.0003754522835352145 -0.0006458204225240228 0.0001682314376268458 0.0009711739548551035 4.680910046939678e-05 0.0009687929444499692 -7.814201202878228e-06 -0.00043633647184867196 1.518696798642478e-05 -0.00029798295743876674 0.0009043478574324009 0.00027088203693591663 -6.626424603569715e-05 -0.0004430324366720166 -0.0005137448645683865 0.0006096212871169776 0.0008702529528007291 0.0016374355510372727 -0.0011571210581436328 -0.000527893298963327 -0.0015565782282173021 -0.001315030419686409 -0.0007660743555803417 0.00018270184386124863 -0.001592135185116184 -0.0005725241895302418 0.0003343150572446647 -0.0022807057645499833 -0.0002614140531038726 -0.0005619646421206118 0.0006607579881604785 -0.0004296265600732842
34100 0.12930352806675327 -0.0882818380359624 0.057552875253679886 -0.08678768613549154 0.04185637039397387 0.07104302859052203 -0.007827101976749424 0.05964122141325984 0.18029997806482112 0.06193227738728787 -0.039956389381335194 -0.1303961418941445 0.1665140946114535 -0.195431327303574 -0.0040811103674060385 0.016527597352189824 -0.00557299651413555 -0.49962175862759656 0.23061039819874157 -0.017102558564668503 -0.08333488553267943 0.06371151546648844 -0.021338165691879615 -0.012721809165379511 0.055533624433040614 0.014213666975252198 5.860562874171799e-05 0.0006529177251672607 0.0002969727438251772 -0.013457282847223521 -0.018905019907313535 0.010217327005617362 0.0018647614065306038 -0.004185745418534545 -0.003295881957693699 0.0050226992875872225 -0.0001700296401557224 0.00098343242726809 0.001420334623881457 -0.0074088040274627705 0.0003417656437999317 -0.0021031849257067714 0.0030146142275605326 -0.003463920047036449 -0.0014884380462704134 0.00023420862157567718 0.002906352860492997 0.001266244441872307 -3.0087738059466338e-05 0.0015553839780736974 -0.00013584191608610177 0.00012213225883249716 -0.0019880656467224297 -0.0077128715776822905 0.002171068174216915 0.001114934298160716 8.069341217635808e-05 0.0002697279919145865 0.002881779058150619 -0.0010170623774784315 0.002554965159342166 -0.0004153951631170579 0.0010224154205851397 2.771328571898968e-05 -0.0013723883241671688 -0.0003454866897193692 0.0006485021308336028 -0.00022065373508056908 4.40035884858653e-05 -0.0014383645887090847 -0.0005494556603157773 -0.0008517466070612254 0.0020704589606156823 -8.695052057825262e-05 -0.0004325883009874435 -0.0021025252889407355 -6.338152236469078e-05 -0.0010324100793737208 -0.0014245562958716737 -5.727838786582986e-05 -0.0001046239473855824 -3.7927902022588043e-06 0.001504672587084714 -0.00024645099828096673 0.0005825424687073049 -0.0014436672561299337 -0.0002314737838758927 4.24271408976598e-05 0.0004563729635334588 0.001644372655419114 -0.0011074643738911557 0.0009816893039743205 -0.0023026891271191894 0.0017098160106980946 -0.0007450408319847682 -0.0013067025459634566 0.001980677529535832 0.0009139851576284207 -0.001030739942992548 -0.0013042084131508376 2.1963433272355337e-05 0.00042373490776405776 -0.0001278056975138314 0.00022729741966987047 8.420571454893202e-05 -0.00013656098790034658 0.0001696230861908633 -0.0001621979750141894 -4.960343799673345e-05 -0.00023640320266440787 -0.0001281927847408353 3.202112304048809e-05 -9.228337815424953e-05 -0.00011601781281221548 0.000455530239475925 -0.000139358170800664 0.00029309800345539774 0.0002644050501117187 2.2033390732322783e-05 -5.5374424935221087e-05 3.81015253238567e-05 0.0002872198543479969 0.0002704085245403523 0.00026913819134815643 0.00029398205108324606 -0.000341996610930523 -0.00017437687685647324 -0.0003014744583958386
31295 0.15157708041874646 -0.07077387228740073 0.050198904808507694 -0.2096943372068956 -0.0669776944679394 0.06356341899547507 -0.03712206832197011 0.22559326503712687 0.058344042328528134 -0.37980984510177124 0.2621983664417182 -0.051845176832933 0.02888273925779395 0.09874322083900612 0.01779372743705036 0.20649659144987287 -0.19512109523704116 -0.020095154263999146 -0.15783379656064164 -0.002984134051240939 -0.036352200374120666 -0.0029031470660587436 0.011142689629921623 -0.005494998738436714 0.024230257324006445 0.01601820449255314 0.00026734469846480203 0.00838166749985238 0.0001724727636365057 -0.00561675603697015 -0.0042640702402316835 0.0029408663064934386 0.0009477860191834987 0.0011679546242128538 -0.004626559949577542 -0.005054932665049568 -4.5420700476705295e-06 0.005371970452835738 -0.000546505168298639 0.004852147792711871 -0.0055891834654166845 -0.0016197065279746228 0.0017003653040905935 -0.00048201229940741204 -0.0025219345086132613 0.005607129290359 -0.0010628258615430271 0.0005722459038665678 0.0014863108280212018 0.0011314921984166395 0.000723862768190434 1.6676172635305547e-06 -0.00015996310246054087 -0.000631582123337613 -0.0003824425017895641 -0.0007790947042519763 -0.0007301561070911658 0.01410603554049666 -0.009161648273452755 0.001482321806114819 -0.0023132137676076577 0.0009725280601373253 -0.008888018982930172 -0.002466157855727504 0.0013130240094586917 0.0038362284938364844 -0.0012072622016021006 -5.601856517050731e-05 4.8908091975274605e-05 0.002834588503228319 0.0033298690734615095 0.0020627958628072797 -0.0019922091000471173 -0.0012816175782203298 -0.002809115456113758 -0.0005655961252796979 0.0005991297977532913 0.0014106849748561725 -0.0017439407151440788 0.0009743723931741593 -0.0010052661964959865 9.202281790951313e-05 0.0013054981773595112 -0.00017053229020993414 0.0013893772975691783 -1.6047619739898225e-05 -0.0003133573719814696 4.612078863001681e-05 -0.00032400080839979205 -0.001016893785319121 -1.551693788181055e-05 0.001167606842647776 -0.0018403502684119135 -0.00013177967514480665 0.0012964577728263142 0.0024070148806301615 -0.0028636676006714677 0.0002888964605693087 0.00014174015848028923 0.0011553558962581825 -0.00044111296008106154 0.001957974362373 0.0006660406784223046 -0.00019148442348751894 0.0006499538199595358 -0.0005961715852664034 7.418137873733792e-05 -8.568068361300407e-05 -0.00011301060961801653 -0.0006865757868069937 -0.0004418028331886958 0.00045500507776281883 -0.0004421585817040298 -0.000694613862796279 0.0006201461264407936 0.0007166973784980745 -0.0011983995064232065 -0.000592410637252969 -0.00031690568678560324 -0.0016393250640623983 0.00015512404393391106 0.002047346629406888 0.0010142697660260362 0.0010962500662843218 -0.00011014333690807527 0.00022040857355052745 -0.0023437326484302915 2.4683483352775238e-05
30977 0.23794234151407292 -0.05504637039281579 0.024511060048201652 -0.1959184692545892 -0.11470142292420739 0.02870424802097893 -0.05429044124655401 0.19498528684294797 -0.027783857992045184 -0.029100918278809715 0.08000630787071084 -0.10896189884220836 -0.1087138898781339 -0.021272474248050288 -0.09934765159812779 -0.27021118836309843 0.230783439705636 0.18690898565242553 0.25795440862189223 0.0021979166690921804 0.09100345360324182 0.10732076856758775 -0.08923010820659649 0.021279160025343656 0.023873764871453894 -0.023338755513933232 -0.0019359793457001053 0.008925205615589848 -4.165366596077958e-05 -0.018982168405701175 -0.021307882266668465 0.019387060539430463 -0.0010173721385011141 0.019332000792166047 -0.017742502598551722 -0.002418705870720163 0.003103925324722706 -0.010458830471340563 -0.003551064573111234 0.01037607994825758 -0.006891237050699308 0.0016675764943845236 0.007252884300309839 -0.007989354206931459 0.0014660193814619545 -0.019078019185423147 -0.008818238064124325 -0.006146284287908466 -0.0034174954601302807 -0.0026650556371368536 0.0039686071276031284 0.004129342922064669 -0.004410408384101338 -0.003740453542188939 0.002408938933365164 -0.0003081180291470988 8.927371527304732e-05 -0.007724794149385957 0.0009065115718366375 0.0035551152183605494 -0.002124813411259324 -0.0009179778360814849 -0.000277237955050121 0.00242762095043139 0.001236384933960707 -0.001185027583978158 0.004699454402629675 0.0012091075626372953 -9.336403872646463e-05 0.00013395786653170642 -0.001465142697681596 -0.0003191802163845231 -0.0002452854742259601 0.0017871710701504414 0.0024531435224753434 0.001402143775337205 -0.0001877325254735486 -9.178653984881388e-05 -0.001394586554961311 -0.0007133330492745495 0.0002862636813267557 -0.00010713985914379015 -0.002278925537480541 0.001035592652233341 -0.003028711773593931 0.00031477210997942514 0.0018700713851085154 -0.0002481252765353099 0.0003258230296473454 0.0007017888152647301 -0.00012073664791093343 -0.0005597515299755082 0.0032871966556073905 0.00029550276787250127 0.000498593157428613 0.0004243482856350015 0.0023280045430874308 -0.0012988835510626198 -0.0007066777458612757 -0.0022115996814132 -0.00029976126808137 -0.0030973773947379542 -0.0012052377165959341 -0.0009211449528491859 0.00040177505199494014 0.0009556961380724903 2.280547326697106e-05 0.0002716092620709045 9.707254198199685e-05 0.0008405526567824906 0.0008033094313071782 -0.0010121121360506429 0.0005169168010830585 0.002778243462635074 0.0005384254314694324 -0.001461460933014431 0.00027384482505516446 0.0007662192513913156 0.0004899673109904835 -0.0009947434844901643 0.0007169724785499401 -0.00046993580252687427 0.0004727801046925152 0.00046837922253174184 9.956422881210198e-05 -0.0011949725377122002 0.0011144884404852683 -0.0007068808628337183
31703 0.21268454300068276 -0.09796726336128375 0.05195178465719025 -0.0784725960772732 0.08236601267845653 0.10527803809477593 -0.008585931824049436 0.0422647322761592 0.19115405549706957 0.0759673923572763 -0.17922877062222203 0.13252053146202836 -0.022470395328159306 0.03666259297956728 0.008854825815062042 -0.05360650347220211 0.05563685688623005 0.12170468531051792 -0.2077577927671272 9.47885042071727e-05 -0.04152676233368782 -0.08873703716432182 -0.20236332815970767 -0.04585548266326388 0.2534077176126631 0.2481723050946611 -0.00419266704917477 -0.010122015017341106 0.0015024370608447083 -0.048032143236824115 0.12973139725701338 -0.1262086914621734 -0.01769134101865905 0.03711402192635861 0.006207666961006331 0.06403882305943638 -0.003531501025362804 0.0052517261650591035 -0.009517409205464787 0.010296460013757325 0.016575753180314998 0.018505381537916 -0.059284841181646064 0.026494069867694373 0.015257591179210401 0.0077473584437811535 -0.0030794764838854996 0.0011826305894256128 0.004995040578228279 -0.006310305980662255 -0.0041729032143186726 -0.0038667643569257476 -0.009238716713018633 0.005286844402824224 -0.0022594994718217187 -0.0025159425368407127 0.00030997249771482063 0.0005580813097932451 0.0013621015434573253 -0.0062637641166302955 0.00666227428165404 0.0013007229674039953 -0.005332115016299583 0.0040355845575128085 0.007792258728137167 0.007161613387224954 0.0011151772671528625 -0.0007962026713527063 0.00016228549029796767 0.005567867422317683 0.005395519370881533 0.003297763737585304 0.006536403568945761 0.002863197119168761 -0.0012151888174700514 7.572620615498016e-05 -0.0005000025005177278 -0.0013574055692969324 -0.001588192583089989 0.0014864693780479365 -0.0025343261843100012 0.00010528024472121714 -0.004256296726038109 0.0002540026620548653 -0.005656709068776729 -0.002635214224169258 0.003958468588483299 -0.000501295942696516 0.0008065854630512803 0.002140593371917108 -0.003910449157536758 -0.0017861282649044626 0.000323224491535809 -0.0021580573163402263 0.0017949912934765236 0.0033267958538615063 -0.0016677420013111385 0.0011047632214363553 0.0012563518076489904 0.0007563439848392011 0.0010659537509908577 -0.002205025689388118 -0.0006041324187097235 -0.001864873105400865 0.0010741495866410213 0.0014258205883581382 0.002529378274998129 2.217667741446637e-05 0.0002845321695130039 0.0026188670015983686 0.0021318971102731324 -0.0028377771615982683 -0.00296358282076263 -0.004793125333016887 -0.0005767686273560977 0.0018624259228510634 -0.0005211512873127509 0.0002271441837485024 -0.0012393661335195197 0.0027163106523984664 -0.0017504641038634107 0.0023531857738459325 0.003754435719693564 -0.0015341211326913304 -0.0010979642463741315 -0.0002853379376710633 -0.0031495067027210513 -0.0032759331963997827
30721 0.1396239839085847 -0.0681374710461708 0.04147796144929494 -0.09245643970539946 0.05445083530591348 0.09656698847648193 -0.009379954243056567 0.05528248169413366 0.17136618902706835 0.056496650585124764 -0.12034090902950142 0.05592256531649328 0.0218631594307115 -0.04304838265364622 0.00015922952193529716 -0.023160795176298377 0.027288850970411838 0.005361440287156571 -0.07874691405056344 -0.0027506424807385906 -0.04797048177970205 -0.16700924248648985 0.011199438225858754 -0.001956252759501142 -0.12302211540848378 0.06962688967026248 0.002844708505712813 -0.010426112657414372 -0.0007193532030761189 -0.008685062856011887 -0.30999505728830407 0.32976287768390483 0.04550781897863575 -0.07768085074110012 -0.07887140040459545 -0.10874872937051296 0.006198089247669011 0.023027951420249708 0.000991920983762642 0.07400172134365873 -0.06853874251321901 0.05301700422755626 -0.1123552919339234 0.030410043524300528 -0.005943821121565726 0.0074189687978798505 -0.012604690628674208 -0.005282872938481442 -0.016405875911015933 -0.027798829654130084 0.00536778038903992 0.0036181643694908334 0.0003860088294071287 0.00933872250719564 -0.0017732045124716313 -0.0012980781035830178 -0.00037440222805793503 -0.0013169655598664295 0.0003415972313800047 0.005401350979663781 -0.001586771202592058 -0.0006540393881790277 0.00045411264029406116 -0.0006706071479983631 -0.0004374245392621475 0.001645124708424105 -0.0005335371100950612 0.00036942985080840756 -3.9910687078251555e-05 0.0004495348866900442 -0.002704936800662145 0.0019495978411695736 0.005449686514377316 0.0014730354875545867 0.00045914286594285155 0.0019567597297689455 -0.0032849619258669936 -0.008231802027529943 -0.0014892352557572062 0.0006636612964700365 0.0015402982956086073 -0.00011890421075133628 -0.0006150906043324508 -0.00011739994741265345 -0.004847041923038258 -0.00447900368218933 -0.00032809924755235317 5.363722693875157e-05 0.0017257548795539459 0.008086188597661833 -0.0035506499424193348 -0.000979281441652352 -0.012365098204301338 0.0010993805696848068 0.003334392777066814 0.006528506008595784 -0.009086041332968808 0.00868908801812902 -0.0008756570414966084 0.0018984714477439171 0.00028766092227863055 0.005391167053405359 0.004889073571574313 0.004249701617626493 -0.0012172494606384188 -0.004747420116132167 -0.007632712094135391 -0.0005798938429164115 -0.0004639864254213022 -0.005275592229326541 -0.004350807065294074 0.007865328908440725 0.006337002888358193 0.01246235287210083 0.00044948484435924875 -0.003195512645373729 0.006708654208968575 0.004246397719465628 0.0016059920612820533 0.002042708933994169 -0.0011773086312861524 0.0015382106585146464 0.0018086328196526735 0.001124292867426652 -2.481533381229386e-05 -0.0012057099063551317 0.0026350193098113664 0.00037073215014594323
30529 0.06663993228471057 -0.0581336938801279 0.0399668744695858 -0.05098276800741358 0.006602466476872883 0.046644719855366 -0.008517918440426459 0.029242143300036258 0.0015726804174620718 0.006988673818656151 -0.02214065168602589 -0.026142769435904333 0.027253941544722077 -0.03404030775004824 -0.02745463048954237 -0.004495942244598872 -0.007019929163447663 -0.00028503735467469427 0.011119591717665467 5.282504817152086e-05 0.06484242447671915 0.07050016721888504 0.12953709600428176 0.03785121327593888 -0.25693032745830546 -0.18166422930673454 0.0026000753946497012 0.001595301171075092 0.0007422972318595665 0.003847993106790043 0.12694673041304522 0.044686170438757854 0.020676017879854326 -0.14003540805769038 0.03428512234227297 0.020037817897313934 0.021301165331693638 -0.0011643056358172713 0.039631041126401215 -0.08058469504180871 -0.07831444661451839 -0.06834874378081426 0.13823369173141387 -0.042344751492834315 -0.05728829955278424 0.0012111952882709583 -0.0171259144818148 -0.01900473221469759 0.02591534547805076 0.015227766309930404 0.03823864425004683 0.037293558283149814 0.0256130472386517 -0.035621652975296354 0.0123828226807991 0.022384611096689155 0.005550122856992896 -0.041511000221037916 -0.021886270379047085 -0.057922943261569625 -0.002136479235410431 0.0018886287678263646 0.05468465168247791 0.04309732389770122 0.04663227078557559 0.040987328087063846 -0.006917568302983042 0.031253271186899634 -0.001358462968152701 0.24709768003625945 0.2637913770307464 0.20051958199731257 -0.028640305086898268 -0.0067904654040086485 -0.07206199660697885 0.08665013728663004 0.004829726653522784 0.05042485034570677 -0.053122245625578504 0.059433084843393866 0.0018966596418183834 0.002021560985011751 -0.05565520228400682 0.04341279008435159 -0.13344840135820912 0.12723528540859408 -0.008342973662343451 8.809099317141598e-05 0.017674617143719602 0.02743397732935917 -0.0366576834841805 0.012060253364820854 -0.023649335873242264 0.009309250847881503 -0.051095257506518464 -0.049281593417013964 -0.012679073118747528 0.036369143368913046 0.03492643459519804 0.053194798921392714 -0.0450148958651055 -0.006106220199557764 0.0042847656335381 -0.05783798184077615 0.03186567656243964 0.019568703275523222 0.020365311466636466 0.0030923746218732583 -0.0015666563523947243 0.004846884611687457 0.005960671857232213 -0.022512718652507445 0.006075316935550296 0.050267639286122885 -0.0710447336881479 0.03507968272127776 -0.052495965207480705 -0.0304403237795414 -0.0037757910504177413 0.008391862259770082 0.011593332311886622 -0.02010585124531057 -0.007226047092136716 0.008690413741988407 -0.0006552529216647126 0.026952479834587175 0.013138297665817079 -0.03670084580224062
30198 0.07828953752350587 -0.04577555310986492 0.024332626066894347 -0.025686113809452224 0.0001910524571211089 0.016769743434946055 -0.002118346949494071 0.013002126970409509 0.03159860806759749 0.024093515674283417 -0.03627045649136436 0.0024286613142783797 -0.010174924864734466 -0.020382842503684273 -0.0072921868017604185 -0.003843741046592075 0.0007203932215801567 0.030223666245999786 0.020951383751051905 0.0027122374970571673 0.04150379857270029 0.013037882886039978 -0.004971090658875854 -0.0005287186328925067 0.03313057558788122 0.05758135195604452 -0.002597656189317674 0.03724647124207138 -0.000386368374154156 -0.04445180094348867 -0.10733413576731356 -0.09661378022398405 -0.050752154092156346 0.21573446285208767 0.35635213288883527 -0.3671025837454499 0.04770402280200066 0.3024774289068828 -0.04606797979599455 -0.16459856175580534 -0.06213964755926343 -0.0027280826750120946 0.021715896432083784 -0.0059742347540349666 -0.05158869739220035 0.012746273217554213 -0.01945907010078927 -0.01306861413309112 -0.00640071697116619 -0.027423530028068063 -0.004912855521214786 -0.006277247190821525 -0.011666010275508634 -0.003280863487766999 0.0014117712740952097 -0.00038204735975706544 -0.00021628044625225277 0.001172131906134988 -0.001966226307389016 -0.0021701589140340335 0.009681790605028402 -0.0003288503333624737 -0.0030915070335125 0.00013203373972780737 -0.0002863453012248297 0.0027936004784066956 0.0012521449373924828 0.0001476730190940979 5.9357063025815884e-05 0.0025167851899189457 -0.0002394280009381162 0.001224819517622661 -0.000745908661364074 0.000863427466653932 -0.00108313095784699 0.0010419077983647197 -0.00028801843821719725 -0.00011973262912588333 -0.0004094265777817559 -0.00016641145547003104 -0.00025169714867851866 -4.996271260908705e-06 -0.0009553737347652398 2.240239614838182e-05 -0.001219174887575232 0.0001774365321086501 0.00026020490126866126 -3.749718422390013e-05 0.00024933851868274995 0.00041457704607707766 -0.0007882812841263423 -0.00010485004153398293 0.00010909553303054507 -0.0004186502123923186 -0.0005597850631829694 -0.000688786156594838 -0.00048391470882976767 -0.0008364870587205296 0.0003943679811175809 -9.720143992384897e-05 0.0007783973031042016 -0.0005732625567501162 1.0763156692316679e-05 0.0001431447657082134 -0.0001451748606627755 0.000391757586688865 -0.001022453267898629 -7.838739756115118e-06 0.00015503096137876003 0.0007924587207786362 0.0006135876662969491 -0.000293530920123962 -8.20403984644856e-06 0.00014317425949504983 -0.0007139068414605302 0.00039368629878703144 -0.0001508806370521757 -2.0353775230524604e-05 8.530513903044805e-05 0.0003266552895385029 -6.16025157791915e-05 -0.00026889840416882 -9.336874503363887e-05 -0.00085962174022014 -0.0006878945918866097 0.00088407420855498 -0.00015054245142510046 -0.000151699148375644
30434 0.024645492987850254 -0.02909040689434217 0.024394895864626315 -0.031762803659663774 0.0180659769884373 0.01906267208791609 -0.0012940725159929847 0.00732015726567381 0.013203246903724236 -0.01838935777220871 0.057222912981954976 -0.08661215355227408 0.05053585173293581 -0.06440578316739197 -0.004090445386505405 0.019907220763148277 -0.01674065287970656 -0.02225654822684688 0.06618146927368254 -0.0035369301732139317 -0.016500965964723127 0.013768067438799908 0.0034134067458004708 0.0038979144651506807 -0.004429576737727342 -0.03964626199191129 0.00032637864541569696 0.0039011939066914345 -1.4704594193663822e-05 0.0015624096135615773 -0.007248243449546568 0.013513553858781027 0.001696221826800375 0.006357447381086748 -0.02352285819491473 -0.021619496937406613 0.0021887784542710493 -0.020957526645433974 0.008647283899739941 0.00025274987261793974 -0.01994665781574867 -0.013484521036794398 0.03670872465511414 -0.033376654376662485 -0.018169165385595838 -0.015412383184125786 0.0034307703736273466 -0.002385906730371905 -0.011019149334599496 -0.022907090507885704 0.017647573549688572 0.018809110751997742 -0.002665414052211851 0.003741674256723622 -0.0023613778322571152 -0.004166702159314304 -0.0027100977946509465 0.009749610021780805 -0.038291331939232225 0.029440108178787186 -0.033076483722200865 -0.00115516398956763 -0.020875695175980067 -0.022430998518323902 -0.027816956026635493 -0.002814274124749515 0.01041712083361927 0.019194749896623634 -0.0018977448131567301 -0.000754355141929057 -0.039326320094273115 0.004931554367558207 -0.008603218980098257 0.008327569845452229 0.037654536568655896 0.06331620325924364 -0.0009678733132670145 0.02861008783922515 0.0017421596327152607 0.0063196550092210575 0.046643723465876794 0.00023925943505888857 -0.02478994329673349 0.005893458594431756 -0.023423708986594616 0.04171754274957001 0.016419153409303586 -0.002687420724963651 -0.032964432576120466 -0.036843695810332165 0.09225904901698957 -0.08000102491287253 0.13382274585091433 -0.17632372586290973 0.14682177097515872 0.22581461075465956 -0.2411821880104766 -0.070124560264866 0.1385967536953462 0.15381030028965867 0.042990868870720414 -0.07159736254367412 0.0012571386654473275 -0.04169059804224792 -0.011666397593772424 0.024107835858326633 0.02313811018313075 0.011080229819567876 0.005505392726090625 0.02792579403828326 0.02079838128212622 -0.011609084398791209 -0.012788922400541518 -0.08443258381853637 -0.019527764244610522 0.0011585728989736027 0.06921322203358746 0.028575995678700426 -0.002426004220848744 0.11373145600263469 -0.022181319338998924 -0.07020905964956982 -0.025767739374093313 -0.0892124707670152 -0.04390505942654142 0.059054329931823635 0.12279964706127691 -0.011679288648219106
31577 0.01449955027538031 -0.013126721347386261 0.01102052548221788 -0.037957126830435395 -0.006557699150081454 0.013117100522241326 -0.0073223830150200425 0.041168156959922986 0.012264555926351839 -0.07554553753060816 0.07384340627732114 -0.04987190892727139 0.017111780968738513 -0.006571928112126297 -0.003975555700621304 0.034875052177395234 -0.03411440222609845 0.009223999016798323 0.0037319887350544534 -0.0016941118818806639 -0.006375326014891186 0.028132329465197753 -0.013715424364244 -2.513758679903097e-05 0.038725798646823684 0.0025655555049860085 -0.0005569724306705372 0.014192235061287677 7.65610188988605e-05 -0.012761618588670087 -0.01944178946501554 0.018758207847647302 0.0017188299589207877 0.00531036328406536 -0.008209036593443525 -0.005483799032037284 0.0017107420879551877 0.009160707344348994 -0.0061211990214249685 0.014817142351845355 -0.008679422416590536 -0.006710089879644809 0.014623628365205211 -0.00433070076681992 -0.0019104512693641782 -0.006747358848511996 -0.009718495739979254 -0.003622603179740872 -0.005917394520567077 -0.008090092325811551 0.014439303773506825 0.013729841843895455 -0.005005463472914766 0.0008640968704945427 0.0005311050381740126 -0.0025824265160599756 -0.0022687240289853026 0.0542748304114208 -0.024106530116173194 0.0017188743724423365 -0.029500321206234102 0.0051210861202319515 -0.04886501642349723 -0.01806636040520134 -0.010308750901905547 -0.004482158904388811 0.009069483545414446 0.011707515381313722 -0.0012597333221238693 -0.0183396391524841 0.05135384004003772 -0.0022761014157397933 0.018950101680183802 -0.019187019402311812 0.022540232479097193 -0.000993915529477868 0.006074070129485144 0.014397593646105785 -0.05395668489187321 0.013162607497780737 -0.010957244042452146 0.0003301108498182975 0.0009761082429592942 0.012477907882817243 -0.026576884362296372 -0.005041826602072148 0.049091424906195114 -0.006467000996050034 0.013341782353833266 0.06603700990631196 -0.03567329729580193 -0.043639572484009743 -0.04621446120777675 -0.046908492696578055 0.00895929243557255 0.05601370803447918 -0.051398337631903254 -0.046155326160798066 0.02976651733539821 0.05689331052175747 0.005953022993198045 0.06387543174600423 -0.007770737313189319 -0.0655471007764388 0.02519561637141739 -0.044175378359188396 0.021745134763771004 0.06500228237199976 -0.01074971506546868 -0.05578503826223922 -0.02259086475911503 -0.004531663251293454 0.009324610446303876 -0.0029990713388362254 0.049367367732650505 -0.031853567762469684 -0.175464020496556 -0.12248860565008159 -0.03046141969972308 -0.179263507550697 0.08753561076176436 0.024305799456886403 -0.06289042372199126 0.18446226342499328 0.12991956839266655 -0.039330007425946195 -0.09633705753281618 -0.009193126084190276
32070 0.03662638656348677 -0.04273868300478405 0.035382271320825 -0.051436182532803465 0.011827838761408062 -0.03900934985692994 0.0015015204496951207 0.0016938747054745518 0.01363961171482015 -0.02016731700304535 0.05833215927472665 -0.09045804459323407 0.04008774631465543 -0.06269026397651582 -0.017005248280223255 -0.007834683559092608 0.005715310644398473 -0.026640663356382793 0.09634472983566356 -0.004291663549077311 -0.012056041993937002 0.03000623062438696 -0.008375650018609439 0.007421203412000552 -0.011726991723280358 -0.016074749716872727 0.00037806501212568757 0.0038493522180314474 -0.0010221446911366696 0.025991100207262946 -0.0488783145426583 0.02828075335542945 0.00205875587495237 0.008459892097559485 -0.005150799517928406 0.0049427874949609695 0.0011389058831925833 0.007695896669498201 -0.009631408469471156 -0.0038910510421505534 0.00696226310725034 -0.003241579439548387 0.03502844142620937 -0.012662996906395111 0.006104920696192022 -0.03327044993437775 0.025646229467620577 0.014494257067372014 0.017246321370935756 0.09409048524404974 -0.03959523810747077 -0.05433872583620198 0.10630842089496949 0.09954587900001731 -0.03103347948451734 -0.022076889919153655 -0.00489280753572473 -0.07844966028461539 -0.10866877305435241 0.10100732258980527 -0.14421426192362619 -0.0008575236004478778 0.06936820176382155 -0.030838590190972983 -0.07565625507926249 -0.06287287828761759 0.010300731802656367 0.022375068041923164 -0.003185625533579506 0.053333003387991074 -0.07742281806181052 0.03775509430657174 -0.06040119554874551 0.002573111885446863 0.046618669106998786 0.06530928077468018 0.012101476663384274 0.05166319689364271 0.04020136466236356 0.01788424762956351 0.04951807316516792 0.0005533146445992237 -0.012853903190783786 -0.000711577585912324 0.03144859730555159 0.04099562670803429 0.03313815193618933 -0.004833429651825427 -0.01991248344571926 -0.07062247205351227 0.08905891784093042 -0.08953847481792686 0.09623590492433726 -0.13256893171837023 0.06605990633137361 0.11075875753651332 -0.17213039171667488 -0.027794385050410875 0.05087726782580716 0.07075503714083897 0.019532035477369133 0.018162494164269353 0.02597298336370359 0.047685286523364755 -0.027957102603044848 -0.020397861884157324 -0.042806536186893465 -0.005105140277444501 0.003019542709992431 0.0050902801765536475 -0.00358702318001002 0.0190755531527789 -0.007603185487972536 -0.028113489549899402 0.004532191402567679 0.013355495112584881 -0.01007768023967744 -0.01211868595685995 -0.0049755870255839725 -0.013637647564248033 -0.0030425666950433393 0.04146984183103219 -0.00387188065935161 0.05500841906029316 0.02666449709188304 -0.018266998772627344 -0.09530063391718653 0.024796481973780277
32467 0.13704621967765093 -0.09663743390238227 0.05007547801613374 0.01754756291695664 0.053362333200863935 0.024654241967694196 0.004392128733279247 -0.0020026859351030823 0.09379774814836361 0.04029516909760478 -0.15040965053916802 0.15888209696363964 -0.046309307977414296 0.057831737604541994 0.02965434651598912 0.02924856354409131 -0.02049201373462893 -0.03810258271383282 -0.16450807672700735 0.00550251670971977 0.07122604651826234 0.26105987255415786 -0.08746359148534755 -0.017606468153915145 0.27531746311507566 -0.2888513505315856 -0.005894108046049909 0.09618105130182451 -0.002650633449676037 0.07275984086223905 0.09512124338385872 0.09062933069762548 0.010540071683892597 -0.005237441369526051 -0.05952478225500535 -0.14784365312550066 0.009891162878095909 -0.029056177768484646 0.025346987810338936 0.08069066733806654 -0.07806499509822402 -0.02371988791630793 0.04834593488150114 -0.04198472989971785 -0.005257880467952784 -0.025259987831055576 0.04766681973911986 0.022100142926630782 -0.01932310737608406 -0.021327593300178048 0.001607532103212914 0.0009163237324525295 0.004668640929771766 0.022614634934750476 -0.00785442840053322 -0.0028963795621648023 -0.00038691748464858154 -0.0016652151711037129 -0.0019445108882269852 0.00044092065071071185 0.0028571587328351275 0.0006781837432318069 -0.0024011581718734335 0.0011186743194687278 0.00016482738411554377 0.0050855865013121945 0.002319521304494299 -0.0026520657265884963 0.0002910095319283815 0.0032219596224390317 0.0015731645871015824 -0.00038601874289722 0.0010052211036343543 0.0013102602781747312 0.009905395341222251 0.0035994060978430014 0.0016878998309974723 0.005332784797637588 -0.00029277767664263486 0.0014498075113327307 0.002159515269542661 2.6408990243803577e-05 0.001283171659065129 0.0001613519571304745 -0.0018288561556320487 -0.002874002567243971 -0.00022324049929993217 4.102120156833987e-05 -0.0007187247325074312 -0.0002139740842382567 -0.0020567525768570537 0.00045734096687550206 0.00016766549596371368 0.0015575069825254292 0.000981034307197615 0.002377569380964381 0.0017534938938019266 0.000699815955806142 -0.0006005614627254737 0.0004912105995681319 0.0014808529696627164 0.0018923923172741762 0.0010751363400911334 0.0015731514985867718 -0.0008709717284502654 -0.0007520493118698592 -0.002335676662272785 0.000457034544994262 0.0001244687208682802 0.0002925328194169196 0.00046671764036258995 2.7426012811135715e-05 6.510558442372272e-05 -0.0003142690673033112 -0.0012517638410176914 0.0007135027577193811 -0.0010498823569549806 -0.0005532974890806409 -4.4579495311912777e-05 -0.00036220671282772253 0.00048023027070209486 -0.0008094434862701864 -0.0006182216188842656 -0.00025629112321077976 -0.0003391885792617391 0.0007035752404896045 0.0008790208888235177 0.0005085850574691307
34082 0.02684904257210892 -0.04327386827118077 0.04127509695291152 -0.13113959132630057 -0.05271965262167744 -0.3870089288411299 0.01990129408791126 -0.02796672586570892 0.08193790904443496 0.03160597013848074 -0.013093074918859055 0.020189068656798564 -0.44201190281018243 -0.2832554036195107 -0.05023620938995612 0.09808793777026238 -0.09218564944699734 -0.026155320952160416 -0.013666100903655248 -0.008123342328762334 -0.05982432624457953 -0.05941482511536013 0.006654625995993873 -0.006261254820573671 -0.020027657361523517 0.03731797224902827 0.0005705449610052374 0.002506215047489874 -0.002563447558041267 0.08710137049032565 0.02445006806365764 -0.0071912430887253725 0.0011219057414329223 -0.015506754252427618 -8.655108815918203e-05 0.0003538447088116837 0.00295143098271512 0.009471774366373975 0.00290737055089646 0.010837641366982249 -0.018715591084482903 -0.008777465404863863 0.017855193746006796 -0.005091177511126919 -0.008930593441738263 0.0036693643737654765 -0.00410539951081536 -0.0026625375989704865 -0.0038999520892504403 -0.015877368600643822 0.004364194178546683 0.004267647543444112 -0.0018589612835035116 0.010146353991323902 -0.0033652191977751114 -0.001873204680060487 -0.00010384370978441131 -0.0038984565451503014 -0.0059564955084059346 -0.00053113256032368 0.010398370787705849 0.0005736616740495233 -0.003778123175752153 0.0007819848158276349 0.0013199220539287168 0.0014644231208150258 0.0005924874744663317 -0.001148022551919172 0.00014969832057171417 -0.00256669257178623 0.0025013761334036185 -0.0026014826548480478 0.0027230942666689037 -0.0008111497163814131 0.0013500939561451727 -0.0023495833060880496 -0.00011153792819017499 -0.0012229841986392239 -0.0017351924118382473 -0.00011012899125598368 -0.0009230646069340615 9.137129419200662e-06 0.001115735630724063 -0.0006783818624361312 0.0008753840379714488 -0.0022178608406081147 -0.0010586239150751442 0.00015413532193954684 -0.0003032364189598201 0.001453660881193463 0.00039711653890230764 -0.0006319075094581364 -0.0006738005048407096 -0.00033420815551712946 0.00046747532140376663 0.0005050692595134354 0.0007603089572099653 -0.0017260411091123574 0.0003444358853850957 0.0003170990976717296 6.815910997120742e-05 -0.0005415979528347187 -0.00018934646856132978 -0.0008835207337205535 0.0003702168637003156 0.0003197059157359957 0.0002690172082107046 0.00023186331948267525 4.906716157794121e-05 0.00020897450009165885 0.00028495833824187383 5.662016275038767e-05 0.00017474652303726013 -7.435899607085086e-06 0.00014636336826537788 -0.00035143389702826065 0.0007012969603545031 0.0006755545718753449 1.2734532502130637e-05 0.0011039060120171893 -0.000356992648264961 -0.00016524672501999627 5.448858088930031e-05 -0.00023589083181450345 0.00021987536201334684 -0.0003700645252817719 7.817069142537943e-05 -0.00018997345812866507
33195 0.10402358143303131 -0.07805520833729714 0.043879156869009325 -0.015470786441272366 0.007907916365085164 -0.043795644456520275 0.004024172550997823 0.0031365231679658656 0.047110323830382966 0.01808245797416147 -0.061727643215841246 0.04877541884141268 -0.016400434998335166 0.013038839109742323 0.007020263271952358 0.031298379530556225 -0.031107212132614956 -0.011106295418740753 -0.037508564082913406 0.005938713793346325 0.09204092749784097 0.07538553738786923 0.04696953138260151 0.01287938007636886 0.018305980240037684 -0.20206050195834008 -0.0022710734659076967 0.020517510239315383 0.003599011798172477 -0.11510400158402978 -0.02432387551611527 0.10020283045381768 0.010303458971639513 -0.07489377291997393 0.23385178300117304 0.07003329308665925 -0.00629353166772073 -0.19428587684521048 0.0748762969653356 -0.31586835352689807 0.12790079737477233 0.05651645076501215 -0.21360783656426238 0.1191976353695021 0.048509498721988 0.03231354161747024 -0.03024236419183952 -0.005935539436100701 0.022564698717989988 0.06789429753009692 -0.05612036602988781 -0.06418247337229116 -0.0022640139026691933 -0.016387652630234 0.009542099773194366 0.0109136654899693 0.00350604451554546 0.04510873799941584 0.07715587973986615 -0.06834570459525169 0.0074196980517441296 -0.0058830772013761645 0.004965872362477961 0.002549393265869001 -0.008691782853750952 -0.002331677726498653 0.005179767622060247 0.004272900778371881 -0.0003517578409149298 -0.015210665535302162 0.0034126536926761914 -0.012129028664441566 0.002788757752585334 0.0047391219195965124 -0.01924320161897212 0.005067847660846164 -0.003982052551235751 -0.003129504663256643 -0.005157865131199793 -0.010885999371085187 0.002425459800749379 -0.0003887748979756592 -0.0018269555058828073 -0.003288982809179136 0.005350770823557784 -0.004718405269126922 -0.003497139696011922 0.0005112846984271372 0.0003866102239136644 0.0002549266585421396 -0.0010224125383919308 0.001251413714850136 0.0014761610455461117 -0.004943197611298301 -0.004094366850471636 -0.005404719900436399 -0.0060400902124891735 -0.004158083323172838 0.002713120882524063 -0.001837267268860361 0.00017231449442544705 -0.005788154448059749 -0.002093112746410191 -0.003120022639345274 0.0020782872382771166 0.0025257877227234655 0.001440917098971435 -0.0008342505888843947 0.00010050112683289214 0.0005130164139827883 0.00013773647289077738 0.00034972314520684354 0.0003758789673445072 0.0005629557718875859 0.00392370438957815 -0.0035458933859703365 0.0016409689419170283 0.00042228405538165953 -0.0007608185478333002 0.0024402288665313432 0.00036419802546817513 -0.0039436825994332535 -0.004665805525539739 0.002726184572954971 0.007489184392842513 -0.0031928159616136024 0.0038071336504919805 -0.0011141516034170469
34761 0.03475201376921446 -0.059164217321416426 0.05553090843750972 -0.14792322572659278 -0.0702783844223344 -0.5094083719005822 0.02827070497315451 -0.05166170014897331 0.0325885970263315 -0.007816320439191227 -0.04519643947462626 0.041523551188095725 0.35632028003294286 0.23001244667799225 0.041984351308146754 -0.06694618047343477 0.06349830242584625 0.007341013113396064 0.021788584608742584 0.0034734805957007137 -6.696245426103531e-05 -0.04670007574076762 -0.0053484074110196345 -0.001141772831763952 0.017072917647587935 0.018536133687189458 -0.0001848232090475247 0.006778146518314033 -0.0009383776746309481 0.02515833700321101 -0.010060953384244009 0.005757718475467119 0.0016167500463832411 -0.011476325828927922 0.007634102033664485 0.017670359570502735 0.0016591574694769014 0.02873830455269083 -0.009416170260270362 0.031190695526960202 -0.012588608755618841 -0.009458486206580775 0.03272200560924397 -0.009823458229473466 -0.0036571475915646388 -0.0031763973385528334 0.006178403728737546 0.0024114242559614306 -0.003037929094036226 -0.008088764388310894 0.005342818453409694 0.006446753765607544 0.000560504995285923 0.00035793578803473836 -0.0001589519675411974 0.0010109097516275822 -6.984046410798929e-05 -0.0013008445701043897 -0.0007961268698962257 0.0019769218262469627 0.0009721411952607201 3.463312521858079e-05 0.0002529332290663461 0.0004558468687184511 0.0024821171352016596 0.001132728549306624 -0.0008540491132638436 -0.0009637395064976892 0.00010408800980879978 -0.0018990837531294002 0.0006257047379722965 -0.0014316504066294753 0.0005026039795865589 0.0005860763800574782 0.0005008665721026742 -0.0016865634551820885 0.0003350523768222823 -0.0002029059733914011 0.0012973792882171086 0.0006753438548763105 0.0005890326721556764 1.1402876088272007e-05 0.0009686210730460061 1.923762727968183e-05 -0.00012893522284984638 -0.0002954668274511782 0.0003223825464649115 -4.2417602660308116e-05 -9.204516775632252e-05 0.0004457531780942166 -0.00010238005265935518 -0.00011661998176920249 -0.0003658902480371505 -0.0003972865204670134 0.00036873525895768713 0.0005027092042340087 -6.623752754651713e-05 0.00048150582709035987 8.802951569979872e-05 -0.00026857968208668717 0.00016606011588851752 -0.0003799761376939298 -0.000175219586257143 -9.409441019908593e-05 -0.00016287320062939484 -8.877865195085557e-05 0.0001849773192848063 0.00017722228522714756 -1.1958938819224248e-05 -6.849649616898386e-05 -4.932297614681103e-05 -1.4067685479261446e-05 0.00010080316289792345 0.00016371318460356443 -0.0007383628723508064 0.0003307819452385498 -0.00044235327894351015 -0.0004150696111290429 -7.187967242900403e-05 0.0002891423888273445 8.56500040418498e-05 -0.0004517725764878588 -0.0003803528111035225 0.00016576405824634578 0.00046602634218873354 4.672727666304218e-05 0.00010349666503576237 -2.7024590222710066e-05
34711 0.0191067683457544 -0.016396052069145826 0.012728967583269345 -0.047020627695414645 -0.007538545924811846 0.015423085138077233 -0.009586609299448212 0.0548783505958057 0.0491701270678445 -0.04500944195018386 0.030015779028310735 -0.049267367600294765 0.04305637622254689 -0.03285590534312892 -0.018641179361112755 -0.009025686355300808 0.004977117860344729 -0.11913162276280215 0.0905925229533778 -0.0058603767871042815 -0.017753993685951014 0.014826380764083949 -0.005947100648707661 0.007446648459795124 -0.03552842762435615 -0.04923245009951596 0.0006655415040432817 -0.011241337216437941 0.0005233887123668257 -0.006626196651120159 0.0014073654920734868 0.002616892742739246 -0.001569964407174971 0.022211723487326612 -0.020451604648188175 -0.03653724506111855 0.0032870926515769583 -0.0387335258887002 0.0167567184490965 -0.014935173336751074 -0.023810323687547083 -0.009451748211041968 0.02802532146379986 -0.037919610002843065 -0.015539769333606958 -0.019692319279969315 0.011010998421211263 0.0012606097062279067 -0.01008424733255565 -0.006701531353484843 0.014206418566485008 0.015203835289787448 0.0055798175485005826 -0.0016527008530000178 0.00019144876072225286 -0.0034359221875176205 -0.002625685405894729 -0.003117116162990201 -0.030845806015708663 0.03814068927754946 -0.030333600610786715 -0.0033476517938207996 -2.337560305027634e-05 -0.020421680094704592 -0.04186306028155972 -0.035534880175528076 0.017380885008461678 0.012275257204851881 -0.0015425374394660587 -0.0073832296452020114 -0.06280919113078379 0.0013951930398429582 -0.013259080600113635 0.0024301080414899454 -0.000574810095446419 0.021673976982235995 0.00021138878465084133 0.009848948607592476 -0.02567262449713397 -0.00040149973059847716 0.02648499625647783 -0.0002953850952922492 0.029819433065948038 -0.0015254546712861032 0.033954091255509716 -0.010993013718011193 0.007015228685185977 -0.0008925804694345826 -0.008496423127507442 -0.011246843675704242 0.052685257205263326 -0.015590244605170223 0.014742752457711627 -0.041471038633604546 0.06745891179486763 0.1053604344928945 -0.11678149642583649 -0.007604518485028321 0.022019533325418644 0.03760585606126624 -0.0003830578294668867 0.016096124489723522 0.012158789923803322 0.020577299013362756 -0.004139536897191627 -0.019535091894040502 -0.012258814045010377 -0.00418874582941212 -0.001102362187251573 -0.0114942137575265 -0.006113292571905899 0.008063865706834752 -0.0219877966220506 -0.053434173596312584 0.04797715607529633 0.011722588022487343 -0.01222021152613278 -0.006801872231444295 0.006602961763551718 -0.08134416681869466 0.05374679787012855 0.06880366414085642 -0.027747952486996824 0.17279091260630464 0.08579065072407072 -0.04209071228321025 -0.20223380975513808 0.030960967620686067
30852 0.19701629319244687 -0.1112299204447784 0.06265990131734976 -0.07038453745385505 0.04342599205664649 0.09500733267261527 -0.008674372314267653 0.06292519432083793 0.14630640814184176 0.022552330665208967 -0.11727124740742154 0.060797220191893084 0.03567636153385052 0.008443533348777982 -0.04381944685767817 -0.03323941480964214 0.012269245198082798 0.07899183158301762 -0.04435318854012922 0.0008256621570862871 0.023351804963056028 -0.24242548476508713 0.14845868973007048 0.042796574574421056 -0.38336285564608735 -0.2125336495028842 0.005148142493083211 -0.07403658303954426 0.0008016440731180435 0.054376228733022225 0.10213046669262753 -0.06392405649149913 -0.00920444245333549 0.03764831134183591 -0.028681930806985532 -0.08657770157386989 0.0010907075939490035 -0.06418790396745991 0.03149957601688588 -0.010360996705829618 -0.028393922863320743 -0.010305714667175742 0.025606815854891923 -0.0337447918458853 -0.016621388734540277 -0.0033007281561796276 0.019818374790104804 0.005962200201950216 -0.008404621950114566 -0.015518616760999655 0.009253757026389144 0.011242852057227519 0.011899618023435615 0.022252295476814316 -0.00799335802865483 -0.00325669619192602 -0.0006609200908212284 -0.01589553661655623 -0.012199638257421451 0.01593943140281342 -0.005102984180116423 -3.797410477060937e-05 0.010038460067573002 -0.005608813601369643 -0.011135521766270539 -0.013059590771716638 -0.0022022346217534117 0.00018219752035161796 -0.00023499895341959852 -0.0025499367951810157 -0.01473062093201535 -0.00041004272338657395 -0.004497775920634101 -0.0007940751970931439 -0.0006497664803448043 0.003377627235706393 4.518048278954849e-06 0.0012056080088685504 0.002724608347024179 1.085260819808434e-05 0.003560287789320238 9.639884716630123e-07 0.005570293762367739 -0.0008894538486524037 0.006454863404349207 -0.0003859623577534173 -0.002765066614810863 0.0003585751686550377 -0.0010308295680081523 -0.0018862161533568587 0.004381649395196616 0.0005933168592931644 -0.0025414181984503258 0.002166604576076689 -0.000513654301355991 -0.0014916203877614956 -0.00034535314781085347 0.004254880683783827 -0.0013618788961404296 0.00021981377067790964 -0.0013675284985582284 0.0034426656779263168 0.001437295816278429 0.0022062231385745895 -0.0005982695272791153 -0.0017208999487704933 -0.001803171047675467 -0.00027929038868761786 -0.00021007050173719143 -0.0013813883464317174 -0.0010033358349519593 0.0006190599478589406 -0.0002972468446950337 -0.0020801330664550026 0.0007955571666415084 0.000321961786358029 -0.0009850702276609207 -0.0012071006838652153 0.00012115323731377205 -0.0014945867436721542 0.0005790429529551307 -0.0010199386398728801 -0.002279464886673011 0.0005750982539284941 0.0003148909173234073 0.0005428938956510664 -0.0009330703009890924 0.002111729619121966
34524 0.05779069972930845 -0.05960044107015022 0.04170225829229814 -0.0007101000452304773 0.037553630852260766 0.018973479433762756 0.005284055403193655 -0.03262212154636708 -0.02694616262340821 0.0019961448384078796 -0.0036638070573951783 -0.002347090804487348 0.010493296675847488 0.010953156870942976 -0.0074427203443597975 -0.013740502678480569 0.010087185954548017 -0.007493932902922662 -0.03379677530629828 -0.0017238282713154807 -0.025358730760400544 -0.01097421788165645 -0.089431281966214 -0.021381007628327543 0.09850282428602636 0.042666956711973535 -0.0015273481487803635 0.009077559333333287 -0.0010770960717032866 0.025234522784956498 -0.03695685505308595 0.10301282074750667 0.0178908922675842 -0.04172177487053015 -0.0754171523828624 -0.010474752615568336 -0.0031326509620325576 0.11499428850252616 -0.054135489211192774 0.09018780224419506 0.019041942366451042 0.05114110438941878 -0.06497962771634405 0.08200393510083016 0.021303546138306033 0.014357584249720563 -0.04935113277673097 -0.015002910970376334 -0.007410893575718681 -0.01101701172637893 -0.03831625395226508 -0.05401825296664919 0.034958226026855777 0.1152894842940696 -0.02443996421997434 -0.021562354044798268 -0.001130586065876868 -0.023323229577590573 -0.005550761538340554 0.020797787526052103 -0.03837486213990187 -0.002315784981323516 0.035344556038119826 -0.013244323986774546 -0.006482755780639806 -0.031188081979919405 -0.00811480318742084 -0.013090520529190863 0.0007755903143412417 0.06366724151390502 -0.026988907411172675 0.051155094004672184 -0.0016862247166423618 0.019264209821883583 -0.24351175074352394 0.07857928619010814 -0.09497732981574254 -0.19331998595368702 0.0227379352729312 -0.06831067002647037 -0.1273307578171248 -0.00015169803795040695 -0.021252325934431195 -0.02528275844067529 -0.045727491816988736 -0.1123307132131954 -0.05820545421150968 0.008411766447270954 -0.02559543216683256 -0.08914073637639608 -0.04658050643310674 0.14656821949066612 -0.015079574044698481 0.04565388217199692 0.00424099021857032 0.018525259516784666 -0.12079907911994338 0.03940858864129888 0.012562031571691319 -0.047837893787493486 0.017316865154180468 -0.0897183144616537 0.008787395896843544 0.025064285429090307 0.003704604950220948 0.017675886358147607 -0.0841628294513545 0.002309178566747151 0.00597232243945461 0.01926352912472959 0.015449050922525197 0.001644924404254637 0.006935497808402147 0.024808431953889286 0.004894435139739733 0.0035496383252592465 0.02941070916668019 0.019644456845319895 0.022228429154895844 -0.03228436643179497 0.011959861780296729 -0.00719679329643531 -0.006304836423248056 -0.03632343786660673 -0.04352491253950932 0.025651536434282446 -0.03654468577091943 0.004987286518925044
33667 0.06085870944656389 -0.06591469487814475 0.04725507591797106 -0.006929253210101481 0.04865597317149656 0.025419121014886158 0.006850701654776692 -0.033781343782893866 0.00731905920238643 0.014721912300712126 -0.004078971464465564 -0.04231315705754378 0.04490031107142184 -0.029092998120054614 -0.022017336810799527 -0.0044867184247545655 -0.004385886995436475 -0.02128431451281168 0.021340284151377065 -0.0036489639659150327 -0.02636769907730399 -0.06843984585750812 -0.016423284046130353 -0.0014777779899836363 -0.05645420220947733 -0.06972809393583339 0.0011427790199244707 -0.0385960434473676 7.93975054194521e-05 0.046472706521219695 0.10674081604774696 -0.060677375256153264 -0.0063115134991579 0.024369104445156192 -0.06458995226322146 -0.039443002623698244 -0.006178389963348442 0.0029147967039319794 -0.005558549403702484 0.04675258089010087 0.0054213848357712365 -0.001637121956893705 0.06152948238766776 -0.003443962208157735 -0.01460586621784581 0.004719245138848329 -0.02476324516841375 -0.010569590309995658 -0.02547115493167563 -0.058276692321792334 -0.004153109860681872 -0.012560585904428139 0.016867566526898907 0.1059245369414886 -0.029219011919143514 -0.018135229909478422 -0.0007198930129828651 -0.02651821864979129 0.01108790133816999 0.021741618218543146 0.04158266262162197 -0.005703236528370226 0.030699916173380394 -0.029347312296579282 -0.025135778730909525 -0.1309668719106992 -0.01861013332909054 -0.023102529957070968 0.0006673977134087404 -0.041695970024260766 -0.022466049542800102 -0.0067569884035061185 -0.014872963551490327 0.011612126978142808 -0.40132966211970705 0.09242967714357155 -0.11780294679168804 -0.22699566791394368 0.03211671391140747 -0.09437964051246912 -0.10407777547414215 -2.0486230930764752e-05 0.007526605251830609 -0.048073168005518536 -0.005412986144401798 -0.16201293471074543 -0.04989122846901985 0.007590149673199327 -0.04027042324061712 -0.1307627771434367 0.0031898133628226397 0.06415347600855498 0.00011457531777802482 -0.03607782150084824 -0.05164968154524657 -0.08485278731585609 -0.1152509324959625 0.15923081264964914 -0.01160427538344544 -0.14778394734014427 -0.02883115974187534 -0.17954367335633584 -0.020239985836854213 -0.03511305207238142 0.035181062351482856 0.04340787732804451 -0.006222964624192255 0.009491037488644122 0.00019699100615055477 0.022582681403893357 0.023710677308656967 -0.06326050949577691 -0.046197714277347174 -0.0933056890432718 0.16156757445854789 -0.08384836977311654 -0.01919923450074648 -0.04033891591942545 -0.01828258870613471 -0.05316288012271291 0.010366385135367103 -0.14029069243857195 -0.09409072086316511 -0.13163380596300892 -0.0027796803710358267 -0.003755000034916747 0.02501907026360875 -0.03555367685680316
30792 0.05672463249323058 -0.04468909860229082 0.02894590187345027 -0.05670112623194382 0.015039386013544709 0.047985079343922495 -0.010456991987002034 0.04842315558107682 0.06565747013368908 -0.006298346122632789 -0.022104272824956958 0.005931587896040749 -0.01170758992156002 0.01307680691225574 -0.005360965815780468 -0.040005095246852945 0.03772383472089547 0.03096713518474902 -0.03692309522410761 0.0017498069855495972 0.023944891066670526 -0.043518211600741236 -0.03657493467190402 0.0076587357147924915 -0.03147838949329123 -0.04578483638806409 0.0016241475887144507 -0.09235622611232294 0.0027349084027563004 -0.00617242337596724 0.03266540123085736 0.053549977020340145 0.015643667554283758 -0.0700840375194114 -0.0149539024809822 -0.015113003078754102 -0.015452961058419508 0.06953497850815354 -0.07052211946111524 0.036101412460070814 0.11242331235789169 0.025016517356074547 -0.07506619334342052 0.0960905357276404 0.02578541201465093 0.03475424794245337 -0.12292917558059871 -0.061074303411969774 -0.05534613581765749 -0.024331707987500298 0.017427622935161105 0.02995606008047353 0.002986034047502358 0.10829313257764704 -0.020776932667348764 -0.001970917770199934 0.0038600376824841605 0.05912213117107129 0.0880784674329421 -0.08480425477907852 -0.07108383667425841 -0.001455042419955009 -0.008663513202749629 -0.019338491264129315 -0.04081139050212902 0.007047029269818307 0.006414836096453401 0.019309477463413372 -0.0028515528840725364 -0.15201138775103137 -0.035128730544409154 -0.08440385128549623 0.13111489202361246 0.0010648239007343867 0.13983500075865837 -0.006040978462179089 -0.020262000096911783 -0.0558099419263592 0.020332087379804763 -0.046818239839703304 0.018305636467722097 -0.004409427013272615 -0.01567006799031056 0.018118010316210485 -0.01580552745308832 -0.001973753764258108 0.06635740896737125 -0.008847844412889645 0.04513603772786121 0.1843607828212046 -0.048298808311889194 -0.10414621160938603 -0.129139838844759 -0.01733307601403068 -0.001596677231153476 0.030858443841920845 -0.06835408802607709 -0.043834812615639415 0.020237467752331574 0.072512056084807 0.002462934590604271 0.06818065023792201 0.006628477541736551 -0.030341930069502324 -0.007125761996474802 -0.015560507212486821 0.03694560615136681 0.025099406860822883 -0.004710791719593239 -0.027499324367032226 -0.013354893047055245 0.004459198593920632 0.003791973316976359 -0.05144698599605362 0.017394953541701043 -0.01804226169098405 -0.09305173228360683 -0.08895463004447224 -0.026492252293506713 -0.041332241465177486 0.05609080042681161 -0.07785204283977361 -0.13667577703842687 0.09009886253774968 0.13529699535196169 -0.0008791654973865299 -0.01882274825135711 -0.011607667831558591
30647 0.08155929478338418 -0.04861348816156091 0.021842468022619303 -0.03004475278362375 -0.0004958945201415377 0.02943144794489528 -0.006826231680823802 0.018314640922831943 0.0164928925608121 0.023737260719961198 -0.0458622224044805 -0.0016746478228846784 -0.04020721042567378 0.011878469315617673 -0.02907593733822824 -0.030600719273176948 0.014000777608341276 0.06201629792200194 0.033640869474885926 0.0030722416719858262 0.03549514697763053 0.047192850718745384 0.05883125052580274 0.009939072776448137 0.01902016727027142 0.0986020531936067 -0.0006285295070418134 0.051504746913972985 -0.0010404186446339196 -0.017277580833301373 -0.05220820279168549 -0.015626984916660577 -0.0016088929379016277 -0.022551518848980007 0.0628164592995286 0.06928947792165993 -0.01214456238159839 0.0037400115679727536 -0.019485662016712625 0.09871344206152557 0.0463192542484704 -0.07441269542815297 0.04273594587828154 0.04230049675897514 0.11104552807257957 -0.05264037106232469 0.20616654285577737 0.11774991770846983 -0.009564841344570033 -0.010851821754780729 0.10693020599040434 0.11501547304189352 0.08928410625816358 0.0501101663838419 -0.008261503488169213 0.010240582502103279 0.004685156532602839 0.0308944480217691 0.06592347181809767 -0.044292541589340685 -0.0808226863235578 -0.011616478828330692 0.09671221346099124 -0.06059961666245254 -0.14607410253510586 -0.2849629190266975 0.03565523115037925 0.036877511791725694 -0.005287234956931961 0.008590381380196023 0.2718077794199809 0.057779157697538254 0.04481861701110383 -0.09431906542156063 -0.04018389328655042 0.0004216570587703486 0.0131745259136891 0.03699768292430894 -0.1541163716881452 0.07803824338737023 -0.06611483941099827 0.005897532766958925 0.016665691307909427 0.029018302554749117 -0.13076239449292942 0.013160141591033184 0.06108192637897392 -0.008265526254382063 0.003231517926240106 0.009757770157769612 -0.06159749426885454 -0.04294066010223954 0.041224209461006744 -0.0935073781829326 -0.05378062309974711 -0.03179845249448635 0.046136256744905735 -0.021949041679078487 0.050012714524169985 0.018965273819463647 0.03418059005616586 0.012565529612947032 -0.02404684738475959 -0.0286984622440365 0.0086555255324503 -0.0009497375217755481 0.009634218593887967 -0.0037835244879971994 -0.0033454425664656545 -0.0033155411708643426 0.00264130572846317 -0.01841966121697648 0.0006802951573570649 0.029723011440197615 0.018396880205215477 4.1920758619515275e-05 -0.024190226416767567 -0.0022988038676974533 0.009841263037984514 -0.028762560378412176 0.03139962165294978 0.030811141067350757 0.047068914756797815 0.041567015526298205 -0.023833267509498133 -0.017808388737018673 0.036845136107946194 0.011738919820840027
32945 0.03471484209261415 -0.03949052524477252 0.02955205406977733 -0.014164108588586194 0.006981895377265068 -0.05484254369548579 0.004604877225686865 -0.013562707518842922 -0.0358678666371563 -0.05197743271315512 0.05144954418859843 -0.00559290324683176 -0.03669908706577113 0.007891344271798995 -0.005744050894649451 -0.0005496402570095982 0.0005596846143397852 -0.02309906334854757 0.0015303162209611247 -0.002175082840049581 -0.018038149081220256 -0.003286529730177623 -0.019299421693282456 0.0010337301143165745 -0.015091343891683127 -0.007813515499059176 0.0003162792114522715 -0.00410180233560253 -0.00035692037345148604 0.013721785777181583 0.009157158551087508 -0.0005748903660581983 0.0007633449488954232 -0.003594681593305643 -0.02079390099223196 -0.01907380760022127 0.0031305380744697502 -0.01313319483584749 0.006107326419317046 -0.025585403744886617 -0.009012266502666313 0.005047462665332269 -0.01532740703411238 -0.011769387337733557 -0.00337667296504748 -0.003157107982732149 0.01247057767378232 0.0015656108924107844 0.0016774024601268582 -0.014289228577799457 0.013372782350413058 0.019554199945911302 -0.025909924394107543 -0.027025207883464655 0.016723763910970763 0.0024289572367024387 0.00015550821054003658 0.014236182620328825 -0.014965082693434287 -0.020152745139487612 0.04428224850325952 0.003493047888626753 -0.04815392491970131 0.028607696966969975 0.057240889616963025 0.11022743911238417 0.010233412654424078 -0.0017137148714972288 0.0020144816055086565 0.14872592858986017 -0.029975137167652075 0.10294643806817062 -0.004633754965437791 0.025757018957243638 -0.00015722379661172747 -0.0050862949332045266 -0.02124264356234053 -0.0861166167187059 -0.07024370327848821 0.0648403282048788 -0.19085958188432264 0.012235045221745322 0.17234266971324733 -0.03463422328868376 0.23259618667028148 -0.1662799086168073 0.26554076731159515 -0.03295495387213465 0.023822787940969894 0.07398584046749924 -0.018559367885966106 -0.2042740352590768 0.03566626210055928 -0.08974418003245026 -0.09577832745987136 -0.13785014784862645 -0.038304909734794786 -0.05906582586067449 0.009518068406906301 -0.007930895061453905 0.032986102832804835 -0.018607947770365944 0.002569117671811404 0.005877696000898439 0.0021315562001085514 0.007287218337866049 0.024093534833350676 0.0015339351349905662 0.0012352456565030018 0.005996182044383201 -0.0008904065518205551 0.009085987163584304 0.004930526912306922 0.01525188621226025 -0.04139713546248987 0.030393491755609386 0.06422016178318062 0.04774784912233849 -0.002030594383133994 0.04331896215196523 -0.011559537920116445 0.014236118598284173 0.03034211454402577 0.01695344722340953 0.012143764813763232 -0.04263892568540459 0.06541467513770573 0.024564345724671935
30693 0.10345957919735142 -0.045139637807955345 0.014452148298826158 0.008428684368119955 0.0006214765081715701 0.0329199955585026 -0.0028300877538294245 0.02922277296345753 0.04949166465595828 0.01705191317826492 -0.05419095389838169 0.0613589784489136 -0.025634467556655702 0.015149666910183102 0.0010988103419355434 0.01816560535051319 -0.01931704133459875 -0.008442128506035112 0.020766278301402694 0.003898099169045101 0.008273861628276064 -0.05101332052443644 0.19118761765156647 0.01352554207261121 0.1007291830111842 -0.027941165785171793 -0.0025302387230366737 0.17969587973667708 -0.007884278348535514 0.11714623754332759 -0.2946265417122471 -0.07688297868207883 -0.04731589531524879 0.33410176090299826 0.07466608932866885 0.13136842570241192 -0.02264436919121119 -0.14269599549474588 0.019336742136949824 0.0825022417714294 0.09421697543157999 -0.052090460162303086 0.09499033850738342 0.051601507970127025 0.036743506199856495 0.004155328409137558 -0.04133584054568309 -0.014398589266363783 -0.010158381808662386 -0.012383233347359985 0.031474457041442735 0.03764743380062744 0.011563037749208652 0.0722334541289901 -0.015080244295915993 0.0015624105279153418 0.004053251451318532 -0.00786206660126891 0.00842495537645415 -0.042876889673179 -0.050927289219641445 0.003350735444455544 0.010193382002040074 0.009564119363135408 0.022129765303849035 0.02364583823873164 -0.008894523102966817 -0.003758249072997875 0.00022516548909623632 0.010929410442681697 0.0004720055171256437 0.005300040721583086 1.3245340056096833e-05 -0.00028815883123033126 -0.0007472160057573497 0.00943448640857323 -0.004047463760573616 -0.003915708123567879 0.0023921328875776884 -0.012876274415335986 -0.011737840870439751 3.503440573482061e-05 0.01608259479381205 -0.001491335160611001 0.019658387653609704 0.009162822371731449 -0.012051042229002662 0.0015376963251397826 -0.00160153233620435 -0.0021975776013642228 0.01259270785539459 -0.0021076894693063224 0.0008347055228429649 -0.003470835115303793 0.006519128065706363 0.004567828726186336 0.008044415612572534 0.0080168081487386 -0.0021866095583584454 -0.003843031770622847 -0.0014937541720502906 -0.0011007486242830891 0.0004349450150424568 0.0018061143503182355 -0.0023833881944787753 9.40435107036645e-05 -0.0033272899009612854 0.000754877453606946 0.00027753681712040204 0.001487097140444319 0.0010349863096364232 -0.000346603035159254 0.0006667711287681984 0.002064282142254261 -0.00363721163860187 0.002947699427339448 -0.002227794534895052 0.0005010858639596357 0.000997326547917495 -0.0005969750640622343 0.00215602916892068 -0.0004928129434326849 0.001337709377474966 -0.0026752165965130328 -0.002978180561490988 -0.0009717058420864802 0.006294922955134079 0.008386331319006702
31135 0.03913197542894085 -0.055372000848033585 0.04707602842850657 -0.028475968213024686 0.0464761980401609 -0.04567420037470081 0.014165121842612538 -0.05905035419970056 0.017069226163292428 0.04135226315208651 -0.01592798986078209 -0.03020455305062636 0.06235311645533434 -0.06436185284799525 0.027526137123792996 0.06693080363322004 -0.052574233305588976 0.032264014278340206 -0.10121593263227471 0.0008696957556362092 0.09861381373272232 0.4292551859645254 0.0033852576492391234 0.025303007763473172 -0.22704926301359968 0.20902345305565462 0.0053229773077308 -0.09928908141546416 0.0017248735324126635 -0.029601090755336082 -0.07058502202245741 -0.11891810013283916 -0.027077527342817063 0.19368491007146726 -0.1916228407918326 -0.11626857011485486 -0.02102267684521407 -0.08721393592874992 0.00456363425952927 -0.007676747378783717 0.04551689582084538 0.04476183202088507 -0.11974267496704073 0.004448740454501577 0.00978252078518908 0.0024630854210907294 -0.027459027230368083 -0.014192622041168812 0.018015887974766637 0.044838688160710016 -0.02027970943541778 -0.023086436403700013 -0.006902456033466214 -0.011339395040640184 -0.0012847249025506585 -0.008246961681693116 -0.0015936329788343172 -0.024874681093934432 -0.04407068383648731 0.02790325404921592 0.00333110872296015 0.0007710013679444956 0.002120846359299188 -0.004581884135549653 -0.008230290792740664 -0.009343763028475012 0.0025073040985507146 0.003198949293431309 -0.0002518470582081195 0.0267683207634311 0.002538142187816636 0.021215078781993885 -0.002351624432055439 -0.0022879639696334344 -0.0004807941557854595 0.007688178235106705 -0.0007291182473630231 0.0009193233085630695 -0.004446626604252657 0.00402874071499211 -0.0034018680268288605 0.00021416896747404742 -0.005195285128838474 0.0031130845507780533 -0.010713460300848202 0.006945095435699701 0.0023097483110285835 -0.00036685540960383254 0.0020988792806631114 0.0023469410279695255 -0.002978513235239331 -0.0018800731513845355 -0.0019520900588481695 0.0014256746612942538 -0.0018335100477422893 -0.0012138227397533972 0.0007855133216045883 0.007350642515978431 -0.0010945322495764347 8.074837296335492e-05 -0.001328772987858879 0.0017970993796721044 0.0005973341226266354 -0.00029283543632805786 0.001119973020263116 9.732283529804509e-05 0.0008275844577611442 -0.00019935434854165843 -0.00010694117937871657 0.00033840723597233866 -0.00015414812512258612 -0.0015962562259347677 -0.0005939380701871001 0.0004275694929918375 -0.002425136160783133 0.0020756568990179 -0.002656072181389797 -0.0014928940415394514 0.00034991718685875177 -0.0034758843099022742 -0.00023478891014712335 0.0031826343155349933 0.0027478881358313748 0.0001526201197966934 -0.002612293322908929 0.0002969925171363661 -0.0028572592486027885 0.0016684864794664477
34685 0.04795829971960509 -0.05608936060391024 0.040200543818788015 0.017214097657590438 0.05042190774589741 0.013463945118893542 0.009720895537096652 -0.04978061985191662 -0.023857504280637654 0.00706911299159893 0.0019348968638808473 -0.002166422778259791 -0.012044442995402686 -0.009064868563889772 -0.003419940782959996 -0.008430947661517585 0.008456010658714798 -0.0016292875929754397 -0.013640741731395248 -0.0021399764995399494 -0.031889139298778485 -0.053544668964172926 -0.07290015951617525 -0.015081081159319934 0.028672164835632993 0.10682436312855023 -0.0002796416908134268 -0.021484486582118212 -0.0007568329914691765 0.02848328257000257 0.01625711946442049 -0.04505127770924985 -0.008886325661936591 0.028453159250174533 -0.014865268373618679 -0.07653199415851 -0.0014806938283206863 0.01725403206702268 -0.004462315599577816 0.08256404999174119 -0.03785964580721209 0.006415189723157197 -0.08800310154490425 -0.025021600344915657 0.050226867604415214 -0.03379441059138491 0.18847809416284184 0.1003837490898091 0.03284698254684786 0.07471104423826157 0.07263536544703998 0.10141120600796179 -0.021391378500980864 -0.36363755640721196 0.12374283133346786 0.058552625212643906 0.00517878106627568 0.20430977287545243 0.25814991554772104 -0.06545533297162492 -0.2289424920909278 -0.009470901767291737 0.060072335712347026 -0.011832025248987492 -0.0263766208763981 0.029747335176804997 -0.01708614148711564 0.0163564644804833 -0.0020888201617501644 0.012401563397966423 -0.07496355491406807 0.010934390452307766 -0.05069620523529863 0.026398959170727057 -0.021918297488544645 0.06408022011507605 -0.005595072759746397 0.01750519527888312 0.06204053898617569 -0.014638436802888309 0.0311677712497577 -0.00128644224511016 -0.04788527555805018 0.002390823861211223 -0.022833607897803768 0.023658903525725205 -0.008620212803733108 0.0009247099834733705 -0.00245861131108844 -0.029893160103459247 0.004318366513454786 0.015920146434926563 0.008776291389610922 0.011596027155978836 -0.001943680638863722 -0.002126759749318162 0.017048578738690146 0.005950767097465755 -0.013157001414829408 -0.011174227705662856 -0.005166016128340561 0.011653834846616149 0.0024075480291802743 0.019750071816646668 -0.010145021077992148 -0.007248236090176166 -0.0005863680787914233 -0.0029564177509545887 -0.001304015797663728 -0.008145027396259837 -0.0060920025775246635 0.003624245302586883 -0.0025459583288799997 -0.003819194691938572 0.009891913182335031 0.0004992388264291542 -3.490047816313846e-05 -0.0001544898937938582 0.002654584696131925 -0.01438801824172567 0.009944322659774909 0.00234983430690585 -0.0028822928289641836 0.0062376664174553734 -0.004051884620584457 0.006723387575665472 -0.00040497316380771163 -0.0007518316134167225
35096 0.0453142149330243 -0.04468636114391381 0.03512426618501464 -0.0619785707791615 0.013203448221786505 0.014022606251528591 -0.005249613748529114 0.024923400482442487 0.03349301118554143 -0.010055129966841936 0.0050602190858067275 -0.03514140881651602 0.02065863986557441 -0.023984940933890808 -0.019271869654217573 -0.02664460681221071 0.020725402199468182 0.018870947701077098 0.022761894170488378 -0.002141601120018268 0.00023822154345740998 -0.006975386043326287 -0.06511373901833735 -0.0033912368338234813 0.023164861335931874 0.03118108496292378 -0.000787062661337718 -0.013921695581898923 0.00034469534688799023 -0.0035713885718535315 0.027780857561251204 -0.022894247179713036 -0.00353501869957968 0.017353360298122872 -0.02207127192927635 0.039842149241910846 -0.005912051722560258 0.03565918850028521 -0.033651295660868275 0.020431899047115176 0.052816699521582064 0.025132370215739535 -0.033511982399906916 0.05904244631077835 0.032500799823824804 -0.003477755495499918 -0.02770266492424696 -0.007161401817829388 0.019473865741135937 0.06406650172722123 -0.037029179454671254 -0.04733472985295002 0.07043005828617185 0.12013687974046725 -0.03605708331270838 -0.018725247715636262 -0.001753283757222281 -0.021583589472750197 -0.06584018352122814 0.03141380543415557 -0.11819043176868159 0.01010024813276024 -0.011337124832306955 -0.01797522570182666 0.0035719673602442295 0.028071805514827113 -0.025946495334184937 0.02697454385762752 -0.003608554636214291 -0.027460445262485554 -0.03043020158887706 0.00626732895790588 0.14088693005696531 0.026097785323056108 0.2579905498363691 0.027261862135205456 -0.02071325852449252 -0.06470730056698475 0.09526442649569075 0.00395893271120853 -0.009084746355735442 -0.002516916842378226 -0.12895055490417492 0.023282235760067993 -0.12077453220707299 0.045399479423837485 0.022270120580210717 -0.0034813130124505664 0.02846437067824574 0.057988090101785135 -0.023472995182625103 -0.07735398379588612 0.02006570803438933 0.03274653703752611 -0.046726261212507565 -0.09821240662148599 0.1484648133470253 -0.0075379770389430965 -0.05835583211941356 -0.04880575671059663 0.0014221980080593175 0.0015698045802209773 -0.0017022326463943015 0.03058749016946843 -0.032297823026797214 0.01916929051822025 0.04591538316710214 -0.0035524155004741553 0.005571481398876076 0.048235102419784064 0.028341596958723937 -0.04146911111522832 -0.01708186545337442 -0.015940182975577092 -0.12952938735829952 0.08267688646801381 -0.004198402243779136 -0.00021117307339347342 0.0014199871927139734 0.06794340153097866 -0.01679291290672771 -0.05522988804285961 0.019483490150057466 -0.13322819303865463 -0.12388512427375994 0.06873399810251613 0.11303656368608897 0.08280514625430482
31454 0.12463378316358546 -0.06474450192070444 0.02815239279030406 -0.007076603458033079 0.016876438731320123 0.05693703053245272 -0.0017048465992962197 0.01807774619750705 0.07921646926899051 0.025948268766933513 -0.10470696199156695 0.07924717354410635 -0.012460869003796754 0.0069105922914897144 0.021828765626567225 0.021189482595149293 -0.013782736554210022 0.00047394520840815524 -0.05175485405715968 0.004543056488160042 0.07028740185772564 0.12949302936755114 0.05043468383255023 0.013452546280413327 -0.0743054778601509 -0.022061423369798286 0.0023777819250611217 -0.023856684035566823 -0.0008971786111689707 0.06201991002064572 0.022766345129227983 0.004163772908179221 0.02088253780088538 -0.13269054990991985 -0.05641058365687844 0.17553363464801716 -0.015310196152186168 0.35934415115904966 -0.18486546209680704 0.07350860240134104 0.18806148594822852 -0.018613755059034454 0.15117846524978087 0.09707821554795029 0.0126557780143992 0.043464379110870706 -0.14368540829946866 -0.06729207695128281 0.011767530309126462 0.029767189892574278 -0.01904747009222825 -0.02187687657867882 0.005981618397940765 -0.013281178404338803 0.01110920160986495 0.011518359277727997 0.001478632126879521 0.030144196170124447 0.03923973087065073 -0.01892768501903601 -0.035039473042119816 -0.0010947875459054795 0.01413092819693416 -0.003509500629115909 -0.002762602679818057 -0.008808871756481856 -0.005565549956323872 0.003884880209366344 -0.0005219284595415428 0.004482754926004978 0.001712628561732897 0.0029744279033504586 -0.022211015626475664 -0.0045278950348938245 -0.004513390707174992 -0.0068784559548251654 0.005831819713323124 0.011291125196609315 0.0005111322403531728 0.00048384406216947333 -0.005339776616567071 0.00020563839882934814 0.007601294011714093 0.0016785907391161305 0.015396861884057245 0.010987984342700579 0.00031835249781932856 -5.9629802503637966e-05 -0.0012247327844400694 -0.008984737223716163 0.0036047667332673484 0.006117642093863947 0.005542189843728767 0.0005091239497620262 -0.001440970070300078 -0.0028363222775759298 -0.0003528947177139988 -0.008698589879878652 0.0027607495817400657 0.0024688005865534865 0.0010861878997239262 0.00018395247808095788 -0.001335673572273033 -0.00016553948523831408 6.682946133970019e-05 -0.0003348560938403163 -0.00408585755366045 -0.00017515795780614408 1.3638717217078758e-05 -0.0009105995775338513 -0.0009432942703355004 0.002235872284907154 0.0022556557916535228 0.003019368362206518 0.005235900066364109 -0.0056810573927165205 0.002363384158387504 0.0014541968292997942 0.0003424692067999415 -0.0009074861270220794 -0.0010808464248180855 0.0010460514023711964 -0.0009053452053580028 0.000598100048787048 0.00044257596104858247 -0.0007078874546380225 0.002110915203904728 0.000722081795077348
30257 0.047836746695432204 -0.046364599849541055 0.035407906329449707 -0.06771969214952604 0.004702332586653973 0.0027596884762902825 -0.006547295632906697 0.03769780301048967 0.047902798887470385 -0.018633784436684342 -0.00762367993457147 -0.021473855230704886 -0.007793774604346673 -0.026511630806438896 -0.03527485710021991 -0.028514672196148658 0.015546795090031706 0.01054844859964102 0.037362187625620796 -0.001448875828844896 0.03720956548076315 -0.012153145720353392 0.026568498655083032 0.026686199157301145 -0.18404058855178496 -0.17378464651457184 0.0022632954958377704 -0.04723230438314306 0.00023524720215416586 0.05558479647160841 0.11779205927606082 -0.032047097260747656 0.0008551735379634107 -0.0207069622928219 -0.030832363662754145 -0.020542933297275585 -0.0036981150064737817 0.04102893167404448 -0.031410163274351866 -0.03984558932166246 0.07454805864705749 -0.016832039812709337 0.08874468319517559 0.034734386948745616 -0.00187724243780419 0.007196143134896334 -0.06564354287619721 -0.03450831433077612 0.0007626669306913785 -0.005567504479812224 -0.0037205272073090184 -0.004318030592149535 0.0052178226960087545 -0.0015013947437990116 0.01109913479448308 0.023227630255960127 0.0036119461937314835 0.05513610264856014 0.11301334751224026 -0.04564657457045684 -0.07980695243034053 -0.009668736501676331 0.03858842261493591 -0.011964769089043327 -0.03373292846999801 -0.042185032949732464 -0.005039393316450511 0.022040128339622267 -0.003183156607116781 -0.10143607369971287 -0.07987705504647695 -0.07083659165107528 -0.02690820641213856 0.02622302912486994 0.03314183036561318 0.0057156351993833225 0.018711497796492983 0.0618273624338708 0.05158252101442605 -0.06650134781746775 0.08611417125393504 -0.005383740404696222 0.0057150309252285945 0.003241750600727283 0.07711801427642455 0.08893772939995812 -0.06754854368427124 0.008281067540079307 0.002841783127838583 0.01780352701077147 0.06952700983985136 0.015019807366198033 -0.020527797597302357 0.027971113653111338 -0.007735587833888488 -0.048299027676484245 -0.03334812314624179 -0.07727387961771799 -0.008947812440748161 -0.011540933340382468 -0.04849396975580291 -0.03034948967686443 -0.02565440185383603 -0.0229135368080544 0.025069290070133213 0.0374715401029862 0.055241628342985065 -0.04820102185411751 0.003612544416627033 0.030088604525062793 0.016265262060963022 -0.002772193933454521 -0.028882155052570448 -0.0032846996520927052 0.023977527377104346 0.03732240298983196 0.12619579570775666 0.11531473616416796 0.03130624317283763 -0.01625449208819347 -0.045988472453122965 0.17541244233516454 0.16929968353233651 -0.0513075556744504 -0.15613525480922236 0.022158104675861164 -0.06083740468053723 -0.010419944235233332
31267 0.038299044493029046 -0.03084337000015039 0.019636389580398615 -0.021191117796067624 -0.010641586191481684 -0.005739145590732424 -0.004190204358613133 0.013764067430453095 -0.03191128182304002 -0.015088939837122478 0.027278993686267627 -0.04310259642067882 0.0018916323217813974 -0.03519917805713099 -0.02875955798905105 -0.013383153206577347 0.0040767308643272215 -0.025934436214924805 0.03878381102650183 -0.004103631057756643 -0.025224126357691667 -0.008621292217786916 -0.026967152311510298 -0.004501651762223351 -0.02493332489105682 -0.012856982476744772 0.0002779444753336403 -0.0054816021621381834 -0.000487101612380121 0.016084856014340627 0.015176212534219635 -0.013016569492279395 -0.001882492256186483 0.0025566646982317642 -0.012297390752647824 -0.00858848263500174 0.0005159471926138894 -0.024186164485738182 0.01834811306672609 -0.01714117180487553 -0.015470450958156915 -0.0037935838100862877 0.001650691190619169 -0.016282544955089552 0.0017072353144603272 -0.017595638875745702 0.03038169047168652 0.017213078395494977 0.007100584496633713 -0.005936249637953807 0.021514697000411094 0.022347986206478432 -0.0011611406071387392 -0.022227322828385906 0.012180369937735289 -0.010459107498665424 -5.019146927297594e-05 -0.018968949705108814 -0.02336409433737954 0.009308247133640455 0.03358058100164566 0.0009229542636115659 -0.02959041723893288 0.020102022540610914 0.0649274350214017 0.058839762062353584 -0.011210272357119216 -0.02725847459540819 0.0033291341459701033 -0.004728377307916126 0.04715776596148288 -0.016245647914208575 0.05506404963369546 -0.0016994142997237838 -0.01991271919551841 -0.06700581240910991 -0.016730432792035843 -0.07650830279350511 0.0013926555391138489 -0.012107583086812045 -0.012923897307217014 -0.001235957516887758 0.014473083380919571 -0.016669724806508912 0.03388322755004351 -0.07960130594234957 0.0015136992359278104 0.0004454968552420788 0.003951470550581635 0.031652652514638 0.01027356931356673 -0.0215179495062704 0.006760064163255464 -0.008540739776863183 0.07812675005946351 0.06486288539415641 0.033505368287993824 0.020576360681842907 -0.029736242563050873 -0.03876349089761094 0.04160175143126953 -0.022401680427249323 0.015619436310903245 -0.046112958046684915 0.04115753331764535 0.01723387301927884 -0.03321153979992616 0.024229693057921574 0.007557995556305279 0.02680749826995492 0.02906280888988946 -0.0017461374139138416 -0.038264493930508056 -0.0721535898485896 0.1410973582244916 -0.10686144852724992 -0.10362895576918187 -0.10520005498833207 -0.04181501236987274 -0.07776769292766353 -0.13473946772399883 0.05455311855527832 0.03299876736140981 -0.06969800941555851 0.032744485063096324 -0.028740681717782175 -0.1372799099775016 -0.006686593473385152
31995 0.04303571715515843 -0.05229829565655454 0.03923494271362313 0.004629429731942796 0.04491062282743915 0.004892194796305645 0.008531775821398762 -0.0404687176754254 -0.022582386375134825 -0.0168277811280563 0.03207811563686819 -0.023316985953559688 0.02182925640401749 0.00821279687716639 0.003474185292909385 -0.007119769533600578 0.009103258905842793 -0.011578629865204075 -0.03237967502255035 -0.0015039518188572354 -0.02204263905636743 -0.011412647146953225 -0.0512022141841304 -0.010914611613614414 0.07783672671429451 0.01840333870542643 -0.0012977183395541407 -0.00010379779046423843 -0.00020735911652275483 0.0159276887208048 0.07294570149643342 -0.04035036167646908 -0.003222262820750878 -0.006866012773112291 -0.009701842814882351 0.01475580854311102 -0.0007308891429035173 0.006516139990047867 -0.009210707326283818 -0.02044459331274713 0.02253538790812572 0.018637041715834066 -0.04057016754987078 0.02058379681511158 0.009243422814791694 0.013816416843092531 -0.01956456940795326 -0.010267927902558524 0.016040008455595244 0.0014199775979482562 -0.01875919384521582 -0.01774025307156299 -0.03383390135131727 0.001866743928679207 0.003774683702145322 0.0028052888636991517 0.0007613737324895129 0.005933025330538369 -0.00932676017591777 -0.027331750696408995 0.08233056745780601 0.005877242654860152 -0.04199062906820707 0.030317155487663703 0.04951005762476247 0.04737768935936189 0.013912059509208633 0.0022616451720257266 0.00110940109931187 0.048078469400947385 0.0806667693072607 0.03462816232058745 0.050410333468809805 -0.004528871904138191 -0.013703737867370483 -0.048519149649726194 -0.007703225285295796 -0.037513051594849654 -0.03042255026247398 -0.01678042089176976 -0.04320616018100316 -0.0013107014322437474 -0.03764867181956713 0.017344158005285354 -0.03720885792421555 0.07917935796838166 -0.06021103454984953 0.007528974365644389 0.01155335927772917 0.04332530892126968 -0.022072807795736935 0.09726543203012103 -0.026485318748038722 0.06388236677119363 0.07197544217567609 0.10866044504831338 0.0249140213817003 -0.02495906222928958 0.0011990117309262586 0.01799426250557575 -0.036291265370040446 -0.022139903375085923 -0.02001945415574787 -0.04581357179702621 0.03274337805642967 0.03091869076225051 0.07744774086943296 -0.004416954591148744 0.0001034026822811748 0.0189725543996459 0.015277968717201594 -0.05006187166911372 -0.06851062641157611 -0.11344467910015701 -0.018131785527324806 0.07644360654537766 0.059953711101986516 0.07723187236716689 0.008260844980567367 0.0594325789575768 0.05902649536749885 0.11668458638787342 0.10385119981338371 0.17476328218304926 0.08264782968318651 -0.13251369369074986 -0.06259628471828911 0.06870503948786484
30990 0.02793549639348278 -0.037038085268162706 0.03088427145545405 -0.006919366425558821 0.04071134942390302 0.015658287934444126 0.0072300709204806525 -0.04379142361690261 -0.020335478137952365 0.032460261913214855 0.03177055381608711 -0.06884399303364203 0.028914041425971596 -0.05404168642317872 0.0018958568788514697 -0.007633097946613699 0.011344508247336982 0.06049196733487528 0.04203843212165975 -0.00026444617689019086 -0.006187195449458088 -0.010962012293335072 -0.026477673044124836 -0.002490911347121892 0.03601171188746341 0.01174178649137314 -0.0006380483371741619 0.00015907233324466766 -1.6115799019511393e-05 0.0010127195045525755 0.028117202325107754 -0.02235681816340261 -0.002308980672490961 0.004442340042582593 -0.020179248396225438 0.009907879541721567 -0.0002684093334220112 -0.00776204995108512 -0.002209644403531573 0.005056974957697649 -0.0018001863370618633 0.004291407535733696 -0.0037316612218215722 -0.009248685786141964 -0.00666647720831552 -0.010244143525031873 -0.007244919292429401 -0.00727723049673236 -0.009018372303233654 -0.0434588482899391 0.01136364560195717 0.01313686950235907 -0.018547265333338447 0.033077740484958755 -0.010485137514582975 -0.008470273644844251 -0.0002606715254022645 -0.039541815642004575 -0.01672686230348211 0.016994918731105226 0.02819964992616582 -0.001305657947199204 0.0007910156908711302 0.0047365446281675315 0.0042057612751734115 -0.012937318883520278 0.011726768630961584 -0.0034752976992222222 0.00033559223251037717 -0.008619229728381623 -0.02432849456715304 -0.002600177509129672 0.016261047528705608 0.028004723729061775 -0.13372857851652958 0.0577025023438076 -0.060918961359714245 -0.11794584069069732 0.014782793026072518 -0.05979571187702436 -0.05243451196438855 -0.0014728049981343923 -0.0243015985787753 -0.02083716719189454 -0.03916831611038112 -0.12349186482045416 -0.017614854289154377 0.00321117829363149 -0.01700947816573092 -0.04440154037923607 -0.019339540695624734 0.13238267519073832 0.06905652111288578 0.09536182934794771 0.01598821251153317 0.02378932763017713 0.06379054908093389 -0.19705507167800207 0.012360406365054071 0.06854985413451697 0.022705959393223556 0.043765263749711764 -0.01197424243507143 0.022954779995870096 -0.030726562606855783 0.0024541214129307374 0.08559124882508953 0.013102803330420134 -0.0005295418321841067 -0.012039946601274745 -0.024325850191379936 0.027655963037289025 0.03817087073151139 0.09107777846551621 -0.23684775225940763 0.15479309762681864 -0.02752254349244197 -0.01329003122482647 0.03682012474491317 -0.033074720393587664 0.028997056689782662 0.06362255101677115 -0.002743163982184523 0.0797715480295103 -0.019341606518308088 0.06856162162463579 -0.0787447810590416 0.011640902765706888
31650 0.15796297583327298 0.039050811805006976 -0.004683588788096894 -0.22032948428255594 -0.2543232592404741 0.07977046111958523 -0.05792321106220977 0.0925744630332171 -0.41892056229707164 0.19368842306315381 -0.07937220966373673 0.15268988529424735 0.06726853626486495 -0.11752124644884065 0.18512546127669935 0.08756636371295924 -0.0010557911445255724 -0.06013624717432131 -0.07213751259357346 0.0031149260017680966 -0.053877644409078815 -0.031683450029950905 -0.004487041956685979 -0.024326080719436274 -0.02409471215439149 -0.009675803133022928 0.0004502998527299475 0.01523240735991041 -0.0007654562170637932 0.00727663307644094 0.006184318002223452 -0.012958411966156914 -0.0009564965422782666 -3.891370617594911e-05 -0.007360338419350854 -0.0013990594289657113 0.0018098120414166913 0.0038531334378349887 0.0074149328532967795 -0.006428468262346283 -0.0023564239633059583 -0.002963756726625762 -0.005178656695069096 0.0041455111027619545 -0.0018468857403465331 0.005210014350885738 0.0022780366681676456 -0.0031874561848600088 0.0018891304667404893 0.0012545448035514717 -0.004983643608959873 -0.0010227311050879338 0.0029636117564789365 8.265379906224023e-05 0.0002055472634457274 -0.0037913672064407667 6.314314422580685e-05 -0.0006294981778026953 -0.0003763577012376451 -0.0023015642847518253 4.277250467733806e-06 0.00019024065630277726 0.002174298516385592 -0.005897294311236456 -0.0006828230043407352 0.0028261997394658026 -0.006121664281171616 -0.0013474009162653122 0.00010714933878284321 0.0002973632423013406 -8.60998949900188e-05 -0.0010423097812312931 0.0002261214425454683 -2.6038395251979513e-06 -0.00031537524374486425 -0.0006491065676454411 -0.0001339561731749303 -0.0002630018944147425 0.0013442206545026883 -0.00020665290409202074 0.0002721324326543373 9.426695813355987e-05 0.0029294227997896036 0.00022166410131484074 -0.0006420733290727412 7.116875028033952e-05 -0.0003278320221006305 3.866495440899226e-05 -0.00019852499245828596 0.00022979814255515846 0.0003163195660147479 0.00026268870412342327 -0.001201356944449946 3.913303975539191e-05 -0.0012437768048887132 -0.0005260454792269699 0.0011340892569653635 0.001885549478396989 0.0029982645347372645 0.00221434826647339 0.001386442415635675 -0.0005887532540715286 -0.00020939060121667567 -0.0001966517514009579 1.7510201048290958e-05 -5.15262613264315e-06 -0.0006927602544396748 0.0003780246228375179 -4.7398376768620354e-07 -0.0008655797878534552 -0.0012262950070206298 0.001453146923386342 -0.00012622933846345545 -0.001953819306397207 -0.0005333277278517764 0.000779197006401465 -9.442115475854357e-05 -0.0005280820551203554 0.001140314316526018 0.00037600637152669647 -0.001948613681911647 0.00047645801836036783 -0.0009658185992480351 -0.00023346845510854863 -0.0002645610115896632 0.0008661733991500303 -0.0002602904938719397 0.0006815439676014744
31504 0.03578688140694753 -0.03830227170140335 0.019125316924377803 0.06353906359092794 0.010438332819162741 -0.07406733737355974 0.011771374515711875 -0.04200857983212259 -0.052615021990017885 -0.01906620508980448 0.022248704373179058 0.011971399260193352 -0.05126374231064801 -0.028088678711827464 -0.011025046090612561 -0.006105261609532325 0.006585423644263129 -0.03170610129546519 -0.03680484087229072 -0.0035231803574861968 -0.04603354052930117 -0.06304408179265153 0.06438135928356173 -0.0015421195903129385 0.004373573687762117 -0.12431159935310025 -0.000630174459106933 0.019359833173219945 0.017479105644393204 -0.6168224006069334 -0.021660667968389086 -0.051497637868166364 -0.007237222632749674 0.086052695587015 -0.16088144634524854 0.022279028267359162 0.0020911418538400745 0.09626989620636156 -0.04147068419589694 0.045091358602706806 -0.006093287305144114 0.0046681497831581355 0.02374552173179315 0.0011228182227838966 -0.0103891338796842 -0.002846083561780093 0.002693377181856388 -0.0016445673141726666 -0.0046539525718357205 -0.05402269157535089 0.03480557255442696 0.03903576353523094 -0.013450128694621859 -0.00954568936069744 0.0056942703975352005 0.004542360099286061 0.0008485007140855041 0.004774711235293105 0.008324679867299636 -0.006378160905438503 -0.0303583130790343 0.0015228888456691268 0.006024931727126537 0.0058228263580744144 0.00890406978685472 0.014719742935763579 -0.001004861094588743 0.005545394755733231 -0.0005719692741641025 0.03358669075471796 -0.0007422391537307976 0.02573121647247693 -0.0004467519485365813 -0.00027497104311402336 0.031809714368740284 -0.0034700669553723498 0.005991260935536933 0.008142573036469248 -0.013800663052966084 0.0074453581377578945 -0.01233429017750701 0.00014346725426810222 0.009584373513980074 0.006027823243864437 -0.0007421119373223588 0.006408242095904484 -0.00895989005882505 0.0011739816169110088 0.0013819204784831568 0.0008342136226429293 -0.009208658979837372 0.02613357390580986 -0.00760046834218777 0.01729084705091088 0.009045470932898168 0.010676721792159699 -0.005572072391225494 0.0012779711144092695 0.0012439170687835281 0.003705779743175139 0.004284540223109569 -0.00037617768764792395 0.005152797538636301 0.006434809763666623 -0.001949642995272699 0.0006220589746162184 -0.013936354451263105 0.000557971079155244 0.0010553245452520562 0.0038279185424795158 0.003534694979239331 -0.00015663819258473176 -0.0009585073280875267 -0.0016678881262078143 -0.003367825145437195 0.007530070425999805 0.003914856730615637 0.0024036241310286446 0.0044350985827846775 -0.00840697830528416 0.00409285133706708 -0.0003736555621091653 -0.0036982759716400714 -0.006251608984217873 -0.009813900896280672 0.0092006913469692 -0.014917383830736137 0.0019738863759861842
31834 0.03967003888869348 -0.017830092748648375 -0.0031842085947265024 0.04838947449439513 -0.01785467556180293 -0.03366878307379445 -0.0033772270801607587 0.014924207903700852 -0.036085044997781444 -0.002247350668928114 0.007213795278031451 -0.019147186819163838 0.03173462809169793 -0.013555907548376912 -0.027339151359381107 -0.06085388583532841 0.05180689043903868 0.028998406182675192 -0.014697776488370916 -0.004308831040271242 -0.05057504529094648 0.0003784018243804116 -0.041682440511466655 -0.008961034536334848 0.023189093830633955 0.018372797615796285 0.0002179914880073426 0.004284535278330635 0.0018055384954727015 -0.08164825155089485 -0.002351226458092893 -0.05555322730609524 -0.005087752870986428 0.003892314671412919 -0.04198701139250111 0.008722909582126924 -0.0002744684113745253 0.02966384980094352 -0.011558302965103495 0.032866347564518957 -0.01291407974919272 -0.05617381577531911 -0.011225032133237452 0.013613253964879378 0.02591868796521131 -0.007742213763491266 -0.015615196939055836 -0.004176191925640697 -0.02781518060291647 -0.04734538206135528 0.033103926481067684 0.03965526176468544 -0.009785992648515606 -0.015934276209827944 0.03204064569782078 -0.015150435257130656 0.0008519041290591368 -0.042227349570861286 -0.044202965715040156 -0.038578105100097175 -0.003231049550596665 -0.0005161367733002853 0.008120628197081089 -0.0019314169117882593 -0.03158620890655161 0.07271833548538287 0.07610012877894325 -0.03386845338562015 0.005317543510106771 0.0986127549647305 -0.009862780083316133 0.013051739793364476 0.06464832012421631 -0.040532337379730735 0.14760942323007625 0.050934800878339584 -0.0001704743856169224 0.054550061988361036 -0.09998339827391776 -0.11796006351523088 -0.013629808750349989 -0.00481110437598416 0.09094046730806957 -0.02303421835612602 -0.15491501034743965 -0.11615750853219677 -0.2783810847452832 0.0358593684164338 -0.09187167027685561 -0.06618361485004728 0.1954880425809539 -0.012078759302800772 -0.0650770427706117 0.005234139177576327 -0.10203524172623417 -0.13634070023887757 -0.12903814598165375 -0.06973813406390739 0.0008183951378616899 -0.022138626090624003 0.10630794131132237 0.041109568947085284 0.018000036573626078 -0.008321270869044103 0.036924152072743306 -0.030848936825298507 0.08488964851511187 -0.0193615861472665 -0.012393890491563 -0.07897786607454262 -0.012212708233449717 0.0327989708676371 -0.028621574234035715 -0.05731203852689651 0.03269742096706813 0.00945134007572877 0.00987512292622189 0.0017670888281553275 -0.014818990644404603 0.009629888699688059 -0.03659228298048171 -0.020501819111223087 0.030387515603078844 0.02715473318547503 -0.0005274292516191433 -0.005561852568852912 0.03222494817274321 -0.031718096259364864
