416 128
30135 -0.057180006 -0.21552153 -0.4088816 -0.0048542703 -0.07871117 0.12714405 0.02839849 0.011248611 0.08993187 0.1205559 0.043724652 0.010046934 0.14743574 0.015522045 0.058327027 -0.048336145 -0.25533733 0.010767741 0.09150006 0.028686946 -0.14424631 0.24870494 0.13787489 -0.19201107 0.037216023 -0.04474804 -0.011237898 -0.0019475714 -0.051339205 0.1253377 0.048292916 -0.03331693 0.04955915 -0.029634822 -0.14921364 0.050774485 0.016982272 0.09926582 0.10606127 0.14291345 -0.03851853 0.06725041 -0.1698792 0.013806591 0.06682335 0.16758786 0.0040226392 -0.04980873 0.23171066 0.20201378 0.037150715 0.36564854 0.08214784 0.05196477 0.01631293 -0.067423254 0.026239574 0.28651053 0.10707089 0.0051856115 0.03828177 -0.3327139 0.13957515 -0.18542282 0.12388946 0.14589186 0.107730545 0.05129283 -0.20375378 0.10832307 -0.14704636 -0.09616687 -0.11698936 0.13913445 -0.156677 -0.038725313 -0.16699426 0.033540484 -0.1712288 0.06554265 0.3423444 0.0721468 0.10540638 -0.037471943 0.17587112 0.006339496 0.0064736377 0.0072398297 0.03608656 0.11531036 0.009069586 -0.033908498 0.03042067 -0.23405007 0.02186436 -0.08123951 -0.023066271 0.11014369 -0.05085594 0.26961985 0.1057499 0.13772711 -0.05412334 0.1015836 -0.04883318 0.077778615 0.13255268 -0.0505356 -0.09447849 0.183304 0.19941652 -0.068079814 0.12239011 0.03810368 -0.031762697 -0.11956093 -0.06890537 -0.073958665 0.081597045 0.13857895 -0.39090195 -0.0050111325 0.1806762 0.18124284 0.018239954 -0.13166569 0.03923376 -0.00396404
30397 0.15996364 -0.30161244 -0.03611119 0.038295545 0.12046505 0.016651424 -0.11087747 0.10536628 -0.029587116 -0.10787588 0.1792985 0.15357631 0.17397982 -0.10503655 0.082161896 -0.027160175 0.06385892 0.1796855 -0.07823079 0.18681651 -0.038541514 0.21789838 -0.0005130766 -0.030240858 -0.030530246 -0.0068278164 -0.19582541 -0.11896327 0.032635093 -0.029958494 0.011221627 -0.11620305 0.15645482 -0.10607361 0.020296525 0.04802955 0.12642235 -0.019971196 0.2101939 0.09983922 0.1882458 0.07645681 -0.12505087 0.003191466 0.04540036 0.0968804 0.038730007 0.06845013 -0.10765469 -0.038229022 0.13116592 -0.057023328 0.13820939 0.0740865 -0.07344437 0.20356867 -0.036276676 0.07604262 0.053432174 0.14459853 -0.01208378 -0.16982894 -0.0075379764 -0.03828048 -0.060886472 -0.04804507 0.06897921 -0.03436115 0.0026933048 -0.14950804 -0.0722398 -0.010466063 0.006076953 0.2516774 -0.12205453 -0.121837765 -0.022434203 0.23570573 0.061907005 0.092979684 0.0903229 -0.066881865 0.21495068 0.19742681 0.1805788 -0.012207482 0.114070654 -0.072180845 0.19220077 0.14190274 -0.07236549 -0.032990303 -0.1535095 -0.09948996 0.00982036 -0.10735403 0.026723089 -0.052458316 -0.111834705 0.019769054 0.017575514 -0.025358597 -0.07320591 -0.034551814 -0.119648226 -0.029924218 0.111075945 0.048128303 0.07774665 0.12089356 0.06480052 -0.14755535 0.05334064 -0.03747191 -0.09185158 0.077791244 -0.096847355 -0.10905579 0.08661229 -0.026245326 -0.0931174 -0.0047086338 0.11959027 0.10817927 0.053857 -0.045357943 -0.025422534 0.15224986
31057 0.13715875 -0.115499444 0.011469001 -0.0011853073 -0.013468905 0.21100761 0.03875271 0.26295334 -0.011243096 -0.15407625 0.17898181 0.18199159 0.016808543 -0.056991585 0.09298644 -0.08358044 -0.10860944 0.3170074 -0.03713553 -0.005286983 -0.10139449 0.03919192 0.03290288 -0.109691486 0.06256468 -0.23603463 -0.042748697 0.10155795 -0.0380844 -0.029023383 0.13410464 0.008646341 -0.034234386 -0.09320813 -0.02490708 0.07445767 0.0999859 -0.101307005 0.34833524 0.1489409 0.06739112 0.001336037 -0.123647586 -0.054874443 0.08193538 0.037756924 -0.11571754 0.0008992497 0.0869835 0.1846943 -0.010232745 0.26704505 0.15840383 0.147775 -0.05809067 0.09944256 0.029772032 0.07991373 -0.07785617 -0.102949195 -0.06953893 -0.21786174 0.04646309 -0.0028959955 0.2607836 0.040249098 0.0789727 0.07506082 0.0717486 0.017097455 -0.2195971 -0.04260459 0.13819683 0.2722846 -0.1934834 -0.19592878 -0.13226086 0.081214435 0.17269972 0.045790825 0.1472913 0.025702626 0.19717588 0.13831496 0.21721874 0.03446673 -0.10001653 -0.06890293 0.048587333 -0.0032794564 -0.036471605 0.05094048 -0.024870098 -0.17224756 -0.044531953 -0.036143035 -0.020528993 0.04384484 -0.03141049 0.12113499 -0.011046481 0.07536123 -0.10119402 0.0032126706 -0.1757564 -0.09585221 -0.11453171 -0.15376991 0.019690156 -0.07719703 0.15694214 -0.27957314 0.016982384 0.15405965 -0.148199 0.12413455 0.021976734 0.07299829 0.089372896 0.20907739 0.018278524 -0.0019324311 0.049277395 0.13728067 0.039571457 0.016540343 -0.08091691 0.12706056
34100 0.05498134 -0.195216 -0.20158745 0.17916214 -0.008250854 -0.0019450482 -0.20590544 0.09276161 0.0676591 0.0011274886 0.0034361924 0.11843874 -0.038041104 -0.06268368 -0.01018135 -0.059785664 -0.128235 0.12124234 0.055858828 -0.059942733 -0.15410939 0.14794874 0.0051306942 -0.0072065424 -0.015407041 -0.10980819 -0.24563347 0.046082407 -0.12377955 0.009929715 0.038325623 0.012774894 -0.07059192 -0.16455597 0.057677694 0.027964812 0.18486488 -0.02514056 0.27272248 0.20533615 -0.06403837 0.07335738 -0.13234779 0.05073094 -0.022949908 0.14875932 0.011470852 -0.0709254 0.1598378 0.17368034 0.060924258 0.08702561 0.055164512 0.059582148 0.0069257 0.09255678 -0.0921414 0.034849003 -0.004214952 0.05761278 0.06898763 -0.20438062 -0.017113246 0.088019356 0.16515833 0.14234164 0.12478228 0.103589535 0.0083362255 -0.06341967 -0.30214506 -0.012057218 -0.037989333 0.08233304 0.009430758 -0.14788704 -0.13175005 0.030496707 0.00082544156 0.24247111 0.1436792 -0.02352146 0.12881854 0.1408707 0.05793901 0.1116102 0.17520477 -0.12507726 0.12117933 0.09595135 -0.054962534 0.058904517 -0.024096282 -0.11018354 0.06110532 -0.12729271 0.029363887 -0.06804579 -0.08591674 -0.003079319 -0.04328294 0.13569781 -0.12908173 0.00997564 -0.13626158 -0.10744019 -0.036297992 -0.048291683 -0.15462878 0.014432107 0.18252301 -0.15926224 -0.05129828 0.023244089 -0.101825446 0.120785035 0.034195527 -0.049837083 0.138506 0.13352463 -0.035805892 0.23041107 -0.0022738634 -0.036105856 0.07503046 -0.095577456 -0.048052713 -0.093141496
31295 0.21573736 -0.2094497 -0.06756541 0.048573308 -0.074367926 0.09881839 -0.003297079 0.1614554 -0.0399084 0.2230505 -0.020662 -0.105323836 0.041366745 -0.07833081 0.22753207 0.07678288 -0.012287717 0.082795486 -0.07427325 0.092663124 -0.089381054 0.10077867 -0.005010368 0.008162681 -0.0034370525 -0.09089949 -0.23646694 0.083788134 0.1030413 -0.118523136 0.11225148 0.08848479 -0.16183282 -0.06287779 0.17296198 0.027756538 0.025952341 -0.07801942 0.14081539 0.052798126 0.049872387 0.13191546 0.001363095 -0.072947256 0.08950589 0.102407135 -0.22910158 -0.09877007 -0.07828424 0.09130973 0.0068788873 0.023152085 0.17125446 -0.02589131 0.21688259 -0.17307472 0.14867647 0.047378894 0.12612952 0.104854815 -0.12548234 -0.13996485 0.25211236 0.052614916 0.05997125 0.130879 0.08197771 -0.09061828 0.00305536 -0.038025223 -0.10157998 -0.10730888 0.0197025 0.04838488 -0.05245248 0.0078508435 -0.1490695 -0.073645785 -0.13368769 0.086616494 0.013690835 -0.075132824 0.015073401 0.061831795 0.06289975 0.06931964 -0.0038588347 0.13089576 0.21296975 0.12405694 0.044157572 0.036533143 0.01926526 -0.009854315 0.15647946 -0.03574558 0.10557011 0.18248427 -0.20287085 0.06844306 0.16107704 0.14520676 -0.21594526 -0.004335366 -0.17221434 -0.09142652 0.010226587 0.02880537 0.12336595 0.10795657 0.06935816 -0.14327791 -0.00020311865 -0.10386959 -0.11257444 -0.18606098 -0.10194835 -0.026837975 0.029500589 -0.022466578 -0.11598191 -0.0070253215 -0.09929803 -0.028696647 0.17776865 0.0012806361 -0.091020525 -0.119809285
30977 0.2787588 -0.2688278 0.016739562 -0.03502072 0.12459161 0.03640593 -0.021873798 0.16111188 -0.09042429 0.093265586 0.062305167 0.03787008 -0.07343637 0.0154663315 0.1344822 -0.033441614 -0.15347922 0.068455115 0.10564187 0.10571465 -0.038459547 -0.11324658 -0.007112285 -0.14712684 0.022444109 -0.04827336 0.08001224 0.12481529 0.015605174 -0.10875413 0.0694526 -0.07535256 -0.07892008 -0.024798265 0.018179692 -0.052778613 0.07185949 0.041908335 0.15394945 0.21881106 0.049005214 0.0204922 -0.21929261 -0.024085779 0.05928957 0.08047247 -0.12824313 0.022347555 0.020819996 -0.10172264 0.018383997 0.08937769 0.20832217 -0.0010029812 0.029928183 0.120481916 -0.00032735447 -0.024586888 0.05571006 0.21908543 -0.25385442 0.0057491465 0.17295654 0.13163483 0.009547576 0.27474087 0.00429139 0.19014552 0.047624458 -0.16276686 -0.015604003 0.017847992 -0.08219408 0.014380162 0.088419616 -0.22871205 -0.023850553 0.121039644 -0.20229211 -0.010076665 0.20092815 -0.019436263 0.0061658258 0.070254184 0.06071355 0.16525948 0.079520315 0.05873287 -0.17327493 0.14963372 -0.0564809 -0.022485206 -0.11597866 -0.14749123 0.023638917 -0.01649985 -0.0799232 0.110199444 -0.2654761 0.14602932 -0.07578633 0.010851301 -0.14318882 0.047208395 -0.16219562 -0.17865483 -0.013280501 0.0027462859 0.0765472 -0.12444055 0.14828432 -0.1522412 0.018940387 -0.028606378 -0.07193359 -0.095945135 0.076867014 0.12767197 -0.07408222 -0.010945081 0.04660136 -0.06888139 0.096390076 -0.004938914 0.23348862 -0.065974966 -0.060840707 0.023925489
31703 -0.005476924 -0.11307999 -0.21754752 0.023131846 0.06685575 -0.023555128 0.037057966 -0.0066760285 0.030229986 0.08195507 0.011462802 0.12232638 0.091708615 0.0656052 -0.018185155 -0.0532307 -0.07027909 0.2492946 -0.14930272 -0.035868865 -0.020375174 0.118122436 -0.060096756 -0.039134547 0.17590098 -0.2483448 -0.07681952 0.09037841 -0.035655588 -0.1469959 0.13527352 -0.07645082 -0.14314665 -0.25861704 0.011214927 0.04410855 0.24448687 -0.034287304 0.29610196 0.23082007 0.03963325 0.10165292 -0.19104852 0.16278881 0.06751159 0.07244158 -0.1006087 0.06633681 0.06780237 0.006824702 0.11974192 0.04355258 0.24348323 0.029641815 -0.0632084 0.047864232 -0.015885316 0.15586576 -0.009942771 0.016882002 0.06267165 -0.3603808 -0.06182582 -0.040643215 0.14300492 0.10763649 0.034896247 0.17519791 0.06961299 0.026721913 0.028216226 0.11257805 -0.047684252 0.061640713 0.08912576 -0.075501725 0.005430336 0.0477835 0.080996215 0.037140697 0.15345167 0.15844709 0.060296763 -0.0039859544 0.030311132 0.06638853 0.05390787 0.018065052 0.13519391 0.13209032 0.11002089 0.018636465 -0.093488134 -0.18990429 0.08859534 0.069118164 0.050589953 0.01364488 -0.1787768 0.07017716 0.0007052717 0.037552074 -0.135993 0.023765871 -0.016140966 -0.060523573 -0.13535273 0.042002972 -0.03648145 0.2641642 0.089078836 -0.19505616 -0.041260008 0.041671768 -0.10830052 0.018071232 -0.025515394 -0.04857652 0.1823514 0.031507112 -0.25510526 -0.057964392 0.13359037 -0.067406364 0.13940087 -0.006199449 -0.14705575 -0.017077401
30721 -0.18018088 -0.24694414 -0.11984036 -0.0883376 0.074302286 0.2270648 0.022137625 0.16600622 0.034797102 0.114257395 0.017148482 0.10345243 0.121728875 0.08518687 -0.19067274 -0.20023961 0.050056987 0.045060296 -0.029639319 0.08565155 0.006935258 0.027803328 -0.10588965 -0.13049863 0.038857095 0.023118593 -0.060782827 -0.044605713 0.092282385 -0.045496304 -0.1733638 -0.124808446 -0.25116247 -0.37169018 -0.24803975 0.0012772403 0.16808614 -0.063067995 0.36381492 0.18010491 0.016579961 0.24441575 -0.10770018 0.12845877 -0.028817583 0.021972962 0.014279407 0.015672795 0.15806402 0.18969974 0.06429756 0.13241601 0.05875522 0.20382297 0.07678912 -0.08656808 0.035830125 0.15484656 0.08342453 -0.061804827 0.131062 -0.49242094 -0.024543786 -0.110899195 0.18894756 0.32989135 0.04139473 0.105637155 0.0014218064 -0.1333148 0.055225585 -0.07347119 -0.057790454 0.22483101 0.015638348 0.07475253 -0.10334321 0.14495589 0.0031375566 0.05788736 0.1501787 0.015013877 -0.05181256 0.090812765 0.21177574 0.007110333 0.12672056 0.1482728 0.23478906 0.13656646 0.019907426 0.036919754 -0.06870744 -0.15127188 0.1733913 -0.04478234 -0.027575467 0.02673922 -0.030370925 -0.18882002 0.21452668 0.03743363 -0.048098262 0.06649687 0.2165346 0.0058988743 -0.22206806 0.14050943 0.32822022 0.11089265 0.060115185 -0.22879282 0.15224068 0.08844395 -0.05842527 -0.14311413 -0.12858641 0.041354153 0.11799428 0.19063884 -0.15210873 -0.04602526 0.1441006 -0.09272151 0.15337047 -0.09076493 -0.092639744 -0.16983487
30529 -0.010503499 -0.25118825 -0.12596565 0.055961344 0.09631087 0.052020445 -0.13666558 0.018154884 -0.0013815195 -0.080319196 0.056013912 0.07900097 -0.079781435 0.05190112 0.060132053 -0.0593334 -0.016304055 0.029224088 -0.04335929 -0.025551379 -0.12412653 0.17199603 0.09526283 -0.19499853 -0.011017427 -0.12329551 -0.09758717 0.08784883 0.051090386 -0.060878355 0.003919661 0.011567922 0.016601054 -0.16211309 0.03340037 0.021492768 0.21324511 -0.04900233 0.19964266 0.12746373 -0.08378093 0.07444303 -0.045874193 0.06998081 0.040296037 0.13382024 -0.097363554 0.03265547 0.087432355 0.12121799 0.10574147 0.0155747915 0.08927394 -0.015977615 0.02488378 -0.101824485 -0.081911944 0.0658555 0.11724558 -0.028484613 0.09680713 -0.39518633 -0.032006316 -0.06343291 0.059616227 0.054008253 0.18981008 0.11072144 0.02633661 -0.15568492 -0.09212968 -0.04735769 -0.084930986 0.09063187 -0.05219206 0.07937231 -0.17926624 0.07246752 -0.030068269 0.19029658 0.14552744 -0.09579456 0.13170253 0.10255675 0.2424952 0.08505926 0.10358827 -0.051730268 0.04442246 0.05483801 -0.030308992 0.03181099 -0.059351187 -0.059089832 -0.044796724 -0.11358433 0.20940925 0.038056735 0.03294615 0.013654936 -0.03543883 0.098718025 -0.07408301 0.14231671 0.022064589 -0.09366922 -0.044523656 0.022030054 -0.0017734964 0.15638968 0.23431148 -0.20132636 -0.048193645 0.06679652 -0.017384926 0.15452905 -0.0993268 -0.12775187 0.087793544 0.042203207 -0.14828628 0.010310412 0.023460194 -0.20322749 0.066155784 -0.10709181 -0.056925572 0.047087047
30198 -0.040232588 -0.23336884 -0.49100652 0.012693347 0.109861836 0.023518093 -0.16837087 0.03737401 0.034354012 0.04934538 0.022988152 0.16499658 -0.03676925 0.09233458 0.19487315 -0.069017716 -0.055929426 0.19908197 -0.071277864 -0.13096221 -0.12787768 -0.09238761 0.29896837 -0.09070152 -0.003959176 -0.21598786 -0.0952498 0.21677034 0.02903715 0.151258 0.12384605 -0.020123485 0.16657491 0.10739557 0.06995639 0.08271048 -0.010614064 -0.053718153 0.2758185 0.0793718 0.12947902 0.06559388 -0.23776849 -0.03890177 0.04190541 0.06506093 -0.008084809 -0.095084034 0.19622605 0.04736208 -0.049862716 0.02140412 0.19743001 0.22458935 0.079485714 0.187313 0.057263687 0.1385667 0.11958327 0.14117943 -0.05916763 -0.1603096 0.07652005 -0.026647922 -0.09444625 -0.069064416 0.16030689 0.10209101 0.057941243 -0.06696117 -0.0044667064 -0.29802465 0.15824085 -0.037290663 -0.107662156 0.060197107 0.0071520056 -0.10753019 -0.11095619 0.13763231 0.066852644 0.001103549 -0.010905997 0.17535692 0.09826754 0.06360862 0.17636463 -0.1351781 0.017303525 0.21636367 -0.04212726 0.15558086 -0.07014152 -0.03379563 0.08779 -0.16123721 -0.023791447 0.17543465 -0.07741969 0.25089845 -0.043212276 -0.015267019 -0.3880921 0.023575889 0.1240153 -0.04897251 0.19462228 0.03196456 -0.025825167 0.09425688 0.04203022 -0.26436675 0.065792225 0.049289424 -0.20962399 0.16866964 -0.28384435 -0.113944694 0.0035316525 0.19316357 -0.267353 0.042160843 -0.32591316 -0.10685277 -0.10955745 -0.0041658073 -0.060689677 -0.09475956
30434 0.044421975 0.005758403 -0.30554655 0.08148883 0.038870264 0.08301986 -0.09845004 -0.06278374 0.086118735 0.022010267 -0.24070857 0.0018331279 -0.043234568 0.15308167 0.02493597 -0.15831739 0.03895472 0.19589506 0.07350299 -0.051704414 -0.33795393 0.05733213 0.10488873 -0.13971496 -0.13533814 -0.17299594 -0.18088971 0.037628703 -0.117323086 0.03538292 0.14047772 0.14748399 0.042729154 -0.09083761 0.30445635 0.15610556 0.098415144 0.01000192 0.2600527 0.15156567 -0.18551974 0.16276565 -0.27578017 -0.017005367 -0.09691122 0.43829402 -0.18657869 -0.14358662 0.08922378 -0.03179794 -0.004119065 0.38209283 -0.10271469 -0.11048701 0.12269345 0.11395023 0.07322451 0.08990494 0.07509746 0.019825172 0.13091372 -0.2757916 0.04419247 -0.1142796 0.14829683 0.09120556 -0.14692165 0.13108855 -0.19173165 -0.16100103 -0.03546201 -0.20479156 -0.10393356 0.10798031 0.023823721 -0.14206131 -0.35098964 -0.18576209 -0.017438913 0.18043382 0.02204808 -0.18620394 0.034400217 0.05352248 -0.0117134405 0.12792811 0.008736149 0.07048108 0.24434307 0.14348674 -0.051574405 0.048048858 -0.14335148 0.09076261 0.07876334 -0.0894023 -0.19394778 0.009118174 -0.19410464 0.06168805 0.06460098 0.09403488 -0.20160037 0.2464489 0.0009856191 -0.14350213 0.009906259 -0.08658319 -0.07506731 0.008478766 0.14488195 -0.16895409 -0.07538847 -0.08578027 0.068652704 -0.09636469 -0.095673956 -0.052273624 0.10095775 0.15855072 -0.1380963 0.18295287 0.1597215 0.17946973 0.011810547 -0.22196388 0.04824049 0.027727757
31577 -0.10213809 -0.27506402 -0.37572694 -0.0069202194 -0.0034124474 0.27441436 0.03273664 0.19853987 -0.020601345 -0.05465313 -0.009066216 0.06153737 -0.25369692 -0.12183256 0.20374179 0.09342791 -0.067089096 -0.19355758 0.2269294 -0.055713147 -0.13275714 0.14896728 -0.116375744 -0.2714371 0.14772807 -0.23799571 -0.2218631 -0.04099164 -0.1756701 0.03248214 0.06263017 0.22944488 -0.013750866 0.068443365 0.1571602 0.17948532 0.3068789 -0.020256387 0.16616747 0.081027545 0.06259775 0.14630528 -0.13255872 -0.16985379 -0.059458565 0.08437904 -0.19015542 -0.026226914 -0.05802657 0.06738133 0.17361705 0.03839605 0.10833875 -0.056748822 0.1544014 -0.1054164 -0.061261162 0.2515806 -0.1672253 0.17753983 0.0051305266 -0.28549775 -0.059530355 -0.12792562 0.0812277 0.11547288 -0.040216822 -0.04755738 -0.078389786 -0.22206542 0.036416877 0.0134698665 0.162498 0.031602696 0.07252927 -0.12263775 -0.278554 0.051923133 0.04528581 0.11147741 0.076620184 -0.11544907 0.092651404 0.15361774 0.077505715 0.03180049 0.1810248 0.039704885 0.20982736 -0.039471276 0.07697242 -0.1190191 0.11179777 0.005842399 -0.06793247 0.011764009 -0.0016038383 0.049971066 -0.2925594 -0.03189916 0.1756327 -0.048142344 -0.14659996 0.29290745 -0.01280969 -0.08728986 -0.019279322 0.1605272 -0.04603091 -0.057021644 0.2234344 -0.09872266 -0.08396924 0.13852127 -0.17277019 0.039240345 -0.20365094 -0.0071878503 -0.002628511 0.28618374 -0.22601065 0.08139561 0.2780869 -0.056155108 0.15958829 0.13366729 0.16051492 -0.24928367
32070 -0.031473156 -0.20778567 -0.30246216 0.115218885 0.03840275 0.05318441 -0.059138227 0.1820906 -0.0655011 0.2860266 -0.13709816 -0.07274291 -0.031338215 -0.08367545 -0.084523104 -0.037863076 0.11933373 0.21356739 0.053073287 -0.16421096 -0.15581706 -0.036993362 0.040608108 -0.090155415 0.11456187 -0.052256033 -0.13418014 -0.005290968 -0.18387118 0.045442343 0.31494263 -0.037341256 0.1583601 -0.21170117 0.004980865 0.0072403993 0.201338 -0.13012776 0.08182892 0.15865497 0.083472274 0.044598483 -0.23912282 0.052759774 0.09499949 0.070559435 -0.21950738 0.02148914 0.21422908 0.033361897 -0.0057653845 0.34650436 0.026123272 0.0013453715 0.004614042 0.047180306 -0.11400647 0.27227905 0.18767464 0.23046486 -0.075334124 -0.410526 0.053690575 -0.058699764 0.15476218 0.14242165 0.077317305 0.11086604 -0.027054608 -0.07151244 -0.3104252 -0.07022273 -0.018652288 0.027599212 -0.11208414 -0.029773798 -0.20543814 -0.13844931 -0.109639384 0.21092683 0.022070767 -0.12289061 0.08632877 -0.069240056 -0.08575606 0.0900626 0.1694469 0.023975333 0.099638745 0.23878986 0.031355742 -0.007645005 -0.0136419125 0.028250402 -0.02176597 -0.215449 -0.13652769 0.014528996 -0.13634522 0.14447974 0.031157006 0.07577473 -0.17006646 0.2597778 -0.10274481 0.13690703 -0.05136114 -0.14805515 0.116243124 0.04108248 0.23037681 -0.18237199 -0.05566105 0.06348746 -0.031004481 0.057861216 0.04369239 0.017707093 0.044540927 0.23242989 -0.21848412 0.037249666 -0.15603408 0.22430928 0.06128307 -0.092298545 -0.023598975 -0.19320755
32467 0.258999 -0.24844022 -0.08475373 -0.03731483 -0.050369605 0.005631597 0.030964464 0.1075448 0.129873 -0.009954237 0.12205188 0.2587993 -0.062610656 -0.039969698 -0.028164305 -0.023236105 -0.071441144 -0.10422428 -0.10259996 0.05048633 0.07409895 0.083858006 0.15587509 -0.12785275 0.12075594 -0.14715742 -0.28263405 0.120822534 0.034201827 -0.19314538 0.066528 0.0001257316 0.113088086 -0.054262128 0.06443524 0.16685031 0.12532896 -0.021833263 0.34596294 0.07451524 -0.02348588 0.1295317 -0.19127664 -0.026699336 0.01675325 0.08880226 0.030734265 -0.070721425 0.017585514 0.077082515 0.07558338 -0.009275581 0.24863803 0.17327292 0.102215685 0.103398226 -0.03570886 0.05227565 0.11694621 0.0031502221 0.0067305155 -0.12783907 0.087467656 -0.11859952 0.09711128 -0.095793545 0.0858496 0.004768546 -0.11461654 -0.08708202 0.022438003 0.0073233237 -0.011818981 0.12552354 -0.10950978 -0.015042551 -0.10596029 0.043439005 0.063937 0.06303087 0.048856795 0.0031734023 0.19582471 0.025663167 0.18781032 0.11644232 -0.016993284 0.052718624 0.08031716 0.17452452 -0.17141564 0.030157952 0.11545682 -0.12682019 -0.0005654405 -0.16317225 0.14556222 0.03937483 -0.06843508 0.037361097 0.00982372 0.047208842 -0.15460077 0.03649117 -0.032903984 0.022679409 -0.009906895 -0.08952722 0.11820698 0.07147207 -0.008290016 -0.13543704 -0.02492679 0.10020443 -0.11836757 0.04494427 -0.07998676 -0.14214715 0.25081915 0.03507549 -0.06937724 0.04178167 -0.082385994 0.15231152 -0.13026525 -0.015575006 0.09071419 -0.0019459609
34082 0.23289464 -0.08292808 -0.41225985 0.10283944 0.11776814 0.26638648 -0.03182614 -0.13365798 0.018854897 0.12561879 0.1274669 0.08555439 0.109274834 -0.16055448 0.029386045 -0.09770847 -0.02068453 0.101376764 -0.023295678 -0.03183384 0.079567365 0.0038038536 0.16569674 -0.034773253 0.1321064 0.053690523 -0.1118467 -0.16598271 0.21946323 -0.17662738 -0.11431643 -0.029387947 0.10309686 -0.1946874 0.17686687 0.069481045 -0.12874547 -0.16804022 0.26290584 -0.08534815 -0.1822115 0.46695352 -0.042959094 -0.08706262 -0.022612112 -0.020008642 -0.30494797 0.01976837 -0.026277937 0.338488 0.007286568 0.19980726 0.06454672 0.41591778 -0.076910205 0.046426896 0.16917664 0.0012186517 -0.18582936 -0.051140063 -0.08721596 -0.33111674 0.2911394 0.03830495 0.24987017 0.1870367 0.3897789 -0.11396495 -0.311816 -0.29095975 -0.083492585 0.07569411 0.12487909 0.13189419 -0.1418299 -0.07199905 0.26812416 0.007819749 0.16391815 0.11928806 -0.03072472 0.17564371 0.30042616 0.020967772 0.11519192 0.1565694 -0.036990702 0.23500101 0.16094184 0.06176175 0.035360873 0.1263725 0.20486674 -0.036508646 0.017355097 -0.33931023 -0.15537956 0.005404547 -0.253964 0.18950696 -0.12146788 0.036522858 0.0339528 0.06159522 0.003290095 0.16846238 0.19728816 0.010720872 0.2727755 -0.24407567 0.19915912 -0.21621367 0.12203499 0.06811637 0.16025941 -0.041591857 -0.32628313 -0.09584955 0.15421237 0.12264937 -0.3265323 0.22966157 0.23091576 0.10639972 0.019813683 -0.15661928 -0.16531508 -0.03639704
33195 0.33786353 -0.26063743 -0.17966805 -0.015019102 -0.0037893222 0.0052827536 -0.018832853 0.045270063 -0.02591553 -0.16693768 0.088817686 0.15425773 -0.06918585 -0.19278626 0.007688944 -0.0670061 -0.16376454 -0.011980337 0.051374104 0.05896785 0.1444801 0.057344876 0.12376055 -0.2542859 0.14970456 -0.047827173 -0.14872727 -0.05914636 -0.03942405 0.058675528 0.07427726 0.016051365 0.09823154 -0.045930587 0.11760015 0.049489442 0.023759589 -0.024239523 0.21604618 0.10047744 0.029623464 0.19595006 -0.07696936 -0.01161827 -0.036542818 -0.06066207 -0.1352884 0.06480877 0.003943279 0.09189151 0.09891996 0.09808485 0.031220969 0.15391326 0.029000256 0.020460593 -0.008426918 -0.11376339 0.19511168 0.052838217 -0.075174406 -0.18758386 0.04423608 -0.05373583 0.28140032 0.07266449 0.017446512 -0.048634183 0.038683858 -0.18178897 -0.1039842 -0.013319652 0.055022385 0.21980587 -0.16741541 0.090122394 -0.06403857 0.044371203 0.091234595 0.025136111 0.080963895 0.11101846 0.22480695 -0.007214711 0.0148725975 0.051709946 -0.035498258 0.022073602 0.034709882 0.22547655 -0.13537537 0.049071755 0.20477246 -0.033756875 0.13336666 -0.3189751 0.013725767 0.093965136 -0.14894417 0.06391249 -0.016808337 0.15560521 -0.22025883 -0.101186596 -0.041156143 0.1522807 0.060753465 -0.023005137 0.00678439 -0.09385604 0.115425736 -0.08455336 -0.0634742 -0.0055150604 -0.009869009 0.08270154 -0.09840355 -0.05744485 0.13453898 0.02663335 -0.1710736 0.0065726563 -0.043758698 0.21184362 0.042369634 -0.12119735 -0.06497926 0.052277025
34761 0.25308126 -0.26407856 -0.47542545 -0.0043092747 0.13272208 0.05655382 -0.05007269 0.19854914 0.13429795 0.09837695 0.22891124 0.118625246 -0.12576093 -0.17642191 0.17173076 -0.07392543 -0.18000208 0.32898337 0.08605311 -0.121923715 -0.003569721 0.08540814 0.06045764 -0.16019753 0.09809629 -0.115675144 -0.20614311 0.20735563 0.034401916 -0.06933484 -0.122407876 0.02422233 0.05264035 0.07739736 -0.05275968 -0.04955226 0.024485476 -0.038500283 0.07652422 0.014368082 0.001832823 0.2817114 -0.11848525 -0.19410746 0.06298753 -0.046954457 0.009575386 -0.04212651 0.12452715 0.16751541 0.009312494 -0.026316497 -0.0021770846 0.20049433 -0.0034273914 -0.16907255 0.20331064 -0.059481636 -0.07350912 -0.008300032 -0.18819271 -0.049917366 -0.09218329 0.004137147 0.18782105 0.21697684 0.11288391 0.0013942298 0.10803027 -0.24190983 -0.14712712 0.09005565 0.12076509 -0.08470648 -0.14710611 -0.026923243 -0.15069444 -0.0149366595 -0.014729015 0.014129701 -0.023972087 -0.0063435626 0.14260863 -0.14790314 0.109559186 0.07660762 -0.083056554 0.23102276 0.18920948 0.26366323 -0.0044216667 0.35140282 0.19271474 -0.11718982 -0.12772745 -0.38805786 0.10474751 -0.0671903 -0.14733972 0.04309419 0.022328487 0.11740382 -0.33860788 0.090313934 -0.008016303 -0.02629568 0.09686851 0.07486892 0.19979037 -0.15720743 0.12492349 -0.068170436 0.18313834 -0.27837586 0.20512037 0.0149131315 -0.35110715 -0.24706267 0.008981736 0.040812694 -0.26816803 -0.0023406036 0.12584701 0.13980219 0.11732272 -0.036425225 0.030300597 0.0021777656
34711 0.024928255 -0.2507967 -0.24583207 0.115513034 -0.05771185 0.14388846 -0.207647 0.1497647 0.045325927 0.27871183 -0.116781466 0.17206226 -0.07023135 0.04824339 0.09316888 0.1947062 -0.048171513 0.07797415 0.010187515 -0.21016659 -0.16112913 0.14234151 -0.0036493724 -0.11919263 -0.0354607 -0.115390934 -0.116772726 0.026718434 -0.11968124 0.01693597 0.32974383 0.025432957 -0.059157945 0.12494105 0.3607497 0.17427252 0.16265073 -0.15747306 0.21592286 0.23720253 -0.06044801 0.08455168 -0.31291535 -0.11653472 -0.06378623 0.26405945 -0.19696721 -0.2533111 0.108868964 -0.12825683 0.048664305 0.19091627 0.050144985 -0.008152297 0.12436338 0.051538516 -0.047206935 0.12755926 0.043666724 0.38327637 0.03715603 -0.36081243 0.106806606 -0.26115113 0.035376515 -0.037942488 -0.1931594 -0.12622239 -0.19918731 -0.1631357 -0.07658416 -0.12677453 -0.015503176 0.024301196 -0.03513059 -0.18410523 -0.035545003 -0.06927424 -0.031747617 0.10614121 0.17095941 0.07955486 0.12980317 0.10553045 0.26939592 -0.08533977 0.22221525 -0.036877602 0.03043466 0.0940603 -0.16650039 -0.042598706 0.10056798 0.0037048503 -0.030405922 -0.0075973268 -0.12414332 0.037328854 -0.0174019 -0.08802777 0.11232283 0.12599349 -0.19167775 0.23289445 -0.02720526 -0.11904823 0.111081496 -0.20500459 0.18584734 -0.073814854 0.12087671 -0.07452467 -0.09838336 -0.023344463 0.02943068 0.066899925 -0.058009405 -0.1553185 -0.032275796 0.09961136 -0.17544158 0.24279034 0.040986683 0.112500876 0.101334706 -0.21426949 -0.13031617 -0.22242849
30852 0.05356491 -0.16286553 -0.22000723 0.008281268 0.07127014 0.009737553 -0.08540383 0.25620285 -0.052213766 0.027438005 0.08927768 -0.05395027 0.02835193 0.017827537 -0.011024273 -0.20481049 -0.11281035 0.14034538 0.09025089 0.017076313 0.07890052 0.09412715 0.068784535 -0.11245101 -0.047977485 -0.19665729 -0.19036116 0.04582337 0.09346613 0.012193924 0.117857695 -0.12503807 0.03425282 -0.13832971 0.02574232 -0.03520137 0.001782243 0.007382918 0.45814636 0.095179185 0.050234042 0.101742014 -0.18661642 -0.09759764 0.078690246 0.15796313 0.013719403 0.047689646 0.24816425 -0.0203829 0.0011659632 0.1220015 0.1802709 0.23189676 -0.084116384 -0.18040676 0.028678626 0.1223315 0.16525325 0.07285224 -0.05978441 -0.11915347 -0.036299244 0.056494303 0.2376954 0.04474206 -0.037915822 0.14225082 0.10764791 -0.021731615 -0.1353149 -0.12991571 -0.06473501 0.055754088 -0.0588052 -0.060585234 0.06910305 0.16999096 -0.02817252 0.10537774 0.18289107 -0.053070385 -0.01683361 -0.0027388185 0.010100513 0.08296077 -0.048468515 -0.08752406 0.24051097 0.15460573 -0.0072375257 -0.005305233 -0.07969837 -0.06301919 0.027760537 0.021486584 0.08966091 -0.036256034 -0.104640014 0.10318757 -0.07658138 -0.00044172423 -0.21769352 0.04446484 0.0529522 -0.14008929 0.011675227 -0.041836128 -0.10247197 -0.0019873928 -0.09165832 -0.3185293 0.08828857 0.08226758 -0.22776471 0.15952249 -0.13146365 0.02018016 0.03496025 0.17966107 -0.153088 0.06541675 -0.17982267 -0.038995147 0.133009 -0.028219981 -0.08645996 -0.17177045
34524 0.114500135 -0.21174897 -0.2593089 0.16948405 0.14243346 0.114227295 -0.11551025 0.045624822 -0.07164122 0.12900575 0.039407216 -0.0011854192 0.053143207 0.009627812 0.13657267 -0.033368275 -0.068146825 0.055050746 -0.00012963379 0.03912105 -0.09642538 0.1345692 0.035003364 -0.19179356 0.010807195 -0.21006756 -0.10484026 -0.1127624 -0.070719816 0.18615116 -0.12143064 -0.056080393 -0.07470356 -0.10568202 0.046837494 0.07942357 0.11773977 -0.0037447996 0.2502362 0.1924696 0.003429035 0.013220576 -0.05977367 0.08787073 0.030128637 0.07191493 -0.105160564 -0.092341684 -0.05404226 0.22053546 0.18122333 0.19488315 0.22346783 -0.042241827 0.060514852 -0.043668497 0.008531623 0.011840219 0.16185564 -0.06225247 -0.05842301 -0.17014582 -0.024302807 0.04913798 0.2707041 0.045334768 0.038692985 0.02464253 0.0894196 0.086235985 0.0090521565 0.02882169 -0.08982373 0.016282074 -0.010923011 0.0119447615 -0.03056687 0.16303293 -0.031066667 0.10034644 0.06561863 0.05490215 -0.026392138 -0.06098828 0.1280391 0.109267734 0.1671754 0.010588201 0.055378567 0.05600339 0.010816279 0.074124694 0.13343184 -0.08609357 -0.1474378 -0.18193327 -0.008909228 0.11168117 -0.09220343 -0.00023450443 -0.06620535 0.075320244 -0.21129948 0.056538936 0.047910478 -0.041983914 -0.054294273 0.030546336 0.02025824 0.08604851 0.29135454 -0.10757442 0.008746262 0.008919488 -0.038796294 0.11202766 -0.017852174 -0.09917046 0.057371248 0.108718835 -0.19280587 0.07995425 0.06682634 0.016234618 -0.10088907 -0.092516534 0.097968966 -0.08170336
33667 0.095577054 -0.2521149 -0.09814004 0.09521885 0.029502211 -0.0373806 -0.08809302 0.17388472 0.031318355 0.07263328 0.12863705 -0.07737858 -0.13847347 0.05145468 0.23358686 -0.23353143 0.039284557 -0.037010886 0.014638852 0.09766701 -0.0912883 0.1512501 0.063797854 -0.025487427 0.10510642 -0.20545556 -0.101488225 -0.0013168852 -0.05299754 -0.02453593 0.004851519 -0.11761561 -0.049986035 -0.07882583 0.06718338 0.05382175 0.2065911 -0.15069616 0.21882711 0.080031976 -0.005723601 -0.06782953 -0.16955532 -0.14602338 -0.09173227 0.15411924 -0.08253148 -0.029849647 0.027317947 0.15004364 0.12680773 0.38665605 0.2578062 0.024659941 0.21780173 0.036999103 -0.043334495 0.19399653 0.047218084 -0.14516851 -0.09753252 -0.08971557 -0.086399294 -0.13465934 0.1623368 -0.042711157 0.023253243 0.11106653 0.076008685 -0.07177216 -0.17961237 0.07146338 -0.040324397 0.09030681 -0.110699765 -0.12665163 -0.12240545 0.074079655 0.012383183 0.15590721 -0.054670367 -0.06125314 0.11109638 -0.072527096 -0.0020828089 0.10581101 0.040268134 -0.099108316 0.14246045 0.20762403 0.017059043 0.06554452 0.011978444 -0.032924227 0.06553851 -0.00045161264 -0.052467596 0.084753454 0.006127366 0.29667664 -0.0021624402 0.0153267635 -0.12237008 0.045270894 -0.084348075 -0.08445402 0.029982748 -0.005528484 0.0102131 -0.014021622 0.2291001 -0.18029243 0.030734843 0.00604196 0.06252701 -0.12674625 0.099991456 0.031281177 0.09184567 0.050924417 -0.21909228 0.09644966 0.033378493 0.011649788 -0.07186583 -0.07930862 0.075428106 -0.015217074
30792 -0.019955996 -0.128835 -0.20052032 0.05627004 -0.045401122 0.07474322 0.08799108 0.12411752 -0.11927306 -0.017231299 0.14760692 -0.16825055 -0.07437996 -0.01066126 0.022772351 -0.030937003 -0.075109415 0.3339845 -0.06511597 -0.055822764 0.015743075 -0.12036139 0.049885184 -0.10468403 -0.0704356 -0.21649364 -0.065723084 0.10864044 0.011928935 -0.13419092 0.16504227 -0.048508916 0.15983534 -0.014521216 0.082611896 0.13204513 0.112527676 -0.11773975 0.15796843 0.1889182 -0.094344966 0.11559999 -0.11551503 -0.010831913 0.038906764 0.15252422 -0.13580729 -0.16250099 0.020313026 0.09628102 0.080970615 0.07091034 0.17162213 0.14672148 0.15025327 0.00080032524 0.017981408 0.114938244 0.09394393 0.01671093 0.10956538 -0.27855793 0.022995424 0.08703684 0.19927399 0.18997853 0.038578313 0.109966084 -0.09535553 -0.08509171 -0.10790747 -0.15257905 -0.12831564 0.096735924 -0.0031887395 0.19313596 -0.021759385 0.062914476 0.0082850605 0.18103126 0.030814981 -0.11094591 0.07322095 0.10310355 0.12302741 0.14704838 0.13290393 -0.0049334546 0.04802346 0.04087338 -0.053183813 0.060221683 -0.1832861 -0.12957443 0.07415585 0.06511762 0.047243427 0.11448688 -0.067147054 0.015012481 0.076867595 0.15602118 -0.24741396 0.1324752 0.024157887 0.041379232 0.0527077 -0.05176708 -0.124989405 0.10712634 0.008818808 -0.10054798 -0.057004504 -0.012189841 -0.08031258 -0.03581104 -0.035717443 -0.14369003 0.022461832 0.08534304 -0.26052186 -0.002023185 0.008180769 0.14471047 0.09602017 0.03212136 0.04629412 -0.07844925
30647 -0.036280274 -0.19753909 -0.28581494 0.03223337 0.07528372 0.25195077 0.051616915 -0.02940332 0.017528566 0.0018154791 0.08242768 -0.031403277 -0.021178255 -0.12598257 0.2639336 -0.013909795 -0.05564375 0.074985705 0.0069512855 0.20960811 0.10865972 0.15987189 0.085943654 -0.069524154 0.11697182 -0.049759608 -0.02335034 0.08233125 0.14238597 -0.035264783 -0.0023734153 -0.026021345 0.036041606 0.024344964 0.14426337 0.048381142 0.17760289 -0.11962853 0.25562614 0.18820047 -0.03647862 -0.000992509 -0.2408369 -0.009124136 0.20503189 0.13454993 -0.23741464 -0.02542209 0.029355966 0.05985389 0.11164363 0.114312775 0.049522683 0.012755872 -0.033524185 0.049825203 -0.042295415 0.20136566 0.07285227 0.103109695 -0.16232035 -0.2109603 0.17090449 0.020883802 0.111653514 0.019348359 0.13337727 0.053650346 -0.025819832 -0.124367215 -0.12025771 -0.13364586 0.030184142 0.16308197 -0.11614569 -0.038897794 -0.06631096 0.1682145 0.059533875 -0.0081275245 0.09178459 0.0009096097 0.13091993 0.024284638 0.05403716 -0.060862403 -0.036959402 0.012687052 0.15747373 0.069342926 -0.08672176 0.10878826 -0.09327727 -0.014889922 0.06903962 -0.01795301 0.010884448 0.07248287 0.019362012 0.033376817 0.03803247 0.0151972035 -0.12417436 -0.03225354 -0.078069374 -0.05924548 0.18262345 -0.10212172 -0.056176607 0.045970727 0.113846146 -0.018303743 -0.09117159 0.06764614 -0.063739575 -0.15200251 -0.06541987 -0.16572116 -0.00049609476 0.03678382 -0.12152123 -0.05129914 -0.20718484 0.08069881 0.19688457 0.024399372 0.12226917 -0.06256957
32945 0.289192 -0.22553746 -0.036789328 0.15299864 0.029865105 0.1267366 -0.15159664 -0.049443815 0.195496 -0.056770418 0.13868119 -0.008364948 0.033356197 -0.08107962 0.09799266 -0.05083668 -0.034662 0.32729992 0.08806795 0.007575655 -0.05509258 -0.029662669 0.1715943 -0.118786976 0.054173395 -0.10589119 -0.2213762 -0.031662624 0.098132 -0.046912335 0.14149696 -0.014797792 -0.063055016 -0.017759584 0.046548706 0.10054647 -0.007978894 -0.11732308 0.36566627 0.035896927 -0.17821564 0.08808566 -0.08415495 0.015164272 -0.098899744 -0.09815322 -0.0083831 -0.09897576 0.000480094 -0.03658994 -0.0150852725 0.059644572 0.16151348 0.13743505 -0.013868393 0.058296453 0.02605463 0.13859569 -0.16137311 0.0051893257 -0.07976373 -0.05779204 0.079123296 -0.01174566 0.02629249 0.09427085 0.17276476 0.03770748 -0.085763395 0.06562968 0.04197301 0.03794369 0.075995214 0.011900515 -0.10125062 -0.11878333 -0.21524554 0.17452765 -0.13561359 0.061516784 0.09382181 0.0707772 0.061002225 0.13721702 0.19191815 -0.04435237 0.12332281 0.039222755 0.23757209 0.2510035 0.08761159 0.16183524 -0.10691458 -0.09106836 0.08042116 -0.048366982 -0.050532028 0.13302222 0.09387305 0.026599443 -0.014978366 0.05874879 0.012710502 0.024778169 0.08716118 -0.2151781 0.12611422 -0.09020615 -0.040461585 -0.05380396 0.29510117 -0.17148088 0.07068218 -0.03625903 -0.07573529 -0.018613424 -0.06558682 -0.13809256 -0.020461848 0.21828486 -0.1380089 0.10303101 -0.13590121 0.08308161 0.07395489 -0.012155994 0.1293994 -0.075043984
30693 0.32131302 -0.22319078 -0.0075894385 0.11622072 0.1103458 0.26724645 -0.11269881 0.007136232 -0.10961703 -0.11413096 -0.052598372 -0.07905667 0.15001363 -0.16746035 0.069045104 -0.03676497 -0.09623586 0.16006427 0.20832682 -0.060402922 -0.030614886 0.031110592 -0.009641076 -0.05243281 -0.095478475 0.0035820282 -0.061904553 -0.10900042 -0.10913512 0.037931915 0.1024092 0.052099463 0.053492222 -0.102774315 0.22927217 0.10770348 0.07272756 0.042702485 0.22724117 0.18303518 -0.080473684 0.0136378035 0.17851841 -0.04892903 -0.02251794 0.21953805 -0.10707261 0.08095376 -0.06382994 0.13650031 0.08684745 0.14897898 0.112444334 0.26267347 0.09009425 0.21208031 -0.010017051 0.015451456 0.05564766 0.013780502 0.013929584 -0.1771538 0.023836195 0.01397017 0.059362736 0.065968595 0.03704545 0.1492091 0.08270719 -0.07574663 -0.01889372 0.024223275 0.05735342 0.09709791 -0.24857487 -0.118823476 -0.042429477 0.046927933 -0.051820435 0.14834067 0.08361345 0.104082294 -0.021882713 0.07386999 0.18737932 -0.01868654 0.15303485 -0.060582485 0.16095203 0.095822394 -0.13723125 0.14204566 -0.1680332 -0.06856139 0.010407826 -0.24740076 -0.0718802 0.069916636 -0.049798597 0.0167444 -0.057041105 0.029457722 -0.19536427 0.013418809 -0.10419318 -0.00087950274 0.27254167 -0.10949153 0.032373548 0.11832376 0.14676099 -0.15702161 0.12728322 -0.08340148 0.013745744 0.05886529 -0.043681238 0.030421318 0.14757685 0.16753878 -0.105297364 -0.16355373 -0.09913326 0.056151662 -0.1948603 0.044773776 0.008441645 0.07956491
31135 0.3843584 -0.28616238 -0.31414458 -0.01936309 -0.16592604 0.011824082 -0.014943863 0.06828154 0.19977535 0.13026164 0.036772307 0.0682085 0.07337933 -0.030932644 -0.12680647 -0.016404271 0.15566726 0.051665433 0.032796226 0.0018944714 -0.036116026 0.06283064 0.18977177 -0.2461401 0.12844549 -0.15519215 -0.2630713 -0.077039555 0.10973979 0.08319362 0.20552674 -0.034319382 0.23440456 -0.09030462 -0.034958087 0.0005592045 0.23717567 -0.25623667 0.2004413 0.08817409 0.08751109 0.25478446 -0.18480065 -0.06347259 0.113576874 -0.05605824 -0.16276741 -0.083256334 0.14811376 0.29384428 0.15526079 -0.084275186 0.20063318 0.17420538 0.0006591935 0.042139642 0.016315669 -0.19571692 0.24949232 0.043934535 -0.086855546 0.0277428 -0.07638682 -0.1912485 0.21003516 0.1819443 0.0478452 -0.13142523 -0.08876375 0.10141297 -0.04826255 0.009867262 -0.03506215 -0.12769938 -0.28526965 -0.14045052 0.010284967 -0.13064475 0.04844046 -0.03275266 0.18230326 0.04214949 0.19221798 0.047181588 0.03232042 0.17646213 0.064067245 0.01988365 0.29472506 0.07213419 -0.13304329 -0.01526257 0.18402597 -0.095807046 -0.165896 -0.19065239 0.11731126 -0.0808286 0.046452492 0.058057327 0.01523067 -0.010924807 -0.22939529 -0.07387609 -0.08162142 -0.058257952 0.03192966 -0.019419445 0.107582785 -0.016975004 0.18870495 -0.16030815 -0.0069061727 0.031230057 -0.06832181 -0.05605285 -0.027566927 0.023427932 0.24698827 0.04598685 -0.48759177 -0.008715069 0.0017634046 0.14797297 -0.08265422 -0.16294675 0.115332305 -0.08237897
34685 0.27300352 -0.44980782 -0.22458616 0.09086262 0.049103774 0.07035553 -0.061606985 0.2041508 -0.09851204 0.07445229 0.1611611 0.091752715 0.1264693 0.07938959 -0.0049772365 -0.18050458 0.043380108 0.06577259 0.018475337 0.19645452 -0.14082709 0.0979377 0.025780123 -0.1120684 -0.04894322 -0.03282503 -0.14844662 0.020209603 -0.0513988 -0.0506498 -0.030253049 0.016897278 0.13995355 -0.08283118 0.07003286 -0.10261612 0.1459733 -0.2850737 0.27119935 0.032268126 0.06454316 0.17429624 -0.19420636 0.1471523 0.14052624 0.1219706 -0.12892601 -0.095322944 -0.024983501 -0.021143276 0.019564688 0.1644578 -0.009884551 0.041581243 0.19927487 0.2224019 -0.20890985 0.01967261 -0.055741034 0.016460689 -0.07728157 -0.04604898 -0.02639704 -0.1806298 0.30268475 -0.011733044 0.073401764 0.06392583 -0.094356984 0.15784141 -0.061855223 -0.023449847 -0.12669641 0.10369982 -0.16947494 -0.16002616 -0.16646163 0.067415625 0.1675228 0.06650044 -0.032133754 -0.036809746 0.08225173 -0.04483012 0.2591208 0.16027203 -0.035133854 0.08510399 0.084581695 0.08329441 0.041892342 0.045115773 -0.020485474 -0.14988722 -0.0771957 -0.08892215 0.0006525777 -0.04476502 0.06022649 -0.10894811 0.012633999 0.04362503 -0.20576443 -0.03278838 -0.09878347 0.14620975 -0.093653314 -0.06591105 -0.12333596 0.16442133 0.054797843 -0.29286626 -0.13247783 -0.034340892 0.044802807 0.043174107 0.09835719 0.010397118 0.16908138 0.046967063 -0.19627814 0.17425536 0.05372591 0.2546298 -0.039318934 -0.11979398 0.029006116 -0.035334513
35096 0.04768575 -0.24545325 -0.17572194 -0.02382151 -0.012243442 0.07141208 -0.032451574 0.30827305 0.009722557 -0.12980762 -0.048842378 0.2635938 0.02416634 -0.16564162 -0.17278816 0.022727424 -0.026997004 0.26886138 0.034065485 -0.12181157 -0.056789167 0.09216607 -0.026657084 -0.091216005 0.07772772 -0.2277081 -0.26964164 -0.06918888 0.026421556 -0.021628408 0.017793205 0.05937917 0.060755428 0.037437357 0.07536106 0.12055084 0.44184816 -0.17387864 0.076555446 0.2432843 -0.20319752 0.08818903 -0.20407456 0.0990709 -0.21075559 -0.0052526887 -0.1344128 0.07970706 0.005346704 0.12523612 -0.047065526 0.2213558 0.22719122 0.03332535 0.031748325 -0.09148074 0.03853037 0.11582943 0.18409966 0.13683677 0.060265478 -0.13857798 0.1641112 -0.15353765 0.12350641 0.16064157 0.0024196366 -0.08015916 0.010074614 -0.24826273 -0.23600577 0.00082249497 0.073767595 -0.0027620143 -0.086259805 0.012526323 -0.07238141 -0.08056657 -0.02192466 0.17592092 0.018288642 -0.259393 0.014189701 0.17552888 0.23821309 0.15329023 0.14096662 0.17782842 0.028601585 0.04338941 0.096855156 0.019516524 0.074406326 -0.031662747 0.010329723 -0.039471157 0.115551226 0.23447767 -0.19555487 0.031598438 -0.10035581 0.0018033852 -0.21721752 0.28751674 -0.09424453 -0.14554244 0.06770195 0.00012679693 0.0220866 0.05848941 0.20586407 -0.15096988 -0.08761043 0.23539239 -0.080283165 -0.0064925323 0.09127415 -0.06617856 0.022096382 0.15519936 -0.24291445 0.033341672 -0.0101240445 -0.14462876 -0.10655617 -0.084990256 0.17481859 -0.020417215
31454 0.21892966 -0.26818648 -0.18676187 -0.028785156 -0.13451529 0.048833687 -0.04466907 0.13749413 0.04475892 0.018475289 -0.016158562 0.17064984 -0.023096891 -0.0898843 0.14247514 0.08809092 -0.06219057 -0.0012730536 -0.08956266 0.0119678695 -0.030250033 0.10919609 0.043589365 -0.15815085 0.05999515 -0.006561124 -0.28205323 -0.050499856 -0.056377083 0.07688032 0.13278544 0.10642096 0.060284935 -0.20561607 -0.03629796 -0.037405755 0.15599543 -0.020868868 0.24935564 0.14984438 -0.0036367376 0.11764731 -0.10640684 -0.013813557 0.1288682 0.18913902 -0.054997228 -0.005060675 0.04058567 0.07650474 0.067480296 -0.0476409 0.039565433 0.10865703 0.17079647 0.05491027 -0.089136556 0.17787044 0.1521927 -0.020329421 0.078219496 -0.27585042 0.096851096 -0.2269866 0.19916952 -0.04736414 0.0105535155 -0.11669422 0.06534948 -0.09614373 0.033622313 0.019758306 -0.07293315 0.21059056 -0.14400287 -0.045625687 -0.006099784 0.0995286 0.10596732 0.04650691 0.041694015 -0.0017066245 0.046938356 0.15016185 0.12850899 0.13149758 0.111403294 0.02745093 0.018160827 0.09284901 -0.21311086 -0.02661915 -0.005733502 -0.21338975 0.189139 -0.103210755 0.0945653 0.09870517 -0.10044049 -0.1364795 -0.041299786 0.05913203 -0.10994855 -0.036230892 -0.31130937 -0.03349056 -0.049381904 -0.07331351 -0.031861916 0.07436728 0.10502071 0.115758 0.09378437 -0.10018945 -0.015692776 -0.051219378 0.027429676 0.02650729 0.19462785 0.08930263 -0.0773762 -0.031398878 -0.19308817 0.11331975 0.042668544 -0.027561398 -0.0007110156 0.03015156
30257 0.11728342 -0.15276426 -0.09447757 0.02303911 0.00087433774 0.15389557 -0.080090776 0.28334993 0.04363769 0.0497031 -0.06200947 0.045991328 -0.085333906 0.06553107 -0.031277224 -0.084643744 -0.15014255 0.20443024 -0.05456028 0.023611944 0.07631158 -0.037594136 -0.04367373 0.07144557 -0.030445518 0.043913458 -0.099104784 -0.025475677 0.05718936 -0.06520719 0.15084542 0.0015360656 0.079026334 -0.12930481 -0.025868433 0.1424985 0.24652979 -0.16817056 0.21921399 0.018681694 -0.024623377 0.18253608 -0.25174925 0.26502332 -0.0866853 0.11880165 -0.263077 0.032123376 0.044792023 0.08900833 0.015317385 0.14236014 0.018524667 0.09496757 0.10542452 -0.098595545 0.017951725 0.14139411 0.06596282 0.109710984 0.005563741 -0.27112076 -0.06978638 -0.16690412 0.14711675 0.03838441 0.111370645 0.09793481 -0.03191866 -0.04365712 -0.1610075 -0.015155673 -0.15137517 0.05742102 -0.028890662 -0.0020565467 -0.14877051 0.09225607 0.062807575 0.20301278 0.17937541 -0.008913833 0.16649269 0.06145192 0.21148854 0.0092847925 -0.0038388814 0.1420828 0.14303538 0.00097187795 -0.010344236 0.20934156 -0.07210257 -0.15674393 -0.11016111 0.07840037 0.0061273254 0.29860175 -0.022113806 -0.03639456 0.11295743 0.06672978 -0.103544496 0.050481524 -0.06742554 -0.008724139 0.004313584 -0.011370772 -0.1502179 0.002942564 0.046057783 -0.07564512 -0.11559011 0.13434891 -0.016288789 0.0066839275 -0.16619055 -0.11993357 0.12641689 0.1030233 -0.16002429 -0.04572371 0.08888902 -0.053421628 -0.0595536 0.12743343 -0.070027746 0.021450805
31267 0.05287471 -0.07758899 -0.006345517 0.1782156 0.124345675 0.028568782 -0.111747265 0.09213852 -0.035021033 0.0025799335 0.027398482 0.007211739 -0.027824113 -0.0041322066 0.092036314 0.12937096 -0.25202128 0.17596404 -0.10478157 0.06589848 0.0669328 0.17071128 0.02245856 -0.10149186 -0.013676276 -0.028608907 -0.12246571 -0.034390487 0.13516608 -0.023614172 0.2053008 0.024113039 0.10785322 -0.018043734 0.058692146 -0.024025695 0.053023487 -0.25676203 0.1198799 0.0119198235 -0.02881063 0.095274374 0.022674369 0.035954576 -0.0003868377 -0.17406866 -0.12809566 0.10890906 -0.09655518 0.17777613 0.1645864 0.14698751 0.18013409 0.14517877 -0.024975942 0.18973735 0.025431192 0.13268703 -0.027794866 0.17388408 -0.049317736 -0.11399034 0.07212946 0.06196222 -0.015002378 0.079946406 0.06313323 0.012858843 0.045891933 -0.13397425 -0.14516096 0.010160793 0.069965795 -0.018843872 -0.024964424 -0.06977031 -0.124222875 0.15230598 0.026948731 0.1600747 0.031127319 -0.13583748 0.015969558 0.12580179 0.1651509 0.0597421 -0.08722582 0.06828947 0.16522083 0.2135261 0.07692532 0.13759479 -0.06848383 -0.07914822 0.14606757 -0.0028758638 0.08398979 0.038855854 -0.017426034 0.1967008 0.1133571 -0.020642474 -0.013277047 -0.015613163 0.04954433 -0.100139335 0.17180012 0.08710722 -0.016770028 -0.02911664 0.21375869 -0.15204862 -0.03996128 -0.08142544 0.18773009 -0.078810446 0.011413004 -0.17226112 0.038747948 0.13615398 -0.21748404 -0.08722702 0.08289882 0.11517164 0.19012418 -0.012502319 -0.078600354 -0.1104438
31995 0.19770284 -0.41419083 -0.1478176 0.07923714 0.02339682 0.08848567 -0.22757913 0.0809996 0.006324065 0.045691576 0.2710743 -0.06932009 0.13475783 -0.025308825 -0.009928123 0.071228966 0.06926882 0.06300085 0.052747823 0.11042303 -0.08476881 0.08126502 0.062469397 -0.2232939 -0.0025275727 -0.10703908 -0.20317681 0.11186252 -0.06429934 -0.032478675 -0.08525532 0.0861026 0.14465985 0.030250894 0.046506777 -0.090179056 0.08053697 -0.07646502 0.24231207 0.06303451 -0.0051318193 0.091303065 -0.22261792 0.054727007 0.18541893 0.23196888 -0.033634644 -0.13202313 0.09048833 0.094643235 0.012095098 0.17180781 0.15686132 -0.011968871 0.012416113 0.17707603 -0.019982323 0.1355866 0.09858059 -0.07475335 0.0090772 -0.082920976 -0.11224634 -0.08690164 0.194186 0.04350003 0.018120255 -0.09109544 -0.067440614 -0.028729424 -0.0124969715 -0.02161344 -0.08985219 0.045350697 -0.20821789 -0.041865423 -0.117719926 0.17615618 -0.019652942 0.171395 0.0903521 0.049100336 0.0789787 0.16035007 0.049641397 0.055433434 0.14665519 -0.09380529 0.3901771 0.13195345 0.06224773 0.06670701 0.04455493 -0.11363458 -0.01675716 -0.11561675 -0.04250899 0.09869655 0.11117885 -0.020464024 -0.08269709 0.092146136 -0.05249171 0.06600541 0.015577748 -0.06534136 -0.031417795 -0.010621438 -0.077227116 0.13717344 0.17917103 -0.02818599 -0.12770246 0.18993708 0.055012885 -0.026788674 -0.026220646 0.023619488 0.07912168 0.25659388 -0.18510951 0.1843969 -0.041398842 -0.052762095 -0.05006715 -0.16484244 -0.034902766 -0.15689327
30990 0.05352723 -0.51272684 -0.054514293 0.0958334 0.13099606 0.25753713 -0.17575772 -0.04205939 -0.09159625 0.09598168 0.2186217 -0.109358214 -0.017011065 0.078305975 -0.033957172 -0.06828709 -0.036114197 0.27199045 0.08634561 -0.080748215 -0.11927213 0.1256573 -0.065451495 5.9587284e-05 0.3016559 -0.27596653 -0.10326466 -0.051701885 0.07052075 0.039469834 0.11134196 0.0064193294 0.09088251 -0.12646632 0.13822682 0.048257094 0.034973696 -0.16028963 0.40690655 -0.02059259 -0.12421457 -0.10709304 -0.08950785 -0.09635373 -0.09878483 0.16146813 -0.17249966 -0.11009842 -0.0025777707 0.26453015 0.14681453 0.19210923 0.26897925 0.031499665 0.21898323 -0.109796844 0.15696016 0.1636162 0.07857551 0.02451146 -0.26362216 -0.13166943 -0.059903108 -0.10525079 0.15866946 0.08099397 0.11897027 0.016702345 0.0052392962 0.1138617 -0.23165005 0.048657432 -0.10181934 -0.0037414557 -0.04071628 -0.09974152 -0.11954327 -0.045951005 -0.124811865 -0.08969022 0.28580084 -0.09208212 -0.06701267 0.14349853 0.05329098 -0.10223423 -0.039338022 -0.22495642 0.060857933 0.043657612 0.024483545 -0.12757032 -0.0036574195 -0.06868102 -0.16351457 -0.3097314 -0.019494511 0.00014374466 -0.035619527 0.115827456 -0.008413611 0.13766178 -0.19719586 0.16361637 -0.09514635 -0.006216228 -0.100906625 -0.059188858 -0.018254016 -0.040998213 0.24558087 -0.16037124 0.008703825 0.10140271 -0.06881248 -0.05718974 0.15345487 -0.16889392 0.18479645 0.14246282 -0.13767286 0.20120998 -0.017971149 0.04613263 -0.009761784 -0.12783405 0.034578964 -0.036383074
31650 0.15668161 -0.25595492 -0.059006024 0.13840002 0.16547446 0.16224942 0.17054482 0.07485049 -0.01179605 0.035550363 -0.004896887 -0.041763257 -0.045509763 -0.06773934 0.10256087 -0.025052138 0.03000124 -0.008400012 -0.05784607 0.35725403 0.018217307 0.16517237 -0.082685605 -0.14544266 -0.19005041 -0.17643385 -0.07407927 -0.030356273 -0.13317917 0.01097049 0.05118392 -0.100206316 -0.013341355 -0.035256095 -0.17627469 0.09805036 -0.017510459 -0.14226787 -0.0031131832 0.18476483 0.079263724 0.10715782 0.14356709 -0.07999045 -0.072312586 -0.082156934 0.14399949 -0.11596781 0.07451284 0.04612625 0.017917668 0.14650948 0.10013109 0.08536346 0.119485974 0.17808814 0.12483787 -0.12296495 0.056900322 0.17426024 -0.068327405 -0.17715411 0.26100725 0.02618878 0.07001356 0.10402744 0.1286714 0.19829553 0.1151375 0.032041144 -0.054470826 -0.08745064 -0.053542152 0.111692026 -0.1870574 -0.025318231 -0.05024953 0.043375667 -0.24276577 0.14470184 -0.10814165 -0.024235485 0.012101802 0.3312728 -0.08640353 0.039523475 0.13923657 0.02897637 0.041189104 0.08162466 -0.11187135 0.039905738 0.0050016562 -0.15530092 0.02013559 0.09235054 0.044636086 0.030785188 -0.058501832 -0.13422912 0.05038517 -0.08473287 -0.055991177 0.27624893 -0.089481466 0.06355518 0.018906293 0.006591631 -0.0023704055 0.13237756 0.1869231 -0.0036008458 0.021350252 -0.1660713 -0.1339901 0.030422358 -0.08529133 0.196401 0.056746554 0.09593393 -0.20725997 0.11490415 -0.068969175 0.10851972 0.18692805 -0.084899895 0.058033608 0.06553613
31504 0.13759819 -0.36540258 -1.6071794e-05 -0.04469659 0.119683735 0.038040888 -0.005661382 0.21065198 0.0518314 -0.08174262 0.023186114 0.006688234 -0.025092453 -0.21861789 0.09310406 0.042986177 -0.091189 0.09244294 0.17467718 -0.10995415 0.09690879 0.099151544 0.06579156 0.020089807 0.123686865 0.057900827 -0.28667486 -0.017249862 -0.06192319 0.15209015 0.06880828 0.018711999 0.1848266 -0.08311304 0.21682876 -0.09010384 -0.04856073 0.09326909 0.16906336 -0.027582744 0.04476539 0.18303265 -0.28302628 -0.10290607 -0.05241688 -0.12092139 -0.051256455 0.089017734 -0.020239932 0.06376174 -0.02074319 0.18366046 0.03979178 0.19597246 -0.139676 0.0669343 0.019696359 -0.043463483 -0.02473295 -0.112454705 -0.0564972 -0.4503797 -0.106020816 0.15188083 0.10605748 -0.08154549 0.11762111 -0.16603561 0.07096384 -0.2006928 -0.2533288 0.04196415 0.14045243 0.20853393 -0.12980334 -0.1627791 -0.11067053 0.32394594 0.056984443 0.28257665 0.117591076 0.08423348 0.22359376 0.027471913 0.2152017 -0.012956733 -0.13034034 -0.0069870106 0.15890579 0.16254953 0.004616583 0.15766504 -0.1206342 -0.18903407 0.061622612 -0.15188955 -0.008029971 -0.101566985 0.041099194 0.15246083 0.14350276 -0.0027706686 -0.07629647 -0.120779224 -0.11319804 0.035628077 -0.022543414 -0.036452003 0.088947915 -0.27031985 -0.024869235 -0.14889576 -0.119254366 -0.259311 0.020401932 -0.010639727 -0.11191818 -0.120520376 0.1554348 0.08443508 -0.21004297 -0.083938286 -0.2242154 0.096934505 -0.004209643 0.06595692 -0.08300559 -0.01719405
31834 0.23024602 -0.38994735 -0.014971908 0.11004971 0.21933562 -0.10797297 0.00012612496 -0.014774275 -0.14509995 -0.11017563 -0.09605397 -0.03534602 -0.0042692204 -0.11420093 0.017729929 0.04931098 -0.16206644 -0.032179207 0.25853315 0.014362716 -0.109730415 0.014340343 0.23953764 0.14489721 -0.01345222 -0.04756233 -0.19307783 -0.2472197 0.11449243 0.009153236 0.011893414 0.0008460289 -0.030886093 -0.25914812 -0.05521853 0.08193924 -0.0154965855 0.015075932 0.08890748 0.12229233 0.06594485 0.15648043 -0.07919103 -0.20109159 -0.082744434 0.1247634 -0.095346816 -0.1066955 -0.100109205 0.0712781 0.15160446 0.0613148 0.03359481 0.074409686 -0.053631514 0.12771694 -0.102076344 0.030846536 -0.0025409244 0.023572037 0.11305853 -0.16905028 0.10221469 0.05124881 0.19693087 -0.10167608 0.10645833 0.047084887 -0.04420446 -0.11555486 -0.06784396 0.19475977 -0.053572286 -0.12261486 -0.2385286 -0.30887887 -0.26834548 0.06498475 -0.024133565 0.0761969 0.38584444 0.009405897 0.03180189 0.06559317 0.18859056 0.024539085 -0.030933276 0.114347935 -0.051877476 -0.02274011 0.10744101 0.12948781 -0.049014755 -0.17645018 0.11210689 -0.16373059 -0.016934624 0.14818813 -0.084223695 0.21056788 -0.03378644 0.02782363 -0.106778316 0.047492925 -0.033504143 -0.06762451 0.09594876 0.008912482 0.07066809 0.1189998 -0.05727947 -0.2386639 -0.120758176 0.11734258 -0.15958029 -0.0806508 -0.2449718 0.0018940519 -0.017093765 0.06531525 -0.05208815 -0.13468811 0.08449201 0.08056884 0.059276138 -0.07111759 0.02959821 0.10540479
34574 0.1740523 -0.35109264 -0.13462867 0.06637047 -0.022056922 -0.0017128605 -0.29944572 -0.05890477 -0.037745453 0.14210884 -0.118298315 -0.075086124 0.09752089 -0.040750563 0.039082233 -0.20466146 0.062463857 0.06193672 0.053540953 0.15153858 0.045621138 0.08788213 0.07370547 -0.19501407 0.16300048 -0.24666524 -0.042477954 0.023792174 0.091290385 0.14506014 0.13610245 0.079885714 0.08357268 -0.059419606 -0.085131235 0.036854256 0.055630986 -0.19374421 0.45522487 0.0851152 0.041441917 0.07848843 -0.17055084 0.06546634 0.18281306 0.09839643 -0.01656067 -0.15904492 0.16688292 0.031519566 0.07287115 0.23378508 0.13053857 -0.037620705 0.11735207 0.08960376 -0.10406753 0.11346324 0.12167257 0.020928409 -0.1032364 -0.1359517 0.05544429 -0.10824677 0.12735805 0.0760987 -0.103183135 0.23874998 -0.06682579 0.061668895 -0.07971373 0.04252712 -0.111056745 -0.0004034608 -0.100919545 -0.09979524 0.0012950896 0.287063 -0.2046358 0.024239494 0.20503427 0.016457146 0.15067825 0.06907762 0.13693234 -0.047377005 -0.08831296 -0.31651565 0.10042645 0.02735197 0.1190948 0.20751925 0.17584662 -0.07739903 0.016941056 -0.21884765 0.18160868 -0.1638178 0.036377717 0.19167767 -0.07755827 0.15153728 -0.3187127 0.18503608 -0.13111852 -0.13340098 -0.12548542 0.052258875 -0.008871186 -0.20644784 0.17464472 -0.1939901 -0.017951783 0.14260045 0.16386089 -0.084907755 0.14897646 -0.14879124 0.14273416 -0.006155294 -0.13341509 0.11225002 0.11997275 0.14538175 -0.05598473 -0.118807666 -0.01708098 -0.1283292
32337 0.17927964 -0.19485271 -0.091971666 0.102587655 -0.011447618 0.13978805 -0.0015465968 -0.07663128 0.03357245 0.15153785 0.14604202 -0.029941615 0.01866482 -0.040896043 0.17760113 0.15113768 -0.03832871 0.1365996 -0.05537307 0.03848515 -0.033489384 -0.00479085 0.047402542 0.056910962 0.17323576 -0.23804165 -0.08604185 0.070504926 0.012454694 -0.012414102 0.01819203 0.00804568 0.08488792 -0.062357936 -0.012669115 -0.02044746 0.002891839 -0.01082293 0.17097035 0.079723775 0.058379304 0.10412537 0.011179506 -0.06532285 0.07515678 0.085116744 -0.13948935 0.07633708 0.05963954 0.06357455 0.06612191 0.071420856 0.09525526 0.105179936 0.19459942 0.021346448 0.040778775 -0.035505142 0.1088946 -0.0992032 -0.076023825 -0.15629917 0.14591207 -0.018313594 0.058557004 0.0986261 0.11421618 0.0644017 0.0012989936 -0.1088695 -0.06180813 0.095945135 0.09611631 0.1364324 0.030341353 -0.14841788 -0.050911147 0.08938754 -0.052739173 0.12631708 0.074296735 -0.06569397 0.035727423 -0.031212008 0.14631721 0.04939352 -0.008003896 0.16137514 0.07019801 0.118117034 -0.031081522 -0.036126766 -0.15377949 -0.20767297 0.03231778 0.07091054 -0.019535191 0.14439659 -0.07366367 0.06039682 0.076473124 0.14519027 -0.0936996 -0.020029372 -0.07050334 0.06825259 0.086794384 -0.07935422 0.0024459912 -0.039899595 0.19291632 -0.14112051 0.053856175 0.025107633 -0.1037376 0.05411344 -0.07864155 -0.09362333 0.14095676 -0.0049178973 -0.20210868 0.11211112 -0.12264449 0.041590154 0.11577872 -0.12559 -0.0888094 0.0058444287
31453 0.176983 -0.1901634 0.01198098 0.046985205 0.14793672 -0.07321457 -0.016699087 0.018813878 0.22126502 0.039570253 -0.06516746 0.05268847 -0.15896037 -0.060293444 0.09521383 0.030922025 -0.13501279 0.111345 -0.026640262 0.28477433 0.10029909 0.18688565 0.09978781 -0.09225953 0.14841999 -0.15035632 -0.20894288 0.028237192 0.21951686 -0.07939864 0.054068007 -0.020001788 0.10362751 -0.06632506 0.0069228625 0.12513997 0.12541418 0.12495543 0.18876804 0.100460984 0.014956514 -0.009197961 -0.054123253 0.03258095 0.111258194 0.12141829 -3.9022896e-05 -0.17399652 0.12546362 -0.110293 -0.008045916 -0.14427781 0.046694547 -0.037421063 0.029251462 0.19500928 0.08735731 0.050206706 0.062437665 0.03622137 0.020894527 -0.24843836 -0.0643948 0.05858921 0.106841 -0.020596022 -0.058336146 -0.0064749126 -0.14920488 -0.017404187 -0.0029012412 -0.04991251 -0.05526535 -0.0007975733 0.09080226 -0.16282648 -0.05469692 0.15953842 -0.186523 0.088895 -0.1088449 0.0069455164 0.086525396 0.037100155 0.037286263 -0.041660134 -0.04792788 0.10066956 0.08517419 0.07768142 0.026925439 0.19853841 -0.08806195 -0.19734912 -0.004184261 -0.2014269 0.047348212 -0.04313898 -0.031233054 0.12249797 -0.054713123 -0.013323885 -0.096054904 0.11085869 0.0073727896 -0.049946517 -0.22057697 0.13978472 0.17865983 0.090629905 0.13873132 -0.13582705 0.12447644 -0.038881704 -0.095629364 0.016620116 -0.05962207 -0.06467918 0.030716302 0.09173732 -0.03928179 -0.029203644 -0.1243249 0.12913586 0.032214284 0.0121393595 0.10192905 0.105806515
30615 0.069530435 -0.14351436 0.06728048 0.02319113 0.18174252 0.035417818 0.06036655 -0.017527465 0.10599681 0.122750334 0.09015441 -0.03283991 0.030129014 0.029232824 0.10034717 0.03700575 -0.11238076 0.121564575 -0.17197599 0.14136074 0.08525402 0.1789 0.018917903 -0.11808404 -0.09753043 -0.15457459 -0.13487165 0.05618953 0.010616786 -0.038793508 0.13317575 0.08059799 0.1045304 -0.0062926793 0.14381213 0.0478378 0.19147593 0.029041197 0.089272164 -0.014049455 0.017110877 0.09172384 -0.09983081 0.057920586 -0.06632829 0.11309092 0.027382987 -0.147931 0.03432536 -0.020375144 0.05673683 9.829075e-05 0.1273457 0.0907818 0.05326382 0.05719014 0.10282056 -0.028989807 0.060553867 -0.035780452 0.010859297 -0.09991256 -0.06345275 -0.02331999 0.20789903 0.03775982 -0.113916464 0.025699113 -0.115047075 -0.10959721 0.13108201 0.08876071 -0.12659833 -0.0011342352 0.124782674 -0.018307589 0.08344782 0.009022632 -0.26670247 0.1849556 0.18957472 -0.0040982235 0.11173818 0.11398336 -0.0055246386 -0.06401741 0.032699026 0.15011871 0.14556567 0.11448198 -0.043447684 0.040436674 0.069894806 -0.08370571 0.13523413 -0.03135424 -0.103861116 -0.06789368 -0.019483835 -0.03014075 -0.045753226 0.25028527 0.035044428 -0.07500179 0.10138072 -0.111765295 -0.10262116 -0.024434444 -0.051816758 0.058523085 0.35048655 -0.1686196 0.19070223 -0.063694514 0.041266575 -0.06122476 -0.08253118 -0.113112904 0.12067031 0.03046228 -0.035751134 -0.05716104 -0.041680902 0.08979367 -0.05699612 0.18004334 0.115827225 0.07342442
34321 -0.04295366 -0.35209617 -0.1747136 -0.06771816 0.24706733 0.11554237 0.042206027 0.03700463 -0.069672465 0.12561308 -0.007408193 0.10088848 0.11665953 0.07958795 0.025921822 -0.02611865 -0.13445568 -0.0036416494 0.042240545 0.09634098 -0.06887355 -0.058836997 0.011626346 -0.18049629 0.12416595 -0.07706643 -0.16492447 0.061903432 0.039970063 -0.022652801 0.048963174 -0.09894735 -0.035922956 -0.17335713 0.08708609 0.058410276 0.3536079 -0.06686384 0.1598306 0.24787347 -0.033982985 0.31085914 -0.02801184 0.10569929 0.12892981 0.013038662 -0.16334043 -0.05941568 0.07158438 0.2908421 0.17035368 0.014856377 -0.035836786 -0.06368781 0.0034149948 0.06753408 -0.09003988 0.081054986 0.18709697 -0.20091596 0.1654913 -0.25896904 -0.1302718 -0.09357581 0.13233308 0.082705654 0.051506545 0.14604157 -0.14135526 0.015488006 -0.01710706 -0.13303117 0.10133862 0.09375274 -0.036866356 -0.15658382 -0.14541315 -0.049082786 0.18226786 0.22084655 0.08644054 -0.08199845 0.024399875 0.09402419 0.16852583 -0.103500314 0.14664848 0.07690521 0.20281464 0.15246251 -0.0037376045 -0.01966021 0.0059356894 -0.23842828 0.021488668 0.086805955 0.18924959 0.04888148 -0.025995674 -0.056168113 0.07571514 0.08761169 -0.022251513 0.22673434 0.086276606 -0.069728814 -0.18645494 0.06594345 -0.0463622 -0.04460666 0.050884485 -0.035915542 0.07612286 0.3097787 -0.03353582 -0.018295921 -0.07367926 -0.092982285 -0.031184504 0.047880664 -0.06006041 0.02731269 0.115697496 -0.018374678 0.004828511 0.03523266 0.0003679751 -0.17512634
30185 -0.03437745 -0.4789048 -0.14481172 -0.2600301 0.2453489 0.18753804 0.009333572 0.12742622 0.31733736 0.00065322727 -0.017273862 -0.24474102 0.0033203855 -0.18761167 0.080649726 0.09258728 -0.3301691 0.29535353 -0.015489951 0.042006742 -0.1387547 -0.05771644 -0.2378946 0.053944305 0.05028217 -0.23616986 -0.039758783 -0.1474986 -0.08459162 0.01689038 0.06252192 0.12985711 0.094927065 -0.20922272 -0.1502684 -0.11723565 0.31567198 -0.064918295 0.15486509 -0.034243204 0.27864477 -0.037208352 -0.28044972 -0.0031476554 -0.0473983 0.2569826 -0.040109184 -0.107145645 -0.05039604 -0.009274592 0.040374454 0.009660439 -0.032608286 0.1529001 0.20029142 0.09236909 0.0866159 -0.09648418 -0.30819684 -0.06331778 0.05185211 -0.20861073 0.12723114 0.01195558 0.27583498 -0.19182484 -0.20028324 -0.080567494 0.11350576 -0.22121614 -0.16610423 -0.06174517 -0.18383174 0.12588014 -0.07729998 -0.17876814 -0.11251658 -0.070038445 0.23282485 -0.086779796 0.18176572 -0.11823577 -0.05103793 0.03151561 0.14139786 0.05481982 0.005632491 0.05713381 0.09291605 -0.1433439 0.027148262 0.07062649 -0.109978996 -0.28455883 -0.06668981 -0.27580538 0.19109835 -0.04737338 0.0099692615 0.13095745 0.09601532 0.08249073 -0.24240145 -0.41407913 0.023334717 -0.16992803 0.19866979 -0.16524617 -0.11499546 0.048843227 0.020095298 -0.33870822 -0.117118426 -0.20873351 -0.17332573 -0.0681364 -0.21294312 0.03412225 0.045181837 0.10337792 0.16665967 -0.1231695 -0.12995449 0.49760157 -0.016470594 0.17765318 -0.13939314 0.104071476
34492 0.16958472 -0.21775901 -0.13297977 0.13836782 -0.0027337878 0.11497826 -0.048160482 0.14712839 -0.029491337 -0.029217273 0.044384737 0.082527734 0.1222616 -0.018633423 0.13236326 -0.12180811 -0.002351493 0.13226399 0.11989114 0.13161178 -0.047519516 0.011620138 -0.03198562 -0.1245267 -0.06633607 -0.19207516 -0.08873019 -0.033951152 0.1157943 0.11188085 0.038579922 0.031587485 0.04496385 -0.17727524 0.014774294 0.090540506 0.051431607 -0.17726064 0.26473814 0.19668512 0.008565674 -0.068177864 -0.029509194 -0.004667848 0.08023283 0.16251142 -0.097386286 -0.010053849 -0.03915827 0.1443191 0.09082384 0.08320277 0.12415967 -0.03146728 -0.040625706 0.13399005 -0.009793929 0.13161379 0.11019474 -0.0008374294 -0.13622715 -0.20977472 0.10987888 0.12939882 0.1179053 0.14109533 -0.04691243 0.07867716 -0.033128038 0.1753627 -0.03440225 0.022373455 0.112943605 0.13339835 -0.073021516 -0.25903556 -0.18048587 0.04966731 0.08560144 0.041702326 0.11872196 0.10643287 0.11698417 0.04105839 0.14759316 0.022608474 0.028147923 -0.21667859 0.20149744 0.25761408 -0.010991412 -0.01241557 -0.055062734 -0.066889435 -0.1263008 -0.00022845874 0.019389672 -0.0028161032 -0.16855493 0.02046219 -0.059073232 0.033629484 -0.042641073 0.051424082 -0.09439715 -0.05201245 0.00956654 0.003815369 -0.013271659 0.00096093054 0.14842197 -0.1322822 0.06198203 0.11744921 -0.077567466 0.032602444 0.006400707 -0.024021732 -0.039313406 0.109181546 -0.11617031 -0.018964237 -0.07998434 -0.03857036 0.033307023 -0.11197901 -0.008861898 0.11192521
30423 0.20468226 -0.18275648 0.031190103 0.030656831 0.14997616 0.038268 0.0005564447 -0.04945223 0.08481104 -0.031082658 0.1524978 0.08916809 -0.17792374 -0.20246106 0.26288894 0.07732821 -0.23174894 0.05635994 -0.036206797 0.16010407 0.12728752 0.041130617 -0.09045434 -0.03265113 -0.08409238 -0.11356365 0.0050637443 0.045531202 0.14809528 -0.07314871 0.29817724 0.08757024 0.07905555 -0.015099628 0.08759638 0.08599182 0.138437 -0.21731618 -0.061225854 0.11433744 0.011966515 0.06414059 -0.04905439 0.057497416 0.018712347 0.07534829 0.009164228 -0.08442836 0.015811557 0.088707834 0.041448336 0.07350008 -0.039829753 -0.012223657 -0.031304188 0.13000245 -0.0560044 0.088139966 0.049398057 -0.083916284 -0.18203132 -0.26681027 -0.1030037 -0.12491859 0.17912729 -0.010101992 -0.06825045 0.009947051 -0.0035521174 -0.069945686 -0.039924618 -0.14314584 -0.061509572 0.007235856 -0.020336308 -0.11310832 -0.13077216 -0.016559105 -0.060686946 0.11430349 0.16992533 -0.010134827 0.0060770544 0.1685138 -0.08156317 -0.05314792 0.11012662 0.1469169 0.011695874 0.06545021 -0.022234127 0.24090278 0.05025868 -0.22384676 0.07625789 -0.23565352 -0.025604123 -0.086223595 -0.06376923 0.1185756 -0.13503401 -0.06081253 -0.13428633 -0.07401067 -0.07884466 -0.07514455 -0.031716917 0.085151106 0.07718847 0.065016225 0.11803537 -0.1961388 0.12575361 0.13126539 0.0025700373 0.09459655 -0.1802069 -0.07086713 -0.001560827 0.052035585 -0.029047314 0.053304747 -0.29379705 0.0827411 -0.03989958 0.075024836 -0.09681937 0.064435795
30208 0.1644203 -0.39879638 -0.16758758 0.10924504 0.006397547 0.03783671 -0.09002746 0.02216996 0.17651495 -0.020062339 0.0019584887 0.08025666 0.05937937 -0.010585224 0.016487662 -0.09247821 0.10398181 0.004944909 0.020217516 0.083188534 -0.039733484 0.20965682 0.24281022 -0.20538244 -0.0013891298 -0.07458178 -0.008513556 -0.07113136 0.2570748 0.0947132 0.12586857 0.076438755 0.30886588 0.122655444 0.11916777 -0.17265299 0.3068348 -0.17894743 0.26878077 0.109064884 0.19741538 -0.021837145 0.09389965 0.039987177 0.29694077 -0.013495135 -0.13418582 -0.03964008 0.030455323 -0.013561223 0.059173185 -0.0012991166 0.055190958 -0.035325292 0.35179153 0.1579841 -0.2729929 0.14263326 0.10223889 -0.2681564 -0.06478851 -0.09986384 0.2190915 -0.025624182 0.28399113 0.039622545 -0.06556688 0.051301714 0.041076086 0.071431786 0.01736701 0.13625266 0.07989312 0.15370424 -0.021042932 -0.08926208 -0.0043953564 0.18186697 0.14742279 0.2795886 0.12504272 0.01534534 -0.046448026 0.08144205 0.21881926 -0.16913426 0.08883559 0.08429427 0.22121276 0.120338015 0.29263204 -0.109510444 -0.17072386 -0.06429238 0.023177 -0.09228042 -0.045112915 0.09049119 0.21754211 0.033685543 0.004779268 0.13810465 -0.23497918 -0.0016571543 -0.28863788 0.018485915 -0.07918681 0.10324757 -0.08230235 0.01244177 0.37665784 -0.17576359 -0.118171416 0.037023544 0.0006730815 0.1252584 0.0688054 0.013121949 0.23893203 -0.10052746 -0.22449385 0.028301368 -0.028528912 -0.038390968 0.052230027 0.05569507 -0.030565621 0.050790552
31714 0.11907768 -0.15707894 -0.038710177 0.07887831 -0.07189894 0.102536 -0.16629927 0.16267383 -0.033348206 0.08071428 0.012144319 0.17548347 0.15005282 0.013049896 0.12625162 0.016673151 -0.20366529 -0.09074311 0.14669086 0.1494058 -0.014479864 0.09848954 0.101304516 -0.21437132 0.0032577575 -0.14025708 -0.32202598 0.09050195 0.098736204 -0.036942884 0.19650419 0.1381977 0.09250551 -0.08626051 -0.012350742 0.04936577 0.1388018 -0.1748693 0.37965444 0.18143794 0.124816865 -0.011343566 -0.012747958 -0.07713248 -0.20208901 0.08809281 -0.054415986 0.09119335 -0.014940649 0.09911273 0.110685125 0.12190846 0.17007144 0.1310496 0.035828467 0.07797069 0.011616099 0.0016403588 0.06806085 0.008597435 -0.014707867 -0.1550457 -0.026347438 -0.12902145 0.13223302 0.08092646 -0.008820015 0.050401222 0.0027022248 -0.10631188 0.006357926 0.034681097 -0.0071433666 0.11627283 -0.14487618 0.046292786 -0.09510949 0.08080047 0.0822375 0.11656143 0.07126125 -0.2022987 -0.026484143 0.033958353 0.054564245 0.13173962 0.062868305 -0.15527524 0.014211496 0.13758644 -0.14597264 0.12621835 0.06327565 -0.09560877 0.105010316 -0.068977304 -0.010817224 0.095634356 -0.08966892 0.019240282 0.065598726 -0.038883097 0.00585774 -0.04510636 -0.22186966 -0.038449287 -0.047635693 0.0143842595 -0.018243626 0.0737879 0.1594306 -0.056507785 -0.010046702 -0.07339563 -0.05452798 0.038147986 -0.008789891 -0.06595022 0.041987304 -0.0402309 -0.14017707 -0.05985539 -0.049455933 0.13079958 -0.06814139 -0.0716986 0.013096529 0.011853583
31123 0.20281947 -0.07987023 0.055598766 -0.015508171 0.036730044 0.13846272 -0.08652751 -0.051477388 -0.027225956 0.06258334 -0.04939743 -0.12704259 -0.13950604 0.042762145 0.12607709 -0.20819002 0.024023313 0.18495023 0.15863886 -0.058667168 -0.073570356 -0.16261418 -0.1308762 -0.047554586 0.16809495 -0.047124527 0.027891839 0.09608493 -0.032892294 0.015543895 0.11057138 0.1276839 0.079446584 -0.08904096 0.012461894 0.016975716 0.07218913 0.013312629 0.15841058 0.13008669 -0.0051457826 0.009757241 -0.01196299 0.0053152703 0.17662129 0.23275355 -0.24975236 -0.0012573273 -0.083270095 0.035104703 0.15388344 0.041715555 0.06647825 0.28450668 0.19299984 0.06309587 -0.023577735 -0.104561746 0.032119505 0.014071301 -0.13631698 -0.17190166 0.25519973 0.10144917 0.06713872 0.21084575 0.1467881 -0.053602364 0.0028012816 -0.38095358 0.03946521 -0.0056699556 -0.06678181 0.085379556 -0.06181801 -0.36605078 -0.10219072 0.24406284 -0.12257509 0.07212703 0.2346922 -0.005117614 -0.17341827 0.105851136 0.14900519 0.15953538 0.08592191 0.08323575 0.1016344 0.13852438 0.038343582 -0.075336054 -0.22697227 -0.23547882 0.10365252 -0.108822584 -0.05555555 0.3185627 -0.09120182 -0.06052317 -0.115207575 0.17309228 -0.08348029 0.15512888 0.056768607 -0.20586523 -0.11722189 -0.14121404 -0.02669208 0.0059348783 0.1362892 -0.060739487 0.28125602 -0.020023957 -0.026211929 -0.09674853 -0.017409887 -0.048656303 0.144994 0.034077775 0.10591534 -0.16225034 0.029265577 -0.13871132 -0.010217429 -0.05844785 -0.05569143 -0.17038311
30194 0.07410044 -0.25183678 0.122425996 0.11320434 0.06933329 -0.12473997 0.06375345 -0.06342043 -0.04373375 -0.01499782 0.07500618 0.097066045 -0.072073236 -0.106304005 0.24282359 0.042311538 -0.026801638 0.16190727 -0.06022386 0.24686798 0.0842584 -0.119433485 0.07932719 -0.047802694 -0.04983146 -0.06700261 -0.07357627 0.04401641 0.03918267 0.06623856 -0.026355868 0.009085633 0.07195755 -0.27535954 0.21101208 0.055042624 0.034063313 0.15424584 0.22399133 0.2045109 0.021308161 0.1547081 -0.2986803 0.005739503 -0.02004071 0.25456598 -0.0058287485 -0.0531301 -0.09715372 -0.102247685 0.020287985 0.13185304 0.13014005 -0.041061375 0.05148013 0.17548102 0.0035241384 -0.17276177 0.0072766813 0.102427505 -0.11147693 0.038448747 0.17332911 -0.10632728 0.13235417 -0.021606961 0.1266201 0.06495399 0.1172202 -0.10341083 0.0014441999 0.014300093 -0.05765792 -0.031961054 0.16133915 -0.12110201 -0.02288027 0.18909344 -0.047845192 0.07556028 -0.009973037 0.037646554 -0.012382845 -0.10869823 0.015370308 -0.06681652 0.03765573 0.15102258 -0.031032177 -0.022990605 0.06407974 -0.11372603 -0.050995573 -0.19851658 -0.024376608 -0.28145793 -0.17960107 -0.028235773 -0.10143707 0.040152706 0.07518342 -0.08511976 -0.13685285 -0.08356065 0.015599289 -0.042587925 -0.13965388 0.067134775 0.31076536 -0.008395199 0.09343522 -0.11724075 0.0644216 0.15630554 -0.2377787 0.0597092 0.03527137 -0.20042142 0.13558556 0.11596784 0.040213674 -0.12271578 -0.02841119 0.13463339 0.16144061 0.054911762 -0.04124566 0.16847794
30140 0.0069972333 -0.17130089 -0.047044 0.006781023 -0.044434465 0.032435577 0.0001348014 -0.02629008 -0.07811378 0.07396651 0.00883876 0.0822037 -0.068011366 0.08856455 0.03617583 0.022999035 -0.08064105 -0.073314175 -0.19921516 -0.013066307 0.13040529 0.24030414 -0.109760076 -0.16380537 -0.10799534 0.08445741 -0.106213644 0.053512532 0.11765875 0.096690096 0.0684396 0.1133783 0.1865449 0.010660497 0.009035632 -0.014653708 0.07533817 0.0017504256 0.09533982 0.14463332 0.029383758 0.18685544 -0.2176503 -0.15819217 0.090578735 0.038052928 -0.082585074 -0.022335323 -0.04236753 0.055129707 0.16161914 0.1279869 0.052201252 0.10194233 0.12328687 0.22711271 0.049031567 -0.08298713 0.050418805 -0.04000504 -0.13182755 -0.07346688 -0.028243594 0.013930273 0.079671234 -0.0029127747 0.017726924 -0.033486594 -0.005332838 -0.062359244 0.16442285 0.10818748 -0.19036241 0.1021362 0.28219065 -0.25201583 -0.0656806 0.04569196 -0.06404521 -0.039640266 0.05741911 -0.07334944 -0.082082875 0.030972134 0.0553619 0.27325216 0.19621778 0.0619184 0.11861463 -0.07673199 -0.09786426 0.03596518 -0.0029406282 -0.14715873 0.10397116 -0.12490258 0.10401728 -0.044371773 0.13327143 -0.0915533 -0.0277052 0.2244435 -0.09217513 0.15543664 0.008855835 -0.02102343 0.02848488 -0.09505382 0.00021470002 0.052367456 0.2954818 -0.12634361 0.13742118 0.2110917 -0.10453853 -0.15656795 -0.10897613 -0.13400334 0.24030486 -0.0058052572 -0.0034408253 -0.034674443 -0.14507256 0.24348678 -0.042145837 0.009479043 -0.088582695 -0.068435274
30980 0.027460182 -0.36438856 -0.078902744 0.053931773 0.04377732 0.1966168 -0.0769857 0.017793609 0.14357899 0.04136838 0.021641046 0.051498286 -0.011144779 -0.107149266 0.18278727 -0.076309584 0.0690369 0.07200729 0.11358826 -0.064116575 0.033822156 0.023699706 -0.0045156204 -0.16226377 0.08081869 -0.13279928 -0.2208166 -0.064325 0.09271913 0.20228514 0.09287321 0.10017791 0.019338865 0.0013055351 0.06414208 0.029637955 0.036104973 -0.06387556 0.23194408 -0.028339278 0.012368704 0.09328337 -0.07425896 0.08334939 0.010109401 0.22662754 -0.21648782 0.0026795347 0.060678232 0.03861654 0.032282382 0.09621766 0.066893265 0.07783804 0.100405164 0.09557548 -0.0033323094 0.12229393 -0.071945176 0.040791947 -0.13387501 -0.20752424 -0.13053107 -0.03541428 0.20146087 -0.058503434 0.013935575 0.08308438 -0.0073466096 0.06764204 0.05076045 -0.06110778 -0.028615227 0.15888315 -0.33155555 -0.0016394929 -0.0879425 0.22735243 -0.04917129 0.15647556 0.08183919 0.18117681 0.0013915002 0.07216439 0.075236745 -0.16923547 0.00033004768 -0.10480489 0.25882876 0.09578887 0.03243569 -0.03243383 -0.10353087 -0.10130365 0.17503268 -0.33067992 0.04621744 0.18732047 0.02650198 0.13587803 0.086060114 0.13685061 -0.2344955 0.09542861 0.008893027 -0.077625014 0.14632845 -0.13009576 0.03728463 0.16043872 0.22468708 -0.20331371 -0.02958427 -0.09616045 -0.003871086 -0.07926879 -0.071918 -0.1171017 0.15262006 -0.09335263 -0.07706539 -0.09840351 0.009577973 0.23771636 0.05002631 -0.040395964 0.07717054 -0.045142084
30928 0.062071156 -0.21314707 -0.25484654 -0.12175376 0.31442866 0.2534541 -0.02228993 -0.14880605 -0.063744694 -0.12871689 -0.03917211 -0.03225871 -0.11178311 0.014951363 0.20711371 0.10569385 -0.06637664 0.007865698 0.04567336 0.050190765 0.0570495 -0.21335647 -0.11226526 0.11474216 0.15428331 0.06251376 -0.055500787 -0.1122532 -0.15441155 -0.021346418 0.084136374 0.18174362 0.14308271 -0.1770556 0.011002048 0.12555324 0.19121008 -0.12851694 0.24343652 0.19003871 -0.068041675 0.122193046 -0.05274224 0.16974992 0.12833498 0.067102104 -0.28792703 0.15530622 -0.16779308 0.026257802 -0.024125634 -0.035648797 0.33140537 0.20200361 -0.13989298 0.12782718 -0.026990268 0.060070865 0.030735053 -0.013834908 -0.07107758 0.028335549 0.049683772 -0.05444079 0.15458547 0.00091034966 0.14749838 0.08933421 0.015976273 -0.14286734 0.10822774 -0.044911314 -0.22090508 -0.036745764 0.07245001 -0.14807 -0.15510528 0.16810064 0.040996253 0.0068232804 0.15881243 -0.02653808 0.05916644 0.035245754 0.17368515 -0.07634409 0.26152673 0.09696157 -0.006507462 0.102639206 -0.0121588055 0.00032302574 -0.0030285218 -0.13929082 -0.08943468 0.052470464 -0.012253301 -0.027961731 -0.028763294 0.09150359 -0.10263942 0.23569387 -0.0863548 0.18038082 -0.0955837 0.052632116 -0.044134382 0.070949875 0.030820083 0.013517336 0.082982674 0.01756162 -0.06281476 -0.08562862 -0.023664558 -0.15657566 0.051129244 -0.0026254666 0.03221297 -0.11891952 -0.116187416 -0.24522136 0.020319875 0.17351528 0.09019519 0.047365915 0.10485569 0.036268584
33360 0.16796522 -0.35542074 -0.026517065 0.100707024 -0.103296414 0.20261565 0.107950084 0.2369813 -0.22901529 -0.057789654 -0.08990345 -0.0005024771 0.06098851 -0.20656319 0.0128846085 0.18974777 -0.053283583 -0.020229649 0.13032877 0.09688532 0.09042622 0.13522086 -0.062826484 -0.3344797 -0.013836062 -0.22294919 -0.013162965 0.40706468 -0.09428955 0.12900431 0.012824071 0.07252476 0.14592826 0.017292565 0.25103864 -0.001358953 -0.013335521 -0.027556429 0.32231843 0.058230195 0.17747456 -0.08276056 -0.0930568 0.06311335 0.03584912 0.081301495 -0.07888069 -0.028491165 0.14096163 0.12834977 0.20006444 0.27642223 -0.029388947 -0.07852671 0.011111992 0.19555391 -0.3801333 -0.06631621 -0.03905514 0.081559874 0.079262204 -0.32550412 0.08288408 -0.08299048 0.07603711 0.012316005 -0.13457848 -0.0724471 0.033150513 0.08356574 -0.032759078 0.044651456 0.27930567 0.01664854 -0.18668178 -0.06630988 -0.25825712 0.06461162 0.25440243 0.08431888 0.11420616 0.0733481 0.156491 0.007689315 0.299045 -0.0268514 -0.29529026 -0.06979519 0.025091609 0.24231945 -0.09950382 0.019421775 0.23153487 -0.24249811 0.011520334 -0.13634914 -0.03426885 -0.03095306 0.07637438 -0.023055786 -0.10064486 -0.055185016 -0.18864612 -0.13452603 -0.089732 -0.070392884 -0.12605697 -0.14813152 -0.03382626 0.18073869 0.33376673 -0.1974353 0.062898666 0.097507134 -0.12938593 -0.28180707 -0.10079401 0.041667897 0.18532105 -0.009507606 -0.29948208 -0.23030402 -0.10950098 0.07196749 0.08581269 0.2755628 -0.050387364 0.1283473
34783 0.1013773 -0.250608 -0.02611635 0.09892067 0.28553 0.041181352 0.090703905 -0.10359781 0.0034766458 -0.0075195376 -0.12730426 0.12119594 -0.14981295 -0.13651142 0.14862396 0.14037104 -0.13796929 0.02305435 0.21160835 -0.051165517 -0.079357445 0.058327574 0.079121456 0.2499841 0.08737173 -0.0804769 -0.09210047 -0.25243008 0.09417387 0.037437536 0.11549142 0.050107647 -0.08605752 0.024810499 -0.11811719 0.06339314 0.032353435 -0.20439444 0.07736201 0.16475691 0.18869978 0.002992272 -0.19973195 -0.08462663 0.10706006 0.12569769 -0.08033681 -0.049063765 -0.31401995 0.1992792 0.006871767 0.11898706 0.13291854 0.25658223 -0.025201792 0.21705247 -0.03665278 0.1066746 -0.08945625 0.08875612 0.019065559 -0.15615004 0.09600376 0.15090603 0.18821329 0.020029968 0.26519084 0.19882092 0.14376037 -0.09117481 0.02024974 0.16069418 -0.11759229 0.03081187 -0.1443648 -0.16315278 0.08325701 0.08181229 -0.03167866 -0.008830187 0.35384333 0.017240183 0.16486101 0.033428967 0.14109531 -0.07811394 0.21437813 0.08874302 0.103947304 -0.10447826 0.024157535 0.02628413 0.031463962 -0.079102576 0.14134505 -0.011161331 0.058262117 0.15238215 -0.026016606 0.12307426 -0.0093303155 -0.14381444 -0.11266421 0.1956665 0.03574083 -0.2727765 -0.037288465 -0.105728745 -0.09332388 -0.014129865 0.026645508 -0.07356746 -0.014999252 0.005140509 -0.15321684 -0.15886039 -0.071228564 -0.09334002 -0.025513278 -0.09226671 -0.016480675 -0.1926439 -0.11497187 -0.030375397 0.09966091 -0.05750199 -0.19773813 -0.06508208
30466 0.24543992 -0.08016079 0.0118131535 0.047188725 0.07215796 0.07795814 0.042672344 0.0072956355 -0.010083917 0.108531505 0.010434165 -0.12146557 -0.14190981 -0.018311325 0.19517477 0.046603628 0.13880607 0.018318217 -0.101744175 -0.023146834 0.1797593 -0.012909579 -0.025979903 -0.13045883 -0.0073595606 0.07308331 -0.18209304 0.051863547 -0.11838261 0.120571464 0.08217905 0.057753183 0.10479063 -0.28205645 -0.09838359 0.12447744 0.18971449 -0.021880237 -0.007988316 0.04393803 -0.2258184 0.21046823 0.019146962 0.009880024 0.0019295778 0.013222211 -0.15934865 -0.005996226 -0.11827716 -0.0040664957 0.16911073 0.0473631 0.20245689 0.06256452 0.01672719 0.12265057 0.08514102 -0.11966473 -0.03402624 -0.0029914898 -0.07901516 -0.19609523 0.017459353 0.23406267 0.024145886 0.103778675 0.13262622 -0.20407254 -0.2088854 -0.09746413 0.08056026 0.04421642 -0.13704754 0.031294655 0.069364 -0.086344905 -0.08920753 -0.13709386 -0.059211224 0.10852065 0.14867738 -0.12924626 0.06010178 0.14044133 0.027078066 -0.04076731 -0.12591122 -0.024718627 -0.0992503 0.18898204 -0.10400904 0.008370813 0.06736247 -0.12559551 0.15834862 -0.14237094 -0.09306326 -0.2746393 -0.034774225 0.031349994 0.002403219 -0.020496858 -0.011050799 0.018218515 -0.03724993 -0.037214026 -0.09481281 0.18092397 0.069489226 -0.08139214 0.18907528 -0.098231785 0.067325614 -0.0005990425 0.04286613 0.18095961 -0.05973996 0.04985393 0.25825197 -0.13528787 -0.20267977 0.009909528 -0.26697508 -0.045504898 0.04339309 -0.121931374 -0.24042685 0.18225905
30994 0.14761731 -0.36570656 -0.17675969 0.14909554 0.026830764 0.010146638 0.10652976 0.14357431 -0.0070368852 -0.017008234 0.08583639 0.1980106 0.0449283 0.16580074 0.10631886 -0.15893385 -0.00046008144 -0.0029091965 0.034269787 0.19180755 0.08529922 0.05809922 0.1788415 -0.066723354 -0.02706531 -0.19476281 -0.13230795 0.014056247 -0.02103335 0.060309574 0.025731003 0.1650893 0.13317357 -0.15785043 -0.104655795 0.11070702 0.20959473 -0.058595467 0.16096103 0.10940623 0.18733642 0.055328827 -0.117321 -0.003579742 0.13522461 0.06822074 -0.06697547 -0.013813204 -0.052079067 0.07751975 0.022282073 0.12193904 0.16192599 0.11976137 -0.07864969 0.2039416 -0.0992832 0.035626054 0.09107571 -0.009449844 -0.15125021 -0.057520907 0.07926291 -0.025981102 0.18772675 0.04969996 -0.07917042 0.0062390356 -0.108763956 -0.023670502 -0.054259397 0.043801993 0.17418464 0.18473114 -0.029174075 -0.16112053 -0.005021131 0.25819468 0.061568547 0.08924812 0.22089976 -0.019697322 0.07481939 0.14032197 0.15365756 0.035714813 -0.15724966 -0.099631004 0.24847674 0.03688984 -0.06277488 0.19455968 -0.10312015 -0.066489264 0.08578098 -0.065040074 0.051500265 0.050124552 -0.049723882 0.04603155 -0.0649101 0.1013552 -0.112259425 -0.079849124 -0.1393338 0.0069496334 -0.17635623 -0.006310769 -0.028712729 -0.040876698 0.21730301 -0.016438995 -0.014394688 -0.106644556 -0.030881248 -0.057702016 0.0066643297 0.015903322 0.0075968597 0.14253207 -0.10586274 0.018657085 0.025788855 0.13132499 -0.102393694 -0.10985441 -0.033636816 0.15758054
32575 0.055145185 -0.15153298 -0.08626434 -0.017327504 0.18044147 -0.06705679 -0.11906029 0.11967456 -0.16742048 -0.16440293 0.05774232 -0.00042380995 -0.076775506 0.068229005 0.12870704 0.042065144 -0.058285885 0.12431783 0.02998745 -0.019502196 0.25677252 0.19365518 0.15410493 0.0018466492 0.0008137967 -0.071971424 -0.29765442 -0.15053573 0.036905322 0.0909367 0.045763053 0.08072346 0.1769823 -0.15411997 0.09909392 0.15094112 0.14528468 0.16198467 0.13521002 0.106777884 0.16286072 -0.009187546 -0.02210515 -0.08627238 -0.050887015 0.10697541 -0.12326073 0.03680269 0.0410987 -0.08456121 0.20523246 0.22612436 0.23016764 0.009899286 -0.061753325 -0.008726212 0.2224544 0.0116273975 0.24518172 -0.011086812 -0.10264989 -0.057438824 0.09930042 0.09412077 0.034025244 -0.1325263 0.20625564 -0.08532037 -0.043857828 -0.048694972 0.1701866 0.20468003 -0.22311373 -0.087060526 -0.014457085 0.021620525 -0.24134448 -0.11813004 -0.017501868 0.05386295 0.07657941 0.028988976 0.11606807 0.12064619 0.07186773 0.029136408 -0.10625275 -0.0017093788 0.09466259 0.1759393 -0.0039317044 -0.035788056 0.03222705 -0.24790524 0.05708431 -0.05902926 -0.07275586 -0.035755064 -0.011246718 -0.05003248 0.13143852 0.1689622 -0.051351678 0.13656634 0.011502135 0.05723043 0.04917723 0.12736064 -0.087546505 0.08218144 -0.012281093 -0.12009531 0.11845553 -0.07877408 -0.03850351 0.109899655 0.09919443 0.072000556 0.17865548 0.049338732 -0.12902477 0.14459234 -0.08773531 -0.13621041 0.13143113 -0.062588215 -0.062023755 0.22130077
31150 0.32453138 -0.41376916 0.04746161 0.05808205 0.055484388 0.11235974 -0.12012157 0.049843762 -0.023859132 0.016787557 0.10008861 -0.12861627 0.08904567 0.097832136 -0.067965366 -0.21751666 0.32760036 0.03180693 -0.07122639 0.123104215 -0.067127496 -0.22890384 0.17816038 -0.34971106 -0.088858046 0.25127345 -0.21013694 0.16881584 -0.061200034 0.18348512 -0.043240577 0.08916657 0.09097814 0.28703776 0.30610391 -0.14682357 0.18534309 -0.19983627 -0.007968101 0.23869595 0.20338382 0.0960135 -0.23270214 -0.13143142 -0.051830206 -0.17913118 -0.076052524 -0.06856579 0.08159367 -0.16339603 -0.19620337 0.3819633 0.31371668 0.11237637 0.1813261 0.3488388 -0.13576585 0.08960582 0.16719523 -0.11201839 -0.07550897 -0.42603728 0.09705805 -0.16055748 0.040140603 -0.22440146 0.15677784 0.24255517 0.02048977 0.1089429 0.14404237 0.16269474 0.19126035 0.062247884 -0.43835732 -0.06515176 -0.15124708 0.14883329 0.08579241 0.25442663 0.17015061 0.111422844 0.12714183 0.015117037 0.26237324 -0.112102345 0.23066035 0.2700148 0.26826504 0.18697603 0.010024252 0.3742657 0.10140524 -0.10852692 0.03686882 -0.05584629 -0.07697179 0.01635528 -0.10426791 -0.012146049 0.09954161 0.07692986 -0.15016305 -0.26232123 -0.12336422 -0.021009576 0.037484407 -0.047346845 -0.015407698 -0.038225476 0.04603658 -0.1735639 -0.18156314 -0.20371188 -0.039438214 0.09759142 -0.034092966 -0.24676143 0.21783946 0.03184255 -0.17753515 -0.10040594 -0.29041508 0.3189374 -0.15253627 0.12280267 -0.2699748 0.13745636
30476 0.04015181 -0.2357104 -0.24406332 0.10283043 0.114342734 0.06642624 -0.08365874 -0.023879282 0.06748591 0.043847922 -0.04181595 0.13944541 -0.05077037 -0.1346726 0.19903274 0.06913126 -0.31362274 0.31198162 0.1494985 -0.030932471 0.041826922 0.029132554 -0.12383402 -0.03333193 0.03789275 -0.01885342 -0.28491268 -0.11808217 -0.06352161 -0.08338648 0.19981453 0.16175866 0.09568111 -0.20471655 -0.12121813 -0.13001801 0.0061561763 -0.23043844 0.22755843 0.17021205 0.14275867 0.16385551 -0.1813483 -0.049703117 0.12905496 0.05718 -0.06300461 0.010943114 -0.1588795 -0.24850005 -0.0299115 0.13529451 -0.24091189 -0.2158109 0.09523428 0.3894492 0.121118195 0.06563231 0.029034823 0.020731334 -0.11079865 -0.06321507 0.046924774 -0.014502358 0.14053358 -0.21172945 0.0020693368 0.10883434 -0.11695306 -0.042341333 -0.18629993 -0.08295376 -0.3451471 -0.09069078 0.05735024 -0.23867899 -0.022029955 0.086410806 0.05910093 0.16777475 0.11262653 -0.05245701 0.029012809 0.05725741 0.14254849 0.013790811 0.07057847 0.10379976 -0.06346524 -0.04795767 -0.012975197 0.18302524 0.08163793 0.021588208 -0.06364034 -0.38518387 0.26362494 -0.11233421 0.0036099472 0.08719006 0.14877364 0.08000295 -0.15792914 -0.28136617 0.076689705 -0.059241258 0.009490516 0.08498069 0.19118008 0.0126135405 -0.1309202 -0.10149777 0.16132392 -0.08548161 -0.16189994 -0.15649487 -0.1094893 -0.029577902 0.18009 0.16778862 -0.037354123 -0.2088503 -0.053554166 0.1079311 0.057991702 0.17153211 -0.13991965 0.058173377
34653 0.08044198 -0.23669085 -0.052282296 0.110955276 0.22083053 -0.11470225 -0.13792078 -0.03724937 0.021793203 0.07419826 -0.10763058 0.12988459 -0.013098924 -0.05788622 0.11830857 0.08606646 -0.19003323 0.11202002 0.055745058 0.126538 0.14844923 -0.03281526 -0.04791866 0.015648125 -0.055506863 -0.08162259 -0.1153433 -0.034116413 0.08087058 -0.06309865 0.17657463 0.13385084 0.06901769 -0.015095721 -0.08705067 0.03807558 0.1057021 0.085238606 0.060231227 0.18536712 -0.07569102 0.07288787 -0.14494303 0.002395112 0.119153455 0.066417955 0.011823495 0.16021395 -0.06047452 0.045702957 0.081020065 0.20734774 0.16434532 0.004077724 0.11796102 0.037390523 -0.16872722 0.0061580515 0.034958553 -0.010166338 -0.02829693 -0.122573726 0.020861581 0.051598337 0.07781474 0.054302797 0.21850316 0.016327636 -0.006674479 -0.057796706 -0.0076998593 0.16673923 0.07365755 0.05626016 -0.11587737 -0.27208176 -0.21809241 0.123609796 0.071166135 -0.05778721 0.13511838 -0.01856657 -0.04110419 0.043456823 0.07266478 0.051518295 0.03338542 0.026614066 0.03910459 -0.0031794612 0.005491307 -0.0044988715 0.002204356 -0.069280565 0.12778015 -0.18023792 0.051842213 -0.113547504 -0.14587826 0.05304341 -0.050341114 0.037865963 -0.18058072 -0.007615045 0.070134334 -0.1065872 0.08584176 -0.047914807 0.026101131 0.11499872 0.13677911 -0.10391954 0.13583453 -0.03155268 -0.009035332 0.0057661287 0.093228504 -0.06498951 0.17559825 0.07893665 -0.092273 -0.16761167 -0.11073884 0.030845305 0.020533811 -0.08256138 -0.02145296 -0.050007544
30436 0.21333069 0.05924897 -0.1388376 -0.044301473 0.049949568 0.17530334 0.03540431 -0.09282179 -0.17956845 0.04016772 0.036710795 -0.042876646 -0.020627217 -0.072434664 0.124163345 -0.121550456 -0.11927683 0.01569525 -0.020900236 0.06643073 0.11329434 0.2503326 0.18573117 -0.14799857 0.04559712 0.109661214 -0.13316932 0.069060355 0.0933265 -0.02039721 0.06166709 0.22332385 0.10453996 -0.37523133 0.03714561 0.006437914 0.30244443 -0.12086235 0.25584593 0.13132115 -0.03499467 0.124012776 0.05981379 -0.046331484 0.08064214 0.1317486 -0.1087573 -0.19824438 -0.03191512 -0.059410047 0.13771632 0.08500971 0.12891005 0.060179595 -0.00518005 0.106378295 0.14371492 -0.06761884 0.13944703 -0.0842343 -0.06725381 -0.13159256 0.060817227 0.011675759 0.2947592 -0.1369133 0.025777176 0.05566707 -0.0037099659 -0.06863967 0.13084011 0.032822285 -0.10319474 0.004535821 -0.11372008 -0.034799088 -0.08854116 0.015287999 0.061177984 -0.030823799 0.1970982 0.0027770854 0.007734577 -0.007450023 0.24038969 -0.05195192 -0.22168243 -0.10532104 -0.03445255 0.13852462 0.019635493 -0.15448223 -0.045380842 -0.0342376 0.066489495 0.06537101 -0.100009255 -0.16125485 -0.04332676 -0.06874378 -0.059562538 0.12225138 0.06701048 0.09495108 -0.01731863 -0.08789383 -0.114593886 -0.11791669 -0.003477721 -0.041458406 0.25228715 -0.02800642 0.1055052 -0.05423252 -0.08276606 -0.006600466 -0.07304801 -0.04432557 0.03692256 -0.00452497 -0.2476627 -0.012316354 -0.2508698 -0.012037994 0.0996956 -0.030893378 -0.035382252 0.12092849
30599 0.19945988 -0.36148974 0.112611905 0.055562288 0.12441083 0.1311847 -0.033511437 0.14074367 0.07456578 -0.052054785 0.20504953 0.13732496 -0.023296135 -0.034168243 0.07243735 -0.08358034 -0.20183758 0.2675858 0.1198637 0.062965594 0.0491747 0.046669915 -0.017666906 -0.2404636 0.024194997 0.014100661 -0.19637997 0.1988723 0.06916635 0.11085683 0.06440716 0.098975725 0.0756686 -0.03931208 0.06480787 -0.031197209 0.035618324 -0.07832983 0.14151287 0.13890845 0.0037594596 0.082908146 -0.08457852 0.0750269 0.07535243 0.07153074 -0.1298933 0.10783784 -0.08253538 -0.01356929 0.19541837 0.068705864 0.17868742 0.00985377 0.08225317 0.32517895 -0.021198982 -0.03438174 0.09114182 -0.0018305506 0.06111167 -0.17109834 -0.07697824 -0.055187814 -0.021659592 -0.022333309 0.04194251 0.03681571 -0.054139495 0.07665785 -0.029901426 0.09722711 -0.12744105 0.016072748 -0.09713594 -0.048561968 -0.06938017 0.12640302 0.020563819 0.117317796 0.0706192 0.098937936 -0.06354048 0.14871731 -0.042205878 -0.045542218 0.14087926 0.07908635 0.063244775 -0.01188881 -0.06492877 0.004967941 0.01873281 -0.1473343 0.037342474 -0.24337158 0.0343888 0.09658259 0.050697494 -0.053037047 -0.042377856 0.15658982 -0.12570727 -0.1087762 -0.08833937 -0.14890707 0.020842839 -0.01940959 -0.10883786 -0.011971953 0.13022794 -0.007965292 0.0857802 0.017834159 -0.05538478 -0.0927141 -0.109398164 -0.090754576 0.18690085 0.12772223 0.033445112 -0.015618714 -0.09008355 0.118890874 -0.00029136828 0.11159931 0.022245424 0.21263847
32448 0.3220638 -0.43220624 -0.047063988 0.15797862 0.07820065 -0.013344449 0.14784099 0.10485767 0.044082347 -0.056418337 -0.05873432 0.10232269 -0.090524 -0.009168243 0.11290908 -0.32058975 -0.18218519 0.18305095 0.17420195 0.052579187 0.033829752 -0.088149846 0.06134253 0.07946077 -0.084879816 0.025678065 -0.12465116 -0.1171897 0.0022619448 0.11310897 0.11065305 0.06967199 -0.060169555 -0.0830719 -0.021516748 0.027554445 0.17868462 -0.14982998 0.11497288 0.14868364 0.1830423 0.09327399 -0.15292528 0.034017067 0.10563616 0.17625876 -0.20422813 -0.108464964 -0.13589238 -0.1367344 0.07244697 0.1586254 0.38659984 -0.1026998 0.17758664 0.15086551 0.109335735 0.17407675 0.022826295 0.035356227 0.2645547 -0.0329422 -0.0123384185 -0.051720515 0.10017868 -0.12322801 -0.036338486 -0.087175176 -0.092317425 -0.016948214 0.041356113 0.16596696 -0.061716296 0.081764296 -0.10630979 -0.036023855 -0.18848218 0.08143237 -0.07113105 -0.07860672 0.049292725 -0.07042262 0.14538446 0.2341084 0.04688028 0.011692605 -0.061836112 0.08519205 -0.014675744 0.06257144 -0.023675665 0.121491164 -0.076240726 -0.11742159 0.025365766 -0.27886966 -0.024906233 -0.029912733 0.033440556 0.10422252 0.10506006 0.06632929 -0.22956786 0.08361683 -0.096581824 0.07817496 0.22612096 0.08268041 0.0831325 -0.12464015 -0.14054719 -0.30559236 0.15148266 -0.37316513 -0.10881784 -0.12768196 -0.09729624 -0.0472281 0.26858974 -0.0046354984 0.18566895 -0.20052245 -0.22535147 0.11304128 -0.042298663 0.12999593 -0.12764765 -0.015226606
33367 0.2575099 -0.15810315 -0.043758675 0.013746337 0.3106871 -0.037005402 -0.013448933 -0.08777997 0.14606024 0.29726472 0.034267977 0.033755142 0.13056928 -0.28425673 0.06815104 0.18728414 -0.052046575 0.20796816 0.02220674 0.20882767 -0.28792354 0.10123256 -0.033478312 0.043086745 -0.086539 -0.1814635 -0.040980637 0.07267785 -0.000979657 -0.01137925 0.05965045 0.1282984 -0.122086816 -0.12314875 -0.04223364 -0.04263524 -0.02618245 0.0022361593 0.15480396 0.19228625 0.042896748 0.20421204 -0.041564282 -0.1570568 0.051565908 0.043100603 -0.23044962 -0.13212226 -0.04648966 0.25984004 0.101343006 0.08590168 -0.022569928 0.10882799 0.07731896 0.26271978 0.15643927 -0.27566752 0.11251529 0.15177104 -0.015518603 -0.1963092 0.2546556 0.043080907 0.12752248 -0.06821429 0.11855645 0.17524168 -0.07099256 -0.20472977 -0.047610514 0.2054154 0.09465149 0.08183989 -0.07668375 -0.17436716 -0.008510719 0.19542712 -0.13161428 -0.028674362 0.1102393 -0.19836299 0.1187255 0.24923809 -0.041788295 0.0045797457 -0.047772042 0.09041764 -0.051869508 0.13770504 0.14882162 -0.052150946 -0.10691286 -0.20658979 -0.13214196 0.0048731836 -0.02954864 0.25279945 -0.20340407 0.17213237 0.2836816 -0.006585893 0.049862523 0.15406306 0.006272697 0.075302675 0.1410565 -0.02906343 0.0172302 -0.14273886 0.08547241 -0.051433764 0.15549296 0.11489136 0.17134735 -0.048631348 -0.13657638 -0.06858689 0.089202814 0.046274778 0.022983808 -0.09827296 -0.19389924 -0.04396202 0.06634147 -0.10580625 0.01209264 -0.1695705
33277 -0.018639024 -0.47273538 -0.084323935 -0.102857426 0.0051755183 0.02275971 -0.03462815 0.09901406 -0.12292407 -0.1982149 0.11443418 0.14840363 0.0047671436 0.16129194 0.045975465 -0.16898689 0.062202863 0.13236725 0.20780529 0.1349128 0.11227002 0.14196631 0.12760498 -0.22472659 0.19176437 -0.07526258 -0.053892296 0.01843736 -0.013458688 0.077099726 -0.0032870674 -0.025639907 0.028058456 -0.031977203 0.08253036 -0.21488483 0.064728394 -0.14608006 0.011084475 0.07776568 -0.072742924 0.14532018 -0.019953653 -0.012415313 0.047580115 -0.04206221 -0.1082602 0.035699025 -0.08874219 -0.09478547 -0.017395874 0.36854383 0.250424 0.16451804 0.07663883 0.23049308 0.103684336 0.08601566 -0.072616 -0.07769548 0.061418477 -0.35905316 -0.110663526 0.14657351 0.03749233 0.045071047 -0.070988074 0.1332307 0.120154135 -0.02705912 -0.096487574 0.0421051 0.17773764 0.29476127 -0.28554773 -0.024584284 -0.16759439 0.1120295 -0.09895518 0.33569404 -0.016336732 -0.15477769 0.26466924 0.021202384 0.24446727 -0.0631965 0.0028859733 -0.06644378 0.022151234 0.1415333 -0.033143323 0.12075083 0.0964632 0.15647519 0.021817882 -0.22473611 0.019753702 0.084800676 -0.097360104 0.012717116 -0.019482216 0.007845035 -0.3836084 -0.03952871 -0.11384245 -0.022065133 0.12905392 -0.065500304 -0.17896582 -0.19987062 0.09336031 -0.08318467 -0.07585406 -0.21165636 -0.09685439 -0.0049540643 -0.069940805 -0.15770544 0.21100332 0.097771406 -0.043631945 -0.30969426 -0.25809819 0.035130493 -0.13865623 0.1086934 -0.06909709 0.002270822
35249 0.13270926 -0.39060163 0.0744577 0.034121078 -0.163524 0.093128614 -0.16448365 0.069192484 -0.14447993 -0.048810672 0.13441691 0.073691085 0.054752942 0.12511942 -0.05192636 -0.06003639 0.14738837 0.16226555 -0.05203993 0.089317925 0.12768243 -0.0011780437 0.015680462 -0.21747036 0.02468827 -0.010493825 -0.39869422 0.20057075 -0.007976109 0.25556338 0.19400966 0.020924484 0.19407731 -0.046497613 -0.029682597 0.011366242 0.13136743 -0.011025043 0.32563993 0.059186276 0.11703998 0.0070303846 -0.14753585 0.013521462 0.016169459 -0.01717745 -0.23692219 -0.013668904 -0.018108223 0.01974593 0.096956134 0.15646133 0.02593933 0.08966917 0.092248835 0.36041436 -0.13347773 0.031631216 0.07631691 0.041979246 0.046140425 -0.29565823 0.070716135 -0.057363093 0.08203185 -0.14907141 0.112547375 0.14522783 0.031652343 -0.21276613 -0.09224381 -0.055197626 0.15747856 0.2251829 -0.071573175 0.071268946 0.05606961 0.19895555 0.04985164 0.12906516 0.14190643 0.017049858 -0.007604404 0.13861819 0.26931232 -0.016894905 -0.11979627 0.10304049 0.22515525 0.08989758 -0.12233352 -0.03334043 0.21550937 -0.11804537 -0.012360815 -0.06940877 -0.043251425 0.15423436 0.00400117 -0.06675454 0.08864445 -0.1369464 -0.14928487 -0.20774913 -0.07848754 -0.0931652 -0.008235225 -0.104894206 0.0071852393 0.17898068 0.020565016 -0.14947076 -0.09306051 0.011845211 -0.0049307887 0.096963026 0.16256759 -0.1223098 0.2676709 0.017520487 -0.16048352 -0.058464766 -0.15779959 0.26457828 -0.0808757 0.20515159 0.011541606 0.18723524
30431 0.11992241 -0.24573189 -0.09021243 0.056262046 0.114676684 -0.044948786 0.014874862 0.20632777 -0.08187875 0.1029308 0.059650995 0.12686352 0.018135613 0.03262805 0.033598106 -0.13472652 0.0069783707 0.09674386 0.03835277 0.14251637 0.1198085 0.016668981 0.09096849 -0.40895402 0.09856788 -0.08723811 -0.18979473 -0.1383996 -0.07359614 0.006342276 -0.04473315 -0.04883554 0.2131948 -0.081217356 -0.0138127 -0.06187949 0.09982551 -0.25690007 0.24870901 -0.049844407 -0.15484111 0.07736204 -0.082516216 -0.007683783 0.059397172 -0.06207244 0.0044741207 0.11297293 0.027709106 0.0552361 0.0066125193 0.24902697 0.27599895 0.112683475 0.06857363 0.16097528 0.0013791716 0.13108347 -0.032917447 -0.029596377 0.06647624 -0.2771251 -0.118456714 -0.0361882 0.1368388 -0.0629832 0.0071130623 0.20525381 -0.014990053 -0.06197478 -0.050443977 0.13938814 0.27543345 0.10536065 -0.12154498 0.06366481 -0.19462802 0.41319034 -0.054006908 0.046009105 0.035898235 0.16233128 0.0416012 0.26241758 0.009281115 -0.04351925 -0.012177611 -0.118352264 0.24023214 0.21283297 0.09183519 -0.02488631 -0.066437006 -0.15228145 -0.015273698 -0.22087993 -0.052696716 0.1869443 0.14536342 0.079642914 0.004164783 -0.0153513 -0.11162026 0.069022655 -0.04162077 -0.00946304 0.09541153 -0.074928194 0.13625893 -0.044313785 0.13986231 -0.15369056 -0.082472414 0.088520825 -0.009152603 -0.0546058 0.14172179 -0.061365195 0.23235455 -0.03219548 -0.25701264 0.038253333 -0.124157235 -0.00553334 -0.18228728 -0.059782706 0.02958212 -0.03330137
