416 128
30397 -0.06216362175674561 0.1235207752135068 -0.14018387292480838 0.19554074359504625 0.18396114731484658 -0.3584264454097976 0.14522660134750254 0.015552968407249068 0.08373900903650622 -0.19979694662054293 0.027556917931718772 0.05364470468105509 -0.07521112844742106 0.24647254823746323 -0.040589240405310534 0.05366477596618591 -0.1187847333423786 -0.010011851800889815 0.2077021439286284 0.011082091020838902 0.18220518195240487 0.05871674854307685 0.20372315317178646 -0.23099114443505187 0.0617085212275974 0.09920145439793515 0.19433692111468304 0.13285308503684234 -0.054577916632467804 -0.12182820155588203 0.002460535026330035 -0.008774454696578005 0.049539886362993 0.08147657236276729 0.0064352644318432795 -0.2046485917510097 0.25416921912460566 0.2523434748432649 -0.18082716700388346 -0.08982935530504221 -0.0601522886429251 -0.1678066083173917 0.03407644028422396 -0.0965350723859224 0.01619387297758834 -0.0669603644290504 -0.15071466028290104 0.13378664238912918 -0.008671044846622067 -0.10569411393750272 -0.2814580697461224 0.0663604736226091 -0.046055578735405334 0.07337817489784015 -0.032098305525725124 -0.027196027911003284 -0.22395364281108243 -0.14473635850972677 0.1365684093741777 -0.06145965977538026 -0.03561455011838177 -0.06483142484255922 -0.14231304764149932 0.0809889479465511 -0.11356853951375001 0.000820410366728197 0.3364083474809547 0.00685671330430182 0.08719008793368843 0.030229913219883997 0.2436445250689303 0.022339574781018 -0.2037040662426559 0.16692768832931648 -0.0187301020060886 -0.05425130307534687 -0.1540990483802318 -0.28553716841532406 -0.0128863000610977 0.14180688980912493 -0.06251731349009049 -0.31760202103028945 -0.06934611504033139 0.056680391845453926 -0.1990777247977178 0.05660679299091953 0.06535514894733296 -0.046681666610425054 0.17267805417992577 0.09580156115605121 0.25631372751991677 -0.06696523799422494 0.03323539380312468 -0.2363623682671765 0.13757366141967298 0.154512302529632 -0.01020420299620639 -0.19191330259072714 0.05653751465598589 0.07209423702150985 -0.15158884039104237 0.11896389194077983 -0.10571565865359389 -0.038745609666776204 0.06009353685374208 -0.14305191253643557 -0.20600437187692933 0.1556610332733328 -0.10118223724073516 0.07728781478968472 -0.20482990086499164 0.16896569853022214 0.08755987933440679 -0.15160699123215693 -0.275464518667647 -0.057504297132055626 -0.004475022653112504 -0.018348332107521514 -0.04935273278601926 0.06477603947342914 0.05012786784111256 -0.13584633282837189 -0.03661858392331219 0.23064538869849116 -0.161587777547183 -0.07205817433316497 0.04050509493340115 0.16299288162729297
30423 -0.03181762920797837 -0.4061927676848427 -0.25582169829681334 -0.22049964145213607 0.3279980673969476 -0.20800700658315918 0.005270698317872302 -0.21048792973692798 0.112684331073865 -0.019929635295000026 -0.2732866388889761 0.22349340825473973 -0.14797711097844513 0.2031507011739393 0.029122597916966697 0.23412122603690477 0.21649436497068564 0.20035309562825887 0.1563462388694461 -0.09336804319059411 0.01048485282456113 -0.061190747094769904 0.19305399487120667 -0.10202798207954 -0.11297581694361725 0.12698711516127048 -0.03720978556219734 0.21739268478495433 0.01455048929210534 0.09570970311526139 -0.22067369533897363 -0.19058839690228524 -0.09545115808785454 0.14120078088717491 -0.2427233268309692 -0.02215084860404204 -0.025877887727347115 -0.18803919078766285 0.09991277613175953 -0.05613198486662441 0.1377415146656631 -0.16792735382250612 0.13089764249446034 -0.027929302923894284 0.10531087478511836 0.26409675580771363 -0.2426813382766113 -0.00010664406090654666 -0.10255531478219382 -0.17845175484751508 0.09559918707677184 0.09501960001807674 0.07390043426653392 -0.0916330432793302 0.1128450589849308 0.2164564598756442 -0.022951327123621468 -0.3369810357281722 -0.09273699732011664 -0.005080692135152276 -0.15139931296218379 0.2614175103085472 0.10260109932426076 -0.0785082422752339 -0.1478947627902869 0.3549020722125533 0.08388752652194853 0.04754046538718448 0.1552868253700126 -0.1595054948335246 0.1928629775165973 -0.26032185026861043 0.03433978583370845 -0.03478813232112543 0.3079619192697578 -0.04264053400132184 0.11767183264510095 -0.08771350011519985 -0.022861225540083296 0.08091343540843354 -0.044224010246153966 0.04180816972461798 0.06232256276530279 -0.011687198137906307 -0.09344425742347084 -0.18290745080071247 0.11380089644899272 0.1917497746006802 -0.20258410125711634 -0.07364341091266624 0.1578210917754177 -0.1913693038685551 -0.03207643877851751 0.08782706298939047 0.11587272413908067 -0.11714638420085066 -0.0210805371350844 -0.09780708844908759 -0.19042887644809525 0.05656225955408445 0.0541273581840187 -0.14961948153631965 0.01276710510819612 -0.016695992636414303 0.2115501816348484 0.029232528657985313 -0.16577403079384112 0.10613062406650897 -0.029182828688135487 0.03962689884156134 0.040524278983639306 0.146662415281412 0.20158242817836936 -0.06609282297458208 0.10248465437192067 0.1415057585197701 0.05242221709340811 -0.2636179591986547 0.05699069231491194 0.016152717003478756 -0.07137081683401902 0.09282135274048642 0.10209094297579213 0.07725049088753622 -0.010691803066748662 -0.08197944834273585 -0.12722293609135704 -0.08075940931144032
30599 -0.14495475479736797 0.16019443837467406 -0.2446759698882488 0.1192269299031068 0.18107886891539238 -0.15323675377271684 0.0056219492507807445 -0.2758261965136626 0.16080401988381254 -0.07799517130933964 0.02796073044851255 0.2479044531337422 0.05010694501288526 -0.03893108641022991 0.03334311477669871 -0.123519639005508 -0.06470582830932159 -0.025194321624439908 -0.08247106325870845 0.07799543252917829 0.05842185940264244 -0.04802338518038596 0.03575894795659451 -0.06686746753803163 -0.23421869955745933 -0.05670107413243386 0.048062588563709596 0.23790138891860124 -0.04516923159943076 0.018448162159529602 -0.06944718348404422 -0.1551500889718227 -0.10920014305156656 -0.006993448087541765 -0.0446600366536245 -0.13638191231530072 0.21623584799635864 0.3729880392202176 -0.08295483201109732 0.041903371262606015 -0.1643713620833296 0.03505551292983 -0.0915103404850015 -0.041456668497176 0.006209664470588905 0.17879779741542734 -0.1360331153973675 0.027114561647977098 0.03661282621578721 -0.1480591483450553 -0.04319633464479011 -0.0108784280528198 -0.08077942434670149 0.0059758466686616885 0.09563899761906214 -0.09379187277249912 0.33806043036747724 0.08734901652223925 -0.18175856809875768 0.14080118759011384 0.05237635624689574 -0.07006864660343126 -0.044375225938438234 0.07358602847671136 -0.10943452117544439 0.03380057061986008 -0.26869352569246985 0.1447240320376295 -0.10189145285312406 0.265171932481735 -0.05073032110234976 0.029720225760684116 0.0901699730487735 -0.11259031217537085 0.25336869669217776 -0.22159949287663494 0.10754803580493899 -0.10514913087536115 -0.13156198116507767 -0.004526571990936645 0.13293261074795737 -0.2732071456994163 0.13450489103888685 -0.17345769839272407 0.1371810338105206 -0.05653177656131447 -0.2959362428809982 -0.06494833261149324 -0.1594899647643615 0.2621564772207421 0.14509375811189784 -0.10595418852381044 0.16887678409148066 0.04139788512566156 0.15634623472396925 -0.06611489220153999 0.10539934946143603 -0.07089623928368383 -0.06577062286851287 0.12988141476989767 -0.04612499424547423 0.11179731825541239 -0.09470589958461062 0.081742828467668 -0.18167852161843712 -0.07250729031511582 -0.1425050704901878 -0.028247777303022303 0.01799420737006585 -0.10783588936374144 -0.12303480623592122 -0.02610725425643068 0.30703525324133807 0.10265534754870487 0.06652909533954698 0.13924916019072953 0.11634696785677079 0.0821212786659089 -0.009068941578334488 -0.11484495074364531 -0.09421813116568956 -0.1737468438441283 0.05080546446106382 0.1167760228190673 0.05087173714923665 -0.0065053233674916555 -0.07074976665944632 0.20184992926169798
35249 -0.11990656750276685 0.1755606819933746 -0.13795842436957173 0.2237677326775156 0.277462069876492 -0.2427861960604787 0.0742172198370099 -0.1866552687715739 0.1008822531439364 -0.018736363854259253 0.010101837571710348 0.02833178744185716 -0.12442461680620909 0.14564249222166836 0.19463687320239842 0.025705265696160495 -0.24992874317103997 -0.11673520458862185 0.1372029547346756 0.1069472583476454 0.04230831691529602 -0.10277045017573982 -0.11206817394122481 -0.09079674491658807 -0.3159829434007406 0.1333458200097084 -0.15520471215131693 0.1224006803240627 -0.21487017162144184 -0.3277342882938683 0.12288603364140727 0.10211644708761014 0.25042083935113624 0.09950820950325578 0.1673452965915203 -0.04965426027774811 0.004444821970537305 0.2671428779140115 -0.1705602454021573 0.04233428684528917 0.11062126781325787 -0.03027316473890096 -0.20602943445555866 0.180661352846073 -0.09122164605651051 0.2518259189091623 -0.10247015999630094 -0.02334221755154431 -0.2321235933341086 -0.003025792073458433 -0.17586760269477963 -0.1540017630904913 -0.36043298442382365 0.24787886999547482 0.1617654619331006 0.07581421243958175 -0.08819283003685996 0.06311458726304409 -0.17901906184852123 0.08847440057434142 0.00017715757712721825 -0.27011526888236403 -0.0681853573769331 0.003956981090595946 0.153959596529603 -0.09007458914129529 0.01616870379075408 0.06956995521613862 -0.030943725141696632 0.19061348354443908 -0.03746231380500831 0.03249541495461017 0.13124201784376055 -0.26660945219919086 -0.00028520612977445126 -0.1038582967594266 0.011047350853914395 0.10444867133628577 -0.13618900789879262 0.23030316620133817 0.07910906543838792 -0.31809614272788167 0.13824476022273302 -0.030691721331095323 -0.12084964849054813 -0.15699574956670403 0.02096207020804286 0.044838768895715475 -0.07029209285974503 0.14082696309196763 0.09453263133764267 -0.2908208267763257 -0.014459554658969864 0.059805795637657866 0.15343235683394596 -0.03248079284094274 0.04120102198794484 -0.06082267893361859 -0.17706912383437157 -0.10806043399497867 -0.1922405892983079 0.22935826564207673 -0.06292276759631932 0.02727611782029271 0.08326332038268447 -0.09643401473294944 -0.26206478849053383 0.09171055210754275 -0.13299394538626075 0.12987880920991302 0.00458616903051734 -0.23397213779389858 0.3992988597601652 0.00970197338028811 -0.1957180006429553 0.059163126861676574 -0.030119013448711485 0.010373097145929933 0.04494355013594031 -0.1137534807457996 -0.19516173767624423 -0.1390468687750399 -0.013534128200262785 0.04628228081855923 -0.1496841055341065 0.07850774329563137 -0.024305265629664063 0.22333178122062236
34653 0.09296445651125396 -0.2837611487284448 -0.10784140554096666 0.053656819002753764 -0.12811234851506015 0.34263299352824106 0.08476066768344026 -0.17144979404633887 0.06772798010388215 0.10086830548138437 -0.04584481274923746 0.11429378570252613 -0.10393007950278843 0.1615661145078775 0.09989298580921968 0.025700212234369246 0.25494461880361996 0.137054250766937 0.1532935445966359 0.1106274030807981 0.3795695611743213 -0.021509933012566762 -0.09666255040292526 -0.17040302262296336 -0.1743996336199416 0.039843274780196225 0.036563439466135605 -0.06730152377770082 -0.009307822851042147 0.1940719991679316 0.11087897675270142 0.20250220602724767 0.010596430629902898 0.11387095005829906 -0.15335221994610038 0.09872719127452001 0.03213100639368349 -0.0350913613374928 -0.01900718844262883 -0.13099891168167233 0.1572261262090251 0.0010266272147418931 -0.02971535924325508 -0.18864467182538647 -0.10276742613496026 -0.008546830732711896 -0.1257578559718695 0.2601788987508371 -0.049753934214230355 -0.2777237442551268 -0.16966076380413142 0.12884760158158315 -0.018384676820687673 0.35254457114615434 0.22794508986953588 -0.038451922835520236 -0.07222321770859708 0.04279138714719011 -0.057910330667709786 0.06194604026495654 0.16666626199685197 0.22913734108169592 -0.05132071431125951 -0.06694785274976311 -0.06765720497685379 0.1155183339242285 -0.1025168595250534 -0.1327283190316848 -0.19333617350207533 0.09324680174040623 -0.07223507217406677 -0.2744023918480707 -0.06738726977982878 -0.011555165659956401 0.14454540220685885 -0.018636920681956326 0.14051098464278766 -0.05123342138233511 -0.001563161057219986 0.010690244136640104 -0.025939969747923897 -0.3555985023631365 0.0053433033635883476 0.06658180172416905 -0.013465242793017751 0.15103852246102178 -0.22303399608426844 -0.024823391216614255 -0.17644491062947054 -0.08840734144564522 -0.05699702722449729 -0.13024004634416997 0.12255276895302814 0.010633989674261102 0.05182732392302114 -0.03451031690610762 -0.27448193289978917 -0.16563570439666364 -0.046471255317555915 -0.1993537860134893 0.13166350679878747 0.20325631131709088 -0.15170176864830864 0.2512417921097949 0.14156844432898197 -0.17288589000054344 0.009585759604078703 0.11449051534236787 -0.1700904770981424 0.10398512592200859 0.0874227317592613 0.031251849337422755 0.19419533336122186 -0.07865923532426677 -0.03103362695856049 -0.06952693787570752 0.38579128928768114 0.1067390148607501 0.21187790463773126 -0.13880522632825887 0.1066322139240583 -0.18531619129157662 0.02764835425386991 0.0017819804525061045 -0.34066151026991065 -0.020901853592476982 0.009157948880158528 -0.18479615256796933
35412 -0.28207585932614165 0.2316644422189711 -0.11876744449000398 0.27896387591690086 0.10088378463058234 -0.23470310809716466 0.019492599300065194 -0.11354020355702232 0.17595647219422972 -0.03305798352630518 0.21838022969353688 0.08210507491457975 -0.15873106650542468 0.21997148749687767 -0.15565066080148426 -0.02497361900168471 -0.0513447397015625 0.026412251396322972 0.16992219490066418 0.0936073711654899 0.09606959006487159 0.04658163242493174 0.2899524284803192 0.10308119570481722 -0.37273223850911563 -0.11516073170059826 -0.02993036991574627 0.21187885149447538 -0.14754305372116505 -0.25883915346821595 0.09630900844058488 0.18725100705887598 -0.026107573072295054 0.13056663761926757 -0.04990446237843571 -0.023103289626305923 0.12839073044710858 -0.11382232661526359 -0.1330038088387937 -0.0860474237560993 -0.31831530339877645 0.014301505340881704 0.03920852580722567 0.07744122290137057 -0.0583464393093891 0.2501155777335953 -0.1856747118572457 0.12098861626873259 0.022875620190461632 0.129082690612222 -0.07896297184004197 -0.2507618712243129 -0.22811664613163884 0.004401049169246107 0.0818961331178798 -0.03703862550355552 0.030097332911395824 0.0744969121660688 -0.1046487189328218 0.007449285384609539 -0.3179869011305527 0.0013454729014483746 -0.15332163957236844 0.0958460293668395 -0.2209752586375089 0.16217235137219177 0.0019014075968470934 -0.03300486104126321 -0.05572604443204909 0.02922048070013261 0.13189200932606582 0.033614028666306695 0.020958052758942358 0.08507793726676027 0.18615677874822723 -0.07851396686965018 0.098717007362211 0.03141332214727299 0.06743949204064847 0.04896062690750114 -0.15305870834708912 -0.39983226152548923 -0.027201517041248735 -0.12829268536552263 0.03499317737623642 0.0026856386286908673 -0.21915522846848035 0.16080180752032902 -0.1553792865584569 -0.023016641125650494 0.19100550397342886 0.0027891018162335968 0.25406537407070573 0.01664080663886125 0.0027159941864738357 0.03688521291678626 0.24713698222694802 -0.17697866591788625 0.08390627976338294 -0.04202171333236038 0.10530087910228758 -0.018979163754011097 -0.0929345272215869 -0.11959328564989846 -0.18863274328987245 0.038955795320362085 0.01297498994608759 -0.026900539241069055 0.13245728687343217 0.1070257666069665 0.08295310432004044 0.1137804637305635 0.06319673478901677 -0.1315691359632183 -0.09234789564106904 -0.02510671945856302 0.07490198127015901 -0.07225596817170299 0.1174886268154296 -0.11621119914070732 0.09153644946854911 0.09267428759335417 0.054708849304006435 0.04545468796186469 0.21241532831118093 0.04030738198252948 -0.0003966267940995749 0.17279428963229293
31834 -0.05550757941091433 -0.2157334077892301 -0.10770724363828776 -0.02492680940486025 -0.14154834989096798 0.07297399512026459 -0.08936513018306869 0.04194919189808388 0.12443043497751205 0.24862063556793146 -0.054879708812222816 0.0029290536112966947 -0.04838362054215395 0.2834059088199865 -0.03216452033484529 -0.09166239014120947 0.1058510676775768 0.0810230870374653 -0.00766544186626561 0.22543549602778512 0.07820892205927521 -0.12640911314019831 0.19392698725278024 -0.13788535726780538 -0.13560522979241796 -0.12999347679215134 0.10474418335070368 0.0420678999125812 -0.14333830772193323 0.1257420171459671 0.09739457378236693 0.156409861991051 0.1266990144904412 -0.0777110330918731 -0.15636124242155347 0.01016629713558359 -0.03275501140160486 0.10225415774812063 -0.06597517315913137 -0.07437987262437673 0.13733800735644763 -0.0684031094860984 0.08560223298263736 0.031632727811484074 0.1524530004553526 0.09550214229602716 -0.10669514243636513 -0.05587242862293351 0.006265367410378531 -0.2190853299001816 -0.323772056353846 -0.05315061074315963 2.2497857571579516e-05 0.14628683362025185 0.06697442707582013 -0.052021352159499656 -0.34306437197710693 -0.03424677182556479 -0.05511900670535397 -0.1512227900166181 0.04743701368715847 -0.01236597173010523 -0.2943979619703896 -0.2762463921217204 0.0351772991712096 0.3760437241362524 -0.11717942403265624 0.08326090802074759 0.045355881407886045 0.19455562497637402 0.1279490376036847 -0.13616106082918122 0.04030649796294483 -0.2034421450480295 0.16059559017594438 -0.07239588110951445 -0.01050140639563324 -0.04569636912128772 -0.321304163793684 0.030776649662584532 -0.09167790271021659 -0.384667582824477 -0.07709143687725373 0.13117868554763845 -0.22764253072818974 0.005814692125568399 -0.2095071418734733 0.13933870526125247 -0.16830595615283528 -0.02437577752789366 -0.008851961771142669 0.31519789605226833 0.09661699723801576 0.0390581165192998 -0.15980030166974757 -0.17102649415647875 0.008862128066539299 -0.24009255801138352 0.10706148202734767 -0.11770812768372707 0.045073869161569746 0.06220751924229262 -0.2645592138142092 0.0022844641134724952 0.08262557298621687 -0.27306142640009057 0.12207734608136889 0.06203947690300993 -0.010736467851302223 0.02562667115853401 0.027501936128828675 0.021737637617661676 0.2326833190563775 -0.3330588929966325 0.023754114226903766 -0.029941274216980673 -0.20718813299754402 -0.10795163473812863 0.09481624894033303 0.011528129885846283 -0.15402678387908963 -0.11399382268427871 0.10487255428779463 0.02842767370020738 -0.3425454548923881 -0.08323457718870486 -0.03948982210658869 -0.03416836213727947
30685 0.08296479750424623 0.012210949091240764 -0.08308071922510862 -0.11796217446681112 -0.05384781863540411 0.03153402730822563 0.09763061441481113 -0.30744321036036126 -0.0014822478406131268 0.32303522527217865 0.13340509310364723 0.4050807813182473 0.10844467487186193 -0.03865770623087883 0.1639461531303823 0.09776692290324718 0.23229930875822902 -0.03908052248880267 0.33743074296216946 0.014263858320191503 0.03663891716860235 -0.37480328045785427 -0.1608743506949395 -0.13205506873782724 -0.062153896200470626 -0.01626257628777239 0.3638844657689333 0.0158713671262376 0.20459960983134806 -0.10489860596135259 -0.1319582898868248 0.18397419119719416 0.02871215110644698 -0.01492688391590491 -0.040469119092449546 -0.051964346785098314 0.208918325304694 -0.04068771342281252 -0.12278970869374461 -0.29876510427493486 0.03364903433248401 0.10408137971535325 -0.11873329826630652 0.11769510852172971 -0.23775478126481175 -0.1403130004182458 -0.3255568576423684 -0.035416491562500596 0.017376521602272987 -0.17860473785549402 -0.3557591484859586 -0.024418842745944858 -0.026369431987404823 0.01667924877256155 0.2031777622178197 0.028085445519536734 -0.11551081699144561 -0.08268883007986005 0.02775855315849185 0.33763870876282454 0.050656648462791054 -0.011969037353992462 -0.3400939020793885 -0.0201715137809515 0.277151417452842 -0.09558824100531638 0.13894131314009428 -0.029906962881796062 0.22092033817898482 0.04129882622510195 -0.022383342613466084 0.10740896547213197 -0.04682672687340528 -0.2712548676645383 -0.14208519336534664 -0.16075555188581347 -0.09775436343625188 -0.07713151560164988 -0.15022493730066344 0.12361986050382257 -0.3507755732862279 -0.3501683403737843 0.15207953611388803 0.032008285517804325 -0.05328809260390699 0.25738096237182617 0.05243372777476907 -0.027112536889035255 0.10539542930200696 0.18172186275478452 0.25267067714594305 -0.24982599448412657 0.05828612495679408 -0.012743285158649087 -0.11626153020188212 -0.12748162052594125 -0.07989834621548653 -0.12377627938985825 -0.02675304540389334 0.10685208486393094 -0.062735018087551 0.24443132150918245 -0.04947747150436044 -0.22697655204683542 -0.04403556446777657 -0.11610774509608746 -0.10114335105754435 -0.21997605601791292 0.12961511046160012 -0.11147002060897648 0.12021980446297675 0.44203813490457833 -0.07337514124810696 0.004802750889211893 0.1465770355425775 -0.14064418897032738 0.09303262241883203 -0.08786686742678285 0.32329819319420494 0.258785180747509 0.07115679723210633 -0.005899481941014528 -0.10585704538971186 -0.19375887094065547 -0.10573493968695402 -0.2234533317387104 -0.1550252651795745 0.05921680247411132
30693 -0.27261877584646754 -0.014271810065821455 0.045234635868951045 -0.0069736804251903095 0.2627373106107598 0.03487641748802872 -0.12084169558727353 -0.16733013324355284 -0.09240556049950577 0.16287496845865235 0.12319775256975163 0.029308578313816724 -0.14236543421123504 0.14060417337606168 -0.28483371550350967 0.06167808998088731 -0.15446392792021157 -0.09476239594073377 -0.15669310006171777 0.14544857175678771 0.10565325918810231 0.05144178001052069 0.2979001018859435 0.1070252632696338 0.017927913811604412 -0.12595656748482043 0.06107133191403591 0.18781654604151754 0.13918944772769493 -0.2713734775402372 -0.0406413766922924 -0.044843162352435684 -0.2821653863081788 0.18746871935008969 0.11628655794251586 0.07496162581844601 -0.0376820741043673 -0.014972937950460619 0.12383229419731379 -0.03493801540344066 0.08124306135852066 0.07012350180195881 -0.15822438480063283 -0.07844813759034253 0.039224307631002375 0.25748903235449916 -0.18050537223038532 0.2041216101106329 -0.015250554443820619 -0.04492689975241149 -0.13895299457459487 0.024390529379274994 0.027964375971578193 -0.08544998933592751 0.3093311940614285 0.11039060675233259 0.050390094611870495 -0.005949622974441127 -0.2608600184395016 0.022962675921149867 0.18878920214473283 -0.0020862500592500055 -0.15654101618298455 -0.04252343140387893 0.07167484546312153 0.11685985467156002 0.23640478032177725 0.10365780908770716 0.043759011721309804 0.06825160912234196 0.0735008430074231 0.06489408158398646 -0.29647088719747217 0.06969018661004611 -0.01821044863828547 0.03639470548534973 0.22384417370381016 -0.005417581808046634 -0.2277697567600967 -0.1038429571903734 -0.21884855453663477 -0.20187828446407252 0.19462312560585815 -0.032297923798296324 -0.24732642077819378 -0.021050116011679165 -0.021970706666600393 0.036176207996390985 -0.12203701927185762 0.0993954239624486 0.1466219923105001 -0.10026092828559285 -0.16558241018369557 0.014366434784278681 -0.06148295609500565 0.00834470328925363 0.16898513181652675 -0.05003255265575035 -0.08210277807256716 0.006984915647194612 0.03674437448103163 -0.08436519270088638 0.07694501057733305 0.2150920989419376 -0.08495430917315616 0.00011556425911862789 0.24013699302111036 0.01543672447567701 0.02960339786736199 0.011028418607224921 -0.022994768651471986 0.1022116584970938 0.3056355383178868 0.042531331975732556 -0.08501152229382569 0.11626112610500883 0.1836206071579909 0.03648226372985164 0.15589772061957774 -0.06635845435142329 0.06968463193098273 -0.32731566794518585 0.1947994733426981 0.11399169303234657 0.09184238599561922 -0.12142686620762788 0.08890896731446674 0.05162476772949276
30781 -0.13115733256563544 0.06482883961871266 -0.2815481796860695 0.129322346765548 0.29829032719135284 -0.14106818044092506 0.06731959292665124 -0.05088494624942541 0.13313674088567495 -0.07116780942305923 -0.365836750715971 0.056081232614815235 0.027720293030142784 0.2338243945268914 -0.100581887178123 -0.0038459226489067078 0.01011725328862667 0.014382684865267947 -0.0292077180929482 -0.05864378437399864 0.14314288925379515 -0.1376955732703209 -0.05168599104945315 0.040250214748084545 -0.202910628169775 -0.049098790157586336 -0.019999861251562834 0.15731021261308342 0.06507390261685941 -0.0015315597411245108 0.12903921026736498 0.06357026752084494 -0.22960240487009287 -0.15702671674080193 0.04489321861183271 0.04698442528024316 0.3758666478097439 0.2987408936023712 -0.0939457742497325 0.02810380607843399 -0.022064730990678072 -0.06043697701534256 -0.10333602409809828 -0.23334334418177605 -0.018086155294440687 0.05009823152795434 -0.2549066301435232 -0.024648861028254032 -0.16535266488790512 -0.16993013583123684 -0.2647727467119694 0.2089033517986536 -0.022393877152353525 0.16937994956970215 0.18623501318506896 0.06031029485166073 0.050961334723979235 -0.023172374814748764 -0.23659877851605415 0.10367175145074725 -0.13479483779519796 0.021625788154779002 -0.05869531913776882 -0.011196074075996876 -0.09536448586732149 0.11839517718181014 -0.15495306439697742 -0.13061435893177986 -0.048036400228738785 0.08486053929664195 -0.13007466308772564 -0.26431777933612466 0.17564089922234416 -0.27131549548357725 -0.061900966335088015 -0.5267238803207874 -0.014831724052783102 0.13386255013756454 -0.16620588721707463 0.14962320867925882 -0.03528479448868893 -0.4539496712386608 -0.1753847163345199 0.05535695899743587 -0.01542777568101883 0.12374572036787868 0.040265450021252036 0.05131554929539561 -0.19967643171548843 0.05761963874101639 0.07860957097727805 -0.128741973079741 0.02649371651932597 -0.11555800400674343 0.04980604164302349 -0.024543350795283914 0.23902832553721964 0.044082026928663254 -0.05000109178945422 -0.11282524466514587 0.11126075719948858 -0.04683252237737179 -0.12299254722893238 0.010966318659484386 0.030800575390458107 0.10447002947330475 -0.04259786615148187 -0.3049399107694626 -0.14481563866138458 0.04690072685480118 -0.1858402518555522 -0.1597260134294629 0.16280965227633715 -0.2915962990373373 -0.026636452414095402 0.13565405271947384 0.038075553718954325 0.33868321613408625 0.08259222493506968 -0.15500213392078876 -0.10130682238377631 -0.04811294050887227 0.1901691798120737 -0.09340754989534616 -0.11951434053480625 0.13483823742717505 0.08422065642662346 0.2827205862849951
30868 -0.2354304596910879 -0.012203148969092581 -0.17201274339367956 0.12268642359151727 0.08248202342656441 -0.08838332852974418 0.10225395632187428 -0.024784061823083903 0.05170139791061956 0.023243165838721325 0.0310725513354555 0.08211356830020122 0.0407970394885524 0.23244798614359752 0.0032127073773153825 0.10288834222930632 -0.09345910346746678 -0.06833944875688758 0.03158927195107708 0.18368002939678263 0.03088721311360132 -0.039480273033404956 0.13755137194311828 -0.004957948475748708 -0.24771333740864065 -0.06736446182321743 0.12877032050937487 0.03689803463203134 -0.057288193065687665 -0.09454091821680777 0.09032663050163592 0.19001659059085796 -0.19105347992990573 -0.11706608178496936 0.06330878383960226 0.13518819569799234 -0.17721751568387845 0.12846582365455106 -0.13625425296049798 0.12345566497242544 -0.11841720707354852 0.14082534267299707 -0.06062917731105699 0.12072807101230865 0.12195810953926411 0.0671295093925437 -0.1724987718880584 0.23311060677224305 -0.08741724536957918 0.006999882029049331 -0.08682889041847375 -0.04980884973110733 -0.3694479908026551 0.1599482879119023 0.010176093869063152 0.07098016453346645 0.07569675046306656 0.10330038159895594 -0.19096740809982293 0.2257478671890567 -0.15827537015502458 -0.21320969350199448 -0.2707512811230117 0.22365175396407722 -0.07003044572411454 -0.08280532300159393 -0.13887664327012317 -0.056972775153099064 -0.019077940785791725 0.05484595862799324 0.1293779579063994 0.16768366488759057 0.007607153638673481 -0.019751059800910298 0.004243585721269483 0.0767462892090407 -0.028177640815556515 0.05301421672027118 -0.27528194797878314 0.03468764629087673 0.032233926493063336 -0.3302427575617912 0.1125138143706863 -0.0725309019398992 -0.17329913001594832 -0.20381353637549182 0.16369173189104913 0.09691387497150572 -0.048809942112711724 0.09392743598255038 -0.10899333440549697 -0.17943686981925566 0.05333546730366834 -0.009522113398816145 0.1634593248281817 -0.010654904617695138 -0.005063844182586763 -0.008082661332082353 -0.03205478547806706 0.14575342026000726 0.22885912295168964 0.12365253152165678 -0.20699208902806276 0.056667854407351115 -0.24054922902632825 -0.07364957317986409 -0.25661680564917333 0.11370662179979263 0.16881656093084985 0.10451866378025443 0.052969879063311964 -0.06467599071038421 0.16458827463247871 0.038660285960304464 -0.1987346661175593 -0.1635388224676717 -0.14453569413353762 -0.028258641739739687 0.08762113870488974 0.13803868072500336 -0.1691312693819782 -0.038087759872723836 0.029227611644273566 0.3339176091903937 -0.15955690142072854 0.20511737475681002 -0.06203525752425776 0.216935063519486
30980 -0.08339365766732953 0.18122603686060756 -0.1565603846556769 0.1264200674741005 0.1169471814141616 -0.2799170655198395 -0.19243175677365798 -0.26036971963912947 0.19927347814336827 -0.25283904498792253 0.10774990175195853 0.11089081002864987 -0.02264984914718582 0.12184530045487918 -0.0873336603090138 -0.04442083342655678 -0.21398089952708688 0.08827612952154595 -0.006688073837722186 0.22975517203303752 0.1623125045298366 0.04354692915148917 0.3073260856263005 -0.07914964408337255 -0.39556998867374205 -0.0059624613204505295 0.06005715759602026 0.1120966851740377 0.035428592352104715 0.0035123682628181996 0.05714607404115668 0.11989150425870321 -0.21418904741040024 0.09726900080568157 -0.10475581640639575 -0.06074854282337583 -0.10428652667815186 0.034970902794157155 0.010310571698937565 -0.15564077376257046 -0.23449860205801087 0.03883369122559088 -0.027330243166943546 0.05374630204755704 0.14382946873593028 0.1310840093938168 -0.2438352581766594 0.03152188392868993 -0.054687816296791425 0.10617465140239801 -0.15505035909518483 -0.15266544981568586 -0.17334946984556154 0.1662736698676781 -0.133654652396217 -0.16277584693852987 -0.029782833080389537 0.029177715896366863 -0.3418193441320909 0.20191846561647253 -0.05329673527103296 -0.10608696718554711 -0.1469526106811827 0.13437901179713663 -0.10380276849173242 0.052280158262874465 0.12227221136708977 -0.05023517005611211 0.08659026026816719 -0.10349944652989507 -0.13522200531133421 0.07543328410247341 -0.040140224038168526 0.05962345103116462 -0.03143549370179244 -0.1246848174682782 0.3030087978509073 0.11184336298538256 -0.16168734759412473 -0.0666564375269445 0.14171243731107097 -0.41797001460872707 0.06712924464954995 -0.10164984147559153 0.0467418457265012 0.14628598529816372 -0.12649256999543468 0.07075957144843414 -0.091650891736208 0.3794520524024847 0.07345571542100515 -0.10136236575726798 0.10772395344974939 0.16273946274952777 0.06027372358585126 -0.14696551244924194 0.1513007894209295 -0.1831231065814336 -0.1363678446477934 -0.10867969095266972 0.06317531935928855 0.1481184505391866 0.08036287667528086 -0.10584499542892445 -0.021209999443954075 0.04125862565342686 -0.048661647146218456 0.03386994618631434 0.28051784463241347 0.04752784425363643 0.15608806247837492 -0.007267406428582035 0.20594541683567513 -0.05074848288859357 -0.17007729759643553 0.11229556526905071 0.03191528922980069 0.20344902981742052 0.10729385208105668 -0.043899220414459705 0.1605805590716045 -0.20605362449714448 -0.06575562778743915 0.2067541048891144 0.1624922042074104 -0.14276638198862202 0.07331135230197106 0.25759263657982956
30994 -0.007102497219193538 -0.14131229337607465 0.029483338163117878 -0.17429167663158296 0.17401357805169937 -0.29732905152559397 0.1095673389509102 0.03845374879870178 0.06522941915352476 0.02044562063747435 0.025894834533119138 0.1432679717947849 -0.20138994544504385 0.3935341473045355 0.07768530401381213 0.1598375545597719 -0.04257306849001452 -0.10227284301549844 0.16334906510678593 -0.031146629360137013 0.09841174630946625 0.1449544361430526 0.03718398343653462 -0.01516832843856264 -0.046088980098900834 -0.22042691182014096 0.10654202852401795 0.044050107334442146 -0.13040674670787666 -0.22673327612892535 0.059088324610456766 0.12002830589267433 -0.11215305327840497 0.014903798424711567 0.019397398805153898 0.12058524946678517 -0.09943517688225256 0.2212776098356244 -0.04300411432609508 -0.0980823274658178 -0.03596105074996103 -0.05278444423862538 0.11377548581958763 0.13151487324876143 0.007647286633073236 -0.027715688638636493 -0.0206717566846919 -0.03908568966744497 -0.07860156638389526 -0.14320335028440923 -0.12173788904738103 -0.0947814278019905 -0.3392503207551272 -0.010665344875860683 -0.01973481726281534 0.06446245484630708 0.055157679885752486 0.2589968952624986 -0.08010048180722151 0.10737710342209539 0.01490986357018187 0.004410598446156655 -0.0992264906726632 0.15325428128812746 -0.13246974715275428 0.05351113475614966 -0.0205789831607035 -0.1335694053586849 0.11476810314070462 0.046787972325546434 -0.017453481001211912 0.23623539148366035 -0.2034913168474759 -0.07480190868477621 0.05987113955893619 0.09764114061391638 0.12973574523812204 0.26589261184255975 -0.11704742290203285 0.001460896151002089 0.08610558941791169 -0.31865072781965864 -0.008446195452734173 0.07170649624413272 -0.1302843177224986 -0.13580176114464848 0.050765062519985804 -0.07304018707418436 -0.12415113504812325 -0.01292979155186913 -0.047917717540713056 -0.2699904857313413 0.15085804527871005 0.24780939332043772 0.05945027475513598 0.017823470413077303 -0.08749651043035556 -0.20120124776303783 0.012868034275697937 0.11353181842014237 0.23300276294756372 -0.11220482556086608 -0.08379147711639234 0.04132139142939195 -0.3006288520347198 -0.01134506561083981 -0.19317090785557411 0.27552761446099794 0.08632612196811351 -0.01677620935140567 -0.0634793518161132 0.12809561936899172 0.3081899919679927 0.15650548098710715 -0.005868746653959533 -0.04340307248509134 0.02553069223563398 0.21904041602520863 0.1433992264792323 0.23860147954559352 -0.04393122551118722 -0.16443173543802914 0.10399943842435277 -0.09523624522876162 0.020028512559065348 0.044009378896589624 -0.2309771973862098 0.37830099206894374
31003 0.006357776350341737 -0.1948712042394618 -0.09248644077160861 0.16231853250064887 -0.07119311673886841 -0.05426416048430838 -0.0448234747746028 -0.047007291788759176 -0.1840694243728649 0.01541320318938233 0.0988437001942657 0.15337788016768172 -0.026921428740024567 0.09765536492341198 0.12367284620995633 0.23014460716512986 -0.054337007357389666 0.21895909874001518 0.24608808994526044 -0.029582528077298775 0.19357954182851245 -0.13606240502849687 0.06498132139677182 0.08796401179279201 -0.23243300593458116 -0.1254094978903595 0.17970309202792123 0.0676256084771012 0.2387993507873034 -0.04717266443185508 0.07562151503225323 0.07967553826165386 -0.18979335657786578 -0.20785444043576717 -0.035637968830997124 -0.006906107373652048 0.14617445651674643 0.02558919630246237 0.04831456337706186 0.21397292442270555 0.11483558159670793 -0.26711183722363785 0.011585211766941939 0.22322317013458814 0.24752154873567633 0.1069906776829157 -0.16447454900480807 0.033207169675733894 0.10415739105519606 -0.003985860901593696 -0.04897069383878261 -0.31988287101557944 0.04985681765538175 0.027426445274613798 -0.005792418407509103 -0.039922024989209604 -0.1602414635999594 -0.13996469620906282 -0.009092900640098378 0.13094083342002705 -0.38630721427034587 -0.325179767984082 -0.1357472970848903 -0.23782817213214003 0.18026773185556522 0.14135447752778418 0.09733700880951801 0.15283492680464406 0.08092668308199791 -0.06483156447939109 -0.39937326361541636 -0.05634658665803727 -0.21511294806259684 -0.13192630177582032 0.06878693655016832 -0.022231026377994567 0.32377766420540866 -0.41478412465949077 -0.25384912173467455 0.038941588216403034 -0.12427924800431356 -0.01554373033286538 -0.012682069471338764 0.15746337645396125 -0.22049971272645053 0.035272363618787494 -0.09490733056009049 0.011995913519058377 -0.12069933782913722 0.13059322262415662 0.005659297719830647 -0.09944494161391049 0.09663179650669917 -0.20668328243482392 -0.09450892251334153 -0.075164508249145 -0.07561322391120484 -0.00908503046957776 -0.04858218289336946 -0.028926533297635615 -0.1785061723785475 0.1471032428817125 0.0721014379960252 -0.10216724092606455 0.004196996240352746 -0.08404804921883624 -0.11325116043008165 -0.27501406727242284 0.2919864298310131 -0.21157061553094536 -0.174686062237015 0.08565735892625526 0.2777735652634874 -0.15774192685785238 0.05378606918384321 -0.2422980001429096 0.07556721934815869 -0.06172726421391417 0.3081689628561435 0.11405389961146284 0.3506912857374118 -0.043596447590971366 0.16332010128826369 -0.04339813513797708 -0.10090492101153359 -0.0396138955202332 0.17293729310040362 -0.14081741572590545
31057 0.10936521353791306 -0.029999388756252188 -0.3226107792656876 0.11100759152833461 0.24432539182589608 -0.024228295391083066 -0.19612708083940333 -0.19123018924016577 0.15650135873835325 -0.0971661029208235 0.03521286880788921 -0.15304029678117104 -0.16505420418837957 0.045892623192955284 0.11510948533100418 0.05622693976567916 -0.08480007651610322 -0.13063118082072833 -0.02826453178658994 -0.06879744185960135 -0.032078708576293025 -0.1887114147918112 0.013163426405839118 -0.11974671416994909 -0.2368951929308878 0.038801849354427986 -0.05484544819564767 0.34345170564539274 -0.1915043178616429 0.134721221559559 -0.031118780797470436 -0.10537984490338204 -0.3400551935072258 0.04968279596590719 0.11706399978641002 0.20021960728720245 0.057367279717482234 0.161714329959473 0.07236703730347926 -0.23111115190505416 0.09817002470134639 -0.08658209870097267 -0.008266552455268084 0.1031693034687251 0.1374069040168422 -0.1446781473671308 -0.23330851301675182 -0.07526538951731254 0.011322161364688554 0.06294318910698848 -0.18031354359555962 -0.1959433623995892 -0.12158083184322166 -0.06583349196625932 -0.015534599663737936 0.1887758191074056 0.039420968173317306 0.03223695385361225 -0.028120327566057313 0.25339129767576196 0.0974241434380474 -0.207839593422392 -0.0034369612746161238 0.01511080257660069 0.012725566013806144 0.16785196823633441 0.02536739340352412 -0.2631268996405538 -0.004743667459187861 -0.037573413852582505 0.04892961447639976 0.09665893387398228 -0.02543113446949974 0.041797771105137826 0.055660346320593135 -0.07930336650568037 -0.0426881962605421 -0.16118281901356113 0.2496003514554559 0.06533725775830135 0.12146539860071925 -0.2955400230672467 0.1809533300067585 0.2380164176319539 -0.2606441278238947 -0.021360852166854016 0.0319821351154701 0.11496599919138362 -0.20513348736494663 -0.0033076231141784262 0.0012261151045649399 -0.1631952169840929 -0.1658780577786274 0.080950515686105 0.15284873734893267 -0.002314761479638605 0.13822308474527745 -0.18282224784624646 0.07186847280311781 -0.12213412722314843 0.15951483558991697 0.15028572916814653 -0.1048329382538924 0.047736112828545174 -0.140295126063819 -0.12967002573816444 -0.13173117023968217 -0.1985189063764068 0.4595996297378043 0.020352996488341546 0.18163337319265338 -0.18350848043400703 0.09653864115674082 -0.13728348992754036 -0.13125830086642054 -0.14424730496293137 -0.041020824910745546 -0.016280529708012637 0.11411002128529901 -0.06427793291868511 -0.21870039381256134 -0.07915462135588314 0.18271741354783444 0.30884629230160954 0.13486244338390918 -0.17443232286407806 0.12328154626846555 0.18259516449264268
31066 -0.10513191316249504 0.06438956718073996 -0.12937500311920758 0.05195369672492234 -0.15034107609608327 -0.1431271048703593 0.09031204267188286 -0.09259012490849727 0.16560362416726093 0.05875466013388575 -0.11529057342818305 0.3868773545550539 -0.2105953931604745 -0.05773567038249894 -0.05868506742683621 0.08636009299880243 -0.15569432934302085 0.18122714652059813 0.26906806795932425 0.2165320617832549 0.0930938710027931 -0.07724961441527967 0.11998773143466224 0.11829262560468123 -0.18258969864051977 -0.06162188978382943 0.16623803925523362 0.22767752436448063 0.2624279330951822 -0.10170078488749823 -0.4197204674869681 0.1898608249932181 0.15826274098253634 0.18534588744807934 0.22341262245095095 -0.04299644535456082 -0.12949580614912293 -0.10754557028872114 -0.1538390663777136 0.13976402749358385 -0.019467814271138195 -0.05714507436630356 0.030715133543253614 0.05948553443676019 -0.12979243172156885 -0.13181581790058772 -0.08314961222322381 0.2701645858428492 -0.26183639802911784 -0.03799970971374478 -0.18465619510936904 -0.04184970572327984 0.17014295161425252 -0.08922026427865148 0.25276029493846863 0.04853736546920118 0.22682872267091625 0.0018797013044036248 -0.03312453482925548 -0.02485087563451316 0.15901314326947613 0.04150025424223713 0.10704366077243321 -0.041628445021615335 -0.05273362581829133 -0.0019930716364342516 -0.09322391224486637 -0.04454151768220527 0.029524755572538197 -0.09174614901348832 0.12763110525247612 0.15440611832639206 -0.06006935864525076 -0.1340145878657495 0.3382861763434448 0.14077359914906395 -0.2151846794395169 0.0028120610553230563 0.032034894714751516 0.004408623914969212 0.03798567607691439 -0.22808009958680486 -0.05184717292422647 0.14421758161915932 -0.06299087774630152 -0.0021746996428646526 0.24248912965322234 -0.07714008372261105 -0.16651519947981797 0.027182176574569894 -0.06392516637924928 -0.11129771126297783 0.05612204604210547 -0.060802986397902714 0.13607609497933026 0.08839855283599718 0.13832734947732206 -0.05831336155506506 0.18690074986716354 -0.052529976221194374 0.0012611696090516489 0.11076598653323799 -0.33993993876049444 0.17066049794078708 0.07751563886793633 -0.079280188539542 0.050597439611465234 -0.012018583593150112 0.17504369566813693 0.041307315549715895 0.11900921751657734 0.10494510469305851 0.0646192899118887 0.21487235649510694 -0.10495074328537157 -0.15166049016579564 0.2672430582379093 -0.10302902969249317 0.031428658864570025 0.07433332014431926 -0.06031760992027557 -0.26009563342631736 0.18406531972439666 0.050049828146256914 0.1104397820494114 -0.081742827533958 -0.08169191517509944 -0.10938506729388564
30189 -0.04861766175690718 -0.00678849164978601 -0.2277842096045788 -0.16941382018558215 0.26916632737129476 0.02531083742451301 0.003909840608685045 0.13623950160945242 0.08288833603728563 -0.322203877971333 -0.03268370274963672 0.055459436669480056 -0.09156226844424964 0.36499724716668425 0.15940468360804516 0.10976839688646578 0.17355148782371543 0.05351124691878795 0.12880937424779404 -0.013778831401396019 0.050991990423426614 0.18535630659607705 -0.2784946991887409 3.388216282473877e-05 -0.333032598340651 -0.022861107623612043 -0.017620760055251594 0.2564668979321141 -0.19374897704983596 0.24717690645775292 -0.1443513240737957 -0.055190645056427456 -0.2320657818345353 0.10488072593943798 -0.12492912558082025 0.26619025976560806 0.0596334758301964 -0.07222793964319862 -0.25679474838125316 -0.1108822512419465 0.12039672629907727 -0.09693886452441802 0.031897465782094514 -0.03955420415127264 0.02374194136064034 0.01425318417022936 -0.1268574188434286 0.4807543256392819 0.05326750176027417 -0.2328761231547105 0.2916721122164745 0.2101821337309957 -0.08125821518478915 -0.129181447042356 -0.04682936840254115 -0.17837800081497335 0.17769662516366225 -0.21825877138144278 -0.14407331573602278 -0.12691735500266077 -0.5295565737178549 0.04273903994999273 -0.18030564233777113 -0.056944462201499846 0.11880797817138955 0.1570082571306557 -0.084043134113017 0.11917788516075234 0.21830614280770533 0.11565427098685177 -0.022331843480060343 -0.054148418639670126 -0.014557126916770358 -0.04753051400621189 -0.10126581521763 0.1233094450290082 -0.08978802655474283 -0.012543318764073774 -0.19429239761666395 0.17199049102782737 0.0014124476874712855 -0.19726062295376323 0.34361866595281754 0.2292855893738306 -0.1606064092629822 0.1776102742940111 -0.29745799709053244 0.052965506012697006 0.23249313770793378 0.24916211691743229 -0.021396594202087726 0.07106585708243074 0.07230606579832966 -0.16505021375814977 -0.17628108952339971 0.15887906293573906 -0.22203582684960566 0.009530108465696685 -0.08232409608899616 -0.012697397251031362 0.026945814124701428 -0.11696753511932911 -0.03816128797188867 -0.17694021978240926 0.06811658833771617 0.029236757070066233 0.19167415422089107 0.007844042302167509 0.03219429380260408 -0.015112413271708647 0.18926300274324603 -0.20118081898544915 0.09863068117829243 0.0826605320435192 -0.10947238096559886 -0.031475369411055 0.24703889994998462 -0.3036863827881007 0.050532362183730584 0.08940305294527207 -0.15605996137310285 -0.11297348109656014 -0.20055860216962174 -0.19206646379825543 -0.2523818212066544 -0.020935821674356703 -0.1266925184027059 0.12802676480350783
31252 -0.140846538124606 -0.10876156575977802 -0.519125409424305 0.14308704249560833 0.24597655050456524 -0.2982122525572777 0.3808288872241974 -0.060241995146498084 0.016772747971117496 -0.152392684831284 -0.027257789624854922 0.13847990054637194 0.029711126117035747 0.2363953636959195 0.2832439485937357 0.07990787271410227 -0.393889470025897 0.14652011264115572 0.03134234435856342 0.18445678986608982 -0.07176501909270883 -0.012773079564794898 -0.2548626586794853 -0.1417851943479036 -0.17857115948572755 0.14446996245533228 -0.0940147815272212 0.23870423808693886 -0.0012731179594993591 -0.17219349928200245 0.1959097422659397 -0.04751976765692234 0.024601087323389947 0.292172035202384 -0.1029954282566905 -0.12613768316805363 -0.06972381065133959 0.04041429702192545 -0.10854507121257484 -0.29441362991929054 0.21511899307370186 -0.2112863219808787 -0.1587790921330452 0.4433830017223954 -0.2103512054309249 0.00014529377222061157 -0.0561999820638448 0.16867664238088764 -0.06314350850880146 -0.08959986391710117 -0.008047619834542274 -0.24599918443709612 -0.41059450432658195 0.22123124357312918 0.2688745856285095 0.23566083423793316 -0.10878073051571846 -0.2273774892091751 -0.3259913120418787 0.1410587872378528 0.08056992571800947 -0.19181327149271965 0.0643028705380857 0.2038622833788395 0.031301217153668404 -0.116441949037835 0.12994244508445263 -0.0033388789743185043 -0.05390267539769411 -0.039083283860236406 -0.17524466011673212 0.2595663070678711 0.08653233153745532 0.12279946869239211 0.009332576300948858 -0.15736739989370108 0.052769673289731145 0.12548105884343386 -0.11449328437447548 0.14269718900322914 0.12275507301092148 -0.37069878727197647 0.1423515034839511 -0.1331801349297166 -0.17449380573816597 -0.23235744796693325 -0.04591247113421559 -0.015839845407754183 0.06357546150684357 0.14125714334659278 -0.15102428942918777 -0.2347126305103302 0.1924975230358541 0.12438469287008047 -0.16333988029509783 -0.09183543547987938 -0.16118926415219903 -0.05946358200162649 0.07164280582219362 -0.04057264141738415 -0.01802943809889257 0.17110256920568645 0.08680865727365017 0.07056606002151966 -0.16362264193594456 0.039999162312597036 -0.16771949687972665 0.027899250329937786 0.1612872132100165 0.11668143421411514 0.13473682664334774 -0.12357708322815597 0.5016121044754982 -0.14228070876561105 -0.10203132033348083 0.0011740638874471188 -0.17158666346222162 0.04586315480992198 -0.07648604735732079 0.019163201563060284 -0.2743738417048007 0.03443269233684987 -0.11832538084127009 0.0955297602340579 -0.0866191367385909 0.0019102568039670587 0.025295391213148832 0.1377638727426529
30194 0.09807477615518945 -0.33142769494774527 -0.2709687390279214 -0.025125739850137663 0.14907006457332272 0.18227420757192192 -0.17748105608913534 -0.13305494432357534 0.11265890726222949 -0.16232281355760847 0.05238137686086475 0.07358504982875047 0.03982105444397632 0.15860281778898866 0.020328959374353417 0.09712472266284067 -0.19091803818552933 0.13519080764530145 -0.08035368683769484 -0.030090101649662415 0.37381025949487423 -0.0411842028188687 0.19391961337645824 0.2107073227279912 0.005303402343944441 0.21502669625030535 -0.035654708991337714 0.16555136389219172 -0.061211756604862444 -0.0013976828858908164 0.27229203028734617 0.15411675969221506 -0.14896615139453218 -0.0189394154883189 0.16410763675755113 0.1475636887224434 0.03841887383565279 -0.053904317713588945 0.11133100114919614 0.10350043548380938 -0.0021920988560850674 -0.17937313997572346 0.14221677408615108 -0.029658597459082614 -0.0068297485304000816 -0.04214190511217453 0.008894105321425094 0.11051183146641108 -0.07305176648456779 -0.29010953333013845 -0.13367326468039664 -0.00956864127050494 -0.03013970432115798 -0.02923683645853714 0.04404877102751925 -0.026955537801661933 -0.08925251926983968 0.020261892501338252 -0.17493841845277558 0.11977796806870344 -0.13704097397729242 0.06066917798995064 0.06247912376529996 -0.11407354967926597 0.005388681681253615 0.0806807038848305 -0.0855621926683483 -0.1691908353610927 -0.011761052886626544 0.2757992683117436 0.2055617079393528 -0.21015481458193008 0.23052627561332883 -0.11772710173683976 -0.02509447317476088 0.10726360004019853 -0.07983114294537974 -0.023467269658766554 0.0879355086574094 0.02563135415268647 -0.1495583264840974 -0.26960689804096916 -0.10658699060227317 -0.15715640859570357 0.10747063633226794 0.13816315444694283 -0.1442359314637116 -0.006866268564664324 -0.04968151281883593 0.02519118519697372 -0.005449686430317513 -0.06240144011003679 0.0766884921775528 -0.033615313343148046 0.13121558846723413 -0.27745595591133565 -0.013307722664933408 0.05528630093020581 -0.10334153188152584 -0.105244472346544 -0.11614763045543697 -0.014444043797467998 -0.10369751054565768 -0.1385725234428321 -0.046832650384157404 0.09147240314750249 -0.057000658786918734 -0.06766512828534132 -0.06375840796373211 -0.14725439705699728 -0.019635421234099226 0.2046131174962369 0.14715980929975103 -0.04930143667290565 -0.06592933230216058 -0.1655333004895958 0.15466322570439672 -0.21213796633958992 0.20619946940887957 -0.015219121333018393 -0.15527461593043768 -0.21576413657653015 0.023398350456218964 0.21958295039155473 -0.20565897285490564 -0.050845257947770506 -0.47626181841593507 -0.1461688091500406
30135 -0.02973989726160653 -0.10082739315112121 -0.12819617810600903 0.4365741561341565 0.1380991554397042 0.021526247408473864 0.09432069766444329 0.13444865458859567 -0.01967789396076114 0.019538739921699744 -0.3301027667548624 0.12308563973783748 -0.05087897993507795 0.17097397407633252 -0.3439668007340515 0.2548758668199298 -0.1374658759286831 -0.2594556700555586 -0.09268335063529776 0.005011749723053072 0.17324052422554814 -0.11705652618547902 0.051694664394744905 -0.2891098333784612 -0.16705834549793508 -0.1721239831913408 -0.07647334488865454 0.375042311148718 -0.2290173933361075 -0.2864533026149729 0.009191353208734654 -0.15491487847202734 -0.14023977710348845 0.3334891734775738 -0.054820761313749244 0.15458511307588196 0.21156434601653018 0.1947675746960158 0.19856629088098998 -0.10041304058904643 -0.18551315524382517 0.09385201368422713 -0.24544529629929457 0.11870459937290434 0.13364578474647715 0.051490193989593536 -0.17231345466007042 0.095360442152014 0.07083116567355319 -0.05885842095085536 -0.48615534500277136 -0.14700407085319966 -0.09064281676819519 0.14381847064396425 0.054486196480866056 0.1793341359734768 -0.1627050800834695 0.23154968714516144 -0.28015866939676926 -0.1444430591127457 -0.39735230016958667 0.06303152017244429 -0.21461335465573939 0.11346871296700556 -0.03400707884429721 0.2409302685136936 -0.13957983033833443 -0.03272758448292734 0.020656599634094164 -0.10701920969950152 0.027868859857335337 0.023380981696391245 -0.1441786866125767 -0.15182022295630304 0.23350314437993802 -0.06698313399465405 -0.2781325094983913 -0.5504308484341891 -0.15871200307446998 0.4662411427416373 0.1498614974116208 -0.3575321214739233 -0.29103411346659414 0.5842183531349292 0.04090179411468853 -0.10478824739766424 0.3294351232689223 0.1675953942740307 -0.006468526672506414 -0.19544934346049558 -0.18206969085076707 -0.03950927126061288 -0.19943356834028236 -0.0619691381893972 -0.0712762346083764 0.021112936272402294 0.16496062948863255 0.1474940603293362 -0.09381314695019682 0.3096866819250863 0.045907522704510484 -0.06565124217013363 -0.02579405817823499 -0.08489798483788036 -0.3899742892535869 -0.06467476613033796 -0.001528532849675912 -0.044835433382104384 0.7962841899425257 0.02951256782398559 0.15867936534868932 -0.35691970494008274 0.30242230772273615 -0.10722879808918151 -0.031873912215814926 0.03951067098387284 0.4856003775203135 -0.17006692818540614 0.0313139609687596 -0.16512783918324203 0.19233396981144324 0.06261834866018035 0.05739660367362376 0.5672649502448621 -0.3520086516800802 -0.4118600558722392 0.03019793383788283 -0.09853850734361913
30140 0.06184772760548185 -0.032375771555962274 -0.1747855874200468 0.016562523116590455 0.21049374957942746 0.07946651736347121 -0.24080392339897116 0.0012870579414538952 0.03825190862994532 0.08280891930849066 -0.11121869307277166 0.3101139934260573 -0.4282939498627911 0.12800693456415502 -0.11998585793216421 0.06359565018146895 0.12021066883494314 0.03610459354513296 -0.13147449168786807 -0.21423346645269703 0.1491116832885382 0.13295085563288467 0.020989093632124423 -0.13649435251903697 -0.16972750373207646 -0.07131947631933144 -0.0011584500111894158 -0.198086644541263 -0.14782019185486206 0.05388338195552933 -0.09406570785176882 -0.040001955464504135 -0.06915651558279023 0.25654164039769967 -0.021989525867866178 -0.025917042576892868 0.1902085049478046 -0.21067248893314172 0.14349450733149638 -0.15839318988105333 -0.03521302345461663 -0.09493635988644655 -0.061344444395999176 -0.127317747641996 -0.11916604543685594 -0.0533889914277097 -0.03084973835029814 -0.012627115183022397 -0.18851043191898498 -0.15297284024291002 0.07380672977615177 0.03225168028711778 -0.08430438438904275 -0.17635827602452991 -0.05870324221359624 -0.03643281744916749 -0.06406004279534727 0.0763241118120277 0.007228791016814284 0.16718673297509667 -0.14795657834838494 0.24198267984206723 -0.12542309605942137 -0.14110504040809246 0.11686183031360997 0.20634806044859033 -0.40498905371038063 0.09819597074965714 -0.04319380510185056 0.3735516811116213 0.28593874592002066 -0.058566833628901804 0.14703141907421013 -0.045986289218944876 0.0008274712572529097 0.12808765874979144 0.05027502711112675 -0.1135043535564364 -0.2633027328100752 0.19890748823149806 -0.014197724469113382 -0.22446247536072406 -0.08258385438603 -0.05815552982812733 0.05406943608431902 0.0014508117964453504 0.13108531767647946 0.1115335239014712 -0.023452442176903787 0.08836982823231665 -0.07764706008583744 -0.45588087461283067 0.05707290453779024 -0.1562136765487594 -0.0061891197838122025 0.277793882647984 -0.27059092829586007 -0.19257825314389265 0.15477910291110675 -0.007620227054303541 -0.018935426536700106 -0.20745500568409625 0.011211691886273911 -0.1466591552830323 0.26001809303261325 -0.1506087862426284 -0.18969607703911606 0.10358134372881977 0.075829176188563 0.05571043987129087 0.04718868772533824 -0.23678078881471265 0.005107920186816273 0.03453538641178966 0.046196359355121785 -0.23669668942693534 0.2755452835972392 0.009460673934881925 -0.029064757578680656 0.08619409507809905 0.138027086983584 0.008931367695367953 0.10700644590087904 -0.21861172194053324 -0.1593743582643583 -0.14940131197181472 -0.12107405308574926 0.17731179173415512
30372 -0.047177606295008445 -0.0017424504792415973 -0.09946395848055545 0.04502043346292339 0.10823030081883189 -0.055778489680960774 -0.18354739095593686 0.01547763820781256 -0.1448628203579574 -0.019386883039260283 0.0251501023885794 0.09534104081831174 -0.03497316990387844 0.1434945743467324 -0.04021134102731594 0.09555912434370839 0.23271521781862248 0.12756503410855657 0.295718277033302 0.16412446041249495 0.16957447491859057 0.19064592070571962 -0.05421543150876573 -0.04580813767097425 0.04449819881119765 0.16459181407117285 -0.04046178441240045 0.40236543431456084 -0.0895593722598278 -0.003532180726324441 0.0692571943582152 0.16516226898238529 -0.015418901515204197 0.029824884586560074 -0.11720349853567313 0.10400890922755934 0.28224679915001616 0.16785936288215453 -0.3246606806496857 -0.2423169533140026 0.1444884107040707 -0.1944603513838956 0.11323422534042038 0.011798912906670012 -0.08024024749465752 0.08383693543146364 0.11655272266580141 0.0947599186692969 0.06293010295485146 -0.18101633575133746 0.08266230260960583 0.18039441470318707 -0.029219001822639257 -0.1921966883528512 0.11825109544588486 0.09490669026854448 0.16131201897223946 -0.15268490423477488 -0.05438638799387263 -0.23441939770418685 -0.30595231377810705 -0.08951764355879277 0.036272265077059274 0.03268397029751213 0.20540953815543617 0.060898442221514415 -0.05501804701634683 -0.12325508693174925 0.38081665626668837 0.1700375513541985 -0.2634682069037808 -0.342147511721123 0.11868177686119452 -0.2426638926845044 0.09726075065191253 0.08563211839555152 -0.0740333438043308 0.06040388963447185 -0.1817278400703799 0.06893701146327658 -0.1089904074988226 0.0333835875708246 0.22767489929537987 0.17137615310639376 -0.15497767999772805 0.3640669603337301 -0.08957252105483349 0.05048746766988188 0.20789029402658343 0.1990617803639907 0.008255031043518102 -0.3723478831409466 0.18038418410287704 0.1254597456245392 0.042929071038088296 0.4256314386657323 -0.08681200010323664 -0.22516138515857165 0.023416063544573262 0.25606566005671993 -0.11104342897306196 0.09978782398866315 -0.20209249431354692 -0.22862467156664934 0.016502174228662625 0.0033960602013394237 0.21858807741409692 0.11129524470015895 0.11908811060493463 -0.005673873904015636 0.36187048016290646 0.048909913799434435 0.0525573664890544 -0.00041537700599292293 -0.16684232081024675 0.02307335399382282 0.038328214395733085 -0.4987128600187134 -0.1416196595382644 -0.19572813171544112 0.2919413870986318 -0.3253142883477267 0.03950663149589673 0.10509594313043635 -0.05424089571170043 -0.0396621763065923 0.05660644684030558 0.05592233844799921
30431 -0.0522847170541354 -0.019317751372000203 -0.2238043646866572 0.1762735983247694 0.17209866774646798 -0.2039120739173086 0.021822605704073794 0.16304415608465206 0.13272687114294968 -0.010690868868096004 0.00862873585356283 0.10708742838460239 -0.1898724154611955 0.08179059259418864 0.11773446070310456 -0.08538582749679335 -0.1071545129034348 0.09066827075002948 0.27050373870588373 0.15875178166550086 -0.02637142541425419 -0.046025978357647546 0.18151901114651992 -0.11167625993493857 -0.31152548807767744 -0.14316343694349598 0.20098078048977186 0.18534869143695687 0.047886066930004745 0.09554705049959011 0.004092325072633685 0.3791451098913967 -0.0014182566228555515 0.2183525089549221 -0.06267090387700591 0.14410323626543686 -0.014679750103823608 0.07856084641082361 0.07833588124776725 -0.14843619983525969 -0.3806758888941886 0.09554916315209994 -0.0055845677579782205 0.07284035117845633 0.1139773264494579 0.30551578595077444 -0.23057794389751507 0.09611335471618077 -0.30999425688355586 -0.039381693099130644 0.1225935428401499 -0.26007788536298904 -0.3127602478070912 -0.14094392508923193 0.04018602517612635 -0.10191361285251332 -0.005444139279461524 -0.0896401220234111 -0.3470364404929569 0.0846082194111375 -0.1012298190544243 -0.21046799226132862 -0.42622506989209796 -0.03389966054237448 0.014847892634861637 -0.08665232262225686 -0.00015738402453280287 -0.010832754363946151 -0.13388358111660636 0.07104655306648056 0.21045139864872908 -0.03281025318574393 -0.13747007274082534 0.11888835068293702 0.05451219195674639 -0.039065763757207606 0.019945388557971455 0.3633706032887858 0.25389234620524803 -0.04492303286679089 0.01608972407029796 -0.24746065536965034 0.015550778523902409 -0.13466255971707142 -0.020909235550789163 -0.14856235472143453 -0.12128925420347514 0.0009729981538839638 0.03703808978025336 0.10297211625038472 -0.04005819644135045 -0.06252413929905742 0.1644492160990012 0.06477209244621918 0.19849183916812763 0.1284917790144391 0.13236314600362675 -0.1397103492063252 -0.06450369845333626 0.03548376324988567 0.15552159929666232 0.3013666750121047 -0.14197744416560454 0.029201909893345146 -0.3637854426378908 -0.083367571418421 0.10831829150822614 -0.026112887539056828 0.07307529738318408 -0.13966051434908877 0.2437907947983149 -0.045687983869356685 0.2940818945189676 -0.05833457072640158 -0.09977988892933354 -0.07180970499939576 -0.06351184303457558 0.013946952058176976 0.14114673347648932 -0.01993070019670995 0.036633410761169216 -0.15393652829516213 0.04978765467967605 0.18773950151989993 0.026764706580252096 -0.01015517347241257 0.05857517934146017 0.37648721647565253
33105 -0.07307427111072684 0.11077226535303453 -0.16693267387324795 0.02147002654191965 0.12584250359896032 -0.3488009429863155 0.031080526396465302 -0.12942032038199613 0.23485076471115462 0.2151644768605081 0.06540397169237622 0.06273533272828047 -0.042416377564904906 0.13398267484976856 0.14760273206297825 0.046697366617094005 -0.09808852549895164 0.14208602609392074 0.2668067769839695 0.041542295593046674 -0.09010620939426417 -0.15576440929180535 0.045976616523205394 0.040946221651438464 -0.1899070872835864 -0.21116127159803 -0.12511795685804827 0.007705237084337568 -0.09929805249544188 0.16639677123743724 -0.16623076288919947 0.17341040550741127 0.010025719496297825 0.03717328977302259 0.254913583345342 -0.1098532857246255 -0.06660457651730667 0.03653330004226518 0.2890347566353739 -0.028913682112033712 -0.3660107565610815 -0.13614708899319794 -0.143104522098497 0.00885781511578898 -0.06857311013845901 0.15600994701912896 -0.1588279640123602 0.10178884762456164 0.048233879565259485 -0.3093941632687347 -0.0042446331317478325 -0.14925401171871044 0.0455448356517536 -0.13236017220600615 0.13217254715596027 0.0621809861789302 0.1066042836527572 0.07411242330738332 -0.06556785613497595 -0.14320117218085215 -0.04017943522603673 -0.02062149748076081 -0.04510612047124596 -0.24479353103038193 0.06124186000010923 0.16994351700373045 0.01708655572997486 0.09128785827749653 -0.09208990172177778 -0.026525217765993148 -0.03388914545575972 0.007210997079369008 -0.21288969582587924 0.1992809484800091 0.1992835079760198 -0.04044801503914641 0.0397752184167075 0.08794291945559962 0.041048632750687375 0.10951425775738244 -0.07141125393991388 -0.4847442534100992 0.017305511979884614 0.2253097887422939 -0.09780712687029336 0.11980963544965562 0.28775565355093136 0.08762499662498158 0.04477626390087153 -0.021460031875790264 0.18725266614194425 0.025921143823950388 0.2052063682303924 -0.05183424060203379 -0.05783349663465742 -0.13943006974704986 0.12897291609135664 0.11551541921066644 0.009028342943111056 -0.03245456675904279 0.14434456156925535 -0.12826889013649634 -0.025201159011885466 -0.14319222377298502 0.08983588222326944 -0.07375564067172036 0.08903432952956791 0.0909434225128507 0.23534089524036972 -0.035735689424342354 0.07005932565311923 0.12369685142857634 -0.013107004522851184 -0.09373470940704465 -0.14574854568786577 -0.018377472199517797 0.02614564662940211 -0.07412096305256455 -0.1541702376566434 0.23780189244212124 0.1237190538510049 -0.2692815209466062 0.0846921226948325 -0.15341435677737536 0.07454624021852396 0.011314958637086647 -0.1338975407043108 -0.06906695797840712
30325 0.0030485124956740606 -0.002635874335112476 -0.1447856004274115 -0.05897068945563433 0.08356964412070056 0.03233037415600393 -0.029295587342474505 0.1543401900202852 0.02380952497009048 0.1496485926816007 0.1630624014959423 0.31567820708386307 -0.149981665384729 0.0605003912378379 0.024337643294838784 0.18561757168716042 0.2763525938532325 0.24594717455173054 0.1442809426417 0.2227709631146748 -0.12389103324100148 0.07154240297052183 -0.20031812784349512 -0.15773983241282963 -0.05462654199564554 0.160851250060162 0.08907090658990757 0.320310219152816 -0.09256490172518284 0.15233181222575354 -0.06703020635283252 0.16985079574257167 -0.21222542542659895 -0.054112477938843995 0.1120383927428108 0.22274761393134668 -0.060922834713665 0.094832996614997 0.010880788112444861 -0.052979156862420496 0.0954059835910499 -0.1932903707671585 0.17596718329522787 -0.14474102769239394 -0.23783010469445998 -0.24414064112909273 -0.26034306167574073 0.18745728912784898 -0.001969110846179234 0.07527456714876024 -0.06886946358841328 -0.0341970905815856 -0.04653926344732895 -0.06111103080991853 -0.13338087800372023 0.02673977924872517 0.10024517997078419 0.0037421980282346112 -0.006955538919953597 -0.11507342383606556 -0.1949209600285826 0.06711083208462298 -0.2680495568696415 -0.18183497463803633 0.12292528575623862 0.19379243971320648 0.08037491531888463 0.0848817806302975 0.15941725289914643 0.13935110330660194 0.02978042146797577 0.004798327245865153 0.007025063058790693 -0.1690061896627526 0.033472256195821615 0.12588351517052843 0.2908881760636284 0.03311302367832525 0.05753521746041912 0.049949303231528575 -0.2937744081871756 -0.04652718641958131 -0.1165931490166372 0.11448219722575459 -0.19281382375579703 -0.021190094163969775 -0.24593216676978535 0.031178816865718773 0.03857458875438624 -0.033487589090668735 -0.07157965809952316 -0.12323697086056029 0.30603513520088654 -0.1480830614893449 -0.06547004154787217 0.13457156706943962 -0.007438330062910836 -0.06958019522008385 0.2583560662307143 0.1439221057570279 -0.24210331140551133 -0.05370129103268084 0.24446509720728216 -0.0640677088633197 0.007707674264167963 -0.006199533985686401 0.035705124363673235 -0.0077657515022337975 0.08479240802279264 -0.09198447848839919 0.004009047941792687 -0.21510878003206813 -0.004592870057237519 0.019096716639538158 0.019580825619186726 0.30123149425716633 0.3060536591042933 -0.006008102159078099 0.11358842724919782 -0.01089534161208583 0.009053909440353891 -0.18118052296344445 0.06854612863556042 -0.14669514518550386 -0.12996186989356318 0.05992859760128422 -0.1909787451459124 0.050956703463214126
31308 -0.18515396118164062 0.40883228182792664 -0.25334638357162476 0.32987460494041443 0.21870282292366028 -0.5324963927268982 0.2638484239578247 -0.12265563756227493 0.09873854368925095 -0.12677466869354248 -0.03920552879571915 0.22723770141601562 -0.08702942728996277 0.339347243309021 0.18244223296642303 0.0800425186753273 -0.3236493170261383 -0.09725698083639145 -0.045867737382650375 -0.09741365164518356 0.14653800427913666 -0.13496850430965424 0.34015414118766785 -0.391516774892807 -0.10780180245637894 0.003605039557442069 0.25838038325309753 0.14470863342285156 0.12869976460933685 -0.23453062772750854 0.42254838347435 0.13636387884616852 -0.007947337813675404 0.06893693655729294 -0.1529717594385147 -0.13646340370178223 0.08647564053535461 0.18734729290008545 -0.43675389885902405 0.02868322655558586 -0.200794517993927 0.11637362837791443 0.010800285264849663 -0.05182000994682312 0.3375561833381653 0.2135663628578186 -0.19107775390148163 -0.0075348070822656155 -0.32069796323776245 -0.11506550014019012 -0.23096659779548645 0.07549730688333511 -0.1839214265346527 0.18130798637866974 0.12490269541740417 -0.19821958243846893 -0.01915188878774643 -0.19339756667613983 -0.055462874472141266 0.07353781908750534 0.11286760866641998 -0.3203103542327881 -0.17592568695545197 -0.05041435360908508 -0.09924763441085815 0.04621126502752304 -0.07321099936962128 0.364797443151474 0.025540685281157494 0.06231280416250229 0.1168723776936531 -0.24975831806659698 0.3207697868347168 -0.0762111097574234 -0.01496636588126421 -0.3334127366542816 -0.06270468235015869 0.14532902836799622 -0.036324575543403625 0.29229968786239624 0.08030662685632706 -0.23717595636844635 0.18838274478912354 0.09231413900852203 -0.1416805237531662 0.023143891245126724 0.024992622435092926 0.1393561065196991 0.09144626557826996 0.2759075164794922 0.17068521678447723 -0.38449621200561523 0.03803315758705139 0.2373620718717575 0.4783899784088135 0.04647816717624664 0.1716049313545227 0.12713001668453217 -0.12055282294750214 -0.039498988538980484 -0.16058671474456787 0.32238927483558655 0.13449235260486603 -0.14443835616111755 -0.041193004697561264 -0.2557673752307892 -0.10222799330949783 0.15960004925727844 -0.13074643909931183 0.0901859775185585 -0.19932352006435394 -0.3204857409000397 0.4659966826438904 -0.09062545001506805 0.29614201188087463 -0.028270434588193893 0.13175906240940094 0.11448383331298828 -0.11778875440359116 -0.2179933339357376 -0.16648325324058533 -0.14628174901008606 0.1390455663204193 0.13898427784442902 0.02507343888282776 0.04312124103307724 -0.18117670714855194 0.3400377631187439
31481 -0.09810802859647083 0.09489799997118098 -0.2308377032604767 0.16067041478527244 0.19108103712642333 -0.14555746169571648 0.05286274702211813 -0.41417641546649975 0.13271908903880103 -0.041031330210898886 0.06600385569890932 0.2788020408711418 -0.2357741527260373 0.0018315616889594821 0.07311205539190269 0.2329976647743024 -0.18541531099253916 -0.12774165136033844 -0.09460654629492637 0.06327030510328768 0.3601321779151476 0.04665550618756242 0.00583326957553254 -0.11678700950869825 0.08170469569813577 0.33857307714788476 -0.010548798278250615 -0.06323905462818402 -0.04217770767706952 -0.17376545868182802 0.06194526084345853 0.0984550862267497 0.06923404209896944 0.08561038862899295 0.025365459197814744 0.025684305122922524 -0.11750496346030559 0.08281176984246486 -0.2366430990250592 -0.044997983100074634 0.0781776585336047 -0.07908272952806783 -0.16867495583028358 -0.10661758995615855 0.16747929251141613 0.24365105636434237 -0.021682655316908495 -0.06639291608007625 -0.23272162265107 -0.14532113212771947 -0.1898856678188281 -0.08024665947777976 -0.0763372208311921 0.21048376286489656 0.3862494123295619 0.058697681701232796 0.10774790070172457 -0.1029929748383438 0.021082086146634538 -0.029529027498938376 0.016833053626953642 -0.06526800893607287 0.01766313624148097 -0.08055229691262866 -0.010329759937121707 0.015056409121825709 0.09516384905873565 0.21889329090663523 0.050442286585166585 0.18090883106196998 0.17371189650293672 -0.03880839731027663 -0.016056163196935813 -0.07152516771748196 -0.08236870013388398 0.04079579967583413 0.1348719115330823 -0.12068178159279341 -0.07694027442812512 -0.0061302925610107195 0.023799934932867473 -0.09063445151059568 0.1075050656759231 0.11375719151328667 -0.11584159286070417 -0.06475433845844236 -0.08163251649875747 0.11085103923983297 -0.20684922935834038 0.14618263038937584 0.11720091538336419 -0.273463891557185 0.13613590385648422 0.13616331250705116 0.1569516305999059 -0.024758926243521273 0.04909427584516379 -0.197456351150322 -0.08814632762823749 -0.10001343601197732 -0.1256431470555981 -0.08813694818672957 -0.07302243521598939 -0.05231225094212277 0.11190431140516921 -0.090519232875522 0.10150376192359545 0.1413274293604445 0.08598893662474438 -0.0019954436138505116 -0.0369251905776764 -0.12424652146250992 0.5254894150857581 0.04766172740937691 0.26779483016343875 0.13952702925689664 0.08842164748966752 0.2882365492118879 0.0719697011718381 0.011085102122706303 -0.29576780919342127 -0.16706073561908852 0.0039455378137063235 0.06999065021864226 -0.07635413867501484 0.06329277023723989 -0.005430885739770019 0.1657490899142431
31503 0.05049882099410752 -0.17426611679547932 0.012451910828531254 0.16962376718583982 0.06077800953789847 -0.05171794070338365 0.028453538150643 0.11545943013334181 0.12027030930039473 -0.00564859193036682 0.12853702638221876 0.2794313045887975 0.08216026450099889 0.10576559751643799 -0.003501784522086382 -0.11333787516923621 0.08315608243719907 -0.017493962790467776 0.13527538927155547 0.04069926624651998 0.07182307704351842 0.10178147818078287 -0.04871647810796276 0.016014664819522295 -0.16466354338626843 0.11808538204059005 -0.3167378531798022 0.49272286893574346 0.15908601008413825 0.023765882069710642 -0.05909961721044965 0.24799810186232207 0.10271917036152445 -0.05556498306850699 -0.10715281417651568 -0.007127829972887412 0.12219071701656503 0.11760622150904965 -0.22895104545750655 -0.17757808105670847 0.06382597424089909 -0.020421949287992902 0.144616288744146 0.02214956417446956 -0.02870124316541478 -0.14994073775596917 0.19854285681503825 0.09136383399891201 0.19925652725214604 -0.2432063487904088 0.06778768115327694 0.020048702601343393 -0.0420763649744913 -0.21690219090669416 -0.05765938069089316 0.43483106618805323 -0.08895455542369746 -0.2685439939668868 -0.10825635613582563 0.12893010927655268 -0.14498608542635338 -0.02048876683693379 -0.18735554424711154 0.02671113537508063 0.07876790809677914 -0.1270354057141958 -0.268116588194971 -0.1749258237250615 0.36867640912532806 0.2784980260039447 -0.08305984436810832 -0.21915690126479603 0.1490782078471966 -0.241199947129644 0.22097612941797706 0.19275739789009094 -0.16850572440307587 -0.025278020359110087 -0.21691884609754197 -0.267251527053304 -0.08862430148292333 -0.015406927894218825 0.135178709300817 0.16178426338592544 -0.04676618297162349 -0.07348278193967417 -0.2287477763275092 0.11428317085665185 0.12016617345216218 0.19587556217447855 0.12247717793070478 -0.1471969210979296 0.20059768283681478 0.08667893562233075 0.0891765581638424 0.290271185542224 -0.39490495631616795 -0.2297553009702824 0.125155584391905 0.2580312366480939 0.08329620443691965 -0.21948885657184292 -0.13728298827481922 -0.3732468476810027 -0.34667437135613 0.05803941533667967 0.22546483311452903 -0.04895560542900057 -0.11955642031534808 0.003375029868038837 0.35453957720892504 0.0817474741265869 0.23069200478494167 -0.04647090543585364 -0.2730620783986524 0.12996765078423778 -0.14813285545096733 -0.40849315974628553 -0.08714986919949297 -0.10468629079696257 0.27406845235964283 -0.3039391067577526 -0.02599754985567415 0.04734509304398671 -0.02439165484793193 -0.13863427774049342 -0.22748910142399836 0.3098522124637384
30615 -0.002616415111333481 -0.007430953796074391 -0.19497014826180248 0.23698627759040392 0.09102534320845734 0.09540247723145967 -0.19067435730562465 0.011837641284728306 0.10414768814280251 -0.06558494190176134 -0.22992195276128768 -0.01705647030939872 0.21094073081258102 0.1924121594929602 0.07905468823173578 0.050422465612427914 0.2122891296708076 -0.020002906473337134 0.07393222464634164 0.09374454711360158 0.31040506559293135 0.35159422594006173 -0.17120910664596067 -0.17440116787292936 -0.11911860863438051 0.15579936475569411 0.054493600047862856 0.27527488320811244 -0.0670702173929385 -0.17534939699908136 -0.15115707345466944 -0.11453355085177463 -0.03955403637155541 0.08754002322348242 -0.20355318037945835 0.22155523567198543 0.13521215380751528 -0.2307476167272151 0.11960658097268606 -0.09172640693486755 -0.01258473925463477 0.20248862490916508 -0.20171084644425719 0.14835027940716827 -0.0285824483489705 -0.1339739041759458 -0.2176108069379552 -0.06270503256746451 -0.28783839773677755 -0.2328180153356243 0.09409259074254805 0.2272238707400902 0.0019563650221243734 -0.1364913139186683 -0.07017003630744512 -0.07555634279924561 0.1358263923893901 0.0713716028676572 -0.19219476566286176 0.23096940413597622 -0.03338962927045941 0.25717571179575316 0.1152556153065234 0.07436250397404365 -0.15528664286830463 0.3486818886958645 0.002700812044849954 0.0023791567837179173 -0.08791163542650793 0.0009326226550001593 0.09870079151505706 -0.21421997288416605 0.1579129629117233 0.22898385476855765 -0.030383871644517058 0.11689225601730868 -0.07583114673343516 -0.1304595972453626 -0.004098476362742076 -0.022010591722391837 0.0036069427115421604 -0.09626521201926153 -0.12714485911783413 -0.24098572776483707 -0.09537454892551978 -0.17291365859364305 -0.034641499170902534 0.05131237257410248 -0.17552497006727208 0.11703960471731989 -0.03515316721382078 -0.4174953261326664 0.1667904765890853 -0.08755789340466436 0.01106203522431315 0.23260788987408887 0.0838952161357156 -0.15298565707416856 0.025245072658435674 0.08229653817306826 -0.09552411074946576 0.08023559099819977 -0.07510689072114474 -0.12100809783714794 0.1606896582961781 0.06682551039784812 -0.09505006859762943 0.2712676121145705 0.027450424795461004 -0.24628833113052906 -0.055670116176770534 0.07176741590046731 0.24246928392676637 -0.02140232002511766 0.18496145650215112 -0.06809744969723397 0.22767843585825176 -0.3917848171258811 0.24176232232275652 0.025610086222513928 -0.08472701797654736 -0.2609770957933506 0.3804925664098846 -0.16207470779045252 -0.06523691949951171 -0.08813170030407491 -0.14251337212590443 -0.11411812239447272
31612 -0.08060653903521597 0.33186691300943494 0.020612554624676704 0.0931001827120781 0.13271024552523158 -0.024744779570028186 0.1872767631430179 -0.16881090647075325 0.019559424836188555 0.1231136261485517 0.07767923023493495 0.25900760595686734 0.0424674937967211 0.3272338812239468 0.11162058054469526 -0.09102121856994927 -0.24076687660999596 0.010225742706097662 0.3744981463532895 -0.10553329030517489 -0.05046134092845023 -0.35408035665750504 -0.05243598320521414 -0.10964749660342932 -0.23459597793407738 -0.003362009534612298 -0.07344518089666963 0.14429885242134333 0.27240904240170494 -0.37415944319218397 -0.09875790704973042 0.06099391437601298 -0.266011125408113 0.03548987326212227 0.03439935005735606 -0.16633656783415063 0.2712346762418747 -0.21230609947815537 -0.16109562292695045 -0.13717006472870708 -0.06337096844799817 -0.11685189348645508 -0.3285636641085148 -0.016885507153347135 -0.10068871430121362 0.0685347905382514 0.0661667943932116 0.035739928716793656 0.10255431541008875 -0.15198887209407985 -0.5335178431123495 0.0010240217670798302 -0.11121264012763277 -0.1429798335302621 0.32755883494974114 -0.06016977224498987 0.22302666885661893 0.03504670181428082 -0.2598747843876481 0.2012116622645408 0.07560064108110964 -0.005123059789184481 0.09450237301643938 -0.20569789223372936 0.1276178779953625 0.10213048406876624 0.1638674963178346 -0.05524310783948749 0.04463277372997254 0.15763794304803014 0.08309894218109548 0.17450873227789998 -0.2381293112412095 0.13935090694576502 0.17177832033485174 -0.05142531776800752 -0.09175053791841492 -0.00810274132527411 -0.04498735110973939 0.08162911329418421 -0.14672437845729291 -0.4778023512335494 0.09786902810446918 0.2314021518006939 -0.15973505144938827 -0.13878582150209695 -0.25586832157569006 0.1282152426429093 -0.2246017943834886 0.2646403065882623 -0.12412161839893088 -0.3361468892544508 0.3281435677781701 0.19643148520844989 -0.21873239520937204 -0.016181278973817825 0.31107366748619825 0.12678850372321904 0.015155804809182882 0.0005720846820622683 0.03723560739308596 0.08460089610889554 -0.108549983240664 -0.02813821192830801 0.020130056887865067 0.04047692217864096 0.15336579940048978 -0.15482163056731224 -0.08326651738025248 0.062314958311617374 -0.0022397430730052292 0.17028126516379416 0.10030120611190796 -0.052932572609279305 -0.0609037505928427 -0.021434807684272528 0.012224439997226 -0.058437065163161606 0.051409301813691854 -0.12258287891745567 0.12036114442162216 -0.10650418838486075 -0.21453358205326367 0.3486553430557251 -0.0731800650828518 -0.38085591373965144 -0.19068006562883966 0.006894587189890444
31617 0.09974104398861527 -0.16134727734606713 -0.23798835650086403 -0.04844776168465614 0.32873001880943775 0.12333482317626476 0.17235345393419266 0.061625249683856964 0.055918753845617175 -0.15764317475259304 -0.17520386166870594 0.10726214852184057 0.00601717389508849 0.24152294918894768 0.03573927655816078 0.13735087728127837 0.02578706666827202 -0.183264943305403 0.18496775347739458 0.0006121862679719925 -0.24911509454250336 -0.24831519275903702 0.11517227999866009 0.009861629456281662 -0.2980497367680073 -0.05968002416193485 0.07519648503512144 0.09635979466838762 -0.11468001641333103 -0.08412932232022285 0.3949565589427948 -0.030557455960661173 -0.08575507067143917 0.20727290585637093 -0.08814493741374463 0.3258382026106119 -0.32362695410847664 0.24954458978027105 0.010705960914492607 -0.01932569593191147 -0.060717577405739576 0.1157474759966135 -0.0723036602139473 0.4889921238645911 0.11268714815378189 0.021937167271971703 -0.38818948715925217 0.24299521185457706 0.17123113269917667 0.13527226075530052 0.024099704925902188 -0.19679930730490014 -0.44943587481975555 0.16945650801062584 -0.20403847470879555 -0.08000852912664413 -0.030318880453705788 0.13705916609615088 -0.16878220438957214 -0.07445590244606137 -0.148746807128191 -0.05228904297109693 -0.3092195987701416 -0.05872891843318939 -0.04680339322658256 -0.14822928560897708 0.06473929062485695 -0.4897742085158825 0.06601252080872655 -0.07527730491710827 0.08836110308766365 0.12920257821679115 -0.16835816483944654 0.015462314710021019 0.09880674630403519 -0.11028434336185455 -0.15710450895130634 0.15721463691443205 0.17721271514892578 0.0488624672871083 -0.038535672589205205 -0.3948582112789154 0.017856459133327007 -0.07700374722480774 0.2151980735361576 -0.3373241815716028 0.08396569453179836 -0.08057783544063568 -0.12670686841011047 0.2396880928426981 -0.0941014236304909 -0.2404320240020752 -0.05571648012846708 0.052033339627087116 0.13106709346175194 -0.1767582194879651 0.011496208608150482 -0.2744325306266546 0.10213021328672767 0.12979604862630367 0.2931837849318981 0.0067117647267878056 0.018778398633003235 0.07488156203180552 -0.17794440686702728 -0.03750899899750948 -0.11879029124975204 0.20633112196810544 -0.08618199732154608 -0.33919974509626627 0.016060275956988335 -0.005934387445449829 0.31576839834451675 0.06361653609201312 -0.3493286073207855 -0.1899499010760337 0.031099445186555386 0.022020457312464714 0.002452600747346878 0.11072597373276949 -0.2596265934407711 -0.09586423635482788 0.25302165001630783 0.5294218845665455 -0.060256184078752995 0.15970886498689651 0.21504239737987518 0.25002226419746876
31624 0.04401838788180612 -0.14984770296723582 -0.3881193872221047 0.22959128946422425 0.06363939605580526 -0.18551446806668537 0.2850943837547675 -0.0023719023156445473 0.08363077685862663 0.026106718276423635 -0.04321932409220608 -0.02951722790749045 0.013730864506214857 0.1502035662997514 0.17322085712658009 -0.1401502776898269 0.08822168029837485 0.012187162799818907 -0.09090652610757388 0.14636906244049896 0.009236624282493722 -0.11633416831136856 -0.12617265929111454 0.14156726938381325 -0.0312793547345791 0.04276954015222145 -0.05912812159112946 0.16669592994367122 0.02238767044036649 -0.053345451946370304 -0.06799249013420194 0.09499299680464901 0.13498536868064548 0.02061496245005401 -0.04597964326967485 -0.13722853624494746 -0.051229434604465496 0.12284748812453472 0.13859048888843972 0.10592082465882413 -0.04016211020643823 0.11009098447902943 0.02419905090937391 -0.008421282879680803 -0.056760461562589626 -0.05739027835079469 -0.031290896018617786 -0.01006290200894 -0.22213255996030057 -0.13603614189196378 -0.23294885316863656 -0.07893896056339145 -0.4479399817646481 0.34666002175799804 -0.07565063389483839 0.29462610502378084 -0.32147102471935796 0.1274596105213277 -0.568500125547871 0.07493737077675178 -0.08715494620992104 -0.08688565185002517 -0.08632850056892494 -0.05706102869589813 0.3863948304351652 -0.18936486155871535 -0.10898963045292476 -0.050783349557605106 0.17795326116902288 -0.018288679299985233 -0.11410412670011283 0.26571513889939524 0.17127302814333234 -0.09017583081003977 -0.004632748641597573 -0.054805155712529086 0.06622383477224503 -0.07548027341908892 -0.13424467323420686 0.1329681115321364 0.01622300307280966 -0.2128345312012243 -0.14707773039117455 0.024324492216692306 -0.24026574872550555 -0.20507402940711472 0.028529902801892604 0.25151674007065594 -0.05883033009013161 0.11605766918410154 0.15001123533875216 -0.2048603938310407 -0.07355258123425301 0.014267340044170851 -0.030019901616469724 -0.09986193232180085 0.3690973488955933 -0.11506143523911305 -0.18220587741961936 -0.1728180132813577 -0.1785695943981409 -0.11968370334216161 -0.0770639665206545 -0.09072781520808348 0.0991478361247573 -0.10825809596281033 0.04633640810789075 0.2799763169896323 0.3111066551791737 0.2846809782422497 0.18296819027727906 0.23999279187955835 0.39358854629972484 -0.06227118712558877 -0.057630361183328205 0.06374919007066637 0.010623924303217791 -0.09997188645593269 -0.168808383794385 -0.0832054246639018 -0.011602909121393168 -0.0645588037732523 0.061023204994853586 -0.07385453882761794 -0.21397170012642164 0.1402699350292096 0.041145818162476644 0.10663755224231863
31641 0.08915899392741267 -0.004155584392719902 -0.137453690986149 0.07321850665903185 0.15432465911726467 0.10824312909971923 0.038969935456407256 -0.012567156423756387 0.08955394591612276 -0.0008733929716981947 0.003720488864928484 0.10619368138759455 0.06518805955784046 0.2303715453017503 0.06062970542916446 0.26479614576965105 -0.06561846403928939 -0.10856091033201665 0.021560119654168375 0.018342148599913344 -0.1139403284250875 -0.23270570690510795 0.27607182710198686 0.026469440515938913 -0.28600094886496663 -0.12555260259614442 0.09054894670225622 0.24903386313235387 -0.032914751412590704 -0.211825481717824 0.2276896745315753 -0.023569735487399157 -0.09354648816224653 0.0035841635763063096 -0.12813227553851902 0.09518708472751314 -0.2806487303387257 0.25036860007821815 -0.26372329352307133 -0.01689026691019535 -0.11983887176029384 0.1594997406064067 -0.22547325508639915 0.2751710690645268 0.10942428308771923 -0.05538457243528683 -0.3514960593165597 0.26896763808326796 -0.04456319430755684 0.05478026055789087 -0.1044880906410981 -0.14352946987492032 -0.29141834535403177 -0.012182052917523833 -0.26866842761228327 -0.08860837767133489 0.07872444793974864 0.09775519008690026 -0.2066692797234282 0.008339910928043537 -0.05514747467532288 -0.12483464678007294 -0.34865812853968237 -0.1088168801215943 -0.10852020401216578 -0.04579420275695156 0.05248855122772511 -0.03500243608141318 -0.05167122164129978 -0.04932894454395864 0.07232529527755105 0.23247470443311613 -0.12626380514120683 0.02866510894455132 -0.04252741124946624 0.06264912997721694 -0.13085269265866373 0.13841483629948925 -0.08293736053747125 0.29231621209328296 -0.15025755247552297 -0.30886034771901905 0.17845164639584254 0.10973722157359589 -0.07509226845286321 -0.31117646442726254 -0.009986729171941988 0.039743764344166266 -0.1456939496274572 0.0854247252600544 -0.043828946159919724 -0.16160233125265222 -0.1519237716711359 0.05733983471873216 0.23794712555900333 -0.10601221965043806 0.011373766175893252 -0.009761106979567558 0.031613570215995423 -0.006339735147776082 0.35212278211838566 0.22488408390199766 -0.05625474419139209 0.1385472908441443 0.021481618139659986 -0.25280314846895635 -0.019744795688893646 0.2680541955924127 -0.09769518308712577 -0.1593151043052785 0.08124828586005606 -0.0567096526210662 0.3379001909015642 -0.014726541652635206 -0.3044890597520862 -0.21127474162858562 0.08672946070146281 0.004117599048186094 0.022878824587678537 0.0008776427930570208 -0.2045535436773207 -0.017626672866754234 0.08042033403762616 0.4742955292967963 -0.09590044466312975 0.178756371664349 0.06151251745177433 0.29643382797803497
32467 -0.12215845012877935 -0.2140711880145716 -0.025175766769038432 0.03347743692029326 0.2601699291631121 -0.2591082771515403 0.2561139639926253 0.0046745651369235475 0.13342132399304774 0.23005582281507486 0.05940909282492157 0.15841731600562525 0.06994720404190957 0.25715579152569035 0.09949166782803331 -0.028724492097694565 -0.1855640418651774 -0.3403390362099685 -0.040216885383813405 0.14822490390980647 0.156954085982008 -0.010848607269444699 -0.15344256395587763 -0.13343512348017583 -0.24595512117392104 0.17498209962707278 -0.05293925174157721 0.06267076453940312 0.03769712395160241 0.04581235779944137 0.05149093083434764 0.09534726463587617 -0.11782790245149499 0.1341510305552447 0.11512722624240723 0.010533949650721297 0.14959277230013868 0.2440473439965487 -0.07371160121726916 -0.0003343562112156917 -0.12115456603555685 0.013408552999935708 0.19380212214474568 0.10719152381693675 0.02915029551149928 0.17080772349123663 -0.18750086117508147 0.004739559225470202 -0.06308115899346944 -0.1726378825138397 -0.17631018512286456 -0.35048229468446834 0.07988523522044488 -0.23091081512835054 0.10320768706287708 0.16147787327363972 -0.41509250911360596 -0.0949778281604381 -0.10956622238035862 -0.08813623654708636 -0.183137590117326 0.009722076625649834 -0.1296281741874168 -0.1729512105074491 0.06158145596026543 0.03998731322261051 -0.12031614277725566 -0.15353614107397107 0.16441296701066221 -0.16032707339488184 -0.11425646549120927 0.11476092700956997 0.24742163505592885 0.01403622522269643 0.1539485672465446 0.21264844436461772 0.1330261092198839 -0.012798641526188703 -0.05560354106023624 -0.02713033254678976 0.03119238843031269 -0.1737063565952326 -0.053025731023808476 -0.14905035399988265 -0.16893070436884727 -0.20490319670858526 -0.03442522180630192 -0.2655410510348588 -0.0006091862105108703 0.04624856337268568 0.08641028024128161 -0.3747617495304212 -0.04712234493263168 0.22068850493860737 0.2743396471037727 0.08848518002434957 0.11360814057672997 -0.1473928338539281 -0.12115908900926797 -0.04568350591557646 -0.09624432380097403 0.20842096656392073 0.04850797011357599 0.148323945456184 -0.06391183684574742 -0.1973219196796947 0.18783711989453877 0.0054943017355526536 0.0464043894852324 0.3663250034695693 0.07196925096491213 0.03860674473645531 0.0637199596139908 -0.1374516230501257 0.09825367331842472 -0.02931926644913574 0.14069706909008062 -0.29997093553552645 -0.003294295163026817 -0.04792715067355857 0.04640957343667651 -0.05119895847587941 -0.049782619751198354 -0.02424126928633541 -0.07649651948281644 0.07488572264048798 0.05044918259267206 0.05706388727389822
31953 -0.1913017035694793 0.10985717177391052 -0.30176080943783745 0.35198457539081573 0.21901472518220544 -0.2718117372132838 0.2774340435862541 0.02575300936587155 0.03646951704286039 -0.09859777009114623 0.04410049133002758 0.26597579452209175 0.02423520537558943 -0.011818605475127697 0.28112939931452274 -0.005187341710552573 -0.222978044548654 -0.20156811643391848 0.06653009037836455 0.06813832221087068 0.07486023078672588 -0.060364456847310066 -0.026505309157073498 -0.0661048418842256 -0.23914826940745115 0.15586429834365845 -0.08106384100392461 0.04095825832337141 -0.06778820278123021 -0.32424084283411503 0.2083346515428275 0.17665685445535928 0.015574356482829899 0.2047327752225101 0.12365244887769222 -0.03892103745602071 -0.12364506762241945 0.19476246554404497 -0.09171777847222984 -0.041327044600620866 0.21740931272506714 0.044374859309755266 -0.11616601515561342 0.269433109635429 -0.08861788269132376 0.21022930718027055 -0.09941514139063656 0.09874886134639382 -0.13927676383173093 -0.10407450282946229 -0.006902121938765049 -0.29195441491901875 -0.3541705058887601 0.150313725695014 0.16788993496447802 0.11488195043057203 -0.055597783997654915 -0.16236812578426907 -0.14471530076116323 0.09460491337813437 0.05660982383415103 -0.14955637603998184 -0.04634002363309264 0.01905334769980982 -0.08693852834403515 -0.06414633826352656 -0.15014068223536015 0.1231672908179462 0.08157465219846927 0.1035262065124698 -0.09244227036833763 0.12968165893107653 0.0883536784676835 -0.15674259117804468 -0.18746410973835737 -0.2199547765776515 -0.06217416562139988 0.09088181023253128 -0.11487676517572254 0.2065050103701651 0.09020867524668574 -0.4110514596104622 0.23486606124788523 -0.18750867969356477 -0.10881000431254506 -0.20969191240146756 -0.10178046813234687 -0.031357630468846764 -0.025673952768556774 0.2354146947764093 -0.01086785038933158 -0.13311081560823368 -0.09293728042393923 0.10899502132087946 0.24880727659910917 -0.20591301284730434 0.04778485227143392 -0.16109564621001482 -0.2163938321173191 -0.09783921181224287 -0.10101357894018292 0.38967140670865774 0.1678584571927786 -0.03572569716197904 0.023049867551890202 -0.08724738121964037 -0.07487418118398637 0.13549629040062428 0.11065190099179745 -0.033243207493796945 0.2154049715027213 -0.07793471135664731 0.5008198102004826 -0.19952398678287864 0.040937932397355326 -0.029375973739661276 -0.09110379405319691 0.030417235335335135 0.01939095533452928 0.08847522060386837 -0.0718992124311626 -0.027003228897228837 0.04707969818264246 0.22241853782907128 -0.0957056331099011 0.06964141898788512 -0.061867403259384446 0.15304881997872144
31973 -0.041220043844077736 0.1348647689446807 -0.23533908929675817 -0.10966926635592245 0.26165015413425863 -0.15073637780733407 0.4341948591172695 -0.24649362149648368 0.30261598411016166 -0.004675840260460973 -0.26500747550744563 0.40285853526802384 -0.019816152605926618 0.062113587628118694 -0.10738732852041721 0.05513681494630873 -0.0780875223572366 0.12420076574198902 0.2674110523657873 0.1312432853592327 0.3089993647299707 -0.08461832534521818 -0.13495745186082786 -0.3632706112693995 -0.19579223403707147 0.4092189523798879 -0.1575568972621113 0.12726878805551678 0.19831539143342525 0.1212525964147062 0.344025639584288 0.11103847995400429 -0.3801471656188369 0.21217841695761308 -0.06574109895154834 0.2588812994072214 0.08014871063642204 0.2854376956820488 -0.11566477445012424 0.20654395851306617 -0.3499059295281768 0.09373296069679782 0.21320948051288724 -0.3497501891106367 -0.13923148077446967 0.2804349181242287 -0.19673943612724543 -0.05504793860018253 -0.3082401975989342 -0.325963620794937 -0.3247653115540743 0.045397184847388417 -0.2911153568420559 0.27764667104929686 0.13835829379968345 -0.27474341727793217 0.03150826180353761 -0.2186824232339859 -0.30956941144540906 0.13802024105098099 0.261650035623461 -0.12418757542036474 -0.004254374864103738 0.043746853596530855 -0.36761423706047935 0.260751829482615 -0.10551646072417498 0.3191577516263351 0.018981830216944218 0.05433099064975977 0.28953177272342145 -0.4177161045372486 0.1770916631212458 -0.1924834875680972 -0.1438261434668675 -0.3815481849014759 -0.004226704884786159 0.06398170930333436 -0.30258331703953445 0.13890647870721295 -0.2530839208047837 -0.35777076380327344 -0.020452048629522324 0.16133082579472102 -0.1007108346093446 -0.023963655112311244 -0.05513145343866199 0.2873484992887825 0.17305544950067997 0.44580330594908446 0.24079708172939718 -0.22352867748122662 -0.28706836682977155 0.16259944662306225 0.006586452247574925 0.04273594310507178 0.21691323815230135 0.08586837275652215 -0.015963223471771926 -0.2972946751397103 0.053880389663390815 -0.28048243653029203 -0.05437826819252223 -0.10912990907672793 -0.02644841023720801 -0.016253117937594652 -0.22972312377532944 0.07687769259791821 -0.1484441005741246 0.021829645382240415 -0.17856714129447937 -0.4335666801780462 0.24596999119603424 -0.19848302751779556 0.07888246490620077 -0.17101767846907023 0.2987997210584581 0.11985191656276584 -0.043060931377112865 0.1232092977152206 -0.39808042300865054 -0.2461893637664616 0.030188892036676407 0.2160560057964176 0.22735716251190752 0.022793995798565447 0.024650410283356905 0.437259329482913
31986 0.02613832176325559 -0.006550419805535057 -0.06613937127804093 0.12367175323925039 -0.03638913878239691 0.13402272772509605 0.1277102246076538 -0.1092074561629488 0.22593173084260343 0.10590140255226288 -0.000415559574321378 0.19582748057268873 -0.0472240260005492 -0.09019836339166432 -0.20791111942548923 0.037601388246457645 -0.08837778280394559 -0.10289381410302667 0.09297973663660741 -0.12713401794940182 0.13329037077619432 -0.06884568027089699 -0.08271267136296956 -0.19857772118393768 0.07401190800919721 0.11646576441307843 0.024961396367871203 -0.034112445456003115 0.1377715788585192 0.11569766916932167 -0.23504272642821888 0.12365143647093646 -0.0454498108192638 0.09868111202467844 0.06467213170049035 0.021950857380033995 0.13689867250286625 -0.08972452944453835 -0.045761385954506295 -0.20270623574651836 -0.15668377049769333 -0.26163413135287783 0.08967210717162288 0.359656312606603 -0.10467983850685414 0.08407865434855921 -0.08348424501127738 0.17630518777150428 -0.02006731135975315 0.11958510033707626 -0.1843898941297084 -0.46374187237415754 -0.022344052811604342 0.13103565103074288 0.02248589674672985 0.23291268970569945 0.06192830234158464 -0.24277600604386862 -0.00439593342491662 -0.013301327564022358 -0.17631903452092956 0.02275131380520179 -0.14469042078218308 -0.005960155017813662 0.18924170647733263 0.21375196190274437 0.0344495980029933 0.2793876222003746 -0.13634333039385638 -0.3595203870536352 -0.1414300389287746 0.0031078088613867294 -0.22539612345190108 0.028348319686983814 0.007363965078184265 0.08391992002987081 -0.1712341165448379 0.10261388738399546 -0.14599299176506975 0.23496120303207135 -0.16523384402535157 -0.4990728034663334 0.04587278333542599 0.1425741528510116 -0.19100281748751513 -0.025849715118965833 -0.11694616823842807 0.23930003427085467 0.14325440620814334 0.05337432102714956 0.04063687641701108 0.0050008401385639445 -0.001242175765810316 -0.10068755946576857 -0.028175003926662612 0.049066221022940226 0.013990974015086977 0.1952034942796672 -0.09182865339425916 0.06590322699958051 0.08780446839227807 -0.045924533493234776 -0.03492984978220193 -0.12508167706619133 -0.06766201181881115 -0.09597754688729765 0.09638985282674639 0.04615186558203277 -0.18138489754528564 -0.09289424449571015 0.05865526341585792 0.18544179572404573 0.16751804141131288 0.2496490211924538 0.0404011893497227 -0.15065597508692008 0.26736112010439683 -0.1001699749067484 0.22877238485671114 -0.0363124963946575 0.07960707818747892 -0.1279549920491263 0.14348914453375983 -0.01779699869689466 0.0186135451467635 -0.12567067471263726 -0.17252525569119825 0.24342828436306263
31995 -0.03572330089082243 -0.01008655996156449 -0.1971792773965717 0.17080021607858953 0.06666607315196416 -0.038205593096790835 0.10383074358469457 -0.0808139448795373 0.16357812070054933 0.03553992430533981 -0.007822206818218547 0.19797499267588137 -0.05791717197644175 -0.01253608300612541 -0.036874179502774496 0.007689670328545617 -0.12585998019130784 0.12243735546508105 0.09050234475398611 0.09033319491209113 -0.10046799150131847 -0.08441188584220072 0.12105920592875918 0.012002781106275506 -0.13081815242003358 0.003420651015403564 0.32138682524004025 0.024668575493706157 0.10473244139211602 -0.061597369211085606 0.10677153603319312 0.1459201000034227 -0.18557634325043182 -0.033334791398374364 -0.09692324775119232 0.0004700561512436252 -0.2565665322390487 0.15994454681458592 -0.11499704559537349 -0.12309640601870342 -0.26458843607542804 0.04842879502393771 -0.06300086720875697 0.22525432749534957 -0.12967586880165527 -0.10532431408276466 -0.1578708357958476 0.16781122110842261 -0.12205809830629732 -0.31706117935573275 -0.08382114951200492 -0.08228423315813416 -0.12410686642397195 0.05991397261823295 0.09973725629606633 0.06372042113071075 -0.21357704345837192 0.10233780519047286 -0.34091817308217287 0.1662971814002958 -0.17564848249264742 -0.08991913461886725 -0.3415581833141914 0.03851104979548836 0.03070904222477111 -0.04940016182990803 0.2603320468479069 -0.19837487031691126 0.06369547262681863 -0.1625874376768479 0.13629877873609075 0.06701991545924102 -0.13845716528157936 0.14678391928464407 0.020457287781255218 -0.07610168444261944 0.00477639377459127 0.10790319337320398 0.006863472738928067 0.2334020289866885 0.19599973764707102 -0.2549627220992079 0.11354797997228161 0.07053686666768044 0.11021120539589901 -0.08698024439945584 0.0956702683124604 -0.10848376470676158 0.04914125626260102 0.08283058581582736 -0.14071227399108466 -0.1031905817144434 0.15647200573948794 -0.06296537051093765 0.24709924405397032 0.044699389563902514 0.2245757029777451 -0.10290016898215981 -0.11660697556908417 0.37707384265650035 0.34343369353609887 0.14316078149749956 -0.12471163375448668 0.026614696311298758 -0.30310850394744193 -0.0422260764710245 0.005274953571642982 -0.018349137404584326 0.09555826180439908 0.0463180346991976 0.029604288928567257 -0.09541222506959457 0.5630120019905007 0.16015380260068923 -0.15979586929961442 -0.06594767170099658 0.13471195222655297 -0.010053702686491306 0.1399044486170169 -0.09902809703999083 0.04400347018372486 -0.03030619159261505 -0.15764349162418512 0.29621136067635234 -0.2278267513611354 0.16035111805103952 0.0570798839253257 0.07041755641148484
