416 128
30397 -0.2074337712939478 0.13201537593910806 0.09025474584510462 -0.16050936706437136 -0.09213911061182145 -0.11006562555230193 0.07501984327075412 0.2687345136183037 -0.04107905301023601 -0.1476116421101732 0.1391886926833532 -0.057736940364490286 -0.025321268172049827 0.15662865628259315 0.008822500881947803 -0.018805868973575834 -0.06054243287121608 -0.08041966968536857 -0.011087640051677505 0.20553708251889913 0.18997126538182663 0.09984272388573578 -0.12684123023459293 -0.20067336050369988 0.14026629236513344 -0.20566851004597408 0.09038366307664614 0.07741254059993868 0.004774181650154752 -0.07187528356435746 -0.016450598001787498 0.004002138993311144 -0.11626663477772858 0.08588776219360961 -0.3001246407467919 -0.0008177984301100949 0.15506069161386093 0.19010907465074478 -0.21302252447018954 0.09105228922911035 0.011884872263733026 -0.09277634879964158 0.04189404722878953 0.29816599858186876 0.2953061532639545 0.22845997771621995 -0.1982215633433808 0.10046381457011368 -0.07925200789259179 0.16096732458143848 -0.1041538665132177 -0.07896373355657094 -0.013485068667970168 0.1965719964201258 0.1743588186319407 -0.3473574415887519 0.04430424554419865 -0.008431242694296515 -0.1348759908027901 -0.2917244518210138 0.020954447871898374 0.23139711638487404 0.11006826513572698 -0.08390062223356298 -0.16835361426787365 0.1606725147593444 -0.2616899846995775 0.20495096998579143 -0.21709395228543094 0.10256843434387619 -0.1520135158071576 0.13737667772321593 -0.0497784063956459 0.024017000988772574 -0.178669701400338 0.07501195328537413 0.07422034592137194 -0.08958436374566148 -0.018789049872864894 -0.01381299036038186 -0.13106039784449086 0.15375592252056158 -0.07248632884994688 0.2607972374099343 0.06027428555085734 -0.23265767831647022 -0.18175208582384528 0.046145538643342476 0.012538424867408082 -0.0371124618343579 -0.009358688613023247 -0.2437754907852394 -0.04098716076415912 0.25238528834149765 0.062204532547220914 0.34516317480055103 -0.03631643728052936 0.26447234661430863 0.047780078312328556 0.10834442052937288 -0.0492363322526117 0.011922949898330426 -0.08198751560163586 0.15681537431401704 0.10452271425443005 -0.06133617449258377 -0.035787361017022935 -0.16962934213236958 0.012769264413893922 -0.0019225837476373187 0.17437332729133637 -0.0472689434931155 -0.014255289635230817 -0.17900800937969574 0.11106897221519763 -0.03296684048759957 -0.07742288383876694 -0.03990415972280292 -0.08113193109375061 0.04563238486227306 0.05104382612701208 0.1201074788758465 -0.13376692724763117 0.005477013350710047 0.047206268589920164 -0.19635086878754215 0.033479281405763395 -0.08276471165310628
30423 -0.14927672823625215 0.09611260134457211 0.012002394531464233 -0.01324453559860217 -0.08719412707307583 -0.09230058650021533 0.13857327610554648 0.16928205611193903 0.04792340228934222 -0.048078804571154876 -0.15682256530407557 -0.0492840655012694 -0.029741100349724547 0.2616954124587636 -0.10962100916154327 0.14381492083711578 -0.283311598349826 -0.20774914803064348 0.002534219412450689 -0.08286253836918789 -0.0739665135707126 0.043180271096275646 -0.08740024397343493 -0.32505892747661846 -0.2368554226916899 -0.16258750678443334 0.12764706253802416 0.0022687724613774662 0.1470778450188548 -0.10748517902852583 -0.059702508490943274 0.03937712751604039 -0.00656966528035241 -0.022914121801534293 0.24970346807498345 0.100148535052071 -0.0021285811281792633 -0.11956033265663635 -0.2526585089499722 0.18525120645744053 0.09032932007038852 0.026831590989779386 -0.18999646051739205 0.054380740523207294 -0.2773810647951169 -0.11330978673586856 -0.18306251579897292 0.15152108859153657 -0.13180341176865795 0.12182657178104606 -0.06214741999822071 -0.1241406159855174 0.10078130088233195 0.3337735664835719 0.05431965973351893 -0.042421914410532224 0.17085529964815294 -0.24377679668242536 0.0888023650017189 -0.14074610753882322 0.0013804698789634529 0.17742939393707502 0.062139358563442215 -0.14934669444977544 0.1169459332321594 -0.13312842950637105 -0.09319005260036306 0.1026220759431169 0.09947615280830746 0.1909015598302659 0.11614804069463247 -0.2139430352795556 -0.18111820352440589 0.2998276212067168 0.11273186527925816 -0.13217743578387342 -0.01488393641476815 -0.03240813715274271 0.018224414063922723 -0.10255812377025997 0.10568035164442335 0.10549516723148145 -0.08267299519980753 -0.05100126171343211 -0.018140978952327913 0.15499253337380914 0.06028102569936067 -0.18533656174471957 -0.11755157504907743 -0.1293394946058246 0.026464832521637227 0.06950024300672908 -0.07036696658902741 0.026767194846001985 -0.08703628010145081 0.12698151308057604 0.004004355169584528 0.2304740835040846 0.174405292822172 -0.20608569162956059 -0.2555088720241372 0.028349022050072392 -0.0340911358366327 0.08198196498284283 -0.3591540172072172 0.12048414285435882 -0.3824323240588683 0.10676941629493797 -0.13538918412241507 -0.012131295322378666 -0.2059040944388002 0.18585494592278984 0.14350770660315249 0.1534493665807517 0.15409973046446623 0.41496068305501943 0.04329100829405519 -0.33341855842832047 -0.15538938419057047 -0.01810109127559878 0.09567292090649104 -0.021658017629203385 -0.21442596039244677 -0.13144135813668356 -0.14365176868283802 -0.02043650789132556 -0.05767440877029273 -0.022286028718148998
30599 0.1580185341580318 0.08415424760454826 -0.014844731288803814 -0.027785509025775923 0.13186467018138615 -0.24832032918371283 0.0010845263571468422 0.16046448283458403 0.17026043258388768 0.003656003001225372 -0.289679915602461 0.26234484337312125 -0.12155673174356707 0.07057340086782915 0.10656048718442435 0.07594832136518193 -0.060556549010129856 -0.021003811358752955 0.09007619286838775 0.008374759887601613 -0.11578963948693399 0.03014740847140729 -0.022888599850631408 -0.29924184575247637 0.06021918528312398 -0.08258467837265471 -0.09891640402234714 0.0020633311506088603 0.19418393275589807 -0.12110230076808648 0.0876712376112323 -0.2435188383146425 -0.0927683721934045 0.1268093069090952 -0.26275070947411905 -0.07315292675815499 -0.008601816736245382 0.06809672408893164 -0.11755776769965953 -0.045566681169603385 -0.008878867917360367 0.3164659123119691 -0.12225436489939057 0.11102762019205414 0.39702746680040946 0.17685208054513168 0.0883952764810374 0.06056386398761049 -0.09471522457340598 -0.0509297728178808 -0.2938162707202423 0.2286945143421235 0.0625794739860197 0.18303384525484034 -0.015863652900407033 -0.10185554614430004 0.168335744573767 -0.04119951170434888 0.15091153292547688 -0.21427252256171414 -0.023152405556515987 0.17824904446638357 0.10279154386535083 -0.16386284553666997 -0.04802372323229065 -0.04504718144013964 0.013335945925234682 0.11332501897686598 -0.0454125728292496 -0.09774428866300156 0.11275094003690356 -0.008600456377379828 -0.15230629654338657 -0.09064672262302054 -0.09362352684524922 -0.032965208834042414 -0.15036170300253104 -0.10106454251189234 0.04545509402520054 0.27927157318271156 -0.13599313015106418 0.02233863610030795 0.15194899031632758 -0.1564822516139941 0.2673227734371739 -0.10985699442892383 0.04230188308886795 0.10607159602295724 0.08121816731136278 0.14139000814543579 0.11243451481448119 0.04105396133691386 -0.1881056428898944 -0.0022587639846847196 0.005332118980220457 0.005456255015815259 -0.13716431709238464 -0.15561990822811822 0.08724305010611033 0.10151533266150636 -0.2731717182984852 -0.1718551880458108 0.1706937549340637 -0.033406003214793145 0.10367911458557444 0.1655595636054521 -0.29823847594065 0.07775690649867073 0.08272334666292591 0.049357562010527545 0.11890160212800538 0.08351374129938449 -0.04978119282850457 -0.10358544487084487 -0.05443349700365374 0.01111857150143436 -0.09255803966345866 -0.14435236372554527 0.14202157116739045 0.1925392918877833 -0.08405550085836921 0.10054883331271469 -0.13283025482326138 0.06028379251563365 -0.1236959042687431 -0.10270434665517314 0.05700562959989952 -0.0026797149649411267
35249 -0.023676477547269315 0.18241687497356907 -0.15229560137959197 0.1331278097932227 0.007944183540530503 0.12780432443832979 -0.06669048017647583 -0.01612734654918313 0.18691695830784738 -0.10516145123256138 0.06961303541902453 -0.18087584408931434 -0.11542914097663015 0.08467209269292653 -0.12964522984111682 -0.07147832519922304 0.06335284918895923 0.18826624215580523 -0.11342347541358322 0.10606000173720531 -0.061083978798706084 0.22128400072688237 -0.04860501579241827 -0.12644359731348231 0.06689827794616576 -0.12608931749127805 -0.08226378174731508 0.05284235766157508 0.19236547268133108 -0.04404071700992063 0.14647584201884456 -0.1913018082268536 -0.3759482618770562 0.15264250594191253 -0.32871092297136784 -0.23618317977525294 0.07456635741982609 0.009751823847182095 -0.17433656824869104 -0.15950319328112528 0.211157611804083 0.16089326760265976 -0.18083482142537832 -0.0726754431379959 0.18847298552282155 0.32870216079754755 -0.03483523245085962 -0.04033680220891256 -0.007460873312084004 -0.24643705500056967 -0.2438248084508814 0.03441475273575634 0.1837174923857674 0.06935206722118892 0.04675940959714353 -0.016872386971954256 0.13111398764885962 0.13567437487654388 0.1934901005588472 -0.2468729678366799 -0.05875216667482164 0.3296328178839758 0.19928517926018685 0.023116409211070277 0.04674220929155126 -0.17502155204419978 -0.0527059008309152 0.13541043089935556 0.15033391653560102 -0.14155599346850067 0.038521333190146834 -0.10163857665611431 -0.1646704269805923 -0.004132283735089004 -0.019910942297428846 -0.07169244449323742 0.042235767366946675 -0.1319138536346145 -0.13872973702382296 0.33489897986873984 -0.1067727658955846 0.2459982885811769 0.08692440806593282 -0.004950628070218954 0.19600074592744932 -0.37372693000361323 -0.10978800570592284 0.04135751334251836 0.05927493271883577 0.05613364314194769 0.12883482640609145 0.1981733897991944 -0.08334043661307078 0.13967598194722086 0.07700912700966 0.13286268583033234 -0.21116930805146694 0.001228260574862361 0.0956018850847613 0.14570037912926637 -0.052681135552120395 0.174979835486738 -0.23786502634175122 -0.08480172060080804 0.0493015656247735 0.10619003663305193 -0.062352538749109954 0.002332257354282774 0.14597675256663933 -0.06683731958037242 0.008456336596282199 -0.33364401949802414 0.012035540421493351 -0.07213628728641197 -0.08729350843350403 0.4884634697227739 -0.2554580695577897 -0.20034328155452386 -0.16389749059453607 -0.10193044738844037 -0.012807488819817081 -0.013140656985342503 -0.04798422477324493 0.04280099365860224 0.25381974689662457 -0.18903050682274625 0.06266133429016918 0.049918993026949465
34653 -0.11342413137828089 -0.2073605405720329 -0.06860633384528114 -0.11929071563946536 -0.03262730545452541 -0.12508937695565692 -0.19954311310172557 0.15758957145399677 -0.20279274789317014 0.3150718315842749 -0.22241810679431495 -0.17628415081220083 -0.11498144375065067 0.1613988480671651 0.07097206032659642 -0.08767709965831472 -0.2540421417913876 -0.20562830226583984 -0.14558730603064873 -0.07634407528348675 -0.1661900638307543 0.07059945503715426 -0.2271570232759732 -0.13969414306194583 -0.3628015790099539 -0.09010944521170217 -0.003225996858674307 -0.1585537276145601 0.06810120647492113 0.08784201322202989 -0.10277781101831351 -0.1415702249566948 -0.06014525483624311 0.1875894786404615 0.05111987998611767 -0.14410213269596284 0.12094055309285068 -0.020073587614753308 0.00095063940767659 0.05623127926833149 -0.00891698676281294 0.22562881250473765 -0.005953856192093099 0.18277652600136207 -0.0362376867394687 -0.18838724433231846 0.2140896651162194 0.21820243241258463 0.033567216376184206 -0.12313438630627616 0.12254150806185748 0.00273869114118952 0.03796433635099561 -0.060828632749291955 -0.08517123091388612 -0.2301284486637769 0.08220432839715386 0.22124026550704912 0.12345032921000154 -0.053222766253952614 0.16913406999805147 0.16065935615665694 -0.1362370817482894 -0.16293908295563142 -0.05833775552076759 0.12307329846618131 0.05798357044185565 0.06939088065432486 -0.1297791255471168 0.19182848631760407 0.019258722669803774 0.023797501560125056 0.04358442726834255 0.27756081472318783 -0.2260491209854507 -0.14769098342560483 -0.0824612664020492 -0.089749664879605 -0.27122954224478235 -0.02186231607197442 -0.07945445394616968 -0.3656119169302201 -0.14179430704710327 -0.06891213625590353 -0.1763209432697579 -0.2952696784205955 0.026347043850648788 0.03369218629381976 -0.1379133235462291 -0.1313607345400385 0.043459403574331645 0.14920976986877577 0.11157560101662511 -0.09857180290564393 -0.02273704000803134 0.2668574105597372 0.11840621152077802 -0.06989040634368848 0.041403476090767555 0.3298639080585417 -0.03577393140017193 -0.15327125419333498 0.06281739961207222 -0.12660930806714532 -0.025452268486368723 -0.019296924093509915 0.037861503936369445 -0.08353772792028735 -0.10212355072815171 0.022676434238860566 -0.09309642072733482 -0.08087783442877594 0.1386680845267989 0.10994006221110908 -0.006573013972285935 0.3280071770820143 -0.14859454119715565 -0.3126977027871476 -0.16461061980920988 0.11956540714885477 -0.02324309656137835 0.06922296512603054 0.011364657353567509 0.07760843638806136 0.02071493767107313 -0.24932218901514602 -0.12274021945989944 0.20649605575779617
35412 0.10941331870927229 0.38508593721752504 -0.05063456558798407 -0.19792869890534348 -0.02830872404172169 -0.19988465509629805 -0.03999495648275797 0.11965885331926529 0.17315101339050898 -0.3019114982573683 -0.16484232063385207 0.07175327582726254 -0.08346014969600901 0.3159383394395263 0.02512665418873894 0.20739069499146012 -0.1941206941071414 -0.156127193603254 0.21299874766833682 0.11409215447151766 0.0428667303187531 0.14143925426571968 -0.08820045746335836 -0.1445396122217062 -0.1689781751947521 -0.04760346678631322 -0.035202416737979636 -0.06903394390758422 0.11185380861934391 -0.242831027045753 -0.1691488076096448 -0.03413631086047886 -0.07674756924635062 0.041705936150719936 -0.2686161950409769 -0.08007820214685069 0.16960256548020425 0.09449941516203353 -0.25352148872380553 -0.07615226555071786 -0.15210878286580964 0.11264150293274611 -0.08165267512643481 0.14146375297536906 0.238665945273155 0.0774450102683204 0.08592200711224507 -0.16777075666470864 -0.012959682659015925 -0.15418347882122418 -0.027695051623709332 0.15728287037881117 0.12531287798452695 0.02752772306351403 -0.15032742567154855 -0.12109424851761474 0.21751834462850184 -0.053977810240624535 0.0809444780450832 -0.15196691190777756 0.04090166005687479 0.06539649176401774 0.3437151475667406 0.1353118725024558 0.05359706614922288 -0.1526903973528171 -0.02644926636941136 0.3399188260074766 -0.07990219314484648 -0.08160784713692237 0.12725858439906723 0.00814365847645604 -0.03628326519856273 -0.0504460408076568 -0.07342931913101403 0.2221132653092468 -0.18465310194073936 -0.1684104268230442 -0.10046028366991777 -0.04866176970389802 0.07469645183334706 -0.07631922326527274 0.11644439092128778 -0.21424605589595558 0.009808787558085896 -0.06119870347623646 -0.08450508828664738 -0.014963550777338241 0.056850656904998687 -0.03201775202126811 -0.0044961782413110996 0.03611384236522497 -0.04956702785705147 0.09826338242510957 0.03035405154976445 -0.0013055750725499138 0.12170468611213892 -0.11279820521872352 -0.03718332756488962 -0.15360867390080557 0.029031077296508556 -0.18021179947254495 -0.04810160479217984 0.02557288520830525 0.22485573582139295 -0.17792204578762494 -0.042536574611119704 0.12895597526494385 0.10306968453278387 -0.09361670805128597 -0.0881349200848831 -0.13302204350122793 0.08343545664104113 0.0006047554343240336 0.07965002221851591 0.2631077350349642 -0.047481511192948744 0.23849487718254636 -0.014647061753425561 0.008931115022207337 -0.19432847697481748 0.03236567973669935 0.2235820808449489 -0.005690725527955465 0.17332134861021586 0.05276987054904225 0.07663415862583633 -0.0694209436028359
31834 -0.10950585434045479 -0.09861266552377401 0.06124615553540025 0.05576998422014867 -0.0066939741659552965 -0.08150594184780857 0.23929992412467982 0.10470295923653339 -0.13129389119467305 0.23287769623706822 0.04104374352709783 0.024796482140345688 -0.07300955008804522 0.14600152227917818 0.012595371559655177 -0.013238972858289344 -0.16046013620371014 -0.2898642526047297 -0.05575483542816073 0.124483723309595 -0.23447525491769738 -0.107482344237809 -0.10485536138730822 -0.14332686473312606 -0.3997834010142469 -0.018567428215192194 -0.013718763009819668 0.0936603143877619 0.14697605943595704 0.08597742991339175 -0.20976880863759106 -0.0188120803777565 0.05507101244677415 0.26719740179237306 -0.08727305761749449 -0.07027866563828411 0.3275577323317975 0.10461610309846492 -0.08707695104163804 -0.08286529133533804 0.09969938630638353 0.10623639744642333 0.0031741102094429152 -0.026500490336900384 0.01048251235471298 -0.17592844477917424 0.29841751189633214 0.19013997786555592 -0.058923181609692676 -0.10316951903052995 -0.05876758458953191 0.05403835549975611 -0.13936640856263693 0.1878603049422054 0.22826688778604876 -0.21204905185845746 0.03542035860800752 0.20792704207201496 0.2927202691648745 -0.09654380423732789 0.12151046257213238 0.15950186671898336 -0.03416084721629886 0.1428112500716452 -0.008672531106128645 0.21508620225085906 -0.015539421042376489 0.13749046108841867 -0.13453415060575935 -0.00023033888476220454 0.12751950525762368 -0.028281955272404957 0.025723472268509795 0.11803058225873997 -0.13828847147442502 -0.24136782697769377 0.021844466321454092 -0.06431041319297037 0.041718231339928025 -0.07129878549699242 0.0787565187549717 0.09151522304773607 -0.21414674536617895 -0.22573538121241654 0.07628764244498143 -0.04647424868994676 -0.06523237562032591 -0.12523675690181335 -0.26094855708493014 0.03371345553220095 0.16013815601354509 0.09506069873918932 0.14485499320517192 -0.06302167773901601 0.08371312492204197 0.08570912097411565 -0.016221134962847827 -0.32224028764360924 0.18823142060193732 0.18960890690038923 0.11482775389538347 -0.15580765833340138 -0.2136482379469271 0.13840148572353428 0.01508439572307907 -0.04696223480942763 -0.13163532826865776 -0.21014741428984962 0.0006938461488061876 0.0783465768968199 -0.06787525641652792 -0.10794677737067104 0.2548969547806337 -0.03294291608943922 -0.03745234908956263 0.1328121837946128 -0.03901611265678184 -0.1695916879343713 -0.027956746261963872 0.10401056733428504 -0.07878630864161096 -0.17895055937378856 -0.14752505032538465 0.3449614720611862 -0.10596477259605308 -0.04342844835218784 -0.22634885497700452 -0.07021225562039035
30685 -0.15141120203770697 0.09071908378973603 0.10176077077630907 0.15313516510650516 -0.2066667653270997 -0.0032586552551947534 -0.1341754337772727 0.26983356242999434 -0.14242413034662604 0.047970919287763536 0.03937826293986291 -0.011761408371967264 -0.28385521065138164 -0.09797075390815735 0.18388609844259918 0.10272375916247256 -0.02280621707905084 0.13427792926086113 -0.1519931610673666 0.007715125277172774 -0.1436807350255549 0.28869064766331576 -0.09219742129789665 -0.1404632519115694 -0.2263414985500276 -0.3529372166376561 0.08703313104342669 0.06156161497347057 -0.09561612247489393 -0.05934436386451125 -0.13646136119496077 -0.1009619676915463 -0.2727342383004725 0.16269597981590778 -0.12376468803267926 0.2254175776615739 0.14177857601316646 0.057520716334693134 -0.4158406723290682 0.36288486421108246 0.06855486550193746 0.058506230590865016 -0.01105685846414417 0.43174885073676705 0.15838265069760382 0.25830499758012593 -0.06272179482039064 0.2044252729974687 -0.30405098758637905 -0.16593628589180298 0.08678755501750857 0.042359491519164294 -0.15493108809459955 -0.18302169837988913 0.13984446646645665 -0.18681867682607844 0.09921619365923107 0.0592678536195308 0.07382573471113574 0.12344186357222497 0.11147187720052898 0.20095896263592294 0.11319084279239178 0.22492963366676122 0.016190832015126944 -0.17840893645916367 -0.07440691147348844 -0.09133885777555406 -0.18143588124075904 0.18451153463684022 0.054846275015734136 0.1947057478246279 0.08808662230148911 0.22742336004739627 -0.16243129456415772 0.16725858114659786 0.12122936686500907 -0.18273685569874942 -0.03370784647995606 0.09129383298568428 -0.3645296747563407 -0.02376515546347946 -0.10020812880247831 -0.08813620393630117 0.14445716013142373 -0.04456318146549165 -0.1987869688309729 0.04859020479489118 -0.04746045870706439 0.2553063001250848 0.17869953834451735 0.15342510750633664 -0.2927821888588369 -0.217917338013649 -0.13945053482893854 -0.053536430932581425 0.3198412605561316 -0.17151635908521712 0.32229365152306855 -0.07368773489724845 -0.09434523817617446 -0.12174105900339782 -0.015211735619232059 0.3022648566402495 0.18575908918865025 0.3398482068441808 0.038661154787405394 0.07165207285652286 0.09475492709316313 -0.03613675007363781 -0.20157219865359366 0.10093003281508572 -0.1226455670548603 0.11641457350924611 0.29756480595096946 -0.03747255440976005 -0.0061158116441220045 0.13695553923025727 -0.31056704092770815 0.009455248495214619 0.03913326050678734 -0.31849378085462376 -0.18538944679312408 0.08178528072312474 0.17849103681510314 0.09355380083434284 0.07028789329342544 -0.22741685225628316
30693 0.03485493418694574 -0.04947954113612951 0.06397698884465564 -0.11619289863962479 0.15159504961643933 -0.21360105896707182 -0.2108595113639069 0.10661769667037646 0.003129631879383865 -0.2815328314465326 -0.037789076637411156 0.27664222158171725 0.00934897602336715 0.1768890898689932 -0.09524596863381696 0.1550579070917948 -0.288268870694381 -0.047033927761056304 -0.15688820937385373 0.08819223501973283 0.05627128978089502 -0.14699830226164146 -0.1788099864657191 -0.1668163171349386 0.20545758567340755 -0.07304548133963884 -0.18550329366499163 0.026701200676285453 0.05148596015443019 -0.3402755985559791 0.17259315901758754 0.3138810483182457 -0.1538963603620156 0.014320557433975978 -0.2907089831569536 -0.03159950295204794 0.1404470841614298 0.08840292802318217 -0.16546117072633848 0.10384574164666915 -0.0010057266624627914 0.2011875904841247 0.16357037599162538 0.010875090232814522 0.22352228450042588 0.14140351538656404 0.06748310948490399 -0.022322824849172918 0.029052229740420543 0.10858803058071942 0.027384771713059308 -0.21093807325441816 0.05759445982580047 -0.15625721852151742 -0.11861513738206497 -0.17424847804285548 -0.06104984358529464 -0.034418348104541696 0.09390998019500874 -0.14224510469508544 0.01085607527730481 -0.04430859366483464 0.03713132571380573 0.19079160696826847 0.012691242303187522 -0.1748851736549364 -0.08913230328849897 0.03999420776149254 -0.22452658650511736 0.0030649261560888874 0.03661413781892087 -0.07405099275248705 -0.069024264699312 0.286456031995197 0.01258382517466572 -0.1528825066326842 0.03140741671274583 -0.1694760367042072 -0.08742811242548676 0.077729336995219 -0.007564996851343153 0.03125982004274164 -0.16692721605708272 -0.27602830597506767 0.001133469236361151 -0.11388138136063475 -0.14574276597588387 0.07634195949691147 -0.05690843491123232 0.028497796213066806 0.17033544018795244 0.13712178109841489 -0.29459051483788024 -0.03721083254656854 -0.05695161747750799 -0.03792201350630364 0.1221082442024759 0.044684952832438896 -0.09470335675629649 -0.015818191381207214 -0.22100170049877832 -0.24638544821722252 -0.09389831991763486 -0.09527827804564026 -0.10159899002094974 -0.03262128373162909 0.03308890560614941 0.2284119499012372 -0.090551900228661 -0.12301096080656038 0.18066249133727297 -0.024832082528646993 0.0911620368742021 0.20850395189590643 -0.07418436340868784 0.06279648496243695 0.07200002750231249 -0.38654268734956787 0.04235099913566287 0.1358073044467485 -0.05632672901705149 0.1329022173061709 -0.1583102011779971 -0.09367921394601808 0.10633381519366214 0.04245165041759691 -0.1546796936990802 -0.20327934162234415
30781 -0.13043975368782412 0.23111318470910192 -0.14821694407146424 -0.002801534137688577 0.2143121501430869 -0.145404606271768 0.09085413860157132 0.22632799670100212 0.04677707934752107 -0.05967824021354318 0.03686813451349735 0.21108564920723438 -0.018937873654067516 0.06587404571473598 -0.25322099030017853 0.22884084843099117 -0.04537664396048058 -0.12505045405123383 0.21838757954537868 0.13692888454534113 -0.2510416805744171 -0.033424280234612525 -0.2008407050743699 -0.1466759596951306 0.0015364158898591995 0.07022463716566563 -0.1071899002417922 -0.2645196486264467 0.11170783592388034 -0.022670814068987966 0.1056112174410373 -0.0879625752568245 0.08722900017164648 0.07146612246287987 -0.14687272254377604 0.16067591489991173 -0.1253797325771302 0.1408202056773007 -0.2235656613484025 0.020391068421304226 -0.18992847949266434 0.1065876892535016 -0.045258172052854206 0.26151719130575657 0.19559701008256525 0.18527631694450974 0.04876422183588147 0.10710616270080209 -0.10293382313102484 -0.1532616699114442 -0.03893020167015493 -0.05866570211946964 0.06493904592934996 0.12849313137121499 0.1914804670959711 -0.26968044898239896 0.07016093883430585 0.1088922256603837 -0.025473529822193086 -0.16113458589825314 0.16143087729869876 0.2692016684450209 -0.2084131027222611 0.07516119442880154 0.006143546663224697 -0.21430286997929215 0.08638078975491226 0.32694537192583084 -0.14209804870188236 -0.1220077769830823 -0.04986299143638462 -0.20153679139912128 -0.2109789103269577 -0.029120583552867174 -0.33551137149333954 -0.42945908661931753 -0.30026742443442345 -0.0910040307790041 -0.07535323750926182 0.11177529953420162 -0.1738227903842926 0.10351282948977314 -0.0860657854937017 -0.1968414383009076 0.12724474564311095 -0.25635921442881227 -0.05367693677544594 0.11886205431073904 -0.15409927815198898 -0.015434534288942814 -0.08329897373914719 0.048307830933481455 0.021188761107623577 -0.15492040116805583 0.08602989697828889 -0.0006486986530944705 -0.10125754540786147 -0.1096277890028432 0.07672012271359563 0.47122785449028015 -0.006392348557710648 0.1727943781297654 0.03736095875501633 0.032686054619261995 0.04680251097306609 0.039665230084210634 -0.18778184428811073 0.16886327601969242 0.21074478491209447 -0.014569688821211457 -0.1012925980030559 0.14238266926258802 0.05222141195554286 -0.017130659893155098 -0.05531145539134741 0.21907106041908264 -0.02452566009014845 0.092605646525044 -0.1933739362284541 -0.1731093884445727 -0.07240473106503487 0.12497667665593326 -0.2668426651507616 0.19685666530858725 0.05253394297324121 -0.14419110352173448 -0.023387779016047716 0.1685724938288331
30868 0.011166633665197878 0.2653713336830492 -0.14726155821790599 -0.07840362768888554 0.11751551892091072 -0.011566311024637344 -0.2349914610708197 0.2818996410442196 0.17731747546167753 -0.18759167221833195 -0.06264336851069174 -0.009355195541218109 0.006724536378442281 0.08706495833644112 0.0022489129014502396 -0.1715437648020952 -0.02150705072506298 0.09931934101246043 0.22386653969903136 0.018009807196222027 -0.27004934723868246 0.33013072115812747 0.05799344870240475 -0.11542356021084288 -0.19417316996623413 -0.10034398187536908 -0.11125219569464306 0.050779382555901975 0.36327239494124797 0.002083629957269295 0.02510067084278944 0.05434816265801601 -0.21706528184063245 0.21477960146341957 -0.13056168356092712 0.0002963459639886423 0.2340910009078243 -0.011172208187616661 0.05887424047580225 -0.10378404502280603 0.01672509275044831 0.060559321948971956 0.0033571628588333624 0.1618534190461105 0.11251759844469689 0.3356473996998268 0.0840195624948592 -0.007384411791917955 -0.02079686170009154 -0.1293557180060816 -0.035300400928946374 0.20024084471629067 0.06932610602453337 0.10301876104722396 0.019430557064936238 0.020220410629008256 0.07540286634935 0.13810316665848177 0.2148363943269942 -0.3885642762174939 -0.1989158629726262 -0.027090616326518102 0.18147631401453168 0.1405253728378284 -0.029913082994426077 0.021840634047975982 -0.18606497543009937 0.17069349791214705 -0.05661172176689888 -0.16120838071196886 0.05262652241435717 -0.023741114801850927 -0.23011165680730983 0.04190669320159657 0.07186931830619869 0.012523871492817307 0.08607735651207804 -0.09170888054927673 -0.03240220142004091 0.12064819053256315 -0.05738970157517542 0.14705702929700237 -0.1080973376144243 -0.13715260486446823 0.055149881012084734 -0.13608249379194604 -0.037730458174394244 0.09031718705020353 0.016234959904977586 -0.061306794304272216 0.21603288007614196 0.06116658436098987 -0.06758685038448675 0.10280417684725762 -0.014959975953559024 -0.004118256302604095 -0.010311292278402107 -0.038834496542762054 -0.10921424725466977 0.06847655418721388 0.13068714286362137 0.11392425276402207 0.006478857564161444 0.0964834051659409 0.31564802024151817 0.1298523305561048 -0.03060147055134621 0.13214154715291215 -0.12529508470470319 -0.12012927209798363 0.2000669741191814 -0.27964630707435845 -0.07899560620899138 -0.2076785179445756 -0.064191698042805 0.19870930890954241 -0.19513672264793058 -0.2363591010289383 -0.0739903978737857 0.1916846894007449 -0.030753048669112104 -0.18216910573028144 0.02295435446603733 0.02010729590574556 0.08914738010508927 0.06529283497832239 0.1666205870677686 -0.030259796163818464
30980 -0.026122985658730613 0.2250987437943195 -0.25843984041785006 -0.08078856828080916 0.005396965872478177 -0.1322851506419056 -0.20244269510703816 0.08645978089953132 0.1410850608212968 -0.3299247478223606 -0.09434635789875756 0.0862664835394753 0.015203440980656069 0.20057643255420032 -0.06406130686264078 0.10424401218460844 -0.009423470639490006 0.032919572747118764 0.16353139002671924 0.23909494188626468 -0.15393691399913223 0.08991343332223778 -0.05846789550281528 -0.24619879794659028 0.14546781667377218 0.04919955337550164 -0.04294310895534181 -0.026117762768535613 0.3175997638904846 -0.18541804349806057 -0.17763446613616907 -0.15530136717499587 -0.3549189512241355 0.1603979176111352 -0.42029603275523186 -0.07232669246036494 0.22586510513724534 0.08001133460408028 -0.17841441389737156 -0.13426345327769695 -0.12700483542170105 0.2530407553385885 -0.017597387418163635 0.06100609515851829 0.16451684441221914 0.14883272347796606 0.1415454305010826 -0.02053273073897799 -0.028961010268346854 -0.05634922475212534 0.14145230398571584 0.08613966319535393 -0.05324349308568799 0.07447322767598052 -0.24077378045558362 -0.15277006191183773 0.23835957099129246 -0.08054968039505184 0.18967541439229763 -0.12012489934841142 -0.07839631306950334 0.006059307794657798 0.08632302652029011 -0.2050540136339123 0.16926676920104455 -0.15301976537969608 -0.11912386645076367 0.19896109640097848 -0.15854749348294206 -0.07851050150918581 0.34172738846814354 0.06603752706223531 0.03225688447014363 -0.1487343755661641 -0.2540065656000934 -0.04189606287252445 -0.12333985608511 0.018024067195526072 -0.19207110949332673 0.19365933428508697 -0.0036490972584601877 0.030774085685607133 0.03242009599398443 -0.071297324848274 0.03431570631636305 0.03819902909299344 -0.04731608541078458 0.08588203100953251 -0.04486878204261302 -0.07132713751241226 0.20240058805393346 -0.043507269753263245 -0.1563466836029761 0.15082854178263005 0.027839458046400978 -0.010103870810326043 -0.06763068821464913 0.0011545673746695684 0.05810386574967197 0.1513569470504592 -0.07386835486965992 -0.09154486630237102 -0.17833002866609604 -0.019695128726255007 0.22671907010834502 -0.13193185837866395 -0.10260377744361904 0.06569366716882996 0.09021643239429977 -0.16153071001741637 0.17338948144947608 -0.13929896968124922 0.054686986797491954 -0.10303481824558958 -0.08260003680516093 0.2059756692240171 -0.09822574695033381 0.09865105041399147 0.04591503459170099 0.018158353488502144 -0.03074616181496026 -0.0034151004551858932 0.11181008574544649 0.14582146531984108 -0.09097242292153851 -0.1249929653874915 -0.046233344860183934 -0.01995644993359935
30994 -0.1051833379670768 0.050442885327697695 -0.08707026486951008 -0.18768253433216842 -0.05905119017763383 -0.222209570945612 -0.24070442223916189 0.05842078768696979 0.018469792064061075 -0.14804065162576308 0.05703957932666981 -0.13047549272069903 -0.10056067005081104 0.09595250344781903 0.0972773685719801 -0.009914219228278398 -0.08011245987819393 0.20401754275566475 0.1693378543193944 0.013799525594720308 0.01586991921882941 0.20555356915869538 -0.0605682747487144 -0.060860369896843736 -0.01754981711195569 -0.15671210131158375 -0.012278742445971602 0.0286498928508081 0.21936514052465128 0.010019928978408643 0.011249973067123165 0.07924696477611803 -0.41346786807361013 0.10451914303123999 -0.007030183856841177 0.17854652967394458 0.3009420286826412 -0.01592959626878354 0.09400095688274845 -0.17561208578145227 0.17214794286020663 -0.10615202494417986 0.02262968691101719 0.07940937405695081 0.17354565703720226 0.2136202739237376 0.23917611036394693 0.09857635251995589 0.04450003032707173 -0.10571532161935693 0.1727664825373978 -0.14336967687273727 0.09034749148761989 0.0996230993519589 -0.31528089434522144 -0.011500337167603902 0.02882475051623601 0.3225669789642751 0.2404055493342412 -0.2903311693938617 -0.06473344068615461 0.09358221824798818 0.2576295497520107 -0.12649832152304086 -0.061625095140783515 -0.07724590397932118 0.03957736286522362 0.10461721039263949 0.08601106620369592 -0.09054537765499049 0.11454262089668532 -0.05072689527982277 -0.1592139624600719 -0.13361109894850642 -0.056207160678571455 -0.12397383493106418 -0.03140344600745948 -0.18061681744786284 -0.0980467283394546 0.039793043151519214 -0.0024442545765737123 -0.1631021305553304 0.022117479985752198 -0.25257852196784825 0.13219678703262616 -0.015034603678849123 -0.1004731670935115 0.12889044364878544 0.0863849445412157 -0.04850147980351949 0.08557107210151571 0.01601764955758256 -0.07306176858645586 0.29255699118243683 -0.06899329669288079 0.3469131451620946 0.004080319984552716 0.15967131151266756 -0.11704019865318571 0.10890906044978621 0.002167988858332137 -0.11263716513019517 -0.039863285752687716 0.109398562609897 0.318814953986994 0.05441137437400556 -0.22361319747888153 0.06582887379227031 -0.2746393149323296 0.023909072990896618 0.17209096943591362 0.05309964525716282 0.1257915645785488 0.13368511267583472 -0.12768087419370744 0.05006898330088205 0.029064255657015536 -0.15957823865247178 -0.07254656252358416 0.02054328562343244 -0.06804072864102295 -0.1152873264776062 -0.19326983594504554 0.072983317579002 0.022381740634223046 0.12720264573727036 0.0733299567167478 0.0029206474550846906
31003 -0.3353717338750357 0.10383290584104543 -0.22107934540514407 -0.09966870668336014 0.1281255424819392 0.07915219706137577 0.07020897905931633 0.1431575003555281 -0.2518337681731282 0.06469216979166958 -0.1147781657273299 -0.24422712816522107 0.1767006258244237 0.04121005784327281 0.2645910484150136 0.014741520595634938 -0.2673362439564926 -0.0873350659467178 -0.015787478165293578 -0.07663527493787115 -0.28113664655211323 0.1712008393224096 0.02779242726501252 -0.003699645141750807 -0.036089238925342215 -0.04287253913935274 0.22975008122375584 0.35379783262123965 -0.0697908889142127 -0.10942706645255385 0.014382032067260297 -0.1596306915171226 -0.24870204548460606 0.10339195441792981 -0.20998736113142513 0.21934867883192055 0.006493171435522527 0.006345980116520877 -0.23147038495517336 -0.18990423869581718 0.16866323822614504 0.30037033875305497 0.11642099719210819 0.04555745437534142 0.1722418372246466 0.15478793261627288 0.004152851831008775 0.048926951005341834 -0.391760343592523 -0.07925750397134834 0.0531823545022263 -0.034294202650016814 -0.09513335133033252 -0.12640330631984398 0.20792693276780483 -0.1822698850037341 0.22766309798589646 0.051887960247768206 0.08984965365743847 0.06456187338199015 0.010920272494331584 0.04537258404070599 -0.16575287612022294 0.055997883954887584 0.3218524277799588 0.05592763317781646 -0.1662147343313336 0.021647811012371676 -0.26550330659665633 0.08473283712646662 -0.062064521998763666 -0.17320246667486572 -0.03784187526343885 0.0014558653492713347 -0.07620440562079978 0.0412761392271932 0.24923965363302614 -0.07882049816635117 0.014844701628135226 0.022520749359273395 0.06460214490743965 -0.12354123744444223 -0.30238126359836315 0.03982945123061654 0.09793392764413511 0.24508403571508097 0.1558420946823844 -0.20630428206641227 -0.190733096209442 0.09585647462517954 0.0662038872105768 0.11480808548913046 -0.0437761545254034 -0.12577314495320024 0.021984123070751593 0.08046780245376794 0.10884935471858626 0.05925460950948036 0.22681909103266662 0.04209716156401555 -0.0797469192493736 0.1262735706739022 -0.07669363977160515 0.09293332037850632 -0.06630661524832249 -0.1202613877467229 -0.09089909153954068 0.20247473067320243 0.2199688736054668 -0.046816804104309995 -0.13466479963244637 0.12396810706013639 0.005016807573156257 0.07303420314565301 0.13479702321410514 0.03652169987435627 -0.19700496558652958 0.07699649539745224 0.02093403363323887 -0.018439300057252694 -0.10289563441074279 -0.04042445226696145 -0.058883727055899726 0.08134325157516287 0.29323399354143476 0.018918533347459743 -0.3177005991619808 -0.3102266991090801
31057 -0.10142777596788477 0.01989594221480573 -0.09660334825042138 -0.3072944013845049 0.21126210454574235 0.00996896640676681 0.004689469915376776 0.19326229093123581 -0.016487425056109117 0.17055548090678485 0.22055807649906178 -0.09659912096484513 -0.03016914221604594 0.419689623455195 -0.18027398676215967 -0.07830807535540885 -0.2625998521652506 0.3213972517436474 0.08210589978951077 -0.08083213077633289 -0.20672009841340433 -0.000912654639854793 0.13282521345687126 -0.029857632892827723 -0.09467454696233801 -0.2306232112723201 -0.191020629893206 0.038498508507100127 0.07405905862453377 -0.20079056608185386 0.28699771247896066 0.032163987811020256 -0.11629486436965664 -0.07303649920143229 -0.08854900899466323 -0.20015099667615388 0.09834308155020643 0.1750588911090727 -0.08388193290048118 0.0869671441667137 0.017031478187312432 0.1575831637101146 0.12557390670735158 0.04274675326436039 0.04618205005581899 0.15055970360215554 0.1946213996057522 0.12534203971029356 -0.03541218527818346 0.056159454445891654 0.01537899417459343 -0.06765207916549087 0.11454653765344158 0.11470389555866944 0.12876648619070963 0.06465438920213984 0.29175381939301737 0.0397472193130215 0.15103783593477083 0.11366471960921487 -0.032235885290823774 0.10880865678580953 -0.09623055152342985 -0.01587341385507912 -0.11475947466579939 -0.08604694804706225 -0.09932775705485497 0.1472670908455158 -0.11399028450376747 -0.06575460542268985 0.05656168192534672 -0.05826584946685642 -0.22489998259670818 -0.030890248378776963 0.05964953927981398 0.12464735806329141 -0.2084813115549875 -0.06228366583843581 -0.23851186174342853 -0.09705797536004468 0.01749826599262505 -0.03458811139124762 0.16093072397690977 -0.26305286090037283 0.1443790035067174 -0.20539201421413922 -0.22538124814546023 -0.1557888051149785 -0.10656107534654424 -0.062099350344708704 0.27033579851124934 -0.33476757094093923 -0.17953742139674844 0.16175725683356212 -0.039420094825093344 0.052416651998985486 -0.19740416361112167 -0.06872182134051741 -0.030398005907912307 0.12702152535361222 0.10274414146684663 0.08923961118484414 -0.1877138592744032 -0.1506713823644894 0.2146003066422697 -0.04426987694761131 -0.33352940206345494 0.21457909861261726 -0.023381133514000396 -0.1964167314078722 0.07772499974978064 0.02783468032517966 -0.12538509946105836 0.11299560691564414 0.27878564212162793 -0.03562908696710565 -0.05429613973378222 0.17203174246032304 -0.04970116848085837 0.13207672899338352 -0.06127257972750044 -0.1769702868084604 -0.02210229904971328 0.021304361924524784 -0.13584472203198672 0.04995264118750242 0.08481048682063808 -0.057512247873390265
31066 -0.023539910498243444 -0.00450502947029463 -0.013312114398680741 -0.021113986067184953 0.1306479321021783 -0.1610970474425244 -0.06341245863453082 0.2772438992442048 -0.10987145333983506 -0.030397787763715378 -0.18430833798785073 -0.042068977160965915 -0.24033829867861556 0.1582135508376492 0.04101740544308541 -0.19812276510765514 -0.4717823874262592 -0.06676056601197189 0.08249503906796463 -0.1098189145280486 0.14649852285128873 0.025518678290030294 -0.03672500479679286 -0.029230515471166285 -0.19644903356208943 -0.2598389496746236 -0.35335628387916884 0.09555325465254683 -0.2545332786621124 0.07923206080923251 0.24519762169074966 -0.15049989501545014 -0.15640950420319655 -0.04576712571362407 -0.11616353278395053 -0.03740837668669883 -0.0556818128179728 0.011930379813961167 -0.376942866656508 -0.12401560975608916 0.0142800816770432 0.1255427900777235 -0.1515596950636109 0.026393546150178082 0.09756575586425242 -0.07942560607050009 0.19053075186980095 -0.1390379421782768 -0.2093473365252123 0.19845814635870251 0.1768791643859231 -0.1159333557595481 0.21379668128534135 -0.10137420339671266 0.12579991082446895 0.2451884451115962 0.07703929206367377 -0.16911571922560142 0.04565420664270903 -0.07635800342377763 -0.2470595798375257 0.06462327560650749 0.3520842133956563 -0.0562196817765539 -0.0603034493895791 -0.11315395695029906 -0.09430850935218871 0.09601182360668048 0.13091961133643082 -0.14682955112158425 -0.13358595281661678 0.11505234923847496 0.12340138320621463 0.06109106880672854 -0.13578040702516603 -0.09810322045244124 -0.02980267253684943 -0.16651060277317242 -0.13236885803475928 0.09989858140660601 0.05337772953751774 0.02999345580967283 -0.07928191439747678 0.03198810065638469 -0.08019560548990512 0.004692431224697202 -0.23060404450237115 -0.014823870515844106 0.04715995158734998 0.10782239729030607 0.03766387752643752 0.010468314325926542 0.048950322084458264 0.1102918988032684 0.000998612407201449 0.053918802094003127 0.23277373436644666 -0.02795441542491517 -0.14577235450162362 -0.05298910373078414 0.11105959321473335 0.0690842866329433 0.20473219213293525 0.14462854573025652 -0.05200023808940557 0.32612324182946395 -0.11969371433259823 0.00890424334188289 -0.11350576171069804 -0.05595041441358717 0.102972915338853 -0.13268078121325644 0.1931872339238403 -0.06902214640251714 0.2351610797255148 -0.01837064281408285 0.13007853002980596 -0.08939366566384166 0.1304782884259197 -0.18827213158404277 0.07673235285074043 -0.11145576684634761 -0.07897323607544138 -0.03147318604032989 0.03958937542056962 -0.1155464684657197 -0.09396759816866762 -0.13771499875502613
30189 0.1068422581656705 0.014573952157661552 -0.06763424812288577 -0.1391624858333671 -0.1656599664765963 -0.09596453736321564 -0.17718261134859858 0.15458181191934273 -0.01215481924236883 0.03616156248062907 -0.2210063460697711 0.03353299451646308 0.14430121825535025 0.30101807839901085 0.3861364268414036 -0.13923306656306522 -0.15012850371988407 -0.05418680494585715 0.0406101983080589 -0.18879185436975376 -0.08000959549714537 -0.11169017120209901 0.0413753177590479 -0.10580285625110264 -0.06401701374693403 0.05562766337482117 0.030531598458765075 -0.06467971307802145 0.2289272434159102 0.07715720537999005 0.02914305888589297 -0.07860681282591031 -0.009850724090028962 -0.05595459611140541 -0.058062323540298166 0.2854975111931708 0.12129916487265291 0.14816414360575436 -0.1241865417414374 0.27674760260924813 0.010914109049281251 0.07547883062943583 -0.09904612093373544 -0.030722351977715334 0.03207328054577374 0.07026048361967696 -0.09812479035542765 0.06691394495646819 -0.16276604911263348 0.06155371308403801 0.10213853085292612 0.22321244173690502 -0.053350043865066255 0.16091164501858657 0.18642343856026855 -0.04468910056120379 0.1462423488337663 0.1338409434397363 -0.06363715228552635 0.16196875151740642 -0.06051409339215752 0.42920464104281564 0.29906045833445205 -0.00020091943952138536 -0.1523192591612883 -0.09041840791371669 0.33941474747007305 0.1348661132469715 0.03473382714764739 0.1490037841067533 0.00579216152891604 -0.25640375760849565 -0.23838634646290302 0.05206704859142519 -0.060995476576977126 0.19516892658157303 0.17065861931587278 0.1597137903672774 0.1022961474945987 -0.3809565281317191 0.2519928784440708 0.09457923985678462 -0.027615102595063945 0.18507347690410825 -0.173609968922392 -0.12667444599185274 -0.019102345623650763 0.14911515228959615 -0.4131321075918777 -0.10516855898697486 -0.19183700790836156 0.11550253691547141 -0.17992772942216106 -0.06742801593190961 -0.07240688147680885 0.07897387428010916 0.10914657799821725 0.12300387218419928 -0.05439135085680391 -0.019480250048218295 0.03324848530064628 0.08569472437716286 -0.00042754954392876243 -0.3122892928959118 0.2008575905886687 -0.18295288673311916 -0.008283685009018882 0.45020457168880057 -0.15850991528395753 0.24658642285248789 -0.11033268301764565 -0.03136301632495897 0.19762245246238308 -0.04981505939122144 -0.04412569068153971 -0.013934449400039739 -0.3055654756653894 -0.20195043472176621 0.02247233993239206 0.08572099159118807 0.043751623308708076 -0.042797979501074224 -0.24389700281972182 0.32713972558030946 0.1445325394606698 -0.1592579620610195 -0.0873352689263811 0.014831353513727663
31252 0.029575435270089656 -0.09242591878864914 -0.21664166945265606 -0.08929550560424104 -0.05405828694347292 -0.09191144735086709 -0.10736632614862174 0.08626608178019524 0.18828329499228857 0.06390312139410526 -0.049493519341922365 -0.24882265203632414 -0.09497732517775148 0.14987846463918686 -0.06135503720724955 -0.09454975590051617 0.13083173555787653 0.4645609660074115 -0.2697061876533553 0.0318052447255468 -0.3118770506698638 0.226883489289321 -0.06104376015719026 -0.2445954519935185 0.0034955115406773984 -0.19235390529502183 0.032184738259275036 0.007208903785794973 0.3338229417859111 -0.04235123307444155 0.044676333549432456 0.08795104786986485 -0.33955670197610743 0.17591285629896447 -0.2751810672925785 -0.03716798289678991 0.001409842268913053 -0.019341304898262024 -0.12743483460508287 -0.16332500372664072 0.4199585214955732 0.14843516325345263 -0.20440449879970402 0.09162094176281244 0.10369482186069945 0.2553212590282783 -0.005986153846606612 -0.22525945724919438 -0.04812962299911305 -0.024506237590685487 -0.050815886817872524 0.09330857888562605 0.0018366611329838634 0.09430324318236671 0.11556009206105955 -0.0014926840085536242 -0.0584072851925157 0.2897287614759989 -0.012208469590405002 -0.033168858746648766 -0.045751067067612894 0.16839369043009356 0.265319766709581 -0.3442639857530594 0.037719447107519954 -0.345943680331402 -0.061760056065395474 0.132974837673828 0.05145960359368473 0.03054563087061979 0.14038508926751092 0.06670771719655022 -0.2748637378681451 -0.04437374473491218 -0.10927652381360531 0.02730218287615571 0.13479551137425005 -0.18820489174686372 -0.23217617149930447 0.33459145086817443 -0.19207465466752183 0.26612552815277013 0.013018386322073638 -0.26448990509379655 0.13230772211682051 -0.34952901377982926 -0.05590065085561946 0.012075018021278083 0.009969795035431162 0.041635705274529755 0.37574816355481744 0.12472602596972138 -0.07473528088303283 -0.016927037097048014 0.13847880129469559 0.3696105716517195 -0.24013798427768052 0.11464516416890547 -0.12695661396719515 -0.08209570636972785 0.029121170584403444 0.22187427966855466 -0.12844285776373 -0.03903857641853392 0.12841485725948587 0.07033717585727572 -0.20329251090879552 0.039736461360007524 -0.017437626142054796 -0.03802262828685343 0.034489169309381396 -0.2582501193683129 0.18774802493862808 -0.19706064194906503 0.039975577739824075 0.3756873153615743 -0.20685837918426841 -0.08888744283467531 -0.11662171996431425 -0.2146057281352114 0.0842169129755348 -0.46159500698558986 0.16082896461011842 -0.24807718247757293 0.05986563966143876 -0.004545003670500591 -0.08252638042904437 0.08229730912717059
30194 0.019548158449758546 0.023918428377735 -0.17742672948115512 0.07383063567668706 0.07034423495172124 0.11092484420789317 -0.0765617256714819 0.11249819060172195 -0.013750963655022375 0.14892572514265368 0.22775899504416963 0.08237719430568502 -0.1037736257842723 0.16639144445412363 -0.1893936450346505 -0.05946791725125705 -0.15986336133997536 -0.01913123308212139 0.13859087105382395 0.29198054681241503 0.020639582789215405 -0.19362831885744747 -0.2882159809876357 -0.19214328811963277 -0.4266691853407112 0.06736745572655017 -0.042011869630000476 0.11345959943913542 -0.015678135863257836 0.05850468687206867 0.2664827206884134 0.01649185484309701 -0.22667091129971517 0.20078140844684444 -0.10811307065169551 0.15819206639543082 0.009426007463691377 -0.019375837539710283 -0.07573312071438543 0.20470689461556812 -0.008892932654021024 0.32074911172244036 -0.021751110033291 0.21289627953350676 0.2184989123939145 -0.012613335354044075 -0.16394065477924036 0.11991898044830274 -0.16303463228823034 -0.1615032720634717 0.2907430677571332 -0.022489387192560883 -0.037044812814071015 -0.08557989936205423 0.03192371949378092 -0.001715555727839213 0.07551834590565498 -0.01891600907319635 0.1280358790206666 -0.24658370750733383 0.048856966462204277 0.09273250174238323 -0.014034664250671014 0.07080452828222183 -0.1659962207214264 0.10972229417529711 0.11278094291511565 0.08777922158765694 0.05421595348639696 -0.015992017121544855 0.23245939075494204 0.11907011810119439 0.012857052106269418 -0.023473071256326444 -0.017360365313975112 0.04665786099429958 -0.18354021076969307 -0.2316334741245214 0.11168018481974773 -0.10876168786513207 0.1255953298344119 0.1515417693269554 0.014426856616578831 -0.06487585184781075 -0.05333447314716322 -0.15121403392609256 0.10232366951264282 -0.09005154087570344 -0.06360023536549164 -0.14724493274693184 0.06374563748619178 -0.07076988110002524 -0.004039672393850502 0.11268091781448053 -0.24368694345970887 0.09610000675306196 0.11502149278329554 -0.0896415777103865 0.22111128571959981 -0.00024994432228053753 -0.06080545901581724 -0.02486185581397038 0.10783337941535631 -0.15162534012283024 -0.022011927942097387 0.04373997457309864 0.10885897802781763 0.1093231105878063 0.08783886978138966 -0.013232714583874206 -0.3639733378866641 0.3109201678183613 0.03105399783327001 -0.05433777771431014 -0.15450779339485976 0.16806987511760596 -0.18620614329314544 -0.26126047236866556 0.006574781228305682 0.12820374176303595 0.12427846825377831 -0.20692975699729121 -0.12018550555420004 -0.0066730230795082335 0.005290789440574706 -0.25623073518818773 -0.07205211079478646 -0.003913328912280356
30135 -0.03920328182994126 0.19564950843459883 0.11514976606645178 -0.1422080577253837 -0.10936573483058964 0.1624788714789247 -0.22975327959375136 0.15535040403119638 -0.09393837253719539 0.0807810255264485 0.1187114922992123 -0.02985077637640643 0.1246789537690347 0.3563108700491284 0.013184667995801647 0.0482998072789087 -0.008748056662625459 0.23839661177817106 0.29273836087782 -0.22052252824687457 0.14434576102576102 -0.04404459777288139 0.2372469618523496 -0.19008703517920367 -0.27532253454444344 -0.0015750200536785997 -0.07022919405267203 0.033083692452464675 0.15450285915312634 -0.04100134102077391 0.015357606786892575 0.1145507067312792 0.08259980022143054 0.1713755970645252 -0.53017199366667 0.18811922333316033 0.010132501209000111 0.07717075265691165 -0.21775728757711477 -0.2753226577206078 -0.0004471093716347241 -0.016171809215848043 0.00013564247001340846 0.19514567616101886 0.06279172954987189 0.24272309012405913 0.15882120428068447 -0.4185310507673421 -0.1192102978134244 0.042308627280363 -0.042554934231702646 0.16963930696277885 -0.15484460106499398 -0.10357377456807626 0.3310843893959827 -0.29247438730430986 0.1401071331639514 0.004251622722676984 0.21339460337640048 -0.35348951457353905 -0.041184805768509136 0.1499182496204412 -0.23675393878966133 -0.10586954131485982 0.04188018334298249 -0.03449935272146831 0.19179346369674022 -0.3475678441459422 -0.19219459300347808 -0.16884134742804235 -0.09279897486771915 0.02434919114594436 0.03801290618866915 0.2575697087032722 -0.15323142812758306 0.033717098028319015 -0.038005564975833295 0.10682089435977105 -0.30288873523250004 0.21933454538475416 -0.04312101817902203 -0.03896363481271692 0.04966145186040194 -0.029274979417095892 0.2635352373396245 -0.025921451442172838 -0.2195991680359839 -0.01888391085412877 -0.13963094152313715 -0.08401007217980805 0.21080049700458403 -0.13921644457877846 0.12797551386483974 0.1442020476979451 -0.27230439781715177 -0.10248984058563337 0.18900039450363693 -0.04581752570561548 0.027772587783715608 0.04644639425669084 -0.16462157928049237 0.26461430868312164 -0.05784315333016821 -0.0427343301998917 -0.018207463181568073 -0.3627659631838469 -0.3035706865002794 0.0023843734452384524 -0.227460510795936 -0.008347001304173318 -0.040752246812189696 -0.1630253275972109 0.09921425297343944 -0.015499175420814026 0.047026567666080155 0.006543556181668464 0.0848318008129354 0.13372133859775204 -0.22546856939334248 0.053334894964336854 -0.11212608992354944 -0.07430296990241914 -0.05529797456620145 -0.001925086307892343 -0.0187623691645058 -0.0670561261340481 -0.23512088259167285 -0.17455813094164796
30140 -0.03309164374321938 -0.11349763482911612 0.17657071810520364 -0.06171102079136581 -0.4868860365235008 0.10283539827878485 -0.1488692453687861 0.18291052338801705 -0.05227217456854305 -0.00211352216956584 0.04950470495734294 0.09704078941638272 -0.054133163830641706 0.3806151232515873 0.13439405489570788 0.14940375860398003 -0.12949357396013284 -0.20765916961744324 0.013322441314599587 0.12538068984650863 -0.042482958514227676 0.1990251554148159 -0.13433379836737913 -0.04322834094445582 -0.22866364605374656 -0.5073448023840683 0.12761002437201796 0.04002019929112066 -0.0535518352460258 -0.030411244905906187 0.2474608010587076 -0.19064094834578782 0.09393243328857892 0.12283742349274007 -0.06545829676610992 0.12210789208927508 -0.22810740387980388 -0.08289156028644129 0.004886129930058658 -0.03934151725659518 0.03754279615395717 0.1821157621492766 -0.08270296870940541 0.09653556204690261 -0.022532943509657066 -0.011648374000628792 0.0677681356575448 0.17094193183675088 -0.030559725016090056 -0.002701237168480475 0.041260577194748294 -0.04637282630525874 -0.10982964884908597 -0.09083704754253574 -0.06069893590424158 -0.15027055968103298 0.29054910529902145 -0.1748488302330884 -0.07934158856573958 -0.08117137242749095 -0.011113714190145174 0.2215028817526985 -0.018861786566858996 0.008932302304742734 -0.11126354548920148 -0.026989488703197395 0.16355599057733627 0.1407968517696645 0.03158627091619337 -0.162260807676331 0.04718658870250103 -0.24734155476136266 -0.14045651309106688 -0.09786117268669159 0.2255204552009502 0.06301423533756179 -0.12452969348589704 0.04178730306784928 -0.023234539498560025 8.61623444450288e-05 0.24018081627937704 0.03762550401445708 -0.023660367173420127 -0.0223032965211587 -0.2610871578948135 -0.1431819477073759 0.17780912346056255 0.11399925498710672 0.054569128917108856 0.05443786136802942 -0.3735428234887763 0.11401097528698756 -0.00020835062485602407 -0.1416111858212048 -0.15101806537923324 0.12847604250458744 0.2252813770016644 0.2849164051344246 -0.19056046597313525 -0.06042893215222023 -0.1321181504388136 -0.02371461601757119 0.07180841122483628 -0.05516962523984148 -0.052017193723187916 0.13682186721507605 -0.1373925163997285 -0.008217547777533696 -0.026837464166277414 -0.1167637142235094 0.10142614779532266 -0.014402201712940155 0.3306461014861526 0.18997291460406984 -0.18526480947733148 -0.06925986396268513 0.026637258776062822 0.0835916176597351 0.050371890117645535 0.12587737524457054 -0.07527140954574918 -0.05127205747874086 -0.30328815762021577 0.31233232587555904 0.06352210345748688 -0.38706638399523285 0.023835080190821145 0.3532880379527228
30372 -0.15906469178594307 0.0658689877445795 -0.20852322253205102 0.1068284607554233 -0.17094477472983272 -0.25812642967048305 -0.02281409899768505 0.13034560284222607 0.01491173270278523 0.0068470999776764074 -0.17590210635091807 -0.2767778757547603 0.1466187931625882 0.2027749519529607 0.2627707636111154 0.046141149411596416 -0.12266255023587291 -0.06697135829836043 -0.1284815104493191 -0.056888528817125916 -0.26064602506357915 -0.06087820466905214 0.09897455399004684 -0.19777398075348174 0.0012096982400180423 0.2962455085144029 -0.04718678714289126 -0.29851715691438585 0.1403417913489875 0.04658164930191333 0.21090948438086343 -0.24909911778036076 -0.22710092269880988 0.1557929012888053 0.05370617936932831 0.17133217440067483 -0.11332763912378141 -0.07625094075046945 -0.27636551455816516 0.24433393154390615 -0.025594937480491353 -0.0875278613680166 0.10506253104995267 -0.0688289230929513 0.08572823451868317 -0.19219995230400855 0.013073284123493067 0.17861486328251885 0.1127718584684203 0.17332047217632862 0.163464872493023 0.17156636225900002 -0.04949267886831876 -0.17389170827561884 0.21333856021192332 -0.1993621905285181 0.03247910769550799 -0.02318663078267491 0.23486028144907323 0.0403594849616411 -0.22910411559769273 0.18322987773990462 0.16136594069666899 -0.04343251337468246 0.02117489880811263 0.14613597441007187 -0.015494262085667287 0.04825805825053564 0.0957988832542469 0.10582116499790573 -0.11905620763309344 -0.00974768607761689 -0.11948675748800497 -0.06848441402553362 -0.13390320386588428 0.10910679627477293 -0.0024585060414210602 -0.1433705473345981 -0.24567292549591002 -0.17964951126123196 0.08324057848199118 0.07208356923001702 0.03169616191917157 0.2398621606339475 -0.07351172484686685 -0.14934781946158182 -0.15875830900859 -0.03276188779000222 -0.38499962241553476 -0.16654030773361228 -0.2618329160959547 0.12738701750981818 -0.1567312695315195 -0.08043476396596816 -0.19126340790671748 -0.08474362251763523 0.026075763970311527 0.13487446682211157 0.16495573176166545 -0.251637951560042 -0.049297961033062165 0.1787663373970645 -0.10340133781573968 -0.13406746339092024 0.049688959686136513 -0.2019828014408631 0.07643012847620412 -0.01831636958695526 -0.3205430085440639 0.13488324501759053 0.2332244203678897 0.11803095918912732 0.11242890927223925 0.023937342103863557 -0.03362478796134383 -0.03282839434709217 -0.5058074911376025 -0.1377236957227126 0.4852516150012889 -0.05117370219151951 -0.029913886694430403 -0.3529039692293736 -0.39151545859999715 0.3027551179598049 0.06893315703121061 -0.3189303370018024 0.03397639685681497 -0.15068915025858587
30431 -0.027700953517353355 0.36593830633955804 0.12944069372548483 -0.03484259278383206 -0.0688147708949316 -0.1214226446467137 -0.13473141221243168 0.1637151922288922 0.15671305820796988 -0.10240958063241123 -0.22389362523176715 -0.1486162045657693 0.012283272203603701 0.2203695356049593 0.02225038778153987 0.007012671536813286 -0.08425613334998161 -0.01212416456394294 0.2317478946515621 0.03165811105645844 0.0026627433602470774 0.25274875978652744 -0.08570757768075055 -0.19133444058979876 -0.06298639847477716 -0.038717828577773616 0.13406903819816307 -0.19038037208349579 0.28880751054748544 -0.23801840668920704 0.02793357776272387 0.2895265370059974 -0.3989462488989375 0.2743525168070846 -0.24194086532293113 -0.0680657194043306 0.17264269867573034 0.14571432955335695 -0.06659655471605674 0.01615732874938658 -0.14964981321259074 -0.024999350105645135 0.08600063642006717 0.19490725766263495 -0.055076487321457535 0.2711245037837102 0.015367857952696795 -0.14387872277347924 0.0683230368713339 0.03095834763804106 0.14084211092836085 0.013574320539987639 0.042481096609151336 -0.019493968939400474 -0.04119285530828165 0.032788789284609265 0.27486093665640965 -0.04714184191503534 0.06918378438922446 -0.16844595346174174 -0.032837033471878385 0.011620667641409455 -0.058621728648404314 0.027188881427719025 0.001273797267003829 -0.1538293050800803 -0.1303727576286633 0.1621400296144202 -0.05657404043131464 -0.29684419643285764 0.16524911172200518 0.030113016655349156 -0.025636244166662436 0.06110515856278198 0.026377731139291427 0.09949971436287797 -0.1045541448322922 -0.27083234494523367 -0.2422554484940065 0.04903845068974988 0.07497592741742665 -0.054557276244395325 -0.0025462139888077218 -0.27006039398024484 0.00202337238738437 -0.19468744013329342 0.0074353696668367775 0.18376272108847047 0.13131299985059286 -0.13704002318991115 0.24103481367319546 -0.06685144055427372 -0.12027576091259107 0.06535638817138079 -0.07277393001186283 0.012910980739434308 -0.11012403655558956 0.06690121242263558 -0.14206384540318595 -0.022288741870056583 0.17541624854285232 0.02407484850732544 -0.1615391791442562 0.2262159303415956 0.35328218688482593 0.016091616174321643 -0.03142812834050801 0.055164291596838666 0.12782457963783145 0.0017891712150870376 0.06537274070501553 -0.19503692279431561 -0.04626829173139413 -0.075759385380195 -0.1165439012140439 0.40414908584443765 -0.10746504485291553 -0.13159995198247998 -0.040395884820554784 0.03092310776753493 0.010980724092178207 -0.2549382030210836 0.20714941531889508 0.0987197141521392 -0.08308577668969974 0.15741578401548395 0.28161424796394385 -0.1465256835092532
33105 0.3152134987622155 0.06912464644420879 -0.1296105378267285 -0.09751150886501136 -0.049514863723430835 -0.2858069687378233 0.018143436813815583 0.20675340416023857 -0.17728512498044324 -0.07335393741867335 -0.04996881090067973 0.055096917565876424 -0.016153936123970425 0.1681784013371157 -0.09220508976648034 -0.18804704289880192 -0.07115008857033445 -0.20930756318446697 0.21414428025681786 -0.23188290399210132 0.08191642974835389 -0.09901397049869587 -0.13854148286709744 -0.26529837515113286 -0.06880726097013934 -0.08658591199909793 0.1527105781314262 0.2238982205199136 0.130253452266345 0.0012745522623163197 -0.1448769935888663 -0.07655324339199154 -0.08196170898466448 0.28117719112482575 -0.20703232698593865 -0.06673024498491742 0.11597628418189743 0.04297914764564581 -0.30563370320228955 0.06349398262467254 0.3548793860333035 0.007841749477620397 0.11254802727704138 -0.0030492982590430984 -0.036783090753417014 -0.09513064287938278 0.25417227891301764 -0.13198851438858128 -0.059393490691689976 0.07928400736835783 -0.101500985268558 -0.08815388580491756 -0.08438567419689491 -0.1528634491902494 0.12941689448865645 -0.20357991572348055 -0.08675111698279814 -0.17846167106752375 0.04829078066797621 -0.06027930092710676 0.039409121236033684 0.000932390635270508 0.09396885596603965 0.05832957786157067 0.009442192338923405 -0.11840046191250053 0.14019473613907962 0.27638978348113596 -0.004148287814757623 -0.0006225191727651236 0.1664943354938231 0.04057342213351944 0.20335991908870987 -0.034847842029449794 -0.0011736332775953429 -0.08428019405776865 0.0331743812259333 -0.17613629389568786 -0.020979039257639442 0.08587768858828326 0.015803517491372432 -0.10810436784221089 -0.13578525954909537 -0.13282089219942605 0.18125555747032962 -0.12678991604487067 -0.35193139116458383 0.082631989499788 -0.058641013761709715 0.02514475444454689 0.05097968651176643 -0.07175344647398418 -0.09376644753450591 -0.1616890865928724 -0.22972716747099753 0.12176485232565426 0.15877378238397455 0.11001760907298319 -0.1286107851616407 -0.09208717217293838 0.15216770327485207 0.07226064326698634 -0.17242647709008452 -0.09358755106107708 -0.12202898007851104 -0.07320828808755664 0.0004614438041885549 -0.016237836304583197 -0.26288872804478913 -0.04837064144644998 -0.029256482476302637 0.10992552269560463 -0.15207788744146455 -0.07280937095147522 0.21433934563642865 0.1275674053450757 0.12256518555179241 -0.0217517793427362 -0.14170673959745272 -0.3052698565431342 -0.18238943854788658 -0.21859973648123088 0.08724924714974769 0.19296005049193354 0.09856434065306985 0.05187930501196547 0.052243533742746706 0.028140970270868593
30325 -0.26762821110079926 -0.15395869015643449 -0.06436919517997675 -0.0906316377887375 -0.15433162119091648 -0.17228628741627006 -0.006429815833250085 0.10218800010090234 -0.04594275336001674 -0.031528658431625445 0.0750837904741104 0.13564040467246663 -0.18710762372782597 0.21670552970434542 0.2514872759531954 -0.03696363642384903 -0.18235585419850064 -0.06905976665599844 0.21872912004547285 -0.13305872383995165 -0.20650765726453368 -0.41015270676937576 0.09125351508266366 0.1106108048384975 0.20722785068167582 -0.13373060494022226 -0.036223574120150204 -0.03794140701535831 -0.15527052447148304 -0.04813153539019677 0.17652154286404098 -0.05586852459353686 -0.20709813896246665 0.17852479726900405 -0.031390363646149666 0.28842139615415796 -0.12293855253398789 -0.005694577907304321 -0.09896997833688026 0.14152763181568062 -0.04565287381998073 0.05671810320296444 -0.18565022783822194 0.14656775293405389 0.004480772848317827 -0.03797482105875716 -0.18839327252019267 -0.030291082461303187 -0.006302482921777042 0.04901836088168743 0.04978218575310356 0.15735860923517864 -0.03261879817387481 -0.18698216899175435 0.13991984072423058 0.06238983275117427 0.18521866255401687 0.13654073838342887 0.008485577107464781 0.0480217024184256 0.251869382337782 -0.09833304140734 0.18922982612695627 -0.10442502730463588 -0.11883629949788377 0.010081502645164497 0.16412798840328957 0.2556375100209376 -0.02841269647282374 0.08469055674710191 -0.1810409872390868 -0.2494649317895128 0.2779935637826334 0.15707841211603046 0.15437254687737267 0.2909264171256485 0.04028868960287113 -0.0482824523663723 -0.01226832610312889 -0.037200533446869244 0.16789730153090776 -0.14913641457371946 -0.03992411671996088 -0.09322660073704236 -0.0029992921031815056 0.02368062580501823 0.06256967593620333 -0.1770731212247778 -0.17669312266830772 -0.25503878210357156 -0.05544299359507027 0.12720229375023512 -0.22321454154100806 -0.027111903590373743 0.09684215803614765 0.06048122656326527 0.001191630865534421 0.14732062138571367 -0.01731371128582282 -0.036570638959144475 -0.10858873442690964 -0.038952379423925265 -0.0344612997132594 -0.026696127000156444 0.2665833546348413 -0.027254237495375477 -0.017494964387138157 -0.14961357813050036 -0.13724930680416847 0.3206375416301981 -0.05826351580713629 -0.0454509275593562 0.08534312487461704 -0.016815043520033157 -0.09162245658862211 0.29363569268924294 -0.002884587785718651 0.030757995160190177 0.12375628423958229 0.1794590152732063 -0.14006825033122716 -0.19476155139549123 -0.26596585884441204 0.21669646048812652 0.18921609276397522 -0.012355498747974814 -0.03636014753781325 0.02043942328381476
31308 0.18865220248699188 0.43032270669937134 0.06986425817012787 0.258655309677124 0.06500039249658585 -0.08472616225481033 -0.006743039935827255 0.08253958821296692 0.22635482251644135 -0.18807536363601685 0.16760297119617462 -0.00129460240714252 0.11056932806968689 -0.20403143763542175 -0.04732440039515495 -0.23233063519001007 0.12577694654464722 -0.060724157840013504 0.027944644913077354 0.3289036452770233 0.067369244992733 0.2995929419994354 0.25784793496131897 -0.3496106266975403 0.048794232308864594 -0.18305076658725739 0.03933332860469818 -0.11884402483701706 0.23832741379737854 -0.23508454859256744 0.07170714437961578 -0.06358439475297928 -0.5205885767936707 0.4888153076171875 -0.3187646269798279 0.0021041163709014654 0.11634179949760437 0.25371071696281433 -0.3189801573753357 -0.00038273807149380445 -0.2541762888431549 0.04173693060874939 0.0863153487443924 0.1127149686217308 0.4901580214500427 0.3368895351886749 0.015929292887449265 0.1276538372039795 0.06966099888086319 0.032056257128715515 -0.37396132946014404 0.12111467123031616 0.16792415082454681 0.31068500876426697 -0.032563887536525726 -0.20712928473949432 0.3781436085700989 0.20160387456417084 0.052443452179431915 -0.21983273327350616 0.0407128669321537 0.23897382616996765 -0.028990644961595535 -0.09117228537797928 0.14753371477127075 -0.4198372960090637 -0.21742498874664307 0.17016993463039398 0.0542115680873394 -0.10755740851163864 -0.0831475555896759 -0.10741187632083893 -0.23364399373531342 0.11721544712781906 -0.17319439351558685 -0.059705283492803574 -0.2686077654361725 0.18063411116600037 0.05923252925276756 0.05305156484246254 -0.17444323003292084 0.17476412653923035 0.1082858070731163 -0.19167432188987732 0.016140997409820557 -0.143047496676445 -0.07651922851800919 0.14954446256160736 0.02064456418156624 -0.09493213146924973 0.13596895337104797 0.17723897099494934 -0.18405573070049286 0.21140466630458832 0.23131325840950012 0.36559203267097473 -0.26548486948013306 0.09566076844930649 0.15806561708450317 -0.04451725259423256 -0.2650853097438812 0.16010159254074097 -0.2799983620643616 0.10926017165184021 0.01984260603785515 0.25152596831321716 -0.11869718879461288 0.06052033230662346 0.3401890993118286 -0.007633635774254799 0.25405171513557434 -0.19190439581871033 0.16188189387321472 -0.2950601279735565 -0.17786596715450287 0.337826132774353 -0.13884730637073517 -0.26474714279174805 -0.15362723171710968 -0.06524910777807236 0.10227503627538681 0.13973578810691833 -0.1305287927389145 0.10384941846132278 0.05216057598590851 -0.19807960093021393 0.12794838845729828 -0.1844250112771988
31481 0.08031394807858305 -0.10772581936991799 -0.12849227219658133 0.06868285685635556 -0.011725850047312747 -0.046282568767992416 0.019443276506194707 -0.14783673258989438 0.14904718940616846 -0.0795850738569186 -0.09699248342747069 0.15758397031834193 -0.0175041094273638 0.05334298317975339 -0.29985628230082284 0.030877051244033282 -0.01278662654215168 0.05479096937091299 0.04015864546622083 0.16742277121363713 0.13226110162304394 0.026553947949423673 -0.001372135299106958 -0.10944354423975255 0.22209970103295973 -0.20306510685912826 0.09042829018974885 -0.05834576775004052 0.06914967710588371 0.01878926226004296 0.1760147328157018 -0.2921286323581853 -0.4773229872491811 0.26070558957149004 -0.1622637653512129 -0.10196336107327397 0.09706297746622283 0.07401665692631809 -0.10631211799216089 -0.006646414267152068 -0.10825511662896403 0.15742923980849355 -0.15322467528946504 -0.00919245129765045 0.11407084898928588 0.22932377710466767 -0.02343465758463026 0.20508706465705018 -0.1945607870664361 -0.16428252880086802 -0.1641891361235821 -0.08877425498221214 -0.02109084403127781 -0.05582809837005698 -0.06261314566847886 -0.07593089121340313 0.13331304316324122 0.08812795993648592 0.20433367652583456 -0.053449952932680844 -0.026522384066836935 0.36027596548001384 0.01863588927847104 -0.13010821892527247 0.10135695417579882 -0.24868480235682 0.23467757469461503 0.027023908191154078 0.05240097967850943 -0.12695626143462846 0.030856115662686534 -0.19154099227841925 -0.04955250618434093 0.1962309464309442 -0.11217401430803875 0.07954266615379879 -0.02861548415474857 0.06549959587368903 -0.1396729498824243 0.17891434056991784 -0.14920301585789275 0.04303967505668993 -0.0634076273650237 -0.11947561302264376 0.10701631200899442 -0.34216364798720633 -0.14371285519086996 0.285312439664267 -0.05615845754954307 0.031100146465114165 0.2340612405516822 0.20807168402353682 -0.023327617945298584 0.11523219349149372 0.10134537136315913 0.40306890757324254 -0.0628796034673087 0.019563707881161463 0.10935277250936792 0.07162194650857145 -0.408045094452973 0.194314253051175 -0.151921393174689 0.014340900040096471 -0.030003077046416138 0.13545741561046043 -0.18783731137614268 0.149318958890035 0.09510987604426191 -0.07269133026056807 0.07838588355946285 -0.23276853192533054 0.138327745389347 0.043630779470873904 -0.096738451983299 0.3103208274540066 -0.15267899288210174 -0.18380134248940294 -0.12054565783120097 -0.003531179841957055 -0.1155649000333483 0.044093802925971204 -0.20983107202249585 -0.1992428805903046 0.15876788610285075 -0.08399041200493684 -0.001501918727285556 0.0831123790977557
31503 -0.135000401475736 -0.037967915097397054 0.07479759023954102 0.014113222008745652 -0.5763684322300833 -0.06570083643987346 -0.2563378408012795 0.004815032054466428 0.0570534941580263 -0.0037511862319661304 -0.1628855774688418 -0.1697979263481102 -0.07280737489054445 0.21003283149002527 0.4088625281528948 0.10310402566619814 -0.2217068417212431 0.05375568720319279 -0.19037929248042929 0.06726406771304028 -0.1600383451095695 -0.12235936805518577 -0.03559124851744855 -0.22055513184750453 -0.07760956207857816 0.17540189618694058 0.01920366504782578 -0.06304269496740744 0.20534706264152192 0.14969669256232798 0.1733604574947094 -0.09363756624645703 -0.12052740019498742 0.14234130186014227 -0.03103060930425272 0.14606506984142698 0.10842453722580103 0.047846074940025574 -0.39308686228469014 0.24962400256299588 -0.11798271340012434 -0.024961968225397868 -0.07206994758234941 -0.11710555259924149 -0.047541094394546235 0.029236927341116825 -0.08503149642638164 -0.08114791595835413 0.08780318983917823 0.23417873806101852 0.14834271626386908 0.3107270096443244 -0.09599701895058388 -0.021507421421119943 0.22597036589786512 -0.12205940107014612 0.06477902025108051 -0.20313924530273653 0.39593412695194274 -0.030918009167692162 -0.047620583433513275 0.22860743169212583 0.20892601518971787 0.2488453531768755 -0.013262052327263518 0.054552724555833265 0.1699005834343552 0.12127076414617477 0.12736728842082812 0.17295255717715463 -0.09782759022618848 -0.060139733552205143 -0.11130757111459388 -0.06073437028817352 -0.2534523257008914 0.057229086738516344 -0.23097692691590055 0.14668451274337713 -0.07212342736602295 -0.0659377478150418 0.242827711681457 0.08859365316902768 0.1794528356531373 0.19543964549484372 0.050722921019769274 -0.25428913777068374 -0.1941309383710177 0.022961672013479983 -0.209078715837677 -0.02998589199705748 -0.0956239183942671 -0.23812437327890734 -0.1518154250070438 0.1105431417854561 -0.12487560899171513 -0.10648433706955984 0.07649373105050472 0.006762683507986367 0.24940936668645008 -0.18360045196004648 -0.23595744869635382 0.021459142242747475 -0.10050325652719039 -0.0036929091766069178 0.02802484037965769 -0.22203621507651405 0.08457481657478638 0.05356871106482686 -0.2819219064913341 0.37610936127384775 0.1954226325633499 0.009557286372910312 0.0511433416759246 -0.09211247917392029 -0.06992398199099625 -0.043234654902335024 -0.41996719386952464 -0.12471463774477343 0.416720221612195 -0.23488535790966125 0.0780939884525651 -0.4300459831574699 -0.3848852695118694 0.40015597380465806 0.0203181845099607 -0.15080956620113284 -0.11036720399715705 -0.07282851809850399
30615 -0.01337479846529277 -0.16256596921238042 0.04307141759863953 0.19982416105642642 -0.2272465616182444 0.030338381117189783 -0.11032455697591104 0.26983024772459885 -0.28031444877481704 -0.1383709228622365 0.01542615151331006 -0.07540231895545446 -0.13816824042316966 -0.0909093334651061 -0.07701600169411904 -0.01404051468367129 -0.1923397325161318 0.2593951218568691 -0.1451439984202807 0.08856354929065446 -0.04531884304304867 0.16886011191112615 -0.026143192324866504 -0.1349616285792763 -0.25796385600415306 -0.24624844387631128 0.24041661395261826 0.006103980049033453 0.05086723151171668 -0.15089974716282484 0.1772130118459927 -0.0925090565615534 0.032627515745218716 0.014474888506185835 0.118520490887434 0.16301840347193775 0.013239282762469884 0.1469319063619423 -0.30587777255527726 0.06095447583339819 -0.29544676085834 0.08674029333241151 -0.06506302081611182 0.03294365893611939 0.010241781198203626 0.024338090392234335 0.0037233944500201233 0.019572384895866435 -0.040987170434902964 0.03650605589518818 -0.06137166924720816 -0.053301005280218305 -0.11289600441301673 0.03285774238838712 0.04577107354811005 -0.11544774611752473 0.022223331255545986 -0.3715369801684574 0.19653540782240952 -0.24907645429685488 0.0022362460401268436 0.010402498835816232 -0.22080564671940017 -0.31661573425031975 -0.06494719003444516 0.10673539395679654 0.001722559501899923 -0.07120722332024343 0.025781662539259287 -0.07715753360818711 0.25271535427748404 -0.2515989271300043 -0.012057151767180585 -0.010137799040307982 -0.09230281273318042 0.04558411974370813 -0.36389383535060915 -0.4257599658695881 0.06899682658348638 -0.04189712489642261 0.4175899753641943 -0.01499612375050674 -0.008842327139063855 -0.25544217707602 -0.13315566258401645 -0.11815399293379869 0.00041151923710458505 -0.12202342267971744 -0.11360503765666863 -0.04708704813629083 -0.028270109520462938 0.24023639642041417 -0.01787609577863236 0.01828075806150764 -0.0628149682622734 0.15708445685655192 0.047967099692847626 -0.01622915695361371 0.002477859574582908 0.004019804311212738 -0.367966330305066 -0.06343573086316212 0.2248154165630467 -0.26427468521160336 0.10510190972496503 0.1502604287666145 -0.22917532508290606 -0.033459834825862345 -0.13926812620223927 0.09744529515774047 -0.06837762100263944 0.1876138607801252 0.054563523610227094 0.00994674369758286 0.05747080943447713 0.016463406267348546 0.020070997091181653 0.07866901386080372 0.12119702757841466 0.036033701752216984 -0.12774837485972057 0.2324553870575663 -0.2084266389493905 0.31850321813521987 0.018337348695830258 -0.12667631056228856 -0.22207338627754325 0.14694747330554492
31612 0.12312232228578068 0.16840504994615912 -0.14638915052637458 0.10498570834170096 0.1309753117384389 -0.023740432894555852 -0.023233626736328006 0.3962169711012393 -0.16452721669338644 -0.03778621111996472 -0.11594533501192927 0.1272389809601009 -0.10122725390829146 0.14763736416352913 -0.0845367937872652 0.13754054089076817 -0.24297475814819336 0.011420447670388967 0.0824322699336335 -0.02568069245899096 0.14215776312630624 0.1404612195037771 -0.059438079595565796 -0.027541586779989302 0.10323516328935511 -0.12394163641147316 0.20126634964253753 -0.0754093371797353 0.17314070073189214 -0.2931574829854071 -0.015361070982180536 -0.314314246410504 -0.23410331178456545 -0.13694046903401613 -0.42276513180695474 -0.06659070291789249 -0.0803579339699354 0.03164550336077809 -0.2596238208934665 0.18081249673559796 0.14581393857952207 0.39545400033239275 -0.3310584924183786 0.02800109313102439 0.2691278593847528 0.09350991784594953 0.1376254796050489 0.09020563116064295 -0.20221934409346431 0.012675924692302942 0.10439964779652655 0.05876974458806217 0.10269134640839184 -0.11407663091085851 -0.014454795396886766 -0.16022017993964255 0.022506341862026602 0.17371333087794483 0.03327029349748045 0.14829454405389697 -0.004370985960122198 0.049583882093429565 0.14541707269381732 0.16258725366787985 -0.03279041056521237 0.013985235709697008 -0.005064081138698384 -0.03961645910749212 -0.34151457773987204 -0.11406771023757756 -0.016043006675317883 0.1389980394160375 -0.05849709769609035 0.23641669235075824 -0.2158141634427011 0.012743017621687613 0.2698148437193595 -0.16202375059947371 0.09320041188038886 0.10893993754507392 -0.17172766476869583 0.1567465145199094 0.08563833741936833 -0.31096413056366146 0.2738900111289695 -0.19705741957295686 -0.14093477395363152 0.05182938033249229 0.18244581995531917 0.16778713336680084 0.040183533914387226 -0.0063896686770021915 -0.25926306075416505 -0.019690551795065403 -0.3142350181005895 0.11438934179022908 0.15044676593970507 0.03315297409426421 0.29190889513120055 0.11809732337133028 -0.059032962773926556 -0.2290955974604003 -0.2970232746374677 0.08519169338978827 -0.02590094367042184 0.02733968192478642 -0.033215182658750564 0.15132268611341715 -0.0669026275863871 -0.08970755810150877 -0.07151670381426811 -0.0438805918674916 -0.15710833063349128 0.09118708572350442 0.22468040214153007 0.0501758222526405 -0.01790650887414813 -0.10589908392284997 -0.10180207091616467 -0.41333617240889 -0.11885687243193388 -0.05378601727716159 -0.044180558586958796 0.11996048464789055 -0.07693083584308624 0.010807983228005469 -0.15032264089677483 0.009905412574880756
31617 -0.3990991711616516 0.2514743208885193 -0.03914205962792039 -0.13089877367019653 0.1571927461773157 -0.16564144380390644 -0.3304841071367264 0.13550596497952938 0.21847927942872047 -0.06377874501049519 -0.2763754352927208 -0.33616749569773674 -0.20566370338201523 0.17875435668975115 0.009718138724565506 -0.1185104250907898 0.011849325150251389 0.13977853953838348 0.4244109280407429 -0.023180530406534672 0.09051327407360077 0.1853780448436737 -0.07514972239732742 -0.014202115125954151 -0.37643185444176197 -0.3195512965321541 -0.0059183258563280106 -0.08131104707717896 0.5144474841654301 -0.05820686719380319 -0.06651696097105742 0.1469342578202486 -0.2654880937188864 -0.15516905952244997 -0.32333167269825935 -0.04443703684955835 0.28895088098943233 0.20875827223062515 0.0035388246178627014 -0.07987003307789564 0.09733817540109158 -0.0801157420501113 -0.12773789837956429 0.20607902482151985 -0.139364842325449 0.21801162231713533 0.17125239223241806 0.030149436090141535 0.13206170964986086 -0.12244207412004471 0.30211509205400944 0.13763609807938337 0.021090534515678883 0.05370486155152321 0.11814568005502224 0.05704996734857559 0.05788894463330507 0.21593888103961945 0.178460412658751 -0.2109551914036274 -0.14425021316856146 -0.11009900644421577 -0.16117615066468716 -0.1311809098115191 -0.024866739753633738 -0.12766161374747753 -0.19154687225818634 0.07620894722640514 -0.0012780968099832535 -0.30322203040122986 0.22178932465612888 -0.19519654288887978 -0.20597369968891144 -0.02193895063828677 0.23712370567955077 0.227219145745039 -0.20331374183297157 -0.3480614982545376 0.11385951051488519 0.0009656010661274195 -0.15106276236474514 0.0750513703096658 -0.0834834910929203 -0.10435225907713175 0.19721887819468975 -0.15069880709052086 -0.0033498606644570827 0.15952214784920216 0.2792354207485914 -0.18174082413315773 0.06355821737088263 -0.19993414543569088 -0.009864361956715584 0.12416445836424828 -0.1296349128242582 0.036714399233460426 -0.1242118738591671 -0.023151853121817112 0.21152061549946666 0.18562621250748634 0.19141686335206032 0.10033758357167244 -0.1631357977166772 -0.23067051358520985 0.39466144889593124 -0.0004482269287109375 -0.15651199594140053 0.3308205958455801 -0.12052462063729763 0.1145752239972353 0.15219252463430166 -0.10929207503795624 0.15843386761844158 -0.3021783661097288 -0.027858449146151543 -0.006810191785916686 -0.03038753941655159 -0.17192970030009747 -0.033715678204316646 -0.0138481889734976 -0.014461573213338852 -0.3210771791636944 -0.04865736793726683 -0.1474437341094017 -0.2119208239018917 0.11098832834977657 0.3580501303076744 -0.07484457781538367
31624 0.016505254960975435 0.05041292803161923 -0.17483775292521386 0.09895454886691368 0.04344868776252042 -0.10438681928360438 -0.056583895937365014 -0.1757208013741547 0.10702010580325805 -0.13692721336065006 0.2752622493035233 -0.11564004095089331 -0.21610809820549548 0.44345144842191075 -0.05225188979602535 0.001542072280699358 0.06671778769077719 0.36519193540016204 -0.183694630278751 0.07125886014637217 -0.050728348332995665 -0.01435285034676781 0.04953686907470001 -0.2591466493449843 -0.15530428246529482 0.11511699737934578 -0.047618746549687785 -0.19903492980461124 0.08211050567638267 -0.023737385726235516 -0.15523545664882477 -0.1778079564772952 -0.23974525156245363 0.10531422818976921 -0.1153061800987416 -0.11442394677396805 0.02263712090370973 0.06558758107985341 -0.07041572112620997 -0.11150600752489481 0.4480431159690852 0.14736689496021427 -0.4161409811649719 0.2778553697046391 0.11001840232711402 0.14193030576370802 0.042537219009318505 -0.2795309948110116 -0.2763639654394865 -0.009544017567350238 -0.11597230731695163 -0.18956989373327815 -0.07451380557813536 0.11151380952878753 0.07910474435175274 -0.18356676309076647 -0.2169383393922999 0.3241733981310517 0.25067316356762603 0.03626608546210264 -0.10166683873831062 0.0940894817113076 0.17224174299508377 0.03367524856912496 0.10519769934489887 -0.024432506343600835 -0.20611435152932245 -0.059096763206071046 -0.10605846140833819 -0.08437522013673515 0.029015237779503877 -0.2622253150020697 -0.3202350444366857 -0.08728232521934842 -0.2016627162684017 0.1491991336324645 -0.06109313500837743 -0.061529446207487126 -0.21596654277800553 0.31202576727355336 0.06493810257052246 0.10965901527742972 0.23741457546481115 -0.039909020784762106 0.3843736849225934 -0.2784045260568746 -0.2793287947524732 0.08060162592983033 -0.191708343537357 -0.21756341455693473 -0.10295274372310814 0.2940190681015338 -0.033703061588767014 0.09685697227178025 0.13244235868933174 0.18060614016360432 -0.03234452272272392 -0.03351554950336322 -0.006982468077239901 -0.009070481620966575 -0.03373427980454835 0.17859003992475664 -0.010494537396652959 0.043488838278335606 0.10423308213023574 0.03878767267951844 0.15303808659632523 -0.019659257655916917 -0.12343083853920689 -0.00039031126607369515 -0.10118793306378393 -0.05832921494493348 -0.11113568652763206 -0.12906670873644543 -0.2531374432728626 0.11640065915798914 -0.029143828858650522 -0.13767708118757582 -0.10271392592403572 -0.016457642257819316 0.12579610308057454 -0.23812023136815696 -0.10714213195296907 -0.06797835177781053 0.021020759555398172 -0.1497520678112778 -0.2565832168583029 0.1859323451496948
31641 -0.22354665811326413 0.20142194304753502 0.014571400289469238 -0.04683955097152648 0.10932270840066849 -0.2169673746002445 -0.23155916073710614 0.25734672991529806 0.32935505661282605 -0.2234955014901061 -0.0002303275396116078 -0.27434645039204497 -0.11012505036705988 0.07399896127753891 -0.07405389930318051 -0.07682274404078271 0.08267707237610011 0.1017700837162181 0.20977748418317788 -0.0039398216340487124 -0.04920349442591032 0.31431309467734536 0.08085793194004509 -0.05379070750586834 -0.38744951633998426 -0.31822067720213454 -0.02105863421365939 -0.24772624877380167 0.4436293493836274 -0.10368462709266169 -0.14269965986204625 0.1853902283394291 -0.20998482531285845 -0.038028529049086046 -0.265673521131248 -0.16099271332132048 0.3827128662146606 0.14779296066990355 -0.015226652523779194 -0.05306360235772445 -0.05286890785873766 -0.027081089824605442 0.05886788231623541 0.15760209496693278 -0.004862411266003619 0.1152080325573479 0.17956108793680414 0.08141233921742241 0.018286864446054096 -0.15029386999594863 0.10790869694392313 0.2998127472365013 0.14883228160397266 0.029411467520958468 0.16674993810693195 -0.0502427449418974 0.16594270498740116 0.13726588746021662 0.26388567380414685 -0.2257235280903842 -0.24645205354227073 0.08836034361229395 -0.23000863979541464 0.04930315820092801 -0.03616402198349533 0.0009117336774124851 -0.2209124710288961 0.22072975009427864 -0.1240379806731653 -0.25029613481956403 0.17317996866097474 -0.13287245780429657 -0.12990924342125254 0.09148152854504588 0.20186695634288299 0.15384867413558823 0.05702818113786634 -0.23821420803824367 0.16137351030329228 0.10944137174237767 -0.2706194598504226 0.2224766234216986 0.004402049133204855 -0.20359309617106192 -0.017889422994812776 -0.12694803760496143 -0.13064585522147354 0.15230434235400025 0.0735798743662599 -0.07212439948307292 0.13529215905055025 0.01143381394285825 -0.1292636141024559 0.17226338170075906 0.03963550907246827 0.04082430234257117 -0.054878294638001535 0.09014563463915692 0.04328684111169423 0.1371361966466793 0.09477477943300983 0.2041987807415353 -0.15437699501626412 -0.15227133288499317 0.28865618988675124 0.08943788582359957 -0.053159945773586514 0.35535468674356707 -0.09016349135345081 0.05899327360930329 0.1642445519373723 -0.2718141191676082 -0.055726836391045254 -0.06499143846394873 0.03604707815247821 0.2188953481305589 0.041991232998043415 -0.21887056334094268 0.09126226796524861 0.09543934628527495 -0.025838852816377766 -0.1824415779519768 0.07018016770052782 -0.02672165173544272 -0.022237204095290508 -0.15141111211460156 0.11495386865317414 -0.10505587286911577
32467 -0.03132834691379216 -0.013656791056558149 -0.12037584221620001 -0.08657896180961266 -0.11819274882576458 -0.05389055198261339 0.09639051040745983 0.0394768897688742 0.23399307801369318 -0.17591499157802915 0.18056825641134822 -0.14258178578858605 -0.05174428056300229 0.29052940973925345 0.19123688395398375 -0.25977948108620375 -0.10093100935835508 0.038651305090066757 -0.22968399996348154 0.2227325095214283 -0.016231882253178398 -0.14018852854376007 -0.03664472414429909 -0.2039065312438636 -0.17678322701913185 0.06067231516615745 -0.2456370753065329 0.1274565366884879 0.19590045044594362 -0.3834407490608065 0.1797757449844597 -0.013970336999584276 -0.22901051359496094 0.06529908093354564 -0.033739533112758124 0.038725126990193814 0.027845185586226506 -0.22186912128942105 -0.19065401537240234 0.18594076702099116 0.2565104221551566 -0.11958668258881389 -0.048891994674565176 0.06298927881073624 0.08994415049835425 -0.059620750812769074 0.05554575128565631 -0.005228028823516695 -0.027554205001280252 0.06258100462170901 -0.041249560785507455 0.09005019614705123 -0.3035530109666127 0.2807465818772421 0.14447953004345493 -0.19163576422950612 0.043765074969570605 -0.06815384031833815 0.0307517930736525 -0.21348641832693716 0.09828556621576134 0.12446314920708978 0.06879150849849935 0.14328704965351946 0.049258920433725706 -0.1962616147448628 0.07883281428919742 0.055312477611920485 0.17617587018077074 -0.14419359821534172 -0.11035674239063198 -0.023246212410716005 -0.056916261791560174 -0.0029336425332591176 0.029379165544680674 0.11619810764692495 -0.24582253339234938 0.00928922378765229 -0.20488511502431805 0.041223552243533135 0.20178409982690404 -0.17781194534119749 0.12704510833356775 -0.02734728623802951 0.044110446387229274 -0.0037970122974897436 -0.08525532723998452 0.26447917680092203 -0.0003839012313360257 0.24701913530787323 -0.021905770506322142 0.29156014163429944 -0.014487919776006386 0.18253501016508844 -0.0345546675673144 0.21906508890856458 -0.17033237662112555 -0.2587484501045907 -0.003686967391541174 -0.011513231840011073 0.0024300478378194157 0.0003278782280480286 -0.39378264698333254 0.036338653649290564 0.06278968654735895 0.322724530741505 0.10741942744050803 -0.11154106222404181 -0.012550152572288198 -0.08299817586212299 0.20098168706620356 -0.01792912168081351 0.252896333746925 -0.06525217975105413 0.13009929052282843 0.1873877717793171 -0.265376892456878 0.11750785668331032 -0.039941862374625714 0.00718015852801468 -0.1444964380803575 -0.05735191725858968 -0.16017011869217157 -0.11146368568524867 -0.03468270131767781 0.05127186725242883 -0.14043459363958988 -0.027544933415896367
31953 0.018032652675174177 0.22476837551221251 -0.09884088742546737 0.04450913006439805 -0.07613219285849482 0.11796033545397222 -0.1248338168952614 -0.007220341823995113 0.2293939613737166 0.002567352494224906 -0.00868078472558409 -0.15161952516064048 0.11192042636685073 0.16677343007177114 -0.17999000381678343 -0.12772721517831087 0.22655437933281064 0.29761024576146156 -0.1344192058313638 0.10623298420978244 -0.3239903515204787 0.17562664785509696 0.03136135917156935 -0.25031693337950855 -0.002362527884542942 -0.24262333539081737 -0.1518705142661929 0.01632250938564539 0.15414846688508987 -0.10701092553790659 -0.030605077743530273 -0.10938987534609623 -0.36460998747497797 0.17379478854127228 -0.2716568337054923 -0.0989550951635465 0.05079172272235155 -0.010078300256282091 -0.020292713772505522 0.007400293543469161 0.09815026866272092 0.09303738409653306 -0.12904131796676666 0.16004150338108047 0.3069674700964242 0.3248729230836034 0.009421129710972309 -0.10908016946632415 -0.00975301387370564 -0.08571777804172598 -0.25408652826445177 0.018459999933838844 -0.06678787944838405 0.06907967373263091 0.05688223836477846 -0.011602985672652721 0.08480310998857021 0.07909527764422819 0.19761730823665857 -0.18141049519181252 -0.002496551489457488 0.17114950763061643 0.010955248028039932 0.040447285398840904 0.0746354399016127 -0.15996984764933586 -0.005310072563588619 0.1294836311135441 -0.04414125450421125 -0.06887935474514961 0.11399646895006299 0.014107443625107408 -0.15919910511001945 -0.1952291876077652 -0.002023624023422599 0.14253696473315358 0.012744109611958265 -0.1168283136212267 -0.029841049574315548 0.28741515846922994 0.040488891303539276 0.06670471432153136 0.14644384884741157 -0.06295106862671673 0.09003034303896129 -0.3080671960487962 -0.0818292141193524 0.27950599417090416 0.11659096484072506 0.04105864391021896 0.29572160821408033 0.2649779533967376 -0.07984652579762042 0.25811038352549076 0.17040790687315166 0.3368819486349821 -0.17154811532236636 -0.13607772253453732 -0.04383800574578345 0.07599979685619473 -0.03174770809710026 0.331787153147161 -0.04798570150160231 -0.08498893212527037 0.08920498471707106 0.147032355889678 -0.22564957913709804 0.109753577853553 0.1590574651490897 -0.07472725998377427 0.03916169982403517 -0.21566150127910078 0.07518951816018671 -0.16549814026802778 -0.06293647701386362 0.4877286721020937 -0.19101362768560648 -0.19655113108456135 -0.002083356259390712 -0.11230576178058982 -0.020528272725641727 -0.2330154269002378 -0.03237498871749267 -0.02179256599629298 0.06812000076752156 -0.10796819452662021 -0.12449202325660735 -0.13541505299508572
31973 0.006387917994288728 0.15867854264797643 0.017763379350071773 0.10244068378233351 0.15269572954275645 -0.19854623447099584 0.0390514958115773 0.08269374319934286 0.1282141122428584 -0.15942820126656443 0.045900340512162074 0.12319336351356469 0.06770364894691738 0.047997770248912275 -0.20178337502511567 0.03072267526295036 0.1688745119026862 -0.1077555882075103 0.14122502683312632 0.28520782660052646 -0.037811760033946484 0.10302647392381914 0.11619161194903427 -0.16527201980352402 -0.175527096434962 -0.13996798169682734 -0.055543119331559865 -0.029806444712448865 0.10864452744135633 -0.017195279942825437 0.10622131705167703 -0.1696088382450398 -0.17271148413419724 0.3480731254530838 -0.33745517615170684 0.04416681398288347 -0.044446693907957524 -0.007031451183138415 -0.24522549932589754 0.20357531018089503 -0.18171502256882377 0.2860587329014379 -0.1478874848689884 0.1050675068545388 0.1507643689546967 0.3033455364857218 -0.10465362264949363 -0.0004049688286613673 0.0039781894301995635 -0.2374718756545917 -0.13384642329765484 0.11741680940031074 0.22506410023197532 0.13778632826870307 -0.035025523480726406 -0.17001593763416167 0.2605648531462066 0.2587709936196916 0.03994323105143849 -0.19792378571582958 0.08102763236092869 0.18845613027224317 -0.03674353663882357 -0.1116947497939691 0.023171271983301267 -0.25116603687638417 0.147390628917492 0.27299433754524216 0.06132508782320656 -0.004802658382686786 -0.08354962016164791 -0.10356861528271111 -0.1767712788132485 -0.05817472317721695 -0.15776260069105774 -0.17761635110946372 -0.3942722435167525 -0.016788963563158177 -0.05732282808457967 -0.052419238578295335 -0.17500590585405007 0.14940398962062318 0.12183518722304143 -0.26157731321291067 0.0117734614177607 -0.18154061715540593 -0.1868055207596626 0.17980050673122605 -0.13444277958478779 -0.1382103377545718 0.022829850975540467 0.0781316709544626 -0.18004598742118105 0.16978618481880403 -0.03275435759132961 0.13201754010515288 0.022856721858261153 -0.11765616812044755 -0.014416193298529834 0.23459090457618004 -0.1315511403081473 0.388281534134876 -0.019294447116408264 0.10480681638000533 -0.012058224441489074 0.14503734666504897 -0.27476597361965105 -0.058470625943755294 0.2354558883816935 0.08111360584734939 -0.06800240607753949 -0.19080900005064905 0.04489968079724349 -0.08081913932983298 0.0833044588798657 0.29744417787878774 0.008655702389660291 -0.030066863808315247 -0.16394814287195913 -0.03553672437556088 -0.028864942665677518 0.23518094551400281 -0.08364313876882079 0.1732451831921935 0.161628675123211 -0.12595740713004488 0.1607216867560055 0.015682480589020997
31986 -0.05994050892945779 0.12119301850268016 -0.1614346252748362 0.1194168510243685 0.07045508985800097 -0.27704466322529697 -0.11017840322966777 0.0774204108689105 0.06180259424971268 -0.03956896545869881 -0.03319506694657548 -0.055160795953156594 -0.01068038778110747 0.028635533796315116 0.2595923277561951 -0.012546913125945025 -0.08381582146299138 -0.0494218623962297 -0.18442666455911194 -0.4091481098004124 -0.12722200310180654 0.014109216316882112 0.08297722325778523 0.10626753804100808 -0.049263117096415954 -0.4849576664383619 0.11531662969832723 0.18109117626120508 0.16326624107298926 -0.06317341814489907 0.0747765535424385 -0.06277039596400869 -0.2853396623413573 0.1592984979932055 -0.3498490719462666 -0.057153207022224706 0.14787303413738329 0.28563849819460074 -0.06786999915010483 0.3279671046290389 0.0937558217658534 -0.003349256030332981 0.024142072904680845 0.09069037788596912 0.14530445912947698 0.007364147409532507 0.09073048147661211 -0.08737074884651719 -0.22792059791717634 0.056651863783258705 0.20235115838755746 0.015987166994591462 0.1120949587586706 0.03249774016887841 0.22149247998962096 -0.14993591527775152 -0.014579089669755518 0.0863181023708357 0.1409536364142241 -0.24754793510081186 0.1197947525294012 -0.10873008146734264 0.14004141677804682 -0.04009258437395147 0.017544242028378676 0.12974038614066785 0.09326909216122203 0.1569615815761516 -0.032609974264431685 0.033010652583893574 0.0483208710351164 0.10094603677612213 0.06783581534523364 -0.021801801176820845 -0.047732741963898206 -0.05721053090746864 0.010859123236514279 -0.14879761335813413 0.02428563522096283 -0.08747024065388587 0.2083158744329694 -0.10494688436472188 0.015848087665716548 -0.13588605245701046 -0.16507568197584988 -0.08313506069805499 -0.13378754468209308 0.021769219603740453 -0.052518830404679306 0.05155558578411501 0.14813995978897765 -0.05797521612549872 -0.04773856170727697 -0.27992754282900023 -0.16974989180557998 -0.20799867893811097 0.08753784827894151 -0.11179746589036199 0.019715347707006003 -0.16061295815757148 -0.09067968353514289 0.09953087461411769 -0.11953001378662975 0.17685075817264817 -0.14532431697165293 0.1915248437661603 -0.045955566728821395 -0.008159947498143083 -0.010206079440536087 0.22919412413921236 0.023280195508732504 0.010273937571753322 -0.16976098028783326 0.0964921270369814 0.04200551803262442 -0.036317015289000665 -0.04236771253226834 0.309088552585699 -0.19199681426664483 -0.1506830333617799 0.10833353252212419 -0.11036476126607653 0.03361942071774138 -0.13968708503591643 0.12344471779569233 -0.08769829558925846 -0.22089105137618503 0.04002302197136487
31995 -0.04455325170744118 0.0590231445615359 -0.1371798801961912 -0.01813129494243526 0.12949470745553526 -0.036891521266625205 -0.25268572704226244 0.37389188677525453 0.049508924261431275 -0.16046648319172618 -0.176786693562633 -0.16547322183481583 -0.08071242183405047 0.2135575112697552 0.23708234764217195 -0.0117809310814323 0.05280982772774223 0.12793986163796944 0.11717165254499662 0.017462599546149704 -0.01321915031712706 0.2392482512786387 0.052817417426240354 -0.1126469979613276 -0.25296281959936096 -0.028497454616186246 -0.029603147877367064 -0.08580935299636394 0.23869525340535347 -0.2187986910730615 0.03305756709437446 0.22514757435479282 -0.2779613019874887 0.12490637175278607 -0.07920249395510837 -0.09297642196793277 0.12970736763736568 0.1621127451853681 -0.06152540371977011 0.029349596796919286 0.0034829627044814515 -0.05113304071056746 -0.15256464058438723 0.3299340137175477 0.06283871388998818 0.07597079802803819 0.06040794727755383 -0.16647984923088188 -0.02717280041633785 -0.14103151041099693 0.18534504901799664 0.09111343733445665 -0.06648320594128165 -0.020499421460499434 -0.01040213614453478 0.0041647298652378595 -0.0026305848513743513 0.0017361687109769264 -0.06562299322457221 -0.3334186269962629 0.010681748601655272 0.1798536262426751 0.042542087334425105 -0.05867675913907533 0.09748899402580946 -0.023001768372864717 -0.01176150392711861 0.07255529590167953 -0.1632514419582094 -0.11164751536739459 0.018980007417098932 0.08132310418142197 -0.04745923821008091 0.04529556235755905 -0.09500966508085185 -0.03412960246669172 0.010507463606643341 -0.1433874951558778 -0.09318930890080424 0.10357891653120532 -0.014737291687197285 0.15738303376417662 -0.1541615103252525 -0.25393595465106955 0.1619000381724618 0.039112573016694796 -0.12465945599024053 0.14681944483527332 -0.04160677655602285 -0.1736890278046701 0.11876596183265065 -0.15205783960482222 -0.006301714027813432 0.14112381166773957 -0.010412720249405538 -0.1426614469191918 -0.22120738599451784 -0.015563562966008249 -0.0813435101831601 -0.049702404240719034 0.1961586463463334 -0.11896825039315218 -0.02863481387828415 0.0014310628741895925 0.14658712234340499 -0.03523250938974343 -0.2332123141733069 0.1667004698446135 -0.053682105856523776 0.020423886110620515 0.13031693902939878 -0.2600303064967875 0.06634365169929879 -0.17997561288892427 0.08169160873967485 0.20684256276371116 -0.01272760300707887 -0.1401548226522209 -0.12645692441083156 -0.09310971240097388 0.0362262708047183 -0.24975817364355635 0.08279591944040021 -0.10951691842046785 -0.09294427768368507 -0.09033215642040204 0.23409970345215925 -0.13494085962634017
