416 128
30135 -0.013504011 -0.016168622 0.010746199 -0.015865015 0.075535394 0.07844989 0.06351652 0.017902547 0.09904963 -0.008337348 -0.0037702902 0.065535374 0.034566764 0.036891185 -0.0013691721 -0.006223172 0.06483808 -0.013631551 0.0793947 0.07882015 0.018008055 0.095903724 -0.016337235 0.0028289603 0.08929878 0.031657804 0.002063695 0.07197363 0.051093314 -0.009196072 -0.016390806 0.0014614557 0.06513334 0.076546215 0.07793248 0.057587463 0.022689221 0.061002474 0.07525631 0.05068332 -0.019848589 0.07475631 -0.0056393603 0.07553684 -0.018144015 -0.004790626 -0.010670524 0.0574937 -0.009920315 -0.011476599 0.07912496 0.057014138 -0.010157644 0.076078594 0.07145464 -0.018477393 0.057879142 0.0014235842 0.07853003 0.06128218 -0.0053839367 -0.01569101 0.061512142 -0.008467231 0.041262545 -0.018386094 -0.006158332 -0.009379164 -0.004771595 -0.013191669 0.07674038 0.0749952 0.019349134 0.07048512 0.01429622 -0.0062671145 -0.015641661 0.056946713 -0.0061396845 -0.0029050403 0.021982579 0.06489586 -0.002085672 -0.009464289 0.049902644 0.029618433 0.080190755 0.040918443 -0.006083114 -0.0013712936 0.07893359 0.014651463 0.06753715 -0.01641778 -0.018806223 0.0011034607 0.026617555 -0.014456951 0.08347403 0.021809911 0.08714843 -0.0007814594 0.011395285 0.06747421 -0.005646 0.08195339 0.009580173 0.0466518 -0.015682044 0.028909003 0.09384432 0.063538104 0.005600211 0.081644356 -0.0070627867 -0.007873983 0.0015005537 -0.012698526 0.06698433 -0.010994634 -0.010279876 -0.014833458 0.0022748127 -0.017762575 0.027962925 -0.01057878 0.06253374 0.06562981
30397 -0.08003711 -0.112160034 0.07323755 -0.026127772 0.4074795 0.5339586 0.38562763 0.00063561014 0.6272956 0.08031517 -0.06586916 0.6283706 0.031379838 0.3600235 -0.06357605 -0.05404171 0.72632885 -0.06824488 0.5162026 0.82871884 0.15137371 0.7496629 -0.08594299 -0.041252773 0.6408171 0.31723058 -0.042795114 0.76438254 0.38523513 -0.074168354 -0.07445552 -0.032768734 0.7641222 0.7561639 0.5637477 0.72234833 0.2489742 0.6830944 0.6430917 0.9481396 -0.0022787761 0.6414505 -0.062937416 0.68242943 -0.079429194 -0.06873946 -0.11436222 0.92217946 0.00092584017 -0.075654395 0.75602937 0.2432512 -0.099368006 0.7555603 0.7278836 -0.08740341 0.45975834 -0.07022471 0.65034205 0.48987794 -0.038628146 -0.06425929 0.57763684 -0.049456403 0.29453886 -0.12125553 -0.07080795 -0.088124365 -0.042788297 -0.02020045 0.74822974 0.8031864 0.009788156 0.69090503 0.00093795784 -0.05897415 -0.09199106 0.3047818 -0.054148823 -0.021017112 0.30762613 0.44855517 -0.029657098 -0.038290605 0.46439114 0.07908172 0.7101652 0.618496 -0.075745575 0.13638397 0.92001396 -0.043166373 0.67942154 -0.07479558 -0.028660584 -0.012042971 0.27806097 -0.040790398 0.5596048 0.21878363 0.81295544 -0.04510563 -0.03274929 0.55507356 -0.03843028 0.6992852 -0.06342635 0.45468313 -0.093653545 0.09196977 0.6019568 0.65303296 -0.017492017 0.5283033 -0.060638975 -0.043110736 -0.073067926 -0.064835146 0.57433134 -0.06288374 -0.08558859 0.05510689 -0.07094167 -0.10148865 -0.039840087 0.055551346 0.33345792 0.630049
31057 -0.07487361 -0.15433867 -0.10665394 -0.059904054 0.31699553 0.5015351 0.39299247 0.026034245 0.52006704 -0.04017937 -0.09955453 0.36059204 -0.016493794 0.12425978 -0.062779866 -0.051414963 0.7359264 -0.06510626 0.46625018 0.6286284 0.04299774 0.67584467 -0.08204055 -0.03905858 0.6115684 0.14615457 -0.036984794 0.7168269 0.16724564 -0.06914124 -0.06570952 -0.030677507 0.61626214 0.73566574 0.5108561 0.58993435 0.31366077 0.53789324 0.48119783 0.58920836 -0.13627538 0.49881756 -0.05722414 0.62222475 -0.11745164 -0.061997887 -0.09366451 0.62775856 -0.0007199888 -0.067222245 0.6964744 0.16115248 -0.08890024 0.7269763 0.65146446 -0.07693394 0.19567432 -0.0690795 0.60914844 0.3046198 -0.03661979 -0.09798091 0.5977204 -0.03807897 0.21025991 -0.17740002 -0.06174572 -0.085445136 -0.034047965 -0.113234855 0.6580673 0.77138436 0.009477805 0.67441654 0.022250572 -0.04694349 -0.08835288 0.21280621 -0.044240728 -0.020558342 0.02674801 0.44566718 -0.024127431 -0.036021106 0.399666 -0.013408677 0.54342526 0.48490107 -0.07362993 -0.051369227 0.8380714 -0.042541366 0.60357267 -0.066051774 -0.080901794 -0.0068967096 0.054452475 -0.11614292 0.52874196 -0.012362885 0.7520766 -0.03839781 -0.0024988642 0.3626309 -0.03882447 0.63047856 -0.057238255 0.54738826 -0.08757724 0.27462015 0.42088017 0.7086761 -0.013296346 0.39892593 -0.052357815 -0.037997454 -0.059662737 -0.053976357 0.5232689 -0.058926035 -0.07762012 -0.12081806 -0.05780598 -0.08882302 -0.031993553 -0.07683481 0.24093877 0.5415358
34100 -0.025938863 -0.05261473 0.017282456 -0.023712587 -0.014565782 0.27784798 0.17535228 0.045817606 0.07419921 -0.04527384 -0.023996498 -0.067425445 0.13866049 -0.07449461 -0.019141208 -0.018034853 0.361491 -0.018079303 0.17704017 0.21456277 0.06347624 0.26935384 -0.029374521 -0.013135662 0.32056737 -0.028224632 -0.010484159 0.23501045 -0.026933903 -0.022819955 -0.020242373 -0.0064963354 0.2252451 0.35848835 0.29301912 0.26734883 0.29992425 0.17317797 0.107693285 0.079116985 -0.07853939 0.20796269 -0.020838236 0.3091764 -0.04415976 -0.02209943 -0.01659031 0.089667164 0.018879034 -0.014560983 0.29225656 -0.059115298 -0.026449736 0.37172747 0.2379391 -0.018875282 -0.0599629 -0.0002812558 0.33469236 0.09663063 -0.0024427476 -0.048910096 0.43593675 0.010091558 -0.037350595 -0.06601319 -0.015031855 -0.026775539 -0.003492751 -0.049315456 0.34343794 0.30000135 0.13001826 0.35739785 0.207325 -0.009620233 -0.035779476 -0.0023007812 -0.009547457 0.0006389909 -0.0694656 0.32330722 -0.008176286 -0.0076580453 0.2871195 0.15361275 0.18273187 0.14547125 -0.01786613 -0.06637611 0.38004154 -0.015383328 0.29929894 -0.02060291 -0.03570653 0.025963206 -0.07098716 -0.05920237 0.2890589 -0.037303954 0.33988717 -0.0086916825 0.08978466 0.05590821 -0.00023576952 0.20856522 -0.02447927 0.3871414 -0.028378708 0.4412763 -0.02313692 0.48080558 0.012876917 0.082074545 -0.017168228 0.001160834 -0.012923608 0.0037320857 0.06929716 -0.015975973 -0.018263737 -0.094253816 0.012901137 -0.030227086 0.003347996 -0.05975744 -0.014457717 0.11054272
31295 -0.021136895 -0.031026877 0.21241827 -0.026586736 -0.06290147 0.31529006 0.18103132 0.3040637 -0.048206635 -0.029352225 -0.017687641 -0.109782934 0.42427388 -0.08624917 -0.021303827 -0.018648306 0.25035524 -0.01348901 0.083146654 0.20764083 0.21182635 0.23187988 -0.014714079 -0.009270108 0.37058595 -0.02002773 -0.0112072565 0.010747827 -0.010480092 -0.029280297 -0.0227522 -0.006910965 0.23000525 0.38671297 0.37771624 0.2623993 0.45474026 0.12641205 -0.023351766 -0.07849571 -0.08401571 0.2524817 -0.013905209 0.38787094 -0.032940965 -0.02661987 0.04685357 -0.083819754 0.029612567 -0.014938246 0.15344071 -0.08932359 -0.022069316 0.4255616 0.08475349 -0.012797876 -0.06577675 0.03998969 0.37767297 0.1714247 0.034510892 -0.03180808 0.47941065 0.11494955 -0.0625435 -0.030546943 -0.017310785 -0.020868016 -0.0011516581 -0.036123127 0.418454 0.122316584 0.4698523 0.3639321 0.49650303 -0.003733528 -0.032765914 -0.02325031 -0.014721706 -0.004669609 -0.024489531 0.4306502 -0.009033333 -0.012867228 0.36692175 0.44891044 0.1750652 -0.003906877 -0.01311506 -0.068060406 0.3313573 -0.018284941 0.3531326 -0.0061113304 -0.026088253 0.06016162 -0.071584575 -0.026854448 0.34848464 0.09978179 0.33799967 -0.009367332 0.32966095 0.00500221 0.017759858 0.014798642 -0.025398187 0.4381653 -0.02821199 0.6593858 -0.05727711 0.5214028 0.13228345 0.018302705 -0.0076227444 0.02701205 -0.015849212 0.08001432 -0.014308147 -0.014552881 -0.00801655 -0.08249729 0.12260669 -0.015408743 0.0113144955 -0.067064546 -0.050270516 -0.03569218
30977 0.020704014 0.17500347 0.4390836 0.11147781 -0.02114435 0.35771507 0.15357326 0.34045464 -0.008062292 0.12239584 0.1692149 -0.07707112 0.44614807 -0.051443152 0.023696812 -0.012159949 0.24276605 0.05460133 0.07288227 0.3381633 0.27184546 0.23582846 0.04572013 -0.005916391 0.41653836 0.046534844 0.013661844 0.048182752 0.1238222 -0.0043344507 0.010473446 0.021401152 0.38433605 0.48254374 0.46411827 0.4344452 0.5311152 0.21192186 -0.01644649 0.22414444 0.19915625 0.37793067 0.0021681497 0.45785972 0.20800965 -0.022720817 0.21176316 0.17127915 0.13165227 0.013697145 0.19674982 -0.10257521 0.013540257 0.4680388 0.08326995 0.06857491 -0.029292881 0.09768532 0.42759028 0.35897452 0.17480537 0.17749888 0.5009685 0.24791121 -0.066425495 0.23210858 0.003629682 0.027872806 0.0086537255 0.10905134 0.4745583 0.11758962 0.5621924 0.45920596 0.61010474 0.0054911543 -0.012697645 -0.010525099 0.010464863 0.048598357 0.20762809 0.51932615 -0.006647156 0.013410935 0.5125571 0.6770522 0.3517024 0.12050202 0.0610179 0.058078725 0.36296025 -0.010825118 0.4661909 0.06112286 0.17073849 0.18294986 -0.013973144 0.15585084 0.36058274 0.2966313 0.37393302 0.0058827475 0.51976025 0.009065573 0.0867751 0.0429243 -0.02984825 0.48090416 0.00044457422 0.761408 -0.029928649 0.5695521 0.16198133 0.051340897 0.015864024 0.1259644 0.012334144 0.16586915 0.011088267 0.014423456 0.05315463 0.12954712 0.2589577 0.02352412 0.06228834 0.13028805 -0.058386914 -0.018694436
31703 -0.00048694844 -0.039028417 0.17768261 -0.0015652647 0.04644301 0.35261863 0.1984756 0.034634557 0.14458184 -0.030058019 -0.00021537123 0.002797268 0.2725428 -0.016526757 -0.006164373 -0.009858287 0.40077114 -0.0015006139 0.23046234 0.32675982 0.18639998 0.32932195 -0.009073813 0.00452087 0.37256256 0.033920724 -0.0075104665 0.20651948 0.102041505 -0.010316861 -0.014279542 -0.009366957 0.29314858 0.40562013 0.394023 0.3277436 0.25314558 0.2566474 0.17196618 0.17556463 -0.053750772 0.30276218 -0.008020766 0.35479185 -0.031776454 -0.010057625 -0.0017553251 0.18177395 0.023418315 -0.0040535214 0.35083348 -0.022110473 -0.013988548 0.4132908 0.27689713 -0.011760925 0.0030998492 0.023567883 0.40870103 0.21249238 0.012426888 -0.037874293 0.5075257 0.04529612 0.002215441 -0.028213158 -0.0097124465 -0.014872946 0.018936848 -0.029263245 0.41609815 0.3171064 0.25195935 0.37526506 0.3072747 0.01764383 -0.021815928 0.03236949 -0.013200391 0.004003125 0.044842456 0.40328553 -0.013437415 -0.005904792 0.37323764 0.27528456 0.28694195 0.20886643 0.012189325 -0.026349869 0.44457942 -0.009769459 0.3707329 -0.0012173001 -0.00026398004 0.041462358 -0.019590063 -0.028660543 0.37627542 0.09338856 0.39485216 -0.0034354103 0.07741975 0.16691206 0.024536654 0.23006868 -0.022359382 0.37200937 -0.011652242 0.37273514 0.07357749 0.47200146 0.078604504 0.16390684 -0.008457049 0.041143823 0.012566422 0.020438362 0.06778738 -3.145817e-05 0.0021791214 -0.049040932 0.04409306 -0.011600535 -0.008895672 -0.037576526 0.01879497 0.11561359
30721 0.01190767 -0.011512527 0.19529042 0.0032128543 0.012086485 0.23427917 0.12291745 0.03430211 0.07432059 -0.0020143471 0.014160695 -0.024622574 0.26272932 -0.0122709125 0.0071591013 0.00260337 0.22521792 0.0043214513 0.14191645 0.20795432 0.18353797 0.20909952 0.0013028785 0.01872767 0.2403453 0.03255238 -0.0017928255 0.058107715 0.098330945 -0.000873935 -0.013229864 -0.009004739 0.16110916 0.2331906 0.25994736 0.19282457 0.12725 0.1575037 0.0760342 0.068900235 -0.014987536 0.20299758 0.0053590327 0.21600476 -0.00020096476 0.0002580959 0.007151147 0.06359272 0.0024849598 -0.0010048255 0.19433276 -0.029778121 -0.0014897 0.24207714 0.14907113 -0.0033773812 -0.0005854825 0.031549606 0.26615477 0.15970825 0.015165837 -0.008245966 0.3270906 0.03558603 -0.020591836 0.0038211409 -0.0015247698 -0.0015955709 0.024546877 -0.005687007 0.2697949 0.15403569 0.2331699 0.19984564 0.25887412 0.03060426 -0.0015154206 0.0036630533 -0.011580999 -0.00802455 0.062578306 0.2798828 -0.016820665 -0.012533315 0.25422183 0.24809766 0.18309543 0.10476154 0.015963752 -0.0012069616 0.25871232 0.001966365 0.23683652 0.009153342 0.014655517 0.022824775 -0.003530903 0.0048543653 0.2583992 0.120410934 0.23609518 0.0032823947 0.057066236 0.112701215 0.022006625 0.099500835 -0.008915405 0.2241371 -0.0020244052 0.25052595 0.030093923 0.28927726 0.07677289 0.09676516 0.0023760067 0.024788724 0.025013475 0.0178786 -0.0031115036 0.012228015 0.009526613 -0.00701066 0.038628247 -0.0018187359 0.0067535387 -0.0077973553 -0.0022196658 0.0073463693
30529 -0.0028622693 -0.00949636 0.09626896 -0.0035775546 0.020457154 0.13274737 0.07262927 0.019051125 0.05029629 -0.0022856304 0.004510599 -0.008064332 0.124680735 -0.0019631367 -0.001718139 -0.0061691194 0.121548146 -0.0054855645 0.08564859 0.1193366 0.09275385 0.12426044 -0.009588308 0.0038198621 0.13751212 0.017121924 -0.0028605703 0.036442768 0.059239242 -0.0077383546 -0.011340513 -0.0026526845 0.08859777 0.12391575 0.14453657 0.10461686 0.058744136 0.08888267 0.045964018 0.045942996 -0.009034207 0.117474675 -0.0034330615 0.116154976 -0.0094667 -0.0067072688 -0.0014339146 0.039345093 0.0011200237 -0.008366564 0.10690872 -0.003181586 -0.007007313 0.12957421 0.08639873 -0.011568999 0.006170422 0.014455945 0.14496005 0.09529364 0.0006728478 -0.00990975 0.17203054 0.010184609 -0.007352871 -0.002258101 -0.007139844 -0.0057847206 0.0032652363 -0.00602262 0.14587946 0.0888322 0.11201503 0.106010705 0.123541236 0.006730538 -0.009861603 0.011692568 -0.006911923 -0.006215192 0.03418065 0.15565532 -0.013076232 -0.008997334 0.14199695 0.124465026 0.110107414 0.05601364 0.0035314076 -0.0012456962 0.13795614 -0.0015001683 0.12665951 -0.0049980134 0.000996792 0.013339945 0.0034110434 -0.0010497856 0.14638332 0.058652315 0.13085416 -0.003602439 0.033034753 0.0648233 0.0025878102 0.05939235 -0.010223424 0.11389808 -0.009887673 0.118348196 0.02884111 0.15072225 0.03137539 0.06350123 -0.0063516684 0.013110093 0.0013264877 -0.0007086352 -0.0042687943 -0.0033747214 -0.0013425223 -0.005232882 0.0152088115 -0.012049191 0.0117388815 -0.0013239043 0.0078043775 0.009623647
30198 0.009882359 0.003724345 0.094100386 0.011475325 0.030978758 0.112437285 0.057696935 0.01388548 0.06001686 0.00022371561 0.016511539 0.013630557 0.10370625 0.007847844 0.0047260844 0.0010313033 0.10080595 0.0067517036 0.07417681 0.09724691 0.089405425 0.10587268 0.0064567253 0.0048992806 0.11259889 0.022825623 0.004499633 0.04281578 0.06255099 0.003042336 0.0059539517 0.0021048721 0.07417213 0.09991941 0.12947083 0.083620735 0.042190194 0.0767562 0.050588213 0.04854534 0.0020131632 0.1000812 0.004965721 0.09301556 0.004964901 0.0042142393 0.0103652 0.045517575 0.0152423335 0.0028884716 0.092592925 0.021180134 0.00691176 0.10294686 0.07636281 0.0033696017 0.015385288 0.025289029 0.11602799 0.08669101 0.011729033 0.0027746176 0.14623885 0.022015298 0.0062433495 0.011509958 0.0005216496 0.007996723 0.010473636 0.004818003 0.117186606 0.07721328 0.096271925 0.08449903 0.10734513 0.013673679 0.005395409 0.019416716 0.00041884906 0.0037450816 0.045992848 0.13470232 -0.0066388776 -0.00042939273 0.12362401 0.10205443 0.09650473 0.05228473 0.016815923 0.006124293 0.11312636 0.005716965 0.10033872 0.008203581 0.016033217 0.023948308 0.009631748 0.013005728 0.12344501 0.06481545 0.10539465 0.0004947951 0.030045683 0.06134479 0.013719619 0.061154112 -0.0015700446 0.08376565 0.00810586 0.09125478 0.04467337 0.11369699 0.03469633 0.060394444 0.0006539224 0.027978657 0.0041455817 0.012191609 0.010911573 0.009156332 0.015524571 0.0021602511 0.024354478 0.003930636 0.01130593 0.0017372178 0.021607857 0.023806851
30434 -0.0059486884 -0.007304552 0.037715282 -0.008501075 0.008520091 0.058250513 0.04115198 0.022132268 0.020718982 -0.0027708665 0.0014841375 -0.020906456 0.06414983 -0.010524292 0.002620722 -0.0017937438 0.04935911 -0.005606838 0.039910804 0.048154682 0.037959725 0.05572308 -0.008457886 0.007582804 0.06558441 0.0057058115 0.002846013 0.009433501 0.021776015 -0.0042100064 -0.013579684 0.00086775527 0.033750758 0.05355877 0.058948174 0.04113907 0.027520582 0.03522514 0.017470356 0.0021485768 -0.008232812 0.048299503 -0.0011947887 0.052792247 -0.007425047 -0.0030677472 -0.0043682414 -0.0012771664 -0.008039061 -0.006070509 0.04099278 -0.0070406995 -0.006121742 0.05629159 0.03283365 -0.010350854 -0.009414689 0.004918196 0.06656805 0.03734496 -0.00056867936 -0.0071269795 0.07258924 -0.0013236728 -0.0020776414 -0.0057999794 -0.0024050877 -0.005872228 0.0014643256 -0.00487394 0.06087522 0.03425264 0.048573136 0.047561433 0.04762471 0.0025985248 -0.008124105 0.0072697704 -0.004900112 -0.0033806313 0.0059177424 0.06521902 -0.0028980228 -0.007334049 0.05722577 0.05411248 0.042963035 0.015470795 -0.0022515904 -0.0034123613 0.056623638 0.006364827 0.055291656 -0.007871452 -0.0074606314 0.0020878646 -0.0062269024 -0.0055554966 0.06602103 0.020147117 0.059489965 0.0036319648 0.016880197 0.027656203 0.0018182491 0.023056438 -0.00094193534 0.057194185 -0.009158758 0.054391664 0.013373201 0.06897557 0.015458204 0.029591585 -0.0025012454 -0.0056406055 0.01066365 -0.00467643 -0.011559386 -0.0044292044 -0.005139083 -0.006055916 0.005944961 -0.009997332 0.01965555 -0.0022831396 0.0039279494 -0.007031421
31577 -0.003010369 -0.0034347277 0.02874036 -0.0039024567 0.005649728 0.04210202 0.035299204 0.03844694 0.00594412 -0.0046015214 0.013194869 -0.01181619 0.045571014 -0.009897838 0.008007064 -0.00034929602 0.016157795 -0.0013323255 0.022216486 0.02510514 0.011700509 0.033294044 -0.0040506893 0.0031418898 0.048472244 -0.0020988996 0.015884282 0.0020584215 0.004124509 0.00014112101 -0.0052812435 0.010598482 0.020147186 0.034373295 0.043622658 0.026457042 0.036046144 0.012838039 0.0057365326 -0.0031065869 -0.0058907797 0.03120659 -0.00017244142 0.03905331 -0.0047356407 0.0018771418 0.0072274795 -0.0034599686 0.0011726577 -0.00018615136 0.013663016 -0.0051870095 -0.002293786 0.037618373 0.008678589 -0.0060471063 -0.007511328 0.020007871 0.04417998 0.031553373 0.009620263 -0.0044574453 0.044784516 0.008788522 -0.00571632 -0.0003735329 0.002183215 0.0041817217 0.0012668973 -0.004453585 0.033713594 0.014357151 0.042264506 0.03822601 0.034749888 -0.00059829856 -0.0050216177 0.00886831 0.004021446 0.0048876856 -0.0032631268 0.051101062 -5.2966938e-05 0.0023438311 0.041868012 0.050224535 0.02969299 0.0019199621 0.00788067 -0.0059074014 0.023401866 0.006184389 0.03700927 -0.004453787 -0.0040510446 0.016892936 -0.008391477 -0.0040391507 0.045202445 0.009785363 0.039135557 0.004547329 0.041373547 0.009308398 0.008863488 0.007353142 -0.0015379924 0.04483749 -0.0041259876 0.048039984 0.0064899856 0.04785249 0.024218403 0.023058103 0.000948813 0.004311801 0.024085997 0.0051955916 -0.004236176 -0.0037681942 0.0032198322 -0.006747587 0.023970647 -0.004571293 0.04263672 -0.002748721 -0.0017890322 -0.0043291207
32070 -0.011460444 -0.0152166365 0.03473965 -0.014603675 0.051762484 0.089462265 0.06565053 0.022523938 0.07499765 -0.0068141944 -0.0017521902 0.025385672 0.06664107 0.014853031 0.00044994123 -0.0048633115 0.07568225 -0.011441396 0.07589684 0.08284689 0.040165883 0.09781957 -0.015099223 0.00647393 0.09998812 0.02313993 0.0017366316 0.05043399 0.048053637 -0.008345923 -0.01850937 0.00035408192 0.06412277 0.08444336 0.090119466 0.064292915 0.030966613 0.062707745 0.058565043 0.034245923 -0.017684126 0.080037974 -0.004113846 0.0828421 -0.01624532 -0.005020722 -0.009229371 0.03521026 -0.011093794 -0.010746333 0.07891707 0.028976167 -0.010028741 0.08620373 0.06773868 -0.01746265 0.029229913 0.0042684097 0.095177 0.06446494 -0.0034842775 -0.014481891 0.09024671 -0.0055809333 0.023569925 -0.014752848 -0.005586423 -0.009304767 -0.001561132 -0.0113013415 0.091070555 0.07075982 0.04642243 0.07594243 0.04365448 -0.0013606477 -0.01430157 0.03833815 -0.007619668 -0.0047602165 0.019715568 0.086926684 -0.0041187196 -0.010974044 0.07202375 0.05486684 0.07929746 0.03754694 -0.004713191 -0.003463576 0.08981601 0.012245609 0.08029377 -0.014382896 -0.015603083 0.0021515563 0.011942355 -0.012317026 0.09773215 0.029100258 0.09516427 0.0013750197 0.01675943 0.06128928 -0.0022197713 0.066123135 0.0042434805 0.06694699 -0.015096039 0.054274853 0.066325724 0.08671759 0.013891555 0.07031093 -0.006081465 -0.007344758 0.0066469936 -0.010465905 0.032256715 -0.009000076 -0.0091933105 -0.013250397 0.005369914 -0.017108502 0.027341118 -0.008486929 0.040373337 0.035116132
32467 -0.0007648564 -0.010691196 0.12804335 -0.0029509892 0.020722028 0.19377455 0.10452699 0.032102 0.08801427 -0.0060395086 -0.0041384506 0.014922531 0.16449575 0.0027355473 -0.008948532 -0.007526982 0.22021522 -0.0026137661 0.12573963 0.19701552 0.13483997 0.19948412 -0.010243734 0.0012616911 0.20713061 0.033256523 -0.011675473 0.100637555 0.08761629 -0.010177428 -0.009510058 -0.0134709105 0.16511543 0.21723917 0.22154468 0.18415688 0.11443927 0.15741488 0.09415881 0.11417386 -0.013222488 0.18124162 -0.0048265806 0.19788866 -0.013275359 -0.008235528 -0.007081082 0.10198673 0.00439104 -0.010305377 0.19264467 -0.013526383 -0.011072309 0.22551984 0.16438614 -0.015231902 0.0109859 0.008745047 0.2252133 0.13823333 0.0041411 -0.011068886 0.2740216 0.013465896 -0.0024528129 -0.0135609275 -0.0125731025 -0.0071799103 0.007628143 -0.008818486 0.23770007 0.170223 0.14231788 0.19161734 0.16883351 0.014745234 -0.0062809563 0.010193735 -0.01343275 -0.007890754 0.05805196 0.23118666 -0.016489841 -0.011474732 0.21124287 0.16182454 0.17045897 0.11457624 0.00060389074 -0.005162179 0.2531425 -0.0090516 0.20780179 -0.00044916393 -0.0009908404 0.011868192 0.0010282596 -0.0034093482 0.21457188 0.08162411 0.22196826 -0.009142016 0.03741572 0.10771797 0.0027375782 0.116624475 -0.01622437 0.1913003 -0.0031071706 0.19055916 0.048757013 0.25543767 0.033805516 0.097228326 -0.008640385 0.01439288 -0.0040668612 -0.003673593 0.030952264 0.0014827674 -0.0027807574 -0.0147265745 0.010024816 -0.0126268575 -0.0039443136 -0.007902963 0.0039065513 0.04842891
34082 -0.018124785 0.019436767 0.04405704 -0.010592446 -0.0042449473 0.08181846 0.11612104 0.26098594 -0.012340688 0.023248704 -0.0042167976 -0.028451443 0.06830403 -0.019106941 -0.005231032 -0.01095374 0.0057212515 -0.011651723 -0.001810665 0.10862923 0.017759053 0.08690703 -0.015911993 -0.009136956 0.15377311 0.013250774 -0.022188999 0.023746049 0.005885161 -0.01280655 -0.02997055 -0.0089822 0.14700857 0.17215738 0.10952838 0.14945759 0.2388607 0.06058801 -0.017046593 0.0465602 -0.0010585114 0.10382296 -0.012615294 0.17051797 0.012810172 -0.023376511 0.034977544 0.0088913925 -0.019656789 -0.012108176 0.01213791 -0.045547903 -0.020633591 0.16405194 -0.0026387747 -0.016139675 -0.007248567 -0.01567804 0.124379694 0.11128768 0.032362025 0.0068834517 0.08937543 0.031799823 -0.033257667 0.022335475 -0.011454469 -0.019555032 -0.009454263 0.0055691386 0.12552196 0.0469817 0.0817222 0.19282043 0.05833552 -0.0058313934 -0.02464951 -0.014437648 -0.02573335 -0.015109589 0.025183534 0.120598316 -0.011060966 -0.016314354 0.098792404 0.1429714 0.10323258 0.00061620306 -0.023834884 0.0042933216 0.08879165 -1.01336045e-05 0.13608709 -0.01028748 0.00109604 -0.008268462 -0.009106884 -0.0054439446 0.10813214 0.02850076 0.14345463 -0.0014859381 0.26358855 0.0025256963 -0.0058537815 -0.0042999787 -0.0047719134 0.17585185 -0.02593463 0.26007137 -0.012635492 0.2008949 0.031238832 0.047418375 -0.013091251 -0.022208681 0.038917318 -0.001880654 0.03470373 -0.01821872 -0.026113875 -0.0018103821 0.091037124 -0.019368127 0.13034987 -0.00077677006 -0.01694646 -0.0017932439
33195 0.003505855 0.005188536 0.122215465 0.0053452784 -0.0049432726 0.15292653 0.08564708 0.078936145 0.02416514 -0.0030488507 0.009242393 -0.045305323 0.16091305 -0.02822806 -0.0026827627 -0.0045451517 0.14145377 0.0024501823 0.06782527 0.13223563 0.11492603 0.13764587 0.0010544406 0.0017507109 0.17209256 0.011155576 -0.009596167 0.037144847 0.05008094 -0.005646967 -0.00644822 -0.009961109 0.12196197 0.1754663 0.1817201 0.14113922 0.13477935 0.09886415 0.026948068 0.039866287 -0.0037090667 0.1355716 -0.0013674591 0.16177668 0.0071651367 -0.007133794 0.018205967 0.027796768 0.005914762 -0.0034967025 0.111865446 -0.030059977 -0.0024065534 0.17967835 0.08397593 -0.0007132689 -0.025672354 0.01638967 0.17770009 0.112125255 0.019276902 0.0034802996 0.21967164 0.03378769 -0.023727544 0.01199442 -0.007280034 -0.0029281275 0.006076189 -0.00043866242 0.18445836 0.09683049 0.15183057 0.16039938 0.17284723 0.012630355 -0.002888276 -0.010935449 -0.012079936 -0.0071688355 0.03955011 0.20116253 -0.014820968 -0.009302439 0.17967138 0.17426826 0.12179813 0.05479085 0.0077462783 -0.011329992 0.17187053 -0.0046929233 0.163991 0.0057957354 0.013390817 0.018537024 -0.022907356 0.0044808076 0.17131996 0.06922202 0.16500819 -0.004365309 0.10158636 0.04702343 0.0102694165 0.051177308 -0.011047383 0.17116663 -0.0018315146 0.22328627 -0.00010490068 0.21809287 0.04330944 0.05583268 -0.0058941236 0.017813735 0.0076301135 0.014987338 -0.011603339 0.0026878868 0.0045557995 -0.010539055 0.041453198 -0.0020356358 0.022291819 -0.008941616 -0.014984211 -0.0018866108
34761 -0.019718986 -0.010718142 0.0067183566 -0.016220137 -0.003556583 0.11816018 0.14233646 0.26133227 0.0049492097 -0.009486995 -0.019012585 -0.027960869 0.059032902 -0.028627528 -0.017467638 -0.018354414 0.08655474 -0.013788051 0.021693489 0.141423 0.009671654 0.14463784 -0.01945968 -0.01632828 0.2231972 -0.0017340465 -0.022482809 0.09171873 -0.01956276 -0.023177905 -0.021728877 -0.0055952747 0.17773727 0.23472482 0.15183538 0.19819596 0.28259924 0.08556394 0.007840546 0.050890297 -0.043529183 0.11805379 -0.016411964 0.224 -0.012711079 -0.02600432 0.014750032 0.03221287 0.0035306017 -0.01940652 0.06833689 -0.04490604 -0.025265552 0.2432411 0.038415685 -0.019285928 -0.01797482 -0.0057771388 0.16875023 0.09369042 0.011813673 -0.019625783 0.15966767 0.026743233 -0.03156097 -0.023881791 -0.019401778 -0.016515518 -0.015499319 -0.020405302 0.18720599 0.122729614 0.054577794 0.25675085 0.062283482 -0.020012638 -0.02706447 -0.015060475 -0.016207382 -0.008023887 -0.015469719 0.18694237 -0.012254374 -0.009846572 0.13850701 0.09894188 0.123561695 0.015338352 -0.015024856 -0.03546999 0.17416054 -0.012039632 0.17598891 -0.012787471 -0.015157193 0.0141416425 -0.035821155 -0.020701732 0.1521987 -0.008759397 0.21435401 -0.010997548 0.2653605 -0.005052425 -0.005086827 0.029945126 -0.013811361 0.23887001 -0.027082004 0.32789505 -0.013102323 0.27996805 0.020203508 0.05158245 -0.018824097 -0.008615516 0.0033883108 0.0056176456 0.06366135 -0.024180794 -0.019561334 -0.045736857 0.05355177 -0.019060547 0.09537208 -0.031828087 -0.0051974733 0.05712532
34711 -0.003240111 -0.004155797 0.045014147 -0.005576205 0.00073723303 0.049540777 0.034685932 0.026191201 0.009655623 9.0771486e-05 0.005884706 -0.0045582256 0.065678805 -0.0027129718 0.003907073 -0.0005729044 0.03178918 -0.004455447 0.028602157 0.04065303 0.03300133 0.042915273 -0.0059130043 0.0070104855 0.057068814 0.0052940617 0.0067429068 0.001452457 0.0152965775 -0.002799906 -0.010810125 0.0018530273 0.028489199 0.046462152 0.05152803 0.037440278 0.033261716 0.025974223 0.0075210687 0.0006346177 -0.0034712239 0.042229954 -0.00090822513 0.048319217 -0.0021700312 -0.0004773695 0.0013053472 0.0020562396 -0.0066110827 -0.0044491948 0.026039146 -0.010080335 -0.004359375 0.049021732 0.01909255 -0.0071759773 0.0015789886 0.009919617 0.056264367 0.036565494 0.0041589616 -0.0021096028 0.060647935 0.001980519 -0.007973253 -0.0011759088 -0.0013275902 -0.002492638 0.0029734662 -0.0036979187 0.05060163 0.022061793 0.05849037 0.041230917 0.052217647 0.0038737643 -0.00485281 0.004748705 -0.0038720027 -0.0026829909 0.0077335094 0.059400916 -0.00411286 -0.005890958 0.05098758 0.06427744 0.0370125 0.008429263 0.0008775876 -0.00245662 0.04221277 0.0037305804 0.04988631 -0.0048433696 -0.0037294365 0.0038523 -0.0007681393 -0.0021317818 0.056311376 0.023881981 0.04965372 0.003542344 0.02618277 0.020019315 0.0036830816 0.009785079 -0.0008446759 0.05292184 -0.0070769275 0.060176436 0.005431778 0.061240204 0.020876601 0.024155512 -0.00080937933 -0.0046877945 0.016647954 0.0006146502 -0.0026804712 -0.0027137643 -0.0036359546 -0.0015122218 0.012713052 -0.0063290074 0.02482825 -7.745345e-05 -0.0031799048 -0.0048689735
30852 -0.018448252 -0.04689316 0.14722244 -0.01391123 0.026550023 0.34839615 0.19874614 0.06465198 0.11484379 -0.040922377 -0.014561107 -0.02243419 0.24836019 -0.040250525 -0.016427016 -0.020936972 0.40608144 -0.014294671 0.21340418 0.31336367 0.15755163 0.3232581 -0.022642896 -0.010130911 0.38012463 0.01634159 -0.0056056376 0.2074394 0.07155537 -0.02230179 -0.017657416 -0.0070355325 0.2958362 0.42603987 0.3936587 0.3367581 0.29615682 0.24736449 0.14355846 0.16671722 -0.057619456 0.29824817 -0.019347353 0.3701264 -0.039480958 -0.02028136 -0.0058424757 0.16623503 0.027907697 -0.01492985 0.3470839 -0.031656604 -0.024890313 0.4332196 0.28011456 -0.025804155 -0.033840254 0.005668152 0.40829366 0.20081411 0.0078079486 -0.040865835 0.51383287 0.04460954 -0.012809462 -0.046764042 -0.019206796 -0.02452148 0.00060575857 -0.03602298 0.42690298 0.30644763 0.2428262 0.39515126 0.3147425 -0.0017017792 -0.03279383 0.01815903 -0.009515529 0.0038190216 0.012291564 0.40961 -0.013148733 -0.009785312 0.37716585 0.29271817 0.28023782 0.18723762 -0.0062517277 -0.044432506 0.44591796 -0.017253866 0.37653813 -0.015087502 -0.01752348 0.04413814 -0.04683563 -0.04258916 0.36855564 0.05822585 0.3990143 -0.011147628 0.11345603 0.13201135 0.0072091715 0.21971996 -0.033600435 0.40493473 -0.028352382 0.43294856 0.043607533 0.51027167 0.054242756 0.14079455 -0.014369846 0.03373144 -0.0038802528 0.0059468737 0.06115834 -0.016272679 -0.010416477 -0.06826366 0.032487154 -0.028744714 -0.0038907623 -0.040786307 0.0015079976 0.108515315
34524 -0.0016403645 -0.005778502 0.043940973 -0.0031360388 0.021973975 0.07301926 0.043899525 0.011777464 0.039134007 -0.0038900375 0.0023269793 -0.012009258 0.061681062 -0.0054637315 0.0016894503 -0.0024682202 0.06696627 -0.0020761928 0.051853508 0.06101096 0.04831347 0.0717558 -0.0050447136 0.004321647 0.07681074 0.010540963 -5.6058296e-05 0.025913775 0.03544658 -0.0025611273 -0.0070151165 0.0006954466 0.04507326 0.06414508 0.07772121 0.050212104 0.023692433 0.048307292 0.032571737 0.021467654 -0.00713644 0.06137553 8.266506e-05 0.060182318 -0.0069344537 -0.0023627162 -0.00235014 0.015198902 0.0007846567 -0.0039766687 0.060833137 0.007997886 -0.0027917882 0.06641576 0.05108808 -0.006678805 -0.0029853873 0.0080081215 0.07796867 0.04926719 0.00048803812 -0.0069720373 0.09136482 0.0034800228 0.0054254364 -0.0025907732 -0.002311159 -0.0021091725 0.0021086726 -0.00319897 0.07485281 0.05118167 0.047280796 0.055740897 0.05449207 0.00362333 -0.0053224186 0.012998126 -0.003041675 -0.0010891302 0.016434545 0.08196345 -0.0039877566 -0.0050021666 0.07362822 0.052924335 0.058339164 0.028970566 0.0025707616 -0.0018551534 0.07346096 0.005807303 0.06352929 -0.0037413347 -0.0014481498 0.0084616225 -0.0016558042 -0.0017222863 0.08071747 0.027393859 0.07091208 0.0013676406 0.012886453 0.03991633 0.003121626 0.041731685 -0.0023367293 0.056790717 -0.0039349375 0.05077894 0.02835071 0.07491965 0.01495317 0.040746234 -0.002774761 0.006831589 0.0022813978 -0.0026295574 -0.0047739586 -0.0016974271 0.0011037024 -0.0062993565 0.0070537007 -0.007143279 0.011522961 -0.0027936706 0.014722891 0.006416579
33667 -0.0045039374 -0.007072544 0.0733006 -0.0064597265 0.016461283 0.09637356 0.05326736 0.0072008707 0.043257684 0.00020486048 -0.0015961651 -0.02264825 0.102904625 -0.007713646 -0.001768008 -0.0032216753 0.095212534 -0.0057041994 0.06718707 0.08832923 0.08339453 0.09578175 -0.008914563 0.009259716 0.10107857 0.016869286 -0.009200551 0.021982841 0.053541426 -0.0068711326 -0.01673093 -0.0091324095 0.060916025 0.08725059 0.10237833 0.07062224 0.025782602 0.070156634 0.03486499 0.021815429 -0.006153372 0.085209094 -0.00063447445 0.08156134 -0.005615551 -0.0062913653 -0.008219117 0.015321107 -0.011264146 -0.0089964885 0.08183758 -0.003784881 -0.00616987 0.09095616 0.06670355 -0.010631702 -0.0035209036 0.0014003235 0.10800019 0.066064514 -0.0036744643 -0.0060433364 0.12622738 -0.0021066593 -0.00080400374 -0.0023958886 -0.0064132395 -0.00965126 0.0036061767 -0.0027304161 0.108128466 0.06436317 0.078175426 0.07045395 0.08620399 0.008981767 -0.0074444786 0.0073946854 -0.013373769 -0.011915969 0.031045407 0.109139055 -0.01051034 -0.015478938 0.10010781 0.08350323 0.07660297 0.040380474 -0.0033769296 1.4763546e-05 0.10517161 0.004166047 0.09049527 -0.006676826 -0.0014388714 -0.002781131 0.00016183892 -0.0006287721 0.10959492 0.04903992 0.09567357 -0.00026798452 0.0052498654 0.05547799 -0.00075143453 0.04659918 -0.003095467 0.078586414 -0.0094658 0.077637024 0.025320357 0.10597714 0.017339088 0.047762886 -0.0055967406 -0.0029598647 -0.0002166411 -0.006836666 -0.016033648 -0.0016049282 -0.006190291 -0.0023960012 5.7544014e-05 -0.011571418 0.00082435 -0.00054366444 0.010165656 -0.00453995
30792 0.000921218 -0.001274279 0.07129553 0.0006627959 0.0048441854 0.080321126 0.04429334 0.022271363 0.019311836 0.0008215254 0.010522506 -0.012351479 0.08982969 -0.0067650713 0.00270058 -0.0011056325 0.06301708 0.0004828756 0.046044033 0.068134084 0.06082961 0.069749296 -0.003473376 0.0033338137 0.08319161 0.006608437 0.0030068592 0.009140896 0.032162484 -0.0017161124 -0.006633104 -2.2249471e-05 0.050075684 0.07168829 0.08747588 0.06164179 0.04181395 0.04816822 0.017727882 0.017659403 4.2696138e-05 0.06967053 -7.8401776e-05 0.07062154 0.00053416763 -0.0014148671 0.005227277 0.013264134 -0.0001053864 -0.0020650676 0.054743495 -0.01178946 -0.0018343703 0.07698983 0.04077863 -0.0043625734 -0.0021023827 0.015975595 0.0880613 0.060730875 0.007282127 -0.00014965741 0.10331032 0.0119801285 -0.012629128 0.0059885206 -0.0011682875 0.0011584765 0.0047093867 -0.00013858982 0.08590054 0.043896776 0.0824765 0.06285286 0.08504672 0.007109197 -0.0030200786 0.0028712137 -0.0043529854 -0.0034723948 0.021319944 0.09930854 -0.009067611 -0.0051847305 0.08982624 0.090558134 0.063612476 0.026582487 0.007076731 -0.00078932394 0.075811245 0.00040313642 0.07719647 -0.00043405872 0.004411553 0.012485388 -0.00060145004 0.0041215573 0.0890656 0.041203722 0.07678948 -0.00039010897 0.03244326 0.032722514 0.0065406626 0.02347858 -0.0060032145 0.07265509 -0.0036526888 0.08473093 0.007243069 0.092738226 0.028308278 0.033812728 -0.00053810386 0.008940295 0.00998492 0.0059278575 -0.009606088 0.0004203354 0.0035255519 -0.00014263346 0.019122466 -0.004604923 0.017034968 0.0019998415 -0.004078671 -0.0045912964
30647 0.0062606353 -0.00024610833 0.08611248 0.008534767 0.026563408 0.10825822 0.051563356 0.008141794 0.05282357 -0.0011010532 0.011331233 0.009426252 0.09348865 0.0060920543 0.00027062665 -0.002683264 0.09896958 0.002920207 0.06840767 0.09456653 0.08300198 0.10232197 0.002563056 0.0019334642 0.107886106 0.020900318 -0.0011188017 0.04164476 0.059034333 -0.0016174059 0.002501631 -0.0015272584 0.07366657 0.09763149 0.1257845 0.0820111 0.03946409 0.07513257 0.046688173 0.051370155 -0.0011138765 0.09682544 0.0014602138 0.089534685 0.0010203344 -0.00034670555 0.007986074 0.04616762 0.013373835 -0.00090326107 0.09104805 0.01571336 0.0033141293 0.10022442 0.07441727 0.0006687248 0.0130407475 0.020670617 0.11162698 0.083102874 0.008713818 -0.0007717049 0.14126945 0.017677946 0.00282094 0.008484925 -0.0039247028 0.004441857 0.005748284 0.00049684494 0.11457791 0.07558049 0.08865273 0.08310953 0.101785615 0.0091619585 0.00119464 0.013911931 -0.003079335 6.8569425e-05 0.043827195 0.13055234 -0.009721569 -0.0033577194 0.11988066 0.09568593 0.093887486 0.05234527 0.01283312 0.0031574613 0.11076552 0.000617021 0.096850805 0.0047445074 0.013630308 0.019620156 0.007966323 0.00892518 0.11815469 0.059219483 0.10134356 -0.0028631228 0.025418753 0.05833275 0.00794222 0.058093406 -0.0052082874 0.07926403 0.0037676515 0.08572817 0.037334412 0.110223964 0.027324013 0.056881342 -0.0036311434 0.026156558 -0.0011022005 0.007743552 0.0064205625 0.0053114337 0.01058582 -0.0012472011 0.019252544 0.00020693165 0.0045392234 -0.0018648015 0.016533222 0.021763489
32945 -0.008767738 -0.008044044 0.022291027 -0.008503658 0.049022824 0.064181164 0.049210533 0.022661334 0.062817805 -0.0052275197 0.0040993663 0.0368617 0.037233077 0.020772303 0.0014293394 -0.004205088 0.045809247 -0.007708234 0.055792302 0.05938631 0.019098124 0.07132941 -0.010422892 0.0010021477 0.07083011 0.019706976 0.005735558 0.043295152 0.036993213 -0.0054543307 -0.009859715 0.00430681 0.048662197 0.057945088 0.0653569 0.046509445 0.025000665 0.043909192 0.047798626 0.035351038 -0.010017391 0.0595568 -0.0033337276 0.059113797 -0.01008029 -0.0028851728 -0.0031578545 0.0378967 -0.0035441015 -0.0064749923 0.05412262 0.035614192 -0.0062948414 0.05897121 0.04704528 -0.012212017 0.03450975 0.008734459 0.063350536 0.0534699 0.00021472502 -0.0094447415 0.05433999 0.00014711673 0.023406249 -0.0075908178 -0.0034814107 -0.0036246073 -0.0032480934 -0.007188945 0.06076416 0.049912166 0.02727418 0.05492127 0.023576137 -0.004179714 -0.010706869 0.037889145 -0.0017839206 -3.7255253e-05 0.018711735 0.059591394 -0.0024433923 -0.003831354 0.049112882 0.03899724 0.06286715 0.028507017 0.00036568823 -8.520147e-05 0.05681336 0.010123889 0.054999493 -0.010530172 -0.009170701 0.00857983 0.015582513 -0.0069960514 0.067691304 0.02215352 0.06620141 -0.00079451833 0.023031708 0.04502795 -0.00051208725 0.052272208 0.0047507626 0.0411638 -0.010235834 0.033443034 0.059871696 0.05397783 0.011609029 0.058621302 -0.004557017 0.0003154779 0.0059492653 -0.004835863 0.037292466 -0.0076141707 -0.0038664655 -0.008372023 0.010754523 -0.011876469 0.030108623 -0.004428418 0.03748118 0.037467442
30693 0.0152413845 0.018721739 0.13286896 0.020477194 0.017210096 0.1260143 0.057160757 0.019642575 0.04672557 0.01595116 0.028451826 0.010619304 0.13298936 0.013936183 0.009560005 0.0040957956 0.11526214 0.011707606 0.07071752 0.123950034 0.11182789 0.11317341 0.012701074 0.008154397 0.124259844 0.032200366 0.0039875093 0.037412684 0.07593297 0.0052280896 0.0064637284 -0.0014273146 0.09825016 0.12146109 0.14749551 0.11066355 0.06093048 0.09455244 0.045050763 0.07633335 0.023914319 0.12090328 0.009470627 0.11230878 0.023775592 0.0060961414 0.019630944 0.07306767 0.015588725 0.007290194 0.10152808 0.0038970856 0.009486087 0.12207498 0.08344316 0.010922305 0.02103966 0.029261643 0.13365582 0.10627254 0.01992187 0.016614294 0.1708293 0.033312622 -0.005225571 0.033098236 0.0032372058 0.010545752 0.015553958 0.019371314 0.13871689 0.08094389 0.1222644 0.10328021 0.13541774 0.017914206 0.009175378 0.008251726 -0.0015223558 0.001556925 0.072102286 0.15414362 -0.008057748 -0.0010426161 0.14940386 0.14320631 0.1168732 0.06992056 0.022369461 0.019759793 0.13277645 0.0045817904 0.12612398 0.015254812 0.031323135 0.023995342 0.019209482 0.028757015 0.13573833 0.089740194 0.120883785 0.0023262897 0.040656045 0.068251595 0.020832537 0.060574792 -0.0020269623 0.101597115 0.011171118 0.12295719 0.03027001 0.1408378 0.045488622 0.06041151 0.003883649 0.029947845 0.011430335 0.020418543 0.0025496797 0.0130307805 0.018397188 0.023826864 0.034481127 0.010103312 0.009030186 0.0197214 0.005751298 0.015588374
31135 -0.009293162 -0.0126010105 0.030801047 -0.016599258 0.003244705 0.08559964 0.06774455 0.05300389 0.030039953 -0.010329134 -0.009942168 -0.042316135 0.07392752 -0.022003809 -0.0030436898 -0.0043367604 0.08584771 -0.00905025 0.055439584 0.07389059 0.043339938 0.08967348 -0.015901985 0.0065337853 0.10428148 0.0024211474 -0.005746455 0.025991466 0.021696365 -0.008338168 -0.018202681 -0.0031119874 0.063830934 0.09771012 0.0890718 0.07385676 0.06727613 0.057116564 0.02847673 0.00038774312 -0.025774688 0.07023002 -0.004168657 0.091127306 -0.01456582 -0.00913696 -0.008619389 -0.0077023357 -0.008814698 -0.0101156235 0.070716925 -0.02039529 -0.011886542 0.10021483 0.060687587 -0.018131107 -0.02136918 -0.0040717986 0.10345854 0.049714748 -0.0054281736 -0.017920207 0.11566073 0.0007234141 -0.00934943 -0.018672077 -0.0059845974 -0.013358147 0.0001919528 -0.014525397 0.10053096 0.065310806 0.05203038 0.09235328 0.06253355 0.0016212648 -0.013029015 0.00068826205 -0.007564459 -0.0059118215 -0.00478748 0.102724336 -0.0040085143 -0.009644553 0.08154752 0.06319598 0.06068235 0.024166487 -0.009017895 -0.01530651 0.10045406 0.0033055234 0.08783443 -0.010240198 -0.018743634 0.0012464757 -0.021452636 -0.017858148 0.09619745 0.009955722 0.10055887 -7.747774e-05 0.039505314 0.03293471 -0.004443982 0.038609985 -0.0035347147 0.102061816 -0.012371931 0.10831516 0.0068032807 0.12414137 0.0124573 0.04041258 -0.0066640484 -0.00820225 0.0047594723 -0.012922318 -0.008047376 -0.0072317054 -0.011917048 -0.023680774 0.006601803 -0.017192187 0.024515323 -0.015418863 -0.0002501416 -0.004627929
34685 -0.005688197 -0.0068052323 0.03188322 -0.0072615435 0.011416302 0.05718785 0.034686986 0.008372953 0.027989304 -0.0024903659 -0.005547557 -0.020633103 0.05232313 -0.009197861 -0.0024548639 -0.0030306305 0.06315902 -0.0054240613 0.040810272 0.054002024 0.042790234 0.059960455 -0.0074801547 0.0045237215 0.061862152 0.008847408 -0.007170811 0.019904932 0.028684096 -0.005481739 -0.012084179 -0.0063015153 0.04039667 0.05750036 0.059528857 0.045480162 0.019589761 0.044144344 0.023751955 0.015684102 -0.007300995 0.050439477 -0.0016676432 0.051523764 -0.006529026 -0.0054567135 -0.008616357 0.009875458 -0.008937478 -0.0065539298 0.053270943 -0.0030985526 -0.0058996645 0.05875736 0.04522594 -0.009196412 -0.00974237 -0.0044493238 0.06650492 0.036164068 -0.0047592046 -0.0068610255 0.07580498 -0.003594725 0.0025287317 -0.0063060564 -0.005082335 -0.008592783 6.0752318e-05 -0.0040801065 0.0666224 0.044517033 0.03360415 0.048312362 0.040338192 0.0028532841 -0.00716039 0.0041360906 -0.008724051 -0.0076087853 0.013487575 0.061894283 -0.0047254963 -0.010007 0.056912847 0.039444488 0.045844268 0.026720865 -0.005990101 -0.0023778796 0.06823 0.0025103139 0.05596935 -0.006361362 -0.0057861833 -0.004579948 -0.0060222703 -0.0050721173 0.06444445 0.021357168 0.061171014 -0.0006779234 0.0021803381 0.032281447 -0.002488988 0.03339183 -0.0023619172 0.051167183 -0.007961996 0.045518626 0.016753377 0.06841734 0.005670976 0.028931618 -0.004750102 -0.0054329247 -0.0018946398 -0.007723618 -0.010930035 -0.0030646108 -0.006322232 -0.0059056007 -0.0031240522 -0.00900847 0.0003427586 -0.0037107076 0.007619479 -0.0013018651
35096 -0.0056333165 -0.0099026915 0.04706545 -0.007960195 0.02676468 0.081876546 0.053829044 0.022192014 0.044856586 -0.004626979 0.0022490951 0.0034783888 0.073021516 0.0021540471 0.0015084933 -0.003412471 0.06824574 -0.006162712 0.05873882 0.071091495 0.046031263 0.080915295 -0.009558655 0.00476703 0.088945575 0.013185998 0.0024425418 0.029681332 0.036353245 -0.0052754693 -0.011803662 0.0010939039 0.054074533 0.07576057 0.085465625 0.05973373 0.036171407 0.052255012 0.03675226 0.023193073 -0.011457709 0.070842505 -0.0023539828 0.07398318 -0.010139117 -0.0035940893 -0.002956862 0.021305367 -0.004239525 -0.0066710697 0.06448977 0.009265399 -0.006357872 0.07897597 0.05297529 -0.011210519 0.010503482 0.009045016 0.088249564 0.058019247 0.00043376672 -0.0098056095 0.09463491 0.0024548117 0.0057986756 -0.007162195 -0.003560884 -0.0046285884 0.00080772716 -0.007315099 0.085156985 0.05585816 0.060168777 0.06741682 0.061134867 0.0017683428 -0.009261379 0.019529765 -0.0044434713 -0.0029452175 0.015856039 0.08939933 -0.005408898 -0.006902541 0.07736508 0.06762437 0.06744658 0.02971251 0.00032639047 -0.0035967156 0.07997261 0.006140559 0.075205244 -0.0077478886 -0.007155047 0.0073533836 0.0030940769 -0.0062290574 0.08999682 0.029960072 0.08305928 0.00075066055 0.02388755 0.044492558 0.001475116 0.04397515 -0.001148101 0.06838827 -0.009548477 0.066936 0.035127457 0.087534934 0.0191163 0.049726695 -0.0037500013 0.0012689005 0.0072220266 -0.0034307586 0.010173993 -0.0050107026 -0.0033363553 -0.00905565 0.010783348 -0.011192954 0.021288773 -0.0049784128 0.017660854 0.014630369
31454 0.014336381 0.014485198 0.14940204 0.014408735 -0.014971546 0.15795465 0.06969562 0.032870702 0.022929782 -0.0027860994 0.019822098 -0.049398497 0.18405895 -0.026557045 0.004067906 0.00035262923 0.15929551 0.010286274 0.07649539 0.12644412 0.13571893 0.1325413 0.01089498 0.0072162487 0.16138563 0.011795169 -0.0012972323 0.029043008 0.05666737 0.0019842112 0.0030157615 -0.006131076 0.10410469 0.16318722 0.18741639 0.13048723 0.10822619 0.09860444 0.030324915 0.035960227 0.006175315 0.13351125 0.0037732134 0.14769743 0.016813012 0.00040639399 0.022322563 0.03027442 0.01572016 0.0036539007 0.12319877 -0.030772176 0.0071120923 0.16592114 0.095127895 0.0071584913 -0.026270602 0.027484162 0.17666866 0.106773816 0.022227364 0.010684049 0.24100177 0.041989684 -0.026159221 0.02159157 -0.0006642544 0.0046580997 0.013737979 0.0060912515 0.18325236 0.092826284 0.17760482 0.14139704 0.20830269 0.021361828 0.0069480245 -0.0111400625 -0.0034838165 -0.0006817163 0.04592747 0.20716834 -0.012691483 -0.002526761 0.1916142 0.19737741 0.11695148 0.062224615 0.019091316 -0.007466571 0.17328192 -0.0036070668 0.16027232 0.016394936 0.025202362 0.029254315 -0.020644113 0.0143332165 0.17273822 0.08108646 0.15248007 -0.001284002 0.064266026 0.0527918 0.018480852 0.05499162 -0.009805477 0.16397499 0.009531346 0.21107623 -0.0060801124 0.2120392 0.05207352 0.047027335 0.0011968464 0.031060774 0.008074196 0.02335125 -0.025207417 0.012379845 0.015387738 -0.0014277118 0.03625709 0.0071702013 0.00024581281 -0.0010981164 -0.023231547 -0.009253385
30257 -0.0058704047 -0.008276257 0.069765046 -0.006653389 0.029413428 0.09983372 0.05884954 0.017468043 0.053555273 4.346462e-05 0.0030388224 0.015798338 0.095315434 0.010588976 -0.0013933096 -0.0043796697 0.084718555 -0.0065649957 0.070593484 0.094803646 0.06690209 0.098811164 -0.0110098105 0.0036105497 0.10515842 0.020215645 -0.0029573333 0.03375597 0.052006222 -0.007422271 -0.015086648 -0.0049959836 0.071246095 0.09292908 0.10584413 0.0786669 0.040355057 0.06996589 0.043845624 0.038626958 -0.0069215423 0.091749094 -0.0032178757 0.09083003 -0.00634982 -0.005576781 -0.0029687705 0.03756944 -0.008784673 -0.008443517 0.08181614 0.008241165 -0.007486162 0.097622134 0.06524243 -0.011946361 0.02409436 0.0084804995 0.108229995 0.0772309 0.0006056913 -0.006289083 0.11476551 0.0032848655 0.0027993633 -0.0026080902 -0.0059058773 -0.006409986 0.0013838483 -0.0052980995 0.10933445 0.068345554 0.08129271 0.079845384 0.08294492 0.004407222 -0.009544069 0.020010533 -0.010164756 -0.009571366 0.03267865 0.11033194 -0.011740633 -0.011977351 0.09771637 0.09149862 0.08735591 0.04346915 5.0438062e-05 0.0005266425 0.10164458 0.0027522545 0.09549279 -0.007727652 -0.003207805 0.0042219935 0.01280143 -0.0022994704 0.11007014 0.049436066 0.10125985 -0.0033102015 0.024243355 0.05749122 -0.00049183576 0.051174838 -0.002367921 0.07910114 -0.011641961 0.08472344 0.038534984 0.10594881 0.022797748 0.059202664 -0.0051198974 0.00047237112 0.0041568894 -0.0023706588 0.016695866 -0.0044197966 -0.005079368 -0.0035049128 0.011281107 -0.012760902 0.014545195 -0.0013132773 0.017985575 0.01986983
31267 0.0015941984 -0.00071678177 0.047652785 0.00091625215 0.02058542 0.06397299 0.039138075 0.020892905 0.03222323 -0.0021631473 0.009157688 -0.00013615619 0.059809178 0.002346864 0.004353091 -0.0011358361 0.045845404 0.00016895833 0.04100572 0.04947264 0.041159816 0.059935298 -0.0004846825 0.0042400253 0.06783592 0.011741731 0.0052086585 0.01734767 0.03038452 -0.00032029484 -0.0014466037 0.004331664 0.036711346 0.053064834 0.07069807 0.04161983 0.027617652 0.03628036 0.024172803 0.015498464 -0.0028293475 0.053673185 0.0014523885 0.05262575 -0.0012823107 0.0005185222 0.00570972 0.013487103 0.0059392885 -0.0013905878 0.042737424 0.014645973 0.00057687523 0.054589767 0.03486582 -0.0023044003 0.007864994 0.0161353 0.064193994 0.048483994 0.0061490997 -0.0027965494 0.07477473 0.0099386815 0.005073886 0.0034614275 -0.0007847947 0.0026491028 0.0028266122 -0.0016055908 0.061409503 0.0358193 0.054737955 0.046778962 0.057056796 0.00396141 -0.002093787 0.015788617 0.0013679353 0.0026844682 0.018462257 0.074303746 -0.0035637808 -0.00064185273 0.064711966 0.061199542 0.051701654 0.019293392 0.008397267 -0.0005424509 0.05326626 0.0071565593 0.053448148 0.00021380886 0.0038925942 0.014745262 0.002733652 0.0023396707 0.06982657 0.030395048 0.0576412 0.0017284763 0.028503593 0.03160858 0.0061970646 0.029854693 0.0013573907 0.04821297 -0.00028426747 0.05368846 0.02671538 0.061397247 0.020430028 0.038208615 -0.0014196405 0.012367107 0.0067883125 0.0036640703 0.0034014117 0.000438914 0.0051443866 -0.0032552634 0.01714825 -0.0021980277 0.020858575 -0.001665164 0.012732462 0.007029564
31995 -0.00787569 -0.009082831 0.029926477 -0.009787288 0.020417597 0.06213127 0.042430636 0.013569664 0.03602574 -0.0041439594 -0.0017253193 -0.01271155 0.054135345 -0.006106156 -2.8277578e-05 -0.0034793578 0.059196584 -0.0068721133 0.048249204 0.0559299 0.03724193 0.06432734 -0.010571256 0.0050138948 0.06796308 0.008668794 -0.0014093028 0.022268817 0.029643342 -0.005799148 -0.013932138 -0.0013277966 0.040600624 0.057646707 0.06249334 0.044908624 0.020388054 0.043113578 0.029305087 0.014447106 -0.010006256 0.053711955 -0.0024441709 0.054840457 -0.010275235 -0.0050964854 -0.007953767 0.010095449 -0.008849198 -0.0075228424 0.05375466 0.0026831194 -0.007343037 0.059896767 0.04507598 -0.012364572 -0.0029778655 0.00030840858 0.06943568 0.04058521 -0.004163477 -0.0096235555 0.07373386 -0.0038197057 0.0052314587 -0.008487005 -0.0037236048 -0.007851158 -0.0006656585 -0.005601134 0.06614115 0.045190074 0.036217183 0.050507642 0.03859737 0.00036299205 -0.010166297 0.013109642 -0.0062463153 -0.004890155 0.009646752 0.06509099 -0.003386595 -0.0084700845 0.05789822 0.042813666 0.05051059 0.024374668 -0.004519213 -0.0033786036 0.065574415 0.0058679963 0.05754973 -0.00962489 -0.009397327 0.00015359352 -0.0027888706 -0.0070399535 0.06940092 0.018966516 0.06475442 0.0010179948 0.007923272 0.03571244 -0.0013299049 0.03709149 -0.0016992178 0.052899987 -0.010680749 0.043924127 0.026696786 0.0681825 0.009213428 0.037011113 -0.004148566 -0.0054900316 0.003432172 -0.008136346 -0.0034842137 -0.006069529 -0.0063712983 -0.0078005814 0.0005355148 -0.012170933 0.012900424 -0.0029901934 0.014136374 0.00413014
30990 -0.006317356 -0.0076623834 0.018274112 -0.008315484 0.013448209 0.044428088 0.028814048 0.00052370847 0.027632974 -0.0026105884 -0.006832016 -0.022535343 0.039356776 -0.009466094 -0.0020514096 -0.0026436022 0.053095724 -0.0056122835 0.037586924 0.041906655 0.034288745 0.049148716 -0.008164699 0.005648111 0.048164994 0.0073494413 -0.0069643375 0.016024323 0.025034606 -0.0051817894 -0.012362572 -0.0045961617 0.02849722 0.04202692 0.043561865 0.031314097 0.005864904 0.035640385 0.022956884 0.0073849317 -0.008405511 0.038145117 -0.0014346795 0.037377745 -0.008596477 -0.0056280294 -0.01089484 0.0014294034 -0.009109155 -0.006853088 0.04524472 -0.00044179542 -0.006075297 0.043106575 0.038732 -0.009506405 -0.010536091 -0.007105319 0.051959127 0.024197582 -0.007749478 -0.008242486 0.057930563 -0.007144943 0.0055686063 -0.0083861 -0.0040747896 -0.009560596 -0.0004215038 -0.0037239941 0.051421706 0.036513742 0.020576285 0.03393786 0.026514411 0.0016016667 -0.007912859 0.00621842 -0.0071774996 -0.006063301 0.0071734055 0.044603214 -0.002354704 -0.0089458395 0.04121532 0.022518482 0.03421073 0.020654062 -0.007339073 -0.0015067777 0.054869205 0.0047948905 0.04122425 -0.007644955 -0.0077400072 -0.006138284 -0.0048897266 -0.005823989 0.05090924 0.013085515 0.0476667 0.0009206208 -0.008348974 0.029062575 -0.0035198522 0.030293977 -0.00061003247 0.03739439 -0.008507418 0.025850821 0.018007385 0.050214242 0.00054230954 0.023941472 -0.004076432 -0.0074131074 -0.0045861145 -0.010153921 -0.012038419 -0.003941935 -0.0072059412 -0.0059802555 -0.00900981 -0.010107451 -0.0031109804 -0.002497144 0.010985969 -0.003373791
31650 0.10337323 0.18381725 0.37800896 0.1549377 -0.030674083 0.22621861 0.05209391 0.39603642 -0.024413764 0.039706644 0.246749 -0.064651504 0.34597206 -0.04659535 0.08342373 0.009698643 -0.012310322 0.12937479 -0.026431588 0.053444732 0.17793824 0.08525023 0.1305553 0.006283106 0.26081392 0.004537497 0.085308515 -0.031577263 0.050193872 0.05105886 0.13372497 0.12981898 0.11146746 0.20442209 0.34355235 0.15501848 0.38116005 -0.023489425 -0.044027768 -0.014762091 0.18223816 0.19189413 0.05222739 0.21533984 0.18214966 0.02978775 0.3408241 -0.028430274 0.27601898 0.086664066 -0.017957313 -0.016632723 0.111056276 0.19474064 -0.053930372 0.1344195 -0.014852134 0.24568158 0.19461624 0.2610895 0.24736497 0.16735177 0.28275204 0.3364622 -0.050437625 0.24996133 0.05439919 0.15254767 0.043110974 0.06103589 0.215634 -0.049103245 0.5214942 0.20378551 0.56449157 0.020589784 0.059422877 0.0015794688 0.10244377 0.14372694 0.15187706 0.44753954 0.02304632 0.11560408 0.36199546 0.58416975 0.17891808 -0.04807835 0.20206387 0.011541169 0.06498729 0.010731091 0.21411842 0.14286137 0.20784023 0.3525332 -0.013711127 0.17206712 0.20290701 0.2523044 0.13265368 0.028426887 0.58548075 -0.06814039 0.1616483 -0.0367097 -0.0060417997 0.23266484 0.09557605 0.54026294 -0.0085944105 0.24134558 0.22396928 0.0038025863 0.07038285 0.29746804 0.033929624 0.26269352 -0.0016759316 0.06592679 0.17914596 0.052823603 0.39438057 0.122312985 0.19093457 0.056672208 -0.027530601 -0.039578438
31504 -0.0037172143 0.0052055726 0.025354385 -0.00013357378 0.0068156137 0.02724402 0.01443241 0.008747937 0.01238414 0.005738813 0.001374214 -0.007445845 0.025388122 -0.00047623142 -0.003009006 -0.0030932059 0.028268844 -0.0033292596 0.016786648 0.033904392 0.02700011 0.02922353 -0.0038604266 -0.00062562677 0.029824944 0.009285879 -0.0076160785 0.009949537 0.022524497 -0.0039591915 -0.0077445526 -0.0060530035 0.028161727 0.030239152 0.030788697 0.030044654 0.012371063 0.027571784 0.010410403 0.023802062 0.0076756794 0.030975182 -0.0015891881 0.028114423 0.0050405175 -0.0049549555 -0.002189532 0.017889293 -0.005457642 -0.0036947622 0.025367195 -0.0030812332 -0.0034158938 0.029423112 0.021372087 -0.0039659822 -0.0021141756 -0.004958103 0.0320266 0.02790962 -0.0009788999 0.0040962123 0.035677135 -0.00031267223 0.0006930919 0.006843338 -0.0042726216 -0.0058401786 -0.0017444555 0.0060285917 0.03453078 0.020495785 0.014214573 0.02635168 0.019095987 -0.00018300151 -0.004530048 0.0006516389 -0.008318577 -0.0063435985 0.020956429 0.029899297 -0.0046642767 -0.0068567186 0.033425156 0.026325485 0.030381612 0.017673984 -0.004144668 0.008037999 0.03458709 -0.00052263093 0.031184366 -0.0040459023 0.004033548 -0.0052739494 0.0036089832 0.005120454 0.03131392 0.021872802 0.030656723 -0.0024405592 0.009042463 0.01736444 -0.0016101053 0.015276694 -0.002611983 0.022973917 -0.005202488 0.024168441 0.008452476 0.033471618 0.0011466404 0.015131884 -0.0042867577 -0.0037320643 -0.0025670272 -0.0036766226 -0.007449202 -0.0026955695 -0.003925822 0.007719568 -0.00058186264 -0.005152593 -0.00059299124 0.007836687 0.0042688553 -0.0007195283
31834 0.0020644814 0.0032654556 0.028422989 0.0048374594 0.017437903 0.03349345 0.013418941 -0.004867176 0.028354788 0.0004717405 0.003595182 0.0129118115 0.021305919 0.009688449 -0.0010560149 -0.0014572769 0.03175085 0.00073392625 0.024186091 0.031076137 0.030109903 0.03532059 0.0015161484 -0.00041225998 0.031949583 0.011903138 -0.0025736955 0.019133639 0.028795395 -0.00036340868 0.0031392833 -0.0015559071 0.023443973 0.025871119 0.039991986 0.023897799 0.0009566141 0.02764482 0.019924551 0.025985144 0.0038880357 0.03243356 0.00097071857 0.023274906 0.0026703803 -0.00013772439 0.0003435649 0.023911195 0.0060493536 -0.0007016764 0.031442415 0.019986793 0.0022399419 0.025680164 0.0281121 0.00079764915 0.011967249 0.004810337 0.030614855 0.03020988 0.0005903647 0.001154241 0.042178582 0.0030158076 0.008852652 0.0052561173 -0.0024765814 0.0013194992 0.0007034715 0.0032944332 0.03284063 0.025024436 0.017012402 0.020139035 0.024609195 0.0025679495 0.0016171881 0.00988828 -0.001460366 -0.0001741131 0.024077056 0.03800237 -0.0031791315 -0.001231013 0.03757936 0.022011265 0.033243056 0.020371668 0.0040277727 0.004705623 0.03303659 0.0011741009 0.025979316 0.0017421681 0.007845001 0.0055276705 0.008715067 0.0066253445 0.036505036 0.024215871 0.028068569 -0.0022563497 0.00020652823 0.024893356 0.00095341884 0.026036924 -0.00085677305 0.012960141 0.0030046473 0.011501979 0.024039673 0.023813492 0.0037016028 0.023880193 -0.002785127 0.010596917 -0.005530172 0.00053641526 0.004377256 0.0021386673 0.0036289147 0.0035346583 0.002176426 0.00046706022 -0.0018314361 0.0033185517 0.014997811 0.013248669
34574 -0.008408772 -0.009612675 0.01467841 -0.009991862 0.028853143 0.050602026 0.03429552 0.00091134675 0.04543323 -0.0041924845 -0.006963862 0.00014771448 0.033534497 0.0017958914 -0.003180082 -0.0041374182 0.05539496 -0.0078070937 0.046115838 0.050287463 0.029532187 0.058655288 -0.010648152 0.0033589588 0.055271737 0.011707915 -0.0069309436 0.029989827 0.031756993 -0.006647574 -0.012560762 -0.0044809417 0.036822706 0.048517574 0.05005479 0.036891654 0.0068207635 0.041293457 0.034882456 0.019908676 -0.010364797 0.04593878 -0.0031425338 0.04404664 -0.010713794 -0.0061940406 -0.011330581 0.016866233 -0.009295572 -0.008462167 0.053800713 0.014250161 -0.0072607114 0.049066536 0.047073565 -0.011755921 0.006581802 -0.0071541215 0.055836752 0.032306984 -0.0081582535 -0.009956585 0.05700164 -0.007952085 0.013895971 -0.010679887 -0.0048246137 -0.010058542 -0.002292167 -0.0057906755 0.056224104 0.04518854 0.016347375 0.04027855 0.02097896 -0.0010874989 -0.010030469 0.017574595 -0.007513348 -0.0062932423 0.011553037 0.04766633 -0.0027906138 -0.009441426 0.042450342 0.020458696 0.044669792 0.025592411 -0.007926453 -0.0026728557 0.059834693 0.0052332073 0.045813687 -0.009660979 -0.010179854 -0.0052506933 0.0025765197 -0.0074954447 0.056461725 0.014081626 0.054773208 -0.00088730745 -0.006202974 0.03694559 -0.00540922 0.043023527 -0.00024751414 0.036146425 -0.010492463 0.023551015 0.03647956 0.050841767 -0.00094288605 0.036320906 -0.0051275766 -0.0073251287 -0.0061843144 -0.011308106 0.0072558783 -0.006161988 -0.008431888 -0.007855018 -0.008038622 -0.012042365 0.0007784639 -0.003602998 0.023631651 0.014527196
32337 0.019742133 0.014534709 0.10648984 0.0229877 0.03416133 0.1121796 0.058690228 0.024804356 0.059016157 0.0035587177 0.030169029 0.021861702 0.105024934 0.013908604 0.012733989 0.006359146 0.08723863 0.016810533 0.06845754 0.0919404 0.089125864 0.10086625 0.01761353 0.005673962 0.11068814 0.023875747 0.013443335 0.04038678 0.062657885 0.010509102 0.01754614 0.01000559 0.07299476 0.09521521 0.13312009 0.08123388 0.049918562 0.07108347 0.048289973 0.05109542 0.012304596 0.09919547 0.0106691085 0.09102283 0.015117737 0.011417591 0.024935216 0.04779719 0.02911316 0.011664691 0.08305318 0.028744197 0.015502274 0.0983173 0.067422085 0.014074445 0.023243343 0.041487023 0.11041618 0.093226895 0.02381782 0.011383547 0.1430674 0.036800522 0.00783951 0.026568355 0.0081305485 0.019981548 0.01588575 0.012152083 0.11113827 0.06882463 0.10867948 0.08307788 0.1172672 0.018145798 0.01326027 0.025186311 0.009302381 0.012610063 0.052931108 0.13966143 -0.0031274194 0.009605951 0.12763484 0.115652494 0.09780927 0.049213298 0.03056081 0.011057493 0.10145514 0.01010948 0.09676324 0.018437177 0.029522425 0.040134955 0.016670536 0.024682097 0.12112356 0.07156016 0.099146254 0.004189961 0.049890086 0.057607923 0.023553126 0.056376 0.002637297 0.08074147 0.018375581 0.09739316 0.048043136 0.10763679 0.046607472 0.060111407 0.007687911 0.043798912 0.0113625685 0.025619121 0.0186673 0.016208543 0.02792063 0.0086876815 0.042314574 0.014334801 0.02382914 0.0065859496 0.022456672 0.026934056
31453 0.009048036 0.2588584 0.42888817 0.14226174 0.010858889 0.056029953 0.010276683 -0.024126273 0.02960807 0.27734023 0.1904791 0.285822 0.05360125 0.30225158 0.0041722017 -0.0008805337 0.035630867 0.008009421 0.044911794 0.3319743 0.22703049 0.04480507 0.0117550865 0.0028185858 0.040053595 0.17149022 -0.001220949 0.036651857 0.29115435 0.008111577 -0.010303898 -0.0065462687 0.27054134 0.024088528 0.04600766 0.30073154 -0.009667496 0.2735806 0.033266738 0.5450657 0.37234434 0.24566442 0.0045569125 0.061033703 0.2841024 -0.004250545 -0.010591481 0.47642368 0.0023570284 -0.0074714096 0.04923561 -0.018413126 -0.007245711 0.04012337 0.051058147 0.0007568777 0.28652668 0.011295105 0.043338906 0.28031647 0.0085652135 0.19744514 0.076714434 0.0025574774 -0.020830607 0.29615197 -0.003562389 0.009834438 0.003510185 0.28544572 0.055335425 0.05421723 0.030079987 0.0372187 0.02686443 0.004496701 -0.00024209204 0.0024903552 -0.029996471 -0.005612845 0.40047646 0.044169042 -0.0191013 -0.010688119 0.24670808 0.33501303 0.30821753 0.24721462 0.0001680637 0.36255762 0.07176525 -0.0049856436 0.16301249 -0.0024988074 0.21829794 -0.0053915204 0.34205934 0.30249813 0.05461015 0.32138067 0.05717924 0.0039490713 -0.020742854 0.20244114 0.00708262 0.033381153 -0.01061061 0.010853808 0.006806325 0.018510673 0.019790877 0.029387498 0.010431939 0.03715516 0.001990897 -1.1162891e-05 -0.00038048066 -0.008103729 -0.0069112256 0.01026187 -0.000467388 0.40261698 -0.0012086739 -0.0038141734 -0.014107212 0.41174674 -0.008940398 0.018681029
30615 0.035936795 0.039717652 0.0895746 0.043061536 -0.010553994 0.020060267 -0.012653586 -0.008269005 -0.006425374 0.01555466 0.040043805 -0.0029110422 0.05137443 0.0041003507 0.013860313 0.015445706 0.013703907 0.03210195 -0.004422192 0.008330933 0.06789724 0.006137891 0.038879834 0.0058577512 0.008075146 0.011214936 0.007497419 -0.0071204156 0.030776137 0.022966746 0.033383545 0.0010287049 0.0069290753 0.0052544586 0.042274985 0.010529939 0.00072480435 0.0144711295 -0.008422459 0.015041529 0.040146574 0.019775366 0.019566583 0.0030402346 0.044228565 0.019998595 0.03310885 0.0137394415 0.030565117 0.025788557 0.00779534 0.0020542436 0.032335706 0.005516482 0.0035517134 0.03895809 2.135391e-05 0.03880687 0.0134651465 0.030675795 0.033641826 0.038779277 0.05211464 0.03980413 -0.009697879 0.05377215 0.0144067565 0.03223982 0.02343309 0.0330569 0.014158021 -7.6016004e-05 0.06363366 0.0025837293 0.0704074 0.029582815 0.03615163 -0.010585083 0.005213123 0.01106838 0.05183101 0.048119195 -0.004609746 0.01152658 0.052744154 0.056064766 0.018202107 0.01702266 0.0383174 0.019304354 0.013587312 0.0021825405 0.012690387 0.03603289 0.054643795 0.029836355 0.012110833 0.0485582 0.02294865 0.05929501 0.00085219636 0.005740546 0.013591085 0.007915392 0.030982343 -0.0026780777 0.004649239 0.0031493804 0.0417195 0.02916822 -0.008835173 0.010195077 0.03596007 -0.0030596547 0.015441875 0.04435685 0.0100685395 0.04008049 -0.020917233 0.034350812 0.041656442 0.032459617 0.035289157 0.039378416 -0.010378455 0.018148102 -0.011690416 -0.010790393
34321 -0.0053411047 -0.006365814 0.07246918 -0.0070680412 -0.0025917217 0.078986146 0.04488466 0.017291743 0.01586455 0.0020913815 0.0013461915 -0.022396764 0.10347787 -0.009682218 -0.000921337 -0.0024033294 0.07005823 -0.006571878 0.047235694 0.0717957 0.07005835 0.07255654 -0.009125626 0.008477983 0.08493695 0.008907565 -0.004643939 0.0018973977 0.03505227 -0.0072457134 -0.017263321 -0.0077258004 0.048632074 0.07434803 0.083669804 0.061918233 0.03582023 0.051714547 0.013567627 0.006078403 -0.004204895 0.07010547 -0.0021320025 0.07244098 -0.0027911724 -0.0058716503 -0.0040034153 0.0042349803 -0.0137356 -0.008619733 0.055614475 -0.020578647 -0.007339314 0.079028055 0.041177984 -0.009986408 -0.004215391 0.0038929444 0.091861986 0.05623181 -0.00056941505 -0.003580874 0.10472425 4.0667994e-05 -0.013990568 -0.0012294995 -0.005706141 -0.009319089 0.0031585554 -0.003973376 0.091581136 0.042134676 0.08713352 0.060496572 0.08753194 0.007933694 -0.007373258 -0.0020053817 -0.011998124 -0.012203485 0.021937005 0.09426675 -0.0112666385 -0.013771362 0.085170165 0.09247757 0.059915226 0.025344366 -0.0033535429 -0.0023400271 0.082186505 -2.689632e-05 0.08072905 -0.0064145746 -0.0022140872 -0.0031317233 -0.0028692035 -0.001746151 0.090735175 0.043675743 0.07941668 -0.0006852496 0.019648787 0.03596488 -0.0004013267 0.02016658 -0.004497049 0.07658965 -0.011600464 0.08893701 0.0021499528 0.097811796 0.021841409 0.03195591 -0.004353412 -0.007424961 0.00762693 -0.0026689838 -0.016994463 -0.0027196626 -0.008422353 -0.0007694571 0.0060535558 -0.010550321 0.009016228 0.00054303504 -0.007440427 -0.015146562
30185 0.0011214137 0.004212365 0.017615002 0.003275281 -0.0029455405 0.0058646398 -0.0046268594 -0.007872093 0.00083582854 0.0019628997 0.001305646 0.0017532116 0.010415286 -0.00010725308 -0.001659837 -0.00023078466 0.009255108 0.00091552245 0.001830228 0.0071882773 0.016165305 0.0049754195 0.0020094526 -0.0015406824 0.0022730497 0.0032762652 -0.0029236425 0.0013647036 0.010642506 0.00013522245 0.00042540752 -0.0042063277 0.0041613546 0.0034335826 0.00957693 0.005649678 -0.004105281 0.008162432 0.0015957361 0.0099911345 0.006369208 0.007684032 0.00087918533 0.0019542063 0.0046593696 0.00091462786 -0.0010353716 0.01000704 -0.0014254233 0.0007471132 0.0074009276 -0.0009497631 0.0019673249 0.0033454662 0.006962811 0.0017984296 -0.0015968833 -0.00014063105 0.0061678328 0.008338837 0.00043790814 0.005182203 0.012821988 -0.0006692598 -0.001809706 0.005297287 -0.0014216162 5.9064874e-05 0.0010836519 0.004830486 0.007107011 0.0033660592 0.004924999 0.00057187944 0.008756984 0.0033198243 0.0030950045 -0.0053096786 -0.0035922143 -0.0035111578 0.014023626 0.008788412 -0.0029035215 -0.002780363 0.011709863 0.0072023394 0.0070421877 0.007956347 0.00042771094 0.0036206283 0.008617591 -0.003123686 0.005635365 0.0013121049 0.0052138213 -0.002610309 0.0018048957 0.0058032717 0.0068244366 0.014317513 0.002532461 -0.0022369064 -0.0073207123 0.0051272237 0.00025016995 0.0037181096 -0.0020658737 -0.0005729031 0.0029003206 0.00043067746 -0.0015781005 0.004015427 0.00064746104 0.0011117697 -0.00074798573 0.0008432979 -0.0017112069 0.00078508485 -0.0075386395 0.002667365 0.0013314055 0.005974127 -0.0024191556 0.0019866114 -0.006806226 0.0026944475 -0.0012768338 -0.0007222029
34492 0.013123981 0.010570548 0.11293455 0.014105646 0.012944631 0.11662954 0.055052776 0.015339734 0.043484375 0.0059785545 0.017743815 -0.01335828 0.12930393 -0.0037011984 0.006268616 0.003789181 0.10628029 0.011390485 0.068589255 0.10137987 0.10714008 0.10361706 0.01003838 0.007766044 0.116107054 0.02057995 -0.00061675406 0.025701659 0.062127683 0.0051815812 0.0030099403 -0.003117186 0.075522915 0.104894996 0.1335298 0.088448144 0.04912002 0.07862255 0.036860798 0.03816457 0.011330807 0.1022301 0.007863577 0.09798185 0.013038515 0.005015726 0.01447935 0.03167925 0.009676584 0.0052023097 0.09185169 -0.0004770039 0.008194681 0.10923859 0.072930545 0.006856246 0.0015031917 0.023791835 0.12497524 0.087072864 0.015452315 0.010904133 0.16134833 0.024866717 -0.004795064 0.02158651 0.0028168983 0.008020277 0.014447271 0.011270445 0.12793528 0.0712661 0.11787719 0.087788075 0.13217269 0.020151041 0.0076953657 0.0057346397 -0.0035841947 -0.0020699725 0.050627522 0.14503512 -0.008947682 -0.0031932616 0.1343004 0.12575848 0.093494974 0.05173337 0.018154161 0.0071647456 0.11973001 0.004982399 0.10879259 0.012838263 0.022475574 0.019611757 0.0048743105 0.01891928 0.12870437 0.07367532 0.107803345 0.0018661654 0.033585265 0.05695423 0.015618247 0.04910433 -0.0016745874 0.09614329 0.009509796 0.11558914 0.022790315 0.12892486 0.038904175 0.048613857 0.0043098712 0.02445871 0.006849853 0.016458044 -0.008243077 0.012208305 0.015027682 0.009072429 0.026723918 0.006740113 0.0041769696 0.0071574403 0.004974743 0.0030405563
30423 0.03916084 0.07200695 0.17934984 0.059719324 -0.004736125 0.068843134 0.013245974 -0.0036231168 0.013358029 0.05068072 0.06444765 0.018355539 0.104907975 0.033113707 0.02105649 0.017314408 0.054318905 0.034687463 0.02831267 0.07998495 0.12909545 0.04977104 0.040768355 0.0125208935 0.056064315 0.036905415 0.008067782 0.00445274 0.08482436 0.026264004 0.027500749 -0.00052180246 0.060976177 0.04242953 0.091282554 0.07292759 0.015635958 0.072476454 0.0092927255 0.08479357 0.08398351 0.082540825 0.024910286 0.044534303 0.078232944 0.022745676 0.033581194 0.07417313 0.028274084 0.026438922 0.04437425 0.00048347207 0.032030467 0.046170264 0.035063338 0.038498826 0.03065628 0.04912023 0.06462342 0.08908259 0.03710215 0.063256234 0.11864776 0.042786747 -0.01352641 0.09288978 0.017850112 0.035470884 0.029640317 0.07022409 0.06247721 0.028411929 0.10763296 0.036921244 0.11461984 0.03770883 0.037520517 -0.007833475 0.0026764944 0.006693021 0.113282055 0.10190914 -0.009392054 0.007917885 0.12376485 0.13652366 0.08130635 0.060972348 0.042897016 0.06365659 0.059602823 0.0056939926 0.066629775 0.036506746 0.08392532 0.033427875 0.053877786 0.08880242 0.07473055 0.119680695 0.04397628 0.01058487 0.020280112 0.053228445 0.037689526 0.019500827 0.004874985 0.039844986 0.0434526 0.06689241 0.0037554763 0.058031894 0.051911414 0.019350413 0.018623482 0.047199294 0.020500489 0.04244117 -0.02821492 0.038324546 0.043595344 0.08286806 0.041995924 0.038012523 -0.0044081076 0.067632936 -0.0077708317 -0.00957542
30208 -0.0046787895 -0.005696492 0.0050091078 -0.005849714 0.012675456 0.027512478 0.019406669 0.0007600055 0.021107959 -0.0032687047 -0.004495946 -0.016331783 0.01819807 -0.00732074 -0.0009201904 -0.0019552538 0.03386489 -0.003518936 0.025360273 0.024935104 0.017269623 0.031749874 -0.0055874074 0.0030083086 0.029782733 0.0041303113 -0.0036352137 0.013682206 0.015440024 -0.0030930883 -0.007402851 -0.0014123128 0.017529251 0.02512802 0.02641773 0.017975252 0.0017430439 0.022088045 0.017884372 0.0056836144 -0.0069654845 0.022762164 -0.0009536957 0.022028195 -0.007401969 -0.0036364864 -0.007621906 0.0005938128 -0.0046121073 -0.004097354 0.029842388 0.0032163234 -0.0039182655 0.02575893 0.026182922 -0.006744206 -0.008878199 -0.004426968 0.03152095 0.0138277 -0.005407923 -0.00705679 0.034348264 -0.004707967 0.0067034503 -0.0067665935 -0.002203704 -0.0057266434 -0.0010749206 -0.0028432026 0.030344445 0.024790237 0.0051386547 0.02152224 0.009769762 -0.0004500337 -0.005907409 0.0065797116 -0.003293985 -0.0023200992 0.0022152588 0.025944835 -3.1763324e-05 -0.0044922098 0.02393404 0.006873206 0.021388458 0.013525219 -0.0044829263 -0.0013981775 0.033781663 0.0044191084 0.02369259 -0.0056765666 -0.00629814 -0.0023620455 -0.0045377617 -0.0050355275 0.03103082 0.0041164495 0.029601844 0.00094190706 -0.0062054936 0.018887589 -0.0020313119 0.022922829 -0.00013629207 0.02142095 -0.0053429143 0.009985378 0.015565114 0.02897394 -0.0012773564 0.016845401 -0.002705046 -0.0036139786 -0.0033290177 -0.007381176 -0.007910539 -0.0032624907 -0.0038775352 -0.0057474812 -0.0060594236 -0.0070060166 -0.00023402998 -0.0025261824 0.01054599 -0.0003480529
31714 0.0003246018 -0.00053341535 0.07777348 -0.0011456853 0.0016458305 0.09718766 0.04941398 0.028099174 0.019645352 -0.0035095545 0.008703666 -0.030704899 0.10619279 -0.015922062 0.0022440448 -0.0034046608 0.084300734 -0.0008221241 0.051220417 0.07512845 0.067168 0.08308033 -0.0029653206 0.0032338998 0.10149175 0.0076630833 0.0010369256 0.013154499 0.033486098 -0.0028005454 -0.0073134056 -0.000673361 0.05828615 0.09204053 0.10753239 0.07246482 0.058109853 0.05453216 0.020653084 0.016408727 -0.0031398605 0.07948989 -0.0012623159 0.08736459 9.7653596e-05 -0.0031477003 0.007572521 0.010940251 0.002420452 -0.0030733445 0.06803964 -0.013153242 -0.0025687767 0.094401754 0.053495657 -0.0049023344 -0.013066192 0.015905574 0.1056904 0.065500095 0.0088018 -0.0013517649 0.13200958 0.016096162 -0.011949214 0.0047566043 -0.003957066 -0.0015919178 0.0029501813 -0.0030895907 0.10487499 0.05311929 0.095592715 0.08146683 0.108306654 0.0064093517 -0.0049864072 -0.0006467877 -0.0033970824 -0.0027223374 0.0203454 0.11958636 -0.009364396 -0.0044429284 0.10576674 0.10905735 0.070612445 0.030930985 0.007674901 -0.007196704 0.094132185 7.5797085e-05 0.09227868 0.00031584967 0.0032844427 0.014283061 -0.012647811 -0.0004443137 0.10495254 0.041893963 0.091121435 -0.0011087442 0.043022886 0.034076802 0.00643673 0.031695064 -0.0068261195 0.09273679 -0.0033278032 0.11141841 0.0037781417 0.1182791 0.029427454 0.0389852 -0.0029453386 0.011307879 0.008375377 0.0057718293 -0.016727095 -0.0009949534 0.0021238744 -0.006286772 0.021241436 -0.005241398 0.016141186 -0.003935764 -0.007163775 -0.008458547
31123 0.03378179 0.056603014 0.17013177 0.047123466 -0.001087942 0.10296591 0.035792366 0.035026252 0.00953083 0.03950149 0.059329543 -0.0066711903 0.142914 0.010974381 0.021233331 0.010781669 0.07512715 0.03108571 0.03870531 0.09838655 0.12222568 0.07714324 0.037115484 0.009943296 0.10219112 0.032653045 0.0066834693 0.0069980356 0.07259379 0.018196028 0.020800544 0.003034656 0.08097677 0.097399056 0.13263056 0.096429184 0.068119906 0.06984682 0.010739059 0.06999937 0.06219387 0.10344365 0.018829865 0.09382155 0.061483435 0.014545 0.047927976 0.06130978 0.03533881 0.020014348 0.06154408 -0.0103787035 0.024983874 0.096806794 0.04450797 0.03319702 0.015150699 0.050342392 0.10726984 0.10535612 0.043754343 0.052376244 0.15108487 0.062975265 -0.014685536 0.07824236 0.012688051 0.02982858 0.024403114 0.04871977 0.11108203 0.041029073 0.1500403 0.0838217 0.16036285 0.025296245 0.024347499 -0.0008088928 0.0059982766 0.00951376 0.09328214 0.14666158 -0.008232351 0.008194645 0.14813721 0.17813946 0.10170106 0.052166432 0.043091573 0.038832445 0.096250705 0.0048592836 0.10672836 0.036265574 0.068417735 0.042398747 0.028139174 0.06343712 0.11167739 0.10963998 0.08820901 0.006919724 0.080272175 0.044175383 0.03884251 0.021314109 -0.00044460376 0.08716541 0.029487582 0.13897331 0.005830221 0.119446136 0.06333269 0.033125125 0.014314393 0.04780595 0.017529195 0.049148683 -0.014764755 0.025928777 0.039633412 0.05600924 0.06433095 0.031670135 0.012927016 0.04516913 -0.01281726 -0.008063944
30194 0.0077618267 0.6105493 0.8743651 0.3081944 -0.0004932367 0.00017203447 -0.03095628 -0.052866574 -0.025653537 0.62949866 0.43637303 0.54934597 0.04201056 0.61047524 0.013820202 -0.005124082 -0.064851195 0.007969767 0.012596539 0.56143564 0.43334153 -0.029322252 0.016948767 0.0036844593 -0.016282538 0.35715675 -0.02105873 0.012773733 0.54488415 0.021339424 -0.049336106 -0.028691258 0.5088531 -0.04937172 -0.03525939 0.55760944 -0.059792653 0.50792223 0.0044692783 1.1259379 0.8495061 0.42173672 0.009413658 0.045026746 0.6311397 -0.013660544 0.002362015 0.94487077 -0.010073106 -0.010727018 -0.014800666 -0.063823014 -0.011292854 -0.0369467 -0.011792501 -0.0004139929 0.52397853 0.0015866866 -0.024532935 0.5190838 0.020717641 0.47366938 0.026829533 0.0009775842 -0.053703755 0.6701404 -0.013023216 0.016160972 -0.010164075 0.6444184 -0.011971054 -0.007878975 0.023608714 -0.0011215227 -0.015894933 -0.0028406275 0.009753365 -0.015525007 -0.082171366 -0.024051826 0.85387427 -0.040115304 -0.037480436 -0.03663101 0.38128328 0.6734384 0.5341539 0.4331197 -0.011848633 0.80324477 0.00696104 -0.0095760925 0.22279221 -0.017935896 0.50348103 -0.036170784 0.7120531 0.67132163 -0.018863881 0.6874617 -0.017950734 0.014086727 -0.055493884 0.34648925 0.033417594 -0.015864044 -0.015196621 -0.04505385 0.0048334636 -0.005831593 0.005121623 -0.04307455 -0.0075304625 -0.0051611583 0.0016104879 -0.038657486 0.005225999 -0.0066794045 -0.04366006 0.008625701 -0.011408757 0.9033319 -0.025181055 -0.009523822 -0.036846228 0.9413011 -0.029180037 -0.032275695
30140 0.047333438 0.048323404 0.10913042 0.055094346 -0.012724387 0.027958302 -0.010394767 -0.0040438753 -0.007505624 0.019534716 0.050306696 -0.0064542843 0.06463214 0.0050930073 0.019218449 0.019870741 0.014246601 0.042061426 -0.005326729 0.009466019 0.08371445 0.008240229 0.050649993 0.009070085 0.014452251 0.013058924 0.011604926 -0.011752897 0.035066795 0.029837716 0.045973115 0.0054105106 0.0073336405 0.007274802 0.05591523 0.01188911 0.0052401703 0.01493236 -0.01125343 0.012940148 0.046595115 0.023959845 0.025900353 0.0051426706 0.05296787 0.026212264 0.04652325 0.010454158 0.045311667 0.03288837 0.0059039323 0.006921011 0.041094847 0.0076311454 0.00085916114 0.04958888 0.00089298346 0.052599113 0.017397137 0.03788632 0.043161716 0.04495041 0.06742856 0.05384881 -0.011081482 0.06580193 0.019859565 0.042716555 0.030361747 0.03902203 0.019085024 -0.002077389 0.0864953 0.0038097808 0.095056415 0.03644978 0.045291543 -0.010484597 0.0126647735 0.018149674 0.05994788 0.06527264 -0.0024569621 0.019035721 0.068036 0.07531578 0.021577625 0.016692733 0.051478155 0.022799665 0.013757395 0.005619907 0.015030473 0.048089743 0.06952985 0.043610357 0.014321672 0.059210688 0.03152136 0.07092681 0.0019232174 0.009019691 0.027857745 0.008739957 0.040344317 -0.006173637 0.0072968774 0.007303311 0.052956276 0.043658834 -0.009990285 0.014415853 0.047354512 -0.00439532 0.020437613 0.062061727 0.013240863 0.051803395 -0.02108194 0.043046523 0.054204818 0.037540786 0.049291007 0.050140623 -0.00838581 0.02228064 -0.014198011 -0.014112799
30980 -0.0066262293 -0.0072615705 0.016901948 -0.007604578 0.021759674 0.045404315 0.032309618 0.010083637 0.0328446 -0.0041893166 -0.0011035785 -0.00500134 0.033782285 -0.002225655 -0.00016122595 -0.0029470343 0.042192947 -0.0053635365 0.037350316 0.04055455 0.023506142 0.04889633 -0.008175597 0.0027463334 0.049643748 0.007157049 -0.0010108873 0.020649942 0.02351782 -0.004471216 -0.009616586 -0.0002840413 0.03002396 0.040951088 0.04538422 0.031390525 0.012378896 0.03158304 0.025565771 0.0128316255 -0.008543331 0.039318547 -0.0021470725 0.039218064 -0.008769573 -0.003965612 -0.006012625 0.009961015 -0.005826902 -0.005622499 0.04039187 0.008747178 -0.0054144184 0.04240193 0.03446133 -0.009569034 0.001560051 0.00043603653 0.04914423 0.030385435 -0.0032677122 -0.0082223 0.050083455 -0.0029826255 0.0083765695 -0.007065355 -0.0026808258 -0.005642144 -0.0015395448 -0.004833244 0.046900474 0.03437151 0.020611871 0.036698524 0.022277767 -0.0010626776 -0.008216439 0.014257799 -0.0039067166 -0.0030392215 0.007507209 0.04553224 -0.0019633078 -0.005491914 0.03980722 0.025594778 0.038153656 0.018393815 -0.0030618885 -0.0032158133 0.046532415 0.0052402276 0.040099055 -0.007771561 -0.007725108 0.0012434225 -0.0008232757 -0.00605206 0.05003629 0.01206926 0.04699007 0.00022054792 0.0061895708 0.027709661 -0.0013988268 0.031488173 -0.00074739056 0.03478793 -0.00809879 0.02651663 0.026942376 0.045932967 0.0052309646 0.03086168 -0.0033660089 -0.0031777818 0.0012648585 -0.006429514 0.0022015078 -0.005177312 -0.0045741065 -0.0071422057 0.00067298004 -0.009460837 0.011358415 -0.0031147553 0.016087621 0.007829908
30928 0.023631983 0.021592114 0.05398263 0.027535306 0.0008286689 0.022968888 -0.00043634148 8.174568e-06 0.006079989 0.005692026 0.023493495 0.0046406263 0.029925989 0.0049717785 0.009149435 0.008129964 0.011897047 0.020270737 0.0026808935 0.008990885 0.042593 0.012575148 0.025047243 0.001930071 0.0155914975 0.007672938 0.007846694 0.0012266096 0.021110967 0.014282322 0.027335614 0.0062259515 0.006928157 0.008972257 0.03921115 0.009518107 0.0051942402 0.010537108 0.0013847533 0.01216555 0.01993973 0.018251164 0.012262824 0.007163925 0.022423297 0.01337014 0.024654966 0.010905194 0.029971162 0.015626123 0.008428565 0.016748998 0.020476086 0.008389864 0.0066570495 0.023437632 0.0036037003 0.028733427 0.0140751805 0.02579473 0.020305794 0.01842403 0.04282399 0.028410442 3.9996998e-05 0.029596517 0.009028564 0.02225542 0.013441824 0.016521633 0.015762122 0.0039563407 0.043281075 0.005438554 0.052385204 0.015708143 0.021755656 0.00043141056 0.010880864 0.012906718 0.030898852 0.043237742 0.00068540376 0.013053575 0.042726517 0.03996422 0.018258212 0.009475363 0.027245453 0.009349559 0.010634294 0.0036009382 0.010935802 0.024312384 0.03390371 0.027791565 0.0064727943 0.027388588 0.024588522 0.036462605 0.0061725355 0.003303198 0.020162864 0.0075756293 0.019292464 0.004552724 0.0029391637 0.005242662 0.026888212 0.023632573 0.005088244 0.010492815 0.022788214 0.004817397 0.0086448165 0.038755257 0.0031178195 0.024697179 -0.0038758477 0.01981109 0.028214794 0.014398502 0.026462555 0.024077902 -4.3134827e-05 0.008520828 0.00022031077 0.0012205514
33360 -0.0036438447 -0.004588337 0.0055991057 -0.0046434463 0.009859368 0.023168067 0.01580826 0.00014164123 0.017121224 -0.0023442816 -0.0037580472 -0.012074603 0.016107833 -0.005255426 -0.00087220117 -0.0015715658 0.028116705 -0.0028748773 0.02093265 0.021359317 0.015025513 0.02626768 -0.0045928042 0.0024589323 0.024929756 0.003680479 -0.0030927286 0.011128819 0.013039221 -0.0025450932 -0.006177232 -0.0014125825 0.0150645245 0.021330371 0.022317499 0.015650516 0.0019909649 0.018700005 0.014640706 0.0054895976 -0.005381819 0.019386966 -0.00082704256 0.018787276 -0.005868363 -0.0029110136 -0.0062247445 0.0015102807 -0.003952525 -0.0033727481 0.024921954 0.0020383343 -0.003258591 0.021927454 0.02177962 -0.005482786 -0.0063160183 -0.0036214618 0.026578143 0.0120468335 -0.0043667494 -0.005462336 0.029136518 -0.003917116 0.004928414 -0.005278752 -0.0018708658 -0.004656591 -0.00067132566 -0.002215116 0.025694273 0.020723894 0.0056038927 0.018128647 0.009356141 -9.662736e-05 -0.004680577 0.0050799255 -0.0029928936 -0.0021883391 0.0024478915 0.022155663 -0.00032431303 -0.0039217854 0.020492708 0.0070587825 0.018165236 0.011517083 -0.0036944612 -0.000835741 0.028488718 0.0032752259 0.02033288 -0.004528646 -0.0049415645 -0.0021997276 -0.002893475 -0.0038894005 0.026070686 0.0042735194 0.024923986 0.0007005103 -0.0052624936 0.015945444 -0.0016985466 0.018577866 -0.0002627138 0.018175704 -0.004366933 0.009141353 0.0122941155 0.024613056 -0.0007091136 0.013916428 -0.002152979 -0.0030519494 -0.0026602678 -0.0059177545 -0.005945698 -0.0025552332 -0.003279582 -0.0042288024 -0.0049309297 -0.0057203406 -0.00066412194 -0.0018408719 0.008162851 2.8302877e-05
34783 0.002400245 0.0027267511 0.022050735 0.005073274 0.02254181 0.030616393 0.01277668 -0.0054764785 0.033612996 -0.00012917435 0.004633781 0.021750327 0.013548816 0.013965294 -0.0013689162 -0.00136218 0.027656196 0.0010878028 0.024040794 0.029677877 0.024842152 0.03361869 0.001717001 -0.0006422716 0.029459098 0.012761635 -0.0021334947 0.023704574 0.028357781 -0.0001785298 0.004434036 -0.0016145114 0.023583 0.02382188 0.037352692 0.021605369 -0.0010513547 0.026202513 0.022884643 0.027748464 0.0025356384 0.030423362 0.0008806065 0.021412559 0.002266535 0.00046696624 0.0019700378 0.027150376 0.006344349 -0.00054512837 0.030842653 0.024141269 0.0028894318 0.023282692 0.027714375 0.00084017316 0.018451186 0.0054690028 0.026293775 0.02887289 0.0018844941 0.0009375027 0.0352898 0.0033378755 0.011715574 0.004774513 -0.0019250453 0.0028908777 0.000764115 0.0023919158 0.028276624 0.026122194 0.012005059 0.019714525 0.017808178 0.0016895508 0.0019734316 0.013947685 -0.0018909475 0.0002817522 0.023452198 0.034220852 -0.0026369758 -0.0012768098 0.032825805 0.01608888 0.03272665 0.02025612 0.004882249 0.0035760677 0.02955646 0.0021125202 0.022413703 0.0020488917 0.007353976 0.006334554 0.011112954 0.006129651 0.032948237 0.021479513 0.026228376 -0.0021370146 -0.0004024125 0.025580091 0.0012137777 0.028664934 0.00012095186 0.009026973 0.0035986532 0.00675511 0.030153176 0.018454665 0.0023684574 0.0258441 -0.002617151 0.011333062 -0.0044847727 0.0009596124 0.013472068 0.0023080395 0.004620766 0.0021180727 0.0034115477 0.0013975697 -0.0009677488 0.002118767 0.018930105 0.020335078
30466 0.22101404 0.40973943 0.58125085 0.27055195 -0.024481801 -0.031192286 -0.005254285 0.024121307 -0.018387107 0.40360078 0.3246625 -0.012392013 0.30940503 0.21921678 0.22151151 0.14935279 -0.073087245 0.2237969 -0.0064183148 0.1154025 0.32225928 -0.048282295 0.2371939 0.17446935 -0.011475767 0.2866917 0.008474358 -0.038238697 0.24670304 0.21853301 0.017533205 -0.005446377 0.1068479 -0.040154662 -0.022898499 0.09070456 -0.007080918 0.14433078 -0.030846808 0.29874888 0.4613021 0.0642257 0.19095817 -0.009132031 0.4329809 0.1368817 0.19307248 0.22930211 -0.013559432 0.19149849 -0.054012604 -0.04839026 0.17893535 -0.048246067 -0.052976366 0.25483266 0.2569681 0.20775414 -0.028148675 0.107979916 0.21955039 0.3664996 0.023641512 0.16877393 -0.031406883 0.4896596 0.17091519 0.18802088 0.20547414 0.42792356 -0.035762608 -0.064693294 0.27947754 -0.010948838 0.120684005 0.23256254 0.1976931 0.0042730076 -0.006762429 0.001633233 0.46224314 -0.037862834 -0.00037527867 -0.0067077465 0.05125317 0.3054293 0.061398152 0.19852151 0.21242975 0.44205862 -0.040007863 0.11469214 0.023960177 0.20870617 0.41996104 0.004807129 0.39914694 0.42714763 -0.043930434 0.41281065 -0.03177798 0.16730931 0.030132057 0.2471212 0.23681685 -0.040349845 0.15907815 -0.008400113 0.2295511 -0.00023277948 0.0035315892 -0.02933274 0.2567583 -0.029699551 0.17767389 0.004794845 0.2874423 0.23788671 -0.045822248 0.21616411 0.19207026 0.52001417 0.21582252 0.2364067 0.014183632 0.38831 -0.01758696 -0.045563966
30994 0.000284023 -0.00029850728 0.060317997 0.00022697847 0.007912904 0.06902377 0.035426836 0.003116831 0.029663643 0.0026455545 0.001855238 -0.021505881 0.079767175 -0.0090299845 0.00050575787 0.0004009407 0.07318331 0.00047345232 0.04651891 0.0643694 0.069461025 0.06841821 -0.00075952685 0.0072746533 0.06980675 0.013023661 -0.0067791515 0.015221642 0.042333838 -0.0019407499 -0.008297259 -0.0072870324 0.04416479 0.062422603 0.07562897 0.05149549 0.016367722 0.05292023 0.024903929 0.017226905 0.00079723436 0.06165031 0.002749696 0.05753659 0.0013054241 -0.0016926863 -0.0032486913 0.012552994 -0.006111376 -0.0026319919 0.060220752 -0.004327229 -0.00068668224 0.065199174 0.04900887 -0.0028685997 -0.007144726 0.0030238065 0.07818706 0.048151724 0.00013045628 0.00045324356 0.09582637 0.0022731803 -0.000277885 0.0037843392 -0.0021128592 -0.004698669 0.0058143926 0.003127052 0.08000814 0.045639195 0.06019141 0.049462907 0.06760792 0.010980336 -0.00082751166 0.0014922675 -0.008410108 -0.00831519 0.029561525 0.07981936 -0.006252304 -0.008819797 0.07535446 0.062024914 0.054582834 0.03379671 0.00086955697 0.0030706623 0.0787175 0.0030509413 0.06584966 -0.00014688016 0.0050156764 -0.0010721305 -0.0015322032 0.004838443 0.0788111 0.042770717 0.06731855 0.00021323693 0.0025447162 0.03984055 0.002960306 0.033515587 -0.001442254 0.055992983 -0.001860265 0.057231832 0.01573581 0.07727159 0.015218125 0.030442378 -0.0013801275 0.0006602294 0.00066016853 -0.00023132637 -0.015472335 0.0033388103 -0.0007509783 0.0028668947 0.0016111825 -0.003417926 -0.0031777383 0.0021606146 0.0057784524 -0.0056487545
32575 0.28641033 0.3101739 0.53105754 0.27672237 -0.023750199 0.029614734 0.015952842 0.04364784 -0.011269688 0.27135366 0.3101257 -0.032257155 0.36422113 0.09675107 0.22472744 0.18502095 -0.0056612366 0.2756704 0.00630717 0.028425233 0.35409662 -0.01932326 0.29959136 0.18922532 0.013844578 0.20425384 0.07993359 -0.043946814 0.17912868 0.24570186 0.1452933 0.047216404 0.034966804 -0.007988908 0.07769159 0.03454293 0.03853492 0.09512779 -0.017027041 0.066247806 0.3032769 0.038812477 0.21873255 0.0068354793 0.35823882 0.18932213 0.22286126 0.06869382 0.11710197 0.22253309 -0.027738735 -0.009261075 0.22284685 -0.013109017 -0.030948887 0.3097097 0.13492674 0.27165616 0.023781298 0.06337984 0.26147705 0.31192833 0.13757402 0.24850702 -0.007242304 0.40142 0.19542736 0.24294814 0.2529263 0.32061374 0.016591216 -0.04492332 0.3939531 0.0025613464 0.27638027 0.2727073 0.26396036 0.009337126 0.06525945 0.085856505 0.32064864 0.09610993 0.01866724 0.07546187 0.11476312 0.24509643 0.02920038 0.17950065 0.27178448 0.27035946 0.0032286455 0.11111647 0.03117193 0.2712971 0.39415383 0.13723338 0.2461207 0.35448483 0.02698398 0.3677946 -0.0107162185 0.1644257 0.106029935 0.1814446 0.27574614 -0.02679943 0.15267986 0.04241574 0.3087547 0.10996437 0.0062038 0.0297296 0.3278808 -0.033422645 0.20473866 0.15469868 0.27743396 0.299395 -0.03557613 0.27332273 0.2703213 0.34336817 0.2694319 0.3044154 0.038327295 0.19064805 -0.018634086 -0.02553301
31150 -5.0502487e-05 -0.0001308807 -0.000125546 -4.1437575e-05 0.0003311191 0.00011634205 0.00012748754 -8.329962e-05 0.00040668627 5.099017e-05 -0.0001054164 0.0005529654 -0.00017196688 0.00038109403 -2.4824138e-05 -1.5461423e-05 0.00022138306 -5.0923736e-05 0.0002651995 0.00034854555 -2.8147766e-05 0.00033320545 -5.6005098e-05 -1.871093e-05 0.00018035286 0.00028855828 -1.2541933e-06 0.00041402088 0.00022333664 -3.2503973e-05 -2.462381e-05 -4.855259e-07 0.0002976391 0.00018921083 0.00010936656 0.00023496106 -0.00011855468 0.00030372344 0.00042680764 0.0005845271 -3.1189873e-05 0.00022890496 -2.6484286e-05 0.00020863806 -0.00010118409 -2.6788697e-05 -0.00013590176 0.00051080436 -1.3839938e-05 -3.2070377e-05 0.00031326883 0.00029885804 -4.7183414e-05 0.00020337754 0.000362716 -5.0561153e-05 0.00040639364 -5.4617445e-05 0.00016187484 0.00019745667 -5.5634722e-05 -9.949779e-05 -1.5612955e-05 -8.382927e-05 0.000272483 -0.00015262919 -3.3762826e-05 -4.2078813e-05 -3.4624223e-05 -3.0587707e-05 0.00024556773 0.0003798819 -0.00024306438 0.0001765812 -0.00026882894 -4.819946e-05 -3.5753976e-05 0.0002935075 -1.741719e-05 -6.960775e-06 0.00025072147 -1.499658e-05 4.7825404e-07 -1.4662505e-05 -6.1251144e-06 -0.00020217385 0.0002791312 0.000308731 -4.6789974e-05 0.0001560031 0.0003484607 -7.2467196e-06 0.00017356132 -5.228367e-05 -6.0265746e-05 -3.8327784e-05 0.0002774148 -5.9230726e-05 0.00012005787 0.00013277605 0.00029839936 -1.9806415e-05 -0.00017953178 0.00038407443 -3.77393e-05 0.00039029404 -1.20561845e-05 -7.4335265e-05 -4.529206e-05 -0.00037583834 0.0004602896 1.8037003e-05 -5.9940867e-05 0.0003372571 -3.5375127e-05 -6.3053565e-05 -4.65089e-05 -6.538299e-05 0.0003371318 -4.064175e-05 -5.48479e-05 3.8556704e-05 -0.00011989552 -5.6192657e-05 -7.88144e-06 1.6198625e-05 0.0003313174 0.00042779648
30476 0.00047861488 0.003031059 0.021781264 0.0030241292 0.0072151963 0.019211408 0.0037047195 -0.008686702 0.015486844 0.001090916 0.0011945412 0.005632045 0.015149917 0.0036084668 -0.002160976 -0.0011548157 0.022454603 -1.1101587e-05 0.013806771 0.01974356 0.0240858 0.020560626 0.0008722523 -0.00081283547 0.016322145 0.007897218 -0.003998643 0.011363959 0.020968774 -0.000826044 0.00010277291 -0.0043341154 0.014019408 0.014349527 0.023973951 0.014550532 -0.004373805 0.019266896 0.011961194 0.018555624 0.0044833575 0.019935673 0.00071336207 0.011960842 0.0028435995 -2.923241e-05 -0.0022510616 0.01732579 -0.00018830952 -0.00062758045 0.021139653 0.008178477 0.0014819605 0.01421006 0.01929628 0.0001891824 0.0032631382 0.0003332052 0.018594887 0.018401723 -0.00060740113 0.002827327 0.027443077 -0.0011105883 0.0038847597 0.00426318 -0.00253682 -0.00045010197 0.0006313886 0.0040319446 0.019873865 0.015506308 0.0075501488 0.01011583 0.013530664 0.0028954 0.0018322701 0.0014358038 -0.004357122 -0.0034272566 0.019675344 0.022027424 -0.0031829954 -0.0036294903 0.02380552 0.011166031 0.019901872 0.015708804 0.00069308485 0.0042700972 0.022271907 -0.0010935805 0.015557549 0.0002685216 0.0053745536 -0.0010167866 0.0046925675 0.005454807 0.021360353 0.019173102 0.015427008 -0.0023850482 -0.008253222 0.01633393 -0.0002241296 0.016529666 -0.0016372505 0.00537206 0.0021889284 0.0026538873 0.01147229 0.013404104 0.00036610788 0.012439792 -0.0023082828 0.0033129638 -0.0037019067 -0.00095347594 -0.0034403852 0.0020103864 0.0012261934 0.0045848326 -0.00278387 0.00033095098 -0.0061492696 0.0026469966 0.0073507754 0.005852698
34653 0.016929423 0.018230438 0.066103086 0.022551758 0.005278493 0.03794819 -0.00045654635 -0.013472385 0.01692636 0.0045393193 0.01753051 0.005454659 0.040210914 0.00517713 0.0016024988 0.0026689952 0.03327788 0.013204653 0.01446518 0.027142694 0.06018051 0.030736696 0.018003128 -0.0005316382 0.028406965 0.013193319 -0.0022473512 0.010376369 0.03867216 0.0075581754 0.01836238 -0.0039281785 0.019081311 0.021420956 0.05636561 0.021659179 -0.0035884322 0.028197818 0.0103977835 0.027427588 0.018335082 0.03482992 0.008433152 0.016787907 0.019296072 0.0077795503 0.014946711 0.025209121 0.019088583 0.008829922 0.028961211 0.017036332 0.01580932 0.020603444 0.024890276 0.016564783 0.003680118 0.020256706 0.030579142 0.038867038 0.013805454 0.016474316 0.06251129 0.01794979 0.00027445762 0.026510892 0.0011453144 0.014825312 0.009063439 0.014987274 0.032786783 0.018941998 0.040933847 0.01407697 0.05518552 0.014144121 0.017214825 -0.0027121773 -0.0008218977 0.002389768 0.0448325 0.057764262 -0.0065004504 0.001845357 0.058995355 0.04258551 0.034460165 0.023371505 0.01945421 0.008945798 0.031548653 -0.0013819847 0.024149317 0.016917443 0.030425342 0.016364548 0.00763572 0.02538462 0.041654453 0.048742134 0.01995519 -0.002293502 0.0029714217 0.02224228 0.011908653 0.01920197 -0.0017488413 0.0081145875 0.021331802 0.02101351 0.010815198 0.021658184 0.015402491 0.015902378 0.0012133073 0.031088322 -0.00323407 0.015487045 -0.01244864 0.016090635 0.021106005 0.014249987 0.014810632 0.01732112 -0.011245047 0.0064781145 0.003958697 0.0033787054
30436 0.05079417 0.048243836 0.09484863 0.05605719 -0.0085820295 0.020859152 -0.0062971287 0.0054466585 -0.005472104 0.017362954 0.05232491 -0.006407889 0.05523069 0.0050602034 0.025397249 0.023965856 0.005808446 0.04607191 -0.00641893 0.000110870154 0.069500186 0.0018948724 0.05419392 0.012010731 0.009387244 0.00988761 0.019540766 -0.010326927 0.02526732 0.03447944 0.051236574 0.013290187 0.0012760692 0.0024618837 0.046678096 0.004416085 0.009609781 0.006328843 -0.009949168 0.0037429482 0.044132523 0.015158979 0.028529348 0.0010783039 0.051845655 0.029826839 0.05045874 0.0017011613 0.050917286 0.03737108 -0.0010014583 0.011196074 0.044051178 0.0025802853 -0.0043035317 0.05294321 0.00067696517 0.057208084 0.010099099 0.028771412 0.04641692 0.043893754 0.055880573 0.05884176 -0.0056975633 0.06439853 0.026030611 0.04678166 0.033768844 0.038577434 0.010343796 -0.005890509 0.08131559 0.0014871642 0.08713522 0.037702054 0.04749289 -0.003331668 0.019762293 0.025909496 0.04796835 0.05565535 0.0044376687 0.025861053 0.056391764 0.06599228 0.013609618 0.009139512 0.055241786 0.022789992 0.0051916745 0.011768538 0.008145889 0.051365487 0.06791026 0.050214563 0.012520531 0.05779233 0.023573967 0.05901192 -0.0026420087 0.014188967 0.03557193 0.002727755 0.045314696 -0.0072461567 0.011655558 0.0070132413 0.056616813 0.04040377 -0.005211075 0.008807056 0.05152831 -0.006564244 0.026172336 0.06546873 0.018940244 0.056151737 -0.013794128 0.04539975 0.05860245 0.034323726 0.05484864 0.053943314 0.0016337839 0.02117596 -0.0099901995 -0.010813074
30599 0.0023229078 0.0042049 0.05751659 0.00488167 0.0034222263 0.051911592 0.017408581 -0.0034000743 0.018875144 0.0024651503 0.005889039 -0.005571105 0.055983517 -0.0032965688 -0.001202244 -0.0013721286 0.050098777 0.0015957986 0.03027356 0.046923745 0.055518635 0.047305547 0.0012389208 0.0007502904 0.048509642 0.01071118 -0.0039531034 0.012259022 0.035677403 -0.00082524796 -0.0024185653 -0.0063313018 0.03281937 0.041933693 0.06127927 0.038775522 0.009526606 0.03970859 0.016810792 0.026006363 0.0067019244 0.047828063 0.0020595754 0.038592745 0.004891355 0.0004249806 0.00032246625 0.022148326 -0.0011726789 -0.00059400167 0.043851316 -0.0015188582 0.0021669308 0.04401509 0.036460157 -0.00020012708 -0.0039053424 0.0073996163 0.05492983 0.042942584 0.003342676 0.0050940607 0.07403147 0.0034496682 -0.004465226 0.009195392 -0.0031349643 0.0011735343 0.0038830652 0.006169108 0.0545514 0.032757156 0.042763885 0.033778824 0.05128131 0.008011372 0.0028160114 -0.0033302205 -0.007798084 -0.0063952785 0.031933565 0.06492473 -0.007758299 -0.007191758 0.06386336 0.04908945 0.0445841 0.028159052 0.0044699665 0.0049772477 0.053998034 -0.0019855138 0.046345476 0.0014644167 0.009728948 0.0026022417 0.0023364169 0.009520496 0.057990532 0.040382866 0.04490472 -0.0024815784 0.00051043835 0.029662412 0.003615559 0.0245825 -0.00491115 0.034014944 0.0030788314 0.03592119 0.008445895 0.051073927 0.012395502 0.023076877 -0.0024233796 0.0074957306 0.0018952703 0.0020418419 -0.015614198 0.0040030424 0.0042202375 0.007015851 0.0041722506 0.00026435844 -0.0029198336 0.0037050326 0.0011871285 -0.0005809393
32448 -0.00057804777 0.0014568008 0.023575073 0.0010093373 0.0032442992 0.022638889 0.0058206655 -0.0080889305 0.012077108 0.0006140637 -0.0008022133 -0.0068059405 0.02302626 -0.0036572712 -0.0022018165 -0.0011118554 0.028838618 -0.00039423158 0.015844854 0.022201408 0.02836411 0.023451261 -0.00034331274 0.00014501865 0.019866126 0.0058642523 -0.0054338914 0.008276806 0.02014523 -0.0013695637 -0.0029557992 -0.005525681 0.014782114 0.018292159 0.026407821 0.016761858 -0.0026838863 0.021272028 0.0109247845 0.0136647215 0.0029438264 0.02166433 0.00064314494 0.015213736 0.0012948937 -0.0010072535 -0.0043358253 0.010830353 -0.0032912684 -0.0012338954 0.024619294 0.0004390397 0.00027395994 0.018844314 0.0216285 -0.0011284425 -0.0056564463 -0.0017284221 0.02499131 0.017550314 -0.0018480808 0.0018759945 0.034266114 -0.0022678426 0.00084899104 0.002711155 -0.0026386303 -0.0023741988 0.00091095094 0.0034726968 0.025778458 0.017551139 0.011324705 0.013100581 0.017984217 0.0038242403 0.0006039878 -0.0024058486 -0.0056425463 -0.0051306305 0.01683742 0.025988163 -0.0036654738 -0.005282926 0.02739143 0.013972901 0.019930823 0.016132904 -0.0011851888 0.0029340715 0.028583804 -0.0012410956 0.020105248 -0.00094926934 0.0031158372 -0.003338753 -2.0686452e-05 0.003867544 0.025704319 0.018697545 0.019929133 -0.0020332998 -0.00999569 0.016047165 -0.0005118364 0.015852582 -0.002396341 0.01188562 0.00061597343 0.008343749 0.006016165 0.021365512 0.00089349336 0.010454553 -0.0021730773 0.00026410518 -0.0038004508 -0.0022614964 -0.011793561 0.0015381399 -0.00017358513 0.003338711 -0.0048603876 -0.0012475481 -0.008108785 0.001374117 0.0036068154 -0.0012236126
33367 0.0038761287 0.0026952885 0.020660644 0.005051319 0.025591675 0.032067403 0.02095621 0.016566403 0.0286946 -0.0021831878 0.011765887 0.025700988 0.017397514 0.014090338 0.003952627 -0.000355673 0.011624638 0.0029170306 0.020762544 0.022568397 0.010324506 0.030397432 0.0033900905 -0.0010064454 0.033734225 0.009587843 0.0076362933 0.019379323 0.017369274 0.0020375364 0.0068200845 0.0065989383 0.020674841 0.024417162 0.038390674 0.019020662 0.017158989 0.014936255 0.019358264 0.01777468 0.00010502418 0.027774112 0.0013949703 0.02601388 0.0019844433 0.0030693342 0.01126673 0.02008899 0.011694917 0.0020884376 0.018315582 0.026502479 0.0038901726 0.024211155 0.015283132 0.0025575056 0.022763273 0.017309926 0.02562206 0.03103784 0.009528374 0.0007011056 0.026885424 0.0126624815 0.010921208 0.0062978268 0.0014537238 0.0080739 0.0011768239 -0.0005722906 0.024248408 0.018126648 0.024768045 0.024584355 0.023534553 -5.178797e-05 0.0014321612 0.02068255 0.005303891 0.0067457585 0.013882371 0.037060253 -0.0007580227 0.0048225136 0.029748974 0.02935939 0.031184068 0.009315186 0.011421771 -0.00028874696 0.017392503 0.0056403126 0.022109572 0.0035034642 0.0063075675 0.017832035 0.009597167 0.00415828 0.032431833 0.016276961 0.02621009 8.500908e-05 0.028184917 0.016868308 0.006394849 0.02124101 0.0031857432 0.015705058 0.0041924715 0.022835767 0.030172793 0.020343546 0.013641478 0.028555071 0.00033268935 0.016550343 0.0051258076 0.007874541 0.024076015 0.0015258208 0.009041266 -0.0021817295 0.019781975 0.003082886 0.020527551 -0.0018330801 0.017675258 0.021815903
