416 128
30135 0.07942653 0.02824271 0.012445845 0.079101354 0.09327756 0.05433237 -0.009649811 -0.008973631 -0.0064273733 0.00079088676 -0.00865755 -0.012908906 0.0010841397 0.07501886 0.09629127 0.067471914 0.03528075 -0.002405117 -0.014194002 0.07264073 0.004578679 0.0740782 0.0006470113 -0.010904046 0.06185052 0.08935922 0.035296746 0.051723193 -0.0118639935 0.059038453 0.035152454 0.083560556 0.08868091 -0.012729357 -0.009213784 0.052141238 -0.015147173 -0.0009883854 -0.014631435 0.018213186 0.06269128 0.06881086 0.069541596 -0.006315234 0.021021219 0.07879232 0.09123974 0.0184532 0.005081317 0.015991058 0.07725909 0.06399984 -0.009121783 -0.011363883 0.04421441 0.05075278 -0.012458519 0.10318961 -0.013659718 0.044666972 -0.015135236 -0.009852661 0.0644162 -0.011566928 0.08559768 0.086133614 0.018658435 -0.009754556 -0.01242035 -0.010497585 0.10749058 -0.011322167 0.04595845 -0.003962986 -0.009321278 0.08497892 0.00077285303 -0.007090957 0.08532096 -0.010010332 -0.00274159 -0.009841061 0.06688767 0.077589944 0.10122071 0.061450012 -0.011598067 0.06614277 0.0656779 -0.01407426 0.019652354 -0.0033111565 0.045395974 -0.0051773665 0.06489067 -0.012287571 -0.012180684 0.0692209 -0.015173977 0.058949225 0.07127633 0.007864648 -0.013791591 0.091224656 0.09780847 -0.013303185 -0.013370852 0.07126021 0.09088255 -0.014295663 0.07381661 -0.010139651 0.0074575753 0.105919674 0.101946704 0.009450665 0.082276 0.071024165 0.046185795 -0.014196284 -0.011157026 0.07342138 0.0545316 0.06498216 0.08583926 -0.0036283957 -0.011622942 -0.00963417
30397 0.8031588 -0.025163522 -0.10896523 0.62889594 0.93697214 0.5510175 0.2006493 -0.050615914 0.22447622 -0.20340003 -0.123908594 -0.19629373 -0.09899169 0.7797888 0.6121538 0.58101237 0.16961701 -0.11441688 -0.18051653 0.76462555 -0.08939421 0.55778813 -0.11831147 0.08987271 0.643527 0.90049255 -0.018190404 0.6279209 -0.14959747 0.97389174 0.62755466 0.79447067 0.5204562 0.04424662 -0.11111255 0.5542754 -0.16766573 -0.1360039 -0.1477803 0.10341938 0.55309874 0.5094565 0.49800968 -0.080128 -0.026482575 0.7255155 1.0443828 -0.09355657 -0.10764976 0.11928195 0.74743825 0.49242136 -0.06774556 -0.14250605 0.36962345 0.28515378 -0.0064628455 0.7143444 0.008797905 -0.058792353 -0.09141405 -0.094988525 0.4623912 -0.12306783 0.5830425 0.64627296 0.16605385 0.16369432 0.025233248 -0.09467216 0.9247593 -0.08725474 0.87381166 -0.13380818 -0.09626915 0.71671146 0.0037043567 0.11311325 0.5767722 0.1694547 -0.04495459 -0.1281279 0.31967553 0.38497964 0.733338 0.617219 -0.067719325 0.8262121 0.9994368 -0.054203957 0.31272608 -0.107477024 0.23846056 -0.13760774 0.894917 -0.12440191 -0.10513065 0.46065065 0.019741016 0.37636295 0.3738438 0.1976777 -0.13162985 0.8621912 0.80849457 0.056667004 -0.048718672 0.6248005 0.91701484 0.041936535 0.34282023 -0.13636789 0.26452848 0.904629 1.0358466 0.031911984 0.8113341 0.71389145 0.76904696 -0.12025513 -0.12104108 0.9778742 0.2784078 0.8408273 0.6206621 -0.12497129 -0.11819215 -0.124439366
31057 0.75789654 -0.034325555 -0.090485826 0.5994933 0.85607815 0.39366186 0.0077732513 -0.048710696 0.015710738 -0.16301909 -0.09898196 -0.16678783 -0.082595475 0.5556846 0.5327995 0.382228 0.15597817 -0.10305961 -0.15104732 0.5206954 -0.07300398 0.52764434 -0.10435784 -0.03885208 0.34869072 0.8459396 -0.031453256 0.46852764 -0.13426477 0.72068465 0.6101159 0.7451762 0.49421388 -0.05349429 -0.08439765 0.55139214 -0.14310524 -0.114500456 -0.1179241 0.017442197 0.2850067 0.47246626 0.48821634 -0.09807017 -0.021489946 0.51418823 0.77609944 -0.08053584 -0.09441271 0.13685223 0.67931646 0.40089577 -0.07558834 -0.11101439 0.3720646 0.21996228 -0.06444262 0.6378301 -0.08667905 -0.07438324 -0.08078888 -0.090122834 0.116854474 -0.10530075 0.50707 0.5908333 0.217141 -0.023702478 -0.0897948 -0.08503804 0.8338909 -0.07632939 0.48060796 -0.11821418 -0.070397414 0.63656336 -0.072869085 -0.018465929 0.5379521 -0.023577483 -0.08053525 -0.11281786 0.21708652 0.27831954 0.6723753 0.5380497 -0.061297044 0.48826745 0.72810966 -0.082195364 0.08327355 -0.091645956 0.042865608 -0.119818226 0.6920825 -0.10861774 -0.07934991 0.2570203 -0.088166855 0.24002504 0.31103322 0.001899623 -0.107448794 0.6194915 0.7240304 -0.059036948 -0.096518666 0.5811978 0.8553525 -0.06116087 0.30102623 -0.0910598 0.036302693 0.840639 0.83071315 0.018802479 0.6287448 0.42434597 0.7348522 -0.10657081 -0.1128711 0.70782304 0.2120076 0.5849476 0.5052723 -0.10701986 -0.08883248 -0.10991056
34100 0.47434926 0.06968104 -0.00087531627 0.21978742 0.42936233 0.18976548 -0.009205086 -0.015211697 0.01110185 -0.039801247 0.0005358731 -0.041863583 -0.032516293 0.23967385 0.31744313 0.17338946 0.2739108 -0.025807543 -0.04651149 0.2478886 -0.021339323 0.2677313 -0.032562625 -0.035697047 0.014929598 0.48987022 0.096021324 0.13787685 -0.048418995 0.17507842 0.35817426 0.43988615 0.20917912 -0.030286988 -0.012738479 0.47699445 -0.052521706 -0.013068014 -0.029086115 0.09403005 -0.010074351 0.10931195 0.26178223 -0.034371924 0.07402527 0.13092825 0.33103788 -0.02282825 0.015924202 0.1852417 0.4226855 0.04440749 -0.0012542616 -0.02269467 0.32954893 0.17951 -0.02788505 0.36598313 -0.03802493 -0.007517448 -0.031556994 -0.026945284 0.0077327634 -0.03360275 0.14828566 0.31760928 0.32497203 -0.042107202 -0.030628482 -0.017169183 0.4529284 -0.006515258 0.03704139 -0.03321257 -0.019583868 0.36401385 0.01111656 0.016159762 0.2656018 -0.01974861 -0.02365592 -0.037359238 0.05442142 0.02887769 0.4672904 0.07432907 -0.009879748 0.031500246 0.2091023 -0.025645774 0.06493229 -0.014114795 -0.011092471 -0.035104975 0.2211763 -0.0319566 -0.017959114 0.020876694 -0.024693247 0.05058774 0.04978487 -0.034081418 -0.03341039 0.25747415 0.3973765 -0.035238884 -0.040308747 0.32071128 0.4517139 -0.042165533 0.06869442 -0.04014993 0.057896744 0.49749982 0.39597285 0.07844489 0.25568944 0.017043194 0.32029167 -0.030505165 -0.022974262 0.2280974 0.028293764 0.21412203 0.09375626 -0.041465513 -0.023519345 -0.025742728
31295 0.6003464 0.220978 0.01270248 0.13595574 0.43497705 0.16813281 0.054836087 -0.012547432 0.10549422 -0.010734943 0.035896413 -0.014697288 -0.04702874 0.36307842 0.3966461 0.2535736 0.58707565 0.003055352 -0.03452029 0.37640816 -0.03046339 0.22467615 -0.03903811 -0.024846695 0.0034743403 0.5871338 0.24543546 0.048008557 -0.047916345 0.04426043 0.52698326 0.5985954 0.14947796 -0.005066159 -0.02704503 0.7368703 -0.06092178 0.004408512 -0.028184323 0.3560053 -0.03724471 0.0074517312 0.29458156 -0.032224238 0.23505306 0.04890275 0.30306825 -0.027054919 0.1206704 0.46262392 0.60438794 0.015937502 0.08971723 0.015220915 0.4273231 0.32203645 -0.003981299 0.46140224 0.018056616 -0.011494548 -0.029210215 -0.007270405 0.08144964 -0.036728237 0.037346 0.4081769 0.53309524 -0.0082319435 0.021419192 -0.018415771 0.48522034 -0.0052410597 0.054169547 0.0010574867 -0.024863115 0.46843684 0.17057674 0.11379699 0.21730886 0.0764794 0.022180049 -0.022046378 0.045292575 0.011870543 0.57933974 0.0055796793 0.00061130966 0.03184591 0.08499721 -0.016569132 0.28374025 0.024985014 0.002026654 -0.027230833 0.10450139 -0.038296003 -0.029347217 -0.029029472 0.015253818 0.0068469495 0.017545026 -0.023042733 -0.026751561 0.26227054 0.49113974 -0.0014887269 -0.020310672 0.39704812 0.4425607 -0.030815696 0.014759084 -0.05600817 0.25944522 0.6012559 0.44001225 0.28626367 0.22867766 0.009224397 0.21700291 -0.03091747 0.058898833 0.14701408 0.010308906 0.2244834 0.013824799 -0.038466994 -0.040703066 0.012259072
30977 0.7780508 0.29306638 0.063634954 0.16080783 0.53550583 0.21092653 0.3056051 -0.00065584574 0.39907727 0.045614127 0.12739831 0.083811544 -0.059786525 0.5357825 0.46256027 0.34931907 0.83418626 0.109725565 0.0064846296 0.59226674 -0.0057018786 0.17454775 -0.018913802 0.07483105 0.13589159 0.7480508 0.31017265 0.13919897 -0.032447867 0.15809035 0.6804216 0.78348553 0.103902884 0.08757754 -0.012797616 0.98963034 -0.033791915 0.058111258 -0.018077897 0.6376218 -0.02307407 0.03175128 0.32883292 -0.0011782789 0.3244219 0.11037049 0.46771786 -0.023615504 0.27210298 0.6765567 0.75877 0.04673683 0.20693891 0.10863705 0.51107645 0.37860993 0.087113656 0.5493766 0.20083526 0.057373833 -0.007060069 0.025803082 0.30387974 -0.032330662 0.0332056 0.4536336 0.74040157 0.11098821 0.2670968 0.016389519 0.56695217 0.028773114 0.27502158 0.050478272 -0.025360577 0.5940396 0.42889166 0.35311452 0.21695535 0.41765362 0.17446402 0.014750377 0.002550942 0.021221938 0.7083333 0.013910485 0.06458268 0.18440777 0.26779598 0.049189158 0.51167053 0.134481 0.111577086 -0.0007018782 0.2528516 -0.030755652 -0.01654174 0.0027088337 0.23770685 0.031084137 0.03942307 0.046250112 -0.01659837 0.35513785 0.61401564 0.13890977 0.06439471 0.49908713 0.52281135 0.057978015 0.014626472 -0.08393603 0.5898247 0.69684374 0.58013725 0.48088124 0.31902424 0.052261874 0.27944067 -0.016794628 0.2025975 0.30384874 0.037921954 0.42607135 0.032524753 -0.00950131 -0.03256467 0.095315434
31703 0.6140852 0.18300463 0.06796243 0.2914857 0.5650914 0.3614169 0.06801989 -0.008484012 0.1367724 0.011285877 0.051369708 -0.022258539 -0.031386912 0.3723836 0.45982686 0.35763767 0.41920254 0.04014102 -0.009339956 0.4061835 0.01643647 0.3704862 7.40159e-05 0.024544543 0.11663451 0.632737 0.23478746 0.23006089 -0.003210569 0.23011485 0.38203856 0.55850357 0.30805087 0.031019071 0.024362516 0.6021692 -0.008364992 0.041246507 0.003535619 0.24637122 0.05068803 0.12857877 0.33427462 -0.000702013 0.21192531 0.24812086 0.5001457 0.019039541 0.08850194 0.20054401 0.5466476 0.09020548 0.06295285 0.030451404 0.4945319 0.32046676 0.038322233 0.51502675 0.04122504 0.031350724 0.008125788 0.033311147 0.17586802 0.017365165 0.22514658 0.42319605 0.38496095 8.3296654e-05 0.039695993 0.045711562 0.6215289 0.05907482 0.16388644 0.045669764 0.0053932844 0.49092004 0.09276114 0.11445753 0.36314014 0.05208161 0.026263736 -0.013698451 0.18907101 0.1009506 0.65196496 0.085101485 0.03848026 0.0968458 0.30462304 0.030444412 0.25298887 0.052817892 0.07810701 0.016246807 0.31526294 0.012766772 0.021756439 0.11195837 0.033480834 0.15657473 0.068686806 0.013620185 -0.0069242045 0.41482618 0.51646405 0.028473713 0.02097365 0.41078213 0.5901869 0.017579172 0.08637039 -0.046164222 0.18820235 0.6648048 0.5705471 0.19189797 0.38201544 0.08773673 0.37980098 0.015678652 0.019245367 0.31558523 0.062017098 0.34746343 0.15699503 -0.02803562 0.008941664 0.009300553
30721 0.4001589 0.18437262 0.08009229 0.15169002 0.33463606 0.25346062 0.056938227 -0.005109056 0.12814637 0.03420283 0.060719132 0.0010120647 -0.017986644 0.25409815 0.34232113 0.28470752 0.34370697 0.052569877 0.0142667545 0.2833358 0.027170355 0.22625096 0.016241169 0.02442061 0.047266323 0.40662327 0.2283165 0.098493315 0.018146077 0.055496037 0.20320925 0.36884654 0.20297284 0.031045908 0.022759518 0.42632228 0.024478342 0.05108402 0.01818252 0.22767937 0.003016126 0.022851001 0.20862494 0.009542112 0.20155172 0.12322874 0.2984469 0.04358079 0.079543255 0.12545498 0.3712559 0.019757489 0.06486053 0.047621068 0.36311442 0.27288198 0.036297314 0.35737318 0.047595076 0.04402725 0.020232089 0.05342131 0.15501922 0.03651732 0.10411338 0.2908933 0.25282893 -0.002188734 0.03970166 0.046776887 0.4084694 0.05407634 0.07096248 0.065668575 0.013565006 0.3249564 0.101834476 0.104750276 0.21609354 0.05370497 0.044286583 0.0064431713 0.17847677 0.058322906 0.46651742 -0.0050728684 0.036631275 0.02368507 0.10266489 0.030832289 0.25965837 0.058126584 0.077285476 0.03481421 0.12662159 0.019420143 0.030585589 0.06204732 0.035314288 0.09353122 0.017883403 -0.003691006 0.009076088 0.27604762 0.3316474 0.030228177 0.02650883 0.25949812 0.35091338 0.025212081 0.025453499 -0.026577013 0.15616617 0.45174903 0.38047022 0.165306 0.22471817 0.018068334 0.15821345 0.022749305 0.044789214 0.13147828 0.013780096 0.19006613 0.046928674 -0.008163978 0.013886986 0.015259313
30529 0.19591373 0.08593721 0.050728355 0.07761557 0.16366258 0.10026978 -0.00021365174 -0.004349047 0.03632391 0.014604805 0.012015194 -0.0030322832 -0.0044285352 0.12560831 0.1759912 0.12978306 0.14304966 0.015340656 -0.009915189 0.13883922 0.0020523088 0.10279061 0.0045319875 -0.004931133 0.01903316 0.2025352 0.11260029 0.039057054 0.0004993752 0.026317721 0.092625245 0.18377423 0.10559306 -0.003892038 -0.0053771185 0.19118069 -0.007203408 0.020618003 -0.006543963 0.08527838 0.0019396067 0.020899061 0.10659619 0.008505273 0.079049945 0.06346112 0.14721137 0.020277437 0.0321319 0.05835134 0.17729348 0.005345177 0.0070391134 4.9358564e-06 0.14634384 0.12026714 -0.002621529 0.1846263 -0.006085768 0.042499594 -0.007995244 0.0065957215 0.08537924 -0.0028056286 0.06216406 0.14555217 0.09086983 -0.012778311 0.0024581638 0.003405151 0.20439841 0.004759342 0.018786576 0.017842958 -0.008538104 0.16122574 0.035423845 0.02263494 0.11286725 0.012492276 0.014251013 0.005263491 0.07969231 0.04082097 0.2404444 -0.009387136 -0.0043023485 0.013361304 0.051631596 -0.0030745054 0.099959396 0.016762469 0.042225257 0.006253391 0.064881474 -0.009641913 -0.006826194 0.03998481 -0.0020607384 0.038444817 0.018353395 -0.005942677 -0.009510353 0.14125334 0.16600877 -0.00875037 -0.0060881427 0.12970662 0.16622515 -0.009619634 0.03454384 -0.023659678 0.0540099 0.21967411 0.18255028 0.059338424 0.11119669 0.0036275997 0.059728004 -0.008682516 0.0012290396 0.07399069 0.0030914117 0.08474066 0.0272805 0.000995019 -0.009998463 0.008355894
30198 0.2040413 0.098679006 0.06341805 0.08272328 0.17320372 0.1300052 0.014160121 0.00087026844 0.056321077 0.026545431 0.030535689 0.0054281056 -0.004557412 0.12660347 0.18243988 0.14915895 0.16172586 0.030463066 -0.00039580328 0.14551754 0.0138018625 0.11287043 0.010337986 0.004463929 0.031014951 0.20538042 0.12218676 0.051213007 0.011850723 0.040140048 0.08266491 0.18517683 0.11158688 0.016553871 0.011475873 0.21017024 0.009892502 0.03514576 0.0064681536 0.10541697 0.013342561 0.027892545 0.10590349 0.015245772 0.09803653 0.079394974 0.15840182 0.026797399 0.045103263 0.052949548 0.17633472 0.019509267 0.03252357 0.016939823 0.17170845 0.13270524 0.019715663 0.19849817 0.012284049 0.05047724 0.002171992 0.022859674 0.09931156 0.013673146 0.0698097 0.15072529 0.10626253 -0.011994901 0.016212318 0.028759222 0.21518365 0.023284327 0.033314664 0.0384135 0.0010615025 0.16946883 0.050963987 0.04586746 0.11664659 0.029195681 0.024174476 0.019400561 0.09954436 0.053609632 0.25241658 0.0060490314 0.00985256 0.019628717 0.06159385 0.014017547 0.12115399 0.03310347 0.051122315 0.01874978 0.07513808 0.008271331 0.0058691185 0.050167277 0.016903948 0.05759761 0.02558318 -0.0036405856 -0.000985096 0.14686976 0.17182893 0.003484744 0.009790634 0.13337423 0.18195525 0.0035590245 0.032142796 -0.01564546 0.06599647 0.2330839 0.19679734 0.079507254 0.11930568 0.01771328 0.07339924 0.0071397983 0.016053958 0.07584985 0.018086068 0.09421388 0.043593682 0.0019483438 0.0023728304 0.023090927
30434 0.08098777 0.03756326 0.013713603 0.035356343 0.069120616 0.04887467 -0.0023241863 -0.0045246365 0.0050954116 0.005954411 -0.0003094745 -0.0072313882 0.0027157252 0.05581481 0.08048939 0.056278862 0.056860473 0.002767778 -0.0025947068 0.05820707 0.0028338938 0.050856996 0.0061812904 -0.0014035596 0.005815688 0.0849827 0.04956653 0.017515529 -0.0038454244 -0.0009249457 0.04064899 0.07907321 0.05205774 -0.0063891583 -0.0017078655 0.07468611 -0.0041216747 0.0053407187 -0.0027612625 0.034154296 -0.007100334 0.008305005 0.05320216 -0.0029575857 0.033101063 0.026198745 0.059148043 0.015573756 0.011696092 0.027631544 0.077727646 -0.007087546 -0.0021089113 -0.00023227818 0.06411506 0.056428544 -0.00701855 0.08127478 -0.0035047927 0.019979 -0.0029425337 0.0019995035 0.030489191 -0.0006511717 0.028775264 0.07209766 0.034067985 -0.007710406 -0.0043513495 -0.0029145388 0.08980359 -0.000246183 0.0010886817 0.0033953637 -0.0007932325 0.0698306 0.009743785 0.0031555984 0.054461446 -0.0047656987 0.0021525903 -0.0066047423 0.042679135 0.0197431 0.10238281 -0.014670033 -0.0020386279 -0.00394054 0.013736257 -0.0049581807 0.037627038 0.0044846265 0.020292314 0.004812163 0.022144949 -0.004927253 0.0009847567 0.016795704 -0.008858917 0.02197909 0.006793156 -0.005941763 -0.002680651 0.06344893 0.073042504 -0.0050992565 -0.0052051637 0.0584671 0.068468295 -0.004559304 0.021017807 -0.007331082 0.018391972 0.09575737 0.079682745 0.020677727 0.046684023 -0.0061253584 0.024542894 -0.003957958 -0.001574983 0.025022034 -0.0007002956 0.03580184 0.008501428 -0.001815367 -0.0026636652 -0.0064006345
31577 0.05463182 0.033598468 0.022425843 0.017097002 0.03810077 0.018687783 -0.0032871286 0.0038793394 0.00057277037 0.018119149 0.0010535353 0.002870392 0.017631462 0.035891555 0.053055085 0.023991901 0.049266104 0.009347885 0.0011851314 0.03719052 0.005342997 0.025222817 0.01596378 -5.8637044e-05 -0.0010854073 0.060036063 0.04797118 0.0068872925 0.0018433726 -0.0010278305 0.035098553 0.05854408 0.02732511 -0.0025901818 0.0013643516 0.057329968 -0.0012134375 0.0144742 -6.1320934e-05 0.035443213 -0.0032946537 0.0047213524 0.04090064 0.007861706 0.031818014 0.010358593 0.03172372 0.021047927 0.021802947 0.035502575 0.054172385 -0.0021605499 0.0005360198 0.0004763993 0.040177986 0.034542587 -0.0030237623 0.052193444 -0.002085715 0.035828307 -0.0007965634 0.003431979 0.020198049 0.0010638476 0.016781151 0.049319856 0.026678951 -0.005324228 -0.0007587541 0.00028019765 0.058454018 0.0020082367 -0.004981104 0.006627209 0.0011087038 0.04467544 0.01703504 0.0013428637 0.0384827 -0.000108822336 0.003467195 0.0016021408 0.01678449 0.011800452 0.07069286 -0.006681284 -0.0010658355 -0.0062846066 0.005130132 -0.001670963 0.015817398 0.015326226 0.013765282 0.0115808025 0.007650398 -0.0014772842 0.0012462344 0.0081312135 -0.002890978 0.009425082 0.019127011 -0.0040671634 0.00019056731 0.03583854 0.051225353 -0.0029466732 -0.0012103663 0.038751047 0.033210732 -0.001777563 0.023163889 -0.004557457 0.020685984 0.058037847 0.046820574 0.02342148 0.024086745 -0.0038832743 0.008199948 -0.00074191403 -0.0013105079 0.017158635 0.005276959 0.01697297 0.0045275437 0.008877216 -0.0008187325 0.0042596324
32070 0.11087064 0.051643826 0.024800846 0.07249406 0.107472256 0.06841284 -0.007809964 -0.0056372136 0.0016961702 0.010765528 -0.0019507525 -0.009306982 0.0046867975 0.085330166 0.11952974 0.083011836 0.06793931 0.0060851416 -0.008582405 0.08798966 0.0069649885 0.08017603 0.00818408 -0.007393043 0.039994672 0.11936738 0.0653753 0.041891996 -0.006693872 0.032202736 0.04967093 0.111124896 0.09086806 -0.009949801 -0.0041945027 0.090630546 -0.009318876 0.00917712 -0.008412688 0.04133537 0.030923672 0.04699727 0.08107188 -0.0016852263 0.042705357 0.06680226 0.0981259 0.02536768 0.017298441 0.031164354 0.10458803 0.032464936 -0.002703937 -0.0044362126 0.07703772 0.07465277 -0.009383654 0.12533784 -0.009667606 0.048253506 -0.0094950935 -0.0009665368 0.0664741 -0.0050538327 0.07207794 0.105709404 0.035469454 -0.012093124 -0.008181825 -0.0040998817 0.13380204 -0.003913826 0.025467107 0.005135227 -0.0050314176 0.10451374 0.012424084 0.0011486285 0.091018826 -0.0064840047 0.0039395094 -0.005017216 0.07215125 0.062336046 0.14200455 0.024935223 -0.006405442 0.03342144 0.0476513 -0.009258635 0.043496396 0.006786099 0.045198463 0.004154719 0.053329714 -0.008082806 -0.0057083997 0.05499468 -0.012585482 0.05167854 0.0488774 -3.6309517e-05 -0.008419869 0.10121776 0.114166446 -0.011599286 -0.009273402 0.0866834 0.10522981 -0.011302004 0.06094145 -0.010782122 0.021358024 0.13658208 0.12064442 0.026027666 0.08271699 0.03578574 0.043571156 -0.009062155 -0.005179416 0.061388053 0.032266553 0.06424191 0.05816256 -0.00047362916 -0.0076711066 -0.004548444
32467 0.34877628 0.11021756 0.023643896 0.14522506 0.31940803 0.25127202 0.035842363 -0.019256465 0.09675443 -0.015405301 0.023781825 -0.036799517 -0.032047886 0.23704423 0.2864527 0.25009096 0.2411247 0.006538817 -0.019649776 0.24861105 0.004129809 0.19940723 -0.012346741 0.012705728 0.058844294 0.35866028 0.13221201 0.11627595 -0.01595278 0.10964719 0.1847573 0.31843945 0.17643978 0.012387593 0.0074677444 0.34776455 -0.0032647278 0.005058249 -0.004186072 0.14280431 0.017738886 0.03829201 0.1722573 -0.017711261 0.12071521 0.14216346 0.29084942 0.00841666 0.01851257 0.07047749 0.31621635 0.03693608 0.021046525 0.008251411 0.29400373 0.21085355 0.015528827 0.31064484 0.018938005 -0.0015221733 -0.0007373309 0.01245079 0.12743354 0.0020583589 0.11046826 0.25744015 0.18296033 -0.0034612287 0.014891986 0.017634213 0.36429495 0.018887457 0.09441758 0.02199117 -0.0032601112 0.28908715 0.051764257 0.06776578 0.19160686 0.030990561 0.016830785 -0.021466758 0.16333015 0.05411866 0.38826632 0.016347928 0.00999887 0.054505497 0.13856187 0.008716391 0.19562797 0.010937657 0.065807916 0.0047494555 0.15979318 -0.005389846 0.0069079986 0.072530985 0.00794504 0.09917819 0.025392642 -0.004502466 -0.01713364 0.25513932 0.29844356 0.00937394 -0.0011221059 0.23851101 0.3303123 0.0070465403 0.024672702 -0.035000164 0.09916018 0.40030748 0.3532656 0.09089809 0.22079006 0.043872174 0.18128619 -0.0013544599 0.0043981224 0.16020828 0.025924334 0.192023 0.056998424 -0.033903833 -0.0021597703 -0.01564547
34082 0.25484884 0.0450534 -0.05579651 0.07489755 0.13006233 -0.018237619 -0.027614567 -0.022907976 -0.034301113 0.020146012 -0.030477434 -0.043179624 -0.021633279 0.17413712 0.14598568 -0.020303767 0.177502 -0.027120508 -0.031950973 0.13958137 -0.015898075 0.009731039 -0.026836231 -0.018817022 -0.021215234 0.25803375 0.052946795 0.00541503 -0.050928857 0.026013644 0.39219522 0.29367995 0.010206897 -0.024499493 -0.01576933 0.2681308 -0.03150538 -0.033649396 -0.021983884 0.084796496 -0.0479721 0.07401253 0.16527249 -0.04835944 0.031152703 -0.018190777 0.060776174 -0.021555861 0.030539982 0.36582938 0.28611863 0.012146985 -0.020410543 -0.039494906 0.065022364 0.045871142 -0.022804907 0.16286802 -0.038121503 -0.032017313 -0.020907002 -0.033906367 -0.007037307 -0.030932125 0.008983679 0.20489185 0.20411737 -0.025684813 0.0049024583 -0.032667033 0.15949635 -0.026020696 -0.020125715 -0.038553335 -0.011653969 0.17192361 0.0997979 -0.011696139 0.10572082 0.0026621465 -0.002453882 -0.041603465 -0.018619405 -0.0033163393 0.21354827 0.0027398504 -0.022904865 0.027921973 0.011966556 -0.022229113 -0.022485465 -0.011341926 0.0031902394 -0.023478081 0.010973228 -0.029931705 -0.016346011 -0.04133487 -0.021098204 -0.02108556 0.14522976 -0.04612703 -0.01800327 0.08481309 0.22037554 -0.04321634 -0.031015072 0.22733606 0.10754144 -0.047372647 0.15637517 -0.020972976 0.06961746 0.20832554 0.12496139 0.061087966 0.05992973 -0.026927134 0.0339309 -0.025170779 -0.020035258 0.14468235 0.0026286675 0.09638117 0.0034722416 -0.033906613 -0.019450445 -0.03567643
33195 0.30941093 0.09091026 0.017039042 0.11179271 0.25258476 0.16294783 0.017801538 -0.017481316 0.060503684 -0.0074890717 0.011253378 -0.026197175 -0.029475411 0.19900411 0.23861796 0.17496802 0.22365715 -0.00045372444 -0.02290288 0.20599034 -0.0034610932 0.14180921 -0.015856767 -0.004518604 0.02382193 0.31190348 0.11222889 0.07272073 -0.020198988 0.06918066 0.21044198 0.29457074 0.12428948 -0.0001424451 -0.0033067628 0.32101676 -0.016176678 0.0016720601 -0.010930665 0.12316168 -0.008047548 0.030624626 0.15555681 -0.016568279 0.09035189 0.08831929 0.21691497 -0.0006681203 0.02585544 0.13894276 0.2884617 0.0126550635 0.01368146 -0.0041908957 0.22090243 0.1606529 0.001368924 0.26344267 0.0031222252 0.0045604603 -0.01267096 -0.0013807664 0.086815335 -0.011835155 0.07029174 0.22199935 0.19141617 -0.0108736325 0.013607793 0.0014311168 0.29227734 0.0034473753 0.04730124 0.005420975 -0.010917931 0.24658857 0.058167495 0.044391733 0.15325285 0.029110579 0.011120226 -0.016407311 0.0994524 0.033200312 0.3356044 -0.0064162426 -0.0033410985 0.027824357 0.09514431 -0.0031881304 0.13537697 0.006023694 0.041183278 -0.007215571 0.11132833 -0.016568305 -0.008869339 0.03399723 0.004132353 0.051825378 0.027031524 -0.013019907 -0.01997404 0.19438674 0.25812203 -0.00678573 -0.009684481 0.2157139 0.2602806 -0.010125912 0.04162454 -0.033937767 0.088025086 0.3325834 0.2712511 0.083354205 0.16436562 0.009501416 0.1318387 -0.013245161 0.00046750344 0.12992595 0.009301754 0.14891653 0.031901065 -0.027767051 -0.012086926 -0.005932009
34761 0.33660525 0.003629066 -0.07563699 0.1277768 0.19271952 -0.012439925 -0.023769926 -0.023190899 -0.017456006 -0.032421242 -0.054522425 -0.07815459 -0.031797502 0.21485928 0.16828059 -0.0014537661 0.16103119 -0.060273148 -0.06257944 0.17688842 -0.03566932 0.04599618 -0.04916595 -0.008946212 0.0035596937 0.3215545 0.0119501855 0.036920946 -0.07167126 0.13852218 0.49422774 0.3652503 0.03637453 -0.022541165 -0.04365932 0.32907665 -0.06719686 -0.05982329 -0.048089784 0.02513177 -0.026590116 0.12432869 0.21652247 -0.050642606 -0.00823819 0.00544103 0.14032853 -0.039976537 -0.030541278 0.415588 0.3545081 0.018518372 -0.043163765 -0.06617784 0.07209256 0.023199817 -0.03404964 0.21034762 -0.03131685 -0.04092881 -0.041820407 -0.057986733 -0.0145804975 -0.061125133 0.035183743 0.25867748 0.2777814 -0.00084294425 0.0003534141 -0.059430543 0.22410229 -0.05395954 0.034402467 -0.074010104 -0.031180425 0.22349375 0.052369982 -0.0019456106 0.14753626 -1.5169382e-05 -0.032750946 -0.055252194 -0.03168104 -0.0013318873 0.27620098 0.043086246 -0.04449382 0.096262924 0.09435058 -0.038291942 -0.02282764 -0.046768855 -0.019047651 -0.054408774 0.08238357 -0.058120508 -0.039438497 -0.044805966 -0.010648784 -0.030128535 0.16812116 -0.032055072 -0.043355897 0.15845624 0.28783703 -0.04217747 -0.03988611 0.29861778 0.17522945 -0.03853236 0.19754459 -0.034171537 0.06398208 0.27812174 0.1905567 0.0068512317 0.10088626 0.0051794946 0.12847574 -0.05221476 -0.039032172 0.24376842 0.007432998 0.15195203 0.023066822 -0.04789518 -0.04488878 -0.052578848
34711 0.07187614 0.04690654 0.025699845 0.019131415 0.04845344 0.02280363 0.00059845566 0.0025491607 0.013665431 0.016537476 0.007221205 0.0033092068 0.0114483535 0.04713684 0.06883825 0.036751244 0.07770327 0.011486528 0.0036475835 0.04994489 0.005037866 0.031265296 0.0125648985 0.0024772943 -0.0053427247 0.078116 0.06447469 0.0003526922 0.0039707427 -0.0071529173 0.046079926 0.07633095 0.0349703 -0.0006167783 0.0010328677 0.084023215 0.0019141352 0.01528203 0.0019463766 0.05185147 -0.0049248934 -0.001820168 0.0484345 0.005947196 0.04736594 0.006083806 0.03960318 0.021377422 0.024935134 0.044855393 0.07235245 -0.00066386804 0.007132652 0.0058635673 0.061189022 0.053209662 -0.00035805785 0.067300364 0.0021420603 0.03019139 0.0024625268 0.008906042 0.024882386 0.0041063083 0.014340594 0.06266093 0.046101652 -0.0026294272 0.0016125204 0.0031763343 0.07359562 0.005167743 -0.0052127237 0.011975256 0.0021071 0.058618125 0.02475984 0.010672776 0.042789634 0.00575639 0.0072356793 0.0025683611 0.022348385 0.010112383 0.09199274 -0.004973947 0.0021030377 -0.009661619 -0.0042015077 0.00037493452 0.040888924 0.01590903 0.015804337 0.011630502 -7.18031e-05 -0.00011814722 0.0048318473 0.004713642 0.0013163058 0.0066599743 0.01648818 -0.005615444 0.0026201347 0.04486526 0.06268651 0.00074704306 -0.0002430771 0.04980169 0.044254232 2.959637e-05 0.016812861 -0.0037276335 0.031435885 0.08036854 0.06072206 0.03698434 0.028312631 -0.0038398649 0.005835187 0.00014196796 0.005571967 0.0110651925 0.003541952 0.018847343 0.00044367285 0.0060432707 -0.00041532997 0.0035395971
30852 0.5974713 0.13732865 0.032667562 0.26115593 0.53002673 0.29675868 0.0388029 -0.012372495 0.09946575 -0.026273355 0.030999422 -0.036534872 -0.0349158 0.34984046 0.42448243 0.30657884 0.40774933 0.004568392 -0.040797044 0.37240756 -0.010423125 0.32698777 -0.020881368 -0.0072004627 0.07088913 0.6062548 0.18502678 0.18466459 -0.035967875 0.20917055 0.40014362 0.55159104 0.2577628 0.0028072195 -0.0010717439 0.6070488 -0.042437535 0.008285032 -0.021226782 0.20768225 0.023629721 0.10179434 0.3093965 -0.019853273 0.15654124 0.19794236 0.45667616 -0.007422254 0.062272318 0.21422836 0.53110397 0.056997463 0.029981846 -0.0019282759 0.44748613 0.27985626 0.0040330803 0.4788977 0.010914651 0.016902424 -0.02262064 -0.009351874 0.114136815 -0.02415039 0.17996658 0.40279585 0.3892145 -0.016456313 0.01466611 0.008363193 0.5788567 0.011000864 0.12237207 -0.0003056743 -0.016132457 0.46486035 0.06241995 0.08565924 0.3242948 0.04711947 0.0023551336 -0.033261053 0.13037796 0.06650735 0.6119252 0.06405149 0.0042677484 0.07030203 0.27464885 -0.0065926407 0.20216985 0.01807673 0.037762534 -0.020157535 0.29038942 -0.02170679 -0.009482943 0.06564243 0.0072505167 0.1095115 0.047873825 -0.0071297213 -0.03477422 0.36500683 0.49388987 -0.0040432615 -0.013737476 0.3932891 0.5490222 -0.011223193 0.062637836 -0.05408567 0.1578928 0.62846184 0.5320983 0.15834548 0.33949357 0.06405691 0.36089185 -0.018156191 -0.002520817 0.28595456 0.049246788 0.31186184 0.113297604 -0.037706077 -0.0173787 -0.009950278
34524 0.1295813 0.047156736 0.019227926 0.05851722 0.1201282 0.09504167 -0.0043959124 -0.012743664 0.017049113 -0.0018936252 0.0019047038 -0.013334097 -0.012052487 0.08597732 0.12413138 0.10410365 0.077067256 0.0012161836 -0.011696142 0.09288285 0.002818194 0.08104703 -0.003664295 -0.006895516 0.01769603 0.13185546 0.057866443 0.03805897 -0.009506098 0.017267868 0.0464366 0.115972966 0.079896174 -0.008369734 -0.0030125668 0.11695713 -0.008767376 0.0019305842 -0.0067310226 0.042152792 -0.0044738865 0.017678777 0.0689551 -0.008332805 0.043583006 0.054980066 0.10714277 0.010497452 0.0059222076 0.014993443 0.114894874 -0.00046437522 -0.0014957415 -0.0046069194 0.105079494 0.0857922 -0.0062430943 0.13048455 -0.006967477 0.015551743 -0.0089448 -0.0018375616 0.05537894 -0.0051956056 0.049060483 0.10224004 0.050408803 -0.016153267 -0.006174924 -0.0014193866 0.14380324 -0.0009974319 0.014499495 0.005229005 -0.0056623435 0.11194803 0.008516065 0.0074969465 0.079262376 -0.0033916906 0.0037480984 -0.007394716 0.07715244 0.033924423 0.16185299 -0.012774143 -0.0056650126 0.005556607 0.03999063 -0.0075471923 0.063432634 0.00027391358 0.031020286 -0.0016273508 0.053521372 -0.009224473 -0.0040711924 0.03392845 -0.011167475 0.040608585 0.0038899006 -0.010071472 -0.011227494 0.10233998 0.11374514 -0.011815213 -0.008717469 0.087835945 0.12506247 -0.010101157 0.021025738 -0.015973052 0.020468635 0.15376125 0.13378513 0.025889985 0.084365204 0.00015758976 0.051025297 -0.008443945 -0.0053281235 0.0478784 0.004721311 0.06422853 0.022138838 -0.011630181 -0.0064579956 -0.0074537816
33667 0.15668745 0.058178883 0.015780471 0.070156455 0.1440879 0.114081725 0.00022479749 -0.017634874 0.02758183 -0.008574636 0.0027999708 -0.01881162 -0.020192567 0.107566774 0.15175821 0.12972593 0.10008542 -0.0016289393 -0.012275005 0.114794545 0.0014799156 0.09934296 -0.007842522 -0.007000055 0.018953959 0.15959464 0.07115904 0.040270925 -0.0113917105 0.012246182 0.06083007 0.1425908 0.09958379 -0.010480888 -0.0062800082 0.14559412 -0.0087287715 -0.0021693897 -0.008247337 0.05425705 -0.0070275953 0.014731185 0.08262865 -0.014007727 0.05292035 0.06213314 0.12908228 0.009983058 0.0037344792 0.02064764 0.14358838 -0.0055791433 -0.002987714 -0.0026989002 0.12888516 0.10895138 -0.009679218 0.1559994 -0.0059806756 0.007789882 -0.008976779 0.00035380712 0.06626464 -0.0049740653 0.05324314 0.12541637 0.06568328 -0.01581663 -0.0067928946 -0.0038033586 0.17229384 -0.0013660205 0.018003384 0.0042067952 -0.0070109856 0.1356549 0.009714768 0.011827212 0.092916176 -0.0018721252 0.0046203444 -0.01355952 0.095685296 0.03612626 0.19494371 -0.020823654 -0.005338946 0.0071788495 0.040723115 -0.008670036 0.090461425 -0.0031546599 0.037841607 -0.004907594 0.05800853 -0.012573022 -0.0040428583 0.037465367 -0.013772301 0.044543773 -0.0016791023 -0.010800544 -0.012227025 0.12582976 0.13685638 -0.010544574 -0.010398738 0.107509136 0.14981215 -0.010048903 0.019173617 -0.01954671 0.029052993 0.1889794 0.16287969 0.03080138 0.10154662 -0.0024295135 0.05701969 -0.010022827 -0.0032042717 0.052338436 -0.0021404827 0.07749408 0.020672282 -0.016843205 -0.007786926 -0.014084272
30792 0.15277633 0.07560515 0.034435987 0.046403553 0.12192717 0.09006717 0.009655401 -0.007231128 0.042014867 0.013607966 0.014074927 -0.0030219369 -0.0048408736 0.100200355 0.14117497 0.10843994 0.12958564 0.015530564 -0.0018457647 0.10964302 0.008114857 0.0777436 0.0070277653 0.0031378686 0.0059827133 0.15781198 0.095897324 0.023033606 -5.347497e-05 0.0063232565 0.07109533 0.14428644 0.07453663 0.0030645013 0.0017469296 0.16772924 0.0014236895 0.017570525 0.0005545401 0.084897995 -0.010457603 -0.0034266643 0.07923021 0.001856418 0.07650559 0.038588572 0.109174185 0.021817343 0.026642427 0.045007728 0.1441553 -0.004393904 0.012588356 0.008554102 0.13790622 0.10905498 0.0034169522 0.14136282 0.0067827865 0.025021875 1.3186053e-05 0.0129196625 0.06047924 0.0061673187 0.033115044 0.11906304 0.08453825 -0.009655514 0.0072295084 0.007949656 0.16003737 0.009915629 0.011024416 0.019917905 -0.0011338488 0.12473186 0.03677952 0.027964726 0.08179383 0.012513573 0.014218728 -0.00049417425 0.06986415 0.017764011 0.18835649 -0.017498478 0.0030279213 -0.0030023302 0.022039855 0.0033585723 0.09560287 0.01878495 0.032230385 0.011176071 0.03389955 -0.0014628775 0.0034696162 0.019911328 0.001956272 0.02849671 0.0064544003 -0.009750567 -0.0031350001 0.107448705 0.12947874 0.0019935877 0.00090871163 0.10007127 0.12302642 0.00061672897 0.012324058 -0.015623626 0.053403053 0.17406467 0.14466871 0.057596285 0.0802786 -0.0059033926 0.036806826 -0.00030307935 0.00699403 0.04056302 -0.00177639 0.060054936 0.0047699925 -0.0033211096 -0.001629907 0.0012737885
30647 0.20920748 0.105179735 0.06728723 0.0764793 0.17196694 0.12528916 0.01735357 0.0017649834 0.06274945 0.03256954 0.033739682 0.008991223 -0.0047783707 0.12786444 0.18346588 0.14750196 0.17077117 0.035707884 0.0010970974 0.14785819 0.014857301 0.10788979 0.013222267 0.005540707 0.027372807 0.2109651 0.1295746 0.04928101 0.013046968 0.037228078 0.08771754 0.19035985 0.10299746 0.017928405 0.011412161 0.22093678 0.010752923 0.040436838 0.0066811605 0.11388886 0.0075805117 0.019184176 0.103981994 0.018375125 0.10436281 0.07424682 0.15677418 0.027662693 0.05238868 0.05787863 0.18100382 0.011865402 0.0362667 0.019331317 0.1776082 0.13568096 0.023656998 0.2001898 0.0142263165 0.052655954 0.0032371692 0.023599872 0.10185374 0.013439798 0.06304111 0.14963053 0.11123387 -0.010444216 0.022898069 0.02923388 0.21662913 0.023722304 0.031488374 0.042265993 0.002548727 0.17126347 0.061049785 0.053200062 0.112785876 0.035861313 0.029738339 0.021983596 0.093074635 0.046835255 0.25650063 -0.0016581698 0.010991883 0.016692638 0.057699278 0.01647272 0.12695728 0.039064206 0.05040795 0.021117557 0.07125285 0.009305482 0.0065955007 0.045892138 0.02186021 0.054553453 0.019987961 -0.0027314862 -0.00026028513 0.1448156 0.174007 0.0057852203 0.011183575 0.13388243 0.17956954 0.0053167553 0.027437763 -0.017718377 0.074671015 0.23374559 0.19570746 0.08888211 0.116317764 0.011828261 0.06960406 0.0078118537 0.019031715 0.074755706 0.012210216 0.09200776 0.03484093 0.004164492 0.0013871037 0.027172122
32945 0.078357324 0.036352668 0.022051979 0.05595156 0.07911577 0.049195323 -0.0063904487 -0.0039188955 0.0012588974 0.010222169 -0.0016429583 -0.0043295184 0.0048040296 0.062864855 0.08660702 0.060145654 0.04443316 0.0064595174 -0.008083142 0.06539923 0.0072171306 0.055372644 0.00718501 -0.007378196 0.0368274 0.08547791 0.044813294 0.035437524 -0.004700046 0.03408089 0.031167023 0.07967865 0.066738404 -0.0068174996 -0.0026037146 0.06226304 -0.007525515 0.008485335 -0.0072759828 0.02958078 0.03517469 0.043548156 0.05699935 0.0020000848 0.029556883 0.058208346 0.07533359 0.019427234 0.013633569 0.020923838 0.07257466 0.037669666 -0.0024789623 -0.005186663 0.04892575 0.049853887 -0.005592515 0.0921343 -0.007992527 0.044296075 -0.00895803 -0.0019152438 0.05840494 -0.0051828977 0.060117427 0.073320255 0.021935198 -0.009988558 -0.0047705113 -0.0026121587 0.0970532 -0.0032477186 0.025882887 0.004395956 -0.0058261603 0.07609897 0.010989819 -0.00046025953 0.06764405 -0.0015749644 0.0044120974 -0.0006529429 0.054314896 0.054565683 0.10145951 0.03043325 -0.0054809074 0.03607393 0.045465466 -0.0062477873 0.026895614 0.0073674675 0.039461773 0.0027352371 0.047470205 -0.0066151335 -0.0078618135 0.05118627 -0.007408854 0.042057335 0.048813473 0.002557018 -0.007995241 0.07387179 0.08565993 -0.009476158 -0.006265949 0.061915666 0.076910384 -0.009507969 0.05262544 -0.010185652 0.016654607 0.09569157 0.088368446 0.017716013 0.064635806 0.037943635 0.031874616 -0.0068398006 -0.0057239337 0.05422589 0.03418488 0.05032778 0.054940782 0.0014255142 -0.006530289 0.00047866374
30693 0.22748597 0.116220154 0.062400825 0.079932526 0.18824382 0.1603142 0.06712467 0.002166195 0.114425585 0.034351267 0.047505517 0.011076759 -0.008770401 0.1589784 0.19208549 0.17886716 0.18978454 0.045976687 0.014916884 0.18556222 0.023162462 0.11456126 0.017795369 0.039290655 0.058034725 0.2276196 0.13906969 0.07641574 0.020117491 0.06360615 0.101181746 0.20450805 0.10433588 0.04758794 0.02260212 0.24181294 0.025090093 0.045707304 0.016589765 0.14854465 0.023246715 0.017526427 0.10787064 0.02143799 0.1232309 0.09985637 0.19371147 0.028478187 0.062640965 0.073338374 0.19957595 0.017949816 0.055043235 0.037384056 0.20448543 0.15360747 0.04972748 0.20868547 0.056094393 0.043898243 0.017908925 0.040593207 0.14108033 0.026461186 0.06240906 0.15956832 0.13837563 0.023404969 0.063014284 0.04317746 0.23134568 0.041011322 0.08624684 0.053543802 0.009774857 0.18689455 0.091390476 0.0951633 0.11674158 0.080132715 0.041795313 0.02087099 0.10744159 0.044874106 0.27084926 0.0019215769 0.028750265 0.04423824 0.09276056 0.039939158 0.17714845 0.052745115 0.075314745 0.031460516 0.10273882 0.021461703 0.022149019 0.06389323 0.057342835 0.07223637 0.017135026 0.020247448 0.010775923 0.17011167 0.18757784 0.046483945 0.03550142 0.14553748 0.19885065 0.035777755 0.018492451 -0.018729866 0.1309914 0.25091362 0.22619684 0.110195175 0.14097714 0.032252174 0.08516302 0.023857176 0.0349522 0.10030096 0.014000203 0.13375247 0.033744697 0.00038942776 0.013155144 0.028931454
31135 0.15246958 0.020516064 -0.0131939845 0.07612163 0.133194 0.08627298 -0.02171998 -0.017207712 -0.013941949 -0.02064132 -0.013655247 -0.032611765 -0.016906535 0.09334537 0.12182908 0.08069413 0.072538555 -0.021675562 -0.021763045 0.085833736 -0.008444553 0.088627264 -0.015655221 -0.02030574 0.0006754298 0.15133342 0.02834432 0.038098272 -0.023563411 0.02340785 0.11186212 0.14339207 0.08519305 -0.02513272 -0.012281209 0.13056475 -0.020405825 -0.020636467 -0.015063557 0.012600364 -0.019315261 0.030167125 0.09148665 -0.026081778 0.015308702 0.040543515 0.101862736 -0.0041518547 -0.017188968 0.05903957 0.14500372 -0.0050367843 -0.020719633 -0.01843977 0.09603749 0.06990607 -0.022844775 0.13316865 -0.022914339 -0.010678548 -0.015041155 -0.01613329 0.012249018 -0.016013352 0.046615835 0.1228668 0.0808204 -0.024688048 -0.02247255 -0.018085787 0.14992444 -0.0132217165 -0.006815146 -0.018741818 -0.009475927 0.1240516 -0.010487477 -0.016353238 0.09028038 -0.033048503 -0.014629606 -0.028874561 0.0653248 0.021374078 0.16478589 -0.01765945 -0.014306795 0.0010799194 0.0384158 -0.021058759 0.026492449 -0.022508277 0.0033849943 -0.015491148 0.054333363 -0.020319946 -0.0091416985 0.008576541 -0.031319346 0.027879324 0.01913586 -0.025366673 -0.017695516 0.10219826 0.13181706 -0.028523507 -0.024249176 0.11512421 0.13775294 -0.022312885 0.04047537 -0.015568272 -0.005800558 0.16967702 0.13313988 -0.0032737684 0.08448091 -0.011926177 0.076309055 -0.01822237 -0.016659413 0.06517355 0.00029444465 0.067002244 0.013498694 -0.022993265 -0.010819481 -0.026632378
34685 0.103522 0.030242015 -0.0007325334 0.046820994 0.09865172 0.08123237 -0.002315894 -0.015840992 0.011674962 -0.011052351 -0.0020434533 -0.017366232 -0.018044641 0.06930306 0.09705718 0.08414579 0.055895675 -0.0057519455 -0.010508054 0.07233462 0.00033575494 0.06633929 -0.009005398 -0.006985418 0.009208124 0.10439953 0.03344924 0.02965655 -0.01240633 0.007372429 0.04342995 0.09262409 0.0631727 -0.010369844 -0.0043144184 0.09317158 -0.0083647305 -0.008593407 -0.006406099 0.026274245 -0.013167722 0.010064534 0.052611906 -0.016255219 0.026514463 0.040459774 0.08458491 0.0013968417 -0.0051292325 0.011629111 0.095058024 -0.00946906 -0.005810129 -0.0042209257 0.085212 0.06854585 -0.00913913 0.10037474 -0.006285928 -0.0071352837 -0.0072797695 -0.003251829 0.033207905 -0.004934441 0.03351371 0.08239418 0.04306327 -0.014495239 -0.007898234 -0.0055600572 0.11290174 -0.0030045006 0.008273765 -0.0021073888 -0.0049589695 0.08871066 -0.00023380213 0.002951202 0.059311874 -0.007867998 0.00035308747 -0.015413505 0.064343624 0.018771183 0.12424342 -0.01983528 -0.004561633 -0.00020818139 0.028534267 -0.0084628435 0.051351786 -0.007938676 0.01954086 -0.006693665 0.041755673 -0.010001849 -0.0029452133 0.021014558 -0.014571629 0.030031493 -0.0068399934 -0.011667566 -0.009581788 0.08101694 0.090272084 -0.010785392 -0.009489699 0.07179835 0.10334348 -0.009299209 0.009898873 -0.012831963 0.011208286 0.12420876 0.10827331 0.012698792 0.0673093 -0.009580519 0.044783734 -0.007684381 -0.0045345165 0.03513516 -0.005133994 0.053086452 0.009161798 -0.016661618 -0.004877863 -0.016016543
35096 0.13568647 0.061918538 0.02804343 0.05800396 0.11738829 0.079001166 -0.0035729948 -0.007264587 0.018845268 0.0087035885 0.0046889535 -0.0078981025 -0.0010081832 0.09288271 0.13278463 0.096648335 0.10338663 0.0076804985 -0.0075042113 0.09753263 0.0054374384 0.080892526 0.004990883 -0.005399388 0.017649814 0.14223474 0.07958177 0.028548958 -0.0058227293 0.014523552 0.06259604 0.13090774 0.08237742 -0.0068607028 -0.003861332 0.13666376 -0.0066948733 0.010262926 -0.0052875904 0.06121173 0.003641839 0.016840514 0.08125305 -0.002774818 0.05918835 0.04599124 0.10308591 0.021674104 0.0187245 0.036907967 0.12866844 0.008327092 0.002596667 -0.00036848607 0.113323346 0.09442232 -0.00700879 0.13460626 -0.0051933937 0.032409675 -0.006430622 0.0030108984 0.055291202 -0.0019533029 0.048319772 0.11482422 0.06435871 -0.012963795 -0.004669461 -0.0011117122 0.14954042 2.91379e-05 0.012901194 0.010114687 -0.00394623 0.11667817 0.020895762 0.011097075 0.086341046 -0.0013574634 0.0066370424 -0.0051512304 0.06975142 0.035201244 0.16889611 -0.00015341552 -0.0043775025 0.009361045 0.028476413 -0.0072398516 0.068500735 0.009420718 0.032036953 0.005314132 0.038712516 -0.0073503056 -0.0019265676 0.029806832 -0.0094760535 0.03588515 0.021726236 -0.009135349 -0.0077945367 0.10337483 0.12368239 -0.0086596245 -0.007661625 0.094495036 0.1164262 -0.008380742 0.03115781 -0.013217497 0.032543655 0.15984622 0.13482907 0.040467564 0.079824895 0.009319254 0.04102507 -0.0074396925 -0.0006497737 0.045372237 0.0121879885 0.05845513 0.0248924 -0.0031535642 -0.006574323 -0.003982684
31454 0.3191911 0.12615728 0.050799903 0.109207645 0.26806253 0.20596223 0.052388214 -0.0062107495 0.108421266 0.013850575 0.046972305 -0.0038626743 -0.022809314 0.20048456 0.2555271 0.21975839 0.26716983 0.028622622 0.0010836611 0.224009 0.012211441 0.16613473 0.0024083315 0.017916624 0.032515485 0.3204624 0.15638943 0.08222973 0.004989194 0.06121922 0.16704655 0.29173714 0.14113279 0.027929448 0.016787449 0.35141945 0.010512318 0.031226648 0.0093207 0.17156765 0.0012650382 0.0064837295 0.1508723 0.0025833754 0.14015709 0.101409145 0.24401268 0.016988846 0.052784108 0.100713916 0.2884334 0.00855577 0.04668151 0.027073536 0.2802353 0.20081541 0.03125643 0.28061265 0.03916125 0.023082314 0.006756556 0.027667416 0.11928932 0.0148361195 0.06728616 0.22046882 0.2098387 0.006408018 0.04305885 0.031339444 0.31392872 0.033332035 0.062630996 0.03999935 0.0029020256 0.2581928 0.08530759 0.08861629 0.15480776 0.059932645 0.031224059 0.001684628 0.12266769 0.0326296 0.36343986 -0.0143997595 0.022678168 0.018201124 0.09849869 0.023967104 0.19530487 0.036088306 0.05554498 0.016925532 0.11956327 0.008388755 0.012983757 0.042412475 0.03425437 0.07079638 -0.00010587738 0.0008517896 -0.0026719745 0.20952055 0.25974262 0.02307793 0.016202511 0.20405778 0.280896 0.01715089 0.0027341768 -0.02840119 0.12559822 0.35277396 0.2977732 0.12104432 0.1787123 0.016103318 0.13681795 0.011660127 0.027771423 0.112723425 0.011255067 0.15766832 0.025450492 -0.014605369 0.006325349 0.015854942
30257 0.14587314 0.06810584 0.033206325 0.0664763 0.1251342 0.07631149 -0.0008275532 -0.006211023 0.025520204 0.00976168 0.0049987417 -0.006556442 -0.0016263715 0.10364628 0.14242244 0.10224259 0.11111734 0.009318793 -0.008659916 0.11000122 0.004533691 0.08410351 0.004630171 -0.0050517023 0.026047809 0.15370625 0.088382564 0.031696923 -0.004137672 0.025013918 0.07006691 0.14265476 0.09107102 -0.005846915 -0.006841321 0.14426044 -0.00758411 0.0124966465 -0.007604796 0.06808031 0.018211426 0.024836129 0.087109 0.0017337294 0.06259696 0.056821313 0.11482592 0.022113357 0.022340216 0.044423833 0.13866642 0.021689055 0.0019834319 -0.0012516313 0.11233033 0.09782845 -0.0067808903 0.14407934 -0.005277831 0.03977639 -0.007627092 0.004335933 0.07309185 -0.0035542392 0.05732958 0.120970376 0.067154765 -0.009820755 -0.0009160266 -0.0019260929 0.15998353 -0.00031846247 0.023368627 0.010575008 -0.007596568 0.12591118 0.026440302 0.013454521 0.09410778 0.0053076893 0.0087053925 -0.0022334028 0.07126181 0.043421116 0.18066323 0.0113156615 -0.005193525 0.02555473 0.039685655 -0.0057970067 0.07787075 0.011166998 0.04206091 0.0039758226 0.047210194 -0.0095375925 -0.006723296 0.041013207 -0.0065887296 0.03828373 0.034628913 -0.0030766646 -0.009042442 0.114574976 0.13443719 -0.006805389 -0.0068416856 0.10246816 0.12302687 -0.008348879 0.041638654 -0.017485907 0.0423439 0.16968253 0.14377452 0.043827172 0.08996966 0.02307637 0.040387973 -0.008806035 -0.0012400678 0.05971754 0.017598422 0.06750473 0.037445378 -0.000928195 -0.009527976 -0.00045239006
31267 0.101749614 0.05790581 0.042230606 0.040189806 0.0820296 0.052493464 -0.0032329904 0.0029415877 0.015379982 0.022324432 0.012614751 0.005829416 0.0060313055 0.06177625 0.09732211 0.06858114 0.081402525 0.01887152 -0.0013299152 0.07132671 0.008648076 0.050764363 0.012052097 -0.0031860366 0.010364043 0.105022214 0.07305057 0.017780643 0.004930329 0.005994235 0.03865791 0.09728566 0.05702616 0.0019355316 0.004381284 0.10232201 0.0021722931 0.022770753 0.0013650809 0.05326975 0.0031104605 0.015896488 0.057196748 0.011511909 0.053191815 0.03589489 0.07195881 0.022006972 0.028847594 0.033059336 0.08801434 0.0081197 0.011941271 0.004614895 0.077127606 0.06679707 0.004463624 0.10513548 -0.0013749913 0.046133313 -0.001665697 0.008779382 0.056201074 0.0029385458 0.037555132 0.07872364 0.043998975 -0.010374393 0.0039003557 0.010456829 0.109515764 0.0072555747 0.0031038257 0.019334313 -0.00087852177 0.08647659 0.028209193 0.014169248 0.061330553 0.011195589 0.014162319 0.013431251 0.049292214 0.035045147 0.13294041 -0.0026767503 0.001565258 0.002698902 0.020419858 0.0027365186 0.051856976 0.020943902 0.032589845 0.011824839 0.028143775 0.0009923169 3.5998924e-05 0.029791372 0.0042713466 0.027422918 0.021661332 -0.006263446 -0.001322278 0.069512665 0.08979769 -0.005630951 0.0011576703 0.067399815 0.08289078 -0.00480661 0.029355178 -0.008698926 0.030160293 0.11455078 0.093958564 0.039527897 0.05408682 0.0024633107 0.023291651 0.0006039248 0.004866184 0.032806385 0.011400968 0.039748583 0.022462351 0.006549852 -0.0014538622 0.014839987
31995 0.102608144 0.033583794 0.003976196 0.05233565 0.10070749 0.08329235 -0.0025062573 -0.015408405 0.01076595 -0.008132922 -0.0037409784 -0.016817896 -0.012521974 0.073667005 0.1029695 0.08775135 0.053808406 -0.004554158 -0.010431926 0.07708187 0.0019840384 0.0711422 -0.0050102044 -0.0059434026 0.018251237 0.10549585 0.039427117 0.03497036 -0.012382119 0.013112592 0.03760327 0.09281499 0.071083575 -0.010796746 -0.004996084 0.086457916 -0.0098068 -0.005859918 -0.00811267 0.028829148 -0.0023934469 0.017288912 0.057944845 -0.0137733 0.029252704 0.049922016 0.09007897 0.007878344 -0.0023721594 0.008626563 0.09480753 -0.00080986624 -0.007584989 -0.0054480135 0.08332936 0.07091489 -0.010083576 0.10542655 -0.0064425287 0.006169054 -0.008832974 -0.004084381 0.04389673 -0.0059139673 0.043898523 0.08678483 0.036180023 -0.013551021 -0.0086008925 -0.0071052024 0.11830765 -0.004161003 0.014630301 -0.0017653282 -0.005791269 0.0912943 -8.650491e-05 0.0016683089 0.067519024 -0.008656531 0.00019981748 -0.0152616715 0.069812745 0.029262988 0.12747432 -0.011931454 -0.005906464 0.007449792 0.035173927 -0.009368443 0.050502002 -0.0060752155 0.027590962 -0.004542862 0.047260143 -0.0107655395 -0.004434121 0.031762946 -0.015116669 0.036950808 0.0034674467 -0.0076778224 -0.0104186125 0.08831159 0.09425359 -0.009996371 -0.009872617 0.07314983 0.10394103 -0.009211794 0.01986164 -0.014155405 0.013220164 0.12594861 0.11252783 0.01362613 0.07339029 0.0013581604 0.044433758 -0.0089256605 -0.0067603965 0.041288067 0.0035977366 0.057019617 0.020003038 -0.013821611 -0.0060758 -0.015825251
30990 0.07375527 0.022185186 -0.0016240964 0.0413711 0.075354345 0.06590557 -0.002319637 -0.011523652 0.0034327833 -0.008008145 -0.004371592 -0.015533503 -0.011766675 0.052957304 0.07567303 0.068106964 0.031350765 -0.005266058 -0.0076681455 0.05508548 0.00049983145 0.05832482 -0.004670521 -0.004176417 0.015352312 0.07444138 0.024879284 0.027309384 -0.010149424 0.0050276592 0.024168495 0.06486016 0.05639334 -0.008507907 -0.0039288406 0.05726682 -0.007346152 -0.0062599494 -0.0055564214 0.013380446 -0.006686365 0.012059822 0.042872265 -0.012387626 0.015849696 0.037733473 0.06684643 0.004290148 -0.005550942 -0.00015168848 0.06771775 -0.008815358 -0.007005979 -0.0035445436 0.060970124 0.052493792 -0.00957584 0.07766151 -0.005707061 -0.00063000974 -0.0061513237 -0.0029807829 0.029637923 -0.0036353332 0.033106394 0.06517087 0.020087123 -0.009746059 -0.0070174057 -0.006160857 0.08719547 -0.0040057367 0.00926518 -0.0030656783 -0.003296391 0.06663432 -0.0048418334 0.00023330344 0.05068311 -0.010732953 -0.00092776114 -0.013199394 0.055397984 0.022229593 0.091573566 -0.017118149 -0.0041919677 0.0034354453 0.024742005 -0.0076501276 0.03681395 -0.008011265 0.019357806 -0.0039301324 0.035362758 -0.0072147665 -0.0019306215 0.022597378 -0.0141004855 0.030556908 -0.007024368 -0.0056433184 -0.006827033 0.068066634 0.067163035 -0.0075901155 -0.0077569233 0.053634483 0.07897777 -0.0068185474 0.013392647 -0.0086062215 0.0038738984 0.093275994 0.083109885 0.0039863684 0.054122236 -0.0047822837 0.035717633 -0.0063820668 -0.0048550866 0.029076995 -0.0044872356 0.043325897 0.012932199 -0.011300397 -0.003978992 -0.0145283155
31650 0.47892994 0.40032092 0.36203817 0.042131487 0.18507348 0.030748293 0.13425069 0.11146204 0.28100452 0.33998927 0.2519224 0.31040585 0.059328903 0.24696738 0.2724659 0.15020779 0.8458907 0.30332398 0.10936619 0.34135798 0.034268677 0.027335705 0.14452836 0.014686312 -0.03425269 0.41073468 0.46216732 -0.059193414 0.19042929 -0.03741519 0.33501166 0.4444085 0.0065303124 0.15782398 0.054281723 0.7240432 0.07349333 0.31159937 0.057831787 0.69302064 -0.040954493 -0.021951912 0.18576899 0.1933654 0.4183651 -0.042317744 0.06202089 0.07138717 0.5027898 0.65917236 0.452096 0.028283453 0.34593225 0.20531826 0.30523393 0.24713178 0.1795466 0.37213844 0.13484685 0.37066033 0.048153922 0.15182619 0.30282035 0.079775736 -0.02357513 0.20099364 0.5418893 0.02073639 0.25210696 0.16506526 0.2854026 0.13800798 -0.019452997 0.2630873 0.008207772 0.34783912 0.50460356 0.33454156 0.10249279 0.46465674 0.25058675 0.28678647 -0.05282523 0.038244337 0.4869433 -0.00046895802 0.12727712 -0.022878725 -0.037012123 0.13164853 0.39054686 0.33556256 0.0908209 0.13684125 -0.04014177 0.085698426 0.015277345 -0.052179445 0.2876634 -0.03693149 0.043851558 0.0015081611 0.0557077 0.065970026 0.32425404 0.064750694 0.1206434 0.24139267 0.18781523 0.058573533 0.00330352 -0.026762353 0.48617753 0.35015124 0.22547573 0.5871231 0.028534522 -0.021614727 -0.011169558 0.07237193 0.2781166 0.024032868 0.043762825 0.07238588 0.016195683 0.18543823 0.017843904 0.3308285
31504 0.057899777 0.017508697 -2.380577e-05 0.023974983 0.049363807 0.043797407 0.012094587 -0.007455936 0.020599693 -0.0025314372 1.5976082e-05 -0.0076272115 -0.012362088 0.042182807 0.04795684 0.042954855 0.023561858 0.0006320808 -0.005346402 0.047549836 0.0022531769 0.02023452 -0.0045882873 0.005524058 0.014655012 0.055983007 0.0142976325 0.021030074 -0.005951276 0.0131762335 0.029400945 0.051404454 0.022422401 0.005634934 0.001117879 0.043858383 -0.0035581363 -0.0031337435 -0.0022599553 0.019484455 -0.00063981884 0.01248967 0.022716915 -0.0032082382 0.011729093 0.032299876 0.051009107 -0.0014079878 0.0010135017 0.020092176 0.047079846 -0.003812031 -0.00045772246 -0.0028524254 0.03093766 0.026712876 0.005597192 0.05403433 0.0068367952 0.0010391644 -0.0042137075 -0.0007121076 0.04027123 -0.0025543282 0.018240644 0.039456762 0.01648957 0.0022998953 0.011562495 0.00046158466 0.055814516 8.216307e-05 0.018133914 0.0016239905 -0.004320693 0.045921106 0.015011949 0.014756813 0.026296323 0.018100517 0.009753959 -0.0019101951 0.030898664 0.012927127 0.0655475 -0.015145113 9.6258824e-05 0.010926512 0.030337306 0.0032203773 0.03411878 -0.00079354475 0.025727626 -0.0032139346 0.036861286 -0.004269996 -0.005139234 0.024385508 0.007754174 0.017029978 0.0034077158 0.0017713039 -0.0051285373 0.044430614 0.04856431 0.0021476676 0.0021075967 0.04150437 0.051971354 -0.00033322844 0.014981117 -0.010247028 0.02373468 0.060640592 0.057570077 0.009385881 0.038790174 -0.0026445915 0.021937514 -0.0015415724 -0.00023532927 0.037414797 -0.0014137857 0.04127739 0.0063389046 -0.008489188 -0.0025331855 -0.0018963276
31834 0.0781908 0.054747336 0.04191559 0.025964145 0.0633695 0.05691756 0.008358675 0.004653388 0.028399158 0.027095798 0.023461496 0.01265224 -0.00094180886 0.03781474 0.07023591 0.061612584 0.0593924 0.029312333 0.0071147177 0.054525927 0.016204389 0.031177018 0.013153121 0.004448147 0.007944135 0.076205865 0.058668587 0.017650612 0.012528796 -0.00024706827 0.012175374 0.06626873 0.03681597 0.015043628 0.016766066 0.07695263 0.014875544 0.02810114 0.01090122 0.049555834 -0.0018420304 0.011098033 0.030602759 0.015722204 0.05097276 0.036675114 0.056751758 0.018087829 0.029847223 0.01324781 0.05636534 0.004576888 0.026143167 0.015752992 0.06703001 0.054565422 0.022951292 0.083669305 0.012021185 0.037485983 0.007238674 0.018852139 0.059047196 0.013327384 0.02643112 0.049123563 0.030232145 -0.0074867522 0.016984956 0.02540594 0.08293919 0.019948617 0.0025302456 0.030961104 0.00604956 0.065128274 0.03400287 0.029146913 0.03650985 0.024380306 0.025298301 0.02417145 0.0482046 0.028353203 0.10580431 -0.010094823 0.013682516 -0.00748799 0.020095464 0.017324014 0.057075415 0.028810097 0.035486728 0.016949624 0.028261691 0.013615359 0.007378324 0.0324917 0.02022797 0.028049622 0.008843813 -0.0034066273 0.0064623617 0.048864454 0.06354258 0.0045984974 0.013340378 0.045873858 0.06913063 0.004571343 0.0135833435 -0.0040549235 0.032273903 0.085281804 0.07204313 0.041591544 0.041340504 -0.006522916 0.019616136 0.013311022 0.01492391 0.022010034 0.0077575683 0.03339611 0.016638799 0.0048998003 0.007893574 0.02450435
34574 0.063067 0.015826289 -0.0019131318 0.048821818 0.07126074 0.0565 -0.0037859643 -0.011040581 -0.0013102768 -0.00843145 -0.0070307376 -0.015132575 -0.010094306 0.0517402 0.06949955 0.06123483 0.018097347 -0.0062512676 -0.010378812 0.052945405 -0.0002273183 0.05621216 -0.0059305136 -0.0058692726 0.029903168 0.06523266 0.017191 0.03347813 -0.011639208 0.020222569 0.019780107 0.05705173 0.059252527 -0.009377202 -0.0063716527 0.038217295 -0.010577796 -0.0075421846 -0.00970555 0.0055835266 0.014191131 0.028805941 0.042025425 -0.011174595 0.008726264 0.048575103 0.06705719 0.004196765 -0.006620804 -0.002542567 0.05794798 0.011677301 -0.009409499 -0.007403084 0.042275827 0.041945647 -0.010454563 0.07296946 -0.008116916 0.008458107 -0.010032225 -0.0070916987 0.038551945 -0.0078076483 0.045226343 0.060234554 0.009766169 -0.007933091 -0.008130874 -0.008577621 0.080268025 -0.007783759 0.020198584 -0.0061592823 -0.0066847187 0.061659325 -0.007260387 -0.003731464 0.053043213 -0.009762076 -0.0024215803 -0.012644874 0.053811517 0.036585867 0.0788216 0.0047621992 -0.007324976 0.023552174 0.03769362 -0.009497312 0.02521703 -0.009686383 0.026113162 -0.007021412 0.043984905 -0.00949009 -0.007135748 0.036189888 -0.013959144 0.036489718 0.013134223 0.0007171853 -0.009854494 0.06703496 0.064564906 -0.009268883 -0.009284917 0.050285738 0.074199915 -0.009141771 0.02907041 -0.009490424 0.0007970479 0.08246596 0.07708688 -0.0012806242 0.05726058 0.017522829 0.036398713 -0.009499922 -0.007986938 0.04055385 0.011184178 0.047275018 0.033504725 -0.010073689 -0.006914344 -0.013646272
32337 0.18032585 0.107017316 0.08194767 0.07082525 0.14547242 0.11488133 0.026956744 0.012019871 0.065702565 0.048606984 0.045582432 0.02297099 0.00532708 0.11121996 0.16117275 0.13373016 0.16007537 0.05023716 0.012381909 0.1350297 0.023718148 0.09217705 0.024105005 0.015067278 0.037301905 0.18268701 0.13247098 0.04889517 0.025558049 0.03735622 0.06953132 0.16499102 0.09485174 0.03292899 0.024378888 0.19276775 0.0249972 0.054696303 0.017253045 0.11932206 0.021834437 0.03045276 0.09308914 0.0303721 0.112103686 0.07584414 0.13733982 0.035889775 0.064642295 0.0587498 0.15294324 0.03139733 0.051525995 0.030025305 0.15676916 0.12336586 0.039912857 0.18035273 0.029667512 0.06989408 0.013019707 0.036924567 0.11200941 0.027517121 0.06499914 0.12999658 0.10140874 -0.0041845846 0.03335121 0.04589715 0.18863332 0.038280897 0.038352467 0.05610487 0.009452191 0.15081325 0.07323052 0.061127868 0.100404836 0.047577206 0.037139352 0.03847198 0.091539524 0.059486117 0.22895133 0.016749188 0.023725528 0.024224173 0.05691755 0.032114986 0.122542135 0.05562568 0.061312266 0.033764016 0.066229135 0.023853559 0.015837204 0.05649842 0.0385487 0.05875217 0.039447747 0.0030898775 0.011399747 0.12540267 0.15288484 0.018995522 0.02637914 0.11587744 0.1549419 0.016446372 0.03723748 -0.008311616 0.08267407 0.20072064 0.17013326 0.095956914 0.103100814 0.024843067 0.05711021 0.021961233 0.028933631 0.07040575 0.025995951 0.08657224 0.04953797 0.013676388 0.013216828 0.042543005
31453 0.150747 0.04353611 -0.014220828 0.019914348 0.12485916 0.31610692 0.55311525 -0.020960119 0.649569 -0.066668995 -0.021940202 -0.07033352 -0.049275182 0.45541847 0.15664409 0.4260839 0.034706835 -0.022186456 -0.027508175 0.51533747 -0.013036553 0.06135951 -0.037147492 0.41298997 0.56532925 0.13298908 0.053394094 0.34621656 -0.02661421 0.5583465 0.036715925 0.10668006 0.015107604 0.3314105 -0.018773342 0.104614146 -0.04820577 -0.013538303 -0.04691012 0.19081672 0.4826723 -0.011621373 0.022159893 0.11233709 0.035858985 0.43231598 0.6520578 -0.0039133905 -0.027416045 0.016173461 0.12075074 0.029750498 0.006535831 -0.018236453 0.118776865 0.09967662 0.19258502 0.13728473 0.39406264 0.010746902 -0.010004153 0.010880869 0.6356368 -0.026311597 0.04822467 0.09831741 0.04848699 0.48560277 0.45169908 0.0006195269 0.1796631 -0.015588528 0.78881925 -0.018689126 -0.02767009 0.13079683 0.27779183 0.47661287 0.06331194 0.58504015 0.07899194 -0.027226405 0.1245699 0.009840431 0.16727625 0.0034349975 -0.002276105 0.6439547 0.62568736 0.13575636 0.5352957 -0.0074010063 0.35542712 -0.00915871 0.5427496 -0.013686253 -0.011240963 0.3415811 0.3797153 0.21194176 0.003234012 0.43080592 -0.05627858 0.52489394 0.13632315 0.39612994 0.18225929 0.09137337 0.14460197 0.31162256 -0.00795867 -0.08502713 0.61818856 0.15457523 0.45157802 0.035133794 0.38508818 0.5213701 0.043800097 -0.004170281 0.0018691592 0.53436834 0.016779415 0.54201627 0.015932124 -0.035540525 -0.03227046 -0.0274469
30615 0.06782553 0.074556015 0.055934392 0.0048666727 0.04376095 0.07495345 0.053343114 0.011812514 0.07849601 0.04816249 0.048449118 0.027303793 -0.0031616595 0.032123823 0.051038757 0.068701416 0.07164653 0.053702585 0.02533733 0.062340103 0.029926307 0.009433944 0.026227226 0.03655923 0.020700932 0.060099144 0.07550605 0.029801242 0.031908397 0.019329604 0.0011408255 0.05005605 0.010106908 0.05319549 0.04178928 0.08137142 0.042679615 0.05277548 0.032145478 0.085155554 0.006292852 -0.0039765066 0.008057374 0.033322677 0.07403569 0.049434025 0.0603867 0.024112679 0.054078415 0.015542292 0.037892614 0.0016885628 0.061120763 0.041506603 0.07644346 0.053306166 0.06284844 0.07272434 0.052628852 0.035774637 0.025191383 0.045071088 0.08927222 0.038472466 0.011799789 0.030528672 0.040906355 0.014534536 0.06083569 0.060564235 0.064798996 0.05048112 0.033089478 0.06021854 0.018739516 0.050769463 0.07341702 0.08002628 0.013227753 0.072266296 0.04708165 0.046646923 0.047598932 0.015840353 0.09430039 -0.016127452 0.036691766 0.0031220345 0.037334595 0.05299632 0.09644584 0.058040097 0.052982453 0.037159663 0.041861452 0.039655056 0.025523227 0.040864706 0.06622009 0.03661798 -0.0036993518 0.013456238 0.023499109 0.04575121 0.04282298 0.04318304 0.045067865 0.034090526 0.057233404 0.034980986 -0.007815368 0.0013547564 0.079451166 0.06886581 0.06595655 0.071750164 0.03855748 0.0019269891 0.013314184 0.038012296 0.037726652 0.029942902 0.002639365 0.048393387 0.0072929226 0.010176683 0.026076995 0.047625955
34321 0.13899244 0.05865357 0.013182192 0.042816747 0.11460251 0.08368745 0.0052583106 -0.01498727 0.035603363 -0.0073145544 0.006977164 -0.012596275 -0.014882986 0.093671784 0.1311274 0.10313461 0.1216799 -0.00038838753 -0.0055948296 0.09701072 0.0012346354 0.075420946 -0.0053475983 -0.0038344362 -0.00477504 0.14420721 0.07520106 0.01289153 -0.008165134 -0.0092456695 0.06952316 0.13354014 0.072687946 -0.0087270485 -0.0067413934 0.15747143 -0.0039897286 -0.0012142266 -0.004259938 0.069189265 -0.020565642 -0.012654986 0.071290106 -0.013788231 0.06110889 0.02368834 0.09767765 0.011202826 0.0081888 0.03676157 0.1379496 -0.016121987 0.00046537552 0.0032556776 0.12939385 0.10476644 -0.009591905 0.12585783 0.00014036403 -0.0014710196 -0.0032257119 0.0051684794 0.038391314 -0.00036575118 0.020193797 0.11088468 0.08483839 -0.010511218 -0.0050848164 -0.004320279 0.14401068 0.001041417 0.002926299 0.0060808854 -0.0037416602 0.11455644 0.017958704 0.015829079 0.070416 0.0021415285 0.0056737126 -0.015862253 0.06829209 0.0064140568 0.17006926 -0.025963223 -0.0015958142 -0.010541059 0.0053773243 -0.006959975 0.0925223 0.0015110997 0.019591816 -0.0014494411 0.020533128 -0.010868075 0.0014495727 0.005977556 -0.010080711 0.01649431 -0.008560216 -0.015736325 -0.0070751705 0.096560255 0.11802613 -0.0040503712 -0.008165715 0.0922415 0.11514912 -0.0052164034 -0.0026088853 -0.015306105 0.038309004 0.16497496 0.13522169 0.04097127 0.072517216 -0.015864626 0.03344546 -0.007093365 0.0036951513 0.022295859 -0.011336467 0.05027371 -0.008824587 -0.01287372 -0.00496034 -0.014975925
30185 0.010377846 0.0095079085 0.0075116907 0.0005895999 0.0079511395 0.00960159 0.0017044973 0.00054069347 0.0063342205 0.004790336 0.005072671 0.0037395516 -0.0010640338 0.0017116192 0.007689309 0.008031043 0.006836291 0.006465773 0.0021804816 0.0063108634 0.003705013 -0.00069861097 0.0024542948 0.00072371383 -0.003650948 0.009512268 0.007910308 0.00057515973 0.0032350502 -0.003308229 -0.0022630317 0.0074398764 0.0016222757 0.0033250884 0.0046287132 0.00929942 0.0039155413 0.0052167554 0.0032085155 0.007908557 -0.003736263 6.6846034e-05 -0.0004882985 0.003363856 0.008116759 0.005837823 0.006315956 0.002017821 0.005183078 0.0010268041 0.0044402666 -0.0016869652 0.005594672 0.0037439927 0.008093568 0.006615814 0.006026905 0.011173807 0.002904445 0.0051435092 0.0022574367 0.0044583264 0.010714644 0.0031396449 0.0018999797 0.0024075096 0.0024936 -0.0023254592 0.0036829493 0.0061506247 0.010116021 0.0051478953 -0.0033206698 0.006867326 0.0011296612 0.0077870567 0.0060206354 0.0053842086 0.0004398356 0.0066637537 0.0065349103 0.0065197456 0.006765927 0.0022009371 0.015083853 -0.005662878 0.0038997312 -0.006871182 0.0024566716 0.004503428 0.010129684 0.005922224 0.0067409268 0.0032205016 0.004725503 0.003040081 0.0010286993 0.006011527 0.00550301 0.0020945119 -0.0013615338 -0.0018589463 0.0020086907 0.0031042309 0.0066159144 0.0005334763 0.0035329792 0.0044666 0.009442556 0.00093884335 -0.0013987339 -0.0009881415 0.0052956454 0.010325723 0.008866993 0.007041531 0.0043996605 -0.0064575053 0.001738086 0.0036868292 0.003667036 0.000826037 -0.00047609038 0.003520398 -0.00079160644 0.00020065876 0.0023111538 0.0060076145
34492 0.22770388 0.09939096 0.05031455 0.087640144 0.19519222 0.15774661 0.027751984 -0.004885944 0.07496764 0.015931252 0.0342324 -0.0006240398 -0.013915748 0.14650497 0.20010953 0.17516902 0.1806565 0.025423307 0.0017681652 0.16519059 0.013578588 0.12842822 0.005628029 0.011961482 0.028448744 0.22916466 0.123415 0.0589734 0.009673814 0.035690643 0.095291495 0.20487133 0.119584404 0.019770062 0.013079904 0.23824996 0.011464869 0.02811405 0.008121215 0.11642895 0.0015825608 0.0142928045 0.11157398 0.00605979 0.10504806 0.083618574 0.17965318 0.022023296 0.039030775 0.05466906 0.20263629 0.00970691 0.03250379 0.021207348 0.20255795 0.15425001 0.020527337 0.21298575 0.023868531 0.029303739 0.0062708934 0.025343927 0.10259903 0.014446049 0.06299825 0.16557448 0.12731463 -0.0038286052 0.022923645 0.026429497 0.2361179 0.025529213 0.040437136 0.0351357 0.0039985823 0.1881989 0.05374074 0.05673755 0.12266069 0.034670334 0.02446982 0.008267796 0.11330498 0.043553974 0.27340278 -0.0086082155 0.015655696 0.013726573 0.06467514 0.017069075 0.14762634 0.027915008 0.05264666 0.017653493 0.08289995 0.007453704 0.011863799 0.04533957 0.019394692 0.060574885 0.007334493 -0.00087102025 -0.00031520266 0.16347547 0.18847232 0.012083848 0.012577222 0.14758539 0.20477009 0.010839571 0.014553812 -0.017683543 0.07956637 0.26007843 0.22156192 0.084156305 0.13446914 0.010374823 0.08597619 0.009820542 0.019523596 0.07724107 0.008751097 0.110350244 0.031196106 -0.006464582 0.0063390546 0.012763431
30423 0.16634156 0.13607141 0.08894492 0.040156156 0.1188466 0.15519755 0.102086365 0.018227043 0.14753391 0.07488954 0.08004084 0.038503144 0.0005674226 0.10540421 0.1371253 0.15565108 0.16412778 0.08451319 0.04828032 0.14857768 0.049334425 0.06657986 0.04528107 0.069129884 0.0547266 0.15633462 0.15142795 0.06779527 0.051398795 0.03782186 0.04228584 0.13723996 0.059874773 0.09045025 0.06101751 0.1917749 0.067394204 0.083328664 0.04694977 0.16668399 0.020120919 -0.0009388057 0.060166907 0.05068788 0.14726517 0.093740955 0.14697453 0.049347516 0.09300777 0.054670732 0.12593584 0.005122013 0.09595904 0.073656455 0.18445979 0.13392702 0.09746885 0.15911727 0.096934326 0.06347979 0.04654912 0.07840313 0.15719704 0.0645049 0.03293767 0.10220535 0.11054825 0.036480516 0.10557083 0.08901249 0.16228163 0.07981892 0.07889909 0.094737396 0.036982086 0.13141738 0.13004614 0.14204587 0.06913772 0.11404074 0.073994264 0.05716284 0.102905005 0.03580273 0.21475706 -0.021278774 0.06271965 0.018606186 0.07035077 0.08468446 0.19277404 0.09211225 0.09309382 0.06678171 0.07799426 0.063659705 0.053499635 0.06855907 0.10335803 0.077907436 0.00462568 0.03293657 0.04014676 0.12441279 0.120903194 0.08259078 0.0747752 0.09513354 0.13695697 0.06989197 -0.00013683204 -0.0035103916 0.15837339 0.17522815 0.16140951 0.13474035 0.09901721 0.017785951 0.04384971 0.06475471 0.065472655 0.06674148 0.008463683 0.10793772 0.019756561 0.017011015 0.04235165 0.06383403
30208 0.03434362 0.0031573144 -0.0065954304 0.028083542 0.04308925 0.0420352 -0.00291091 -0.00901998 -0.0045490577 -0.009043206 -0.0060952506 -0.011737189 -0.0093137575 0.02604092 0.036774248 0.038174108 -0.002478349 -0.00685628 -0.0068001337 0.027256723 -0.00082553783 0.034177102 -0.0052927174 -0.0043037846 0.013982844 0.03350334 0.00065852545 0.023178529 -0.008395383 0.0077620433 0.0054212552 0.02718189 0.033661272 -0.007182202 -0.0026892985 0.013476388 -0.0066009704 -0.008153335 -0.005372984 -0.005790056 -0.0016600922 0.014730479 0.019940717 -0.009775361 -0.0027807578 0.030634034 0.039149597 -0.001416461 -0.009214465 -0.009737189 0.028464144 -0.004769784 -0.008442283 -0.005427268 0.022226328 0.021108132 -0.0071242116 0.040392794 -0.005894351 -0.003793118 -0.0060572494 -0.0056692506 0.018362792 -0.004729407 0.025075087 0.030620271 -0.0013042141 -0.0074602193 -0.006768194 -0.005615619 0.04444097 -0.004617915 0.008345958 -0.0061648907 -0.003409178 0.033458896 -0.011101268 -0.0052634664 0.027784761 -0.009396105 -0.0029226476 -0.0100005455 0.03498018 0.017908784 0.04283112 -0.010688853 -0.0039456966 0.0060440386 0.02410155 -0.0059583117 0.01086361 -0.009505338 0.012872821 -0.0057717506 0.030871818 -0.0060310005 -0.0037333034 0.020311631 -0.011124691 0.02287382 -0.005275378 -0.0020323603 -0.0061063305 0.038020868 0.033223983 -0.007169943 -0.006005958 0.026714664 0.04693902 -0.00596222 0.010810694 -0.006152943 -0.006357414 0.045746323 0.044695202 -0.008386648 0.034120392 -0.0014935392 0.026707862 -0.0049967603 -0.006519165 0.022423852 -0.0016764791 0.029187264 0.013357965 -0.009102893 -0.0028359934 -0.010909793
31714 0.18062355 0.07098665 0.033523344 0.060463913 0.1516562 0.09944553 -0.0035850173 -0.0060332804 0.024748532 0.0072577675 0.013168899 -0.0043752464 -0.005434597 0.10492738 0.1543826 0.11352285 0.14782296 0.009922126 -0.007765291 0.11355503 0.0019984483 0.09146363 0.0023626701 -0.012768026 -0.005728419 0.1855576 0.090524904 0.02688976 -0.0045298627 0.004792804 0.087237716 0.17024016 0.08596488 -0.008517973 -0.0016542736 0.19511925 -0.0071859392 0.013398389 -0.0040868763 0.082926795 -0.019296069 -0.0016710156 0.09032071 -0.0019628822 0.07257918 0.03912036 0.12028717 0.014459521 0.025279056 0.053249523 0.16547146 -0.0041394825 0.008208132 0.002641241 0.14746593 0.11347504 -0.0046069217 0.16519846 -0.0055207433 0.029266654 -0.007891553 0.0037577944 0.050111875 -0.004470837 0.038862247 0.13147229 0.102383435 -0.017346865 -0.0018291011 0.0013111512 0.18285856 0.0029737286 -0.0042152475 0.013488467 -0.005542463 0.1468262 0.030782774 0.017301265 0.092293166 0.0050520534 0.012623005 -0.0029864889 0.06859117 0.020695752 0.2138144 -0.022523236 -0.001315724 -0.014269859 0.025508763 -0.005814567 0.08651706 0.01281688 0.021767788 0.0052713887 0.042978927 -0.009336338 -0.0038221034 0.016644832 -0.0070330845 0.027497003 0.0016033128 -0.019766277 -0.0098989215 0.10716909 0.14982177 -0.014992662 -0.009651678 0.116518065 0.15301985 -0.012970143 0.008909183 -0.019488927 0.040902093 0.20280288 0.1598321 0.054233935 0.08955319 -0.015222403 0.06290496 -0.007454138 0.0043735225 0.042363297 0.0021327415 0.064030394 0.0042622597 -0.0062012943 -0.0058445 0.0054705283
31123 0.21638766 0.13295622 0.079756826 0.04496493 0.14618659 0.12619488 0.11338004 0.012347356 0.16729063 0.05786682 0.06580066 0.039250467 -0.0018513027 0.15677017 0.16511515 0.16034596 0.22642101 0.068738446 0.029198622 0.19071901 0.0247991 0.06850468 0.029120302 0.06432797 0.059917018 0.20580253 0.15697588 0.054225594 0.032497622 0.053318787 0.10539067 0.19518648 0.05345285 0.0789629 0.02598684 0.2564358 0.034682576 0.065465264 0.02519974 0.19750535 0.021210713 -0.011183811 0.08420604 0.043338377 0.14338076 0.0790466 0.17321524 0.03228478 0.09774512 0.10984884 0.18519011 0.00087346026 0.07990052 0.05073103 0.18440807 0.14053848 0.075920776 0.18112023 0.09291959 0.06276817 0.022435913 0.050956357 0.17440002 0.033841636 0.02652046 0.13255225 0.1574196 0.060104165 0.10929554 0.05342536 0.19066912 0.047855165 0.10411796 0.07170167 0.008361108 0.16257596 0.14477117 0.14407814 0.082401626 0.14889084 0.07241699 0.041530162 0.0666748 0.017126847 0.24518003 -0.021072725 0.041884303 0.05211016 0.078643955 0.060201596 0.20938353 0.07696181 0.08534392 0.03982502 0.08305655 0.030125037 0.021525515 0.051637232 0.107756376 0.047704943 0.006542584 0.038587935 0.022428958 0.14381129 0.1601521 0.07469838 0.057828214 0.12562262 0.15072384 0.0583196 0.00011823333 -0.019618556 0.19369629 0.20957175 0.1948592 0.14554943 0.11309244 0.032105714 0.048492935 0.033594094 0.06217377 0.091563016 0.005848737 0.1273965 0.0016534831 0.016805522 0.0120190075 0.05517196
30194 0.08200395 0.049701188 -0.0540311 -0.04040379 0.010101647 0.37379304 1.0101087 -0.018501518 1.1472242 -0.1013618 -0.03812291 -0.09000982 -0.059440814 0.64955086 0.087207176 0.55809534 0.011616168 -0.033623293 0.0011180424 0.73699564 -0.01739964 0.016801778 -0.05118647 0.7758917 0.96412885 0.041083623 0.02915509 0.5189278 -0.045198847 0.85921943 0.05761426 0.040576153 -0.03934249 0.59960485 -0.043932095 0.06765256 -0.0688936 -0.0143525405 -0.057786398 0.3587457 0.7908456 -0.0040807314 -0.005319153 0.19859372 0.029843774 0.6009181 0.9551355 0.00738774 -0.032789875 0.0686074 0.0762372 0.041760556 0.03335851 0.0018005848 0.08457273 0.07076136 0.3501471 0.05530592 0.7468038 0.008627815 -0.001869561 0.022082807 1.0138994 -0.040396605 0.007729045 0.06026941 0.05340921 0.8933945 0.8258728 -0.0207815 0.087080784 -0.029628733 1.3674594 -0.041983746 -0.040866267 0.07798362 0.54616916 0.8636768 0.024863457 1.0493858 0.174397 -0.036410198 0.076568864 -0.016944645 0.06108563 -0.0065532755 0.0152394455 1.1137984 0.95628226 0.27493033 0.852925 0.009166106 0.55801105 -0.004100599 0.82676655 -0.026476078 -0.008176893 0.50264525 0.6933413 0.29051268 0.027801095 0.75862724 -0.08029081 0.73288256 0.108801484 0.7523707 0.3742729 0.06697803 0.050022073 0.57925844 -0.013471882 -0.12136713 1.1081245 0.04184258 0.5588616 0.089387655 0.50690454 0.8496896 -0.002439344 0.009398511 0.04151326 0.8275308 0.036314838 0.85273993 -0.012025711 -0.03955144 -0.04563452 -0.03968367
30140 0.09706838 0.11398384 0.09965321 0.008371417 0.051963925 0.08889496 0.066094086 0.03075791 0.10193369 0.08525818 0.08441866 0.05502444 0.007364874 0.032144736 0.06874815 0.0849634 0.12830621 0.089420944 0.046166167 0.074251264 0.04507934 0.017958457 0.044303708 0.0454828 0.014669447 0.08567739 0.124951094 0.024975915 0.059343066 0.0032590518 0.0064129694 0.07291971 0.01771815 0.08015842 0.063626766 0.13233578 0.07196707 0.090896964 0.052889947 0.13282222 -0.0021088629 -0.006466233 0.020590639 0.05926909 0.124374256 0.043769494 0.060151998 0.04022764 0.09388167 0.036517862 0.05637862 0.0049484246 0.102260254 0.07034755 0.1171244 0.07939094 0.09531152 0.09885777 0.07568905 0.06657688 0.044434138 0.07597504 0.10572682 0.06465412 0.00994915 0.040846467 0.07446629 0.012013699 0.08357197 0.09745235 0.086112946 0.08228172 0.023376623 0.09824245 0.03306682 0.0709946 0.11225965 0.11256251 0.021265129 0.094884574 0.07055032 0.080888055 0.05754276 0.024905305 0.13623472 -0.015078152 0.061937597 -0.012204882 0.019987343 0.08287523 0.1315957 0.09732062 0.06048851 0.06412432 0.027664784 0.06722053 0.04472712 0.03742521 0.095384054 0.04297358 0.000991691 0.011460015 0.042881146 0.04393195 0.056758758 0.058811378 0.07132536 0.04432288 0.07088752 0.05241217 -0.009048057 0.008116724 0.10672793 0.09261042 0.07310514 0.11989594 0.033903748 -0.009543716 0.012898114 0.0648785 0.066169314 0.017282521 0.0056956373 0.044523608 0.012788087 0.026183333 0.042400498 0.085103594
30980 0.062317 0.021894436 0.0060204384 0.039218444 0.06468978 0.052379914 -0.0026471221 -0.007847057 0.0021333601 -0.0010277285 -0.0027021416 -0.008713836 -0.0052370233 0.0454294 0.06511228 0.054781124 0.02412895 6.429747e-05 -0.0066091185 0.04912755 0.002829298 0.045477312 -0.00032015156 -0.004914007 0.01880404 0.06405256 0.023939291 0.027032182 -0.0068038753 0.011984015 0.018801121 0.056587115 0.049238823 -0.0062943287 -0.0019069685 0.043064788 -0.0060252207 -0.0007363926 -0.0056961467 0.013845921 0.006158434 0.021675866 0.03712769 -0.0053579374 0.015272494 0.041845463 0.059151895 0.0072718225 0.0010323523 0.004087758 0.05483218 0.0050062155 -0.004792799 -0.0038436104 0.04210949 0.040133797 -0.005544826 0.06935886 -0.0053767595 0.014559898 -0.006767984 -0.0026878808 0.038104698 -0.004234302 0.036906686 0.053730905 0.012414005 -0.009218283 -0.004813353 -0.0033185296 0.07524354 -0.0027705014 0.011445465 -0.000224804 -0.0044820425 0.057814576 -0.00014149387 -0.0007176439 0.045739017 -0.0040121507 0.0023032643 -0.0060899914 0.047530722 0.029506244 0.07950298 -0.003886022 -0.0036483034 0.011226275 0.030839605 -0.0050694062 0.026196588 -0.0014023121 0.025504123 -0.0017664271 0.03776412 -0.006203407 -0.0052026995 0.03178781 -0.00863909 0.029702406 0.010548258 -0.0017499552 -0.006714596 0.057394482 0.0606939 -0.007944178 -0.0054292385 0.046291564 0.0669309 -0.0070222504 0.023875924 -0.009269628 0.0064627347 0.07692083 0.070795126 0.005560108 0.04975311 0.006257361 0.030055765 -0.0051801605 -0.004796016 0.033780407 0.007649942 0.04041969 0.024037626 -0.0060562193 -0.003969668 -0.006219317
30928 0.072115295 0.060222894 0.0674365 0.011909652 0.044658463 0.038034324 0.010554992 0.02159826 0.038005788 0.04297282 0.038830638 0.029243346 0.009344314 0.022874594 0.05337376 0.046837397 0.0775846 0.041937716 0.014350167 0.044023007 0.01787164 0.012632365 0.020581288 0.0079342425 -0.0029735472 0.06656441 0.07112358 0.0066452534 0.031321414 0.0044870838 0.009667456 0.05839154 0.018187879 0.029739998 0.026703391 0.08880072 0.025982356 0.0486549 0.02149568 0.06079302 -0.00054230646 0.005049436 0.020561796 0.036635853 0.060129546 0.021828948 0.041821044 0.01907941 0.048215438 0.026153855 0.0425478 0.0074114073 0.043285027 0.02432524 0.05852415 0.041348312 0.03740823 0.07340478 0.018094307 0.053509586 0.013140088 0.028842157 0.055291418 0.021540722 0.01478628 0.032084342 0.03968645 -0.0027625915 0.026821423 0.04347619 0.06513071 0.032780927 -0.005932599 0.04600228 0.010849225 0.053852145 0.05011184 0.04084011 0.023241308 0.04298802 0.0326772 0.04783749 0.027346034 0.02630846 0.099591635 -0.004713961 0.019034611 -0.010795635 0.011925252 0.030172538 0.057270095 0.04531961 0.027654745 0.027941765 0.020150112 0.02407193 0.01209274 0.022230705 0.03944124 0.015151714 0.010239845 0.0015724495 0.013765162 0.02994086 0.04721939 0.010045344 0.024927707 0.035656106 0.05412409 0.010920362 0.004781023 0.0026441643 0.040152013 0.07077354 0.051982503 0.057168674 0.024666307 -0.0076927654 0.011196903 0.021919807 0.026083967 0.014443778 0.0079067005 0.01895668 0.014515772 0.019384556 0.015168725 0.05165769
33360 0.025258036 0.0010031185 -0.0067219147 0.021527024 0.032097485 0.030741027 -0.0022323101 -0.0072771744 -0.004045333 -0.0082287835 -0.0057765637 -0.010022204 -0.0072164903 0.020659233 0.027724689 0.02858831 -0.0017712223 -0.006763762 -0.0057258727 0.020660581 -0.0015991782 0.026959496 -0.004813112 -0.0032416445 0.011500494 0.024872294 -0.0004184417 0.017524363 -0.007242366 0.006476609 0.0054441625 0.020391572 0.025983451 -0.0062085395 -0.003324215 0.009734999 -0.0060016294 -0.007539403 -0.0049800593 -0.005318332 -0.00055528904 0.010807457 0.016027818 -0.008386454 -0.0031480053 0.022169039 0.029527554 -0.0015517389 -0.008187555 -0.0069509456 0.022208462 -0.003560293 -0.0077089076 -0.004943701 0.016530352 0.01589525 -0.00683836 0.029628308 -0.004902391 -0.0042507993 -0.0052184314 -0.005350842 0.012367667 -0.004417628 0.018771064 0.023967678 -0.00033147619 -0.004925531 -0.0058019543 -0.005860033 0.032975905 -0.0047530043 0.0073859324 -0.006237034 -0.00301833 0.024949905 -0.009500148 -0.0047432254 0.02172056 -0.008365176 -0.0036502613 -0.009275351 0.025796395 0.013096688 0.03110599 -0.007352389 -0.003993918 0.006179913 0.017837187 -0.005652879 0.0075285425 -0.008760329 0.008700153 -0.005294509 0.022608675 -0.005502576 -0.003128634 0.01427162 -0.009539314 0.01707605 -0.0040501095 -0.00097340794 -0.0052029407 0.029458284 0.024898706 -0.00544571 -0.0054509207 0.020315712 0.034720708 -0.0046707517 0.008395358 -0.0047330973 -0.005144867 0.03430294 0.03351662 -0.007445119 0.025820887 0.00031888118 0.020009922 -0.004817325 -0.0057152123 0.017001608 -0.0014533252 0.022091743 0.009917525 -0.007272459 -0.0028865268 -0.009970851
34783 0.06493496 0.04543988 0.03966966 0.027877318 0.053574815 0.043480705 6.632713e-05 0.006434121 0.01669951 0.024842286 0.017154321 0.01037725 0.0020126095 0.031691916 0.060710303 0.04956001 0.043892667 0.024593713 0.0020667184 0.04579705 0.0124445 0.02843609 0.011269901 0.00020587647 0.013713537 0.06368833 0.049964644 0.01807962 0.010019044 0.010248481 0.008452794 0.054812834 0.03579747 0.011348474 0.011943161 0.05752874 0.008996226 0.025628025 0.005983797 0.035220712 0.010006408 0.020573422 0.028487818 0.01644722 0.039208185 0.03858354 0.049685106 0.01639077 0.026304258 0.00882402 0.044173762 0.015178056 0.020028464 0.008707966 0.047356635 0.040302075 0.01750535 0.074554294 0.00380189 0.042656053 0.0018210906 0.011961837 0.055986334 0.007061841 0.033135965 0.04345439 0.016920984 -0.008531134 0.011181961 0.020777497 0.07271406 0.013599691 0.0041584536 0.024768915 0.0018134303 0.055935074 0.02611992 0.019493397 0.03662681 0.018735329 0.019226566 0.024352582 0.0413225 0.035066206 0.08983664 0.0037616517 0.0064426223 0.004739257 0.024904892 0.0122070415 0.039071694 0.023963416 0.033863563 0.012508517 0.029882077 0.009358307 0.0007601828 0.035797775 0.015034847 0.028619664 0.020598298 -0.0007002095 0.0021192182 0.044734094 0.055519145 -0.0014327032 0.009070836 0.04019625 0.058756158 -0.00048551755 0.02470788 -0.004210168 0.020841723 0.07120578 0.060081147 0.031836353 0.038027976 0.007342873 0.017586704 0.007245997 0.008144145 0.027137741 0.015615486 0.029772254 0.028459014 0.0063028764 0.0030918971 0.024409013
30466 0.04733134 0.3522387 0.070662886 -0.04005927 -0.025741512 0.26965603 0.6051262 0.038919326 0.59262675 0.28657895 0.2689805 0.14391325 0.039233174 0.15834285 0.037064925 0.1888077 0.21678591 0.3097095 0.31974316 0.25307888 0.226211 0.011114948 0.21316399 0.44056484 0.35870123 0.044078186 0.31530806 0.19952859 0.17049344 0.086711645 -0.0009815729 0.03199782 -0.017218377 0.43230844 0.2479493 0.12880404 0.3068366 0.26335034 0.23527898 0.56745994 0.065542124 -0.040856156 0.019651966 0.10543587 0.41271028 0.19419794 0.16656783 0.2183882 0.32513726 0.1542938 0.031624626 0.014676294 0.35835683 0.34732857 0.31495786 0.22390783 0.40606508 0.0361348 0.54842263 0.07418647 0.2706117 0.32365188 0.43713906 0.2715227 -0.03225072 0.04480931 0.1367399 0.35572797 0.5502178 0.27646494 0.01395191 0.30264157 0.48826247 0.3221069 0.20567259 0.021977462 0.5139536 0.5876047 0.0009868492 0.48233673 0.32967696 0.10359193 0.09906966 0.009504534 0.06334495 -0.045020387 0.3174023 0.17633224 0.10541496 0.38172925 0.5490311 0.34122425 0.31141827 0.28648117 0.082694195 0.28438282 0.310544 0.18121804 0.47679132 0.2578642 0.022876529 0.2303319 0.25118804 0.13971984 0.01006408 0.5240866 0.38432652 0.032628343 -0.017995227 0.41189724 -0.028827924 0.044797942 0.64365077 0.027920041 0.08626951 0.43080136 0.06185584 0.09203289 -0.038381696 0.31329188 0.31664905 0.10847875 0.020487549 0.27805936 -0.028334387 0.04351485 0.23429546 0.15005857
30994 0.14020745 0.048570093 0.014106741 0.06141702 0.13017868 0.10704441 0.002670704 -0.011911644 0.028249556 -0.007337609 0.0058042677 -0.013873188 -0.016001226 0.092125766 0.13081038 0.11531232 0.08969213 0.00040462738 -0.00780634 0.09950543 0.002741612 0.088651516 -0.0054072877 -0.004206274 0.012062869 0.14149733 0.05930127 0.037141114 -0.005705518 0.012289531 0.052878935 0.12504196 0.08612952 -0.0047517256 -0.0014124613 0.13287702 -0.004291688 6.2135514e-05 -0.0027976478 0.04772244 -0.008891658 0.010359035 0.070090644 -0.010188779 0.04631979 0.05534656 0.115286216 0.0071763075 0.003421122 0.017185207 0.12662831 -0.005711726 0.0015536993 0.0012819798 0.11934688 0.09614326 -0.0050527668 0.13535249 -0.0016248951 0.0026670243 -0.0035694134 0.0046809595 0.05452376 -0.00020895748 0.043790635 0.1072077 0.061666083 -0.011944377 -0.0037839967 0.0009162541 0.15178627 0.003612721 0.014790566 0.006822131 -0.0026091484 0.119386174 0.008572256 0.012585323 0.07900633 -1.8469623e-06 0.0054892916 -0.008548781 0.08285449 0.026669793 0.17022945 -0.019086545 -0.00014006505 0.0011522592 0.037930638 -0.004083568 0.08203678 -0.00092140294 0.029256074 -0.00081877026 0.05393309 -0.0070651486 -0.00019948038 0.028760301 -0.009067234 0.037305754 -0.006553258 -0.00862809 -0.007814695 0.108787894 0.119951606 -0.006981603 -0.005773692 0.093796834 0.1357177 -0.005232258 0.008732943 -0.013406695 0.025181795 0.16770177 0.14439216 0.028181305 0.09007677 -0.005788352 0.057815302 -0.004436405 0.0006789984 0.045745667 -0.0031716423 0.06872289 0.0154475225 -0.012940393 -0.0025109015 -0.008428927
32575 0.23970172 0.38001004 0.27335817 0.042376112 0.11354527 0.29281938 0.37174377 0.11855671 0.43970874 0.3175387 0.32408187 0.21438184 0.07483109 0.13608687 0.16661295 0.25271752 0.44840428 0.3320538 0.26915416 0.24994399 0.19936942 0.09053864 0.21008733 0.2756463 0.14264241 0.2079671 0.42349258 0.117422566 0.25114632 0.02817631 0.03825856 0.18927142 0.07427798 0.3634333 0.25984913 0.36943778 0.31665105 0.3363204 0.24940032 0.525685 0.02756058 -0.017657308 0.08866172 0.19422825 0.47280332 0.13361302 0.18016832 0.19892564 0.36431372 0.1989133 0.16192208 0.049314845 0.3974919 0.33215114 0.41489717 0.26997504 0.36642233 0.22027236 0.40331858 0.19376145 0.24427114 0.350647 0.33517417 0.29919583 0.020781813 0.1345475 0.28992623 0.17188533 0.37815964 0.35469827 0.20185477 0.34889993 0.2071641 0.36637917 0.18280935 0.16645695 0.4423133 0.46202132 0.081460744 0.37799022 0.26827207 0.23431158 0.15994 0.075098924 0.3128855 -0.008191589 0.29604444 0.023984073 0.050099105 0.33497354 0.4901179 0.3729113 0.20533931 0.29793236 0.055379324 0.29559377 0.25910386 0.104548834 0.3975209 0.18034656 0.04713142 0.12447903 0.23020387 0.1469598 0.13148302 0.34845045 0.32901818 0.1171764 0.14411417 0.30201873 -0.017104331 0.08035427 0.45936742 0.21938697 0.19217028 0.4564794 0.09451819 0.029042631 0.041348465 0.30569953 0.3201608 0.051477425 0.056591097 0.1832875 0.05164037 0.10663007 0.2245427 0.2646322
31150 5.3377058e-05 -9.423948e-05 -6.315905e-05 0.0001391322 0.00015567968 0.000111824986 -1.9231893e-05 -8.753344e-06 -6.3432104e-05 -7.806293e-05 -5.8762533e-05 -0.00010214921 -1.2264954e-05 0.0001263189 6.0005914e-05 8.419403e-05 -0.00011833729 -6.3629006e-05 -9.103988e-05 0.000102224236 -1.8244578e-05 9.2206086e-05 -2.3555518e-05 -3.6718975e-05 0.00017080504 0.000111804155 -8.92121e-05 0.00010471721 -3.8419887e-05 0.0002603213 4.419296e-05 5.8849193e-05 7.389411e-05 -3.1398784e-05 -2.7282196e-05 -5.7698362e-05 -3.485433e-05 -6.983548e-05 -2.9694977e-05 -5.824012e-05 0.00014221556 0.00012835169 5.799416e-05 -5.9419493e-05 -9.558138e-05 0.00015228217 0.00015917892 -1.9207218e-05 -8.3050676e-05 -0.00011486506 5.424674e-05 0.00017311593 -5.4798358e-05 -9.2104114e-05 -2.2706783e-05 1.9681833e-05 -2.5193312e-05 8.9560104e-05 -8.6243344e-05 -1.2782308e-05 -2.1747695e-05 -2.5733145e-05 0.00011585628 -2.7517737e-05 0.00018451318 9.90032e-05 -0.00014416818 1.298801e-05 -8.859545e-05 -2.5172538e-05 0.00014497594 -2.970728e-05 0.00018419717 -6.9741094e-05 -1.8532755e-05 8.258616e-05 -7.852655e-05 -7.385103e-05 0.00011004508 -8.662712e-05 -4.6060373e-05 -5.345222e-05 0.00010717874 0.0001591055 5.7823938e-05 0.00020766922 -2.5127207e-05 0.00019960348 0.00018747167 -5.478612e-05 -6.7445308e-06 -6.9138165e-05 7.689076e-05 -4.1021067e-05 0.00015787661 -2.5700552e-05 -2.254784e-05 0.00016043313 -7.436208e-05 0.00014822508 0.00016901537 2.5750554e-05 -1.7738936e-05 0.00016962546 0.0001100222 -4.6309786e-05 -7.2028015e-05 9.094516e-05 9.292749e-05 -1.9140352e-05 0.00010164709 -1.8975014e-05 -6.1025214e-05 9.080463e-05 0.00016239056 -7.191679e-05 0.00014265715 0.00017279988 0.0001290784 -2.4631781e-05 -8.685576e-05 0.000211713 0.00010028711 0.00015578174 0.00020942547 -3.6340756e-05 -2.5822395e-05 -6.8638474e-05
30476 0.033214737 0.021627313 0.017575497 0.012680279 0.030725667 0.031720556 0.002152865 -6.1027233e-05 0.011978212 0.00908362 0.010318891 0.0054151746 -0.004273419 0.012999045 0.029256672 0.029841378 0.01655539 0.012516972 0.0019402256 0.022660818 0.007568194 0.011649128 0.0035106267 -0.0006283865 0.0015182203 0.03095154 0.01920519 0.010100531 0.0054889275 -0.0001712218 -0.0024067387 0.02521833 0.01664878 0.0057912744 0.0089085875 0.025515562 0.0065172045 0.010752158 0.0046773544 0.01584487 -0.0023739731 0.008800364 0.007297691 0.006065476 0.0176924 0.023572264 0.026819114 0.0046144407 0.010391195 -0.0008317386 0.018436512 0.0011003831 0.010860539 0.0061098076 0.023094647 0.020218262 0.0115119815 0.03894109 0.0036746007 0.014114355 0.0022010538 0.007482037 0.03087439 0.005001172 0.015242708 0.016169315 0.0063368995 -0.0071308143 0.0057903333 0.012932663 0.03633401 0.009476488 -0.0017056306 0.013721029 0.0013397102 0.028423274 0.010858688 0.010390198 0.012602092 0.012609964 0.012508172 0.0129391635 0.026152907 0.015885456 0.0470593 -0.008589147 0.0061912616 -0.0063051293 0.01479964 0.007999718 0.024079598 0.0112676835 0.019292107 0.0049690707 0.020435864 0.0050734375 0.0006647352 0.021271594 0.009306883 0.014379711 0.0014323683 -0.002851949 0.0017004029 0.0201792 0.026206119 -0.0013886503 0.005903974 0.018754775 0.0358154 0.00015226539 0.005057348 -0.0032803714 0.008871004 0.037057847 0.032927845 0.013949431 0.021330262 -0.006718263 0.012394223 0.0060049756 0.0059109977 0.011423707 0.0032412298 0.017128503 0.0094837295 -0.00087596814 0.003836007 0.012220525
34653 0.08847415 0.06745013 0.067524664 0.02190514 0.06420282 0.062493004 0.014646114 0.0144454995 0.04602361 0.04065509 0.039243475 0.02522048 -0.00040983708 0.033913925 0.07060578 0.069036886 0.0751564 0.0429903 0.01023091 0.059900805 0.01976853 0.022673637 0.01625252 0.006990477 0.0063428963 0.08114843 0.07315039 0.019086825 0.026859595 0.010552103 0.004454109 0.068981454 0.029690064 0.030608008 0.026598485 0.09385375 0.025176356 0.04668368 0.018727917 0.063989274 0.0026475794 0.011221513 0.022678846 0.03360302 0.06287676 0.043348044 0.06334553 0.017100846 0.046394162 0.014668151 0.05076607 0.0058881417 0.043236777 0.022770748 0.067860804 0.05073772 0.041928153 0.095495 0.019613083 0.053374413 0.009274399 0.02703201 0.078029424 0.01903814 0.026641684 0.040706933 0.035347898 -0.0066988673 0.031042444 0.045325436 0.086985596 0.03276885 0.0020096172 0.04720302 0.006777316 0.06991068 0.051714096 0.046687163 0.03160316 0.04981966 0.036847755 0.047560792 0.048114493 0.0356427 0.12345559 -0.012120979 0.018640704 -0.004742994 0.029407915 0.032302022 0.0712904 0.04503227 0.042149883 0.023593841 0.0403639 0.021680923 0.0073574763 0.040833037 0.041931663 0.029701913 0.007210412 0.00138014 0.009494255 0.047885798 0.06267322 0.00878982 0.025290672 0.04567469 0.07718539 0.009303922 0.008752169 -0.005475743 0.043738242 0.090756744 0.07442508 0.057584107 0.043037225 -0.0063394713 0.020634107 0.020407297 0.023951095 0.027631292 0.008824976 0.035393942 0.021767708 0.011997403 0.011786765 0.04992248
30436 0.08284492 0.11126256 0.09412135 0.008050937 0.042079348 0.084739506 0.06472563 0.032380603 0.09086927 0.09157011 0.08498581 0.055074178 0.012256417 0.02357787 0.057758234 0.07273555 0.115054764 0.093195066 0.053881064 0.06289852 0.05034173 0.016912604 0.051077418 0.04768996 0.017846033 0.074004084 0.120743945 0.028425425 0.060917147 -3.5266625e-05 0.004866743 0.06185991 0.014434466 0.08036175 0.069091395 0.116294056 0.07792421 0.09298078 0.057781864 0.1293794 -0.0043711937 -0.000721187 0.020441465 0.05551944 0.12427729 0.04156374 0.046303857 0.046057396 0.09586366 0.03600895 0.045891237 0.0108041465 0.1057906 0.07634909 0.11302621 0.07616608 0.09710325 0.086479254 0.075657405 0.06708647 0.049329545 0.08073967 0.09238679 0.071032666 0.011321893 0.036818884 0.065515265 0.010716998 0.079881504 0.09929825 0.07453796 0.08673325 0.02289496 0.10038637 0.040891223 0.060459338 0.109578244 0.10868024 0.018842896 0.08205773 0.07158997 0.07817932 0.055823207 0.027815854 0.118056424 -0.007067721 0.06751564 -0.016088784 0.014453784 0.08673573 0.11844424 0.10106026 0.05694646 0.072000064 0.019820381 0.07473291 0.05455045 0.036943033 0.09191939 0.04966939 0.007062685 0.010071984 0.051089387 0.034285694 0.046715993 0.06181364 0.07391593 0.03860381 0.060032565 0.054430503 -0.0030553157 0.014361252 0.09981809 0.07936491 0.058969736 0.12023998 0.025783133 -0.010732288 0.013649989 0.071274176 0.068380065 0.01162685 0.00948823 0.039434046 0.01812705 0.027630266 0.04965456 0.082984224
30599 0.0835916 0.0444599 0.028420286 0.028633317 0.0690677 0.056496195 0.0025646393 -0.0007657859 0.021286938 0.013167878 0.011724134 0.0023876457 -0.0022167868 0.047043186 0.07548601 0.062145706 0.057907686 0.014648867 -0.00015565606 0.058084384 0.0076541128 0.039719217 0.006495312 0.0007835001 0.0036333408 0.08333151 0.051924482 0.017545426 0.0043382207 0.0030726655 0.025185598 0.07305755 0.041760582 0.0052512325 0.006479653 0.07912949 0.0041982234 0.015851112 0.0028641263 0.04045975 -0.006505518 0.0069077727 0.037439816 0.007317837 0.04027386 0.03319101 0.061461486 0.012608722 0.018898306 0.016016366 0.06712063 -0.0029107833 0.011091383 0.0057086055 0.06675163 0.05390327 0.008822748 0.08386563 0.0029431544 0.02413278 0.00087154313 0.008841302 0.046965837 0.004270456 0.026019838 0.057964355 0.031768646 -0.008681828 0.006237211 0.0120681925 0.08899528 0.0095096035 0.002259301 0.016774897 0.00021352038 0.06855254 0.020520354 0.016205547 0.042962916 0.0130555555 0.013443509 0.011008559 0.044875555 0.020407947 0.10833319 -0.014968993 0.0039322427 -0.005866845 0.020803418 0.00631822 0.05041027 0.01533062 0.02656479 0.008040271 0.029551946 0.0023836854 0.0010591896 0.023890467 0.006689806 0.022753559 0.0036552518 -0.005252578 -0.00052898313 0.057325426 0.068138875 -0.002096965 0.0041908957 0.052084945 0.072947934 -0.00056786434 0.012067098 -0.0087009845 0.024270507 0.093067974 0.07870096 0.0302607 0.04644986 -0.007797063 0.023824425 0.0032986915 0.0047446373 0.025907246 0.0009919226 0.035753842 0.009793788 -0.00035988525 0.0011838503 0.011209904
32448 0.036699995 0.01799169 0.0095766075 0.016080657 0.03612965 0.036322434 0.00092592504 -0.0031254347 0.007996882 0.0033510234 0.005088645 -0.000104322244 -0.0062307515 0.018005565 0.033561446 0.033622593 0.013156285 0.00690228 -0.00038635635 0.025675682 0.005148329 0.017941508 0.0011932164 -0.0016191847 0.0016365709 0.03506723 0.015258238 0.012246885 0.00108121 -0.0012923242 0.0015581881 0.02868185 0.020987056 0.0014625154 0.0053068004 0.02587904 0.0027448484 0.0047032824 0.0020529625 0.011254982 -0.006625839 0.0072036404 0.01138796 0.0008053339 0.012762619 0.024302306 0.031027505 0.0027801376 0.004210565 -0.0021446124 0.024706183 -0.004743355 0.004770033 0.0030770449 0.026400337 0.023054862 0.0053111473 0.040531762 0.0008259975 0.007022702 0.0002941766 0.004253856 0.026855275 0.0023305058 0.015825815 0.0219259 0.0051951357 -0.007494806 0.002283455 0.0067371796 0.041191176 0.0054835794 -0.00070693187 0.007878008 -0.00016518905 0.03156756 0.0046550455 0.0060899546 0.016575666 0.0056445356 0.008765974 0.0054423315 0.028840378 0.013036189 0.048982333 -0.013657553 0.0036567447 -0.006894673 0.015301705 0.003802486 0.023355253 0.004997906 0.017150074 0.0020961224 0.02214068 0.0014963088 -0.00047125472 0.019054437 0.0027049289 0.014981788 -0.004409219 -0.003997527 -7.8805046e-05 0.026146283 0.029656734 -0.0030367225 0.0021881089 0.022392897 0.040269457 -0.001796757 0.00394781 -0.004896712 0.00600794 0.042649068 0.03854543 0.007980385 0.0250515 -0.010422302 0.016179478 0.002927927 0.0023959598 0.01306152 -0.0017247505 0.02069942 0.006065646 -0.0037286293 0.0016916356 0.004488706
33367 0.062498484 0.049138527 0.046239432 0.02523969 0.04497981 0.021452112 -0.0017800191 0.010978672 0.0126802595 0.0322503 0.01520012 0.014954333 0.013853025 0.035575558 0.06017199 0.03535617 0.058508016 0.026206521 0.0024450433 0.04525769 0.01174289 0.023593945 0.017520027 -8.503681e-05 0.0153894555 0.0653512 0.060810696 0.011270873 0.010891512 0.014846979 0.021660956 0.061911788 0.032420706 0.009783481 0.008601955 0.066715665 0.006476067 0.030618768 0.0044942587 0.04523888 0.019767344 0.02169844 0.03693633 0.021621263 0.044905055 0.028626362 0.042237468 0.023410842 0.035113987 0.028921293 0.04988046 0.025832914 0.018842692 0.0073180245 0.04293107 0.03815366 0.013000911 0.06932894 0.0021596008 0.05739089 0.0009998402 0.011325004 0.05153708 0.0058857542 0.032125648 0.047571406 0.025827251 -0.0057176906 0.010884178 0.016829848 0.06827309 0.0104900105 0.006188832 0.024107583 0.0008919728 0.053812142 0.033946335 0.016668411 0.04076463 0.018426895 0.017359331 0.024605474 0.026098985 0.035800137 0.084911995 0.01902857 0.003991389 0.013469462 0.018715693 0.008931208 0.03008219 0.028944546 0.030931551 0.01628295 0.018614989 0.00777625 -0.00038742882 0.03018131 0.014147325 0.022082271 0.03829849 0.001020023 0.0022716585 0.040174067 0.058481317 -0.000910454 0.0074609388 0.04114355 0.044200357 -0.00073940284 0.035284724 -0.0033308351 0.02843066 0.06559794 0.05300104 0.038548753 0.03114721 0.018914005 0.007871363 0.004937929 0.0077582435 0.028406411 0.024079744 0.023067959 0.03217112 0.0145007 0.0007081523 0.026575252
33277 0.028297162 0.009722512 0.0021656768 0.016100656 0.030930761 0.03049556 0.0002867744 -0.0045858766 0.0035026078 -0.0015866284 0.0007474057 -0.0032843759 -0.0063676722 0.016826488 0.027301505 0.028255567 0.0059045735 0.0014175592 -0.0020930686 0.021269262 0.0022213021 0.018341996 -0.0013256315 -0.0021813519 0.0048095807 0.027297663 0.007171265 0.0128414035 -0.0020587211 0.0016073687 0.0024037992 0.022417972 0.0201407 -0.001434847 0.0016534531 0.0167889 -0.00041856512 -0.00040973283 -0.000741638 0.0041648597 -0.0031524806 0.007666267 0.010941848 -0.002598735 0.005518991 0.021369047 0.027428692 0.00041661292 -0.0010792123 -0.003939509 0.020743335 -0.0035696619 -6.45789e-05 0.00019556694 0.019395102 0.017770082 0.00064419274 0.031728342 -0.0010004651 0.0014473717 -0.0016289054 0.000546176 0.019226689 -0.00025310507 0.014955477 0.019305995 0.002435584 -0.0056789014 -0.0005933315 0.0014526474 0.03314035 0.0013215723 0.002732778 0.0020186773 -0.0014708424 0.025515478 -0.0009805292 0.0015445994 0.015629893 0.0007142397 0.0038552755 -0.0002895888 0.024551393 0.011318795 0.03662305 -0.0098561 0.0008202975 -0.0012677604 0.015196355 0.00026054343 0.015878493 -0.00043035767 0.012636014 -0.0009837162 0.020570144 -0.0012581949 -0.0017221264 0.015831176 -0.0015491372 0.013536095 -0.0042223204 -0.002240761 -0.0018898428 0.024141945 0.024554849 -0.0034461615 -0.0006188163 0.018704481 0.033943262 -0.0025354528 0.004505489 -0.0046799364 0.0017931313 0.034583878 0.032634147 0.0013518912 0.022716513 -0.0053980215 0.015856136 -2.4970162e-05 -0.00033723548 0.013234738 -0.0014894106 0.01930139 0.007024857 -0.004903769 -0.00015900508 -0.001139528
